Frame,root_translateX,root_translateY,root_translateZ,root_rotateX,root_rotateY,root_rotateZ,left_hip_pitch_joint_dof,left_hip_roll_joint_dof,left_hip_yaw_joint_dof,left_knee_joint_dof,left_ankle_pitch_joint_dof,left_ankle_roll_joint_dof,right_hip_pitch_joint_dof,right_hip_roll_joint_dof,right_hip_yaw_joint_dof,right_knee_joint_dof,right_ankle_pitch_joint_dof,right_ankle_roll_joint_dof,waist_yaw_joint_dof,waist_roll_joint_dof,waist_pitch_joint_dof,left_shoulder_pitch_joint_dof,left_shoulder_roll_joint_dof,left_shoulder_yaw_joint_dof,left_elbow_joint_dof,left_wrist_roll_joint_dof,left_wrist_pitch_joint_dof,left_wrist_yaw_joint_dof,right_shoulder_pitch_joint_dof,right_shoulder_roll_joint_dof,right_shoulder_yaw_joint_dof,right_elbow_joint_dof,right_wrist_roll_joint_dof,right_wrist_pitch_joint_dof,right_wrist_yaw_joint_dof
0,0.673276960849762,0.12284595519304276,121.39112854003906,0.5577188198949633,4.802671294399109,-86.32848551397565,-7.6030283,3.124748,0.6939768,24.769123,-21.494282,-3.5281134,-4.356328,-10.214888,-10.200144,25.881903,-23.206066,9.56123,-1.2099928,-1.3018547,6.372983,-2.8443289,22.538368,-34.460114,49.022053,2.151471,-2.2600884,-8.63732,0.28099972,-19.704124,36.602856,42.300694,-6.936919,3.560802,-1.0865324
1,0.7202260494232178,0.07582195848226547,121.34622192382812,0.6034609097911328,4.863939183218072,-86.3276634673445,-7.736957,3.0243506,0.6872545,25.025494,-21.72144,-3.4830537,-4.4747066,-10.331619,-10.147033,26.097359,-23.426334,9.636863,-1.1889821,-1.3478637,6.4063897,-2.844893,22.55175,-34.386288,48.952744,2.1633766,-2.2602284,-8.65221,0.22892524,-19.721989,36.54877,42.324615,-6.9186363,3.5180042,-1.1153433
2,0.7645783424377441,0.03190544247627258,121.29826354980469,0.6504503320375005,4.92722617045498,-86.32820715469147,-7.8660235,2.9234393,0.681641,25.267744,-21.943256,-3.4381232,-4.5898733,-10.44735,-10.092674,26.298128,-23.642448,9.711401,-1.1736443,-1.3912797,6.445146,-2.8345025,22.570354,-34.295223,48.862904,2.180342,-2.2594972,-8.6738615,0.18400006,-19.758888,36.496597,42.323658,-6.899205,3.4723926,-1.1411161
3,0.8137438297271729,-0.015085505321621895,121.2457046508789,0.6946072457174853,4.986203905939724,-86.32591791751878,-8.004265,2.8250399,0.6731691,25.540443,-22.17724,-3.3924496,-4.7109747,-10.564562,-10.040984,26.526894,-23.86603,9.788245,-1.1825218,-1.4308064,6.4677205,-2.8044016,22.581861,-34.18763,48.788242,2.200927,-2.2611897,-8.689656,0.35972607,-19.787611,36.330887,42.1603,-7.0650854,3.437623,-1.1642205
4,0.8685272932052612,-0.060661304742097855,121.18680572509766,0.732519312114934,5.035130294831195,-86.31648251717195,-8.165329,2.731567,0.65826774,25.886896,-22.44225,-3.3450763,-4.848166,-10.686229,-9.995572,26.827389,-24.109877,9.870732,-1.1467484,-1.4619377,6.535453,-2.8309674,22.597395,-34.12835,48.73324,2.218366,-2.268373,-8.6857605,0.18748005,-19.844408,36.32638,42.25702,-6.9367566,3.4156184,-1.1867552
5,0.9229109883308411,-0.11063690483570099,121.11929321289062,0.7583098552701383,5.072137052088458,-86.29743429084084,-8.362924,2.649435,0.63264525,26.33736,-22.746178,-3.2974477,-5.0005417,-10.807069,-9.960372,27.205,-24.374052,9.9609785,-1.1342003,-1.4759535,6.6132765,-2.847784,22.613186,-34.05615,48.692154,2.247348,-2.285819,-8.657387,0.10681285,-19.908504,36.270535,42.281498,-6.885308,3.4237561,-1.2050065
6,0.9758275151252747,-0.16282011568546295,121.04708099365234,0.7756824266181257,5.100507164858806,-86.27165773185422,-8.584959,2.5752993,0.5997848,26.859316,-23.077723,-3.2495708,-5.163701,-10.927438,-9.932152,27.637384,-24.652702,10.05657,-1.1199057,-1.4797473,6.706468,-2.8779635,22.630203,-33.995453,48.667007,2.279587,-2.3103764,-8.610091,-0.008830664,-19.977987,36.22184,42.334026,-6.8053718,3.4512503,-1.2207528
7,1.0330634117126465,-0.22327157855033875,120.96942901611328,0.7944559439930216,5.121363685680092,-86.24239357388997,-8.815975,2.4978778,0.5651759,27.423164,-23.428556,-3.1971357,-5.3424144,-11.0586,-9.905511,28.130867,-24.950165,10.155452,-1.112195,-1.4861339,6.8000073,-2.9006383,22.649311,-33.925053,48.652256,2.3117704,-2.3336124,-8.562224,-0.03336336,-20.05122,36.122658,42.3154,-6.8078732,3.4841797,-1.2329253
8,1.0969568490982056,-0.2818475067615509,120.88548278808594,0.8240599709012493,5.135665653099202,-86.21350229160886,-9.035752,2.4067504,0.5364427,27.990385,-23.786137,-3.1374142,-5.540824,-11.21053,-9.873004,28.688866,-25.269623,10.253794,-1.094436,-1.5087285,6.8946743,-2.9206898,22.671522,-33.846893,48.645233,2.338466,-2.3472404,-8.529835,-0.04977688,-20.133217,36.02157,42.288162,-6.828026,3.5049496,-1.2433586
9,1.1607096195220947,-0.3423282504081726,120.79609680175781,0.8685887416499579,5.145037429663973,-86.18646816306764,-9.246951,2.296936,0.51533586,28.563646,-24.15375,-3.0670145,-5.764375,-11.388201,-9.835462,29.319122,-25.621069,10.351479,-1.0643008,-1.5522592,6.989386,-2.939476,22.695705,-33.75661,48.650032,2.3559854,-2.3461926,-8.519443,-0.07891408,-20.222342,35.932686,42.268497,-6.86419,3.5079103,-1.2522104
10,1.2253168821334839,-0.40857991576194763,120.70291900634766,0.9225564428191171,5.148417167498923,-86.1592542156545,-9.455131,2.1745386,0.4983834,29.15417,-24.533371,-2.9885893,-6.007879,-11.584801,-9.7956705,30.013813,-25.997807,10.450237,-1.026406,-1.6091409,7.087582,-2.9564552,22.722147,-33.656197,48.664516,2.369426,-2.3358505,-8.52172,-0.11651726,-20.319288,35.85154,42.25267,-6.9118543,3.5021982,-1.259251
11,1.289473056793213,-0.48196372389793396,120.60103607177734,0.9815460665951052,5.143297972707786,-86.12957218816423,-9.655307,2.0449398,0.4837741,29.75752,-24.921053,-2.9073575,-6.262584,-11.793957,-9.750193,30.762419,-26.383642,10.550487,-0.9878849,-1.6746238,7.188621,-2.9682512,22.75192,-33.548588,48.682896,2.3834147,-2.3238485,-8.528847,-0.13807425,-20.422068,35.763832,42.223995,-6.967891,3.4935591,-1.2658814
12,1.3566670417785645,-0.5640450716018677,120.49507141113281,1.0413756951429314,5.127274767769383,-86.09514401529134,-9.840299,1.9132719,0.469737,30.364,-25.30992,-2.8284574,-6.5187154,-12.008835,-9.695722,31.551798,-26.760775,10.652603,-0.9516485,-1.7447656,7.294634,-2.9707084,22.78654,-33.436832,48.69623,2.4068637,-2.3178222,-8.533126,-0.15381132,-20.528265,35.673573,42.192787,-6.999647,3.4872067,-1.274123
13,1.4262837171554565,-0.6438586115837097,120.38338470458984,1.1079123012447434,5.096427840467103,-86.05964259284914,-10.001664,1.7743897,0.46458068,30.967232,-25.698326,-2.7520235,-6.7714353,-12.235551,-9.626195,32.37891,-27.137142,10.757005,-0.9161899,-1.8274678,7.4087553,-2.96544,22.827951,-33.324425,48.70487,2.4483578,-2.3208587,-8.5319195,-0.15862557,-20.635717,35.582706,42.154884,-7.003534,3.4834297,-1.2851592
14,1.493693470954895,-0.7303885817527771,120.27215576171875,1.181699683049305,5.0532133196704,-86.02268281518616,-10.145969,1.6269081,0.46565628,31.574846,-26.090492,-2.6750748,-7.02659,-12.475135,-9.545926,33.25081,-27.518328,10.864624,-0.87725127,-1.9234923,7.5311975,-2.9514494,22.876629,-33.208084,48.70789,2.5048509,-2.3283584,-8.529852,-0.18301265,-20.745337,35.505894,42.133984,-6.968839,3.4791949,-1.2983308
15,1.5614947080612183,-0.8202677369117737,120.1562271118164,1.2486564152964643,5.004397598551729,-85.97657006271939,-10.285985,1.4839584,0.45709148,32.19353,-26.48615,-2.6001766,-7.2880983,-12.711548,-9.465004,34.1641,-27.87981,10.973964,-0.8457828,-2.015899,7.6532097,-2.9300988,22.932852,-33.08646,48.70836,2.5487094,-2.3364954,-8.529002,-0.20152149,-20.85532,35.4207,42.113415,-6.928223,3.4760256,-1.3118521
16,1.628370761871338,-0.9150823354721069,120.04106903076172,1.2953776008047735,4.956825947288327,-85.91324961942522,-10.435234,1.3575541,0.4220625,32.831745,-26.88629,-2.5290296,-7.559734,-12.9301195,-9.39485,35.115665,-28.197165,11.084613,-0.82870156,-2.0893435,7.7667146,-2.9013317,22.996395,-32.958424,48.707916,2.5565677,-2.341361,-8.531683,-0.211775,-20.965296,35.31395,42.096386,-6.8971434,3.47494,-1.3241314
17,1.7027473449707031,-1.018694281578064,119.92765808105469,1.317146312042929,4.912616524225715,-85.82762841308632,-10.601401,1.2491672,0.35307795,33.499683,-27.293144,-2.4588115,-7.8258057,-13.1243515,-9.344132,36.076027,-28.476517,11.198146,-0.8309642,-2.1357238,7.8666897,-2.8641386,23.066668,-32.824253,48.701546,2.5028892,-2.340062,-8.543899,-0.20695879,-21.075459,35.183746,42.081066,-6.8812413,3.4784715,-1.3314393
18,1.776999831199646,-1.1281764507293701,119.81507873535156,1.321688312683825,4.868092104105155,-85.72486333694644,-10.774692,1.152736,0.26006585,34.187737,-27.704391,-2.3897603,-8.089222,-13.3032,-9.305175,37.05552,-28.726383,11.3144045,-0.8479776,-2.164973,7.957451,-2.8192732,23.143734,-32.68483,48.691704,2.4060133,-2.335379,-8.562738,-0.18340448,-21.18586,35.031693,42.062283,-6.8780627,3.4853413,-1.3355145
19,1.8482884168624878,-1.2429890632629395,119.70243835449219,1.3128590211960327,4.821272750254908,-85.61256025115301,-10.946115,1.0687484,0.15269054,34.88296,-28.117704,-2.3283312,-8.384611,-13.474382,-9.263917,38.116165,-28.928106,11.429698,-0.8707437,-2.1867774,8.047589,-2.771291,23.228079,-32.542374,48.68928,2.3084695,-2.3316061,-8.576381,-0.16022205,-21.295073,34.861507,42.04818,-6.8732347,3.4909391,-1.3434093
20,1.9207348823547363,-1.360295295715332,119.58901977539062,1.2947983575072832,4.770192346573725,-85.49833686684285,-11.105665,0.99790233,0.040586207,35.570354,-28.530062,-2.280988,-8.745454,-13.644976,-9.206688,39.317383,-29.062109,11.541731,-0.8935336,-2.2116315,8.142919,-2.7267084,23.32106,-32.400013,48.70943,2.2480078,-2.3333557,-8.573024,-0.13078122,-21.400007,34.662598,42.029316,-6.876398,3.4907749,-1.3618238
21,1.9898613691329956,-1.4853318929672241,119.4754867553711,1.2610964212189661,4.71253550782863,-85.37626357909575,-11.251453,0.94744354,-0.08343082,36.251064,-28.94333,-2.2557204,-9.155266,-13.802725,-9.142176,40.645016,-29.135191,11.654534,-0.9188033,-2.2362258,8.243939,-2.6843,23.423319,-32.26147,48.759254,2.2471344,-2.3429017,-8.540552,-0.07549994,-21.49547,34.41966,41.996887,-6.9105935,3.4815974,-1.3972439
22,2.057882785797119,-1.6080878973007202,119.36199951171875,1.2122240363529486,4.650101048745151,-85.24474045889812,-11.388349,0.9143957,-0.22150299,36.93053,-29.35794,-2.2467008,-9.6038475,-13.947414,-9.074656,42.076214,-29.153763,11.770019,-0.9469012,-2.258431,8.347503,-2.6427667,23.535057,-32.12599,48.83078,2.2809932,-2.3572981,-8.488032,-0.014236653,-21.580648,34.146294,41.96955,-6.9585433,3.4660654,-1.4449219
23,2.1287951469421387,-1.736209750175476,119.24543762207031,1.1626900181615445,4.586833970150604,-85.11854935691281,-11.516915,0.8841544,-0.3548027,37.602306,-29.768808,-2.2407053,-10.130637,-14.101647,-8.983095,43.650547,-29.093004,11.882832,-0.97295666,-2.289782,8.452577,-2.5987663,23.656353,-31.981287,48.909126,2.3219438,-2.3732994,-8.436712,0.042849794,-21.657524,33.853508,41.943146,-7.0011845,3.4496071,-1.4938945
24,2.2026209831237793,-1.8631902933120728,119.12747955322266,1.1271972395517684,4.526688963075781,-85.01240843289241,-11.636949,0.84235126,-0.46463075,38.257614,-30.169975,-2.224349,-10.773864,-14.286522,-8.846654,45.4055,-28.927017,11.989351,-0.99234295,-2.3416467,8.557973,-2.539898,23.786358,-31.80751,48.97189,2.3498516,-2.387384,-8.408282,0.09693736,-21.729189,33.546844,41.90162,-7.026396,3.4381797,-1.5327628
25,2.2721164226531982,-1.992401123046875,119.01287078857422,1.1113192586612113,4.471174679583712,-84.9275617774247,-11.747975,0.78055364,-0.54801327,38.88949,-30.55223,-2.1937032,-11.545506,-14.50282,-8.651048,47.366333,-28.640436,12.119228,-1.0051061,-2.4169312,8.664254,-2.4663444,23.923779,-31.598915,49.0206,2.3553894,-2.4030275,-8.4138155,0.117109165,-21.800564,33.244667,41.871067,-6.984509,3.4349062,-1.5552217
26,2.340475559234619,-2.1172142028808594,118.89464569091797,1.1060339817859361,4.418156587482116,-84.85713043869148,-11.850402,0.7082183,-0.61420727,39.503468,-30.920694,-2.1560106,-12.421416,-14.733511,-8.411697,49.501335,-28.247248,12.272196,-1.0167035,-2.5079806,8.770666,-2.3740315,24.067535,-31.356525,49.058456,2.3569472,-2.4206238,-8.440702,0.14184749,-21.870733,32.92525,41.823208,-6.9176283,3.4368796,-1.5677911
27,2.4130899906158447,-2.2375504970550537,118.77201843261719,1.1058341690141515,4.365870794276054,-84.8040962060296,-11.945343,0.6374086,-0.66231155,40.11199,-31.292725,-2.1152513,-13.3868,-14.97496,-8.151112,51.765034,-27.765837,12.399606,-1.0197109,-2.611437,8.881158,-2.2799516,24.22104,-31.102608,49.087032,2.3517275,-2.4326131,-8.472974,0.15341006,-21.941053,32.598297,41.76277,-6.8561735,3.4385133,-1.580384
28,2.4815855026245117,-2.361901044845581,118.64429473876953,1.1047178784240472,4.312545347457558,-84.77146250020044,-12.033865,0.5799521,-0.69123805,40.725525,-31.684088,-2.075327,-14.428491,-15.226725,-7.890888,54.114853,-27.212357,12.449916,-1.0096083,-2.7250595,8.997671,-2.1840062,24.388903,-30.845772,49.095375,2.3487363,-2.4310648,-8.49586,0.17008543,-22.011517,32.253994,41.665184,-6.8586,3.434875,-1.6024281
29,2.5397350788116455,-2.4887192249298096,118.51382446289062,1.1076703116190296,4.257423119413293,-84.76404219829672,-12.106261,0.53362095,-0.6926002,41.327812,-32.096405,-2.034617,-15.576176,-15.481501,-7.588608,56.604298,-26.562826,12.400891,-0.9799291,-2.856606,9.123986,-2.0865567,24.57461,-30.582567,49.07366,2.3470967,-2.4060035,-8.503629,0.18074255,-22.08149,31.890455,41.539707,-6.9551725,3.4269423,-1.6332163
30,2.6009762287139893,-2.61700439453125,118.3752670288086,1.1150409726541035,4.201752357466574,-84.77918145462579,-12.166006,0.49416944,-0.6694749,41.919987,-32.52215,-1.9919616,-16.825056,-15.737657,-7.250061,59.23172,-25.812618,12.290393,-0.9359381,-3.0049646,9.257394,-1.9806267,24.77903,-30.306244,49.02326,2.3445108,-2.3638768,-8.505532,0.20075716,-22.14975,31.501469,41.37768,-7.1257076,3.4169986,-1.6682287
31,2.6539268493652344,-2.7406492233276367,118.23097229003906,1.1156211560822102,4.146617162913319,-84.80830317369238,-12.231339,0.47028705,-0.638094,42.53603,-32.962708,-1.9522718,-18.108637,-16.010414,-6.9676027,61.868267,-25.013842,12.146388,-0.8844335,-3.154669,9.395892,-1.8738407,25.004044,-30.0369,48.9587,2.3352208,-2.321861,-8.5078125,0.21490845,-22.219193,31.110386,41.184956,-7.2940526,3.4003828,-1.7125494
32,2.7086803913116455,-2.8738396167755127,118.07997131347656,1.0992061017151291,4.092845476398444,-84.84251151408326,-12.32197,0.46929517,-0.61556697,43.21287,-33.42133,-1.9192762,-19.364725,-16.32618,-6.828755,64.39514,-24.225073,11.98521,-0.8323626,-3.289895,9.538525,-1.7754086,25.251926,-29.7962,48.895317,2.3121731,-2.2974722,-8.516784,0.20743631,-22.294485,30.741837,40.965855,-7.38077,3.3723738,-1.7709279
33,2.751349687576294,-3.0065248012542725,117.92147064208984,1.0640266338607585,4.036556211229833,-84.88547284438151,-12.435637,0.49451804,-0.60003936,43.956768,-33.90659,-1.8918753,-20.605488,-16.75744,-6.8898273,66.87689,-23.3796,11.7514715,-0.7816202,-3.409725,9.690707,-1.6833032,25.526194,-29.585835,48.82315,2.261291,-2.2976873,-8.539663,0.19242676,-22.37816,30.385939,40.70057,-7.3817153,3.326273,-1.8588595
34,2.795811891555786,-3.1392152309417725,117.75472259521484,1.0164862443050826,3.97841819880665,-84.93923505168794,-12.564176,0.54009205,-0.5849552,44.74892,-34.41365,-1.8680353,-21.855583,-17.287807,-7.086287,69.3524,-22.477587,11.43506,-0.7280591,-3.5224493,9.853053,-1.592902,25.827805,-29.396296,48.734413,2.1895664,-2.3122668,-8.57171,0.16743039,-22.4714,30.03811,40.39498,-7.3268065,3.2661192,-1.9685166
35,2.8324549198150635,-3.2775840759277344,117.57994079589844,0.9584111826750239,3.9261961778141448,-84.99269809219511,-12.718567,0.601314,-0.5783902,45.592148,-34.928772,-1.8527015,-23.075724,-17.81174,-7.3227477,71.67498,-21.683615,11.123272,-0.6749796,-3.6262066,10.012968,-1.5049974,26.15303,-29.227427,48.649826,2.121743,-2.332806,-8.6013,0.14209266,-22.57461,29.705505,40.051506,-7.227368,3.2047822,-2.0692585
36,2.8613979816436768,-3.422189235687256,117.40116119384766,0.8894128419064738,3.887908487328479,-85.0352465703843,-12.906161,0.6754222,-0.58879346,46.481525,-35.43015,-1.8509895,-24.22526,-18.20646,-7.5089464,73.68542,-21.154287,10.921489,-0.6239071,-3.717191,10.157296,-1.4227338,26.494486,-29.07988,48.59347,2.08507,-2.3511126,-8.616222,0.11298785,-22.689331,29.401148,39.68585,-7.085759,3.1550303,-2.1308928
37,2.887575387954712,-3.5773468017578125,117.21285247802734,0.8028410638007953,3.8672933602256254,-85.06168192609852,-13.130303,0.76955414,-0.6225241,47.416924,-35.93207,-1.8673724,-25.290712,-18.42481,-7.62268,75.352554,-21.011345,10.880257,-0.58033633,-3.7859163,10.275219,-1.3568344,26.849123,-28.977495,48.58392,2.0904336,-2.3689935,-8.608971,0.086370714,-22.81584,29.12109,39.28499,-6.873918,3.1275113,-2.1393228
38,2.9081668853759766,-3.737194061279297,117.02429962158203,0.7003399414975164,3.8595545702061984,-85.07862372068318,-13.385141,0.88413435,-0.67413247,48.398556,-36.437397,-1.8983735,-26.297537,-18.53092,-7.71581,76.76065,-21.145334,10.942443,-0.5402784,-3.8357325,10.374365,-1.3048993,27.215462,-28.91307,48.609585,2.1258218,-2.3896847,-8.586667,0.066708274,-22.954838,28.857065,38.844563,-6.603319,3.1133997,-2.1124642
39,2.921661615371704,-3.898397445678711,116.8324203491211,0.593510873267336,3.859865170793384,-85.09350223382705,-13.668034,1.0063344,-0.7351391,49.42787,-36.916805,-1.9364204,-27.268248,-18.562672,-7.8107767,77.9309,-21.368835,11.055806,-0.49307704,-3.8787785,10.471097,-1.2602612,27.587433,-28.846407,48.658825,2.1741214,-2.4079092,-8.558548,0.04204724,-23.107437,28.623861,38.39475,-6.3284907,3.0959888,-2.0688274
40,2.927891254425049,-4.059609889984131,116.6386947631836,0.4939064433895264,3.8632510574939523,-85.11394331473633,-13.975994,1.1235363,-0.7968279,50.506126,-37.34076,-1.9740257,-28.224348,-18.559422,-7.927878,78.8812,-21.491688,11.167492,-0.43007067,-3.926208,10.581644,-1.2158513,27.956766,-28.73459,48.721485,2.2189593,-2.4187975,-8.534522,-0.008413922,-23.274899,28.442003,37.972137,-6.0993247,3.0584037,-2.0271513
41,2.9300506114959717,-4.226355075836182,116.44637298583984,0.40093234409832956,3.8767104343615784,-85.13528690410321,-14.319672,1.2329166,-0.8639767,51.637222,-37.704758,-2.0096443,-29.181585,-18.50478,-8.05741,79.604774,-21.503313,11.297982,-0.35827893,-3.974624,10.699887,-1.1702348,28.317762,-28.570438,48.8063,2.2677896,-2.4221897,-8.516881,-0.065291665,-23.459234,28.30905,37.555965,-5.935478,2.9858224,-1.9891864
42,2.929069757461548,-4.395073890686035,116.25536346435547,0.3096278889804345,3.899880939097848,-85.15547797822448,-14.69755,1.3408011,-0.9400904,52.821396,-38.022182,-2.0462077,-30.126604,-18.39026,-8.193627,80.09621,-21.490566,11.463075,-0.2799013,-4.017765,10.8218355,-1.1383779,28.670145,-28.381409,48.92664,2.3204374,-2.4210274,-8.499885,-0.15188563,-23.662733,28.231335,37.157055,-5.790222,2.8906696,-1.9467012
43,2.9257113933563232,-4.576385974884033,116.06377410888672,0.22551626090224616,3.9169173172446388,-85.18566331453,-15.082933,1.4478468,-1.0128489,54.044956,-38.29393,-2.0842898,-31.034052,-18.26779,-8.360682,80.371605,-21.409933,11.602453,-0.18540242,-4.0641294,10.9579115,-1.0964984,29.010353,-28.142475,49.05499,2.378712,-2.4138973,-8.481347,-0.25319237,-23.88117,28.195507,36.782284,-5.683872,2.7976522,-1.9020951
44,2.9147400856018066,-4.751697540283203,115.87212371826172,0.1540445015014289,3.911867790248773,-85.23719448040276,-15.452674,1.5530518,-1.0707939,55.301483,-38.51774,-2.1236658,-31.876942,-18.189405,-8.582437,80.447556,-21.218477,11.655764,-0.06683933,-4.1232905,11.118445,-1.0282428,29.335052,-27.833405,49.171005,2.4377923,-2.3998215,-8.459213,-0.3718815,-24.108206,28.197145,36.45445,-5.629756,2.7312486,-1.8589796
45,2.899677276611328,-4.942343235015869,115.68175506591797,0.09815769449736729,3.877868013774364,-85.31519896895078,-15.798855,1.6544658,-1.1071519,56.592636,-38.68778,-2.1657608,-32.6463,-18.175966,-8.881652,80.31665,-20.91926,11.600094,0.08210857,-4.2011733,11.313128,-0.93163615,29.639864,-27.432802,49.28032,2.5116072,-2.3715482,-8.429171,-0.5010219,-24.336359,28.236195,36.178783,-5.642431,2.7044926,-1.8233093
46,2.8772220611572266,-5.1358537673950195,115.48667907714844,0.05446364916365707,3.82411516016934,-85.41284703789366,-16.134342,1.7517903,-1.1285374,57.92156,-38.805702,-2.211363,-33.353706,-18.19804,-9.242217,79.97299,-20.530607,11.468488,0.2573366,-4.2926245,11.534392,-0.81672436,29.923883,-26.95581,49.393745,2.6006622,-2.3320606,-8.393077,-0.6826985,-24.56576,28.333385,35.981564,-5.6902795,2.7014475,-1.7932842
47,2.850947618484497,-5.337564468383789,115.29106903076172,0.019468181319396562,3.759173258876485,-85.52285655056993,-16.462967,1.8480592,-1.1413792,59.277153,-38.882942,-2.2615452,-34.002666,-18.230354,-9.631772,79.43624,-20.03112,11.283671,0.44054767,-4.3887014,11.75944,-0.68011516,30.190264,-26.435629,49.502155,2.6726344,-2.295571,-8.359065,-0.87093234,-24.796656,28.462454,35.815346,-5.7940955,2.7042043,-1.758838
48,2.813364267349243,-5.546527862548828,115.09288787841797,-0.010753386848760123,3.6917564270085967,-85.63798428090257,-16.788687,1.9470509,-1.152393,60.64767,-38.928154,-2.3173845,-34.59867,-18.248137,-10.016492,78.7272,-19.399942,11.068809,0.62324286,-4.480399,11.972465,-0.5292252,30.445885,-25.916098,49.595745,2.6920512,-2.2763798,-8.3343935,-1.0890883,-25.033543,28.625324,35.68688,-5.9252987,2.69433,-1.7101808
49,2.779299736022949,-5.763448715209961,114.89005279541016,-0.046150142190109066,3.6227209450656246,-85.76018916829864,-17.12815,2.0622017,-1.1631011,62.060497,-38.922516,-2.3804657,-35.14151,-18.257275,-10.428183,77.833435,-18.56857,10.785336,0.8057104,-4.5578375,12.175062,-0.3592108,30.693676,-25.388975,49.66621,2.627436,-2.2810287,-8.317247,-1.3398911,-25.279137,28.829247,35.602753,-6.075028,2.6709895,-1.640546
50,2.740415334701538,-5.995371341705322,114.68145751953125,-0.08153581811162192,3.5480350936851073,-85.89191053067768,-17.472795,2.1865492,-1.1693515,63.51058,-38.868275,-2.451494,-35.625675,-18.266108,-10.877434,76.74972,-17.574192,10.435369,0.99585795,-4.62888,12.376493,-0.15844434,30.932215,-24.830606,49.706703,2.5127506,-2.3005874,-8.30569,-1.625152,-25.533695,29.07606,35.565666,-6.245981,2.642305,-1.5559576
51,2.6977598667144775,-6.227464199066162,114.4632797241211,-0.09834851885057806,3.4689070767180366,-86.02745467852725,-17.791132,2.292855,-1.1696341,64.9403,-38.80561,-2.528576,-36.051025,-18.252378,-11.294275,75.506386,-16.544844,10.1031685,1.1858184,-4.710828,12.567673,0.048768874,31.16621,-24.28592,49.73911,2.3795438,-2.326476,-8.306313,-1.9070843,-25.797768,29.334625,35.528168,-6.4713197,2.6038284,-1.4655583
52,2.6548662185668945,-6.4730048179626465,114.23712158203125,-0.07777630607836306,3.3866329053820983,-86.16125399891966,-18.052757,2.3545763,-1.1621032,66.294624,-38.776726,-2.6074686,-36.41768,-18.191433,-11.603599,74.129234,-15.607485,9.874872,1.3804741,-4.8230095,12.740362,0.26992252,31.399279,-23.776094,49.75365,2.2927327,-2.3491104,-8.326291,-2.1592784,-26.074331,29.570875,35.45629,-6.7716928,2.5503426,-1.3772458
53,2.6022684574127197,-6.722318172454834,113.99352264404297,-0.013731631603734439,3.299632145525077,-86.29433739769493,-18.256536,2.3637753,-1.1476393,67.56866,-38.778225,-2.6886458,-36.72967,-18.0617,-11.766709,72.605156,-14.762854,9.786759,1.5880718,-4.970122,12.904289,0.47901988,31.636509,-23.332937,49.754097,2.2475882,-2.3649335,-8.377902,-2.4153626,-26.367645,29.805017,35.37448,-7.138329,2.4859219,-1.3022128
54,2.5584521293640137,-6.997766494750977,113.74187469482422,0.0835874956241558,3.2080558873725145,-86.4291728519091,-18.417278,2.3348432,-1.1259385,68.79058,-38.791733,-2.7727962,-36.984356,-17.878807,-11.825177,70.92399,-13.953132,9.7892685,1.8060973,-5.1425443,13.059358,0.6903387,31.877499,-22.93224,49.734417,2.2216516,-2.3790355,-8.454612,-2.635349,-26.6765,30.022755,35.255367,-7.587327,2.411383,-1.2320324
55,2.508387327194214,-7.275457859039307,113.47671508789062,0.20831108340509172,3.1160237680902245,-86.5620155182072,-18.528128,2.2768726,-1.0937028,69.95153,-38.840717,-2.8613307,-37.172775,-17.673378,-11.820563,69.11461,-13.215426,9.841574,2.0285158,-5.3356833,13.195236,0.91382205,32.12244,-22.556992,49.7086,2.2133727,-2.395797,-8.532696,-2.8435726,-27.003527,30.219095,35.113495,-8.072273,2.316059,-1.1483345
56,2.4605350494384766,-7.570318698883057,113.20056915283203,0.3545303914701278,3.027460125302325,-86.68948562176065,-18.581741,2.198571,-1.0478997,71.04224,-38.948364,-2.95337,-37.286274,-17.476585,-11.797401,67.2055,-12.586869,9.900734,2.243736,-5.544963,13.29793,1.1620162,32.37098,-22.188742,49.692764,2.2184505,-2.4197357,-8.588899,-3.0092142,-27.35073,30.362747,34.91795,-8.583725,2.1895049,-1.0321904
57,2.4044246673583984,-7.877413272857666,112.9139404296875,0.5287555830348508,2.9397275641480722,-86.82091983207931,-18.551228,2.094951,-0.98039997,72.02882,-39.135708,-3.05801,-37.31969,-17.277508,-11.736508,65.18416,-12.116324,9.973135,2.459805,-5.7758565,13.364631,1.4521508,32.623264,-21.836025,49.671597,2.235513,-2.455814,-8.6108,-3.1516242,-27.721638,30.470001,34.69113,-9.132355,2.0048704,-0.872071
58,2.3525519371032715,-8.203811645507812,112.61603546142578,0.7312607797341821,2.8518215756050185,-86.95491234468314,-18.449442,1.9643916,-0.8959476,72.92792,-39.387592,-3.1707134,-37.276222,-17.06663,-11.624117,63.038387,-11.769391,10.074465,2.674913,-6.027993,13.404401,1.7527337,32.88197,-21.52026,49.660458,2.248905,-2.5006704,-8.612284,-3.2757044,-28.11811,30.54986,34.433647,-9.72048,1.7749906,-0.6815379
59,2.2932980060577393,-8.5436429977417,112.30876159667969,0.9476798380671958,2.77071294491432,-87.07092243897439,-18.328733,1.8214465,-0.8105731,73.80468,-39.66357,-3.273511,-37.16173,-16.873482,-11.513925,60.795177,-11.457019,10.180693,2.8888078,-6.289111,13.426764,2.0730255,33.14368,-21.187365,49.646866,2.3018858,-2.545266,-8.611568,-3.437483,-28.543257,30.606182,34.176086,-10.241804,1.5480386,-0.4778539
60,2.225778341293335,-8.89731216430664,111.98734283447266,1.1627791151664286,2.7028690046102453,-87.1486970978819,-18.2408,1.6808479,-0.74016273,74.72364,-39.925953,-3.348706,-36.983784,-16.724712,-11.460852,58.48313,-11.090993,10.269922,3.0645576,-6.54644,13.423708,2.384344,33.4063,-20.812754,49.67809,2.383719,-2.5813842,-8.626823,-3.4384105,-28.989565,30.526056,33.737373,-10.765586,1.3752561,-0.27520058
61,2.1581544876098633,-9.256881713867188,111.65797424316406,1.37369102952582,2.6515500153491507,-87.18688491740608,-18.189547,1.5513736,-0.67344403,75.68907,-40.182774,-3.3783174,-36.739132,-16.624249,-11.494248,56.08421,-10.638292,10.34372,3.237431,-6.7972984,13.411406,2.6904657,33.667225,-20.391472,49.734726,2.5278685,-2.6096058,-8.6562395,-3.5630033,-29.467337,30.437002,33.343822,-11.094798,1.2694329,-0.06720601
62,2.0838623046875,-9.625176429748535,111.3204345703125,1.5879137771476033,2.6121958290030465,-87.19480832309152,-18.150604,1.4237316,-0.60818815,76.67164,-40.4491,-3.3757622,-36.425354,-16.55391,-11.582734,53.588478,-10.147666,10.414834,3.379359,-7.047878,13.3724165,2.9938614,33.925224,-19.940283,49.834183,2.699213,-2.6339734,-8.693115,-3.5966682,-29.96983,30.254465,32.82709,-11.404751,1.206259,0.15264224
63,2.001744270324707,-9.99733829498291,110.96770477294922,1.806059147829024,2.5805234439006908,-87.16809908937039,-18.132576,1.2850163,-0.5706728,77.68364,-40.694298,-3.372023,-36.05161,-16.506273,-11.689702,51.03091,-9.652279,10.48009,3.5020382,-7.297314,13.321067,3.2848527,34.185158,-19.457834,49.95267,2.9028986,-2.6499352,-8.743139,-3.599127,-30.501352,30.002151,32.25281,-11.642805,1.1725715,0.3648367
64,1.9117854833602905,-10.376814842224121,110.60890197753906,2.02901674415304,2.5519732760454388,-87.10258529472576,-18.142307,1.1212952,-0.5869001,78.73521,-40.891827,-3.3982384,-35.629475,-16.475183,-11.778014,48.451416,-9.183484,10.535463,3.5975492,-7.5477157,13.258222,3.6037643,34.449768,-18.902523,50.03975,3.1605384,-2.6524189,-8.814825,-3.4618852,-31.062517,29.62841,31.546886,-11.860215,1.1568314,0.55108297
65,1.8123799562454224,-10.758078575134277,110.24488067626953,2.257558273715069,2.532630812533366,-86.99133380508908,-18.194048,0.9255043,-0.6642824,79.83399,-41.03012,-3.467821,-35.163372,-16.445673,-11.825191,45.823555,-8.704013,10.59408,3.671807,-7.799134,13.207556,3.9128983,34.727493,-18.292643,50.09997,3.4637175,-2.6379325,-8.90634,-3.4501302,-31.662157,29.237688,30.908792,-11.891472,1.1598171,0.71185905
66,1.7117358446121216,-11.159591674804688,109.86580657958984,2.49210808726138,2.5214417268880576,-86.83868457538337,-18.277012,0.70411354,-0.7866953,80.97177,-41.129456,-3.5640233,-34.647118,-16.423616,-11.85583,43.136326,-8.21061,10.656096,3.7103622,-8.055409,13.148029,4.262633,35.013622,-17.597704,50.12091,3.825085,-2.6096702,-9.018541,-3.3526745,-32.292397,28.739061,30.164036,-11.867347,1.1883832,0.85697424
67,1.6051652431488037,-11.558939933776855,109.47589874267578,2.732580172550327,2.504332316246943,-86.65609431126741,-18.36646,0.4623706,-0.9447867,82.14106,-41.196033,-3.6727824,-34.07295,-16.43325,-11.906742,40.440205,-7.7835536,10.700622,3.7368667,-8.310426,13.089129,4.573701,35.318836,-16.896637,50.16199,4.179146,-2.5745578,-9.152219,-3.214498,-32.961864,28.196133,29.372997,-11.7727995,1.2357417,0.97399485
68,1.4959769248962402,-11.979520797729492,109.07999420166016,2.979159528919012,2.4673579836128003,-86.45574046255383,-18.436232,0.20606634,-1.12875,83.33403,-41.240677,-3.780246,-33.436504,-16.495497,-12.014958,37.79194,-7.5066686,10.710175,3.794204,-8.560556,13.031512,4.922006,35.641617,-16.152258,50.146893,4.5665226,-2.5384161,-9.314091,-3.0071726,-33.680195,27.629677,28.547384,-11.61669,1.2950277,1.0529431
69,1.3849400281906128,-12.411858558654785,108.67799377441406,3.232463086213816,2.407037746543781,-86.22889044302943,-18.483297,-0.074223846,-1.3482416,84.54996,-41.26408,-3.8830643,-32.71744,-16.606607,-12.175836,35.156452,-7.431027,10.703558,3.8566835,-8.801884,12.988282,5.1424437,35.998856,-15.48475,50.22199,4.860162,-2.501276,-9.507897,-2.7655954,-34.456142,27.043013,27.688885,-11.38885,1.3661535,1.0832756
70,1.2680466175079346,-12.856660842895508,108.25760650634766,3.4936529569000654,2.329398068959432,-85.9724752922032,-18.517385,-0.38134658,-1.602404,85.79166,-41.261627,-3.9902275,-31.921352,-16.751474,-12.379283,32.507355,-7.4953604,10.694353,3.9434228,-9.040126,12.951186,5.381231,36.379444,-14.785379,50.25524,5.1732817,-2.4598734,-9.734758,-2.4095235,-35.286564,26.36905,26.738993,-11.101816,1.4525024,1.0769364
71,1.1419347524642944,-13.309221267700195,107.82752227783203,3.761261902171867,2.235694372751833,-85.70826067528489,-18.533587,-0.69659275,-1.8672174,87.05744,-41.23583,-4.106426,-31.08661,-16.930601,-12.655147,29.9193,-7.617333,10.659974,4.062065,-9.275066,12.918416,5.6852393,36.782047,-14.025809,50.199837,5.5441613,-2.4189398,-9.979568,-1.9910017,-36.17907,25.695728,25.763403,-10.739368,1.5510771,1.0459841
72,1.0142663717269897,-13.773451805114746,107.38643646240234,4.032735902460812,2.128148765945186,-85.45863874548954,-18.527807,-0.9999686,-2.1193416,88.346405,-41.18879,-4.2360954,-30.254112,-17.142105,-13.032939,27.473782,-7.718888,10.575556,4.176893,-9.5046425,12.8999815,5.851086,37.228386,-13.345656,50.23627,5.8563833,-2.383291,-10.22104,-1.5935284,-37.14492,25.145714,24.817215,-10.2927885,1.6593862,0.9984533
73,0.8824434876441956,-14.256635665893555,106.92693328857422,4.300861563327124,2.0063637106154655,-85.22920653957674,-18.50407,-1.2832599,-2.3631487,89.66559,-41.10831,-4.3940206,-29.428736,-17.386402,-13.540215,25.187952,-7.808312,10.394714,4.336564,-9.725998,12.883282,6.084886,37.70673,-12.607556,50.16983,6.2649827,-2.3538957,-10.476217,-1.1702228,-38.187218,24.699877,23.891003,-9.688195,1.7862741,0.9069176
74,0.7479612231254578,-14.749185562133789,106.4510726928711,4.56819892777597,1.8702867445213733,-85.00887458472806,-18.46225,-1.5585299,-2.6063015,91.0134,-40.999332,-4.575045,-28.595335,-17.653383,-14.1570635,23.024422,-7.9238524,10.154445,4.512492,-9.93988,12.873951,6.329208,38.21807,-11.840886,50.06239,6.7111173,-2.329016,-10.747926,-0.728261,-39.307026,24.336725,22.965197,-8.950404,1.929168,0.77327317
75,0.614670991897583,-15.254120826721191,105.95171356201172,4.848078836473845,1.7226966680982898,-84.79556367835058,-18.392786,-1.8348372,-2.8307676,92.373314,-40.884655,-4.7536,-27.767101,-17.93347,-14.838103,20.990969,-8.033409,9.946469,4.6970425,-10.155024,12.872248,6.6093564,38.757908,-11.036619,49.904346,7.1561785,-2.3080313,-11.010202,-0.24603657,-40.49764,24.019775,22.034325,-8.231153,2.0670521,0.66158545
76,0.4759503901004791,-15.75767993927002,105.43391418457031,5.1545936972695525,1.5659335312806213,-84.58640560329012,-18.286856,-2.1211648,-3.018982,93.730286,-40.78777,-4.9025283,-26.956438,-18.224918,-15.536745,19.094437,-8.102584,9.854323,4.8733807,-10.381983,12.880371,6.9173517,39.32269,-10.203432,49.717976,7.5440025,-2.2892618,-11.236879,0.28244558,-41.748524,23.723206,21.10105,-7.68316,2.181157,0.6360211
77,0.3412448465824127,-16.27375602722168,104.89306640625,5.49185597233245,1.4038446059821124,-84.38249601344121,-18.15603,-2.4171343,-3.1552641,95.088806,-40.704967,-5.0014634,-26.155596,-18.547169,-16.294851,17.312635,-8.081894,9.923136,5.0454273,-10.625688,12.892908,7.2499723,39.91182,-9.34318,49.51068,7.866945,-2.2825627,-11.417917,0.84200794,-43.05916,23.45389,20.193905,-7.360613,2.2609768,0.7228763
78,0.19920454919338226,-16.80126953125,104.33533477783203,5.852083636093784,1.2344636886612574,-84.18529657594044,-18.00148,-2.7181158,-3.2524123,96.454956,-40.627308,-5.0683513,-25.364258,-18.899178,-17.118664,15.6531105,-7.999154,10.093097,5.219517,-10.880658,12.910701,7.5999074,40.52562,-8.457839,49.283215,8.147883,-2.284377,-11.567673,1.4324678,-44.430737,23.216814,19.30832,-7.1790767,2.318873,0.8851195
79,0.05405077338218689,-17.353111267089844,103.7515869140625,6.229894585950549,1.0524743034777746,-83.99366210719107,-17.800253,-3.023877,-3.334072,97.81329,-40.5644,-5.131072,-24.611864,-19.25911,-17.903696,14.1848,-7.9405427,10.280689,5.3893247,-11.1403675,12.938833,7.9872746,41.159256,-7.5368614,49.018772,8.39344,-2.2731047,-11.695708,2.1033895,-45.850624,22.968046,18.391022,-7.0896144,2.3708594,1.0921838
80,-0.09138611704111099,-17.908802032470703,103.14922332763672,6.616792649587717,0.8541616140535868,-83.80798012958775,-17.529398,-3.329236,-3.4286497,99.15012,-40.52808,-5.2234273,-23.934908,-19.611143,-18.54083,12.990214,-8.005049,10.398745,5.5506964,-11.395865,12.981478,8.4188595,41.80756,-6.5767293,48.710785,8.608042,-2.2271552,-11.81111,2.9011762,-47.298782,22.661577,17.394918,-7.0447035,2.4326665,1.3131841
81,-0.23664350807666779,-18.481246948242188,102.51882934570312,7.005632220176177,0.6370209361744735,-83.63721364198119,-17.176031,-3.6195703,-3.5327828,100.46007,-40.528538,-5.354779,-23.357914,-19.963331,-18.99621,12.141792,-8.2827835,10.383648,5.716374,-11.642798,13.040667,8.876685,42.470337,-5.5786595,48.3828,8.76805,-2.1345816,-11.91088,3.81351,-48.769516,22.3048,16.35485,-7.0552783,2.5005293,1.5368841
82,-0.39960747957229614,-19.060338973999023,101.86377716064453,7.395664916479296,0.40751133893557334,-83.48179352043799,-16.756792,-3.8930304,-3.6375387,101.75223,-40.55947,-5.509621,-22.879627,-20.3338,-19.31646,11.624184,-8.729975,10.281576,5.8877835,-11.881648,13.108807,9.360223,43.148685,-4.543352,48.0338,8.880167,-2.0083942,-11.99106,4.8284426,-50.26342,21.90395,15.289139,-7.1432385,2.5670133,1.7796944
83,-0.5567994713783264,-19.65272331237793,101.18559265136719,7.788448092295557,0.17445034343602997,-83.32867515898069,-16.291597,-4.163841,-3.7624316,103.03362,-40.607475,-5.6845427,-22.466635,-20.716959,-19.524063,11.324846,-9.21357,10.16933,6.04211,-12.112164,13.176102,9.890799,43.838596,-3.4720418,47.630127,8.992034,-1.8645641,-12.058839,5.994849,-51.764008,21.406612,14.129465,-7.2774296,2.6426156,2.051379
84,-0.7272781133651733,-20.258214950561523,100.49011993408203,8.187207364439468,-0.05405950055603002,-83.16442659543118,-15.7987795,-4.4480553,-3.9256313,104.31034,-40.65915,-5.876054,-22.097382,-21.107855,-19.6388,11.157033,-9.612163,10.124419,6.1603155,-12.337483,13.231388,10.496134,44.53622,-2.365357,47.133095,9.153226,-1.7191278,-12.120372,7.368931,-53.247375,20.749096,12.812597,-7.4312787,2.7377882,2.3621185
85,-0.8929253816604614,-20.87583351135254,99.77546691894531,8.59002306624366,-0.27788436544401524,-82.99068933069924,-15.279776,-4.754881,-4.1353016,105.58393,-40.71293,-6.100733,-21.801527,-21.514954,-19.643473,11.193365,-9.879269,10.155842,6.2451286,-12.55794,13.278091,11.166267,45.241436,-1.2167686,46.548843,9.393882,-1.5621543,-12.1650095,8.9635515,-54.70017,19.90612,11.346027,-7.603227,2.8634198,2.7178087
86,-1.0690006017684937,-21.50576400756836,99.03093719482422,8.996675091802324,-0.5014941297853567,-82.81240197221335,-14.722768,-5.075239,-4.378333,106.849266,-40.776047,-6.354789,-21.575941,-21.939796,-19.532318,11.445913,-10.083204,10.219623,6.305672,-12.775934,13.3195305,11.895648,45.954918,-0.022718577,45.89011,9.681506,-1.3895991,-12.19362,10.772485,-56.116833,18.882286,9.761427,-7.8094144,3.0099316,3.1108317
87,-1.2465858459472656,-22.156017303466797,98.25992584228516,9.414423957792003,-0.7237142848148395,-82.62142453660006,-14.127078,-5.39762,-4.6420197,108.10729,-40.849243,-6.60534,-21.358541,-22.371815,-19.342155,11.7521515,-10.281829,10.316384,6.3266788,-12.998043,13.342541,12.7019615,46.67315,1.2058996,45.148373,9.968911,-1.226448,-12.229298,12.815963,-57.47904,17.66505,8.033895,-8.049005,3.1571188,3.530086
88,-1.4276033639907837,-22.821990966796875,97.46607971191406,9.848876964384026,-0.9426263781419163,-82.41032394130873,-13.493514,-5.7065973,-4.915122,109.3585,-40.932022,-6.8194103,-21.081831,-22.7997,-19.114029,11.936662,-10.52536,10.447814,6.2964377,-13.228952,13.331517,13.604846,47.392036,2.4552782,44.31371,10.209712,-1.0978912,-12.293016,15.105451,-58.761166,16.249773,6.1460395,-8.323558,3.2847064,3.9647772
89,-1.6203721761703491,-23.504486083984375,96.63831329345703,10.307374774860515,-1.158718484111425,-82.16705687941243,-12.826757,-6.014687,-5.204671,110.60567,-41.031723,-6.9986677,-20.727768,-23.222935,-18.816616,11.946847,-10.835788,10.630121,6.1986275,-13.484798,13.28055,14.627114,48.121258,3.7383933,43.364613,10.448507,-1.0263165,-12.389261,17.637869,-59.947754,14.632979,4.0827827,-8.680895,3.3904634,4.429168
90,-1.8188389539718628,-24.20857810974121,95.7870864868164,10.786122605360143,-1.3734266667878452,-81.8995879393117,-12.122748,-6.322061,-5.513636,111.84507,-41.148052,-7.1573043,-20.33076,-23.647137,-18.4445,11.875162,-11.1825285,10.856644,6.0410213,-13.762894,13.192998,15.765263,48.860645,5.069659,42.311737,10.686972,-0.9935184,-12.507795,20.39623,-61.023815,12.82465,1.8732457,-9.104692,3.4822438,4.920586
91,-2.019423246383667,-24.93789291381836,94.9131851196289,11.267029745213524,-1.5841242086843474,-81.6308932925528,-11.374019,-6.5929666,-5.825961,113.074196,-41.259956,-7.2800736,-19.90755,-24.066824,-18.077778,11.774023,-11.541085,11.094802,5.8455057,-14.038103,13.062756,16.984941,49.587154,6.426147,41.20776,10.819624,-0.961599,-12.642283,23.336765,-61.962708,10.87334,-0.41374552,-9.506003,3.5563982,5.402814
92,-2.2197208404541016,-25.685989379882812,94.01129150390625,11.73146056239861,-1.7875729453313913,-81.38414631031924,-10.573908,-6.7920494,-6.1261997,114.286674,-41.345406,-7.351964,-19.473385,-24.477968,-17.795177,11.6906595,-11.883247,11.313426,5.6336293,-14.282923,12.882094,18.244228,50.271294,7.7741423,40.110596,10.747719,-0.8909394,-12.780704,26.385576,-62.7362,8.8584795,-2.6938343,-9.802138,3.611692,5.8398113
93,-2.4201531410217285,-26.44960594177246,93.08980560302734,12.18351214551544,-1.986146889240997,-81.14986079222096,-9.711967,-6.9070897,-6.409381,115.47874,-41.420574,-7.3672056,-19.000866,-24.884127,-17.632114,11.584915,-12.190432,11.518715,5.3990808,-14.501161,12.643484,19.549034,50.91461,9.125371,39.015144,10.307113,-0.76019585,-12.947952,29.518522,-63.336445,6.8306236,-4.964805,-9.9992695,3.6460986,6.2207565
94,-2.624100685119629,-27.23415184020996,92.14929962158203,12.628780268006082,-2.1801436404814227,-80.9211893843551,-8.79525,-6.9548225,-6.6850414,116.65172,-41.48783,-7.3333917,-18.493473,-25.288546,-17.541027,11.450984,-12.481097,11.724513,5.13045,-14.708194,12.3506975,20.92725,51.524624,10.49952,37.892735,9.602077,-0.5900278,-13.135529,32.701065,-63.762608,4.810688,-7.241144,-10.141967,3.663346,6.5637126
95,-2.8236725330352783,-28.039432525634766,91.18049621582031,13.05834412676841,-2.364322649169845,-80.72439034968832,-7.8405113,-6.9472547,-6.9570794,117.81265,-41.50665,-7.2570643,-18.007566,-25.676535,-17.47714,11.3775835,-12.777707,11.910157,4.843222,-14.89144,12.013165,22.35636,52.076756,11.859397,36.770214,8.942026,-0.40497538,-13.278428,35.824097,-63.999947,2.8607733,-9.458131,-10.212029,3.6721544,6.877471
96,-3.019685745239258,-28.852821350097656,90.18811798095703,13.461919344969482,-2.5329318904385536,-80.58511459100124,-6.863236,-6.8978367,-7.227382,118.96891,-41.436073,-7.145636,-17.597462,-26.034468,-17.394789,11.451775,-13.102743,12.05284,4.5541687,-15.036777,11.64164,23.805119,52.537125,13.159094,35.674355,8.644043,-0.23187883,-13.306901,38.75574,-64.03566,1.0624843,-11.537186,-10.199193,3.6809833,7.1728926
97,-3.209646463394165,-29.673553466796875,89.17201232910156,13.83464683794298,-2.6835961041498777,-80.50256805553514,-5.857549,-6.8052697,-7.5004277,120.124374,-41.301365,-6.9919996,-17.271769,-26.36636,-17.335983,11.724789,-13.505046,12.1218195,4.2597027,-15.138294,11.232866,25.312098,52.905132,14.414852,34.520588,8.861521,-0.046619408,-13.193704,41.475918,-63.87908,-0.5576833,-13.498231,-10.082084,3.6996205,7.4699574
98,-3.39585280418396,-30.506244659423828,88.13017272949219,14.184910524971004,-2.819729753713612,-80.46536002956319,-4.8172107,-6.6659994,-7.769862,121.2726,-41.11051,-6.796237,-16.999645,-26.677498,-17.304855,12.136576,-13.956526,12.136585,3.9567306,-15.205236,10.792794,26.886066,53.186764,15.646238,33.304127,9.4076,0.1558767,-12.978655,44.01352,-63.544346,-2.0012405,-15.378679,-9.882246,3.7221105,7.760025
99,-3.5762383937835693,-31.34714126586914,87.06184387207031,14.521975508514638,-2.9439031525100607,-80.48300456820145,-3.7586217,-6.4916005,-8.020211,122.40316,-40.796047,-6.576954,-16.779661,-26.953144,-17.19789,12.614782,-14.370479,12.148589,3.6634767,-15.243818,10.346387,28.42818,53.355183,16.796106,32.181,10.095599,0.32049328,-12.687862,46.303024,-63.031788,-3.2222164,-17.118032,-9.658796,3.7327669,8.013195
100,-3.754436492919922,-32.18877410888672,85.96405029296875,14.853685510088946,-3.0576088958434107,-80.56544482101776,-2.7005897,-6.294236,-8.236678,123.50442,-40.28873,-6.3532176,-16.61264,-27.178442,-16.911882,13.088943,-14.660899,12.2095995,3.3966677,-15.2582,9.918102,29.839418,53.375687,17.80717,31.301994,10.747683,0.39196312,-12.339124,48.2708,-62.341908,-4.172859,-18.643179,-9.478714,3.7153509,8.201237
101,-3.940073013305664,-33.03414535522461,84.8249282836914,15.27062971667567,-3.2169245764212917,-80.69884918383255,-1.5267909,-6.220436,-8.461275,124.56736,-39.644608,-6.0995092,-16.151806,-27.377449,-16.50086,13.040346,-14.9636545,12.661521,3.1226454,-15.349225,9.518654,31.256323,53.24763,18.754408,30.581415,11.493557,0.32350773,-11.911541,50.044758,-61.490334,-4.9239125,-20.090874,-9.414173,3.6808023,8.343229
102,-4.118524551391602,-33.881805419921875,83.65880584716797,15.738910480011116,-3.399871616742647,-80.88580915335803,-0.27070218,-6.216736,-8.681212,125.598076,-38.872253,-5.818999,-15.509279,-27.553127,-16.001015,12.66944,-15.272612,13.364803,2.8455977,-15.475657,9.140831,32.68272,52.969364,19.648653,29.953558,12.376418,0.1602133,-11.40006,51.646446,-60.490303,-5.500931,-21.474077,-9.414415,3.6306376,8.448875
103,-4.281442165374756,-34.738548278808594,82.47486114501953,16.082091274099906,-3.494778320987086,-81.1557886314104,0.82231015,-5.9999385,-8.799468,126.608574,-37.82633,-5.568395,-15.393989,-27.641226,-15.252331,13.017619,-15.306682,13.656422,2.6309743,-15.429709,8.7819395,33.815414,52.510586,20.322777,29.608189,13.098991,-0.01954264,-10.841049,52.802544,-59.345337,-5.7573504,-22.497362,-9.365363,3.537763,8.478701
104,-4.41302490234375,-35.60115051269531,81.27439880371094,16.137993921899053,-3.398121220484872,-81.53052402816918,1.5075647,-5.3068604,-8.720972,127.61275,-36.358948,-5.3933825,-16.461472,-27.558565,-14.119791,15.010276,-14.699927,12.907709,2.5335107,-15.026371,8.441477,34.37579,51.846485,20.6157,29.73215,13.368555,-0.14264588,-10.271265,53.19922,-58.06612,-5.51934,-22.823711,-9.1550255,3.3754854,8.394584
105,-4.502673625946045,-36.45206832885742,80.11869812011719,15.757492889092847,-3.0697712197327527,-81.95863696028088,1.7438864,-3.8943691,-8.516065,128.72461,-34.484436,-5.237274,-18.988422,-27.166418,-12.723905,18.966478,-12.448762,10.542208,2.483155,-14.127188,7.9937267,34.44795,50.98285,20.622253,30.264479,13.049003,-0.22715726,-9.782503,52.750233,-56.608738,-4.7233596,-22.366947,-8.684554,3.0866282,8.19113
106,-4.617140769958496,-37.18101501464844,79.21566772460938,15.133232910980915,-2.603815610639171,-82.42934056525587,1.6655035,-2.0285802,-8.204974,129.8994,-32.243763,-5.0506725,-22.319914,-26.600733,-11.466294,23.79867,-8.571175,7.2301073,2.4554005,-12.952544,7.5148497,34.222023,49.9324,20.449741,31.096197,12.313598,-0.3100076,-9.336262,51.643322,-54.962776,-3.4983335,-21.288942,-8.044052,2.700214,7.8921876
107,-4.699751853942871,-37.81695556640625,78.25263214111328,14.577162797874292,-2.0815791032911286,-83.02751397495402,1.2755301,-0.15833063,-7.6345615,130.92537,-29.526295,-4.879297,-25.801104,-26.091824,-10.407109,28.503006,-4.4488072,4.1190066,2.5531704,-11.812924,7.2518387,33.574146,48.674908,19.952389,32.390873,11.32898,-0.35265753,-8.768556,49.97427,-53.224842,-1.9721518,-19.586561,-7.3811374,2.3207037,7.4937487
108,-4.718213081359863,-38.15956497192383,77.29495239257812,14.351448333427163,-1.5522926417963148,-83.84720276984493,0.560222,1.3344407,-6.647783,131.60204,-26.224482,-4.773839,-29.026901,-25.706398,-9.128161,32.62647,-1.9060323,2.1958995,2.8499386,-10.96052,7.3721857,32.376583,47.167824,18.984213,34.37317,10.25802,-0.31877947,-7.90721,47.762653,-51.556904,-0.21949464,-17.18786,-6.8052754,2.0582664,6.96752
109,-4.602777004241943,-38.4388313293457,76.24678802490234,14.596038671372929,-0.8600205853321596,-85.09189357708503,-0.6548084,2.6134977,-4.821414,131.98431,-21.766735,-4.633927,-32.506195,-25.291733,-6.885988,36.799477,-2.0825217,1.8871258,3.4900875,-10.459709,7.7895904,30.332619,45.23186,17.770761,37.703205,9.101563,-0.2004683,-6.392704,44.906197,-50.060944,1.7752697,-14.094631,-6.0513954,2.0159945,6.221646
110,-4.510648250579834,-38.691837310791016,75.39807891845703,15.04277883997208,0.0066686286704914725,-86.66691749833662,-2.2548878,4.080025,-2.357827,132.16125,-16.389877,-4.3367233,-36.50399,-24.637707,-3.9308372,41.632164,-4.20957,2.530672,4.231694,-10.044112,8.357087,27.915638,42.746758,16.648127,41.990524,7.8043847,-0.04269167,-4.4304113,41.307156,-48.712063,4.056376,-10.288667,-5.0675187,2.110135,5.238387
111,-4.414240837097168,-39.07337951660156,74.72002410888672,15.41240920362886,0.7724570342324227,-88.21712090196732,-3.8711367,5.4764447,-0.028183337,131.98293,-11.223666,-4.0636744,-40.227367,-23.801346,-1.1602737,46.589645,-7.233953,3.4138339,4.6324205,-9.521846,9.162666,25.927608,39.83969,15.346179,45.981956,6.414207,0.13198821,-2.6779723,37.014153,-47.456833,6.620561,-5.633271,-4.279357,2.1876128,4.094502
112,-4.452296733856201,-39.539154052734375,74.18595123291016,15.548543614902059,1.1335585690911314,-89.37623820653799,-5.265154,6.146161,1.3938584,131.26115,-7.370221,-4.2428303,-42.775967,-23.050941,0.65126765,50.753494,-9.839189,3.862252,4.3856764,-8.818966,10.320804,24.736261,36.85144,13.06412,48.72304,4.91305,0.3260816,-1.7663529,32.274372,-46.221703,9.412933,-0.0025055155,-4.1239023,2.117271,2.8864987
113,-4.549287796020508,-39.96970748901367,73.73377990722656,15.540050987967552,0.7841854523013234,-90.01837426970873,-6.266138,4.9760604,1.4721184,129.71211,-5.1249943,-5.6392465,-43.5961,-22.709177,1.3788093,53.692577,-11.754506,3.631803,3.4167788,-8.079864,12.162384,24.105133,34.194416,8.413566,50.47684,2.5114336,0.7400931,-1.8782005,27.034212,-44.93326,12.6837225,7.192911,-4.9602246,1.8716824,1.5877522
114,-4.656224727630615,-40.39353561401367,73.28984832763672,15.47549411857126,-0.06365713726256589,-90.35994744832401,-6.9638686,2.4013884,0.6075863,127.49792,-4.029352,-8.003308,-43.222363,-22.65695,1.4656111,55.820297,-13.560945,3.055847,2.0893517,-7.3401837,14.479217,23.268951,32.193092,1.5547081,52.459496,-0.57179093,1.3290188,-2.638161,21.657347,-43.52066,16.256134,15.598334,-6.4462023,1.584756,0.17185324
115,-4.786128520965576,-40.82058334350586,72.86184692382812,15.241121721962426,-0.9328813657943708,-90.51944634436937,-7.680069,0.010097455,-0.65259576,125.09199,-3.888208,-10.22512,-42.40822,-22.595217,1.1059028,57.383625,-15.139578,2.3759744,0.85166717,-6.462551,16.621023,21.866985,30.88541,-5.984837,54.795387,-2.9186027,1.7582289,-3.932734,17.132238,-41.89923,19.322353,23.821768,-8.105852,1.3389543,-1.2146373
116,-4.898463249206543,-41.251182556152344,72.4620590209961,14.800858760974904,-1.3240378245456366,-90.56951120955985,-9.000458,-0.6691995,-1.5433779,122.93802,-4.24506,-11.125641,-41.99558,-22.33567,0.56972945,58.67266,-16.392801,1.8755184,0.115044884,-5.3701606,18.143517,20.088476,29.884296,-12.324995,56.60431,-3.0924387,1.6720064,-5.7180567,13.536643,-40.05898,21.311811,31.025368,-9.29059,1.1457803,-2.4290645
117,-4.968536853790283,-41.651973724365234,72.13395690917969,14.122459131374276,-1.0243794909708397,-90.39899922549667,-11.414132,1.1403458,-1.6484889,121.12181,-5.2165046,-10.011125,-42.256588,-21.943768,-0.16200414,59.698963,-17.260555,1.6552541,-0.37468094,-3.9884555,18.839863,18.421879,28.800737,-16.52299,56.834934,0.7688505,0.49919182,-8.676518,10.835807,-38.02632,22.018097,37.26489,-10.353963,0.94835913,-3.5639448
118,-5.005112648010254,-41.99539566040039,71.89488983154297,13.294134265112284,-0.3293994420411942,-90.01460527446649,-14.519319,4.3616605,-1.2227235,119.37815,-7.0294,-7.6647644,-42.758865,-21.569626,-1.1285008,60.362926,-17.827267,1.5734677,-0.84222984,-2.4285169,19.058264,16.845139,27.627298,-19.42534,55.880558,7.4433384,-1.8043233,-12.39993,8.401212,-35.9309,22.083162,43.258984,-11.417338,0.7453739,-4.6753464
119,-5.00823974609375,-42.30777359008789,71.73713684082031,12.479379367989923,0.5068945262143522,-89.64938965487994,-17.699266,7.6598015,-0.48228055,117.62237,-9.215333,-5.1858172,-43.330154,-21.192673,-2.068061,60.79638,-18.212301,1.56704,-1.1904718,-0.9344139,19.096344,15.338653,26.418274,-21.487679,54.60519,13.808163,-4.4106994,-15.352876,6.298151,-33.896236,21.78891,48.30202,-12.068236,0.5751231,-5.594926
120,-4.983984470367432,-42.61127853393555,71.63574981689453,11.78144795110859,1.2475927654052104,-89.51495411810099,-20.441141,9.935009,0.1981584,115.809525,-11.07894,-3.5202885,-43.79452,-20.740925,-2.7898235,61.105568,-18.521244,1.5526589,-1.3112919,0.32346842,19.218601,13.889871,25.219343,-23.230333,53.841183,16.918928,-5.910957,-16.464012,4.6244392,-32.03034,21.401957,51.659126,-11.880224,0.45189643,-6.1346927
121,-4.939967155456543,-42.91840362548828,71.56975555419922,11.144112167066517,1.8969357608823552,-89.72897954360305,-22.73753,11.096267,0.6177315,113.937805,-12.434149,-2.7569866,-44.134327,-20.061811,-3.2717092,61.216545,-18.70432,1.5020207,-1.0619148,1.410378,19.442854,12.5256815,23.971687,-24.667019,53.767376,15.059436,-5.408766,-15.203944,3.5404847,-30.399284,20.759775,52.724136,-10.259292,0.37744665,-5.9736776
122,-4.906503677368164,-43.225460052490234,71.53216552734375,10.500369240177994,2.561965709613163,-90.15581732111978,-24.855934,11.778359,0.901589,112.047424,-13.578751,-2.388876,-44.42409,-19.207579,-3.6462996,61.085125,-18.719912,1.4501054,-0.53897834,2.4548151,19.616442,11.209584,22.654804,-25.608513,53.977924,10.092353,-3.8387876,-12.2372265,2.958381,-29.045214,19.842016,51.992207,-7.5799155,0.34871462,-5.267814
123,-4.879584312438965,-43.53456497192383,71.53092956542969,9.890798534862446,3.17192712968613,-90.61318979923836,-26.79415,12.156936,1.0803769,110.17938,-14.432616,-2.3273613,-44.617195,-18.379267,-4.0041156,60.843075,-18.677902,1.3946522,0.0121041555,3.4238038,19.720112,9.9195,21.380928,-26.299368,54.360508,4.638199,-2.3314435,-8.677591,2.6303198,-27.98576,19.100395,50.39412,-4.88757,0.34238824,-4.5400944
124,-4.863033771514893,-43.84344482421875,71.56489562988281,9.372069282505107,3.6594541656140955,-90.91569475389969,-28.537909,12.365471,1.2173209,108.37004,-14.922055,-2.5098257,-44.669056,-17.784576,-4.425078,60.631004,-18.692278,1.3359058,0.35444418,4.266763,19.753508,8.693067,20.30295,-26.99748,54.71272,1.4356585,-1.5620813,-5.919932,2.315448,-27.183187,18.961283,48.885883,-3.2127173,0.2706252,-4.3239293
125,-4.859178066253662,-44.16171646118164,71.63130187988281,8.955500809081766,4.0038272893659475,-90.98324506660266,-30.116344,12.435175,1.3035278,106.68168,-14.835377,-2.9665296,-44.53927,-17.50264,-4.978369,60.469463,-18.776058,1.2670989,0.43124223,4.9372997,19.70868,7.5548735,19.543646,-27.76848,54.94685,1.4565666,-1.4400997,-4.338528,1.9519621,-26.611036,19.791798,47.466797,-3.051663,0.036993247,-4.8857064
126,-4.864558219909668,-44.483055114746094,71.71577453613281,8.611048511664777,4.246047029283871,-90.92139809536938,-31.539007,12.302387,1.300973,105.08492,-14.270496,-3.71006,-44.25687,-17.406553,-5.6115036,60.291454,-18.875795,1.1882012,0.36743584,5.4387417,19.60863,6.564112,19.116108,-28.478352,55.037743,3.16465,-1.5210154,-3.2628965,1.6222955,-26.224693,21.31191,45.750095,-3.7676573,-0.2902552,-5.8998785
127,-4.865108966827393,-44.816871643066406,71.81316375732422,8.33972792455844,4.412349063721415,-90.82083936207712,-32.755386,11.942885,1.2433555,103.46835,-13.618315,-4.6638193,-43.883347,-17.399202,-6.2163563,60.109848,-19.006977,1.1113393,0.21379311,5.7942934,19.506044,5.767756,18.972532,-29.113,54.916584,5.5571933,-1.6468875,-2.5994246,1.3106147,-25.927912,22.938656,44.134117,-4.6949525,-0.59362155,-7.0300975
128,-4.879083633422852,-45.160709381103516,71.91319274902344,8.141459989842083,4.5279380100141795,-90.77332122069943,-33.712963,11.354176,1.1588966,101.72044,-13.27669,-5.7408915,-43.484028,-17.385649,-6.68344,59.93979,-19.185986,1.0482202,0.040845245,6.0289063,19.44337,5.1726804,19.037155,-29.671825,54.571426,7.6281962,-1.7084697,-2.2547667,0.98264015,-25.617882,24.074139,43.04914,-5.1732073,-0.7867037,-7.9432917
129,-4.890263557434082,-45.5051383972168,72.01770782470703,8.047859710146511,4.57808352975629,-90.80223642209506,-34.36425,10.442006,1.0187538,99.82309,-13.422291,-6.94864,-43.069157,-17.371307,-6.9603386,59.80479,-19.433924,0.99465406,-0.13322556,6.112874,19.420994,4.7315216,19.292322,-30.209864,54.019768,9.489855,-1.6928772,-2.2997901,0.55880046,-25.23243,24.574099,42.77615,-5.0467,-0.9151833,-8.617642
130,-4.915159702301025,-45.8449592590332,72.11676025390625,8.041025995835625,4.55634841280971,-90.86081886742214,-34.756237,9.296228,0.79591423,97.83814,-13.840374,-8.279773,-42.60263,-17.390356,-7.120529,59.688705,-19.736029,0.94499844,-0.31617388,6.041453,19.398178,4.3927183,19.752337,-30.752945,53.343227,11.558295,-1.6848736,-2.7364821,0.037837327,-24.77011,24.737194,43.11537,-4.692884,-1.0148157,-9.221919
131,-4.943642616271973,-46.19978332519531,72.21744537353516,8.048835471555208,4.499819787230803,-90.93512145530516,-34.97466,8.187798,0.529953,95.76997,-14.3347,-9.625992,-42.08046,-17.395235,-7.2397423,59.540676,-20.052387,0.90931743,-0.49190065,5.883967,19.356138,4.163195,20.373388,-31.231934,52.631977,13.280106,-1.7250022,-3.3742254,-0.49960312,-24.247644,24.6373,43.76736,-4.2467713,-1.0021287,-9.705029
132,-4.974983215332031,-46.55910873413086,72.32294464111328,8.00459023398337,4.446191356462694,-91.00863321716616,-35.10013,7.3484364,0.26133922,93.619125,-14.695685,-10.920508,-41.502495,-17.343023,-7.388648,59.312668,-20.343962,0.8991714,-0.64305586,5.71956,19.27233,4.0271683,21.075533,-31.579893,52.01879,14.103335,-1.8333195,-4.016195,-0.95086,-23.700829,24.330954,44.417152,-3.8420255,-0.7895005,-10.015883
133,-5.004284858703613,-46.93082046508789,72.43980407714844,7.8933741533171125,4.408190522296758,-91.09552689697993,-35.119465,6.7356234,-0.051959768,91.33672,-14.823977,-12.359544,-40.869892,-17.203428,-7.562965,58.982384,-20.606138,0.9191818,-0.7814021,5.585476,19.129873,3.972782,21.799782,-31.761074,51.618053,13.699276,-2.0433228,-4.680726,-1.277542,-23.144884,23.653013,45.073986,-3.4517848,-0.25060204,-10.110961
134,-5.022364139556885,-47.30717468261719,72.56659698486328,7.750275930288875,4.365120644403163,-91.1972371123682,-34.99957,6.2542396,-0.41794455,88.93988,-14.849141,-13.91251,-40.183475,-17.006685,-7.7307434,58.577686,-20.856813,0.9642297,-0.9136244,5.458705,18.936083,3.961299,22.531408,-31.825138,51.415287,12.427762,-2.3161805,-5.443531,-1.5235953,-22.590229,22.627302,45.862293,-3.0236242,0.53821886,-10.030608
135,-5.041131019592285,-47.6785774230957,72.70342254638672,7.590993368945787,4.304690002815816,-91.27500842210931,-34.796207,6.05534,-0.6609262,86.526,-14.874928,-15.000033,-39.448883,-16.809963,-7.91317,58.13291,-21.092264,1.0347794,-1.0267653,5.326634,18.709099,3.9568048,23.251568,-31.811197,51.33685,10.781316,-2.5571191,-6.1932106,-1.6946046,-22.07375,21.601498,46.62095,-2.643967,1.3625488,-9.84691
136,-5.047354698181152,-48.04906463623047,72.84681701660156,7.432879505522844,4.214662901101793,-91.28857808928453,-34.5664,6.267212,-0.58084065,84.186584,-14.984221,-15.000033,-38.669224,-16.6726,-8.132255,57.679626,-21.3083,1.1312984,-1.1239446,5.1765256,18.469393,3.9337866,23.93834,-31.743343,51.30225,9.257825,-2.6901255,-6.8107953,-1.8037174,-21.647486,20.943476,47.186962,-2.387886,2.0077884,-9.627767
137,-5.049582004547119,-48.41726303100586,72.99419403076172,7.264680535417979,4.082356302337412,-91.22410486351545,-34.309578,6.7670045,-0.44772857,81.97819,-15.246801,-15.000033,-37.82518,-16.58997,-8.418904,57.231564,-21.514164,1.2434356,-1.2290579,5.0140047,18.220406,3.8895109,24.56804,-31.60092,51.35695,7.7747946,-2.6999314,-7.267896,-1.8399873,-21.350048,20.761076,47.49917,-2.1747487,2.429206,-9.365533
138,-5.047519207000732,-48.788116455078125,73.13949584960938,7.085471104771634,3.9173342019310917,-91.10288488078594,-33.999775,7.5076923,-0.23392679,79.84358,-15.602527,-15.000033,-36.92128,-16.53795,-8.751768,56.770462,-21.709372,1.3740867,-1.3515807,4.8559356,17.95508,3.8365052,25.12669,-31.36336,51.536385,6.148469,-2.6314058,-7.6210933,-1.7938949,-21.186853,20.877026,47.629932,-1.9813458,2.740556,-9.025557
139,-5.033857345581055,-49.1578254699707,73.2882308959961,6.91211011476003,3.7406249114093,-90.94286924046524,-33.64546,8.418977,0.2515674,77.704605,-15.966205,-14.103288,-35.993885,-16.522345,-9.097182,56.287518,-21.88272,1.5259281,-1.4671278,4.706992,17.677717,3.7742462,25.612072,-31.060438,51.73661,4.7267227,-2.515522,-7.876057,-1.6727687,-21.148685,21.22086,47.61328,-1.9711252,2.9623713,-8.630063
140,-5.005847454071045,-49.524314880371094,73.44442749023438,6.737975668741375,3.573185789586814,-90.77025441086073,-33.255936,9.169417,0.61205316,75.486946,-16.258427,-13.350226,-35.06963,-16.508574,-9.452129,55.775497,-22.032412,1.676776,-1.5539647,4.5686707,17.39169,3.7074986,26.030506,-30.718613,51.847294,3.8545766,-2.3851087,-8.041895,-1.4929372,-21.217676,21.727098,47.492752,-2.3079793,3.1120791,-8.203675
141,-4.9736223220825195,-49.8893928527832,73.60347747802734,6.558256696897251,3.418930752638696,-90.57239600012838,-32.85501,9.79873,0.8513388,73.2109,-16.45446,-12.681223,-34.14738,-16.500053,-9.830303,55.23137,-22.156208,1.828634,-1.6048774,4.439009,17.085915,3.6371908,26.386683,-30.331995,51.83166,3.7727644,-2.2258894,-8.085488,-1.2486659,-21.393755,22.4439,47.277775,-3.1818597,3.1489716,-7.7424808
142,-4.938138484954834,-50.24127197265625,73.76239013671875,6.373587402759558,3.267621446532787,-90.34293782970518,-32.433765,10.395645,1.0498703,70.9052,-16.604013,-11.964266,-33.213272,-16.503426,-10.234847,54.659023,-22.256813,1.9862411,-1.631011,4.315975,16.760754,3.5606682,26.680164,-29.89333,51.7509,4.245144,-2.0331821,-8.017667,-0.945632,-21.678015,23.38513,46.95831,-4.4558625,3.0697885,-7.238713
143,-4.89412260055542,-50.58867263793945,73.92285919189453,6.190596967351527,3.1194882413229785,-90.11532481499115,-31.959352,10.84004,1.1182812,68.49759,-16.702599,-11.408702,-32.279884,-16.501698,-10.636461,54.061245,-22.336843,2.1407328,-1.6334945,4.199339,16.435326,3.4787278,26.913258,-29.427591,51.637833,4.903989,-1.8526915,-7.91387,-0.60351443,-22.045122,24.423626,46.539318,-5.81354,2.9496698,-6.7119727
144,-4.844621181488037,-50.92328643798828,74.07695007324219,6.015474033857201,2.974467349399603,-89.92328079634105,-31.398012,11.025143,0.95932597,65.911674,-16.737112,-11.2129965,-31.359312,-16.478146,-11.005917,53.43904,-22.3999,2.2835197,-1.6047969,4.083743,16.12576,3.388644,27.092035,-28.966223,51.529903,5.3832655,-1.7309694,-7.8452325,-0.24481465,-22.457794,25.424206,46.036835,-6.9454184,2.8686779,-6.1797614
145,-4.79233455657959,-51.254940032958984,74.23099517822266,5.854924052411282,2.835799966733507,-89.7757291979204,-30.733425,10.875823,0.45398867,63.08087,-16.694944,-11.492969,-30.461943,-16.432854,-11.332038,52.794247,-22.441038,2.4099689,-1.5223745,3.9489667,15.828563,3.281742,27.22354,-28.509613,51.43198,5.66917,-1.6902603,-7.8142924,0.13090484,-22.893614,26.36516,45.439938,-7.849233,2.8550975,-5.6197596
146,-4.725884914398193,-51.586021423339844,74.38469696044922,5.700987025923148,2.701705729895923,-89.6559769748776,-29.976452,10.508039,-0.3366763,60.052223,-16.582224,-12.086219,-29.577122,-16.37036,-11.633219,52.12368,-22.460577,2.5255897,-1.3895513,3.7966254,15.533944,3.1585252,27.312336,-28.05111,51.32963,5.926732,-1.7014928,-7.7865987,0.5239858,-23.349857,27.307777,44.765774,-8.674566,2.863672,-5.034141
147,-4.652157306671143,-51.91386795043945,74.53817749023438,5.538079859917974,2.565147219247315,-89.5591432744426,-29.135332,10.0954,-1.2377814,56.91676,-16.40994,-12.779397,-28.688477,-16.281464,-11.921958,51.424946,-22.462795,2.6376455,-1.2382144,3.6536696,15.249073,3.0266683,27.362526,-27.615057,51.234795,6.053438,-1.7358112,-7.774979,0.9061934,-23.819672,28.246035,44.07801,-9.335466,2.8713107,-4.475293
148,-4.5688982009887695,-52.23373794555664,74.69212341308594,5.352768314179633,2.4190262566020175,-89.47942004995531,-28.22762,9.784449,-2.0632126,53.764324,-16.18233,-13.381446,-27.780556,-16.159517,-12.20991,50.697693,-22.453554,2.7534735,-1.0959448,3.545086,14.979547,2.8882644,27.37801,-27.233248,51.16385,5.944262,-1.763987,-7.7913823,1.2456561,-24.295557,29.17144,43.446922,-9.743217,2.8572104,-3.9965496
149,-4.475183486938477,-52.546024322509766,74.84243774414062,5.140036530259641,2.2546270039788365,-89.41911683291903,-27.234747,9.563677,-2.8213522,50.545467,-15.902913,-13.910566,-26.832617,-15.995455,-12.500226,49.921825,-22.42916,2.8706868,-0.95747924,3.4748666,14.733347,2.735966,27.359955,-26.910055,51.130768,5.5057287,-1.7832484,-7.85312,1.5600252,-24.771112,30.081207,42.868866,-9.85159,2.814083,-3.6252093
150,-4.370689868927002,-52.86098861694336,74.989990234375,4.907419498142957,2.0775942677201757,-89.37985639614084,-26.154856,9.371455,-3.5930622,47.227158,-15.561967,-14.449528,-25.857826,-15.794109,-12.785724,49.102757,-22.38784,2.9873433,-0.8101885,3.4281094,14.5041895,2.5725288,27.309437,-26.630514,51.12266,4.815744,-1.8061403,-7.9487877,1.8491607,-25.245201,30.981522,42.326874,-9.714703,2.7587943,-3.3296175
151,-4.26239538192749,-53.17865753173828,75.12633514404297,4.66054395968662,1.9029608604948665,-89.35471163941106,-25.037352,9.253925,-4.283772,43.91942,-15.139009,-14.92559,-24.89336,-15.571391,-13.060011,48.27959,-22.33685,3.11131,-0.6758393,3.4027162,14.275369,2.418247,27.23003,-26.395798,51.113293,4.022383,-1.8269421,-8.04924,2.1063623,-25.713327,31.852425,41.82258,-9.423896,2.707347,-3.073621
152,-4.141313076019287,-53.49595642089844,75.25669860839844,4.431897768673712,1.7471925168047517,-89.32914927415655,-23.928371,9.199982,-4.7528005,40.722992,-14.601999,-15.000033,-23.989231,-15.3793,-13.300544,47.50891,-22.290312,3.2592177,-0.5766817,3.3731542,14.031371,2.286245,27.128006,-26.21415,51.077366,3.2719553,-1.841151,-8.124534,2.2788894,-26.171793,32.696903,41.39729,-9.038745,2.67438,-2.8220055
153,-4.005023002624512,-53.813140869140625,75.37499237060547,4.214265974287216,1.6104616667273297,-89.30661895808088,-22.81842,9.257536,-4.9864354,37.61352,-14.0014925,-15.000033,-23.141302,-15.206943,-13.51443,46.78602,-22.24397,3.4254365,-0.51948136,3.3393273,13.768512,2.1933198,27.00696,-26.08396,50.99983,2.5310578,-1.8380377,-8.170402,2.4115274,-26.614594,33.498585,41.02082,-8.543763,2.6651528,-2.5786133
154,-3.8676984310150146,-54.11975860595703,75.47813415527344,3.9682190263443,1.4843963559640672,-89.30041928642284,-21.701786,9.423769,-5.0547123,34.571533,-13.346087,-15.000033,-22.316233,-14.999865,-13.725102,46.06922,-22.185223,3.5956364,-0.48698074,3.3367531,13.494003,2.1315637,26.86851,-26.00271,50.89543,1.741092,-1.8231505,-8.202177,2.5459752,-27.038645,34.24152,40.663116,-7.946051,2.6726108,-2.3581033
155,-3.7148706912994385,-54.42566680908203,75.56649780273438,3.707333727705033,1.3731688512768587,-89.30416928179886,-20.617111,9.616728,-5.0109105,31.677822,-12.528141,-15.000033,-21.531992,-14.779656,-13.923473,45.384125,-22.128689,3.7752285,-0.46547997,3.3587878,13.214258,2.0810857,26.715178,-25.972229,50.769905,1.023427,-1.8177408,-8.219569,2.5333962,-27.447046,34.98614,40.431526,-7.264062,2.6904514,-2.1419697
156,-3.55299711227417,-54.72929382324219,75.63941955566406,3.4437729767444623,1.281227384301589,-89.31178603339622,-19.610897,9.768867,-4.9187403,29.033602,-11.449767,-15.000033,-20.806482,-14.5666485,-14.102272,44.7555,-22.088886,3.9686491,-0.476599,3.3913066,12.911845,2.0555384,26.547297,-25.966055,50.63548,0.49867252,-1.8426827,-8.224575,2.5585349,-27.833456,35.607224,40.16964,-6.7677383,2.7153568,-1.90851
157,-3.379600763320923,-55.03107452392578,75.69660186767578,3.1694797598191777,1.2246187301789997,-89.32634174333454,-18.714243,9.866041,-4.7594624,26.623344,-9.83342,-15.000033,-20.165522,-14.358013,-14.260408,44.201458,-22.075373,4.180509,-0.5081634,3.4491596,12.568519,2.0551224,26.366505,-26.007057,50.473877,0.24438722,-1.9078628,-8.207337,2.532808,-28.202211,36.151653,39.953102,-6.4122944,2.748448,-1.6323067
158,-3.1994104385375977,-55.32415008544922,75.73524475097656,2.886900646679212,1.1976310796742033,-89.34793498957374,-17.919973,9.942172,-4.5119557,24.453344,-7.8383384,-15.000033,-19.595875,-14.153321,-14.400446,43.70778,-22.08041,4.4071045,-0.5640042,3.5268552,12.191382,2.084971,26.1726,-26.09024,50.283478,0.18352814,-2.0009305,-8.17117,2.482533,-28.552391,36.616787,39.763794,-6.1501527,2.790946,-1.3306466
159,-3.0150387287139893,-55.615299224853516,75.76006317138672,2.6239174400934733,1.172253650578421,-89.36721154210584,-17.212563,10.00819,-4.237318,22.645214,-6.0101027,-15.000033,-19.05711,-13.975247,-14.519829,43.250057,-22.090128,4.6403103,-0.64420444,3.5881765,11.824753,2.1097271,25.967392,-26.199986,50.111076,0.19033544,-2.109292,-8.135195,2.423929,-28.878094,36.983654,39.578457,-5.990825,2.8345625,-1.0478725
160,-2.8250365257263184,-55.89238357543945,75.7848892211914,2.4424968789832735,1.1204136614777032,-89.36522640765843,-16.5405,10.02255,-3.9717543,21.250282,-4.8615527,-14.909842,-18.525114,-13.894624,-14.59848,42.835957,-22.105965,4.8840094,-0.7526802,3.5647388,11.515783,2.087702,25.754698,-26.326572,50.002872,0.13622603,-2.2207055,-8.1186695,2.323305,-29.170137,37.262066,39.412422,-5.906309,2.870319,-0.8288152
161,-2.6222941875457764,-56.148521423339844,75.83386993408203,2.362721244465303,1.0281054407367776,-89.3502330330865,-15.910718,9.953671,-3.6659908,20.449286,-4.7177863,-14.278925,-17.997734,-13.940284,-14.614999,42.481716,-22.128304,5.1581874,-0.89569294,3.439421,11.276977,2.0274603,25.533213,-26.45919,49.95828,-0.0035383208,-2.3467493,-8.129619,2.1706438,-29.426458,37.468056,39.258797,-5.964355,2.8961623,-0.6629029
162,-2.431753158569336,-56.40336990356445,75.87586975097656,2.342483073637586,0.9118754994431923,-89.33064428514328,-15.342421,9.844917,-3.34431,20.156408,-5.2477584,-13.445799,-17.481558,-14.060508,-14.591652,42.172283,-22.154095,5.4510274,-1.0666764,3.2538326,11.083983,1.9451351,25.302776,-26.604115,49.955395,-0.16262038,-2.488934,-8.157008,1.9621892,-29.64574,37.604584,39.13366,-6.1422963,2.915453,-0.53452724
163,-2.250387191772461,-56.65248107910156,75.90591430664062,2.369072620726218,0.7893451480963021,-89.28313761141447,-14.79079,9.686093,-3.0687518,20.002699,-5.953632,-12.64459,-16.974592,-14.237124,-14.561285,41.884907,-22.183723,5.7326713,-1.2619804,3.0142379,10.920763,1.8234802,25.070797,-26.769266,50.00634,-0.33253583,-2.6191247,-8.192635,1.7590263,-29.8133,37.609104,39.02571,-6.3455725,2.9283726,-0.48081884
164,-2.0751540660858154,-56.891719818115234,75.94734954833984,2.4319230987614615,0.6789487135514343,-89.18352165866997,-14.214856,9.46946,-2.8886206,19.621048,-6.3320155,-12.103821,-16.474398,-14.452479,-14.557069,41.593132,-22.21502,5.973854,-1.4751,2.7236197,10.769678,1.6459639,24.850187,-26.964548,50.120724,-0.5053164,-2.7090867,-8.228575,1.6175623,-29.906572,37.418056,38.93437,-6.478889,2.9348056,-0.53870875
165,-1.9142115116119385,-57.12000274658203,76.0041275024414,2.5654134217945748,0.5816719011431547,-89.02388140537987,-13.5771675,9.156359,-2.8074224,18.873838,-6.2148623,-11.927004,-15.997238,-14.751526,-14.574559,41.31776,-22.261965,6.1748857,-1.7088472,2.330335,10.639836,1.3939632,24.654978,-27.197746,50.311466,-0.70981854,-2.7490225,-8.271622,1.5202215,-29.903778,37.01692,38.87259,-6.573872,2.9258895,-0.71980214
166,-1.7710778713226318,-57.323883056640625,76.07190704345703,2.7621216844188634,0.48819839342021953,-88.81797713954165,-12.903541,8.770906,-2.8030016,17.955301,-5.8718944,-11.975251,-15.538239,-15.123582,-14.603096,41.060596,-22.318722,6.3495984,-1.9624529,1.8443896,10.532768,1.0854086,24.489687,-27.464771,50.561256,-0.9451233,-2.7534297,-8.323838,1.4387116,-29.796259,36.437965,38.860962,-6.6662693,2.9031746,-1.0049665
167,-1.6445114612579346,-57.51887130737305,76.14836120605469,2.938165968052233,0.40263695619978773,-88.57324836605582,-12.259923,8.398756,-2.8787053,17.021955,-5.46507,-12.111581,-15.068568,-15.468887,-14.66377,40.772873,-22.355873,6.4893756,-2.2270224,1.3625553,10.419789,0.7643868,24.34834,-27.7527,50.830757,-1.1541271,-2.7305398,-8.370153,1.4155878,-29.58303,35.691544,38.904648,-6.6666737,2.8816476,-1.3845862
168,-1.5206735134124756,-57.71957015991211,76.2268295288086,3.017745692369954,0.32990500343170226,-88.29665070914118,-11.708608,8.120719,-3.0316162,16.227583,-5.1588554,-12.200942,-14.559162,-15.690439,-14.775343,40.40988,-22.346178,6.585874,-2.4934132,0.9836073,10.27329,0.4729776,24.218287,-28.04889,51.085842,-1.2757754,-2.6893675,-8.394724,1.4962811,-29.268957,34.788525,38.999447,-6.4858603,2.8753715,-1.8475996
169,-1.3922991752624512,-57.92990493774414,76.30826568603516,2.964638099708004,0.2695506359651883,-87.97221300787858,-11.278495,7.967272,-3.2877603,15.6310215,-4.994249,-12.24109,-13.976221,-15.755082,-14.986235,39.938053,-22.26775,6.63396,-2.772625,0.75242835,10.093009,0.21054287,24.087503,-28.347538,51.34303,-1.2731363,-2.619988,-8.384895,1.7073237,-28.845705,33.682144,39.159645,-6.080043,2.8811638,-2.4497967
170,-1.2647912502288818,-58.14574432373047,76.38984680175781,2.825705751614959,0.22064027321746918,-87.60193088585261,-10.931081,7.891599,-3.636378,15.144393,-4.8861456,-12.295026,-13.3427305,-15.715278,-15.269973,39.388126,-22.140348,6.640448,-3.0643208,0.615385,9.890292,-0.04768497,23.953474,-28.658878,51.62561,-1.1817021,-2.5228512,-8.350445,2.0050106,-28.3068,32.392162,39.388306,-5.503035,2.88912,-3.1757102
171,-1.1395758390426636,-58.35821533203125,76.46882629394531,2.650790143621745,0.18801386275415258,-87.21911551547774,-10.641604,7.852862,-4.017723,14.730286,-4.813764,-12.324744,-12.715274,-15.607297,-15.53118,38.81195,-22.00074,6.614802,-3.34679,0.5208726,9.657505,-0.30418107,23.82079,-28.999462,51.91506,-1.0609218,-2.4224668,-8.309794,2.326063,-27.670168,31.034748,39.659073,-4.8079605,2.9038677,-3.9090066
172,-1.0192259550094604,-58.5693359375,76.54672241210938,2.4879708381501944,0.17602427244292226,-86.85728536874551,-10.385825,7.8092594,-4.3729577,14.353652,-4.75782,-12.291768,-12.151393,-15.470299,-15.674862,38.262707,-21.886057,6.565549,-3.601883,0.41655326,9.390057,-0.5597885,23.698664,-29.384233,52.186626,-0.9759649,-2.343445,-8.282226,2.618817,-26.97354,29.722513,39.928394,-4.043285,2.9335177,-4.5344644
173,-0.8964094519615173,-58.77224349975586,76.62303924560547,2.3319771013643167,0.19826308106785007,-86.51517046890869,-10.186695,7.7618494,-4.703676,14.029311,-4.7215943,-12.155039,-11.680237,-15.315652,-15.740024,37.775562,-21.788929,6.464712,-3.8388457,0.3176242,9.080783,-0.7989582,23.591108,-29.817205,52.410053,-0.93547964,-2.2883105,-8.267769,2.9075675,-26.241554,28.421783,40.144344,-3.1441267,3.0020487,-5.048346
174,-0.7782097458839417,-58.97652053833008,76.69331359863281,2.162966472669811,0.24871145674113987,-86.17832849715903,-10.049421,7.7259936,-5.034975,13.770407,-4.7153287,-11.946149,-11.265924,-15.123738,-15.755733,37.31589,-21.697018,6.3176017,-4.0646067,0.24670374,8.740995,-1.018976,23.496803,-30.285912,52.590824,-0.9098712,-2.2451725,-8.259838,3.2361586,-25.479633,27.080704,40.292164,-2.1128924,3.098698,-5.501834
175,-0.6636528372764587,-59.17870330810547,76.7525405883789,2.010483883395803,0.30092159691365034,-85.86113197801208,-9.917532,7.6839786,-5.3430834,13.532246,-4.7260184,-11.7343235,-10.869236,-14.889628,-15.61228,36.830894,-21.637428,6.182037,-4.2524014,0.16137953,8.399574,-1.2398231,23.417553,-30.775959,52.748577,-0.8988258,-2.2168045,-8.268108,3.539787,-24.705654,25.806437,40.42375,-1.0607319,3.1840444,-5.8636093
176,-0.5489968061447144,-59.380977630615234,76.80455017089844,1.9003380224455722,0.3281150954771796,-85.57733478440146,-9.732235,7.62072,-5.6039076,13.267238,-4.7392645,-11.588195,-10.451989,-14.609654,-15.1986065,36.2707,-21.637434,6.115385,-4.391708,0.019092372,8.0802145,-1.4625616,23.355785,-31.254477,52.894104,-0.89809084,-2.2057009,-8.303542,3.8175337,-23.940895,24.686653,40.538265,-0.13605803,3.2220194,-6.1002007
177,-0.4419471025466919,-59.581024169921875,76.84778594970703,1.8435694788665105,0.32116198339028573,-85.33447562912323,-9.47342,7.531073,-5.8100805,12.965503,-4.7526817,-11.532058,-10.020175,-14.231353,-14.311956,35.611378,-21.728718,6.1020155,-4.480071,-0.1930134,7.789478,-1.686815,23.315655,-31.726767,53.019573,-0.9221615,-2.2211506,-8.381052,4.08229,-23.20034,23.709274,40.611,0.65615946,3.218636,-6.1670814
178,-0.3466240167617798,-59.778953552246094,76.88030242919922,1.823556511148486,0.2943842257219443,-85.12390996798732,-9.17047,7.4263096,-5.974222,12.645999,-4.7710657,-11.526714,-9.582809,-13.778843,-13.067716,34.888893,-21.89085,6.1160645,-4.5285716,-0.44881213,7.5184402,-1.9021914,23.296988,-32.196503,53.10849,-0.9660936,-2.2586293,-8.492439,4.357976,-22.488886,22.833385,40.620407,1.3820162,3.1946747,-6.09106
179,-0.2579101622104645,-59.97386169433594,76.90703582763672,1.8283660725389006,0.25610811124946853,-84.93421427579047,-8.851965,7.3117104,-6.1092944,12.331581,-4.794214,-11.543706,-9.107129,-13.366644,-11.8376875,34.13254,-22.068388,6.204625,-4.5375686,-0.7350987,7.2744713,-2.1185052,23.296434,-32.6454,53.171017,-1.0051799,-2.3005528,-8.61284,4.555576,-21.82124,22.149216,40.6672,2.065055,3.134765,-5.9471927
180,-0.17313188314437866,-60.163570404052734,76.92793273925781,1.8460102397195435,0.2148036609259766,-84.75443537268086,-8.547977,7.1928477,-6.2279916,12.047903,-4.8241816,-11.5547905,-8.57081,-13.104865,-10.993245,33.366314,-22.202477,6.4203296,-4.5322156,-1.0354081,7.051331,-2.3173115,23.306524,-33.027683,53.21209,-1.0083967,-2.3296738,-8.719782,4.72993,-21.205194,21.697317,40.727444,2.6384149,3.0232286,-5.808145
181,-0.09354301542043686,-60.35054397583008,76.94741821289062,1.8898899953339936,0.16393142037174888,-84.57592320191252,-8.242104,7.0540557,-6.33202,11.773525,-4.8534465,-11.56457,-7.912481,-13.049289,-10.67842,32.515366,-22.284166,6.8773694,-4.5133533,-1.3654196,6.8501306,-2.5063777,23.325243,-33.345303,53.230373,-0.9427064,-2.3390636,-8.817893,4.84404,-20.654392,21.544537,40.84236,3.1921623,2.8281353,-5.69166
182,-0.029264699667692184,-60.5278434753418,76.95902252197266,1.9609444807434075,0.10196120576662097,-84.40674346576381,-7.9287767,6.897862,-6.415631,11.507317,-4.884711,-11.583417,-7.166628,-13.126414,-10.684489,31.58586,-22.333736,7.5200095,-4.4805646,-1.722044,6.6703835,-2.6778574,23.351427,-33.60182,53.2185,-0.8262292,-2.339216,-8.916911,4.9215717,-20.17243,21.644846,40.97949,3.7122545,2.568374,-5.5568666
183,0.02647167630493641,-60.69331741333008,76.96630859375,2.028930328949479,0.04495865070391564,-84.260635443807,-7.6479006,6.756047,-6.478096,11.294934,-4.931854,-11.590774,-6.455645,-13.249016,-10.85156,30.71914,-22.338274,8.144809,-4.431723,-2.062907,6.516535,-2.8336525,23.380192,-33.794,53.194027,-0.72257733,-2.339615,-8.996451,4.94275,-19.754366,21.929138,41.150383,4.074871,2.3009093,-5.394036
184,0.08560139685869217,-60.849754333496094,76.96959686279297,2.0638770875779775,0.00882955438205477,-84.15080671952371,-7.4392967,6.6603365,-6.518454,11.181566,-5.0074577,-11.566367,-5.9039164,-13.335002,-11.013527,30.065702,-22.29811,8.542039,-4.3644834,-2.3471606,6.390331,-2.9696069,23.403477,-33.911427,53.174614,-0.6860633,-2.3494961,-9.036315,4.9024105,-19.389225,22.320257,41.357346,4.1438136,2.081662,-5.1959524
185,0.14396382868289948,-60.993896484375,76.97712707519531,2.0531824935924936,0.003509999713188912,-84.06629710354704,-7.3395133,6.6197376,-6.5473633,11.2061205,-5.1209245,-11.498586,-5.562994,-13.37954,-11.186459,29.709251,-22.212084,8.600189,-4.2847743,-2.5586798,6.289429,-3.1036966,23.416433,-33.957996,53.181408,-0.73664004,-2.3841395,-9.028943,4.796441,-19.068966,22.82049,41.60921,3.8496494,1.9123367,-4.966169
186,0.19481398165225983,-61.124969482421875,76.98793029785156,2.0139289565524816,0.01852083449939488,-84.00473326791143,-7.31814,6.617062,-6.561318,11.335523,-5.2629485,-11.400221,-5.361929,-13.41996,-11.436635,29.560217,-22.084715,8.446551,-4.186561,-2.721649,6.2117414,-3.235655,23.417646,-33.939117,53.20931,-0.83805907,-2.4347591,-8.984495,4.6125703,-18.794325,23.463825,41.923378,3.2808065,1.7641611,-4.7105274
187,0.2385893166065216,-61.24584197998047,77.00250244140625,1.9607236297964998,0.03924923588993956,-83.99256985740973,-7.3182664,6.6437135,-6.5381246,11.513267,-5.4216094,-11.287432,-5.2447844,-13.442801,-11.669762,29.515903,-21.932375,8.228118,-4.0547967,-2.8530054,6.158844,-3.3464787,23.404663,-33.85796,53.246666,-0.97929937,-2.4748573,-8.908814,4.371189,-18.562157,24.210293,42.277443,2.5173523,1.6479952,-4.4245667
188,0.2793489098548889,-61.36345291137695,77.02153778076172,1.9085166270383842,0.05095973934255337,-84.05632442071519,-7.284098,6.6915917,-6.455611,11.68488,-5.5870595,-11.176,-5.1525598,-13.433615,-11.7914,29.469198,-21.773024,8.090764,-3.8736975,-2.9711387,6.129585,-3.4162905,23.37381,-33.71794,53.28349,-1.1476797,-2.4777172,-8.808052,4.121004,-18.365986,25.005993,42.628372,1.6197628,1.5748851,-4.101997
189,0.3209993541240692,-61.47657012939453,77.03951263427734,1.8515581939694117,0.05037952263415916,-84.22696679535608,-7.208236,6.7761292,-6.292947,11.861441,-5.7707853,-11.064684,-5.091526,-13.371674,-11.756437,29.41067,-21.594503,8.066271,-3.6063123,-3.0703728,6.134629,-3.4487092,23.317688,-33.503994,53.326828,-1.3677709,-2.4263852,-8.658558,3.8086333,-18.209793,25.888517,43.03363,0.52861017,1.5427842,-3.7239363
190,0.36356446146965027,-61.584781646728516,77.0565185546875,1.7847222710461623,0.04474941062414795,-84.48260086961834,-7.1188054,6.8971076,-6.0676203,12.066374,-5.9759793,-10.947341,-5.0851517,-13.2698765,-11.622131,29.39067,-21.393541,8.079689,-3.2764037,-3.1414928,6.1663227,-3.4504688,23.233053,-33.216446,53.385506,-1.6361333,-2.3393376,-8.465462,3.4736614,-18.090912,26.853605,43.458466,-0.7922609,1.5428971,-3.2972312
191,0.40074604749679565,-61.688232421875,77.07144165039062,1.7249552181120025,0.035193174990604856,-84.76983971956872,-7.008231,7.022522,-5.813196,12.249836,-6.1723337,-10.832552,-5.098923,-13.164576,-11.445637,29.389862,-21.20196,8.114725,-2.9335911,-3.204896,6.2117324,-3.4348783,23.12805,-32.90765,53.457157,-1.901766,-2.2426631,-8.274583,3.1172338,-18.001637,27.853697,43.88341,-2.121724,1.5757805,-2.857634
192,0.4320065975189209,-61.78679656982422,77.08038330078125,1.6909120194974385,0.02322698447966715,-85.03546681687685,-6.871479,7.118955,-5.5635324,12.368661,-6.334107,-10.728316,-5.1007104,-13.0933075,-11.284069,29.392345,-21.053968,8.155755,-2.6294434,-3.2841606,6.2552724,-3.4157557,23.018845,-32.637135,53.53954,-2.1231415,-2.1614401,-8.13276,2.7838826,-17.928308,28.819101,44.253548,-3.272186,1.64654,-2.439966
193,0.46119922399520874,-61.88151168823242,77.09056091308594,1.6983730860317208,0.004492699314309422,-85.28772245764019,-6.6874013,7.1702495,-5.3010526,12.395638,-6.4480925,-10.633856,-5.10245,-13.077505,-11.126761,29.429707,-20.971725,8.203052,-2.3560894,-3.403643,6.3021097,-3.3834562,22.918316,-32.397377,53.615433,-2.278066,-2.0928333,-8.053143,2.4773107,-17.860712,29.744802,44.566628,-4.2445517,1.7822962,-2.0279114
194,0.4884321093559265,-61.9730224609375,77.09962463378906,1.734804617924157,-0.01994555381859786,-85.54768838283272,-6.465166,7.1958222,-5.0163236,12.359627,-6.531071,-10.546169,-5.1148024,-13.094059,-10.951749,29.499142,-20.933191,8.263648,-2.0906918,-3.552644,6.359215,-3.3337398,22.830908,-32.1713,53.68239,-2.3996813,-2.0249164,-8.011161,2.1633155,-17.79783,30.666824,44.86345,-5.119336,1.972319,-1.6102312
195,0.5102177858352661,-62.07004928588867,77.11001586914062,1.7740911934392787,-0.039997496807295946,-85.78056106280704,-6.245067,7.2139044,-4.7552423,12.297527,-6.5974927,-10.469885,-5.104408,-13.113768,-10.798798,29.533026,-20.905643,8.332035,-1.8622277,-3.7020707,6.4103236,-3.2724428,22.758934,-31.990843,53.75093,-2.5151656,-1.9685801,-7.998803,1.8718164,-17.736944,31.55358,45.1189,-5.858752,2.1699684,-1.2294095
196,0.5308497548103333,-62.172061920166016,77.12073516845703,1.787076278802983,-0.045727644581640504,-85.95187563782862,-6.06416,7.243557,-4.5628676,12.239322,-6.6582627,-10.40903,-5.0375385,-13.107765,-10.707842,29.46265,-20.855509,8.402356,-1.6955762,-3.8227444,6.43857,-3.2197468,22.702993,-31.902634,53.8436,-2.6623282,-1.9349263,-8.006536,1.6356397,-17.675318,32.36469,45.305077,-6.4291096,2.3303983,-0.9296271
197,0.5513047575950623,-62.269866943359375,77.13383483886719,1.7643813454496746,-0.035526042241014244,-86.04229137074671,-5.931491,7.2901745,-4.4610524,12.186364,-6.712376,-10.368844,-4.890671,-13.066529,-10.699066,29.251554,-20.775312,8.475408,-1.5992619,-3.9069042,6.4404964,-3.1862254,22.66381,-31.934427,53.972153,-2.8871038,-1.9370738,-8.041744,1.4357651,-17.613276,33.107697,45.42887,-6.7659492,2.4561884,-0.72482926
198,0.5703580379486084,-62.366668701171875,77.14767456054688,1.7217654694008924,-0.014197727402541816,-86.07345333830875,-5.8262734,7.3435426,-4.422106,12.1217575,-6.753783,-10.34534,-4.686079,-13.006177,-10.747937,28.940199,-20.68136,8.553124,-1.5578939,-3.970747,6.4236336,-3.168744,22.641888,-32.067127,54.13064,-3.1671817,-1.9655591,-8.106124,1.2730731,-17.550138,33.78879,45.492275,-6.9153123,2.57032,-0.5921338
199,0.5869402885437012,-62.462223052978516,77.16242980957031,1.6680197462501245,0.01798552653713362,-86.07262346089608,-5.750182,7.3992305,-4.418277,12.065349,-6.792749,-10.32874,-4.462302,-12.936436,-10.826566,28.584732,-20.58074,8.631448,-1.5472769,-4.0216427,6.3927183,-3.1502328,22.634808,-32.26133,54.29481,-3.407356,-1.9972161,-8.18136,1.1569576,-17.490168,34.38677,45.50197,-6.9593616,2.6573293,-0.5209072
200,0.6006135940551758,-62.554901123046875,77.17870330810547,1.615124530947965,0.060650667922535366,-86.06660436009828,-5.700868,7.452735,-4.421294,12.029697,-6.836131,-10.309264,-4.2578278,-12.86727,-10.907116,28.24101,-20.480053,8.706851,-1.5537308,-4.066824,6.3509345,-3.1259224,22.637552,-32.4824,54.45659,-3.527592,-2.0102456,-8.248042,1.0555942,-17.42729,34.912407,45.502655,-6.9554863,2.7005816,-0.5040443
201,0.6176589727401733,-62.64560317993164,77.1927261352539,1.5609868313791422,0.11888674279657697,-86.04998752324524,-5.689292,7.5009713,-4.4373784,12.021711,-6.8853827,-10.284971,-4.073512,-12.800842,-10.996488,27.904041,-20.376078,8.783886,-1.587776,-4.1068473,6.288042,-3.0944324,22.650377,-32.74217,54.621143,-3.487424,-1.9955344,-8.295209,0.99113584,-17.35559,35.33584,45.47872,-6.908707,2.6820362,-0.5439692
202,0.6352835297584534,-62.74020004272461,77.2059326171875,1.5029835150231072,0.19118542010860773,-86.01241612102625,-5.712353,7.547221,-4.477214,12.032476,-6.936184,-10.260709,-3.8924844,-12.73176,-11.104733,27.551315,-20.26697,8.863032,-1.6469218,-4.1298337,6.215175,-3.0723689,22.667364,-33.056553,54.79452,-3.337926,-1.9669014,-8.335994,0.9662777,-17.308943,35.664085,45.397953,-6.773949,2.6157987,-0.6384776
203,0.6524819135665894,-62.82525634765625,77.21833038330078,1.443030098057807,0.2675857777259237,-85.97440473447236,-5.751165,7.595584,-4.5191264,12.059908,-6.9924254,-10.236837,-3.72352,-12.658444,-11.209566,27.207458,-20.159544,8.934247,-1.7105019,-4.153751,6.1306314,-3.0437255,22.695469,-33.395256,54.970608,-3.1341927,-1.9344839,-8.381894,0.95476073,-17.237726,35.941425,45.330414,-6.612749,2.5309377,-0.79005
204,0.6672546863555908,-62.901832580566406,77.22842407226562,1.3834190583093298,0.3377865989761441,-85.95598799290228,-5.784271,7.651203,-4.541175,12.097363,-7.055589,-10.213736,-3.5769265,-12.5793915,-11.288575,26.900497,-20.060654,8.987635,-1.7507536,-4.1775203,6.0615096,-3.0023897,22.728012,-33.70283,55.127377,-2.9084601,-1.909374,-8.451469,0.9253845,-17.15918,36.200912,45.29934,-6.4626474,2.4577625,-0.98509806
205,0.6760359406471252,-62.975425720214844,77.23941802978516,1.324452255346904,0.3973046579764882,-85.97337870935696,-5.812492,7.7204075,-4.527918,12.161687,-7.1350574,-10.192156,-3.46959,-12.48866,-11.321023,26.655548,-19.97862,9.007154,-1.7604939,-4.19126,6.015913,-2.9358354,22.756914,-33.95037,55.257427,-2.6356976,-1.8988463,-8.563523,0.8950598,-17.086433,36.42419,45.300686,-6.3365364,2.4057543,-1.2706652
