Frame,root_translateX,root_translateY,root_translateZ,root_rotateX,root_rotateY,root_rotateZ,left_hip_pitch_joint_dof,left_hip_roll_joint_dof,left_hip_yaw_joint_dof,left_knee_joint_dof,left_ankle_pitch_joint_dof,left_ankle_roll_joint_dof,right_hip_pitch_joint_dof,right_hip_roll_joint_dof,right_hip_yaw_joint_dof,right_knee_joint_dof,right_ankle_pitch_joint_dof,right_ankle_roll_joint_dof,waist_yaw_joint_dof,waist_roll_joint_dof,waist_pitch_joint_dof,left_shoulder_pitch_joint_dof,left_shoulder_roll_joint_dof,left_shoulder_yaw_joint_dof,left_elbow_joint_dof,left_wrist_roll_joint_dof,left_wrist_pitch_joint_dof,left_wrist_yaw_joint_dof,right_shoulder_pitch_joint_dof,right_shoulder_roll_joint_dof,right_shoulder_yaw_joint_dof,right_elbow_joint_dof,right_wrist_roll_joint_dof,right_wrist_pitch_joint_dof,right_wrist_yaw_joint_dof
0,0.06836696714162827,2.7916061878204346,77.8115234375,0.24506192665671528,-4.904223389622955,-88.06881497114135,7.442809,2.107632,-9.892761,8.800406,-14.562357,-6.142032,8.212517,-6.812613,-10.703038,12.612818,-13.676065,5.7394743,-0.21149434,-1.1034604,9.824524,3.8156765,14.151052,-26.494349,58.598804,14.345481,4.2859,-6.727971,-5.5506597,-14.063636,46.456787,67.51749,-5.71289,6.4968123,-7.471518
1,0.07744749635457993,2.774866819381714,77.80895233154297,0.2520043374859934,-4.931620398525135,-88.05101682567003,7.4803777,2.0904384,-9.904665,8.807084,-14.574175,-6.135434,8.265597,-6.8300242,-10.721606,12.608055,-13.684839,5.7565193,-0.18540077,-1.0832825,9.8078,3.8018782,14.169711,-26.595469,58.62298,14.3778515,4.287143,-6.7242365,-5.646067,-14.091478,46.781063,67.59329,-5.4854636,6.486941,-7.319548
2,0.0840354859828949,2.761641502380371,77.80854034423828,0.259751303030564,-4.959299187930603,-88.0316708890243,7.520015,2.072528,-9.917287,8.809635,-14.58287,-6.129141,8.321362,-6.8478746,-10.741583,12.599807,-13.691502,5.77407,-0.1804691,-1.0622473,9.790599,3.800444,14.184461,-26.673855,58.641476,14.419538,4.2868834,-6.7188296,-5.740277,-14.126272,47.110683,67.66049,-5.2596073,6.4785786,-7.1723094
3,0.0904402956366539,2.7485032081604004,77.80463409423828,0.2658452412277936,-4.986204023474298,-88.01558148610171,7.559162,2.0565977,-9.9284115,8.812691,-14.593571,-6.1222067,8.375372,-6.863886,-10.759204,12.590543,-13.697801,5.790564,-0.19731845,-1.0368316,9.778296,3.822815,14.203123,-26.724104,58.632805,14.457923,4.286957,-6.71975,-5.8454385,-14.192883,47.52526,67.70413,-4.99223,6.4737244,-7.013167
4,0.09923180192708969,2.7361273765563965,77.80182647705078,0.2700496276062337,-5.0115077960014895,-88.00792859041812,7.597231,2.0449915,-9.935572,8.817578,-14.60946,-6.113768,8.426386,-6.875035,-10.771097,12.577161,-13.702601,5.804421,-0.18543711,-1.002278,9.768323,3.821442,14.21753,-26.797293,58.638584,14.473622,4.2894053,-6.729852,-5.9733286,-14.267376,48.02329,67.76242,-4.676728,6.4693046,-6.826703
5,0.10602250695228577,2.725728750228882,77.80162048339844,0.2677203416682568,-5.035335317149614,-88.00879748258001,7.632153,2.0389767,-9.940585,8.826909,-14.63299,-6.1028523,8.473868,-6.8799324,-10.779044,12.558528,-13.705924,5.812507,-0.1438867,-0.9593789,9.760286,3.7939103,14.226373,-26.895658,58.66256,14.453689,4.2962465,-6.75464,-6.136608,-14.328129,48.60971,67.86867,-4.266133,6.453417,-6.62011
6,0.11445824056863785,2.7182061672210693,77.79667663574219,0.26332096208734773,-5.05790408337114,-88.01595419921271,7.6658835,2.0372047,-9.943755,8.83746,-14.66126,-6.0900335,8.517723,-6.880498,-10.783782,12.537888,-13.709172,5.81663,-0.13212343,-0.9089043,9.758922,3.7918823,14.233815,-26.949102,58.659275,14.422924,4.3041577,-6.794427,-6.335272,-14.4108,49.334373,67.97693,-3.7604,6.434465,-6.396595
7,0.12457917630672455,2.7032854557037354,77.79534149169922,0.2576607507768467,-5.078989916272601,-88.03056513045888,7.6998262,2.0377173,-9.941268,8.848802,-14.692017,-6.077374,8.560724,-6.8782325,-10.781008,12.511841,-13.708827,5.8222446,-0.10031877,-0.85256565,9.753259,3.7763371,14.239314,-27.022196,58.66739,14.384166,4.3129344,-6.8331857,-6.55906,-14.495573,50.143986,68.09768,-3.2668798,6.4325447,-6.141947
8,0.1327843964099884,2.6859521865844727,77.79467010498047,0.2524048329896111,-5.098161703914936,-88.05373789189524,7.7375255,2.039209,-9.929243,8.855988,-14.721045,-6.0668545,8.604043,-6.874662,-10.766249,12.479954,-13.7028,5.834702,-0.049244296,-0.79171026,9.734251,3.7516606,14.24441,-27.12063,58.690117,14.351784,4.320793,-6.8584056,-6.815512,-14.573649,51.059364,68.23225,-2.863971,6.4694867,-5.8423834
9,0.14361454546451569,2.6649718284606934,77.79454040527344,0.2483374903419923,-5.113872793074037,-88.08439380082969,7.7785726,2.0410523,-9.907695,8.856859,-14.746497,-6.0607414,8.647648,-6.8704457,-10.7379675,12.44067,-13.689383,5.8580155,-0.0032116824,-0.7273626,9.699905,3.7398434,14.250304,-27.217192,58.708805,14.340372,4.326946,-6.8652067,-7.1067905,-14.6574335,52.11616,68.37693,-2.5766342,6.5557146,-5.4928484
10,0.15310078859329224,2.6489570140838623,77.79090881347656,0.2436862426118004,-5.126592576559067,-88.12239706112425,7.8217053,2.044125,-9.878352,8.854037,-14.770927,-6.0574718,8.691141,-6.864661,-10.698788,12.394569,-13.669944,5.888464,0.06016873,-0.65895414,9.65345,3.7209997,14.257596,-27.337017,58.736633,14.332736,4.333091,-6.859755,-7.42339,-14.7362,53.274014,68.53761,-2.3692625,6.6767635,-5.101726
11,0.16274377703666687,2.6304240226745605,77.7886734008789,0.2387085485170136,-5.1398308551421374,-88.17016688993483,7.8677063,2.0489717,-9.839678,8.852601,-14.797415,-6.0529857,8.734832,-6.8569283,-10.649929,12.344547,-13.647678,5.9199457,0.12566783,-0.585507,9.603094,3.7073364,14.266224,-27.453028,58.762684,14.327856,4.337431,-6.8539686,-7.7822847,-14.814929,54.559017,68.692856,-2.1866887,6.8223205,-4.6727834
12,0.17568515241146088,2.607616901397705,77.78602600097656,0.23298555680699984,-5.156683070003269,-88.2304205317426,7.92011,2.056221,-9.790088,8.852799,-14.82737,-6.0431633,8.778135,-6.847172,-10.592582,12.296913,-13.628075,5.9463844,0.20580715,-0.5056027,9.555095,3.6864984,14.275942,-27.574474,58.79635,14.313819,4.3390517,-6.8578386,-8.18878,-14.888649,55.958305,68.82717,-1.988219,6.9811125,-4.210204
13,0.1857970505952835,2.5864992141723633,77.78335571289062,0.2255890571674229,-5.176691879178954,-88.30573524038091,7.9758196,2.0685797,-9.7279625,8.85965,-14.8639145,-6.0279045,8.820618,-6.8325,-10.526405,12.247924,-13.608939,5.965349,0.32131612,-0.41628602,9.508395,3.644182,14.286009,-27.719862,58.849113,14.275001,4.336756,-6.877609,-8.636047,-14.949514,57.487453,68.96549,-1.6918436,7.1444535,-3.7193222
14,0.19825047254562378,2.56600022315979,77.77972412109375,0.21551860866766578,-5.1986347847890695,-88.39416757366676,8.0356045,2.0848098,-9.654714,8.869993,-14.905228,-6.0089636,8.862328,-6.8141356,-10.450848,12.197,-13.589334,5.9803867,0.4137101,-0.31949246,9.464024,3.626359,14.296636,-27.821482,58.884254,14.236331,4.329529,-6.910496,-9.140613,-15.007345,59.210304,69.09715,-1.3228031,7.323663,-3.1962085
15,0.21015354990959167,2.541905164718628,77.77754974365234,0.20702187412324366,-5.224565632697327,-88.4910714671625,8.102446,2.099876,-9.572587,8.879822,-14.946998,-5.9856606,8.906204,-6.797118,-10.367477,12.147763,-13.571475,5.9943094,0.53784084,-0.22020492,9.417534,3.5857809,14.308007,-27.959864,58.941536,14.197427,4.3232293,-6.939564,-9.675429,-15.050793,60.968487,69.18292,-1.0742837,7.5292125,-2.6327603
16,0.22341792285442352,2.525043487548828,77.77574157714844,0.20341733701566436,-5.256569331548551,-88.5918351549139,8.176723,2.1083176,-9.484343,8.891273,-14.988537,-5.9572134,8.9529295,-6.7869725,-10.277506,12.107835,-13.559706,6.009921,0.6313018,-0.12422941,9.372261,3.568061,14.321104,-28.069115,58.98642,14.195302,4.319271,-6.957141,-10.265868,-15.085259,62.763638,69.173225,-1.0876427,7.772438,-2.0181384
17,0.23841145634651184,2.501939535140991,77.77284240722656,0.2064365802740254,-5.294915289923344,-88.69460909624023,8.259779,2.1075773,-9.391041,8.901863,-15.026864,-5.9207087,9.004335,-6.7859783,-10.181837,12.076763,-13.554078,6.0266495,0.7324551,-0.034300502,9.322994,3.5451913,14.336646,-28.200302,59.04294,14.240936,4.321413,-6.953146,-10.886686,-15.107804,64.55717,69.06377,-1.4910332,8.071402,-1.3080257
18,0.2521226704120636,2.4796972274780273,77.77021789550781,0.21327699542381728,-5.338603434228647,-88.80209817089593,8.349463,2.1008415,-9.291375,8.914767,-15.065266,-5.8775463,9.0587635,-6.7906194,-10.079657,12.052734,-13.553389,6.043355,0.83525807,0.052881923,9.270681,3.5230832,14.354743,-28.340437,59.1052,14.319951,4.327097,-6.9361043,-11.540178,-15.11831,66.39075,68.873825,-2.1735868,8.407372,-0.5175555
19,0.27007240056991577,2.456080675125122,77.76610565185547,0.22279977127057102,-5.387744662842996,-88.91639218493144,8.447499,2.091787,-9.183567,8.926908,-15.10434,-5.8331127,9.114753,-6.7986283,-9.969609,12.035696,-13.55727,6.0622745,0.9420237,0.14118545,9.2203045,3.4972618,14.374938,-28.489494,59.173477,14.391575,4.3327923,-6.916397,-12.231398,-15.117519,68.21279,68.58638,-2.9695685,8.733472,0.27293733
20,0.2863023281097412,2.4275920391082764,77.76351165771484,0.23235504673339494,-5.442372923466846,-89.03936333424598,8.557516,2.084813,-9.0662,8.931554,-15.143176,-5.792944,9.172658,-6.8064604,-9.850701,12.021085,-13.562615,6.0854826,1.032267,0.2344088,9.178628,3.4816403,14.398224,-28.619215,59.232594,14.422077,4.3341436,-6.9060116,-12.978463,-15.105239,70.00261,68.18606,-3.7004075,9.009886,0.9800009
21,0.3028583228588104,2.405484676361084,77.75890350341797,0.24046335711847747,-5.502351059508112,-89.17515964370179,8.679779,2.0818658,-8.934634,8.929279,-15.183382,-5.760033,9.230427,-6.8126025,-9.718879,12.009585,-13.569337,6.115165,1.1570904,0.33589554,9.142949,3.4363894,14.421823,-28.789143,59.31456,14.365703,4.3298554,-6.9074574,-13.752097,-15.090055,71.699295,67.655846,-4.3773565,9.234884,1.5939233
22,0.32351991534233093,2.3818376064300537,77.7532958984375,0.24777463525862967,-5.567526921809055,-89.32149674883695,8.812939,2.0803983,-8.791025,8.921778,-15.224066,-5.730945,9.289088,-6.818843,-9.575977,12.001291,-13.57787,6.149703,1.2268976,0.44132727,9.116437,3.4351022,14.451163,-28.890339,59.361473,14.2776575,4.3195434,-6.9209876,-14.593161,-15.061864,73.44444,67.00865,-5.0390024,9.430317,2.1541097
23,0.3446700870990753,2.355872631072998,77.74784088134766,0.2583581098276498,-5.638584028087482,-89.47100536977418,8.953984,2.0772233,-8.6443,8.913428,-15.2657795,-5.7015104,9.351476,-6.827406,-9.429794,11.997913,-13.590134,6.1853213,1.3146868,0.5469099,9.094096,3.4150581,14.483707,-29.021332,59.424118,14.181738,4.3105636,-6.931395,-15.470987,-15.024351,75.108955,66.25249,-5.678821,9.591229,2.6486742
24,0.36335688829421997,2.3327889442443848,77.74150085449219,0.26988934730970354,-5.716067704572957,-89.61622503959714,9.10119,2.0689518,-8.502705,8.90585,-15.307578,-5.667426,9.418179,-6.8411,-9.287577,12.005299,-13.61039,6.218356,1.3943158,0.6478209,9.076957,3.3923137,14.519853,-29.157505,59.49035,14.13231,4.306809,-6.9305925,-16.405003,-14.9746,76.696976,65.39888,-6.2469974,9.715827,3.06528
25,0.3825278580188751,2.3120923042297363,77.73482513427734,0.28769743728545993,-5.800797089046795,-89.75500993446595,9.2523575,2.0541174,-8.369803,8.903172,-15.352093,-5.627847,9.491914,-6.860667,-9.151727,12.021138,-13.638197,6.248086,1.4614345,0.7423358,9.065607,3.3682785,14.560774,-29.29791,59.559185,14.153705,4.3101163,-6.916608,-17.405197,-14.910736,78.23837,64.45728,-6.6810384,9.784781,3.3512266
26,0.4003574550151825,2.2872426509857178,77.72906494140625,0.3084528552692496,-5.892318430493542,-89.89127304363075,9.410534,2.0346458,-8.240524,8.90037,-15.397271,-5.5849853,9.571682,-6.8848314,-9.018244,12.043591,-13.672227,6.2764754,1.5174313,0.83200514,9.058732,3.3449538,14.606823,-29.439848,59.629456,14.216837,4.3178115,-6.894556,-18.464926,-14.831443,79.73479,63.42124,-7.020728,9.809341,3.5283675
27,0.4183174669742584,2.260432481765747,77.72123718261719,0.3314378254039191,-5.989146123243419,-90.02714649967818,9.574158,2.0124562,-8.111449,8.899655,-15.442582,-5.539088,9.654753,-6.9119067,-8.885233,12.073479,-13.710863,6.303537,1.5651537,0.918551,9.054344,3.323821,14.656921,-29.58152,59.70281,14.28938,4.3278317,-6.8658056,-19.572569,-14.733489,81.12638,62.28049,-7.3702774,9.831071,3.6963658
28,0.4365818202495575,2.235938310623169,77.71317291259766,0.35397798390505913,-6.089887504207254,-90.16461709231967,9.743058,1.9895425,-7.9789925,8.900788,-15.486292,-5.490462,9.7403,-6.9399834,-8.751175,12.108376,-13.751519,6.329345,1.6086788,1.003752,9.049863,3.303997,14.709246,-29.724258,59.783405,14.337094,4.3378773,-6.8315845,-20.716995,-14.613648,82.35063,61.030994,-7.8366375,9.888955,3.9556415
29,0.45350193977355957,2.2106711864471436,77.70710754394531,0.37964687668283964,-6.2002380732861075,-90.30654141229424,9.92444,1.9635574,-7.8404703,8.907436,-15.529636,-5.434552,9.833644,-6.9716115,-8.61336,12.15091,-13.796056,6.354369,1.650701,1.0884904,9.047272,3.2873557,14.761706,-29.870378,59.8748,14.355614,4.347552,-6.784619,-21.902538,-14.470718,83.398636,59.689087,-8.461286,9.981734,4.324427
30,0.47079432010650635,2.1925454139709473,77.69779205322266,0.40927754368362657,-6.319069564830276,-90.4512726082375,10.116115,1.9342252,-7.6983585,8.917216,-15.571875,-5.3727837,9.934814,-7.00683,-8.473565,12.198529,-13.843509,6.378446,1.688715,1.172188,9.045607,3.272829,14.813601,-30.019735,59.977474,14.361039,4.3579345,-6.726458,-23.135614,-14.305377,84.30203,58.258865,-9.182497,10.0889015,4.753588
31,0.487536758184433,2.1617934703826904,77.6913833618164,0.43575057113362864,-6.434409113266459,-90.59338550307615,10.304286,1.907154,-7.5571103,8.924477,-15.612152,-5.31427,10.030882,-7.0400043,-8.336347,12.24901,-13.89136,6.400707,1.7197987,1.2550817,9.037174,3.2545424,14.865713,-30.170658,60.089657,14.350265,4.3691235,-6.671545,-24.404377,-14.115592,85.0466,56.7113,-9.961565,10.220647,5.2432857
32,0.51120525598526,2.1256203651428223,77.68510437011719,0.4584051845941462,-6.534656841098349,-90.72812036295353,10.474524,1.8871974,-7.4208617,8.923304,-15.64883,-5.268074,10.109587,-7.0660033,-8.206235,12.298699,-13.936223,6.4204445,1.7412611,1.3363565,9.014738,3.2275972,14.919986,-30.321516,60.20847,14.320391,4.3813186,-6.6343193,-25.702412,-13.8999195,85.62488,55.021385,-10.751352,10.386598,5.7939844
33,0.5227817893028259,2.1098392009735107,77.67826080322266,0.4737874612064608,-6.613708014004899,-90.85427349893554,10.619863,1.8781043,-7.289469,8.910793,-15.681168,-5.2402363,10.162322,-7.0816994,-8.083851,12.34926,-13.97755,6.4362106,1.7495474,1.4174718,8.974113,3.1909642,14.978384,-30.47087,60.33397,14.253008,4.3956294,-6.6255555,-27.034025,-13.657433,86.00732,53.187584,-11.535641,10.603382,6.4019337
34,0.5385144352912903,2.088411808013916,77.67192840576172,0.48540059042450673,-6.678826633604754,-90.9747300163568,10.7500515,1.8762362,-7.160898,8.888349,-15.709134,-5.2246485,10.196384,-7.0907693,-7.96679,12.4040575,-14.018247,6.4488964,1.7475944,1.4979882,8.919746,3.148074,15.041433,-30.62154,60.465584,14.154079,4.411699,-6.635675,-28.400011,-13.386903,86.198715,51.231125,-12.349599,10.859069,7.0704403
35,0.5438002347946167,2.0663070678710938,77.6656265258789,0.4944843441776081,-6.738161697966637,-91.08894527950876,10.87158,1.876342,-7.0374737,8.865293,-15.736101,-5.212448,10.226634,-7.0973177,-7.8556886,12.454293,-14.055746,6.4610033,1.7336589,1.575357,8.856597,3.1101973,15.107799,-30.767809,60.59341,14.060757,4.4271,-6.648821,-29.81186,-13.095953,86.27012,49.151062,-13.190827,11.115867,7.809892
36,0.5538907647132874,2.0445001125335693,77.65852355957031,0.5050684442493841,-6.80038825702718,-91.19698715360603,10.994573,1.8736173,-6.9208136,8.845781,-15.763492,-5.1945553,10.266786,-7.1054354,-7.750528,12.495214,-14.089932,6.4751105,1.725452,1.6470965,8.791565,3.0711708,15.174909,-30.921442,60.719265,14.0094795,4.4391937,-6.649838,-31.214619,-12.770186,86.20571,46.95574,-14.154289,11.346633,8.630288
37,0.5656684041023254,2.0229275226593018,77.65077209472656,0.5189718935702304,-6.868334205489781,-91.30028449745046,11.1219845,1.8660961,-6.8095694,8.831005,-15.791666,-5.167933,10.318866,-7.11759,-7.6497517,12.52885,-14.121788,6.492995,1.6971562,1.7150635,8.723453,3.052094,15.23966,-31.06473,60.835083,14.022234,4.4476333,-6.631181,-32.67366,-12.427699,86.07764,44.63825,-15.258781,11.511621,9.532534
38,0.5752007365226746,2.0020413398742676,77.64521026611328,0.5305548213098656,-6.937414856890225,-91.3983093652476,11.248727,1.8568727,-6.7031126,8.819798,-15.82105,-5.1374702,10.377365,-7.130624,-7.5538344,12.554228,-14.149585,6.5130167,1.6621029,1.7818589,8.651745,3.0377493,15.300486,-31.207352,60.950222,14.078029,4.4535856,-6.6026382,-34.153656,-12.063311,85.81416,42.204144,-16.514479,11.635888,10.512078
39,0.5865789651870728,1.9828977584838867,77.63880157470703,0.5434762199754399,-7.0042201199212535,-91.48807884784189,11.369941,1.8475891,-6.6059217,8.809793,-15.848912,-5.106754,10.438412,-7.1429687,-7.466128,12.573658,-14.175726,6.532243,1.6250659,1.8469009,8.575407,3.0221243,15.358174,-31.346497,61.060356,14.142101,4.4563675,-6.5720057,-35.647614,-11.675023,85.43858,39.667545,-17.722792,11.752506,11.569151
40,0.5907132029533386,1.961242914199829,77.63484954833984,0.5541739269503695,-7.064972922389301,-91.5657895996587,11.480981,1.8398212,-6.5221186,8.7999525,-15.874214,-5.079238,10.498765,-7.152794,-7.3900156,12.586287,-14.199917,6.547852,1.5901799,1.9090542,8.493354,3.0015416,15.414695,-31.476234,61.158623,14.182108,4.4553385,-6.547505,-37.14207,-11.259648,84.967606,37.038006,-18.69481,11.903027,12.704171
41,0.5962541699409485,1.9444025754928589,77.62877655029297,0.5617165183450099,-7.119890446120057,-91.63266486587064,11.580738,1.8357453,-6.451721,8.79198,-15.898524,-5.0568643,10.55957,-7.157214,-7.324156,12.589854,-14.22216,6.5569396,1.5556148,1.9683099,8.402169,2.9800913,15.471542,-31.590702,61.243065,14.189025,4.44926,-6.533857,-38.650345,-10.8125515,84.40544,34.3003,-19.494242,12.147355,13.978649
42,0.5991684794425964,1.925540566444397,77.62454986572266,0.5683662856592335,-7.170308219063816,-91.6899256000805,11.67279,1.8338927,-6.3925858,8.783698,-15.920911,-5.037371,10.620194,-7.158571,-7.2672315,12.588521,-14.243746,6.5618815,1.5155077,2.02576,8.303345,2.9634955,15.528753,-31.690191,61.31231,14.180473,4.438659,-6.5264235,-40.18034,-10.333307,83.7448,31.465809,-20.185282,12.448762,15.372575
43,0.5966672897338867,1.8988244533538818,77.62257385253906,0.575761585657272,-7.215274478195924,-91.73412387340748,11.754001,1.8304797,-6.3470902,8.777618,-15.9402485,-5.0182667,10.681208,-7.1610427,-7.223778,12.580033,-14.262355,6.567124,1.4736452,2.0816846,8.204041,2.9451847,15.586035,-31.782799,61.36329,14.16403,4.425889,-6.5194955,-41.703957,-9.823072,82.97294,28.5754,-20.582214,12.720992,16.759897
44,0.5980688333511353,1.8860981464385986,77.6196060180664,0.5867672868192192,-7.253770069242778,-91.76225793734658,11.822546,1.8210164,-6.3173003,8.772633,-15.953402,-4.9968762,10.742753,-7.1695538,-7.1981235,12.562658,-14.275545,6.577311,1.4351368,2.1352696,8.1116905,2.9168243,15.6430855,-31.878643,61.39548,14.146051,4.4132824,-6.5072565,-43.192596,-9.284044,82.07752,25.668205,-20.49325,12.889167,18.010323
45,0.5951458811759949,1.8580201864242554,77.61803436279297,0.6033584789783576,-7.284922514525813,-91.77325334782188,11.878708,1.8023884,-6.3040423,8.766108,-15.956674,-4.9713016,10.804204,-7.18785,-7.1920156,12.536536,-14.283413,6.59564,1.3983289,2.1832604,8.026806,2.8812544,15.698868,-31.97104,61.40603,14.127117,4.4009185,-6.4816093,-44.64543,-8.718898,81.03076,22.696508,-19.833605,12.997403,19.175064
46,0.5888900756835938,1.8388848304748535,77.61698913574219,0.6244488499874425,-7.309448230650781,-91.76888929039816,11.921897,1.777658,-6.306257,8.761786,-15.953725,-4.9434166,10.866043,-7.2122865,-7.2031145,12.501476,-14.2863455,6.6188903,1.3606052,2.228638,7.9454556,2.8416805,15.752956,-32.05912,61.396343,14.102354,4.3876944,-6.4479375,-46.077347,-8.1307535,79.84561,19.657692,-18.71214,13.089968,20.289183
47,0.5909247994422913,1.8332222700119019,77.61566162109375,0.6436089964315452,-7.3287985716127295,-91.7500492166517,11.955802,1.7516983,-6.3227234,8.756001,-15.946964,-4.9160047,10.927459,-7.2377763,-7.2288814,12.461551,-14.286406,6.6425447,1.3295996,2.2784047,7.8688607,2.7902904,15.805842,-32.158455,61.37064,14.076839,4.374137,-6.4209213,-47.48298,-7.520529,78.56447,16.654926,-17.221508,13.089442,21.198769
48,0.5898244380950928,1.8232479095458984,77.61540222167969,0.6584920297200838,-7.344364678028961,-91.7175947455541,11.980498,1.730326,-6.3528323,8.752643,-15.942646,-4.8920865,10.989495,-7.2579713,-7.267235,12.4172945,-14.284168,6.661828,1.3133836,2.3398182,7.7987256,2.7181509,15.858361,-32.28607,61.333813,14.054772,4.360923,-6.414942,-48.85793,-6.8865905,77.231415,13.793724,-15.452626,12.904319,21.756351
49,0.5844134092330933,1.8186500072479248,77.61615753173828,0.6633733504258508,-7.355935425164828,-91.67356782845806,11.995216,1.7176913,-6.3948646,8.75383,-15.944063,-4.873141,11.049903,-7.2682457,-7.315729,12.37085,-14.279018,6.673343,1.3185995,2.4175146,7.7387395,2.6182318,15.911473,-32.45613,61.286144,14.029321,4.3499336,-6.438684,-50.22036,-6.2252765,75.84747,11.075515,-13.4318495,12.4387865,21.89582
50,0.5833105444908142,1.8030457496643066,77.61439514160156,0.6623580661985273,-7.363006444589094,-91.61692432167968,12.000057,1.7107965,-6.449957,8.756646,-15.947154,-4.857446,11.109313,-7.2721524,-7.3762207,12.320573,-14.270597,6.680267,1.341055,2.5082557,7.6883907,2.4969914,15.964685,-32.65718,61.222942,14.0014715,4.3402143,-6.4831915,-51.571465,-5.534141,74.38992,8.458654,-11.116173,11.744355,21.724293
51,0.5824558734893799,1.7899913787841797,77.61576080322266,0.6617065803835724,-7.366122349347543,-91.54379212274532,11.996942,1.7002984,-6.5204806,8.75913,-15.947681,-4.842771,11.170518,-7.2792892,-7.452348,12.26584,-14.261504,6.6880836,1.3749679,2.6034586,7.643239,2.3608983,16.016605,-32.87236,61.145714,13.984179,4.3284855,-6.5357823,-52.88308,-4.8113694,72.87052,5.9850125,-8.489541,10.941629,21.355333
52,0.582608163356781,1.7756608724594116,77.6148452758789,0.6682617447992586,-7.365590411319984,-91.45090294760269,11.986586,1.6776175,-6.6089983,8.758046,-15.939998,-4.827095,11.234652,-7.299021,-7.5476165,12.209043,-14.255939,6.7024207,1.4152653,2.6948009,7.598282,2.215013,16.065317,-33.084114,61.0571,13.991628,4.3113494,-6.584054,-54.12684,-4.0543804,71.300316,3.695249,-5.5267797,10.153613,20.89275
53,0.5868154168128967,1.7638765573501587,77.61421203613281,0.6827640728450226,-7.360203923412694,-91.3370282236727,11.968172,1.6412978,-6.715664,8.753139,-15.922756,-4.81143,11.301481,-7.3329554,-7.6635685,12.148236,-14.253207,6.7251735,1.4643503,2.7804153,7.555039,2.0553112,16.109705,-33.290245,60.957024,14.0336685,4.284996,-6.628128,-55.308006,-3.256875,69.65585,1.5981729,-2.1525955,9.363991,20.389776
54,0.5863394737243652,1.7482823133468628,77.6156997680664,0.701715575776534,-7.350227047655925,-91.20412663241557,11.941803,1.5958333,-6.8392444,8.744716,-15.898018,-4.7964716,11.370572,-7.3760395,-7.798198,12.083076,-14.251854,6.753224,1.5269537,2.8656628,7.5163045,1.8771437,16.149601,-33.502026,60.845898,14.100795,4.2520795,-6.6734366,-56.44617,-2.4124992,67.9386,-0.32016286,1.5907623,8.498289,19.800974
55,0.5878717303276062,1.7385718822479248,77.61515808105469,0.7254143085351218,-7.3383177651248195,-91.05320674033756,11.90926,1.5409303,-6.9805703,8.737057,-15.870386,-4.779194,11.444179,-7.428316,-7.9497967,12.01586,-14.252819,6.7845864,1.5998861,2.952558,7.479161,1.6852077,16.18413,-33.7205,60.727585,14.178683,4.2189565,-6.714727,-57.53486,-1.5198019,66.20079,-2.0577605,5.564964,7.5940967,19.067848
56,0.5932651162147522,1.7254447937011719,77.6138687133789,0.7526583542517952,-7.327246717074274,-90.88508060367684,11.873832,1.4770387,-7.140662,8.730384,-15.841754,-4.75685,11.5274515,-7.488608,-8.1171465,11.942955,-14.253983,6.817126,1.679333,3.0432193,7.4413505,1.4847703,16.211626,-33.94484,60.605835,14.254597,4.191979,-6.7464623,-58.566895,-0.58143127,64.49457,-3.6181047,9.638993,6.679639,18.122059
57,0.598725438117981,1.7080700397491455,77.61569213867188,0.7847491810056741,-7.316352652896612,-90.70097832408788,11.832406,1.4026555,-7.3197393,8.7305975,-15.8165245,-4.7261114,11.619386,-7.558122,-8.297602,11.864651,-14.2553215,6.849854,1.7744323,3.1355493,7.4020634,1.2650515,16.231457,-34.187607,60.487717,14.337603,4.1736426,-6.7660594,-59.530544,0.40450147,62.809288,-4.990529,13.926311,5.705791,16.920015
58,0.6059820055961609,1.6968634128570557,77.61486053466797,0.8203576510725383,-7.304784719026854,-90.5001589356398,11.786104,1.3183496,-7.5171957,8.732648,-15.790499,-4.689348,11.71866,-7.636257,-8.492776,11.781486,-14.257271,6.884014,1.8868771,3.229469,7.3637443,1.0239807,16.243107,-34.446762,60.3713,14.431258,4.160231,-6.776431,-60.44113,1.4417182,61.123802,-6.177655,18.442516,4.620843,15.522919
59,0.6164169311523438,1.682998776435852,77.61490631103516,0.8606994215069409,-7.294810439406063,-90.28064916182392,11.7374325,1.2261564,-7.732728,8.7368765,-15.762805,-4.6520953,11.827381,-7.7217383,-8.707197,11.69605,-14.261422,6.9212008,2.0003543,3.328673,7.3283205,0.77800196,16.245014,-34.69993,60.249012,14.512007,4.149112,-6.780099,-61.3289,2.5261302,59.47343,-7.2088246,22.918304,3.4576483,14.001913
60,0.6330058574676514,1.6607367992401123,77.61463165283203,0.9020024709984552,-7.289096139554182,-90.04052069963863,11.690794,1.1281205,-7.966058,8.740178,-15.7309885,-4.619766,11.948923,-7.8130956,-8.94548,11.609467,-14.269011,6.96288,2.0973969,3.4359655,7.297931,0.5437856,16.235144,-34.92219,60.11452,14.558134,4.1375723,-6.779262,-62.21792,3.6466522,57.892906,-8.122437,27.092997,2.2709405,12.410028
61,0.64667809009552,1.6411010026931763,77.61405944824219,0.944616350960495,-7.288183252961176,-89.77537360314867,11.646595,1.0245527,-8.220525,8.740671,-15.691877,-4.5967846,12.085645,-7.91,-9.2122965,11.519653,-14.280006,7.0102963,2.182378,3.5483015,7.2758236,0.31295645,16.212677,-35.11097,59.97192,14.555636,4.1271033,-6.768931,-63.104668,4.794973,56.396015,-8.943503,30.970255,1.0268227,10.57531
62,0.6603111624717712,1.619966745376587,77.61491394042969,0.9905682578542433,-7.290810693474951,-89.48768445082015,11.602218,0.91449547,-8.495171,8.741221,-15.648072,-4.57934,12.236162,-8.012809,-9.504267,11.425662,-14.293294,7.0624456,2.2631247,3.6627028,7.2594976,0.07666797,16.178,-35.279064,59.82836,14.519509,4.1185255,-6.7490287,-63.971622,5.9668236,54.961536,-9.664824,34.664436,-0.31625846,8.523389
63,0.6754390597343445,1.6007909774780273,77.61054992675781,1.039020503572049,-7.296948808912136,-89.18557372161231,11.558707,0.79785824,-8.782806,8.745078,-15.60494,-4.5602803,12.395802,-8.121046,-9.813533,11.333352,-14.309487,7.1174517,2.3274453,3.7815626,7.241612,-0.14773783,16.13113,-35.423214,59.682693,14.471901,4.1081753,-6.7288294,-64.819916,7.152701,53.564304,-10.284242,38.099285,-1.6589017,6.5795054
64,0.6930016279220581,1.5815917253494263,77.6084213256836,1.0885197855902748,-7.306185949539735,-88.87717729542331,11.517488,0.67440355,-9.075961,8.753208,-15.566496,-4.5324254,12.558461,-8.235118,-10.13207,11.250946,-14.329945,7.1734324,2.3632421,3.9069593,7.2151647,-0.34376213,16.07246,-35.54084,59.53407,14.434395,4.0923996,-6.7175784,-65.651405,8.338626,52.178555,-10.800507,41.21504,-2.857224,5.057417
65,0.7163584232330322,1.5645438432693481,77.60527038574219,1.141026886404799,-7.319548883653237,-88.56284232677508,11.478084,0.5440656,-9.374379,8.770138,-15.536616,-4.490933,12.72821,-8.354142,-10.461502,11.174031,-14.351989,7.2290735,2.3744495,4.038143,7.1768446,-0.51022744,16.00167,-35.628304,59.386284,14.403036,4.069168,-6.720086,-66.44745,9.512104,50.77502,-11.243996,44.008133,-3.7870739,3.99392
66,0.736973762512207,1.536566972732544,77.60441589355469,1.195968198012658,-7.336774991648319,-88.23880805638392,11.439667,0.40650687,-9.681223,8.794605,-15.512484,-4.440486,12.906165,-8.478254,-10.804735,11.100764,-14.37562,7.285696,2.3683124,4.171672,7.130648,-0.6588505,15.919522,-35.691513,59.242325,14.368645,4.0409293,-6.7301226,-67.20348,10.663858,49.37019,-11.627796,46.540154,-4.5007143,3.1965709
67,0.7590634822845459,1.5064305067062378,77.60118103027344,1.253107514371574,-7.356092696980474,-87.90716167694224,11.403663,0.26294166,-9.995083,8.817766,-15.487337,-4.388619,13.085828,-8.607874,-11.156966,11.036402,-14.404465,7.3452764,2.3358605,4.3063703,7.0806193,-0.7892591,15.828749,-35.737244,59.098434,14.348917,4.010832,-6.7405825,-67.93974,11.781652,48.012283,-11.92949,48.853153,-5.093058,2.6348057
68,0.7834179997444153,1.47891104221344,77.59446716308594,1.3135152547084756,-7.375447016249287,-87.57055435905943,11.367652,0.11379373,-10.314438,8.837358,-15.457549,-4.342892,13.2583065,-8.743915,-11.512281,10.989957,-14.443869,7.4098215,2.268369,4.4402523,7.030642,-0.9006227,15.733567,-35.773426,58.950012,14.360132,3.9820774,-6.744656,-68.67072,12.851065,46.75183,-12.134029,50.9803,-5.663091,2.2898996
69,0.8112768530845642,1.4584177732467651,77.58802032470703,1.3778816536464942,-7.392055657151776,-87.22664469991551,11.329694,-0.042296436,-10.641626,8.848223,-15.418694,-4.3064103,13.421138,-8.888123,-11.87293,10.9596405,-14.493553,7.4813466,2.165135,4.5708065,6.978417,-0.99176645,15.636149,-35.79603,58.792088,14.423512,3.9558418,-6.73822,-69.36687,13.857851,45.58805,-12.247528,52.907143,-6.1883,2.2598374
70,0.843383252620697,1.4367409944534302,77.5809097290039,1.4452023703896852,-7.407525835185869,-86.87518949859208,11.290949,-0.20499836,-10.976575,8.85376,-15.374193,-4.2748866,13.577513,-9.039853,-12.240532,10.945397,-14.553215,7.5582,2.0346184,4.6965666,6.922427,-1.065836,15.537636,-35.807354,58.62935,14.523773,3.9306438,-6.726005,-70.005554,14.791641,44.507164,-12.305473,54.63602,-6.605817,2.5061321
71,0.8737455010414124,1.412480115890503,77.5718765258789,1.5133205856385736,-7.427505492884939,-86.52127351004337,11.258278,-0.37135303,-11.3137045,8.85741,-15.328494,-4.244493,13.734828,-9.195245,-12.609574,10.943121,-14.618708,7.637048,1.8823264,4.8161054,6.868514,-1.1265538,15.441209,-35.8217,58.468765,14.6268215,3.905559,-6.7146688,-70.60901,15.645522,43.544662,-12.330824,56.21767,-6.9669104,2.8165815
72,0.9016188979148865,1.3915923833847046,77.56645202636719,1.5824171662614281,-7.457628090436978,-86.17011317219749,11.236858,-0.5376429,-11.647754,8.865417,-15.2875595,-4.211638,13.89985,-9.350121,-12.974833,10.949917,-14.687542,7.7144065,1.71308,4.9290943,6.8227553,-1.1766547,15.35123,-35.853706,58.315086,14.697204,3.8798764,-6.7110195,-71.19893,16.415648,42.736153,-12.347775,57.698505,-7.335785,2.9827192
73,0.9336094260215759,1.3668617010116577,77.55912780761719,1.6502245269322464,-7.501805170163115,-85.81572301101923,11.229825,-0.7055574,-11.983952,8.879438,-15.252001,-4.1746397,14.079409,-9.505213,-13.340988,10.967176,-14.761421,7.789954,1.5213611,5.0340157,6.7872977,-1.211799,15.270627,-35.90933,58.163578,14.715742,3.8538942,-6.721051,-71.7721,17.096493,42.089584,-12.342966,59.067833,-7.733922,2.9636803
74,0.9677045941352844,1.3450554609298706,77.5526123046875,1.7185287970107144,-7.556279412918776,-85.45778006704808,11.234542,-0.8757621,-12.322971,8.894629,-15.218262,-4.1357503,14.26787,-9.662247,-13.708755,10.995732,-14.840808,7.865316,1.3110938,5.1300335,6.7586613,-1.232913,15.200443,-35.98487,58.011288,14.703267,3.8280673,-6.740589,-72.29953,17.684504,41.59844,-12.323319,60.310883,-8.13296,2.861845
75,0.9997100830078125,1.3244469165802002,77.5417709350586,1.7863969588795556,-7.61454200675642,-85.10983993028795,11.245829,-1.0447977,-12.652498,8.909672,-15.186443,-4.096784,14.453984,-9.818722,-14.067076,11.032599,-14.921744,7.9400315,1.1009281,5.217018,6.735338,-1.247569,15.1417055,-36.076916,57.863235,14.688343,3.8017032,-6.7614365,-72.76984,18.184006,41.276047,-12.334366,61.46621,-8.529193,2.6870017
76,1.0336942672729492,1.300358533859253,77.53216552734375,1.8528234250184359,-7.669945467366753,-84.78537139277128,11.259513,-1.2087727,-12.959863,8.920125,-15.154869,-4.059574,14.62597,-9.971638,-14.404224,11.075381,-15.000782,8.013427,0.9077889,5.295841,6.7160296,-1.2628479,15.095382,-36.18095,57.72373,14.69834,3.7740097,-6.7755523,-73.17615,18.60577,41.132423,-12.414477,62.5711,-8.918117,2.449461
77,1.0687260627746582,1.2774795293807983,77.52226257324219,1.9218877257134221,-7.723319643256253,-84.48686768335193,11.277624,-1.3689146,-13.2441845,8.924418,-15.122407,-4.021651,14.779776,-10.125766,-14.719084,11.132542,-15.080689,8.086482,0.7304543,5.366227,6.705433,-1.2785983,15.062842,-36.296757,57.586258,14.750105,3.7458553,-6.778164,-73.53155,18.958878,41.184032,-12.566351,63.71347,-9.33776,2.0054
78,1.1048874855041504,1.2598665952682495,77.51312255859375,1.990566620845173,-7.777150240662703,-84.20744214937858,11.300205,-1.5269493,-13.511328,8.925707,-15.090136,-3.9829123,14.923097,-10.278807,-15.017614,11.199728,-15.161356,8.158886,0.5601961,5.4283657,6.703129,-1.2893021,15.044596,-36.424393,57.447323,14.826019,3.717242,-6.77489,-73.83631,19.248837,41.423496,-12.761582,64.84503,-9.785214,1.3973416
79,1.1365017890930176,1.2452943325042725,77.50433349609375,2.057347303478641,-7.82757332719696,-83.9467900418431,11.323636,-1.6779537,-13.759421,8.92372,-15.059842,-3.9490602,15.054172,-10.427412,-15.296483,11.271086,-15.241243,8.228956,0.40041155,5.48551,6.701318,-1.2929025,15.039528,-36.55897,57.315556,14.901402,3.6859486,-6.7725725,-74.07286,19.483744,41.825005,-12.9811735,65.80225,-10.1825,0.9132095
80,1.1679104566574097,1.2286739349365234,77.49708557128906,2.117793685478033,-7.870351074597564,-83.70444705942262,11.347544,-1.8163354,-13.986593,8.910903,-15.029588,-3.925703,15.17989,-10.562447,-15.554823,11.32216,-15.309677,8.294732,0.25403795,5.5413256,6.6919346,-1.2871386,15.045352,-36.693695,57.20017,14.953115,3.6496632,-6.7780237,-74.22733,19.673716,42.359726,-13.200945,66.42545,-10.439396,0.8378666
81,1.2032183408737183,1.2108047008514404,77.48978424072266,2.1687318181041135,-7.903374618950533,-83.47493960851172,11.369319,-1.9393309,-14.195303,8.884404,-14.999819,-3.921075,15.301138,-10.681464,-15.796227,11.348682,-15.365954,8.355285,0.114071585,5.59718,6.6719937,-1.2713779,15.061553,-36.831837,57.100063,14.972117,3.6038637,-6.7951326,-74.29927,19.828085,43.035313,-13.419175,66.751045,-10.617833,1.1679964
82,1.2339115142822266,1.1964665651321411,77.48225402832031,2.2125021823582833,-7.929033115944903,-83.26008429739532,11.390098,-2.0500567,-14.385801,8.848479,-14.971654,-3.929954,15.415434,-10.789145,-16.02018,11.361158,-15.41457,8.411727,-0.023053674,5.652691,6.6469774,-1.2445693,15.08817,-36.970913,57.010334,14.9720125,3.5509677,-6.819356,-74.30609,19.952036,43.859447,-13.630725,66.839165,-10.730557,1.7742618
83,1.264879822731018,1.1830896139144897,77.47492218017578,2.255094366617509,-7.950242859973226,-83.07091204423823,11.412372,-2.152665,-14.552443,8.809047,-14.944024,-3.937697,15.517855,-10.889637,-16.217413,11.370455,-15.458368,8.465284,-0.14571412,5.7072287,6.6209645,-1.208291,15.1218,-37.100468,56.938797,14.962019,3.4989722,-6.8436007,-74.262085,20.0461,44.79624,-13.810395,66.5646,-10.614134,2.7524219
84,1.295985221862793,1.1627628803253174,77.46891021728516,2.2989035255131878,-7.970375655354253,-82.91803767873571,11.436434,-2.2516422,-14.690133,8.778308,-14.919723,-3.9297316,15.605339,-10.987188,-16.379156,11.384106,-15.498853,8.517174,-0.24987271,5.762585,6.5992455,-1.1572374,15.159515,-37.201828,56.88759,14.952443,3.45566,-6.8614583,-74.17698,20.11719,45.82169,-13.936531,65.789345,-10.118788,4.203235
85,1.3286347389221191,1.1443403959274292,77.46466064453125,2.3453282613555158,-7.989038581102314,-82.80802543219491,11.462568,-2.3505762,-14.794875,8.758622,-14.897404,-3.8977566,15.673232,-11.087305,-16.498648,11.409922,-15.538729,8.568149,-0.33104652,5.818233,6.581415,-1.0898952,15.19806,-37.267925,56.85798,14.948471,3.4216034,-6.865231,-74.02937,20.167185,46.957012,-14.022819,64.47849,-9.293763,6.3221164
86,1.3573342561721802,1.1295793056488037,77.4591293334961,2.3947944803443493,-8.005244532450472,-82.73413809865704,11.490143,-2.446255,-14.8705435,8.745252,-14.877395,-3.8508809,15.725221,-11.185299,-16.582289,11.439359,-15.57529,8.617302,-0.39710984,5.8744054,6.564776,-1.0078887,15.236394,-37.304646,56.851265,14.944935,3.3929224,-6.859711,-73.82051,20.19673,48.212147,-14.0714,62.66776,-8.254476,9.019742
87,1.3877755403518677,1.1147419214248657,77.45433044433594,2.4405539027630487,-8.019409524501445,-82.6863345018307,11.517875,-2.5338676,-14.922318,8.737451,-14.862436,-3.800959,15.7652,-11.276045,-16.639044,11.469889,-15.608763,8.663922,-0.4534439,5.9313354,6.5477233,-0.9191833,15.274187,-37.32476,56.87786,14.933379,3.3710706,-6.856957,-73.599815,20.207102,49.528076,-14.039109,60.311832,-6.954121,11.999056
88,1.4163905382156372,1.0951664447784424,77.45075225830078,2.4785917884215736,-8.032173933628355,-82.6547157446522,11.548629,-2.6068537,-14.956092,8.724396,-14.84965,-3.7599955,15.804927,-11.352933,-16.679266,11.483364,-15.631371,8.707303,-0.50457346,5.9887576,6.527825,-0.8316341,15.311758,-37.342476,56.94907,14.9047985,3.3573582,-6.8690133,-73.41808,20.202707,50.84411,-13.884019,57.35491,-5.327652,14.99443
89,1.443579912185669,1.0811017751693726,77.44676971435547,2.5060953020990717,-8.043084100658108,-82.63985555554935,11.581597,-2.6624045,-14.969788,8.707481,-14.84141,-3.7319438,15.844119,-11.410664,-16.702625,11.476503,-15.640994,8.747938,-0.5526342,6.0492854,6.5022545,-0.73683405,15.346084,-37.347622,57.067936,14.844579,3.352939,-6.899981,-73.29865,20.190062,52.126118,-13.609761,53.589848,-3.208341,18.458357
90,1.4676390886306763,1.068135142326355,77.44316101074219,2.5266381536856137,-8.05213312206158,-82.6459963867359,11.616871,-2.7039557,-14.961466,8.688651,-14.836977,-3.71011,15.879729,-11.454125,-16.70473,11.45427,-15.639486,8.786089,-0.618404,6.1168933,6.4738407,-0.6109192,15.382721,-37.309208,57.209362,14.767483,3.3560984,-6.946117,-73.16943,20.1652,53.46814,-13.267929,48.98788,-0.8499147,22.48485
91,1.4909287691116333,1.0525778532028198,77.4405746459961,2.543017818435683,-8.06078165053197,-82.66901715569747,11.653233,-2.7365577,-14.937005,8.671863,-14.836386,-3.6904962,15.910705,-11.488965,-16.689236,11.427814,-15.634456,8.820071,-0.65408194,6.174984,6.432891,-0.5154751,15.416067,-37.314156,57.41909,14.682962,3.366976,-6.9971485,-73.07803,20.146015,54.806023,-12.749752,43.880062,1.3584778,26.263956
92,1.5116076469421387,1.0389635562896729,77.43762969970703,2.558634164839109,-8.06980785563401,-82.70472846890131,11.690832,-2.7645173,-14.902087,8.658009,-14.838684,-3.6689413,15.937363,-11.5198555,-16.660244,11.402091,-15.629854,8.84828,-0.6730192,6.2228003,6.38205,-0.454607,15.451885,-37.37063,57.68492,14.619984,3.382925,-7.0504637,-72.98392,20.137325,56.213554,-12.028282,38.66543,3.1991103,28.896317
93,1.5328683853149414,1.0288057327270508,77.43617248535156,2.570470626440873,-8.078127298574028,-82.75922619099619,11.728571,-2.787552,-14.851241,8.648912,-14.845121,-3.6447155,15.951984,-11.547063,-16.609577,11.3864565,-15.6304655,8.869156,-0.6720434,6.261144,6.321132,-0.43322754,15.495332,-37.496674,58.006798,14.584876,3.4038389,-7.106439,-72.906746,20.14843,57.738483,-11.110859,33.651703,4.8215256,29.709846
94,1.5539919137954712,1.0152554512023926,77.43414306640625,2.580350534141802,-8.085865427106693,-82.8322671344118,11.768197,-2.8033426,-14.783973,8.640763,-14.854446,-3.6199505,15.959822,-11.568475,-16.53893,11.370396,-15.630223,8.884001,-0.63794553,6.2872496,6.244563,-0.45697138,15.539812,-37.69621,58.401638,14.557538,3.4311526,-7.165131,-72.87967,20.188208,59.30044,-9.989042,28.64782,6.5473485,29.336508
95,1.5734294652938843,1.0004156827926636,77.43417358398438,2.588972028588401,-8.095004837658383,-82.91034151386205,11.808436,-2.8154633,-14.712935,8.636417,-14.866406,-3.5948079,15.96776,-11.585381,-16.463804,11.353454,-15.629781,8.895026,-0.6050491,6.305951,6.1589723,-0.4863093,15.586641,-37.907238,58.83035,14.540618,3.4640427,-7.2281737,-72.84377,20.260883,60.85957,-8.6368,23.258265,8.44911,28.796728
96,1.5873936414718628,0.9875609278678894,77.43225860595703,2.5971047929973077,-8.107672559648746,-82.97968196936912,11.84786,-2.8277256,-14.651086,8.638984,-14.881245,-3.5694726,15.984341,-11.599824,-16.400465,11.332914,-15.628431,8.904519,-0.5696043,6.313324,6.066747,-0.5185404,15.632481,-38.114132,59.286106,14.525682,3.5027382,-7.293328,-72.78518,20.370602,62.303555,-6.990651,17.00289,10.436292,29.152554
97,1.5995450019836426,0.9715810418128967,77.43171691894531,2.6073138514494705,-8.12368640689701,-83.04065439900333,11.883703,-2.8416133,-14.599052,8.654616,-14.901856,-3.541564,16.009682,-11.613051,-16.350782,11.309294,-15.626953,8.9120655,-0.5277351,6.3130198,5.969657,-0.5590546,15.673225,-38.327953,59.784508,14.489272,3.5418496,-7.35832,-72.699135,20.518215,63.578445,-5.033064,9.057623,12.4011965,31.104342
98,1.6065737009048462,0.957099974155426,77.42825317382812,2.619441959787589,-8.14190319676683,-83.09919771733584,11.918125,-2.855009,-14.550867,8.678077,-14.926544,-3.5117388,16.040754,-11.623929,-16.307102,11.2816725,-15.624463,8.916875,-0.4690604,6.3098288,5.8834176,-0.62433743,15.709834,-38.56216,60.320137,14.4418335,3.5828745,-7.4218802,-72.610855,20.704735,64.75452,-2.7682214,-0.26268193,14.103735,34.06749
99,1.6113029718399048,0.9430057406425476,77.42606353759766,2.6283196333393906,-8.16299519736703,-83.15053058120225,11.952161,-2.8661518,-14.509465,8.70655,-14.953372,-3.4848256,16.07614,-11.632579,-16.269896,11.257215,-15.624132,8.920755,-0.38232622,6.2999415,5.8292828,-0.7257371,15.745928,-38.800076,60.856464,14.429943,3.6368172,-7.4836354,-72.546135,20.92345,65.9024,-0.17353377,-9.655397,15.331735,37.050354
100,1.6146841049194336,0.9301114082336426,77.42488098144531,2.636619608415045,-8.188654565734874,-83.19005255254712,11.989054,-2.8728125,-14.477653,8.7339325,-14.978942,-3.4656622,16.117811,-11.6358185,-16.240837,11.235836,-15.625389,8.925211,-0.26863694,6.276231,5.806442,-0.85768026,15.785461,-39.020134,61.364037,14.497921,3.7144573,-7.5467634,-72.50091,21.166079,67.09733,2.745373,-17.745602,16.30128,38.99295
101,1.6127660274505615,0.9169566631317139,77.42205047607422,2.6396846083438716,-8.219791239855411,-83.21839459868036,12.031306,-2.8729095,-14.454486,8.757895,-15.001205,-3.4568944,16.166836,-11.632522,-16.216764,11.217345,-15.627882,8.93151,-0.1329915,6.225968,5.7963023,-1.01268,15.831802,-39.216587,61.86397,14.682394,3.8229005,-7.6181593,-72.46837,21.430883,68.49708,6.053824,-24.319454,17.527468,39.376976
102,1.610061526298523,0.9054255485534668,77.41787719726562,2.6394952043605318,-8.255674260020143,-83.23746983775953,12.07703,-2.8680303,-14.438901,8.781764,-15.022336,-3.455448,16.222218,-11.625057,-16.19805,11.201504,-15.631358,8.938653,0.015550686,6.1558127,5.795112,-1.1812268,15.884887,-39.392296,62.35963,14.951727,3.954512,-7.6971927,-72.418945,21.7145,70.03507,9.707947,-30.07491,19.095707,38.82684
103,1.603792428970337,0.8893476128578186,77.4152603149414,2.6398944025540168,-8.29540185731625,-83.24427536593207,12.123871,-2.861771,-14.434135,8.805744,-15.0438595,-3.4577851,16.282896,-11.614766,-16.191195,11.190418,-15.638245,8.944549,0.17077214,6.083439,5.8094816,-1.3505291,15.941736,-39.543903,62.805943,15.24627,4.098551,-7.7780757,-72.304794,22.008987,71.437904,13.525999,-35.00806,20.720451,37.989433
104,1.597253441810608,0.8765552043914795,77.41079711914062,2.63873765653999,-8.337689243086741,-83.23522720790393,12.169291,-2.8563993,-14.443448,8.831949,-15.068776,-3.4605877,16.346941,-11.606499,-16.202316,11.188669,-15.651389,8.947335,0.32889163,6.026387,5.8468623,-1.5117978,15.998657,-39.671463,63.160812,15.505035,4.2444887,-7.8535347,-72.09753,22.302963,72.41385,17.334515,-39.075626,21.97521,37.45843
105,1.5906682014465332,0.8615960478782654,77.40738677978516,2.6363744959279716,-8.383440351249291,-83.20907209907905,12.214312,-2.8530264,-14.467375,8.859661,-15.097633,-3.4625328,16.414461,-11.60044,-16.23384,11.199984,-15.672978,8.94432,0.50516015,5.979198,5.9019103,-1.6836976,16.053799,-39.80585,63.4435,15.712373,4.401407,-7.923844,-71.757675,22.59327,72.836494,21.205961,-42.082054,22.64973,37.245808
106,1.5818843841552734,0.8506946563720703,77.40291595458984,2.6336631598083513,-8.433112686290688,-83.16770606571151,12.259817,-2.8496583,-14.504307,8.888897,-15.129563,-3.4656334,16.486286,-11.594072,-16.28232,11.220893,-15.700762,8.937194,0.6992919,5.932829,5.9657164,-1.8666408,16.107067,-39.94388,63.67692,15.898139,4.5713096,-7.9918475,-71.31898,22.8792,72.86046,25.187737,-44.10077,22.993206,36.996284
107,1.571030855178833,0.8433651328086853,77.3979721069336,2.6291952444436983,-8.484309689239007,-83.11275098086897,12.3034315,-2.8466864,-14.5542345,8.918614,-15.161708,-3.4711106,16.562298,-11.587902,-16.34508,11.244092,-15.731033,8.930717,0.8845626,5.8954854,6.039287,-2.025521,16.158064,-40.032368,63.826496,16.070993,4.7334275,-8.054246,-70.86399,23.15017,72.614716,29.055124,-45.47389,23.192831,36.74279
108,1.559487223625183,0.833651065826416,77.39157104492188,2.624451644475045,-8.53430193924692,-83.04600115146792,12.341081,-2.8445892,-14.617152,8.951356,-15.193572,-3.4801552,16.643732,-11.578353,-16.420288,11.257186,-15.758037,8.929385,1.037251,5.8736987,6.1235175,-2.1271958,16.20755,-40.020576,63.85874,16.239817,4.8670335,-8.107881,-70.473404,23.388039,72.22751,32.578537,-46.5376,23.433077,36.538105
109,1.5444964170455933,0.827659547328949,77.38531494140625,2.6200474991679283,-8.584909290256082,-82.96264957826709,12.375054,-2.8422863,-14.698856,8.982747,-15.222295,-3.4941976,16.73497,-11.566769,-16.512905,11.258094,-15.782027,8.93552,1.1593409,5.8701954,6.219387,-2.1694,16.254812,-39.894356,63.761883,16.428009,4.9761076,-8.165191,-70.15236,23.575632,71.59688,35.69507,-47.206127,23.761187,36.472267
110,1.5291911363601685,0.821557343006134,77.37991333007812,2.6137090557940468,-8.63650764907016,-82.86336124201698,12.403985,-2.8404095,-14.797374,9.019204,-15.252657,-3.5121076,16.834606,-11.551634,-16.622562,11.250419,-15.80438,8.946104,1.2638469,5.8754888,6.3211126,-2.169206,16.300402,-39.683952,63.56216,16.624489,5.068797,-8.223962,-69.85314,23.704218,70.69986,38.506588,-47.354237,24.076221,36.48346
111,1.516039490699768,0.8138464093208313,77.37352752685547,2.6059419372851873,-8.685629564901129,-82.75856752977997,12.429295,-2.839177,-14.901035,9.053249,-15.279989,-3.5317435,16.933523,-11.535542,-16.737179,11.239542,-15.824361,8.95865,1.3416973,5.881927,6.4215155,-2.123143,16.341726,-39.4021,63.28445,16.787983,5.1301455,-8.258895,-69.56635,23.758738,69.80093,41.02002,-47.253567,24.344332,36.40448
112,1.4986084699630737,0.8097959756851196,77.3683090209961,2.6001847357114496,-8.729067002051284,-82.65852131185612,12.451532,-2.838848,-14.998501,9.082089,-15.303202,-3.5508308,17.023788,-11.5229225,-16.845043,11.2299595,-15.841255,8.970854,1.3895981,5.8805766,6.517428,-2.0264635,16.385527,-39.067078,62.941864,16.875572,5.1461945,-8.244779,-69.31431,23.753952,69.13291,43.280613,-47.182674,24.523657,36.07636
113,1.4862521886825562,0.8079631924629211,77.36294555664062,2.594133350610231,-8.768616198858533,-82.5566969294398,12.470649,-2.8412626,-15.094724,9.105821,-15.320968,-3.569859,17.108067,-11.513124,-16.952686,11.223708,-15.856022,8.98331,1.3957946,5.8674636,6.619909,-1.8564543,16.454184,-38.646576,62.48213,16.895096,5.1098194,-8.1754875,-69.11994,23.677427,68.74044,45.26745,-47.22782,24.585894,35.35319
114,1.479099988937378,0.8073692321777344,77.35787200927734,2.5884107783288433,-8.804782463793206,-82.45077806354104,12.487061,-2.8448806,-15.193073,9.124874,-15.334112,-3.5896869,17.189796,-11.505089,-17.063168,11.216519,-15.867965,8.996978,1.3604794,5.855088,6.726989,-1.6156777,16.532305,-38.138584,61.91127,16.8633,5.029157,-8.064698,-68.95049,23.521042,68.53457,46.95989,-47.232666,24.56507,34.350742
115,1.473897933959961,0.8013786673545837,77.3534927368164,2.582431645747959,-8.83326066081662,-82.35689351601123,12.498499,-2.8478715,-15.279913,9.140465,-15.345066,-3.608609,17.25915,-11.497934,-17.159767,11.207994,-15.875825,9.009247,1.3063992,5.8339143,6.8241315,-1.3235687,16.619741,-37.600185,61.290024,16.759563,4.914099,-7.9250755,-68.792984,23.292664,68.47151,48.39335,-47.131783,24.49132,33.32258
116,1.4665560722351074,0.797095537185669,77.35139465332031,2.574775102018346,-8.84932579953968,-82.29172911771202,12.505369,-2.8473196,-15.34163,9.147264,-15.353028,-3.6248739,17.305798,-11.488985,-17.226368,11.198492,-15.879031,9.017354,1.2506541,5.7989254,6.8976235,-0.9961917,16.71447,-37.082996,60.67545,16.562897,4.7746415,-7.7687473,-68.63022,23.01003,68.52411,49.608757,-46.854843,24.397448,32.517715
117,1.4674087762832642,0.7918860912322998,77.34790802001953,2.56637199243253,-8.854969485773204,-82.26063290481899,12.511411,-2.8417678,-15.374287,9.145701,-15.361484,-3.6375725,17.331884,-11.479267,-17.257172,11.186121,-15.877016,9.0200405,1.1909121,5.75069,6.9476433,-0.6218855,16.815222,-36.575085,60.055653,16.225536,4.6003227,-7.5811853,-68.479126,22.689644,68.72003,50.6216,-46.37366,24.266111,32.034527
118,1.4702188968658447,0.775191605091095,77.34730529785156,2.556837714933172,-8.851508396304803,-82.25452760362612,12.514983,-2.833272,-15.385145,9.137364,-15.369184,-3.6476896,17.341091,-11.468087,-17.261593,11.170573,-15.869433,9.018798,1.1185786,5.693004,6.98198,-0.19785573,16.92141,-36.055527,59.408184,15.772927,4.389104,-7.3622313,-68.356445,22.340775,69.055916,51.434685,-45.73174,24.085382,31.73108
119,1.476580023765564,0.7755725383758545,77.34785461425781,2.5481615042228816,-8.83361162550422,-82.26799353614297,12.507666,-2.823363,-15.377772,9.124557,-15.371932,-3.6567192,17.325026,-11.458119,-17.244642,11.158951,-15.859761,9.015772,1.0411078,5.6269913,6.9984956,0.24500687,17.030798,-35.562176,58.777027,15.293794,4.1636744,-7.1444583,-68.24598,21.972166,69.45757,52.07491,-44.963898,23.89568,31.493874
120,1.4790661334991455,0.7757775783538818,77.35208892822266,2.542672206559343,-8.7959232026932,-82.29568498233196,12.482414,-2.813592,-15.355296,9.104141,-15.362257,-3.6660137,17.278915,-11.451329,-17.212128,11.150595,-15.84667,9.013192,0.9693154,5.5537553,6.993813,0.6707663,17.139082,-35.13917,58.211704,14.873839,3.947762,-6.9587913,-68.13191,21.59172,69.846634,52.570145,-44.105133,23.735357,31.20893
121,1.484336018562317,0.7770388126373291,77.35594177246094,2.543708119858701,-8.730317607381696,-82.33759486634732,12.428085,-2.8067384,-15.317121,9.078864,-15.336661,-3.676407,17.18833,-11.452105,-17.16292,11.154641,-15.833559,9.013083,0.90551656,5.47085,6.9569645,1.0744061,17.243568,-34.799152,57.72021,14.511655,3.7327378,-6.8008046,-68.017944,21.207497,70.2305,52.915096,-43.05764,23.630337,30.865046
122,1.4854297637939453,0.774095356464386,77.36248016357422,2.5469268834918735,-8.641609822174782,-82.39571245640163,12.353364,-2.8004725,-15.262171,9.044658,-15.297048,-3.6870153,17.062284,-11.456169,-17.095465,11.163129,-15.816784,9.013589,0.8443959,5.3800683,6.8929315,1.4690598,17.342972,-34.51994,57.283623,14.168651,3.5112767,-6.656624,-67.9149,20.825367,70.63933,53.115627,-41.838303,23.551723,30.515799
123,1.4902727603912354,0.7732208967208862,77.369873046875,2.5516471397327454,-8.54516204910075,-82.46949978146922,12.272832,-2.791523,-15.192444,9.008881,-15.256007,-3.6966083,16.920683,-11.460213,-17.011833,11.174331,-15.798766,9.011913,0.7870473,5.2892146,6.8228583,1.8425331,17.434662,-34.294262,56.91452,13.875909,3.310359,-6.541873,-67.81862,20.44861,71.02152,53.209362,-40.654797,23.454704,30.143557
124,1.4958308935165405,0.7706942558288574,77.37752532958984,2.5513249175130945,-8.455717382286394,-82.55760680857756,12.201799,-2.7761915,-15.11042,8.976893,-15.2246275,-3.703956,16.783682,-11.457776,-16.914698,11.184351,-15.780492,9.004773,0.73689216,5.20561,6.7669954,2.18071,17.514803,-34.117752,56.627846,13.663571,3.1572855,-6.4714656,-67.723885,20.078426,71.325325,53.23603,-39.716393,23.295126,29.732195
125,1.5012811422348022,0.7719268798828125,77.38436126708984,2.5480182887679033,-8.372793547426744,-82.663973661867,12.14001,-2.7537308,-15.013393,8.948222,-15.203677,-3.7088573,16.647882,-11.448759,-16.800787,11.195467,-15.762299,8.989216,0.69474,5.132066,6.7262425,2.4772875,17.58132,-34.000687,56.43103,13.549035,3.0624626,-6.4535184,-67.627045,19.715902,71.54197,53.1789,-39.098843,23.054083,29.260464
126,1.5046344995498657,0.7689845561981201,77.3918228149414,2.5417786867650185,-8.289803548178348,-82.78749920413009,12.080752,-2.7258945,-14.9013815,8.920815,-15.188273,-3.7117658,16.505245,-11.434692,-16.670004,11.20841,-15.743586,8.967508,0.66003925,5.065193,6.6909966,2.7370887,17.633562,-33.94327,56.319626,13.513202,3.0107012,-6.4773045,-67.53103,19.363092,71.6975,53.030815,-38.68539,22.759129,28.74301
127,1.5039292573928833,0.7662645578384399,77.39990997314453,2.534479395168693,-8.213521055400507,-82.92117039691615,12.029918,-2.693543,-14.779968,8.896805,-15.179609,-3.7130785,16.369307,-11.416699,-16.530012,11.21858,-15.724065,8.944992,0.63463783,5.002947,6.664563,2.9607816,17.66993,-33.928177,56.29268,13.529218,2.9907353,-6.5295086,-67.43932,19.022423,71.791504,52.84274,-38.396744,22.43842,28.218016
128,1.5060392618179321,0.7600734233856201,77.40577697753906,2.521650160067228,-8.150503704189786,-83.05710442528978,11.995312,-2.6568687,-14.655006,8.8765545,-15.1787405,-3.712918,16.255335,-11.391633,-16.38912,11.215334,-15.700604,8.926462,0.6202185,4.943542,6.650984,3.1495788,17.688303,-33.937164,56.348896,13.571487,2.9912057,-6.5968847,-67.35617,18.697063,71.82294,52.667244,-38.152985,22.119232,27.723806
129,1.5073027610778809,0.7512589693069458,77.41039276123047,2.5071608542760795,-8.103640219049403,-83.19587697083652,11.978441,-2.615715,-14.526084,8.864069,-15.188299,-3.710944,16.168756,-11.360275,-16.247093,11.195707,-15.673178,8.914806,0.6161213,4.888193,6.653837,3.3029,17.687206,-33.9659,56.49243,13.656348,3.0132825,-6.690445,-67.283134,18.390514,71.77831,52.498646,-38.004784,21.801071,27.27506
130,1.509985089302063,0.7473353147506714,77.41129302978516,2.4896642692084128,-8.068906262180763,-83.3405751373375,11.976577,-2.5702422,-14.390672,8.854928,-15.205158,-3.7071722,16.101517,-11.321249,-16.100868,11.162028,-15.641381,8.906657,0.6215185,4.837654,6.670446,3.4201546,17.666412,-34.022484,56.72327,13.790969,3.0612,-6.812345,-67.21755,18.105713,71.663925,52.321724,-37.970074,21.473871,26.84838
131,1.5106701850891113,0.7433118224143982,77.4130859375,2.4686614802667437,-8.043345454237523,-83.48838052909825,11.9852,-2.5206566,-14.251647,8.850041,-15.229298,-3.7026956,16.046112,-11.278792,-15.952396,11.12579,-15.608955,8.898532,0.63656116,4.7913356,6.695054,3.5015676,17.625832,-34.109894,57.03442,13.933252,3.1288004,-6.9359965,-67.15777,17.844938,71.508,52.172607,-37.91951,21.148453,26.425705
132,1.5112649202346802,0.7353710532188416,77.4135971069336,2.4438936531511586,-8.023765172123579,-83.63646897771245,11.999642,-2.4675105,-14.111975,8.848804,-15.258932,-3.6985455,15.993951,-11.231972,-15.8044195,11.097572,-15.579487,8.886397,0.6609518,4.748362,6.7222643,3.5485392,17.565321,-34.22946,57.417778,14.042001,3.210105,-7.0348616,-67.10222,17.609848,71.34036,52.087353,-37.724415,20.834017,25.990753
133,1.5123200416564941,0.7288147211074829,77.41462707519531,2.4148119303409197,-8.011862601901305,-83.78689679728669,12.023006,-2.409612,-13.969813,8.8511,-15.296635,-3.6940544,15.945159,-11.181025,-15.655841,11.081027,-15.553566,8.868431,0.6940494,4.7112756,6.752608,3.5605576,17.482801,-34.386925,57.890507,14.097631,3.3026989,-7.092506,-67.0584,17.403528,71.15394,52.066097,-37.350834,20.545254,25.543993
134,1.514533281326294,0.7201389670372009,77.41485595703125,2.3792993078182167,-8.008518477099363,-83.94007880680535,12.056583,-2.3467243,-13.824482,8.856679,-15.341852,-3.6890771,15.903609,-11.125687,-15.505852,11.069621,-15.52916,8.847004,0.73531973,4.6805997,6.7886043,3.5373862,17.377285,-34.57864,58.451145,14.12549,3.4100685,-7.126051,-67.025475,17.228155,70.93812,52.09718,-36.867393,20.270859,25.093529
135,1.5172934532165527,0.7104021310806274,77.41593933105469,2.343046313781938,-8.00938957678153,-84.09144019469446,12.093493,-2.282352,-13.6803875,8.865173,-15.389414,-3.6852262,15.866696,-11.067125,-15.35758,11.059545,-15.506069,8.824596,0.7848247,4.651595,6.8274617,3.4818192,17.251698,-34.79225,59.06216,14.151386,3.53544,-7.1592555,-66.9887,17.08237,70.71873,52.19552,-36.299828,19.97978,24.635466
136,1.5178756713867188,0.6987799406051636,77.41615295410156,2.308372720370995,-8.010267230151486,-84.23583137560496,12.128349,-2.2190192,-13.541645,8.872751,-15.432055,-3.6840878,15.83177,-11.010871,-15.213735,11.048798,-15.484702,8.804198,0.8418427,4.619047,6.866653,3.3990412,17.111376,-35.01354,59.682537,14.201748,3.6820288,-7.216463,-66.93235,16.961666,70.522606,52.37208,-35.674057,19.641712,24.166222
137,1.5164909362792969,0.6921873092651367,77.41519165039062,2.277584525632995,-8.011173803794287,-84.37391433362113,12.160732,-2.1568084,-13.40743,8.879588,-15.467791,-3.6871648,15.79922,-10.954609,-15.073395,11.034836,-15.465224,8.786026,0.90759647,4.5793366,6.9084215,3.284399,16.95923,-35.24339,60.323914,14.261281,3.8558183,-7.3044577,-66.858894,16.862396,70.33516,52.62123,-34.96378,19.244938,23.67436
138,1.511361002922058,0.6854458451271057,77.41443634033203,2.2468454648610994,-8.01386779651381,-84.50734017944686,12.194217,-2.0940824,-13.276239,8.885026,-15.499447,-3.6932764,15.770274,-10.898041,-14.935608,11.019289,-15.447312,8.768835,0.98188096,4.5348234,6.9534097,3.1406744,16.796207,-35.486656,60.995197,14.323476,4.053431,-7.4110374,-66.77295,16.782623,70.15034,52.933514,-34.168415,18.804953,23.16852
139,1.5075687170028687,0.6800343990325928,77.4133529663086,2.2157825459310883,-8.016965309219271,-84.63433974090655,12.225503,-2.0332084,-13.150928,8.893364,-15.5315695,-3.6996617,15.743252,-10.842589,-14.803425,11.005391,-15.430595,8.752565,1.0619429,4.488521,6.997558,2.9841647,16.625809,-35.736534,61.651394,14.426689,4.263715,-7.532538,-66.66381,16.719172,70.00473,53.310753,-33.351585,18.334068,22.674494
140,1.505136489868164,0.6748210191726685,77.41246795654297,2.18693485624874,-8.019375831165075,-84.75277977536106,12.254857,-1.975637,-13.034653,8.902124,-15.565583,-3.7037144,15.718768,-10.789027,-14.680625,10.991318,-15.412416,8.737211,1.1441369,4.442957,7.036603,2.8334522,16.45334,-35.984108,62.244144,14.610149,4.475487,-7.6660376,-66.520134,16.66785,69.93641,53.752037,-32.57581,17.846594,22.216454
141,1.5019335746765137,0.6662651300430298,77.41329193115234,2.1566386705099587,-8.02115609267405,-84.86210437297991,12.282585,-1.9219368,-12.928471,8.911375,-15.603095,-3.7025437,15.696426,-10.738377,-14.56707,10.98026,-15.393902,8.720419,1.2271253,4.3974614,7.0713243,2.6892836,16.2828,-36.240875,62.773033,14.912423,4.696595,-7.8167496,-66.34357,16.625378,69.96155,54.261425,-31.860832,17.32664,21.7939
142,1.5038946866989136,0.6561558842658997,77.41499328613281,2.1287803984586997,-8.023092301551388,-84.96357584796161,12.30755,-1.8715823,-12.8307705,8.924558,-15.6444435,-3.698297,15.675089,-10.691507,-14.460802,10.974098,-15.376937,8.703125,1.3127121,4.350019,7.103682,2.5471606,16.115442,-36.506023,63.253128,15.303694,4.929278,-7.9861913,-66.13777,16.589128,70.057625,54.83033,-31.17221,16.77492,21.396662
143,1.5028154850006104,0.6453281044960022,77.41541290283203,2.1003093342241077,-8.023714998809842,-85.05729098208857,12.330279,-1.8235186,-12.740224,8.937013,-15.68441,-3.695727,15.6573305,-10.644711,-14.363703,10.963043,-15.356889,8.689746,1.4018632,4.2996664,7.131162,2.4162145,15.952705,-36.75264,63.66303,15.718825,5.1523986,-8.164912,-65.89513,16.555372,70.20709,55.441833,-30.489117,16.231548,21.032501
144,1.4994316101074219,0.6357141733169556,77.41475677490234,2.075077524353888,-8.021845994865027,-85.14373843245768,12.352097,-1.7773004,-12.655979,8.943014,-15.717525,-3.699524,15.642964,-10.599503,-14.276425,10.94501,-15.333462,8.685177,1.4953573,4.245749,7.1516194,2.3071997,15.7967825,-36.953056,63.97652,16.093658,5.348004,-8.343221,-65.607605,16.519907,70.39233,56.07742,-29.789755,15.736668,20.708317
145,1.4960871934890747,0.6222547888755798,77.41470336914062,2.052002585857405,-8.016371874373602,-85.2226831459726,12.371922,-1.7336909,-12.578064,8.942469,-15.742046,-3.7126572,15.6340065,-10.557456,-14.199968,10.914714,-15.302787,8.697843,1.5938205,4.185599,7.1626353,2.2221916,15.650274,-37.10901,64.18324,16.433489,5.5228534,-8.532793,-65.27423,16.4794,70.619064,56.727695,-29.077482,15.304692,20.427881
146,1.4916894435882568,0.6104828715324402,77.41424560546875,2.0325101746348326,-8.008272701584598,-85.29430892879465,12.390661,-1.6927722,-12.506989,8.935416,-15.759653,-3.7320387,15.629731,-10.515958,-14.133938,10.873855,-15.265733,8.722663,1.6969118,4.1188707,7.166385,2.1566796,15.514422,-37.23191,64.29768,16.765274,5.680695,-8.733571,-64.89827,16.431412,70.89344,57.398495,-28.35892,14.914106,20.18568
147,1.4907652139663696,0.6030566692352295,77.41146087646484,2.0108983434864487,-7.999039579284986,-85.3583410992811,12.406213,-1.6527203,-12.441959,8.930068,-15.777238,-3.7533152,15.626148,-10.475724,-14.075984,10.834668,-15.2312355,8.744593,1.8041881,4.050026,7.1670794,2.1120334,15.389679,-37.31046,64.32432,17.055431,5.8053627,-8.919077,-64.47725,16.373419,71.19523,58.09243,-27.616894,14.551025,19.973482
148,1.485039234161377,0.5895854234695435,77.41099548339844,1.9885797362604218,-7.990698126278082,-85.41503506288693,12.419539,-1.6106033,-12.38227,8.927806,-15.798462,-3.7721732,15.619274,-10.435335,-14.024355,10.809172,-15.208109,8.748369,1.9147706,3.9832008,7.1693835,2.0889156,15.275945,-37.331978,64.27234,17.27077,5.877675,-9.061472,-64.00881,16.303024,71.50617,58.813766,-26.83485,14.201129,19.784052
149,1.480883002281189,0.5729203820228577,77.41376495361328,1.9592335001265058,-7.983502051901772,-85.46443197268036,12.429047,-1.5641023,-12.3263,8.934138,-15.827482,-3.7878704,15.607475,-10.390499,-13.978559,10.800292,-15.198972,8.7235565,2.029119,3.9204075,7.1730037,2.0917706,15.177675,-37.292435,64.13105,17.409933,5.883511,-9.157531,-63.493107,16.221983,71.81845,59.571915,-25.977198,13.859059,19.620024
150,1.4800587892532349,0.5658618807792664,77.41291809082031,1.9271016065647038,-7.976940412050082,-85.50670782541883,12.436777,-1.5148022,-12.274927,8.943138,-15.859891,-3.8025472,15.593288,-10.344558,-13.939381,10.802613,-15.1997,8.68047,2.147408,3.8606613,7.175422,2.1160872,15.0873165,-37.197437,63.90501,17.490152,5.8378015,-9.2198715,-62.92672,16.121983,72.147484,60.353954,-25.06139,13.534114,19.483719
151,1.4765079021453857,0.5572090744972229,77.41083526611328,1.895099625513837,-7.969851504773617,-85.5410054718203,12.441287,-1.4677627,-12.231302,8.9537115,-15.8925705,-3.8162441,15.579206,-10.300322,-13.908156,10.8082285,-15.204135,8.634589,2.269238,3.7975996,7.179431,2.1571987,15.008566,-37.05535,63.61249,17.497555,5.75814,-9.245135,-62.315372,16.004473,72.493614,61.14898,-24.154242,13.231756,19.368319
152,1.4719434976577759,0.5459097623825073,77.41079711914062,1.8686144220337941,-7.961776485410989,-85.56650013604298,12.442994,-1.4276562,-12.198742,8.962155,-15.921725,-3.8289561,15.568557,-10.262063,-13.885892,10.809381,-15.206423,8.6014185,2.39298,3.7269876,7.1879735,2.2076693,14.938243,-36.870724,63.278385,17.421247,5.6617656,-9.22949,-61.661682,15.866653,72.85978,61.93926,-23.320929,12.958486,19.26522
153,1.4683640003204346,0.5379054546356201,77.407958984375,1.848931950758939,-7.9525734336350675,-85.5833216585458,12.441607,-1.3977358,-12.178693,8.96973,-15.94812,-3.838164,15.56439,-10.232358,-13.873236,10.800315,-15.2037735,8.586517,2.5225172,3.6474557,7.201827,2.2641068,14.87354,-36.639194,62.90261,17.222595,5.541742,-9.160445,-60.964947,15.7052355,73.24084,62.72818,-22.54252,12.719675,19.177773
154,1.4657891988754272,0.5284766554832458,77.40804290771484,1.8337965598025001,-7.942588566018158,-85.59185653084158,12.43723,-1.3750223,-12.169114,8.9773245,-15.973059,-3.8446207,15.562018,-10.209141,-13.868949,10.790917,-15.202089,8.581193,2.6583319,3.5618584,7.2188716,2.3295357,14.813611,-36.361168,62.476227,16.91999,5.393698,-9.044681,-60.223755,15.517965,73.6352,63.519,-21.795263,12.511465,19.10718
155,1.4622619152069092,0.5200943350791931,77.40839385986328,1.8199462169942568,-7.931756826244431,-85.59144835258728,12.430323,-1.3541739,-12.168411,8.98221,-15.99459,-3.8534276,15.562054,-10.187095,-13.873606,10.778536,-15.19892,8.579384,2.7931187,3.471669,7.237444,2.4027126,14.757244,-36.049038,62.020607,16.587296,5.2320323,-8.905177,-59.43866,15.303545,74.05804,64.297325,-21.137247,12.326224,19.041191
156,1.4571335315704346,0.5114020109176636,77.4066390991211,1.8039882668825844,-7.919725454142075,-85.58111868882348,12.419589,-1.3308395,-12.174809,8.987239,-16.013628,-3.8696365,15.563314,-10.161287,-13.887573,10.764994,-15.19387,8.575093,2.9196014,3.3785508,7.255901,2.4817615,14.702859,-35.716297,61.557255,16.297247,5.0725474,-8.764367,-58.61009,15.061237,74.52508,65.05041,-20.626451,12.156492,18.96777
157,1.4475411176681519,0.5049524307250977,77.4053955078125,1.7820798233095294,-7.9042891499842645,-85.55978205605402,12.40477,-1.3014529,-12.187817,8.986536,-16.02711,-3.8984203,15.562608,-10.130072,-13.911208,10.751595,-15.186998,8.566539,3.0364945,3.2823405,7.2704577,2.5701642,14.649015,-35.350082,61.081593,16.074062,4.915865,-8.619484,-57.73937,14.789877,75.04766,65.77976,-20.300247,11.998192,18.884903
158,1.4421449899673462,0.4980977773666382,77.40523529052734,1.759860790109633,-7.886404361679635,-85.52823281094955,12.384752,-1.269356,-12.208484,8.984569,-16.037281,-3.9359376,15.562095,-10.096158,-13.944587,10.736325,-15.178017,8.556984,3.1471698,3.1831186,7.2824225,2.6666162,14.594901,-34.94865,60.58816,15.877491,4.7546415,-8.461255,-56.827126,14.488373,75.61438,66.49098,-20.119661,11.856572,18.797031
159,1.4352376461029053,0.4891502261161804,77.40460968017578,1.7370154789244987,-7.870162227428105,-85.48850440063083,12.363734,-1.2394391,-12.23702,8.9849825,-16.046944,-3.9732044,15.565804,-10.063184,-13.985811,10.720531,-15.168562,8.548182,3.2529235,3.0816314,7.2986536,2.7615054,14.539532,-34.542347,60.097157,15.684024,4.5932193,-8.301634,-55.8741,14.156732,76.2027,67.17539,-20.028507,11.737918,18.701729
160,1.4313163757324219,0.49059852957725525,77.4028091430664,1.717832647165823,-7.8603077520037585,-85.44275232341528,12.345629,-1.2166576,-12.274057,8.990062,-16.056986,-4.001511,15.579194,-10.036261,-14.033108,10.70258,-15.158446,8.542139,3.3555405,2.9789538,7.3256774,2.8448048,14.481314,-34.16205,59.629517,15.470632,4.4359117,-8.152426,-54.88065,13.795246,76.79016,67.82595,-19.971464,11.647768,18.59685
161,1.4282886981964111,0.4857567250728607,77.40267181396484,1.7035034348968008,-7.862050256917226,-85.3905788606577,12.335275,-1.2042762,-12.32162,9.001846,-16.068104,-4.015145,15.609284,-10.016986,-14.087445,10.681134,-15.14727,8.540114,3.4549387,2.8763907,7.3698173,2.9157069,14.418198,-33.807175,59.18282,15.207781,4.278214,-8.014986,-53.84531,13.402827,77.35847,68.43737,-19.981236,11.602799,18.486147
162,1.423137903213501,0.4807230234146118,77.4025650024414,1.6927476709629072,-7.871590220851174,-85.33129282099638,12.327883,-1.1993282,-12.378805,9.021743,-16.081263,-4.0199194,15.650684,-10.003248,-14.149324,10.658004,-15.13515,8.540932,3.5517504,2.7733934,7.425022,2.9761083,14.349377,-33.46603,58.752457,14.915206,4.119714,-7.883232,-52.769585,12.978309,77.920204,69.01549,-20.07181,11.595099,18.369125
163,1.424031376838684,0.48543572425842285,77.4006576538086,1.6815490510597497,-7.879718856644159,-85.26617469342726,12.31734,-1.1964736,-12.441482,9.041112,-16.092888,-4.024194,15.692074,-9.990607,-14.216323,10.633656,-15.122636,8.542322,3.6481571,2.668456,7.4804144,3.0202334,14.275687,-33.151714,58.355568,14.643294,3.9706693,-7.7579384,-51.659885,12.522563,78.499756,69.57219,-20.159353,11.593594,18.238045
164,1.418448567390442,0.48069414496421814,77.40152740478516,1.6694227466074922,-7.877140604730052,-85.19686663064267,12.294779,-1.1904129,-12.505382,9.05677,-16.101976,-4.036387,15.723124,-9.9749775,-14.28673,10.606844,-15.109117,8.542133,3.7458181,2.5606441,7.52508,3.042207,14.198947,-32.87807,58.008682,14.440821,3.8415449,-7.639452,-50.523308,12.037677,79.12298,70.12221,-20.160185,11.566044,18.084652
165,1.4115650653839111,0.4774416387081146,77.40190124511719,1.6545687964023001,-7.860351191459795,-85.12167380248819,12.259494,-1.1792743,-12.570018,9.061664,-16.106165,-4.0604067,15.739424,-9.955841,-14.360629,10.578872,-15.095752,8.540015,3.8461123,2.4475002,7.5546865,3.0383596,14.120955,-32.653,57.715984,14.334787,3.7354946,-7.5253468,-49.365852,11.526064,79.82253,70.683846,-20.019072,11.49706,17.892973
166,1.4099633693695068,0.48044338822364807,77.40179443359375,1.638787265061543,-7.834561985615223,-85.04050888451569,12.213898,-1.166113,-12.637635,9.06295,-16.108377,-4.0912657,15.747917,-9.934712,-14.439209,10.54861,-15.082184,8.5370245,3.9458632,2.3310776,7.576169,3.0145059,14.0416975,-32.46538,57.465485,14.294541,3.6472235,-7.4159474,-48.18693,10.988711,80.57605,71.250534,-19.791504,11.404899,17.671932
167,1.4032714366912842,0.4787968397140503,77.40240478515625,1.6230162938950898,-7.803738150810767,-84.95712958018213,12.162209,-1.152937,-12.707413,9.062312,-16.107784,-4.1237435,15.749985,-9.913509,-14.520069,10.518827,-15.067646,8.533288,4.0420876,2.2150023,7.5956035,2.9780507,13.96002,-32.302845,57.250477,14.281802,3.5743787,-7.315778,-46.98303,10.425932,81.321556,71.79472,-19.561037,11.309102,17.451368
168,1.3979219198226929,0.4818667769432068,77.40370178222656,1.607602570899042,-7.771799101738071,-84.87507918475642,12.10685,-1.1422503,-12.77896,9.064878,-16.105297,-4.1526036,15.746488,-9.894691,-14.600688,10.495051,-15.053753,8.528881,4.1327753,2.1030226,7.6182117,2.9361923,13.87412,-32.153095,57.0651,14.259536,3.5145886,-7.229462,-45.748272,9.837381,81.997765,72.28726,-19.410997,11.229987,17.261105
169,1.392791748046875,0.48460879921913147,77.40470123291016,1.5956462297063252,-7.740745894482287,-84.7958572015079,12.049865,-1.1356639,-12.852906,9.07144,-16.099623,-4.1752324,15.737573,-9.881376,-14.680489,10.480596,-15.040759,8.524113,4.218629,1.9952023,7.6453805,2.8866916,13.782913,-32.01861,56.911785,14.2129545,3.4682336,-7.1568003,-44.47194,9.222118,82.595924,72.71166,-19.405554,11.178417,17.141571
170,1.3876545429229736,0.48898109793663025,77.40652465820312,1.5841337070790447,-7.708278259605958,-84.71738829104295,11.989624,-1.1316366,-12.929014,9.078541,-16.090254,-4.1947255,15.722004,-9.869994,-14.7607975,10.472996,-15.028609,8.518691,4.301405,1.8895555,7.6735463,2.8260083,13.686442,-31.904892,56.79447,14.163736,3.436374,-7.0955124,-43.1596,8.579378,83.14496,73.085045,-19.486277,11.14318,17.06667
171,1.3842601776123047,0.49341660737991333,77.408935546875,1.5725305116692871,-7.671502481534201,-84.63791042875111,11.9229355,-1.1272132,-13.006328,9.087151,-16.080729,-4.2148533,15.700786,-9.857966,-14.841829,10.466045,-15.0160885,8.512333,4.3812947,1.7873149,7.7003326,2.7562115,13.58522,-31.807253,56.71203,14.126246,3.4173448,-7.0469785,-41.826588,7.91046,83.638,73.43038,-19.553503,11.108237,16.964579
172,1.3804689645767212,0.5005131959915161,77.41250610351562,1.5579777711457252,-7.627773613566167,-84.5562342281718,11.849639,-1.1190121,-13.083313,9.092347,-16.07219,-4.239047,15.674583,-9.84249,-14.923656,10.4546175,-15.002409,8.504674,4.4582796,1.6891699,7.723528,2.6810362,13.480307,-31.71997,56.661797,14.115871,3.4096162,-7.012948,-40.487392,7.218134,84.06868,73.7641,-19.50711,11.061347,16.76511
173,1.3751479387283325,0.5023167133331299,77.41456604003906,1.5401652132902266,-7.574486490649836,-84.47108328663896,11.765637,-1.1042956,-13.15988,9.095579,-16.066998,-4.269418,15.639819,-9.819748,-15.006725,10.439178,-14.988924,8.493089,4.535035,1.598093,7.7437596,2.5954523,13.372043,-31.648827,56.646996,14.143773,3.4174063,-6.9985805,-39.13666,6.5036306,84.45962,74.07089,-19.338146,10.996305,16.441336
174,1.3688853979110718,0.5108319520950317,77.41598510742188,1.5203562055300797,-7.5140763278949985,-84.38368482834576,11.673141,-1.0856978,-13.236538,9.096974,-16.062931,-4.3036222,15.598135,-9.79274,-15.090742,10.421388,-14.975315,8.478671,4.6103535,1.5122817,7.7617583,2.5000575,13.260384,-31.593424,56.667244,14.199954,3.439961,-7.0016017,-37.766922,5.7685385,84.80684,74.348175,-19.09444,10.9186325,16.034056
175,1.3608341217041016,0.5142830610275269,77.4190444946289,1.4985055206430744,-7.449815427587551,-84.29545521121786,11.577483,-1.0668093,-13.313617,9.0965,-16.057785,-4.3390164,15.554527,-9.764449,-15.175302,10.399043,-14.958805,8.466217,4.6775064,1.4263344,7.7744513,2.4081724,13.146605,-31.540716,56.71281,14.265375,3.4685242,-7.0121512,-36.386642,5.0178633,85.06599,74.6302,-18.762146,10.834818,15.5749855
176,1.3511919975280762,0.5186984539031982,77.42222595214844,1.4804559269763153,-7.385623395531904,-84.20839691553905,11.483264,-1.0519197,-13.391224,9.094866,-16.04913,-4.3729053,15.5129795,-9.740213,-15.259379,10.373573,-14.93847,8.460704,4.729949,1.3345557,7.7793245,2.3330405,13.0334015,-31.47823,56.772728,14.320451,3.4943264,-7.020676,-35.003563,4.259925,85.1918,74.95445,-18.32707,10.74951,15.095043
177,1.3406888246536255,0.5217636823654175,77.4246597290039,1.467532659116388,-7.323179798152935,-84.1220891329638,11.392984,-1.0428809,-13.470064,9.092003,-16.03615,-4.405559,15.478729,-9.71936,-15.34446,10.338234,-14.908969,8.468406,4.769684,1.2332964,7.7768555,2.2748723,12.923264,-31.407772,56.847176,14.3607025,3.5182629,-7.0265055,-33.607006,3.5031369,85.1942,75.333855,-17.71669,10.639919,14.569409
178,1.3393964767456055,0.5296237468719482,77.4269027709961,1.4563864692805146,-7.260101748186583,-84.03558235055728,11.30384,-1.0371205,-13.549865,9.087251,-16.019842,-4.4381065,15.447969,-9.700985,-15.430428,10.295828,-14.873209,8.485121,4.797427,1.1256907,7.7685575,2.2314057,12.817008,-31.332415,56.936188,14.396785,3.544131,-7.0345154,-32.191948,2.7533634,85.09062,75.752945,-16.963985,10.506615,13.993455
179,1.330856204032898,0.532264232635498,77.4288558959961,1.4442935120389637,-7.194376648159868,-83.95058537346185,11.21201,-1.0328267,-13.629325,9.082632,-16.002495,-4.46903,15.41257,-9.684533,-15.514375,10.256344,-14.839265,8.499683,4.8047104,1.0145502,7.7520647,2.2098181,12.715626,-31.244463,57.03153,14.428014,3.5671585,-7.04301,-30.773668,2.0147913,84.85012,76.20518,-16.209438,10.392262,13.427349
180,1.328170895576477,0.5299711227416992,77.43000030517578,1.4325591851868655,-7.124372953020603,-83.86845028026735,11.11363,-1.0269752,-13.707637,9.081179,-15.987525,-4.4969635,15.366557,-9.667793,-15.594166,10.225918,-14.813791,8.500769,4.7843018,0.9031551,7.724447,2.217711,12.620454,-31.136854,57.124275,14.454556,3.5827827,-7.050094,-29.367336,1.2896202,84.44506,76.67867,-15.585497,10.343773,12.929543
181,1.3194265365600586,0.5363903641700745,77.43266296386719,1.4202176144168817,-7.048952088655822,-83.78739822063783,11.006127,-1.0196942,-13.787477,9.083963,-15.976177,-4.5201173,15.307155,-9.649564,-15.671453,10.207838,-14.800944,8.481484,4.736314,0.78850514,7.6824555,2.2562401,12.533066,-31.004297,57.215206,14.479409,3.5872817,-7.058155,-27.95791,0.5837041,83.84037,77.184364,-15.15353,10.379932,12.516756
182,1.3226416110992432,0.5327357053756714,77.43891143798828,1.4042091160175803,-6.969549203584987,-83.70706182098205,10.892814,-1.0115446,-13.868295,9.088886,-15.966617,-4.5396905,15.240064,-9.631729,-15.7469,10.195532,-14.795116,8.4491825,4.6655297,0.6680295,7.6281238,2.321271,12.45452,-30.853165,57.30846,14.501509,3.5841084,-7.0670967,-26.528557,-0.094643556,83.033485,77.71813,-14.861086,10.48039,12.15633
183,1.3156582117080688,0.5363942384719849,77.444580078125,1.390493267081099,-6.88667556857276,-83.63230645901228,10.776293,-1.0034566,-13.944506,9.094186,-15.956439,-4.5586786,15.163667,-9.614847,-15.8160925,10.190821,-14.793062,8.413835,4.569984,0.54573613,7.5674667,2.4126623,12.385512,-30.694035,57.397343,14.513215,3.5796432,-7.0710816,-25.12148,-0.753266,82.151566,78.2584,-14.556737,10.621755,11.831316
184,1.309325098991394,0.5442333221435547,77.44798278808594,1.3775833992877198,-6.801309653609809,-83.56780882542493,10.661528,-0.9952931,-14.009875,9.093942,-15.94102,-4.579946,15.081456,-9.599536,-15.874955,10.186308,-14.786901,8.38554,4.4511456,0.42338073,7.504476,2.5269654,12.325701,-30.53719,57.48221,14.509871,3.5799515,-7.0652924,-23.736786,-1.392903,81.17203,78.76863,-14.250749,10.792008,11.524244
185,1.307296872138977,0.5468876957893372,77.45353698730469,1.3674819584290971,-6.7132306678236375,-83.51582825938463,10.548964,-0.9875333,-14.061902,9.087675,-15.918257,-4.605414,14.992319,-9.586778,-15.921628,10.181563,-14.774265,8.368039,4.306871,0.30147606,7.4386005,2.6682494,12.274724,-30.382236,57.558254,14.4846945,3.5873547,-7.040964,-22.372599,-2.016294,80.06958,79.25155,-13.929932,11.014008,11.239951
186,1.3051538467407227,0.5551049709320068,77.45829772949219,1.3590523094630624,-6.621873292254016,-83.47347215453172,10.436474,-0.98007166,-14.103996,9.077334,-15.890357,-4.6331463,14.896032,-9.575858,-15.95856,10.178071,-14.758498,8.355584,4.1395597,0.17798698,7.3678265,2.8346987,12.232611,-30.22602,57.62901,14.442914,3.5984359,-7.003185,-21.014702,-2.6234803,78.83707,79.711525,-13.622422,11.288533,10.984643
187,1.3036960363388062,0.5511497855186462,77.46353912353516,1.3512302808567525,-6.528727362337662,-83.4378253632355,10.323788,-0.97218466,-14.139561,9.066297,-15.862613,-4.660216,14.794186,-9.565452,-15.988133,10.178433,-14.743369,8.344022,3.9559932,0.05364006,7.294464,3.015966,12.199408,-30.07742,57.70433,14.394286,3.6107426,-6.9675803,-19.674723,-3.2175102,77.57691,80.13392,-13.29599,11.561188,10.74233
188,1.2966067790985107,0.5557920932769775,77.4670181274414,1.3430965224853617,-6.435085737581902,-83.40617056327811,10.211184,-0.9630703,-14.172297,9.056426,-15.839525,-4.6836886,14.690549,-9.553512,-16.012785,10.179729,-14.729772,8.329178,3.7600057,-0.07028004,7.22108,3.2039785,12.174639,-29.941877,57.792244,14.349339,3.6216834,-6.949939,-18.36945,-3.8041928,76.39792,80.506165,-12.913994,11.776804,10.497323
189,1.2949532270431519,0.5549946427345276,77.47093200683594,1.3345442791877127,-6.338945244633751,-83.37522956357199,10.09499,-0.9539473,-14.205009,9.049358,-15.823009,-4.7015,14.581229,-9.5412445,-16.03433,10.187731,-14.721604,8.30901,3.545761,-0.19389193,7.1467195,3.400802,12.157685,-29.814041,57.890263,14.309672,3.6308725,-6.9582224,-17.104925,-4.3885074,75.345474,80.82861,-12.43887,11.928472,10.248262
190,1.291996717453003,0.5511351227760315,77.47564697265625,1.3256080671955086,-6.2404365886005735,-83.34748707120514,9.97663,-0.94459677,-14.235228,9.043,-15.809913,-4.7156954,14.467042,-9.528818,-16.051037,10.19944,-14.715995,8.286033,3.3104448,-0.31711093,7.07041,3.6114938,12.147874,-29.689093,57.99449,14.271607,3.6392283,-6.9831367,-15.873037,-4.9731636,74.36376,81.10465,-11.895881,12.042611,10.002972
191,1.2884480953216553,0.5567207932472229,77.48040771484375,1.3154976617496106,-6.14362360316198,-83.32785443346644,9.861563,-0.93278223,-14.258261,9.038561,-15.800112,-4.7292933,14.3532,-9.514262,-16.060045,10.210642,-14.709708,8.262971,3.064154,-0.4382524,6.9933295,3.8300335,12.144499,-29.575588,58.113125,14.236775,3.6468952,-7.0149426,-14.665805,-5.560666,73.38933,81.32458,-11.361122,12.11584,9.759581
192,1.2805484533309937,0.5577265024185181,77.48406982421875,1.304735095914127,-6.052870657545157,-83.32135801096511,9.758602,-0.9157636,-14.269447,9.03102,-15.790871,-4.745335,14.245747,-9.495981,-16.058712,10.215577,-14.698871,8.242692,2.8179183,-0.5562637,6.9168386,4.0497046,12.146807,-29.482962,58.25451,14.206875,3.653757,-7.0436773,-13.47398,-6.153561,72.35741,81.478264,-10.911482,12.145537,9.516539
193,1.2789478302001953,0.5532209873199463,77.48734283447266,1.292186523844488,-5.969140580574807,-83.32822711409605,9.669834,-0.8934779,-14.268776,9.0201845,-15.780692,-4.765134,14.1486225,-9.473413,-16.04863,10.210307,-14.68125,8.227564,2.5733235,-0.67132705,6.840591,4.268955,12.154869,-29.423529,58.42387,14.176984,3.6564984,-7.0629005,-12.290416,-6.755865,71.255424,81.55368,-10.609603,12.121902,9.27956
194,1.2704452276229858,0.5532355904579163,77.49195861816406,1.2784134164900545,-5.890200578320962,-83.34618181334366,9.589758,-0.8671311,-14.258293,9.010612,-15.772592,-4.7869477,14.058366,-9.447252,-16.030613,10.197196,-14.658413,8.215563,2.3287284,-0.783698,6.7637296,4.4880686,12.168843,-29.393673,58.618263,14.146738,3.6562386,-7.078886,-11.116997,-7.3708043,70.11336,81.554,-10.40049,12.050851,9.048027
195,1.2655558586120605,0.5513604283332825,77.49412536621094,1.260870633660678,-5.815164366219925,-83.37621583183486,9.517183,-0.83620614,-14.236569,8.999485,-15.7669,-4.8091664,13.969263,-9.417385,-16.000406,10.183249,-14.634624,8.202672,2.0887284,-0.8930414,6.688257,4.704598,12.187787,-29.37567,58.83276,14.126468,3.660212,-7.100629,-9.955647,-7.998319,68.922935,81.49411,-10.193389,11.953319,8.81129
196,1.2593088150024414,0.5480592250823975,77.49781036376953,1.2424553276598647,-5.743438192092036,-83.41965395175487,9.449184,-0.79983616,-14.202099,8.988609,-15.766399,-4.8302283,13.876054,-9.383376,-15.95367,10.173328,-14.61237,8.184962,1.8582104,-0.99803424,6.6165514,4.9154863,12.210158,-29.35206,59.06319,14.126529,3.6755002,-7.1368876,-8.808185,-8.635169,67.67099,81.38962,-9.900881,11.849073,8.55863
197,1.252134084701538,0.551629364490509,77.49978637695312,1.219110359492815,-5.6761589199955065,-83.47683320167036,9.387021,-0.7567868,-14.154942,8.977322,-15.773732,-4.849589,13.778583,-9.343653,-15.888462,10.1701,-14.594095,8.160821,1.6385282,-1.0954461,6.551285,5.1179285,12.234745,-29.322937,59.313908,14.156952,3.703493,-7.1949105,-7.674576,-9.279005,66.352806,81.24325,-9.46888,11.732902,8.241472
198,1.2466840744018555,0.5554625988006592,77.50300598144531,1.1916749645277287,-5.613491714696534,-83.54695643235556,9.331153,-0.7077463,-14.09573,8.9664955,-15.787704,-4.8681445,13.680937,-9.298369,-15.807765,10.16721,-14.576222,8.13254,1.4267858,-1.1861334,6.4911547,5.313429,12.261256,-29.295609,59.586063,14.210109,3.7403889,-7.268192,-6.5513124,-9.928779,64.97099,81.0487,-8.957906,11.596037,7.8814917
199,1.245161771774292,0.5517638921737671,77.50702667236328,1.1633664978179439,-5.552016337624205,-83.62975206161954,9.278586,-0.6551568,-14.023798,8.955093,-15.801821,-4.886632,13.5772,-9.251356,-15.713261,10.170057,-14.559398,8.101954,1.2220551,-1.2748657,6.4328504,5.5055256,12.289589,-29.263773,59.870457,14.269451,3.7857656,-7.3446803,-5.4388404,-10.581765,63.535385,80.81254,-8.438338,11.452961,7.5726123
200,1.2377454042434692,0.5573309659957886,77.5106201171875,1.1360176533954576,-5.4887476768887735,-83.7246926885657,9.226835,-0.6011647,-13.938479,8.942558,-15.81007,-4.9057446,13.465005,-9.204687,-15.607634,10.178203,-14.54211,8.070561,1.0221014,-1.3660016,6.3735723,5.697947,12.319852,-29.219923,60.157257,14.318774,3.839058,-7.4121194,-4.3398557,-11.233828,62.056057,80.54472,-7.980378,11.320624,7.408133
201,1.2315768003463745,0.5616743564605713,77.5160903930664,1.110586936225865,-5.422003920522866,-83.8318949620503,9.175376,-0.5456195,-13.838256,8.927283,-15.808699,-4.926587,13.341551,-9.159632,-15.491014,10.193599,-14.524715,8.038263,0.82017934,-1.4618767,6.3110867,5.8961935,12.352332,-29.163902,60.44724,14.349731,3.9033563,-7.4642205,-3.2596905,-11.881707,60.484135,80.2503,-7.57841,11.195676,7.4229836
202,1.2250958681106567,0.5632706880569458,77.52041625976562,1.0851217163445095,-5.353692057984531,-83.95178136538229,9.126258,-0.48771304,-13.723742,8.909188,-15.801365,-4.9483976,13.209142,-9.114456,-15.362105,10.215844,-14.508322,8.004308,0.620351,-1.5594189,6.2485113,6.0958924,12.387303,-29.100286,60.74397,14.371801,3.9779148,-7.50843,-2.1952696,-12.523414,58.825157,79.92763,-7.205024,11.074198,7.563612
203,1.2167365550994873,0.5632222890853882,77.52576446533203,1.058634834413785,-5.285904130650776,-84.0831425110643,9.079622,-0.42764086,-13.598287,8.889784,-15.792515,-4.9693227,13.0710945,-9.068283,-15.221591,10.241716,-14.490529,7.969869,0.43426237,-1.6540567,6.1905384,6.288974,12.424339,-29.02527,61.03936,14.396368,4.0562925,-7.5535645,-1.1408837,-13.154632,57.181488,79.575836,-6.887565,10.9726095,7.789792
204,1.2099066972732544,0.5704690217971802,77.5300521850586,1.0332006922074226,-5.220677981984692,-84.22566241034059,9.035282,-0.36578318,-13.464588,8.8714695,-15.787646,-4.987366,12.9294195,-9.020521,-15.069659,10.27126,-14.471,7.936052,0.268888,-1.741831,6.140293,6.4703956,12.462341,-28.92907,61.324768,14.4365635,4.131987,-7.608773,-0.09891431,-13.769891,55.6595,79.2039,-6.654994,10.906006,8.060904
205,1.1988482475280762,0.5794450044631958,77.53644561767578,1.0092428694515352,-5.157744708191003,-84.3795366898745,8.990845,-0.30439162,-13.324545,8.856572,-15.788574,-4.9991627,12.779592,-8.973364,-14.9044485,10.311443,-14.4521265,7.90392,0.118145645,-1.8240781,6.097953,6.641394,12.500473,-28.809265,61.60305,14.49878,4.2006445,-7.676297,0.9198308,-14.365098,54.250805,78.819244,-6.5421267,10.879896,8.404455
206,1.1894959211349487,0.5926793813705444,77.54136657714844,0.9845718184706006,-5.096202177224981,-84.5449050403761,8.946488,-0.24283034,-13.176231,8.8450775,-15.79321,-5.0066867,12.620741,-8.9267435,-14.726386,10.363659,-14.435356,7.87263,-0.023071613,-1.9023764,6.061205,6.806043,12.53832,-28.666414,61.876987,14.576217,4.266423,-7.751436,1.9084431,-14.937796,52.914116,78.428474,-6.523154,10.884588,8.828327
207,1.181717872619629,0.6014314889907837,77.54695129394531,0.9606155827246637,-5.0375502814313675,-84.72077599290462,8.9093895,-0.17644094,-13.01721,8.828379,-15.79739,-5.016038,12.463155,-8.875826,-14.538928,10.412145,-14.414621,7.8405385,-0.14854197,-1.97328,6.029285,6.964589,12.57526,-28.494064,62.138187,14.661471,4.3355513,-7.832733,2.8670266,-15.484823,51.708168,78.041245,-6.5380793,10.911134,9.261768
208,1.1726267337799072,0.6123766303062439,77.55338287353516,0.9296054872548221,-4.982660083983518,-84.90591060286208,8.880942,-0.10207192,-12.84535,8.810466,-15.803687,-5.0331516,12.311096,-8.81734,-14.344834,10.453702,-14.390627,7.8059587,-0.2565354,-2.0334442,6.0009184,7.1199102,12.6101265,-28.281216,62.376617,14.747853,4.4141216,-7.919202,3.7923894,-16.001764,50.694443,77.669815,-6.5295424,10.951248,9.633946
209,1.1620150804519653,0.6247406005859375,77.55789184570312,0.8950543378556031,-4.931415202056602,-85.09967049962022,8.862298,-0.0179991,-12.659198,8.789397,-15.810082,-5.0623674,12.166538,-8.74982,-14.146781,10.484784,-14.362067,7.7689033,-0.35145062,-2.0833836,5.9721603,7.278812,12.641448,-28.009676,62.592068,14.854044,4.508608,-8.020455,4.6689253,-16.48729,49.918007,77.33328,-6.4690537,11.020195,9.930973
210,1.149910807609558,0.6347289681434631,77.56288146972656,0.8566945714783796,-4.883408765665937,-85.30291781862782,8.853064,0.07346528,-12.460043,8.763158,-15.81549,-5.099516,12.025648,-8.67587,-13.942365,10.511201,-14.330699,7.7301464,-0.43771967,-2.1257298,5.9430046,7.4399905,12.66867,-27.685135,62.790787,14.977817,4.613756,-8.133745,5.489138,-16.94174,49.344242,77.033455,-6.3907976,11.116011,10.18713
211,1.1386574506759644,0.6413432955741882,77.56706237792969,0.8148721279844674,-4.839769714723479,-85.51631704104616,8.850613,0.1704882,-12.250123,8.737786,-15.824972,-5.138361,11.887525,-8.596424,-13.727876,10.535289,-14.29748,7.689137,-0.5103451,-2.1608732,5.9165344,7.593983,12.69262,-27.334024,62.973335,15.082812,4.719223,-8.239192,6.259625,-17.366106,48.91527,76.7653,-6.3288527,11.204595,10.403688
212,1.1252999305725098,0.6451112627983093,77.57199096679688,0.7721741975257964,-4.801685293727675,-85.74083648509561,8.8534565,0.27106732,-12.031685,8.716695,-15.841443,-5.172833,11.750123,-8.51286,-13.498965,10.562636,-14.265361,7.645305,-0.5623175,-2.188445,5.8973575,7.7302337,12.71506,-26.985266,63.13973,15.131577,4.8146353,-8.31668,6.9920354,-17.76019,48.573563,76.516754,-6.3145604,11.251909,10.582322
213,1.113186001777649,0.6583637595176697,77.5762710571289,0.7271965978095195,-4.770336006685159,-85.98036956286485,8.862964,0.377097,-11.8019,8.700111,-15.867943,-5.200297,11.611171,-8.423719,-13.249692,10.597282,-14.236187,7.5951185,-0.5827697,-2.2067769,5.8878417,7.8429775,12.73667,-26.64164,63.2937,15.094082,4.9024515,-8.359529,7.685974,-18.126204,48.32749,76.28882,-6.387862,11.242152,10.724609
214,1.0979318618774414,0.668509840965271,77.58145141601562,0.6793911539945304,-4.744973043776384,-86.2331612915957,8.880918,0.48914006,-11.560822,8.6830435,-15.900073,-5.2244678,11.475679,-8.32802,-12.984371,10.628874,-14.204351,7.540011,-0.57557356,-2.2167592,5.885616,7.9369626,12.757776,-26.293234,63.43512,14.995273,4.9868126,-8.378502,8.335047,-18.467276,48.199463,76.085976,-6.5204725,11.195296,10.828332
215,1.0796823501586914,0.6820048093795776,77.58466339111328,0.632052955519281,-4.723412323897389,-86.49170551933746,8.898436,0.6014598,-11.314397,8.678755,-15.940252,-5.2482905,11.338449,-8.231245,-12.712747,10.669738,-14.177502,7.4870105,-0.55562127,-2.2228518,5.886641,8.018844,12.780626,-25.948383,63.556633,14.882456,5.0596943,-8.380029,8.942835,-18.783922,48.144623,75.9029,-6.649484,11.130937,10.890511
216,1.0607538223266602,0.6956314444541931,77.58744812011719,0.5856016183567039,-4.703970984200152,-86.74836801829356,8.92341,0.71157384,-11.068324,8.665746,-15.972054,-5.274824,11.21285,-8.13505,-12.447148,10.694394,-14.142463,7.4431257,-0.53459626,-2.2294414,5.887266,8.095328,12.808678,-25.618654,63.648247,14.802485,5.114354,-8.371227,9.515755,-19.074434,48.116764,75.73263,-6.710353,11.068877,10.907958
217,1.045350432395935,0.7127298712730408,77.58921813964844,0.5431384678207799,-4.68640189965949,-87.00441066834875,8.954803,0.8172041,-10.820545,8.646931,-15.994984,-5.306325,11.098367,-8.041723,-12.18771,10.703673,-14.099975,7.4154863,-0.5088568,-2.2383215,5.886857,8.166889,12.844566,-25.306763,63.71017,14.767863,5.14259,-8.346811,10.056385,-19.338251,48.133533,75.57674,-6.7007365,11.009623,10.857728
218,1.0310962200164795,0.7222197651863098,77.59169006347656,0.5028769439575606,-4.671737430139055,-87.26269240412556,8.991966,0.92071307,-10.56917,8.626134,-16.014185,-5.340658,10.993436,-7.9488654,-11.929461,10.700522,-14.051559,7.398549,-0.47294894,-2.2480702,5.8875575,8.232788,12.889123,-25.007393,63.742104,14.754017,5.1512246,-8.306335,10.559485,-19.57665,48.209755,75.43943,-6.6499386,10.944035,10.748624
219,1.0112502574920654,0.7293373346328735,77.59473419189453,0.4623292455905702,-4.659456789643386,-87.51825987056655,9.030507,1.0240546,-10.320675,8.607583,-16.033716,-5.374439,10.892511,-7.8552046,-11.674614,10.695934,-14.002522,7.380366,-0.43559837,-2.2577915,5.890478,8.290751,12.943301,-24.7245,63.7454,14.746475,5.1495705,-8.262121,11.023061,-19.788769,48.29107,75.314,-6.5447187,10.877581,10.625341
220,0.9933279156684875,0.7396149635314941,77.59624481201172,0.4192521721096859,-4.64903073083158,-87.76630160274047,9.066588,1.1290736,-10.081759,8.595017,-16.0578,-5.404284,10.793184,-7.759038,-11.425901,10.696123,-13.9571,7.34891,-0.40251955,-2.267098,5.8970294,8.337414,13.008065,-24.464844,63.722477,14.730633,5.147135,-8.226423,11.447319,-19.972883,48.31767,75.194374,-6.374115,10.815684,10.532398
221,0.9741703867912292,0.7530081272125244,77.59976196289062,0.37236139465811596,-4.641169719913357,-88.0075282424166,9.098355,1.238357,-9.852931,8.593108,-16.090405,-5.4283876,10.693132,-7.6582227,-11.181754,10.705598,-13.916622,7.2964754,-0.3689993,-2.2739375,5.908053,8.367684,13.085018,-24.239502,63.674305,14.703127,5.1467366,-8.205076,11.833298,-20.127968,48.278954,75.08328,-6.0887556,10.755373,10.478901
222,0.9542704820632935,0.7663469910621643,77.60346984863281,0.3208637774883177,-4.635642559276354,-88.24387972145219,9.127891,1.3500338,-9.631106,8.600062,-16.129343,-5.448896,10.595156,-7.5538096,-10.941705,10.718723,-13.8784685,7.230858,-0.33138803,-2.2789462,5.9232807,8.384043,13.174647,-24.044764,63.598858,14.670697,5.143235,-8.190942,12.183403,-20.253242,48.201443,74.980354,-5.711475,10.695267,10.442173
223,0.9375473260879517,0.77521812915802,77.60920715332031,0.27095509043687127,-4.631411121768921,-88.47200745655915,9.155904,1.460367,-9.417477,8.608693,-16.168009,-5.468254,10.500564,-7.4500146,-10.70953,10.731569,-13.8413515,7.1635966,-0.29697725,-2.2863185,5.9395823,8.390203,13.272274,-23.865417,63.50215,14.635075,5.13326,-8.175306,12.493918,-20.345108,48.084846,74.8878,-5.3364396,10.642456,10.417727
224,0.9180086851119995,0.7911440134048462,77.61244201660156,0.2247540537854626,-4.626834388357983,-88.688403562782,9.181864,1.5649189,-9.213054,8.614503,-16.20109,-5.4890203,10.41029,-7.3507566,-10.488891,10.7414465,-13.804671,7.10617,-0.27325767,-2.30041,5.9564834,8.396902,13.379939,-23.68607,63.375267,14.596798,5.1165195,-8.152215,12.766967,-20.409529,47.92691,74.7929,-5.0586147,10.604709,10.402001
225,0.8989698886871338,0.8044774532318115,77.61418914794922,0.18163979640512923,-4.621268393206575,-88.89207232773178,9.204994,1.6632261,-9.0177965,8.616807,-16.227654,-5.5100646,10.324796,-7.256456,-10.280167,10.744956,-13.768197,7.0610375,-0.26220998,-2.322097,5.9731197,8.408062,13.499863,-23.50361,63.21042,14.557359,5.090142,-8.121384,13.003063,-20.448004,47.721676,74.69347,-4.918612,10.587405,10.39967
226,0.8779289126396179,0.8167338371276855,77.6192626953125,0.14136758959072082,-4.615367426535467,-89.08504152017636,9.224967,1.7571812,-8.831189,8.619587,-16.251186,-5.53064,10.243673,-7.1651077,-10.081582,10.743729,-13.731867,7.022267,-0.2603967,-2.3477275,5.9894056,8.415357,13.626534,-23.325651,63.017605,14.516622,5.055725,-8.084814,13.200779,-20.457283,47.47168,74.596954,-4.861446,10.585404,10.410512
227,0.8584262132644653,0.8355475068092346,77.62215423583984,0.10230905352377537,-4.610377438825857,-89.26772129523553,9.244342,1.8469956,-8.653955,8.620053,-16.270985,-5.5537043,10.166937,-7.0772843,-9.893724,10.741917,-13.695323,6.9885945,-0.26500782,-2.378017,6.0079465,8.4156475,13.759177,-23.153019,62.808792,14.472244,5.016409,-8.041609,13.360469,-20.437504,47.190052,74.500824,-4.835239,10.590736,10.424154
228,0.8417484164237976,0.855146050453186,77.62501525878906,0.06747479720823935,-4.60730824432816,-89.44077460492721,9.26446,1.9331355,-8.487105,8.616835,-16.286243,-5.582745,10.093415,-6.9934435,-9.717155,10.744462,-13.658116,6.9587526,-0.27414903,-2.4132056,6.0311713,8.40519,13.896563,-22.986273,62.59728,14.421173,4.9753065,-7.9904604,13.481271,-20.389084,46.889175,74.40377,-4.7887383,10.594767,10.430058
229,0.8234644532203674,0.8742843866348267,77.62825012207031,0.03343387083722432,-4.606115555050633,-89.60355492146255,9.289384,2.0157084,-8.331915,8.600783,-16.291279,-5.621868,10.02823,-6.9134336,-9.553975,10.742008,-13.612901,6.9355154,-0.28920093,-2.4527063,6.0593095,8.383561,14.038172,-22.826073,62.381947,14.364835,4.9328165,-7.931667,13.563668,-20.31179,46.561703,74.30507,-4.709014,10.604656,10.424468
230,0.8027690649032593,0.890658438205719,77.63327026367188,0.002647804191847961,-4.606161319997086,-89.75608314454205,9.310543,2.0936825,-8.187955,8.589101,-16.295887,-5.668196,9.963752,-6.837813,-9.402542,10.748091,-13.569044,6.918405,-0.31057426,-2.4961157,6.091341,8.351833,14.184042,-22.671988,62.158325,14.304277,4.887334,-7.865374,13.6073065,-20.20559,46.202713,74.20636,-4.62468,10.621818,10.413325
231,0.7832136750221252,0.9110004901885986,77.63609313964844,-0.026998151914090798,-4.608154372290868,-89.89958362128348,9.332616,2.1684802,-8.051981,8.574458,-16.297285,-5.7144065,9.903902,-6.7653794,-9.260401,10.754442,-13.526158,6.901546,-0.334746,-2.5446966,6.127138,8.309198,14.33312,-22.522358,61.933872,14.236856,4.8390703,-7.7908397,13.61047,-20.071571,45.835762,74.10843,-4.540913,10.629208,10.400439
232,0.7642760872840881,0.9269310235977173,77.63855743408203,-0.05478232174573824,-4.612511271208517,-90.03563588953283,9.35348,2.240752,-7.9212055,8.56567,-16.302588,-5.753083,9.8446455,-6.6954384,-9.12424,10.76856,-13.492409,6.8788457,-0.35949484,-2.5991669,6.1665974,8.254534,14.483882,-22.37481,61.716793,14.159711,4.788035,-7.7068915,13.571096,-19.911556,45.485546,74.01201,-4.462736,10.610084,10.389924
233,0.7454720139503479,0.9488871097564697,77.63874053955078,-0.08228707278519874,-4.6195921005872,-90.1622849913606,9.371444,2.3098414,-7.7966595,8.565203,-16.313084,-5.781169,9.78684,-6.6288896,-8.994808,10.790766,-13.470691,6.8489113,-0.3899058,-2.6622658,6.2098355,8.190414,14.635476,-22.220913,61.50512,14.070174,4.7323833,-7.607919,13.488268,-19.725845,45.14801,73.91732,-4.3826013,10.558805,10.377565
234,0.7245648503303528,0.9690258502960205,77.64155578613281,-0.10617469468041642,-4.629080017693877,-90.27954379653342,9.389221,2.3760223,-7.6792865,8.567458,-16.325403,-5.802914,9.731262,-6.565452,-8.873278,10.818982,-13.45704,6.814824,-0.42613396,-2.7322872,6.25699,8.115468,14.787963,-22.064367,61.297523,13.970017,4.672576,-7.4961057,13.36204,-19.514942,44.814167,73.82426,-4.3002896,10.484882,10.362834
235,0.701644778251648,0.9905658960342407,77.64337921142578,-0.13061084267387235,-4.640345106030578,-90.39166657575116,9.405615,2.4404008,-7.5662093,8.573777,-16.339422,-5.8222423,9.676583,-6.5039597,-8.757107,10.852071,-13.447354,6.7776313,-0.45858017,-2.8038247,6.3073397,8.026151,14.940381,-21.917324,61.099323,13.866692,4.612137,-7.3822994,13.196845,-19.281168,44.499603,73.729095,-4.2342596,10.393974,10.356136
236,0.6837380528450012,1.0112133026123047,77.64395141601562,-0.1551539083484761,-4.652916863259568,-90.50305021092299,9.423783,2.5037138,-7.454338,8.577259,-16.350525,-5.8431244,9.619115,-6.444276,-8.643369,10.893243,-13.439292,6.7385263,-0.47830313,-2.8716226,6.3610363,7.917908,15.0912285,-21.793,60.917305,13.766292,4.554596,-7.2774134,12.9962,-19.028124,44.222206,73.62699,-4.200883,10.292348,10.3675995
237,0.663719117641449,1.0264561176300049,77.64784240722656,-0.17981482471051125,-4.666331297200048,-90.6146463798073,9.4422,2.5669208,-7.342842,8.580592,-16.36029,-5.8661146,9.5576515,-6.3856688,-8.532639,10.943169,-13.431376,6.695473,-0.48185092,-2.9332018,6.417272,7.7854404,15.239319,-21.696308,60.756565,13.658113,4.497136,-7.181415,12.759765,-18.759653,43.994972,73.51752,-4.227022,10.174234,10.414151
238,0.6460993885993958,1.0486639738082886,77.65003204345703,-0.20489654044893738,-4.6807791316078315,-90.72433948785654,9.461583,2.6287713,-7.233291,8.581911,-16.367863,-5.8892794,9.492676,-6.329224,-8.4257145,11.003333,-13.426745,6.648729,-0.474851,-2.9913008,6.4767733,7.6323986,15.383972,-21.61899,60.612667,13.543667,4.438971,-7.089332,12.488665,-18.477074,43.805668,73.39716,-4.2956066,10.03915,10.485917
239,0.6306819319725037,1.079626202583313,77.65144348144531,-0.2301772591423513,-4.697426790588086,-90.83137213125559,9.482486,2.6897647,-7.1266427,8.584113,-16.375526,-5.912752,9.430823,-6.273325,-8.321551,11.062862,-13.42243,6.602425,-0.46187893,-3.04636,6.5408344,7.4649763,15.525429,-21.55609,60.48008,13.445727,4.3872037,-7.004021,12.18524,-18.181658,43.631275,73.26265,-4.360602,9.900731,10.552415
240,0.6126415729522705,1.1080107688903809,77.65335845947266,-0.25400297440905206,-4.717149411110672,-90.9350554445841,9.50637,2.7498243,-7.0237536,8.586636,-16.383429,-5.93654,9.377551,-6.217101,-8.218849,11.114096,-13.417693,6.560823,-0.4467625,-3.0997574,6.6107483,7.2907,15.663904,-21.50217,60.351536,13.388279,4.3492,-6.928319,11.853589,-17.874311,43.447567,73.10906,-4.3767114,9.772963,10.583488
241,0.5957306623458862,1.1319783926010132,77.65433502197266,-0.2792333132088531,-4.739826564981275,-91.034511579186,9.533692,2.8100448,-6.925778,8.589162,-16.391777,-5.9619374,9.333833,-6.1590357,-8.117355,11.153962,-13.4122,6.525101,-0.43135986,-3.150775,6.6880035,7.1069555,15.800619,-21.462341,60.229122,13.383783,4.330204,-6.862496,11.49226,-17.554947,43.250496,72.93404,-4.323896,9.663184,10.582466
242,0.5802468657493591,1.1542173624038696,77.65327453613281,-0.30523840476786523,-4.764947274112126,-91.13021006187641,9.562937,2.8700123,-6.8319035,8.591876,-16.399885,-5.9884567,9.296771,-6.1000824,-8.017707,11.188037,-13.407383,6.492981,-0.41239503,-3.1994433,6.7715206,6.911361,15.935814,-21.437958,60.114635,13.417454,4.325554,-6.805161,11.100805,-17.22415,43.050842,72.73961,-4.229157,9.562705,10.561932
