Frame,root_translateX,root_translateY,root_translateZ,root_rotateX,root_rotateY,root_rotateZ,left_hip_pitch_joint_dof,left_hip_roll_joint_dof,left_hip_yaw_joint_dof,left_knee_joint_dof,left_ankle_pitch_joint_dof,left_ankle_roll_joint_dof,right_hip_pitch_joint_dof,right_hip_roll_joint_dof,right_hip_yaw_joint_dof,right_knee_joint_dof,right_ankle_pitch_joint_dof,right_ankle_roll_joint_dof,waist_yaw_joint_dof,waist_roll_joint_dof,waist_pitch_joint_dof,left_shoulder_pitch_joint_dof,left_shoulder_roll_joint_dof,left_shoulder_yaw_joint_dof,left_elbow_joint_dof,left_wrist_roll_joint_dof,left_wrist_pitch_joint_dof,left_wrist_yaw_joint_dof,right_shoulder_pitch_joint_dof,right_shoulder_roll_joint_dof,right_shoulder_yaw_joint_dof,right_elbow_joint_dof,right_wrist_roll_joint_dof,right_wrist_pitch_joint_dof,right_wrist_yaw_joint_dof
0,-2.3232638835906982,-0.8623453974723816,74.23462677001953,-1.868570556911431,-0.34699159587413475,18.554422977786857,-0.36976627,20.122555,10.072487,38.051056,-24.186096,-15.000033,-27.860935,-18.245342,15.4863825,57.381508,-17.923914,3.2525594,-4.969581,-5.805071,18.600082,8.703299,33.064224,-26.793945,43.456966,4.147849,1.5028986,1.5330145,-0.6948003,-25.815378,12.635271,32.58984,19.241426,1.8410784,1.9825108
1,-2.0222949981689453,-2.193242073059082,74.398193359375,-1.5159416382830269,-0.370766341321318,18.516932079764352,0.2346427,20.53537,9.709975,36.05445,-22.022865,-15.000033,-27.167252,-20.27218,14.8818035,55.961277,-16.850908,3.1696093,-4.589031,-6.0160985,18.261223,9.3095,32.991432,-26.549637,43.81465,3.8019786,1.5571498,1.5366538,-0.67691517,-25.787497,13.218139,31.829096,19.24043,1.7565051,2.2026668
2,-1.7088543176651,-3.542766809463501,74.59235382080078,-1.1402853972644393,-0.4040795705576659,18.48046586013563,0.8537093,20.911636,9.337761,34.043182,-19.914381,-15.000033,-26.455303,-22.36851,14.23939,54.560905,-15.794493,3.0977454,-4.2499714,-6.245153,17.899563,9.906397,32.836098,-26.27951,44.255054,3.4655125,1.6052212,1.5498117,-0.7417367,-25.763296,13.888376,31.137123,19.265158,1.6630359,2.3884583
3,-1.3763153553009033,-4.921198844909668,74.8207778930664,-0.7991318751797463,-0.42788565970906894,18.436562706556664,1.4354137,21.361189,8.982715,32.09163,-17.716833,-15.000033,-25.724617,-24.317677,13.592856,53.140438,-14.698522,3.021971,-3.9373221,-6.440224,17.530354,10.480285,32.62529,-26.00124,44.735962,3.1870952,1.6511669,1.5637802,-0.78682005,-25.73693,14.55449,30.465343,19.250374,1.5780773,2.6108456
4,-1.0366696119308472,-6.331085205078125,75.07173156738281,-0.5507420835947785,-0.4221004767106526,18.377692428597406,1.9101279,21.993145,8.669075,30.299759,-15.297974,-15.000033,-24.98772,-25.903967,12.983498,51.668884,-13.515174,2.9258869,-3.6685576,-6.5599146,17.159348,11.050832,32.381172,-25.687,45.209957,3.0266867,1.6976585,1.5681376,-0.76496804,-25.693432,15.176611,29.812202,19.135166,1.5142024,2.93262
5,-0.6811116337776184,-7.758107662200928,75.33560180664062,-0.4222449765806765,-0.3828712859258156,18.307285322150143,2.2845416,22.843178,8.410164,28.645012,-12.553899,-15.000033,-24.249708,-27.097168,12.362233,50.125275,-12.184117,2.7705042,-3.4544802,-6.586222,16.785545,11.6540785,32.1142,-25.290697,45.657116,3.0301936,1.7507985,1.5640687,-0.66380066,-25.619701,15.745858,29.161608,18.81952,1.470544,3.4293737
6,-0.31956449151039124,-9.207775115966797,75.60140228271484,-0.38006193749935935,-0.319547524538244,18.22714256082479,2.5531104,23.847853,8.180741,27.136606,-9.597341,-15.000033,-23.517433,-27.997553,11.733988,48.544376,-10.759189,2.5735996,-3.2810433,-6.550341,16.408667,12.281808,31.83395,-24.833246,46.082348,3.1494048,1.8086519,1.5534189,-0.51229346,-25.514174,16.280777,28.523338,18.359789,1.4364033,4.048159
7,0.04208161681890488,-10.683140754699707,75.85649871826172,-0.3948173618076197,-0.23094970496024853,18.128539567820418,2.6211016,24.970858,7.9384093,25.932484,-6.6260133,-15.000033,-22.80841,-28.58279,11.228693,46.970596,-9.35943,2.4020927,-3.1298177,-6.48274,16.033106,12.900622,31.559431,-24.375038,46.46729,3.3131597,1.862557,1.5270064,-0.32435077,-25.379116,16.783237,27.934244,17.927761,1.4125656,4.6583743
8,0.41202300786972046,-12.195747375488281,76.10035705566406,-0.4383929256869827,-0.11453527929573926,18.003765778882926,2.4167233,26.17924,7.638668,25.152521,-3.8106034,-15.000033,-22.140251,-28.837843,10.983998,45.43862,-8.096274,2.322656,-2.9818118,-6.4110055,15.664734,13.472396,31.316507,-23.984274,46.794346,3.4428093,1.9039998,1.4753729,-0.108462766,-25.217691,17.250273,27.424046,17.696342,1.4059165,5.1303706
9,0.7876778841018677,-13.742719650268555,76.3260269165039,-0.5197906330223705,0.036137299073627775,17.838945685441548,1.8587313,27.503061,7.1998677,24.880348,-0.90298074,-15.000033,-21.515064,-28.723574,11.048605,43.917767,-7.073268,2.3265986,-2.819637,-6.3338933,15.316214,14.007537,31.123865,-23.667091,47.032692,3.5161228,1.9485271,1.4177582,0.14878212,-25.022314,17.669205,26.978859,17.762312,1.4266993,5.4168973
10,1.1722837686538696,-15.318401336669922,76.53229522705078,-0.6622680535886669,0.22273965208494384,17.644366603973584,0.97528595,28.951443,6.5989666,25.048277,2.0918672,-15.000033,-20.927845,-28.259224,11.354008,42.39237,-6.200845,2.378995,-2.6552613,-6.229915,14.981171,14.529385,30.98751,-23.391207,47.179413,3.5670075,1.9961863,1.3491205,0.45301378,-24.78812,18.037579,26.581646,18.01482,1.4718834,5.5927567
11,1.558234453201294,-16.90601348876953,76.70851135253906,-0.8577409775458575,0.4391484000962102,17.448000576596225,-0.107011616,30.464571,5.9109054,25.508707,4.64604,-15.000033,-20.385414,-27.52224,11.869159,40.919533,-5.2984123,2.507749,-2.511601,-6.099023,14.636975,15.031895,30.911467,-23.159836,47.253185,3.611247,2.0151005,1.2240136,0.7806763,-24.532673,18.36756,26.26169,18.317245,1.5312675,5.7123814
12,1.9399385452270508,-18.486970901489258,76.84138488769531,-1.0384848942404843,0.6810650357317466,17.289110681238736,-1.2036535,31.929083,5.35176,26.031181,6.260012,-14.781596,-19.907644,-26.658716,12.597647,39.56031,-4.1902966,2.7647223,-2.420515,-5.9920335,14.260028,15.500089,30.8967,-22.983105,47.276356,3.661613,1.972535,0.9964124,1.119016,-24.283272,18.667023,26.034561,18.539246,1.5938948,5.831413
13,2.2945919036865234,-20.048320770263672,76.90306854248047,-0.9881953788738335,1.0140015121996244,17.236451592171747,-2.306109,33.142017,5.382769,26.478918,6.652657,-13.269225,-19.657644,-25.893536,13.76077,38.407394,-2.6738203,2.988066,-2.4624844,-6.0995193,13.768967,15.935207,30.944942,-22.912033,47.23554,3.6876416,1.8433983,0.6258456,1.4865235,-24.064585,18.93981,25.876286,18.669168,1.6720858,5.951845
14,2.641374111175537,-21.598276138305664,76.88567352294922,-0.9602706064085468,1.3911675912235888,17.201863330652543,-3.4164312,34.411995,5.6030517,26.96612,6.140622,-11.596538,-19.508724,-24.905281,15.210552,37.403366,-0.896815,3.177319,-2.549121,-6.185643,13.234996,16.346287,31.053476,-22.927855,47.11863,3.6907656,1.651266,0.14518505,1.8913143,-23.86955,19.176516,25.774412,18.77325,1.7672863,6.050162
15,2.985142946243286,-23.157873153686523,76.83655548095703,-0.9227118026019271,1.7351942313305941,17.187003153559782,-4.4505486,35.626896,5.8315597,27.50283,5.2263627,-10.034843,-19.231392,-23.854965,16.74931,36.355167,0.77205026,3.8398674,-2.644943,-6.296103,12.756152,16.71091,31.222118,-22.939978,46.964493,3.736021,1.4327612,-0.38345778,2.330102,-23.6914,19.357685,25.728373,18.84897,1.8558462,6.139955
16,3.3173837661743164,-24.72960090637207,76.74019622802734,-0.8396504669780296,1.9686939069232106,17.1946783445386,-5.331548,36.67627,5.9166427,28.104193,4.416201,-8.842032,-18.594004,-22.903229,18.188173,35.049686,1.9448981,5.457467,-2.7221859,-6.476386,12.429342,17.002968,31.437645,-22.854588,46.821423,3.8911235,1.2222338,-0.8959465,2.799251,-23.532682,19.471884,25.732006,18.896786,1.9149277,6.234027
17,3.6377899646759033,-26.33711051940918,76.5977554321289,-0.6597991398354996,2.0733963602986454,17.217792727392055,-5.982312,37.503036,5.9029517,28.745749,3.820431,-8.176641,-17.3919,-22.141218,19.650183,33.17464,2.695449,8.650255,-2.7774458,-6.7906146,12.255854,17.231642,31.706064,-22.643562,46.701466,4.2142158,0.98816395,-1.4446065,3.295058,-23.387424,19.531727,25.784481,18.893764,1.9308013,6.357169
18,3.9438910484313965,-27.96238899230957,76.4100341796875,-0.3981115019095269,2.08814200113849,17.257864531556983,-6.4675317,38.15094,5.8585806,29.458,3.167047,-7.866475,-15.783728,-21.530237,21.155865,30.873747,3.135832,12.958023,-2.828329,-7.217827,12.19108,17.417421,32.031467,-22.346834,46.572853,4.6582627,0.72232264,-2.0398312,3.8123622,-23.25345,19.546364,25.893375,18.847881,1.9176791,6.4945774
19,4.264406681060791,-29.655658721923828,76.148681640625,-0.5360642088252121,1.9772204094730994,17.291576294045075,-6.8990016,39.18074,5.5128245,30.234127,2.4591863,-7.808029,-14.01951,-20.575302,21.57576,28.59407,3.0587506,15.000033,-2.833804,-7.284877,12.322639,17.535736,32.39114,-21.983194,46.43099,5.13048,0.4966742,-2.5524836,4.32718,-23.133774,19.501577,26.090593,18.801659,1.8920575,6.6014566
20,4.577432155609131,-31.355159759521484,75.86486053466797,-0.9780789441656335,1.7580279324749604,17.362251620882304,-7.438933,40.437122,4.7880464,31.188494,1.616732,-7.7035522,-12.4720745,-19.257177,21.095387,26.872427,2.2213647,15.000033,-2.8280857,-7.0518694,12.657062,17.555668,32.754086,-21.568464,46.29045,5.545064,0.38439414,-2.8540921,4.820043,-23.032576,19.391836,26.402224,18.799746,1.8733225,6.6287155
21,4.844777584075928,-33.012916564941406,75.58061981201172,-1.1634102344392534,1.4644477031549548,17.53376987943889,-8.151088,41.22259,3.7747982,32.522934,0.48187217,-7.302742,-11.4212,-18.111116,20.450706,26.098742,0.040877696,15.000033,-2.8713832,-7.0534034,13.144786,17.445875,33.117702,-21.091112,46.18667,5.937619,0.41035762,-2.894192,5.2948885,-22.951174,19.219494,26.804367,18.885048,1.8639798,6.5676637
22,5.073131561279297,-34.63263702392578,75.28984832763672,-1.2065660597422962,1.0997179306193545,17.767666143646114,-8.995693,41.695053,2.5004182,34.21607,-0.9145229,-6.7833595,-10.706415,-17.019463,19.592722,26.013292,-3.2110865,15.000033,-2.9331875,-7.189629,13.768503,17.217716,33.48299,-20.552776,46.122726,6.339245,0.5359724,-2.7459605,5.75924,-22.890772,18.990934,27.295609,19.023695,1.8556793,6.4416547
23,5.266772270202637,-36.24031066894531,74.98802947998047,-1.1944948320170035,0.7458174751071908,18.007517826338038,-9.984624,41.97156,1.1836723,36.181396,-2.4781022,-6.215756,-10.335676,-15.927664,18.63695,26.417337,-6.763607,15.000033,-2.987809,-7.363309,14.435225,16.905363,33.823902,-19.982143,46.073933,6.6623926,0.7382532,-2.4682343,6.209827,-22.845896,18.716618,27.924353,19.149992,1.8508121,6.2454247
24,5.411431789398193,-37.830970764160156,74.68977355957031,-1.2055874461606289,0.48034465763305734,18.20170030584283,-11.109978,42.16113,0.055011276,38.30468,-4.1011004,-5.668008,-10.271646,-14.808862,17.706064,27.052494,-9.81417,15.000033,-3.0199614,-7.4807935,15.052732,16.529127,34.09909,-19.41167,46.03831,6.8225455,0.9917667,-2.1151865,6.63563,-22.810305,18.410738,28.749058,19.19499,1.8527598,5.972442
25,5.511603832244873,-39.372398376464844,74.41210174560547,-1.2877594257391194,0.3271918400631447,18.344405027316608,-12.47708,42.356564,-0.87605447,40.694572,-5.853746,-5.1064854,-10.556119,-13.653756,16.685442,27.935045,-12.257159,15.000033,-3.0302796,-7.4724026,15.632196,16.026722,34.271587,-18.832973,46.05812,6.776468,1.3245219,-1.6286911,6.9665904,-22.789377,18.068333,29.878408,19.189816,1.8391478,5.6173835
26,5.573818683624268,-40.8552360534668,74.17835235595703,-1.399557425454328,0.23942467076833138,18.46391572742056,-14.05004,42.484787,-1.7200458,43.37913,-7.7701774,-4.514373,-11.165713,-12.504602,15.510182,29.147835,-14.477077,15.000033,-3.0411022,-7.37943,16.205679,15.359438,34.325188,-18.25758,46.19135,6.5801415,1.7344841,-0.9901062,7.222666,-22.79092,17.693447,31.267252,19.151821,1.8163344,5.1804504
27,5.6362385749816895,-42.281578063964844,74.0130844116211,-1.4769948638490122,0.18948860588653155,18.559441850620768,-15.58087,42.407978,-2.3937287,46.092735,-9.6621895,-3.9831758,-11.925159,-11.409693,14.396476,30.468872,-16.38189,15.000033,-3.0636425,-7.2970476,16.719149,14.651088,34.30026,-17.711155,46.375343,6.2977476,2.1522982,-0.32580632,7.5352707,-22.800228,17.310644,32.726788,18.996256,1.8326261,4.6661205
28,5.715427875518799,-43.66362762451172,73.91315460205078,-1.4570263251854916,0.15223267221716505,18.62782876506157,-16.80511,42.0,-2.789212,48.54495,-11.323677,-3.6051798,-12.666554,-10.39727,13.57143,31.683487,-17.873924,15.000033,-3.1321952,-7.3096457,17.13001,14.044922,34.182976,-17.158411,46.537483,6.0396233,2.5089753,0.23954715,8.010582,-22.808453,16.94101,34.068672,18.617283,1.9434453,4.0900006
29,5.824477672576904,-44.99775314331055,73.87982940673828,-1.2921375468505343,0.13144455206660005,18.665359437668727,-17.63999,41.219097,-2.792259,50.68765,-12.682959,-3.392867,-13.441814,-9.479268,13.160376,32.901524,-18.928154,15.000033,-3.2003565,-7.45636,17.387703,13.500168,33.991764,-16.68491,46.730667,5.7455497,2.8012552,0.7153124,8.687607,-22.782295,16.547039,35.394375,17.84598,2.1828349,3.4062302
30,5.946643829345703,-46.307106018066406,73.93151092529297,-1.0269793661720197,0.13821479990834767,18.672811947157097,-18.207932,40.151073,-2.4556546,52.62288,-13.829857,-3.3003492,-14.29548,-8.626053,13.02409,34.17133,-19.591377,15.000033,-3.2696245,-7.692629,17.531912,12.983934,33.72871,-16.252022,46.94996,5.3988047,3.061027,1.1523231,9.49087,-22.716963,16.124592,36.764355,16.771112,2.526129,2.6331592
31,6.059523105621338,-47.58076477050781,74.08000183105469,-0.7369477387653475,0.1609983229504613,18.65068385925177,-18.556118,38.86186,-1.9204745,54.271603,-14.790692,-3.332423,-15.053645,-7.8033504,12.995984,35.173977,-19.854097,15.000033,-3.362429,-7.974711,17.58968,12.506941,33.417763,-15.871395,47.1784,5.0659513,3.2764113,1.5007023,10.390807,-22.626087,15.764337,37.99059,15.731924,2.917839,1.8454803
32,6.171901226043701,-48.81190490722656,74.31879425048828,-0.49878821749174873,0.18769252700368416,18.60027068569951,-18.734747,37.414696,-1.3333248,55.558834,-15.594296,-3.4943616,-15.553052,-6.981932,12.907499,35.605762,-19.717812,15.000033,-3.4998517,-8.257708,17.593616,12.081392,33.094376,-15.556462,47.388813,4.80626,3.4369936,1.7066183,11.36811,-22.534592,15.552542,38.8709,15.069573,3.2911172,1.1122826
33,6.2906084060668945,-50.01557922363281,74.64346313476562,-0.3500202054638261,0.21256313411499048,18.530757277680028,-18.759634,35.794132,-0.75654477,56.4683,-16.225916,-3.7967863,-15.757111,-6.1445136,12.689652,35.401417,-19.161758,15.000033,-3.6852765,-8.5151825,17.551353,11.744598,32.766323,-15.274303,47.537067,4.6698446,3.5407674,1.7116772,12.4631405,-22.461868,15.55136,39.301395,14.898612,3.6845262,0.34286985
34,6.398880481719971,-51.190025329589844,75.04646301269531,-0.24715868376443167,0.24332541230737956,18.436865097908903,-18.62381,33.978157,-0.12330998,57.015747,-16.666351,-4.2321806,-15.760548,-5.30453,12.442013,34.727184,-18.19489,15.000033,-3.9114885,-8.773692,17.451382,11.4963,32.429764,-15.018202,47.6239,4.6076093,3.5950143,1.5525268,13.675231,-22.409733,15.70653,39.39179,15.040057,4.10527,-0.4658368
35,6.517571926116943,-52.36772918701172,75.51612091064453,-0.30889409711434573,0.2669362066807687,18.280922048529987,-18.37299,32.21157,0.4817296,57.18934,-16.9418,-4.8409557,-15.498445,-4.217205,12.144111,33.50413,-16.787764,14.080155,-4.1496286,-8.914733,17.330528,11.304627,32.107067,-14.841507,47.670464,4.538582,3.6039975,1.3165122,14.938943,-22.37226,15.913176,39.250458,15.38705,4.4340177,-1.1149682
36,6.633326530456543,-53.53533172607422,76.05193328857422,-0.34293652886607645,0.3064431558164296,18.059007128557838,-18.000708,30.373953,1.2129318,56.988625,-17.096476,-5.5434384,-15.091617,-3.1667624,11.949714,31.879452,-15.053301,13.075003,-4.4022207,-9.114557,17.17264,11.136777,31.837473,-14.806159,47.694096,4.372802,3.5726893,1.0878922,16.201496,-22.331373,16.058641,38.97376,15.827394,4.5579886,-1.4015362
37,6.754001140594482,-54.70201873779297,76.64543151855469,-0.30133479048586886,0.3650503073909634,17.765112778949927,-17.462833,28.392923,2.1335795,56.321526,-17.13506,-6.335969,-14.523786,-2.2205336,11.896791,29.800602,-12.963586,11.996286,-4.656263,-9.448195,16.9603,11.008377,31.652882,-14.9544115,47.683563,4.0380206,3.4936326,0.8636753,17.500988,-22.260248,16.112513,38.521263,16.418776,4.374768,-1.1684047
38,6.862579345703125,-55.86180114746094,77.26842498779297,-0.21735023036914922,0.4403117176617006,17.409904310066945,-16.793903,26.262316,3.1722338,55.199383,-17.03658,-7.21897,-13.796619,-1.3525121,11.923974,27.295101,-10.524902,10.859699,-4.9038954,-9.887994,16.696018,10.928222,31.557835,-15.260974,47.623173,3.5846248,3.369943,0.6004923,18.853912,-22.14573,16.123476,37.863728,17.186483,3.9751694,-0.5524236
39,6.9573259353637695,-57.00715637207031,77.91375732421875,-0.10495551662822493,0.5380432295911911,17.004689698022755,-16.10221,24.059929,4.2298794,53.76524,-16.79466,-8.155177,-12.997632,-0.54451805,12.014112,24.562202,-7.855077,9.921762,-5.149815,-10.3777275,16.407179,10.862381,31.544865,-15.678833,47.51655,3.1112561,3.2217886,0.32228437,20.178143,-21.993484,16.097057,37.10971,17.96725,3.537281,0.20762236
40,7.031529426574707,-58.15167236328125,78.556640625,0.029875661591118458,0.6622680550891364,16.56288234455569,-15.474601,21.855852,5.228206,52.1708,-16.404575,-9.1133375,-12.195994,0.20679766,12.184167,21.751625,-5.0431457,9.442906,-5.4016595,-10.864561,16.123476,10.774679,31.59897,-16.160994,47.3688,2.7196875,3.0679352,0.055131923,21.400501,-21.823359,16.03132,36.357376,18.593754,3.2306213,0.86712474
41,7.095020294189453,-59.27763748168945,79.1849136352539,0.2237114299640802,0.8313844212951673,16.073300235249707,-14.884975,19.594223,6.2049427,50.347904,-15.837885,-10.133164,-11.34811,0.92622364,12.654471,18.63207,-1.7798645,9.543859,-5.6801796,-11.383577,15.837116,10.683931,31.710657,-16.699783,47.17306,2.419971,2.8966405,-0.1873029,22.548166,-21.643389,15.904793,35.56277,19.017962,3.0949135,1.3961846
42,7.135787010192871,-60.382442474365234,79.7833480834961,0.48632728061007974,1.034259077703351,15.536191140091827,-14.280905,17.238024,7.184044,48.22518,-15.096987,-11.213778,-10.422971,1.5481566,13.412921,15.178775,1.8820668,10.084225,-5.982999,-11.961034,15.538816,10.598139,31.880009,-17.316856,46.93318,2.1647232,2.7021306,-0.41961256,23.656075,-21.454178,15.7199,34.678524,19.331387,3.0398865,1.9089339
43,7.174824237823486,-61.46074676513672,80.33045196533203,0.7801774884760526,1.2300423325332646,14.982870633997043,-13.679325,14.87698,8.0975065,45.940914,-14.21101,-12.267187,-9.491168,1.9670918,14.1242895,11.820213,5.3348355,10.928584,-6.283116,-12.536926,15.256586,10.484638,32.10178,-17.996122,46.651974,1.982476,2.5111382,-0.6580447,24.66704,-21.270123,15.511172,33.795376,19.575134,3.034128,2.375939
44,7.19741153717041,-62.510406494140625,80.8089828491211,1.0532814663351588,1.380979109679781,14.44154349058508,-13.102338,12.619262,8.880918,43.658062,-13.216407,-13.210339,-8.610027,2.150498,14.4044075,8.96316,8.001404,11.922923,-6.5582514,-13.034616,15.016783,10.304769,32.36636,-18.722437,46.33937,1.89721,2.3499455,-0.9184005,25.516191,-21.115807,15.3225,33.010895,19.792973,3.0476346,2.7701774
45,7.213766098022461,-63.53962326049805,81.21809387207031,1.33549812160582,1.4844351469666146,13.921051549518085,-12.529815,10.433654,9.570798,41.384163,-12.05831,-13.996018,-7.6920066,2.0648816,14.047752,6.452265,9.815745,13.293044,-6.829039,-13.4701395,14.807132,10.056965,32.668705,-19.524786,45.99702,1.9562219,2.2266464,-1.2251298,26.216454,-21.015526,15.159382,32.320164,20.01596,3.096558,3.1038604
46,7.244511604309082,-64.55939483642578,81.59273529052734,1.6318277185382268,1.5599170132857059,13.402648915272161,-11.934879,8.288678,10.187067,39.027473,-10.723442,-14.686217,-7.5880275,2.0219357,13.227542,6.023985,10.109901,15.000033,-7.1056185,-13.858123,14.616556,9.76159,33.0042,-20.395182,45.618687,2.134484,2.124665,-1.561898,26.798838,-20.974394,15.005122,31.670124,20.221462,3.1905963,3.3873165
47,7.277178764343262,-65.59210205078125,81.91322326660156,1.7296114449148927,1.5698845115438922,12.889540527134507,-11.380769,6.4483147,10.612334,36.80277,-9.41373,-15.000033,-7.459357,2.1205165,11.859974,5.996658,10.003973,15.000033,-7.3544273,-14.011638,14.519721,9.420297,33.363068,-21.256233,45.19936,2.351787,2.0341728,-1.8843355,27.219866,-20.985384,14.879913,31.09565,20.37082,3.2888224,3.590489
48,7.2881951332092285,-66.59961700439453,82.19685363769531,1.6957253168535695,1.5878139725605764,12.387549815085597,-10.898649,4.8120375,10.881225,34.602215,-8.148938,-15.000033,-7.229727,2.1133447,10.643473,6.0030537,9.861018,15.000033,-7.581149,-13.975111,14.456037,9.02079,33.724335,-22.03248,44.747353,2.5273144,1.9466002,-2.1448102,27.389324,-21.036917,14.809306,30.678493,20.425037,3.3470325,3.6860185
49,7.270944118499756,-67.58528900146484,82.43342590332031,1.467434351553722,1.5957256879583481,11.891512535383024,-10.464225,3.4539726,10.943456,32.43368,-6.9570737,-15.000033,-6.8403835,2.0264688,9.61266,6.050664,9.643782,15.000033,-7.7620163,-13.682527,14.456358,8.534597,34.07751,-22.720312,44.266563,2.6901991,1.857052,-2.3405437,27.264988,-21.127651,14.810361,30.445757,20.316088,3.354309,3.644605
50,7.231464862823486,-68.55000305175781,82.626220703125,1.0854815747399487,1.5755192836275107,11.40342045577833,-10.046981,2.3353994,10.828585,30.313843,-5.802815,-15.000033,-6.2921143,1.8444654,8.6039715,6.155262,9.245628,15.000033,-7.9143386,-13.176414,14.52335,7.965606,34.42184,-23.355644,43.76704,2.868373,1.7707705,-2.4908788,26.881914,-21.262247,14.87499,30.371931,20.082909,3.3323536,3.4873178
51,7.19157075881958,-69.490478515625,82.7657470703125,0.6171008336355751,1.5191203053044344,10.877947783248231,-9.64314,1.4254034,10.571652,28.33088,-4.7327905,-15.000033,-5.9116926,1.6289787,7.6999784,6.868116,8.437337,15.000033,-8.020147,-12.54267,14.647949,7.3787417,34.751266,-23.903713,43.2463,2.9973354,1.6954066,-2.5828648,26.290117,-21.434107,14.989191,30.437998,19.84435,3.2868302,3.2596684
52,7.158335208892822,-70.4290771484375,82.84660339355469,0.1080208433849046,1.4243044400844422,10.26255771533615,-9.280095,0.7264137,10.207544,26.617357,-3.8153594,-15.000033,-6.2776113,1.4882475,6.9637046,9.247324,6.7387447,14.940785,-8.057689,-11.847947,14.8151455,6.8290143,35.061386,-24.334166,42.714714,3.0067956,1.6385528,-2.6031976,25.53087,-21.632614,15.1427145,30.634523,19.718082,3.2214,3.0065618
53,7.1264848709106445,-71.3756103515625,82.86231994628906,-0.45671554822373955,1.2881453980118798,9.542711599755187,-8.985331,0.25718594,9.7210655,25.219316,-3.1541846,-15.000033,-6.4684243,1.3820112,6.4771175,11.321378,5.1920323,14.303591,-8.008562,-11.077178,15.029438,6.317082,35.351257,-24.632444,42.163532,2.8535845,1.6052908,-2.515118,24.563711,-21.852365,15.348868,31.01668,19.733976,3.110866,2.6874745
54,7.102189064025879,-72.31765747070312,82.8214111328125,-1.0431928519922522,1.1182732964434436,8.749750404024194,-8.735299,-0.04995926,9.134906,24.038784,-2.6685119,-15.000033,-6.6781864,1.22513,6.262865,13.556779,3.5181649,13.679898,-7.895376,-10.249518,15.278606,5.815064,35.623306,-24.816845,41.598003,2.5838797,1.5899072,-2.3361893,23.378855,-22.09366,15.610222,31.575068,19.828087,2.9603977,2.2950075
55,7.076783657073975,-73.25273132324219,82.72633361816406,-1.6395926141679817,0.9203837666609574,7.8865179948168125,-8.564291,-0.16738632,8.5055275,23.190529,-2.2529445,-15.000033,-6.902497,0.94949156,6.084877,15.870618,1.8049493,13.028256,-7.737143,-9.391664,15.540703,5.341555,35.87987,-24.901932,41.043827,2.267475,1.584025,-2.1351094,22.06585,-22.350533,15.899192,32.203903,19.97635,2.818729,1.9241986
56,7.060678482055664,-74.1938247680664,82.58409881591797,-2.240492473529382,0.7018362335748876,6.956572334415778,-8.513769,-0.0618095,7.8862925,22.796276,-1.8043704,-15.000033,-7.1306496,0.47265223,5.7096167,18.160011,0.14028949,12.304953,-7.5493174,-8.52455,15.794128,4.918911,36.122826,-24.901344,40.52312,1.9792167,1.5802653,-1.9804258,20.713825,-22.615303,16.182661,32.8016,20.153507,2.7347302,1.6699886
57,7.056350231170654,-75.12956237792969,82.39543914794922,-2.851013157915086,0.46638568570392824,5.950474818075552,-8.625831,0.2084817,7.180243,22.850515,-0.98813206,-15.000033,-7.3657928,-0.26352188,5.055821,20.44473,-1.5119765,11.498228,-7.3263083,-7.6384273,16.03803,4.5497103,36.346554,-24.799175,40.05283,1.7073898,1.5626023,-1.8808402,19.29471,-22.881596,16.462324,33.39747,20.393143,2.7156878,1.5488622
58,7.058332920074463,-76.06031799316406,82.15564727783203,-3.4728669094114086,0.2087631797120582,4.872774406983334,-8.882714,0.6370669,6.383537,23.313652,0.03926581,-15.000033,-7.6087775,-1.2230831,4.2660584,22.75028,-3.1845028,10.627876,-7.0625305,-6.723951,16.27761,4.2161865,36.55026,-24.598595,39.625137,1.423458,1.5396961,-1.8025775,17.776096,-23.146942,16.74947,34.02969,20.694424,2.7371576,1.5125455
59,7.06418514251709,-76.993408203125,81.8681640625,-4.112769030221211,-0.0757819891927255,3.746088369541009,-9.237968,1.3514483,5.677949,24.251398,0.6462648,-15.000033,-7.8416653,-2.33258,3.4357014,24.973484,-4.779921,9.691038,-6.769119,-5.78652,16.505045,3.9081466,36.74687,-24.346771,39.223698,1.1733785,1.5425692,-1.7508454,16.241596,-23.410128,17.023005,34.61085,20.978817,2.8018727,1.5593721
60,7.084076881408691,-77.95391082763672,81.55607604980469,-4.793154087828391,-0.39311852952321014,2.5881846845134584,-9.6422415,2.5129395,5.248177,25.72865,0.18766117,-15.000033,-8.048438,-3.4841866,2.6472735,27.020338,-6.2006903,8.680078,-6.4498096,-4.817299,16.719463,3.6045353,36.95754,-24.104132,38.835236,0.99161494,1.6031407,-1.7310482,14.778061,-23.671532,17.257744,35.051758,21.166939,2.912481,1.6891005
61,7.112006664276123,-78.89108276367188,81.18189239501953,-5.236812353347694,-0.6953804998180451,1.5131700266785315,-9.987302,3.8942206,5.736351,27.511766,-1.5307534,-12.476396,-8.423258,-5.117502,1.8543862,29.325432,-7.6901693,7.614344,-6.221833,-4.065335,16.839062,3.333356,37.1908,-23.880339,38.43358,0.9069308,1.755581,-1.7637877,13.388223,-23.940144,17.456505,35.36356,21.252413,3.09039,1.9287729
62,7.138684272766113,-79.80371856689453,80.75068664550781,-5.56906637191783,-1.0047712196143226,0.45759125494941694,-10.32552,5.5358157,6.8093367,29.686056,-4.3541718,-7.8509383,-8.85055,-7.085163,1.0469842,31.680021,-9.15564,6.4799275,-6.0193596,-3.4060905,16.91001,3.1045403,37.44581,-23.644363,38.01761,0.8906736,1.9755362,-1.8413839,12.0409565,-24.217257,17.624228,35.572987,21.271906,3.3281968,2.2715936
63,7.178256511688232,-80.72373962402344,80.25016784667969,-5.836193006730163,-1.330208858373837,-0.5971781233698812,-10.54262,7.222677,7.7957077,31.810047,-7.6861377,-3.5578725,-9.294765,-9.154638,0.41050476,33.858517,-10.467737,5.4154887,-5.8135996,-2.821558,16.982258,2.864183,37.73263,-23.40195,37.61289,0.8895828,2.207555,-1.9263169,10.765997,-24.48848,17.735992,35.62613,21.208828,3.5833323,2.666815
64,7.224969387054443,-81.65001678466797,79.72970581054688,-5.990204865593986,-1.660875373530421,-1.6378541466462158,-10.53113,8.643818,8.392551,33.36884,-10.659479,-0.9468021,-9.804719,-11.210939,0.14092787,35.775024,-11.559183,4.6002812,-5.5976787,-2.3788924,17.083286,2.5790722,38.065666,-23.151623,37.224083,0.86462045,2.3966477,-1.9806314,9.598585,-24.727873,17.755774,35.472298,21.044086,3.8117366,3.06364
65,7.245744705200195,-82.60076904296875,79.20381164550781,-6.010045884436821,-2.028254316896467,-2.7147955257135576,-10.19262,9.785037,8.637663,34.21644,-13.060003,-0.62266964,-10.427716,-13.227,0.36058593,37.487843,-12.42525,4.095034,-5.332983,-2.1123102,17.244488,2.2178264,38.472855,-22.925314,36.851967,0.78882384,2.5383081,-1.9958682,8.487589,-24.932205,17.697203,35.10916,20.772943,4.027397,3.489855
66,7.23121976852417,-83.57019805908203,78.68409729003906,-5.912325529571309,-2.4163196992466913,-3.817397256578989,-9.641431,10.839208,8.786684,34.680473,-15.23866,-1.7576087,-11.158172,-15.252642,0.93870527,39.04856,-13.097889,3.8081717,-5.0312243,-1.9995989,17.443464,1.8293079,38.961845,-22.705233,36.466248,0.6890469,2.659985,-1.9937477,7.437532,-25.10043,17.563814,34.56446,20.401423,4.2411876,3.9593737
67,7.20297908782959,-84.5685806274414,78.16572570800781,-5.709199244449224,-2.741301760805918,-4.841755592849255,-9.113462,11.83089,8.944804,35.009533,-17.13662,-3.4738686,-11.972137,-17.283688,1.6879935,40.370373,-13.566094,3.6902575,-4.7565117,-2.0253248,17.620096,1.5093441,39.50785,-22.410189,36.027237,0.6172604,2.7542367,-1.9794829,6.5648336,-25.204508,17.299435,33.849854,19.917437,4.402294,4.3976736
68,7.163099765777588,-85.59688568115234,77.66575622558594,-5.422661219728834,-2.924097845660281,-5.684275638512438,-8.820113,12.744426,9.138352,35.41343,-18.721941,-4.893531,-12.842803,-19.325003,2.4223409,41.365543,-13.820299,3.687099,-4.602507,-2.17309,17.727053,1.0322536,40.087112,-22.14897,35.776005,0.46785575,2.8113012,-1.9545062,5.9355974,-25.209087,16.882542,33.004524,19.309565,4.45779,4.7248526
69,7.130788326263428,-86.66189575195312,77.20378875732422,-5.01195732379691,-2.903478701223694,-6.302133387746534,-8.848876,13.5020075,9.378867,35.944687,-19.987362,-5.8294587,-13.842425,-21.446556,3.1314657,42.01692,-13.851518,3.853171,-4.556264,-2.4826808,17.688732,0.59837127,40.67118,-21.798218,35.545547,0.39512134,2.8077528,-1.9132842,5.621328,-25.06701,16.207022,31.999924,18.493284,4.3666053,4.9252143
70,7.113035202026367,-87.76750183105469,76.78041076660156,-4.489626528311296,-2.734961215113133,-6.754437619669255,-9.072321,14.121118,9.633982,36.502644,-20.972178,-6.7172704,-14.968,-23.61945,3.913326,42.373646,-13.669548,4.1931653,-4.607592,-2.9548116,17.550793,-0.006170639,41.271717,-21.495754,35.51321,0.290043,2.7542195,-1.8523728,5.501861,-24.779003,15.35173,30.89167,17.491003,4.1601677,5.0289373
71,7.090287685394287,-88.88683319091797,76.3917236328125,-3.9582963836596585,-2.520269687830372,-7.091716454818087,-9.361987,14.707345,9.819423,37.030983,-21.721296,-7.6176286,-16.082378,-25.70306,4.735711,42.45991,-13.298478,4.573571,-4.706149,-3.4824917,17.386913,-0.6485386,41.867756,-21.19584,35.59261,0.17373456,2.6944256,-1.775366,5.5169487,-24.372435,14.434064,29.79784,16.449009,3.9047925,5.0406756
72,7.063304424285889,-90.0033187866211,76.02952575683594,-3.519285549794174,-2.3608866661942995,-7.367045591912205,-9.589243,15.369486,9.854619,37.46394,-22.268581,-8.59377,-17.04714,-27.555729,5.5503464,42.30953,-12.766066,4.859858,-4.828629,-3.9546242,17.283052,-1.2830617,42.42912,-20.883415,35.780083,0.020140981,2.670835,-1.6874131,5.592175,-23.89672,13.602627,28.822084,15.521423,3.6692452,4.9661236
73,7.020833969116211,-91.13011169433594,75.69953918457031,-3.190120481711355,-2.2918338819894855,-7.575623428907706,-9.7507105,16.115503,9.677187,37.84201,-22.598558,-9.678475,-17.826843,-29.193138,6.2694283,41.900158,-12.0479765,5.0162864,-4.997509,-4.336692,17.283688,-1.9134475,42.922237,-20.518532,36.113586,-0.1692877,2.6737592,-1.5947183,5.739424,-23.374607,12.867296,27.942724,14.699738,3.4427266,4.767326
74,6.973430633544922,-92.28221893310547,75.41144561767578,-2.921004271352065,-2.258107541954045,-7.69697927044995,-9.903513,16.88937,9.336223,38.17113,-22.702219,-10.832257,-18.499828,-30.674463,6.9310784,41.243973,-11.150355,5.112926,-5.2303348,-4.670595,17.337395,-2.5765367,43.335472,-20.115967,36.60908,-0.37819615,2.684948,-1.4919504,5.9807096,-22.808083,12.180287,27.104717,13.931597,3.2061095,4.4539313
75,6.917080879211426,-93.45645904541016,75.16008758544922,-2.7115993469544333,-2.2253902946301785,-7.762337453394346,-10.013543,17.707554,8.920681,38.337185,-22.61674,-12.010035,-19.094536,-31.915365,7.661638,40.433712,-10.150107,5.173442,-5.486893,-4.959408,17.390177,-3.2753994,43.67697,-19.74763,37.22211,-0.6136165,2.7344003,-1.3660524,6.2882957,-22.222727,11.588042,26.33617,13.303792,3.0143917,4.1089754
76,6.8595452308654785,-94.64664459228516,74.95217895507812,-2.5627059321209544,-2.1589309918832145,-7.802588300426022,-10.046789,18.590185,8.520947,38.225563,-22.374851,-13.166482,-19.634617,-32.83366,8.587768,39.55799,-9.122877,5.2221713,-5.7307,-5.205455,17.393316,-4.0118804,43.96551,-19.482689,37.901573,-0.89180565,2.8523223,-1.2052699,6.6455255,-21.658049,11.134876,25.65168,12.908788,2.9200375,3.8189943
77,6.816098213195801,-95.86457824707031,74.78201293945312,-2.4805538361908943,-2.0452416106780364,-7.825640814534731,-9.990208,19.541822,8.147478,37.780285,-21.963112,-14.298304,-20.124401,-33.415607,9.708974,38.592255,-8.112046,5.227561,-5.9555626,-5.3967843,17.34726,-4.809791,44.20654,-19.339844,38.670063,-1.2555404,3.080445,-0.982124,7.0854826,-21.137352,10.845453,25.014145,12.854547,2.963978,3.5508697
78,6.770949840545654,-97.1080093383789,74.64881896972656,-2.374701454892725,-1.8864297964629377,-7.781127294772132,-9.86731,20.373396,7.761848,37.004826,-21.330057,-15.000033,-20.566732,-33.821236,10.991665,37.50625,-7.0703506,5.2208734,-6.215089,-5.6125693,17.254887,-5.648377,44.394245,-19.273163,39.525818,-1.688457,3.3899548,-0.71049595,7.6245165,-20.659994,10.688706,24.40736,13.076608,3.1068287,3.280941
79,6.729623794555664,-98.36714935302734,74.53852844238281,-2.1825494907017986,-1.6883091757530013,-7.645540790489478,-9.696472,20.980783,7.377158,35.936626,-20.487848,-15.000033,-20.948921,-34.121426,12.479578,36.378456,-5.9403086,5.292181,-6.533144,-5.9159255,17.095991,-6.470461,44.534958,-19.25679,40.385696,-2.1239495,3.7064223,-0.4425639,8.225298,-20.22782,10.625555,23.866907,13.407559,3.283456,3.1104176
80,6.684727191925049,-99.6593017578125,74.44625091552734,-2.03963741571086,-1.494109038286522,-7.471669923868786,-9.485864,21.653522,6.984334,34.736526,-19.523783,-15.000033,-21.20456,-34.124958,14.136915,35.331055,-4.6894507,5.463762,-6.8554425,-6.1850157,16.905539,-7.219338,44.63976,-19.267473,41.162643,-2.4986413,3.9579446,-0.23336583,8.848465,-19.845469,10.614309,23.428196,13.6799345,3.430813,3.1439857
81,6.638836860656738,-100.96700286865234,74.36195373535156,-1.9613841448543181,-1.3074511920820477,-7.268541749199952,-9.194801,22.410025,6.5968227,33.34946,-18.419632,-15.000033,-21.297514,-33.76249,16.074406,34.36186,-3.378795,5.759911,-7.176502,-6.4101405,16.687733,-7.8909545,44.71387,-19.313574,41.87279,-2.8179874,4.1411567,-0.09054913,9.490289,-19.519049,10.6765785,23.116089,13.9016485,3.5365183,3.4555178
82,6.5949177742004395,-102.29899597167969,74.27667236328125,-1.9473581365886672,-1.120228958862015,-7.035836671332439,-8.830474,23.242819,6.2066994,31.759514,-17.163797,-15.000033,-21.21776,-33.06678,18.232317,33.438168,-2.0224795,6.146366,-7.498689,-6.5879135,16.445555,-8.501843,44.75719,-19.395403,42.538727,-3.1098726,4.2906656,0.010392072,10.169718,-19.24895,10.824088,22.905106,14.145512,3.6352293,3.9748416
83,6.55810546875,-103.65744018554688,74.18590545654297,-1.9677793746866732,-0.9293341670683604,-6.754777016971733,-8.483031,24.121675,5.784482,30.102623,-15.804901,-15.000033,-20.991884,-32.180733,20.390865,32.61951,-0.49790582,6.6138053,-7.8341794,-6.7419147,16.172562,-9.025849,44.776894,-19.48124,43.082104,-3.3427985,4.3920827,0.061242495,10.88043,-19.029211,10.999208,22.75565,14.341711,3.7342563,4.591081
84,6.530488967895508,-105.04462432861328,74.08179473876953,-1.9933946013940196,-0.731799857381789,-6.405685627867719,-8.2387295,25.02213,5.3001366,28.51556,-14.395311,-15.000033,-20.663696,-31.239607,22.341911,31.954676,1.3261151,7.15953,-8.197382,-6.8975916,15.863158,-9.4347,44.785522,-19.53645,43.420856,-3.4868772,4.4314594,0.05295115,11.616505,-18.84951,11.143718,22.625717,14.418144,3.8383555,5.1941423
85,6.509762763977051,-106.45471954345703,73.96467590332031,-2.036573892155308,-0.5065895613856027,-5.977495013753549,-8.090147,25.956566,4.749588,26.941126,-12.883846,-15.000033,-20.36645,-30.096483,24.265934,31.63501,3.9128273,7.4956107,-8.606988,-7.044373,15.497864,-9.682894,44.786026,-19.518707,43.508503,-3.482826,4.4004974,-0.011739421,12.377501,-18.697794,11.240361,22.529999,14.304853,3.9496622,5.851071
86,6.481184005737305,-107.87075805664062,73.82330322265625,-2.114975739717445,-0.2625031811122927,-5.481232615275053,-8.006026,26.951899,4.134221,25.35884,-11.2801075,-15.000033,-20.028736,-28.71391,26.19917,31.573969,7.057734,7.77095,-9.056036,-7.1524744,15.095347,-9.781551,44.779736,-19.44696,43.373466,-3.3769298,4.3080997,-0.13304837,13.198519,-18.62771,11.318361,22.43207,14.083716,4.066446,6.5939107
87,6.453732967376709,-109.30565643310547,73.65081024169922,-2.195999684445283,-0.04279771394875404,-4.928284063256894,-8.010542,27.991573,3.4500985,23.911104,-9.702003,-15.000033,-19.406715,-27.415518,27.769306,31.362604,9.884465,8.605197,-9.518236,-7.294609,14.680381,-9.800101,44.7836,-19.372698,43.090492,-3.2448294,4.1697836,-0.31761956,13.9719095,-18.513212,11.408793,22.431705,13.791874,4.16604,7.2393384
88,6.431313514709473,-110.76950073242188,73.4421157836914,-2.2411966836249615,0.11330049947951167,-4.330311323289735,-8.157665,29.045593,2.6846187,22.777967,-8.279547,-15.000033,-18.306437,-26.536497,28.644918,30.629248,11.471693,10.550215,-9.957227,-7.4695005,14.304612,-9.820766,44.79998,-19.381306,42.69522,-3.2293541,3.996641,-0.5809758,14.7824135,-18.480825,11.4991865,22.363277,13.611279,4.257535,7.634914
89,6.408022880554199,-112.24990844726562,73.19712829589844,-2.178127292215742,0.22414383160308793,-3.647273311126229,-8.458601,30.017324,1.837657,21.85999,-6.8804517,-15.000033,-16.551868,-26.372059,28.525711,28.994606,11.580815,14.26817,-10.399119,-7.8047285,13.890751,-9.818388,44.899887,-19.53164,42.16639,-3.421232,3.78167,-0.9220538,15.657988,-18.447844,11.62803,22.241215,13.529443,4.3413777,7.6978874
90,6.393757343292236,-113.80693817138672,72.9558334350586,-2.7622362248386554,0.2169037677911721,-2.9293870349833373,-8.911438,31.831696,0.61343306,21.0857,-5.4683323,-15.000033,-14.278447,-26.06453,25.762648,26.778528,10.827748,15.000033,-10.788491,-7.5851755,13.667482,-9.7450075,45.05751,-19.744875,41.450413,-3.7468545,3.524766,-1.3363737,16.547865,-18.457357,11.761146,22.104122,13.504689,4.420243,7.5482745
91,6.38189172744751,-115.41960144042969,72.63044738769531,-3.6182873350636484,0.13370836982272055,-2.2596025977910603,-9.513368,34.030357,-0.7685562,20.612854,-4.2827215,-15.000033,-11.817332,-25.370783,22.407463,24.44268,9.503874,15.000033,-11.072069,-7.120953,13.595817,-9.665208,45.252064,-19.963478,40.604176,-4.086671,3.2575986,-1.8424195,17.397509,-18.506569,11.885723,21.95479,13.539955,4.4810514,7.2476945
92,6.354402542114258,-117.02285766601562,72.24566650390625,-4.362897377951868,-0.029219505251391924,-1.6820926128645197,-10.260864,36.117294,-2.1492972,20.702658,-3.6306572,-15.000033,-9.640926,-24.372232,19.898628,22.632475,7.575283,15.000033,-11.221068,-6.752609,13.666921,-9.669118,45.454323,-20.14751,39.70416,-4.3209133,3.009388,-2.4548323,18.136734,-18.58706,11.978623,21.815676,13.632854,4.5088573,6.863918
93,6.300868988037109,-118.57963562011719,71.83282470703125,-4.993186084382246,-0.347678327496431,-1.1671382371748735,-11.222883,38.142273,-3.622332,21.51907,-3.6791012,-15.000033,-7.772211,-23.107983,18.405554,21.570452,4.58014,15.000033,-11.22736,-6.4924893,13.9507065,-9.827607,45.670948,-20.355036,38.757225,-4.483018,2.7647254,-3.2572243,18.794716,-18.701057,12.015349,21.632597,13.802154,4.503113,6.3446236
94,6.212809085845947,-120.07987213134766,71.4192123413086,-5.581938124838405,-0.794051115240302,-0.7059198804000644,-12.380374,40.154217,-5.219128,22.869059,-4.260673,-15.000033,-6.081793,-21.672773,17.413507,20.985155,0.55964816,15.000033,-11.097098,-6.2767234,14.3988085,-10.095179,45.902653,-20.601389,37.743736,-4.6155987,2.5155296,-4.2135434,19.397417,-18.84832,12.009518,21.414846,14.040106,4.4683084,5.6776104
95,6.091812610626221,-121.49795532226562,71.041015625,-5.857648315590958,-1.2238138276480244,-0.2702176321220647,-13.6244335,41.57732,-6.6185718,24.549236,-5.176265,-13.995976,-4.694909,-20.519562,16.72238,20.664705,-3.7608929,15.000033,-10.924256,-6.333291,14.843004,-10.373167,46.106903,-20.77234,36.697483,-4.6037993,2.2934036,-5.1496687,19.850637,-19.017927,11.99996,21.299606,14.30324,4.397787,4.988123
96,5.918109893798828,-122.82223510742188,70.70777130126953,-5.733276717972265,-1.5250250598487558,0.12383734280435243,-14.7968855,42.121937,-7.5620675,26.390882,-6.221118,-11.375146,-3.6469195,-19.858568,16.108057,20.33115,-7.617165,15.000033,-10.7586355,-6.710903,15.18216,-10.570173,46.22108,-20.749397,35.667923,-4.3216066,2.1244757,-5.8884945,20.056618,-19.20231,12.026114,21.4285,14.5448065,4.2874026,4.3992243
97,5.7255353927612305,-124.09778594970703,70.37857818603516,-5.699034349968095,-1.8029007591883583,0.25803620089044627,-15.590003,42.676746,-8.239004,28.155106,-7.314199,-9.848156,-2.6483703,-19.099358,15.429116,19.447922,-10.829507,15.000033,-10.364931,-6.934508,15.601729,-10.732561,46.20877,-20.517496,34.682625,-3.6470106,2.0213482,-6.424582,20.020897,-19.415285,12.059071,21.798155,14.778443,4.106316,3.9199
98,5.513970851898193,-125.32244873046875,70.05792236328125,-5.671328446309876,-2.080259516734024,0.20215250403132734,-16.181744,43.175022,-8.732101,30.071297,-8.6032295,-8.91951,-1.736719,-18.314249,14.795041,18.275255,-13.77783,15.000033,-9.79301,-7.080397,16.09748,-10.9202585,46.066097,-20.146746,33.757393,-2.6588225,1.9579654,-6.8331704,19.791069,-19.66825,12.089347,22.345707,15.019783,3.8675807,3.4896863
99,5.321122169494629,-126.50445556640625,69.77265930175781,-5.645961290512993,-2.3162847975453547,0.027490670850538933,-16.711325,43.505764,-9.17801,32.18269,-10.008114,-8.32567,-1.2855592,-17.453938,14.367598,17.651888,-16.42616,15.000033,-9.140981,-7.1587424,16.603998,-11.064476,45.771873,-19.652885,32.903233,-1.5398649,1.9127736,-7.061765,19.355415,-19.96936,12.154709,23.098034,15.218599,3.6402268,3.1346488
100,5.155461311340332,-127.61298370361328,69.57575225830078,-5.643787158542431,-2.4741976259255196,-0.19228118457405774,-17.28958,43.565224,-9.707636,34.487873,-11.430499,-7.8105974,-1.6902063,-16.442936,14.270197,18.496881,-18.762833,15.000033,-8.511541,-7.157804,17.063345,-11.0889225,45.295612,-19.044037,32.127045,-0.46792957,1.8692472,-7.056282,18.694029,-20.328114,12.297348,24.08854,15.325154,3.4921339,2.8790116
101,4.97947359085083,-128.6199951171875,69.48505401611328,-5.7085333917657515,-2.4917835252052103,-0.5070280876166157,-18.003117,43.314945,-10.437247,37.100735,-12.8725815,-7.3614244,-3.413463,-15.147376,14.618135,21.582695,-20.697723,15.000033,-7.8766456,-7.0195947,17.445917,-10.995642,44.583534,-18.262737,31.42411,0.63712907,1.8285367,-6.7285695,17.715635,-20.765884,12.548019,25.396198,15.333938,3.451298,2.7584064
102,4.746632099151611,-129.53269958496094,69.43390655517578,-5.790648669392511,-2.3939359826599036,-0.945811503361152,-18.771252,42.786037,-11.221597,40.033222,-14.393789,-7.1002226,-6.0215797,-13.6891165,15.255927,26.073914,-22.180061,15.000033,-7.196532,-6.77959,17.756659,-10.854778,43.62286,-17.340193,30.830338,1.8436831,1.80791,-6.132707,16.475418,-21.288475,12.888095,26.956482,15.279883,3.4812398,2.7439766
103,4.521611213684082,-130.34991455078125,69.43897247314453,-5.808420043379488,-2.287386848364647,-1.391502010335227,-19.42793,42.00398,-11.818374,43.077793,-15.947882,-6.9796495,-8.617958,-12.326455,15.913707,30.578905,-23.299631,15.000033,-6.5518174,-6.5423417,18.019533,-10.684353,42.46506,-16.428738,30.39263,2.9447117,1.8131428,-5.4262967,15.171085,-21.866684,13.27376,28.59413,15.167562,3.5556238,2.767411
104,4.367053031921387,-131.12057495117188,69.50411987304688,-5.724558048039475,-2.2911958768129126,-1.714956098247643,-19.809404,41.04824,-12.03484,45.982456,-17.467411,-6.954764,-10.401291,-11.2699375,16.321648,33.87372,-24.227068,15.000033,-6.023026,-6.3814754,18.292679,-10.490481,41.19759,-15.685097,30.135855,3.7175608,1.8421386,-4.765271,13.984821,-22.45015,13.649775,30.160627,14.989625,3.6449447,2.7668989
105,4.252033233642578,-131.8909454345703,69.60794067382812,-5.517102509425482,-2.4865354566951967,-1.921263755472596,-19.767317,39.895252,-11.806471,48.693607,-18.940632,-7.1051636,-11.152075,-10.587178,16.447397,35.652058,-24.98187,15.000033,-5.5815883,-6.361831,18.651756,-10.180549,39.85715,-15.081115,30.018501,4.0123963,1.8886174,-4.084023,12.905378,-22.9929,14.02335,31.721258,14.704999,3.752871,2.744803
106,4.144231796264648,-132.67042541503906,69.74138641357422,-5.221880996669848,-2.798088657785883,-2.06284924921151,-19.431013,38.53355,-11.257426,51.311874,-20.386341,-7.42346,-11.345934,-10.138512,16.433466,36.61732,-25.501371,15.000033,-5.1817107,-6.443708,19.058502,-9.710973,38.448692,-14.54898,29.961435,3.971542,1.9522018,-3.336266,11.845536,-23.483232,14.40744,33.3513,14.311714,3.8878293,2.7327223
107,4.054629325866699,-133.44061279296875,69.89519500732422,-4.897890807501371,-3.111799564648375,-2.0819318080613956,-19.051807,37.073524,-10.491261,53.801907,-21.774647,-7.7335076,-11.271862,-9.832466,16.273123,37.137115,-25.86036,15.000033,-4.9071627,-6.548208,19.423063,-9.375308,37.031532,-14.2529545,30.133259,3.7434976,2.0357828,-2.7097921,10.845773,-23.934298,14.770365,34.9157,13.859016,4.026405,2.7134373
108,3.9903759956359863,-134.19384765625,70.06742858886719,-4.606737993976101,-3.315324580263125,-1.9189073763598494,-18.863419,35.627407,-9.597287,56.12456,-23.073767,-7.862062,-11.207089,-9.585938,15.961664,37.571503,-26.135265,15.000033,-4.7880406,-6.589509,19.631348,-9.13664,35.68311,-14.259861,30.397642,3.5434704,2.1453764,-2.3888817,10.005998,-24.354252,15.02933,36.264236,13.40246,4.147639,2.6761618
109,3.945600986480713,-134.91111755371094,70.26424407958984,-4.354605871101543,-3.3685193926941968,-1.4889012611548211,-18.998129,34.213303,-8.557162,58.310844,-24.28063,-7.7152276,-11.18021,-9.429963,15.4423275,37.98996,-26.36327,15.000033,-4.9145484,-6.5788474,19.637522,-9.079877,34.469803,-14.66675,30.835474,3.2126112,2.3380167,-2.5121293,9.353638,-24.742653,15.178969,37.32644,12.886299,4.2756,2.6115475
110,3.9049792289733887,-135.6011199951172,70.49616241455078,-4.111845170252826,-3.337446226433063,-0.8451162961666839,-19.297392,32.77539,-7.326896,60.347095,-25.40195,-7.400484,-11.049198,-9.40542,14.740963,38.218777,-26.51827,15.000033,-5.2259207,-6.571696,19.509613,-9.1042595,33.396347,-15.389112,31.394892,2.6909406,2.5982194,-2.9543338,8.85315,-25.08466,15.239155,38.178753,12.306725,4.412305,2.535141
111,3.8739211559295654,-136.25611877441406,70.76104736328125,-3.8871772501941293,-3.2680479201528914,-0.13546390730205737,-19.560986,31.312967,-5.9579034,62.138676,-26.418438,-7.050861,-10.831972,-9.435868,13.974645,38.24886,-26.576738,15.000033,-5.5797396,-6.556546,19.32556,-9.160264,32.4393,-16.288359,31.985647,2.2795193,2.8240502,-3.513386,8.4468775,-25.375538,15.213574,38.907314,11.798269,4.5012803,2.4650998
112,3.8554306030273438,-136.88204956054688,71.05189514160156,-3.6899070203422886,-3.204506529966982,0.4911790583605692,-19.604542,29.815134,-4.511835,63.593872,-27.311388,-6.800515,-10.554515,-9.44077,13.259319,38.06683,-26.501444,15.000033,-5.838839,-6.5151,19.164663,-9.209319,31.56024,-17.226025,32.526466,2.2805958,2.9043584,-3.9894023,8.079733,-25.619354,15.107777,39.591812,11.495658,4.486306,2.4175026
113,3.836244821548462,-137.47103881835938,71.36135864257812,-3.5325324899205377,-3.1548122000188266,0.9916905217777137,-19.397114,28.314701,-2.9189157,64.711754,-28.097364,-6.616697,-10.2186365,-9.3886,12.620471,37.64232,-26.25973,15.000033,-5.969196,-6.4238214,19.041412,-9.252005,30.728336,-18.168226,33.028522,2.8697867,2.7716177,-4.420573,7.7479167,-25.824982,14.906647,40.23392,11.449277,4.312531,2.4063172
114,3.830418348312378,-138.02764892578125,71.684814453125,-3.408235383661325,-3.0954516458661434,1.445533995199709,-19.054768,26.790651,-1.1914189,65.52605,-28.772535,-6.4522753,-9.809773,-9.316118,11.991462,36.98964,-25.879189,15.000033,-6.0484047,-6.2863216,18.91098,-9.322403,29.941652,-19.185991,33.549866,3.8639028,2.4886749,-4.8780885,7.4755836,-26.000937,14.616297,40.80397,11.583612,4.0228734,2.4167
115,3.837226629257202,-138.5631103515625,72.02266693115234,-3.297509662770658,-3.0227739373801756,1.887013354009238,-18.629324,25.147047,0.47843418,66.0051,-29.289581,-6.4205213,-9.342442,-9.246112,11.353492,36.168785,-25.403473,15.000033,-6.1078496,-6.126523,18.76712,-9.411803,29.208185,-20.290478,34.05472,5.030202,2.1407177,-5.2140765,7.246879,-26.147848,14.278595,41.3294,11.84972,3.7085578,2.4232616
116,3.847895622253418,-139.07244873046875,72.3812255859375,-3.181180446687373,-2.933778156416039,2.351219578071109,-18.171919,23.294638,1.9001254,66.118614,-29.603294,-6.6342893,-8.834659,-9.205491,10.68963,35.240486,-24.873749,15.000033,-6.184353,-5.97379,18.6035,-9.496763,28.543488,-21.48373,34.497036,6.1382456,1.8217802,-5.2874665,7.0381594,-26.261759,13.941863,41.84275,12.19579,3.459787,2.3990772
117,3.858370304107666,-139.5653839111328,72.74436950683594,-3.0512874256828266,-2.829129224748559,2.8645255894652,-17.67678,21.141356,3.0092325,65.82518,-29.669353,-7.180382,-8.268234,-9.217786,9.971658,34.180187,-24.279348,15.000033,-6.311254,-5.8359385,18.417881,-9.569008,27.967596,-22.819632,34.86531,7.210394,1.536379,-4.9676995,6.8398805,-26.336514,13.614437,42.35607,12.649866,3.2882757,2.317779
118,3.875060796737671,-140.04605102539062,73.11134338378906,-2.919910009814951,-2.710389999308814,3.402619360590593,-17.141775,18.761578,3.8937075,65.145615,-29.530037,-7.976087,-7.6464725,-9.260655,9.216822,32.972713,-23.60353,15.000033,-6.4618216,-5.7041745,18.215809,-9.631936,27.48222,-24.276518,35.170925,8.338937,1.2547495,-4.3623824,6.6598253,-26.367302,13.275435,42.85317,13.223394,3.1485124,2.2012806
119,3.8938398361206055,-140.51820373535156,73.47273254394531,-2.7971651636340304,-2.5755794021597707,3.925329329802241,-16.602617,16.323538,4.6004567,64.14461,-29.267574,-8.879113,-7.013956,-9.293605,8.473685,31.679892,-22.867456,15.000033,-6.587968,-5.5807524,18.00279,-9.680983,27.072039,-25.741402,35.406128,9.39677,1.0166111,-3.6946113,6.48628,-26.353813,12.94115,43.33353,13.846669,3.0453532,2.091819
120,3.9144773483276367,-140.97540283203125,73.83043670654297,-2.6926883507244375,-2.422399131185486,4.391890647240172,-16.077538,13.995312,5.1868773,62.891663,-28.956572,-9.749511,-6.4173884,-9.278801,7.7939687,30.36802,-22.098444,15.000033,-6.646156,-5.4663467,17.782,-9.706239,26.715612,-27.093699,35.563766,10.260724,0.8504681,-3.1888824,6.301393,-26.303764,12.633603,43.802006,14.452209,2.9845798,2.0298145
121,3.9361820220947266,-141.41941833496094,74.18175506591797,-2.608658735362135,-2.24546528715145,4.801180272460909,-15.528431,11.738752,5.6294217,61.347424,-28.576027,-10.679936,-5.86244,-9.210688,7.1840615,29.032072,-21.286957,15.000033,-6.6411366,-5.354803,17.546682,-9.693571,26.401299,-28.300184,35.61789,10.95487,0.78995055,-2.9085016,6.105745,-26.217926,12.343385,44.260414,15.03142,2.9876273,2.0229387
122,3.9565482139587402,-141.85711669921875,74.52230834960938,-2.5409606063590755,-2.0468969862710287,5.171298097653363,-14.93213,9.501606,5.904683,59.490383,-28.101706,-11.695998,-5.327109,-9.10717,6.619352,27.642393,-20.423304,15.000033,-6.5949273,-5.2426844,17.294594,-9.653713,26.130678,-29.421818,35.588802,11.530012,0.8044274,-2.7345154,5.9012346,-26.099398,12.069883,44.711323,15.619346,3.0457017,2.0477724
123,3.9703221321105957,-142.28843688964844,74.85025024414062,-2.4890373019297907,-1.8347738332511487,5.490809490374328,-14.320811,7.4228253,6.0858655,57.431007,-27.5913,-12.564559,-4.815776,-8.966531,6.105034,26.226662,-19.532948,15.000033,-6.492587,-5.1331043,17.037956,-9.606232,25.901999,-30.473581,35.528236,11.904832,0.81979966,-2.6179729,5.681917,-25.962557,11.845846,45.147167,16.21591,3.1206768,2.0998824
124,3.9758152961730957,-142.71502685546875,75.1637191772461,-2.4501505322238373,-1.617516095191878,5.748158068012054,-13.723697,5.632739,6.2612658,55.282005,-27.09273,-13.06095,-4.3341627,-8.791064,5.6488094,24.812506,-18.640316,15.000033,-6.324019,-5.0297966,16.788866,-9.562503,25.711004,-31.460983,35.480892,12.004361,0.7627241,-2.5097578,5.4412565,-25.829432,11.70876,45.558918,16.825153,3.1751537,2.1760182
125,3.9872732162475586,-143.12435913085938,75.45431518554688,-2.4317638010976435,-1.3911469890035717,5.939483025077717,-13.135995,4.1646876,6.4846587,53.07533,-26.639986,-13.15017,-3.882935,-8.576781,5.255285,23.382154,-17.732367,15.000033,-6.086488,-4.920361,16.545341,-9.523757,25.554422,-32.37168,35.43798,11.768998,0.5947687,-2.4092963,5.189906,-25.715427,11.667501,45.93164,17.471558,3.2069101,2.281231
126,3.9967589378356934,-143.52322387695312,75.7240982055664,-2.429651810239572,-1.1528323281070711,6.070953656396517,-12.52465,2.9313881,6.7224226,50.7538,-26.196693,-12.959602,-3.4605067,-8.334184,4.924537,21.923506,-16.801222,15.000033,-5.79024,-4.804865,16.30326,-9.47949,25.430363,-33.199913,35.375168,11.255042,0.35928568,-2.340708,4.932982,-25.622059,11.704091,46.26374,18.151974,3.236343,2.4179888
127,4.002856254577637,-143.91046142578125,75.98236083984375,-2.4235626318233003,-0.9120361719556371,6.146647370152817,-11.880604,1.8738617,6.9404407,48.29738,-25.708845,-12.513989,-3.0766156,-8.087036,4.6578197,20.489897,-15.875977,15.000033,-5.445277,-4.705553,16.072046,-9.440268,25.336685,-33.97092,35.326588,10.54983,0.10560118,-2.2911541,4.658105,-25.548384,11.814467,46.562817,18.826355,3.2594144,2.5794477
128,4.000574588775635,-144.28103637695312,76.22012329101562,-2.394466979700124,-0.6784600310532954,6.170757942126502,-11.199496,0.9376545,7.1042576,45.691086,-25.122826,-11.835846,-2.74184,-7.856209,4.455651,19.138668,-14.991768,15.000033,-5.0606995,-4.6436844,15.8609705,-9.419386,25.270353,-34.712067,35.3294,9.740352,-0.1167442,-2.2460232,4.3519588,-25.491247,11.994171,46.838997,19.455242,3.2712677,2.758785
129,3.9950404167175293,-144.64720153808594,76.44657135009766,-2.3236260685324353,-0.4574121104916225,6.131131615636635,-10.446523,0.12255359,7.2642355,42.858673,-24.460402,-10.99121,-2.4718785,-7.661632,4.3406143,17.902784,-14.156153,15.000033,-4.6170206,-4.6382093,15.679569,-9.441503,25.229877,-35.45068,35.40054,8.725805,-0.3068461,-2.1942327,4.0119414,-25.453283,12.246217,47.089897,20.049057,3.2639291,2.9731183
130,3.991668939590454,-145.00527954101562,76.65351867675781,-2.2269113297504513,-0.2425584055025907,6.030252377060773,-9.625251,-0.57680625,7.4471445,39.821957,-23.756037,-9.975736,-2.2570803,-7.4892826,4.3056664,16.747105,-13.351564,15.000033,-4.1152477,-4.6722383,15.521126,-9.501735,25.21358,-36.171146,35.524525,7.498756,-0.48773056,-2.146812,3.6485877,-25.434423,12.56763,47.308994,20.621025,3.2431705,3.2206907
131,3.994060754776001,-145.35610961914062,76.8426742553711,-2.1359617405133386,-0.02618257875051347,5.894234217505121,-8.797782,-1.2024022,7.5783644,36.722546,-22.985971,-8.6889105,-2.0710592,-7.3080416,4.305836,15.628828,-12.575305,15.000033,-3.604063,-4.714123,15.375151,-9.547222,25.219994,-36.806858,35.669724,6.3044863,-0.6452274,-2.1247933,3.2609186,-25.432632,12.94895,47.498558,21.134277,3.2244782,3.4670389
132,3.994938850402832,-145.6881103515625,77.00984191894531,-2.0773200631846147,0.19934416726548698,5.748909008085114,-8.045128,-1.7736365,7.5818024,33.735394,-22.138863,-7.0039115,-1.8908554,-7.0916166,4.2975874,14.510301,-11.827725,15.000033,-3.0970685,-4.7449827,15.211112,-9.576659,25.23759,-37.377262,35.863194,5.3526545,-0.7616617,-2.12643,2.8638353,-25.419296,13.371729,47.682014,21.5593,3.2168217,3.669878
133,3.9900341033935547,-146.02259826660156,77.15190887451172,-2.0606847944186883,0.44475161283424325,5.586802997473747,-7.471453,-2.3037498,7.3475738,30.934074,-21.181536,-4.5640073,-1.7220266,-6.8252563,4.281997,13.374735,-11.105889,14.949721,-2.5991852,-4.7490983,15.032223,-9.57543,25.260918,-37.827965,36.080517,4.7173233,-0.8363381,-2.1914985,2.46037,-25.405134,13.823877,47.836964,21.857986,3.2222993,3.824942
134,3.9967644214630127,-146.36563110351562,77.28409576416016,-2.07514090322613,0.7030851046857104,5.394100863185895,-7.0778527,-2.7462866,6.994639,28.366777,-20.232374,-1.5292009,-1.561756,-6.5015774,4.289835,12.217649,-10.393885,14.71518,-2.111097,-4.762645,14.817589,-9.543525,25.310114,-38.198242,36.344994,4.253132,-0.8737502,-2.2877245,1.9801339,-25.357702,14.391259,48.050735,22.080849,3.2221403,3.9334345
135,4.003418922424316,-146.7125244140625,77.40121459960938,-2.0652535663883436,0.9563003718610817,5.199664428921337,-6.7441654,-3.0988812,6.764426,26.051056,-19.422457,1.4776025,-1.4186116,-6.2102466,4.307205,11.109204,-9.72712,14.4935,-1.6413149,-4.8245544,14.61833,-9.487764,25.373983,-38.468388,36.641994,3.9726684,-0.8750963,-2.3824937,1.4906466,-25.29109,14.973773,48.23571,22.225561,3.2338538,4.0200934
136,4.006028175354004,-147.05979919433594,77.5058364868164,-2.020524553298209,1.1844037999022718,5.024874793783324,-6.3204064,-3.310225,6.838488,23.944683,-18.834742,3.8099597,-1.2646687,-5.9625316,4.324955,10.049472,-9.104069,14.284865,-1.2159622,-4.9505835,14.449789,-9.398213,25.451948,-38.64284,36.983894,3.8569949,-0.8396854,-2.4236665,0.9823523,-25.19183,15.57087,48.408955,22.327085,3.2616158,4.088728
137,4.00143575668335,-147.40679931640625,77.59962463378906,-1.9577790884428383,1.3690738232194593,4.848155635133536,-5.6912217,-3.2728522,7.33151,21.989382,-18.534664,5.377426,-1.0799065,-5.7352743,4.3601065,9.034207,-8.528174,14.097336,-0.82320756,-5.1261168,14.320022,-9.2464485,25.542934,-38.691303,37.36038,3.999192,-0.75802517,-2.3871682,0.44047025,-25.053902,16.195318,48.581852,22.362604,3.3113592,4.1296554
138,3.99392032623291,-147.740966796875,77.6927490234375,-1.885456939315688,1.5240262238047915,4.666257354513268,-4.939368,-3.0477169,8.096596,20.157518,-18.408998,6.479697,-0.87627834,-5.5222154,4.4102287,8.050382,-7.991654,13.924872,-0.45690563,-5.3422384,14.216929,-9.04651,25.64784,-38.626095,37.776142,4.3717484,-0.6329239,-2.3020372,-0.13831711,-24.877161,16.854517,48.76082,22.327847,3.3765361,4.1412554
139,3.988673448562622,-148.08847045898438,77.77769470214844,-1.7955573983717528,1.676783170393662,4.526959474123157,-4.1747913,-2.7969208,8.88349,18.380064,-18.201778,7.0794263,-0.67364043,-5.3393164,4.4344606,7.0891886,-7.4699845,13.743875,-0.143374,-5.6045685,14.134481,-8.849934,25.76813,-38.50712,38.255497,4.7878337,-0.48216426,-2.2011287,-0.72848636,-24.658018,17.511595,48.933807,22.27031,3.4450972,4.143497
140,3.9763495922088623,-148.43780517578125,77.85784912109375,-1.68053886830152,1.856142413933796,4.478815226164431,-3.5229125,-2.655311,9.430859,16.625883,-17.670153,7.174571,-0.87743783,-5.16463,4.4242754,6.9619436,-7.372904,13.527033,0.09425165,-5.9187827,14.06554,-8.7128935,25.904503,-38.400394,38.826275,5.0604157,-0.32440493,-2.115553,-1.2980772,-24.389736,18.122566,49.084064,22.235003,3.504798,4.1565676
141,3.954162836074829,-148.78187561035156,77.94615936279297,-1.5302129970332967,2.075619367567204,4.53695301672953,-3.0011492,-2.6058538,9.625101,14.843266,-16.646893,6.5809507,-1.1249061,-5.0370703,4.3327436,6.8737993,-7.2691965,13.261196,0.24800871,-6.310234,14.009068,-8.670796,26.062492,-38.32523,39.510113,5.1735744,-0.1534218,-2.027462,-1.856885,-24.064575,18.681402,49.200607,22.224463,3.5562875,4.1914005
142,3.9223697185516357,-149.12757873535156,78.04293060302734,-1.3675726810438642,2.3186004479254234,4.676750752817532,-2.5412502,-2.536369,9.579993,13.048001,-15.298637,5.3913813,-1.3827237,-4.9296894,4.1755357,6.7894154,-7.1528907,12.960789,0.33301497,-6.7535243,13.965238,-8.689199,26.242987,-38.252605,40.288025,5.214201,0.037801832,-1.9275287,-2.4178991,-23.68301,19.199846,49.298576,22.214558,3.603539,4.2350473
143,3.8842082023620605,-149.4832763671875,78.13345336914062,-1.2232389251708615,2.5675887826261623,4.886678697268919,-2.1634414,-2.4374483,9.3835745,11.368438,-13.911252,4.0272636,-1.6315641,-4.8184915,3.955358,6.707361,-7.041957,12.656731,0.36116788,-7.187079,13.926946,-8.728449,26.43567,-38.1797,41.137356,5.146474,0.23008502,-1.8587782,-2.9517694,-23.25564,19.663452,49.40016,22.209541,3.6404164,4.271437
144,3.840299367904663,-149.83567810058594,78.21863555908203,-1.1151027866133538,2.805257078574079,5.153890245745288,-1.887962,-2.321122,9.146737,9.933583,-12.741374,2.9104419,-1.8525058,-4.6930075,3.678922,6.6264153,-6.950219,12.382022,0.34946594,-7.558029,13.888731,-8.75717,26.62094,-38.108818,42.04439,4.9352,0.4032496,-1.8638567,-3.419225,-22.798124,20.058552,49.52098,22.21641,3.6619298,4.285606
145,3.7979207038879395,-150.17510986328125,78.2835464477539,-1.0375079718390132,3.0405909745218462,5.521958978182383,-1.8204509,-2.1897926,8.860959,8.940451,-11.886546,2.0903702,-2.07623,-4.5602536,3.3095634,6.61403,-6.926537,12.146479,0.27119234,-7.8596954,13.843313,-8.790304,26.781595,-38.05865,43.039036,4.471501,0.53027827,-1.9676434,-3.7843928,-22.31532,20.343143,49.652496,22.256243,3.6492,4.2641463
146,3.7586402893066406,-150.4981689453125,78.3281021118164,-0.9709648574017764,3.2789677017412866,5.978828417037661,-1.8973048,-2.0468497,8.488662,8.2379,-11.196468,1.3540598,-2.2839532,-4.4350834,2.859936,6.60878,-6.928344,11.937063,0.13654898,-8.122107,13.792508,-8.858539,26.910686,-38.03459,44.14296,3.8064003,0.62911457,-2.141292,-4.0621996,-21.80735,20.533903,49.77982,22.318884,3.6126354,4.219373
147,3.7192649841308594,-150.7906494140625,78.36436462402344,-0.9121543285443412,3.4890510011900364,6.438570778189932,-1.9630041,-1.9038417,8.10469,7.607178,-10.594072,0.7400557,-2.4587991,-4.315757,2.4085474,6.6053176,-6.940726,11.750724,0.005671538,-8.349811,13.755197,-8.936422,27.001997,-38.002644,45.321648,3.1593735,0.74658126,-2.3459907,-4.3055115,-21.292233,20.721027,49.926857,22.373167,3.589298,4.174069
148,3.693150043487549,-151.0560760498047,78.3994369506836,-0.8490821485269416,3.639987169157065,6.8155491570500315,-2.0128772,-1.7659552,7.7916427,7.1334386,-10.141734,0.298342,-2.586981,-4.2105613,2.0362117,6.603132,-6.950049,11.582957,-0.06700547,-8.55319,13.752021,-8.994281,27.050978,-37.923527,46.534428,2.7461703,0.9271985,-2.5441234,-4.5599933,-20.796333,20.998198,50.105606,22.391531,3.6177943,4.151322
149,3.6634013652801514,-151.3017578125,78.43389892578125,-0.7757059796398876,3.715560214168093,7.0963477185289445,-2.1474066,-1.6526332,7.576936,7.052959,-9.94948,0.09386023,-2.6543741,-4.1302843,1.7586653,6.603174,-6.9545026,11.437539,-0.07625181,-8.725188,13.80035,-9.006828,27.04912,-37.759804,47.77091,2.665239,1.1923252,-2.7296793,-4.8122067,-20.336191,21.365782,50.301704,22.358072,3.712848,4.1403856
150,3.6264328956604004,-151.53147888183594,78.463134765625,-0.6967016092393093,3.7357867318839135,7.323173534145855,-2.213415,-1.5979631,7.4203086,6.9652824,-9.778408,0.08443191,-2.6719165,-4.0699267,1.5359088,6.6045313,-6.959887,11.314997,-0.05212605,-8.858646,13.886197,-8.9973,26.992872,-37.538795,49.05465,2.7848737,1.5127004,-2.9241316,-5.0326877,-19.913866,21.789434,50.497444,22.297207,3.855236,4.1359015
151,3.594805955886841,-151.73385620117188,78.48867797851562,-0.6188653666526437,3.724308146251557,7.4941019554065464,-2.2387083,-1.5688947,7.310477,6.877899,-9.631777,0.158768,-2.6672173,-4.0137606,1.3704809,6.606712,-6.963114,11.201123,0.009070038,-8.964196,13.982682,-8.981522,26.888155,-37.298866,50.374397,2.998411,1.85651,-3.1309853,-5.2440085,-19.534016,22.308565,50.70385,22.243425,4.031839,4.169869
152,3.564678907394409,-151.9230194091797,78.50706481933594,-0.5515860720949097,3.7034277857551055,7.606373687110163,-2.2636592,-1.5195996,7.2322297,6.8348455,-9.527264,0.21183346,-2.6662695,-3.9442933,1.2643121,6.6097984,-6.9621816,11.083762,0.10747059,-9.049599,14.066611,-8.982006,26.749817,-37.082947,51.718273,3.185068,2.19251,-3.352406,-5.474329,-19.20009,22.966625,50.930374,22.233648,4.229529,4.2738256
153,3.5327658653259277,-152.0953369140625,78.52195739746094,-0.49474322332393134,3.6698552372902946,7.634111654896132,-2.279556,-1.4422457,7.1964703,6.8372254,-9.481437,0.2647422,-2.6715815,-3.8572633,1.2447419,6.6133547,-6.9530125,10.960984,0.25676617,-9.118016,14.140108,-8.995636,26.590342,-36.90342,53.078323,3.3386652,2.542555,-3.5907767,-5.752161,-18.920832,23.818453,51.185993,22.307095,4.4548826,4.4543743
154,3.5078186988830566,-152.26136779785156,78.53450775146484,-0.44242905861734594,3.6156193822636244,7.587724312451297,-2.262626,-1.3630621,7.2069354,6.8424754,-9.468045,0.35571435,-2.6706998,-3.7622378,1.3017594,6.6171117,-6.9378176,10.8379,0.44782543,-9.165412,14.215649,-8.999494,26.412567,-36.72753,54.43964,3.514241,2.9139602,-3.846285,-6.053905,-18.695889,24.828522,51.454292,22.436695,4.7131495,4.6965647
155,3.4697630405426025,-152.4257354736328,78.54730987548828,-0.3942072633440108,3.5552581711635707,7.518193237284667,-2.2348945,-1.2798524,7.2325997,6.8473988,-9.45509,0.40686038,-2.6672518,-3.663402,1.3819945,6.6211243,-6.9235225,10.713075,0.65011615,-9.1929865,14.28488,-8.991722,26.218626,-36.538887,55.78617,3.6793869,3.2544205,-4.115242,-6.335727,-18.510477,25.902735,51.714638,22.557434,4.9886813,4.999031
156,3.4405040740966797,-152.59730529785156,78.55784606933594,-0.350830778597362,3.5033147171677776,7.476728576575778,-2.2174037,-1.1887236,7.2416797,6.8473277,-9.407306,0.34439898,-2.6651685,-3.5636837,1.431637,6.625321,-6.917015,10.584989,0.83695936,-9.205284,14.337652,-8.963961,26.00876,-36.314262,57.100914,3.8147848,3.5119874,-4.3930836,-6.5572686,-18.343016,26.943192,51.954308,22.602142,5.263433,5.3601356
157,3.4245259761810303,-152.7670440673828,78.56574249267578,-0.31403330461941703,3.4649508040917474,7.47510336865507,-2.2157245,-1.0820266,7.2258086,6.840812,-9.306322,0.1026085,-2.666787,-3.4595442,1.4395239,6.628072,-6.922626,10.448525,1.0066088,-9.211668,14.36461,-8.930197,25.785172,-36.06609,58.4107,3.9208276,3.6598594,-4.6676655,-6.726466,-18.181072,27.957596,52.180058,22.544899,5.5347037,5.8210177
158,3.402031898498535,-152.92803955078125,78.56843566894531,-0.28344266365823423,3.4319190638597066,7.486696601893278,-2.217389,-0.9622751,7.200407,6.828925,-9.172015,-0.2635995,-2.669825,-3.3505082,1.4334054,6.6295314,-6.9351916,10.306303,1.1727842,-9.212397,14.370185,-8.888346,25.549747,-35.801743,59.71716,4.0076184,3.730738,-4.944334,-6.873417,-18.023037,28.98584,52.414177,22.419361,5.8078017,6.367916
159,3.3709700107574463,-153.08792114257812,78.57449340820312,-0.25450976212094534,3.3987056969646656,7.505031302169475,-2.218981,-0.84391755,7.1711106,6.8163095,-9.029409,-0.64066625,-2.6694949,-3.246163,1.4177502,6.6312127,-6.947986,10.167995,1.330737,-9.19936,14.3653965,-8.823655,25.302454,-35.5109,60.9789,4.0484605,3.7613666,-5.2430177,-6.9881454,-17.863165,29.979427,52.664364,22.245962,6.0771995,6.916958
160,3.3404011726379395,-153.23699951171875,78.58258819580078,-0.22263363398041786,3.3597053490886983,7.523326704937404,-2.2161705,-0.74189615,7.143261,6.80794,-8.906159,-0.9187957,-2.660469,-3.156335,1.3971812,6.63328,-6.9535823,10.043644,1.478039,-9.165958,14.360528,-8.72759,25.042364,-35.1904,62.16072,4.0128684,3.7890208,-5.583491,-7.0597725,-17.696339,30.888262,52.942703,22.045233,6.3373194,7.3838406
161,3.317570209503174,-153.3685760498047,78.59297180175781,-0.1836534794538575,3.3165227600836378,7.547726763182402,-2.2124407,-0.66553813,7.1098995,6.802681,-8.803781,-1.0557256,-2.6422355,-3.0896661,1.3649029,6.635366,-6.9485054,9.938526,1.6132742,-9.111778,14.358761,-8.608953,24.766056,-34.835907,63.27891,3.8668127,3.806258,-5.9892683,-7.0813856,-17.519495,31.69973,53.248573,21.801392,6.5892115,7.752631
162,3.2894976139068604,-153.4993133544922,78.60649871826172,-0.14098851903537055,3.270914826902133,7.579193965162878,-2.207957,-0.6047425,7.071373,6.799492,-8.711286,-1.1154575,-2.6180785,-3.0387144,1.3208638,6.6376023,-6.936686,9.846528,1.7393599,-9.041238,14.353172,-8.471175,24.471727,-34.44999,64.35054,3.6387117,3.7988653,-6.4431887,-7.0626574,-17.332573,32.43934,53.583473,21.509953,6.833962,8.066169
163,3.2636516094207764,-153.619140625,78.61846923828125,-0.102714587692714,3.218163533314268,7.6034417500033555,-2.1928453,-0.5450808,7.0438986,6.797423,-8.6310835,-1.1466682,-2.5852444,-2.9888458,1.2799115,6.639703,-6.923154,9.759996,1.8591868,-8.952278,14.340689,-8.30717,24.164291,-34.05724,65.33991,3.373821,3.7981515,-6.904294,-7.0115128,-17.133936,33.114437,53.954094,21.209541,7.0684037,8.3285055
164,3.2436602115631104,-153.73129272460938,78.62870025634766,-0.07669434327662265,3.153429448881673,7.60624873460655,-2.1572294,-0.47139952,7.0435643,6.7958646,-8.566245,-1.1976312,-2.542567,-2.9248366,1.2566736,6.641317,-6.9115753,9.671192,1.9763019,-8.843621,14.319708,-8.104881,23.852318,-33.67679,66.2062,3.1231153,3.8326182,-7.3318534,-6.9332085,-16.920406,33.730064,54.364094,20.938217,7.2891936,8.543593
165,3.2309000492095947,-153.8394775390625,78.63321685791016,-0.06841961682872864,3.0712917568658376,7.571940676977401,-2.0913737,-0.37581322,7.0896077,6.794593,-8.523433,-1.2799039,-2.4874995,-2.838889,1.2628963,6.643241,-6.9021273,9.577756,2.1008887,-8.711124,14.293854,-7.8423786,23.538147,-33.26429,66.92583,2.935138,3.9282076,-7.721778,-6.8293486,-16.689987,34.294376,54.823593,20.686111,7.491866,8.679427
166,3.21008563041687,-153.93670654296875,78.635498046875,-0.07257591898173955,2.9758352135046433,7.512120176478152,-2.0029938,-0.26743263,7.1684384,6.7939663,-8.498635,-1.3680823,-2.4219015,-2.7397568,1.2882837,6.6443887,-6.891868,9.483818,2.224264,-8.558662,14.263415,-7.5310755,23.22337,-32.82818,67.520775,2.765136,4.0628505,-8.094021,-6.6985474,-16.441513,34.806194,55.32899,20.440113,7.6797924,8.744464
167,3.1878278255462646,-154.0375213623047,78.63811492919922,-0.08028672571150308,2.8756792247445073,7.453379881711026,-1.9067078,-0.15935405,7.2475815,6.7936835,-8.481275,-1.4543402,-2.3494081,-2.63904,1.3139983,6.645486,-6.884733,9.391323,2.3273554,-8.401425,14.221588,-7.1957583,22.916729,-32.442368,68.01007,2.5531394,4.1924963,-8.443867,-6.543622,-16.175224,35.251972,55.868412,20.232826,7.8612885,8.8039665
168,3.155944585800171,-154.1287841796875,78.64006805419922,-0.0826373108847731,2.7794369151856424,7.422423632029633,-1.8181753,-0.06497468,7.294167,6.793718,-8.460256,-1.5310378,-2.2742782,-2.5486073,1.3213955,6.6481867,-6.8853483,9.302166,2.3935926,-8.254281,14.162635,-6.865409,22.632706,-32.197926,68.408,2.2223337,4.279205,-8.766721,-6.3649406,-15.891648,35.614178,56.426155,20.095411,8.044575,8.923805
169,3.1328699588775635,-154.21963500976562,78.64332580566406,-0.07657959649383353,2.6889616721512635,7.428884320986557,-1.7413478,0.011897172,7.297904,6.7942758,-8.432674,-1.5951679,-2.1947525,-2.4727848,1.304403,6.650646,-6.8969026,9.219118,2.4166365,-8.123917,14.085918,-6.536735,22.384785,-32.131813,68.70136,1.7396269,4.316218,-9.06148,-6.1551485,-15.587869,35.875168,57.00194,20.03172,8.232469,9.130165
170,3.1139464378356934,-154.3083953857422,78.64578247070312,-0.06672383324794688,2.5998655611991324,7.457623664341262,-1.6671312,0.077953815,7.277101,6.794073,-8.404255,-1.6510615,-2.109013,-2.4052334,1.273325,6.6534452,-6.917653,9.140251,2.4093878,-8.005481,13.996949,-6.1940365,22.176569,-32.19917,68.87782,1.140757,4.3251743,-9.332811,-5.9164724,-15.262803,36.044174,57.59991,20.024954,8.420596,9.385323
171,3.1057229042053223,-154.4047088623047,78.64697265625,-0.056726767533522786,2.5116759764178234,7.498152033542479,-1.5957494,0.13813765,7.24135,6.7949295,-8.376682,-1.7027432,-2.0204284,-2.342377,1.2347064,6.65697,-6.940502,9.061162,2.3838487,-7.895426,13.900258,-5.837111,22.003466,-32.34225,68.950165,0.47759727,4.3066225,-9.585249,-5.6615963,-14.921751,36.14401,58.205837,20.074457,8.606581,9.659215
172,3.09818434715271,-154.4933319091797,78.64578247070312,-0.05085918930802017,2.4238461587319233,7.540085895304969,-1.5254745,0.1977982,7.200005,6.7960644,-8.350823,-1.7541572,-1.9322717,-2.279141,1.194718,6.659984,-6.956835,8.97698,2.3520713,-7.787711,13.799445,-5.4720516,21.855703,-32.50998,68.938805,-0.2030994,4.2602043,-9.8225155,-5.4039617,-14.576111,36.199734,58.806545,20.182425,8.788237,9.921766
173,3.083721876144409,-154.577392578125,78.64667510986328,-0.049896258496762116,2.338523496610097,7.591973907699542,-1.4599967,0.2566094,7.143603,6.797231,-8.325372,-1.8056232,-1.8443482,-2.2161014,1.1447566,6.66367,-6.967431,8.882384,2.3056967,-7.676445,13.691583,-5.099063,21.729229,-32.721348,68.823875,-0.906728,4.173678,-10.021742,-5.1329284,-14.2336235,36.19877,59.388763,20.36504,8.972128,10.169846
174,3.0761892795562744,-154.65557861328125,78.64967346191406,-0.052170098745704684,2.255215878806085,7.655639139346413,-1.3990054,0.3129295,7.0706496,6.7987804,-8.300294,-1.8553264,-1.7549871,-2.154693,1.0845665,6.667435,-6.975434,8.781258,2.2428071,-7.56228,13.577058,-4.7201204,21.623383,-32.995308,68.608635,-1.6533042,4.0503073,-10.189634,-4.8410954,-13.896687,36.13465,59.9521,20.618505,9.158935,10.417649
175,3.0557174682617188,-154.72264099121094,78.64717864990234,-0.056432068718912286,2.169513612209119,7.7103640258699935,-1.3336731,0.36844194,7.004125,6.8001895,-8.278534,-1.903207,-1.6650015,-2.09406,1.034271,6.67081,-6.979594,8.683138,2.1843827,-7.4495034,13.463931,-4.341177,21.530405,-33.271126,68.34436,-2.4088535,3.9144738,-10.373176,-4.5434318,-13.569945,36.039467,60.500835,20.912409,9.3376045,10.660718
176,3.0324487686157227,-154.78213500976562,78.64911651611328,-0.06063884203314461,2.076943403183494,7.735280953186052,-1.2554208,0.4238574,6.9665008,6.8018136,-8.263499,-1.9493058,-1.5745102,-2.0333061,1.0138406,6.673874,-6.9799657,8.596906,2.1469882,-7.34213,13.360039,-3.9679294,21.43823,-33.481598,68.08898,-3.1363199,3.787306,-10.61803,-4.2553244,-13.258534,35.950153,61.038086,21.217947,9.497196,10.894163
177,3.009148120880127,-154.83982849121094,78.6507339477539,-0.06574848589928435,1.975792417793191,7.721883430600623,-1.1611812,0.48090512,6.964655,6.803761,-8.256279,-1.9954371,-1.4844022,-1.9703114,1.0339007,6.677129,-6.972825,8.523973,2.1356978,-7.23641,13.265376,-3.6049447,21.33932,-33.62052,67.8476,-3.8214552,3.6597342,-10.946912,-3.9777777,-12.967098,35.871708,61.564575,21.535831,9.632857,11.120307
178,2.992175340652466,-154.89280700683594,78.65386199951172,-0.07245346375239836,1.8685733714019495,7.6821892732236385,-1.0559447,0.53883415,6.986224,6.8058443,-8.254591,-2.041063,-1.3936208,-1.9061358,1.0819168,6.679262,-6.958774,8.459775,2.1397002,-7.1285796,13.175498,-3.252636,21.231401,-33.716587,67.60225,-4.4819465,3.5254457,-11.330713,-3.7009048,-12.697887,35.787815,62.075127,21.879356,9.751611,11.3403635
179,2.9744749069213867,-154.94248962402344,78.6543197631836,-0.07804859920716307,1.7571247940370731,7.626580646285224,-0.9425206,0.5945382,7.0250607,6.8077984,-8.258209,-2.0824466,-1.3016043,-1.8450927,1.1437446,6.681096,-6.945257,8.404544,2.1512895,-7.021673,13.090743,-2.9127843,21.110695,-33.763107,67.3716,-5.1378665,3.414801,-11.73539,-3.4271119,-12.451285,35.707577,62.568066,22.243444,9.860285,11.547967
180,2.9529359340667725,-154.98361206054688,78.65109252929688,-0.08088486725741033,1.6434700445186112,7.5653108496301815,-0.82463473,0.64491,7.0748625,6.8103113,-8.266996,-2.115816,-1.2085633,-1.7911508,1.2049109,6.68412,-6.9393387,8.358861,2.1608171,-6.918655,13.010991,-2.5824375,20.972483,-33.744186,67.17179,-5.8009644,3.3576472,-12.126206,-3.1612647,-12.226224,35.64144,63.044945,22.621992,9.96464,11.7366705
181,2.9291744232177734,-155.0210723876953,78.64652252197266,-0.07774767259483033,1.524473179364681,7.49314482072831,-0.6967335,0.68645567,7.1430817,6.812634,-8.283138,-2.1360495,-1.1105545,-1.7480181,1.2666818,6.686169,-6.94532,8.329713,2.1713367,-6.8212657,12.937603,-2.259992,20.811039,-33.64449,67.00864,-6.489111,3.370644,-12.5082445,-2.9080398,-12.023364,35.602173,63.51353,23.028732,10.061331,11.89772
182,2.906085729598999,-155.05612182617188,78.64447021484375,-0.0713314033374637,1.4003272394533488,7.407246409976547,-0.5589561,0.7223392,7.229772,6.815389,-8.30661,-2.1465654,-1.0098939,-1.7116638,1.3357048,6.6885843,-6.958402,8.313645,2.1848886,-6.7257137,12.869207,-1.9506105,20.624073,-33.47422,66.879074,-7.18813,3.4347286,-12.892792,-2.6649067,-11.843544,35.582043,63.97315,23.462103,10.148379,12.036758
183,2.8818700313568115,-155.08567810058594,78.64131164550781,-0.06542088377944555,1.2777656893907374,7.321516121572073,-0.4228733,0.75698286,7.318479,6.817547,-8.33095,-2.1562169,-0.9110984,-1.6768782,1.4034067,6.69091,-6.9711847,8.298361,2.1908524,-6.6295323,12.801739,-1.6650094,20.414923,-33.26445,66.787636,-7.8708353,3.524915,-13.255583,-2.4265065,-11.68433,35.561214,64.412025,23.894125,10.234904,12.167882
184,2.8569154739379883,-155.11151123046875,78.64022827148438,-0.06435990173566851,1.1637794373577794,7.249674200256307,-0.3009269,0.7953879,7.3924856,6.819709,-8.350071,-2.1739845,-0.8196408,-1.638282,1.4619908,6.6930776,-6.9754996,8.270918,2.1805387,-6.531282,12.731617,-1.4096014,20.190287,-33.04307,66.73336,-8.506585,3.6156702,-13.572987,-2.1904788,-11.540943,35.51955,64.82535,24.297148,10.326524,12.306874
185,2.83149790763855,-155.13958740234375,78.64173889160156,-0.0715929406488233,1.0625048505985117,7.194636164508965,-0.19902991,0.84161466,7.4479485,6.822064,-8.363584,-2.205518,-0.7390995,-1.5910348,1.5103819,6.694951,-6.96628,8.21829,2.151426,-6.431793,12.65494,-1.1813403,19.953842,-32.79444,66.719696,-9.092923,3.712816,-13.8276415,-1.9553735,-11.409711,35.45066,65.209724,24.659138,10.43057,12.45887
186,2.8059582710266113,-155.1683349609375,78.64039611816406,-0.08458673232723947,0.9694979563188375,7.14927949511508,-0.108914584,0.8923482,7.493629,6.8228626,-8.373593,-2.244985,-0.66627663,-1.5385244,1.5523633,6.6968517,-6.9485283,8.15043,2.1088977,-6.3333907,12.574772,-0.97407115,19.706236,-32.5084,66.73944,-9.641431,3.8247285,-14.0362015,-1.7258918,-11.289658,35.365173,65.57346,24.996132,10.541036,12.61531
187,2.7773311138153076,-155.20046997070312,78.63655853271484,-0.09776333184629656,0.8787187930187703,7.11274507476166,-0.024072578,0.94083536,7.5316687,6.823936,-8.380274,-2.2836401,-0.59479463,-1.4886826,1.5871493,6.6981144,-6.9299126,8.089249,2.0548024,-6.2365713,12.497715,-0.79541594,19.452278,-32.235012,66.78271,-10.159145,3.9289064,-14.226487,-1.5062453,-11.179767,35.26718,65.92185,25.320297,10.647773,12.769455
188,2.752856492996216,-155.23605346679688,78.63136291503906,-0.10677004128332147,0.7838077774905406,7.084197398981572,0.06326667,0.9808813,7.5643096,6.8244457,-8.382268,-2.3128142,-0.5188995,-1.4484979,1.6137078,6.699307,-6.918594,8.056704,1.9936252,-6.1418858,12.430162,-0.65221703,19.198967,-32.025883,66.83826,-10.652421,4.0038614,-14.426882,-1.300267,-11.080473,35.15724,66.26091,25.642338,10.741359,12.91426
189,2.726032018661499,-155.25991821289062,78.6298599243164,-0.10858702647745731,0.6851329831760233,7.071996295757236,0.15038002,1.0077939,7.585915,6.826418,-8.377383,-2.3277829,-0.43608758,-1.4245731,1.6224687,6.699176,-6.919273,8.071074,1.9209338,-6.052507,12.373978,-0.5490577,18.951117,-31.896576,66.90879,-11.131611,4.0345793,-14.654069,-1.1059383,-10.992066,35.026886,66.588684,25.953314,10.820584,13.05019
190,2.691594362258911,-155.28363037109375,78.62722778320312,-0.1064094969696111,0.585212517347142,7.073687440754381,0.23588091,1.0261664,7.5974956,6.8269343,-8.3656225,-2.334195,-0.3507055,-1.4114583,1.6170263,6.6989837,-6.927033,8.116407,1.8387944,-5.968209,12.326954,-0.4780222,18.70987,-31.82022,66.99226,-11.591317,4.0360928,-14.891082,-0.92050165,-10.913952,34.87622,66.90039,26.251234,10.890265,13.180523
191,2.6525089740753174,-155.3065185546875,78.62745666503906,-0.10409240889904947,0.481927207101189,7.072346953690805,0.32483998,1.0429732,7.6109076,6.827077,-8.353316,-2.3383896,-0.26283285,-1.3990476,1.6161569,6.697611,-6.9345417,8.163374,1.7583895,-5.885082,12.2896185,-0.4278841,18.476828,-31.78748,67.070496,-12.018845,4.0321774,-15.116263,-0.7470684,-10.845563,34.718548,67.19718,26.55534,10.948787,13.30347
192,2.6139347553253174,-155.32725524902344,78.6269760131836,-0.10533619198031066,0.3731893566853952,7.050784161186317,0.42181948,1.0654857,7.6381984,6.828141,-8.346448,-2.346991,-0.17447901,-1.3774191,1.6389112,6.698271,-6.9367666,8.182567,1.691213,-5.7996526,12.262367,-0.38790062,18.254047,-31.78956,67.12567,-12.401779,4.0462346,-15.307541,-0.588822,-10.786752,34.56637,67.48156,26.884115,10.994661,13.416985
193,2.5747931003570557,-155.3450469970703,78.62451934814453,-0.11206336684776046,0.25513200136389536,7.006861612414266,0.5311329,1.0961443,7.6795535,6.829908,-8.345966,-2.3639534,-0.08227787,-1.342768,1.6898866,6.700298,-6.9314966,8.158045,1.6369879,-5.7100534,12.249934,-0.35785204,18.04408,-31.838617,67.15025,-12.726871,4.088872,-15.452953,-0.44842356,-10.736867,34.423965,67.75605,27.254967,11.02533,13.524804
194,2.533562183380127,-155.36415100097656,78.62237548828125,-0.12164704163562728,0.12984058851991032,6.948793810393882,0.6491244,1.1308517,7.7296095,6.8320355,-8.348822,-2.3849921,0.0135028055,-1.3008884,1.7593987,6.7034826,-6.9225926,8.108023,1.5900998,-5.619623,12.250992,-0.34041515,17.848007,-31.934422,67.15154,-13.005335,4.1456404,-15.566555,-0.32388476,-10.695233,34.284065,68.01864,27.652956,11.042273,13.626649
195,2.4908556938171387,-155.38182067871094,78.61927032470703,-0.1320261219819046,0.00421264330667497,6.8756822218492575,0.7699301,1.1674014,7.792179,6.8339353,-8.354788,-2.4042754,0.10702663,-1.2562544,1.8441362,6.7057157,-6.9098763,8.054901,1.5535364,-5.530934,12.256901,-0.32857224,17.66465,-32.048203,67.13378,-13.259597,4.201924,-15.665043,-0.21220285,-10.6617,34.146587,68.26465,28.053122,11.050258,13.714985
196,2.4512500762939453,-155.39649963378906,78.61589050292969,-0.14043844845044207,-0.11533261223077988,6.786461790700321,0.8876011,1.2032164,7.8710923,6.8359623,-8.364697,-2.4162927,0.19132282,-1.2133828,1.9408927,6.707209,-6.8946958,8.020732,1.5290861,-5.44622,12.259154,-0.3160387,17.491688,-32.150787,67.102486,-13.512733,4.24324,-15.76487,-0.10924563,-10.635352,34.012363,68.48708,28.429823,11.053949,13.78195
197,2.418055295944214,-155.4094696044922,78.61563873291016,-0.14582676835706143,-0.22691570565449048,6.677374694910429,1.0006632,1.2368032,7.9692655,6.8392024,-8.380588,-2.4168258,0.26368827,-1.173826,2.052754,6.7085276,-6.876934,8.013007,1.5192878,-5.365876,12.254316,-0.30166608,17.327988,-32.238667,67.05636,-13.746609,4.2575526,-15.868443,-0.014254804,-10.61619,33.881863,68.685585,28.784079,11.051777,13.8186035
198,2.3760082721710205,-155.42019653320312,78.61461639404297,-0.14945744681075956,-0.33404671179003226,6.55014824839123,1.1129307,1.2693219,8.083909,6.8415933,-8.400582,-2.4098022,0.3287966,-1.1352872,2.180172,6.7092957,-6.8568263,8.01917,1.5216577,-5.288642,12.246898,-0.2888129,17.17351,-32.32474,66.99432,-13.9560175,4.255045,-15.967513,0.070145115,-10.604212,33.755985,68.86435,29.127655,11.041638,13.831358
199,2.34234619140625,-155.42715454101562,78.60932922363281,-0.15347450431047296,-0.438166036660598,6.411947832972092,1.2242407,1.3040415,8.210414,6.8440266,-8.422559,-2.4016187,0.3879931,-1.0953852,2.3158028,6.7096586,-6.8336205,8.03209,1.52999,-5.2132745,12.239893,-0.28069755,17.02774,-32.40753,66.92545,-14.188653,4.254518,-16.062962,0.14175004,-10.5982275,33.635593,69.02479,29.449284,11.027747,13.835492
200,2.29825496673584,-155.4359588623047,78.60807800292969,-0.15968587142272353,-0.5404343419854812,6.2701024956076425,1.334345,1.3434018,8.344151,6.846164,-8.4434185,-2.3985004,0.44377172,-1.0518806,2.4524868,6.709063,-6.8075747,8.044454,1.5375363,-5.139531,12.235961,-0.27847984,16.88986,-32.48099,66.8573,-14.487572,4.2749457,-16.15563,0.19755636,-10.596436,33.521633,69.17074,29.738178,11.014191,13.846283
201,2.2562482357025146,-155.45123291015625,78.61005401611328,-0.16757322436556388,-0.6430918886831668,6.122160651637293,1.4461862,1.3884612,8.489762,6.848454,-8.46271,-2.4014332,0.49757662,-1.0043509,2.5915678,6.708505,-6.780019,8.055378,1.5453222,-5.068298,12.23714,-0.28378874,16.758713,-32.54029,66.79278,-14.914477,4.3332596,-16.248655,0.23436125,-10.597123,33.41614,69.30307,29.980236,11.00131,13.868189
202,2.2147810459136963,-155.4666290283203,78.60958862304688,-0.17681222752808679,-0.7448191334468267,5.965856763091501,1.5598608,1.4375831,8.64777,6.849712,-8.481678,-2.4072056,0.54747534,-0.95359284,2.7356572,6.7080226,-6.7502093,8.068706,1.5553356,-4.9994073,12.241024,-0.29652986,16.634136,-32.589474,66.72944,-15.429693,4.415579,-16.340105,0.25292066,-10.599761,33.31858,69.42304,30.185244,10.986745,13.892846
203,2.1741623878479004,-155.474609375,78.60497283935547,-0.18803727855350552,-0.8417321738741205,5.808148004963117,1.6671778,1.4898903,8.807124,6.8523154,-8.501208,-2.4163082,0.5913306,-0.8997445,2.879822,6.7076654,-6.7177076,8.083499,1.5632837,-4.9319015,12.243467,-0.31485417,16.517332,-32.6378,66.66671,-15.925821,4.4942904,-16.422699,0.25660056,-10.604361,33.225903,69.53353,30.37709,10.971106,13.91583
204,2.1311135292053223,-155.48306274414062,78.6006088256836,-0.20280084577726065,-0.9300590703621999,5.656411829285005,1.7631935,1.5449647,8.956373,6.8536434,-8.519998,-2.4292204,0.6274701,-0.84265774,3.0187743,6.705767,-6.6805844,8.098894,1.5648242,-4.863822,12.241095,-0.3367338,16.410236,-32.695942,66.602615,-16.296862,4.54168,-16.489893,0.24995516,-10.6104555,33.135914,69.63445,30.580889,10.955022,13.933018
205,2.0866730213165283,-155.49269104003906,78.59864807128906,-0.2239582210698842,-1.0072632923106262,5.512357963677114,1.843327,1.6053559,9.091635,6.855666,-8.541221,-2.4476988,0.652067,-0.7794966,3.15138,6.7042913,-6.6364746,8.112601,1.5578287,-4.7920794,12.230314,-0.35940203,16.314608,-32.769775,66.53079,-16.481081,4.542447,-16.532238,0.22956678,-10.618274,33.06109,69.72898,30.806948,10.937683,13.941327
206,2.044884204864502,-155.50563049316406,78.59678649902344,-0.250517494880721,-1.0757033677622738,5.3723012127443175,1.9122322,1.6709288,9.219051,6.8571615,-8.563431,-2.4710748,0.66859823,-0.7107452,3.28003,6.70117,-6.586228,8.1256275,1.5450292,-4.7186847,12.2139,-0.38274288,16.23088,-32.8519,66.45188,-16.545761,4.5139503,-16.556454,0.19399582,-10.628433,32.99808,69.816574,31.040272,10.9188,13.943802
207,2.0084121227264404,-155.5164031982422,78.59593963623047,-0.2757160964610157,-1.1395815441187507,5.234870348378046,1.9748077,1.7350136,9.343282,6.857878,-8.582445,-2.4956045,0.6798556,-0.6435939,3.4061077,6.6985607,-6.536351,8.142255,1.529301,-4.6510344,12.199017,-0.41224787,16.158833,-32.93731,66.375336,-16.582108,4.4767723,-16.580183,0.15316127,-10.638752,32.920906,69.887924,31.269342,10.900843,13.945207
208,1.9634958505630493,-155.5279083251953,78.59518432617188,-0.2932468484297576,-1.2025944083627553,5.098700688408853,2.0362246,1.7919921,9.46876,6.859259,-8.595707,-2.5181081,0.6899592,-0.5846131,3.5303092,6.6962924,-6.4922414,8.166746,1.5151045,-4.5969934,12.19163,-0.4513088,16.097399,-33.016525,66.31075,-16.674747,4.4522767,-16.621204,0.1144371,-10.647137,32.801594,69.93941,31.48073,10.885348,13.949882
209,1.916187047958374,-155.54331970214844,78.59552764892578,-0.3008661619896844,-1.2664538534891825,4.962287641950946,2.0985913,1.8395265,9.596185,6.859874,-8.600145,-2.5356557,0.7004364,-0.5357386,3.6549535,6.6943197,-6.4546094,8.200356,1.503015,-4.5615396,12.196424,-0.5043522,16.050312,-33.092316,66.261894,-16.86578,4.4438143,-16.69496,0.07727269,-10.650492,32.62796,69.9665,31.663086,10.873792,13.959516
210,1.8740313053131104,-155.56082153320312,78.59517669677734,-0.30203001413588,-1.3289757911576836,4.82674769634445,2.1592243,1.881398,9.723359,6.8595695,-8.598069,-2.5509057,0.7088909,-0.49326423,3.778781,6.6915627,-6.4195476,8.240874,1.4970607,-4.538249,12.207761,-0.57513016,16.010654,-33.17338,66.23304,-17.10179,4.440522,-16.787695,0.04009669,-10.648976,32.408478,69.97567,31.823288,10.864337,13.971713
211,1.8322190046310425,-155.5733642578125,78.59490203857422,-0.29956754305875827,-1.3877750619505855,4.6945219816587045,2.2157204,1.9183633,9.850477,6.8588467,-8.592911,-2.5678213,0.71461445,-0.45608127,3.8981075,6.6886683,-6.3895025,8.286941,1.4854583,-4.523408,12.219666,-0.64579624,15.982355,-33.24528,66.20532,-17.334717,4.4436197,-16.875227,-0.00047369426,-10.643275,32.17338,69.976326,31.9848,10.854895,13.98391
212,1.7892550230026245,-155.58790588378906,78.59443664550781,-0.2957350694690602,-1.4404061894604026,4.568162822959307,2.265162,1.9519418,9.977975,6.857544,-8.586604,-2.5904224,0.71592665,-0.42293817,4.0089173,6.686074,-6.3656754,8.337119,1.469831,-4.510524,12.225479,-0.7139008,15.960215,-33.31094,66.17653,-17.52035,4.4532785,-16.932407,-0.03999736,-10.634313,31.935528,69.97511,32.165493,10.843458,13.994045
213,1.7452690601348877,-155.6003875732422,78.5936508178711,-0.292609233119943,-1.4849212886870682,4.448054873703334,2.3054292,1.9833338,10.107678,6.855588,-8.578623,-2.624563,0.71028465,-0.39193207,4.111438,6.6838846,-6.3455315,8.386483,1.4271061,-4.5030465,12.230937,-0.8009406,15.948238,-33.32138,66.16588,-18.372553,4.6869516,-16.516539,-0.08571799,-10.62481,31.708353,69.96336,32.38532,10.8285,13.99866
214,1.7063512802124023,-155.61253356933594,78.592529296875,-0.28838919355851356,-1.5229301127162396,4.332885502690388,2.3386583,2.0116208,10.238792,6.85264,-8.567815,-2.6665595,0.70008636,-0.36414707,4.2072864,6.680446,-6.3284874,8.4371,1.3928185,-4.4997106,12.237178,-0.9256909,15.938438,-33.32582,66.19116,-19.67894,5.056336,-15.78031,-0.12545064,-10.608948,31.443426,69.939644,32.61712,10.811184,14.001069
215,1.6628053188323975,-155.62680053710938,78.58941650390625,-0.28043515548089337,-1.5576571849998024,4.222811787563941,2.3676524,2.0347767,10.367671,6.8503714,-8.557756,-2.7060542,0.6876149,-0.34334671,4.2950807,6.67895,-6.3215737,8.498842,1.3423914,-4.495548,12.228715,-0.9865278,15.934559,-33.336903,66.164665,-19.979277,5.1499357,-15.610312,-0.17111449,-10.595158,31.213778,69.92625,32.85891,10.794714,14.00453
216,1.6259140968322754,-155.63687133789062,78.58502197265625,-0.26651126826821575,-1.5925023187961027,4.117909721497794,2.397448,2.050495,10.490647,6.84723,-8.550585,-2.732792,0.67925125,-0.33272335,4.3733296,6.6759543,-6.3290815,8.581652,1.3137382,-4.480698,12.194792,-0.93231684,15.9318495,-33.441944,66.03499,-17.82808,4.5518737,-16.890877,-0.20787984,-10.580494,31.003693,69.93586,33.07665,10.782077,14.016259
217,1.5896025896072388,-155.64999389648438,78.58010864257812,-0.24415455960390953,-1.6275901115662506,4.020026773825812,2.4270198,2.0564182,10.605397,6.8451343,-8.548118,-2.74157,0.67548126,-0.3363988,4.4386272,6.6727033,-6.357006,8.693945,1.3101391,-4.45031,12.11554,-0.692709,15.936092,-33.67192,65.759544,-12.1844425,2.7146106,-20.155872,-0.23137513,-10.5682,30.836151,69.983986,33.268425,10.775394,14.038889
218,1.5537335872650146,-155.66343688964844,78.57637023925781,-0.21575590463788702,-1.6616538929744613,3.9284605640610986,2.4551487,2.0544744,10.714224,6.843563,-8.548796,-2.738522,0.6740094,-0.3509835,4.4925284,6.6703486,-6.401929,8.8287735,1.3699801,-4.4150214,12.000925,-0.32162318,15.987247,-34.035675,65.385284,-4.188732,-0.5027353,-24.534042,-0.21394266,-10.551877,30.642385,70.03906,33.430378,10.774463,14.073717
219,1.511898398399353,-155.67208862304688,78.57261657714844,-0.18520130203040244,-1.6954099058789793,3.839357184693451,2.4831264,2.0491765,10.82086,6.8414626,-8.550311,-2.7306843,0.67368114,-0.36995202,4.5419044,6.667077,-6.4523916,8.972886,1.4253178,-4.4003224,11.8810215,0.12342627,16.126768,-34.394894,64.94557,4.4388914,-4.752033,-28.856558,-0.18580641,-10.534773,30.481524,70.07693,33.594685,10.778969,14.1164665
