Frame,root_translateX,root_translateY,root_translateZ,root_rotateX,root_rotateY,root_rotateZ,left_hip_pitch_joint_dof,left_hip_roll_joint_dof,left_hip_yaw_joint_dof,left_knee_joint_dof,left_ankle_pitch_joint_dof,left_ankle_roll_joint_dof,right_hip_pitch_joint_dof,right_hip_roll_joint_dof,right_hip_yaw_joint_dof,right_knee_joint_dof,right_ankle_pitch_joint_dof,right_ankle_roll_joint_dof,waist_yaw_joint_dof,waist_roll_joint_dof,waist_pitch_joint_dof,left_shoulder_pitch_joint_dof,left_shoulder_roll_joint_dof,left_shoulder_yaw_joint_dof,left_elbow_joint_dof,left_wrist_roll_joint_dof,left_wrist_pitch_joint_dof,left_wrist_yaw_joint_dof,right_shoulder_pitch_joint_dof,right_shoulder_roll_joint_dof,right_shoulder_yaw_joint_dof,right_elbow_joint_dof,right_wrist_roll_joint_dof,right_wrist_pitch_joint_dof,right_wrist_yaw_joint_dof
0,2.5769195556640625,0.38534462451934814,77.29143524169922,0.6995231208973786,2.7296525422292124,-163.26279612881143,7.0549645,-0.8125874,26.68021,50.01541,-8.520298,-15.000033,-7.583932,-5.3705363,-48.10259,19.014427,-18.219378,-8.383221,-9.657145,5.150887,6.851337,-14.20725,23.72132,-53.078873,48.36344,14.813242,-2.4196672,-3.509449,-4.297791,-32.063892,29.189564,64.54717,1.121389,1.5500695,-2.1791613
1,2.8277947902679443,0.7015567421913147,77.23321533203125,0.6548187181138193,2.719973891056176,-162.92298389807638,7.5229297,-0.82139987,26.572123,48.729904,-8.445948,-15.000033,-7.8074145,-5.211848,-48.438244,19.014841,-18.163843,-8.706894,-9.817085,5.0638924,6.8841205,-14.488861,23.784786,-53.22054,48.345932,14.846088,-2.431358,-3.4627512,-3.978847,-32.00218,28.815517,64.02133,1.0598135,1.5890013,-2.3048036
2,3.089153289794922,1.015659213066101,77.17870330810547,0.615090481599933,2.716002184803422,-162.57066631262262,8.008738,-0.8207546,26.520763,47.431152,-8.352947,-15.000033,-8.034621,-5.0621576,-48.785202,19.02021,-18.116524,-9.028804,-9.938545,4.9376154,6.901037,-14.806341,23.877895,-53.446644,48.327816,14.859276,-2.4380805,-3.4188497,-3.6611793,-31.855785,28.38414,63.54874,0.97001874,1.6250191,-2.4499907
3,3.3621954917907715,1.3342868089675903,77.12199401855469,0.5704436700491964,2.701939298920684,-162.23841807078637,8.465231,-0.8436267,26.380419,46.14481,-8.296361,-15.000033,-8.25785,-4.9033885,-49.114876,19.023684,-18.060871,-9.354274,-10.058823,4.802364,6.92388,-15.105396,23.978361,-53.638947,48.31927,14.869159,-2.444168,-3.367502,-3.411591,-31.664776,28.012304,63.146877,0.90004116,1.6519969,-2.5909595
4,3.6358931064605713,1.6461809873580933,77.063232421875,0.5115309114446981,2.6626208237274205,-161.95842812220596,8.842989,-0.9123768,26.007586,44.909348,-8.331537,-15.000033,-8.467865,-4.7152786,-49.39907,19.012579,-17.977556,-9.688783,-10.139814,4.665485,6.979893,-15.391764,24.082865,-53.779774,48.333176,14.860993,-2.4494412,-3.2957904,-3.2267406,-31.44664,27.704313,62.800076,0.8703769,1.6617227,-2.7083063
5,3.9180028438568115,1.9547337293624878,76.99949645996094,0.45583133576506435,2.598026842027499,-161.73080818192392,9.12527,-1.0724515,25.341915,43.689926,-8.460265,-15.000033,-8.677001,-4.5327215,-49.630554,19.021944,-17.886213,-10.033352,-10.18777,4.515583,7.0653043,-15.656019,24.18849,-53.855762,48.369766,14.832385,-2.455543,-3.192305,-3.0403953,-31.208406,27.383593,62.45403,0.8229301,1.6469554,-2.7975698
6,4.201672077178955,2.2776830196380615,76.93376159667969,0.40007195689137787,2.5163420735477673,-161.54049114254582,9.338834,-1.2808197,24.470335,42.49835,-8.6568165,-15.000033,-8.884686,-4.3489227,-49.826195,19.038992,-17.785341,-10.38566,-10.18012,4.354874,7.1861978,-15.936939,24.292597,-53.91572,48.42684,14.785776,-2.461145,-3.0646658,-3.0231616,-30.96936,27.244167,62.246666,0.9659875,1.6140124,-2.8698997
7,4.49582052230835,2.586491107940674,76.86798095703125,0.30455009787072657,2.415068216421038,-161.3943818540766,9.499833,-1.4270583,23.476213,41.44033,-8.935544,-15.000033,-9.064432,-4.0839524,-49.99647,18.984936,-17.625725,-10.745763,-10.1668215,4.2280483,7.3269587,-16.181261,24.39551,-53.901714,48.500668,14.73501,-2.466653,-2.9347038,-2.9175706,-30.721626,27.02191,61.94948,0.98026264,1.5787361,-2.9156384
8,4.792530059814453,2.9042391777038574,76.80032348632812,0.1313401794360282,2.2923232848681074,-161.29811147962633,9.614843,-1.4055438,22.448792,40.62587,-9.312755,-15.000033,-9.1889,-3.6576378,-50.152157,18.773533,-17.355604,-11.113448,-10.099079,4.1635795,7.5131555,-16.437988,24.496784,-53.8625,48.598083,14.6735935,-2.4687533,-2.8191488,-2.9212909,-30.485891,26.953669,61.71551,1.0985565,1.5498388,-2.9359844
9,5.093263626098633,3.2313857078552246,76.7269515991211,-0.14865397675894823,2.1361201413470643,-161.264307186376,9.651509,-1.1698554,21.335371,40.16894,-9.8259735,-15.000033,-9.21966,-2.9962642,-50.29128,18.318005,-16.936728,-11.490145,-9.999491,4.193461,7.7468233,-16.668419,24.597033,-53.751114,48.717014,14.610419,-2.4721968,-2.7206554,-2.8796856,-30.257118,26.885193,61.418465,1.1854208,1.5269336,-2.9123628
10,5.405036926269531,3.5660200119018555,76.64569091796875,-0.5046616943967404,1.9553185528736228,-161.2791258996488,9.592911,-0.7817354,20.128233,40.01351,-10.456785,-15.000033,-9.183021,-2.1613276,-50.413017,17.67236,-16.399084,-11.874968,-9.839215,4.2852607,8.0316305,-16.914581,24.695337,-53.61382,48.86056,14.535041,-2.4753482,-2.628558,-2.9886115,-30.052233,27.0265,61.22504,1.4750974,1.5025401,-2.8555136
11,5.72291374206543,3.9029266834259033,76.5619888305664,-0.8863389592590006,1.7767477126296785,-161.3117131156174,9.474317,-0.3057066,18.97909,40.001648,-11.150223,-15.000033,-9.149193,-1.2788663,-50.528423,16.978405,-15.792359,-12.262645,-9.686144,4.4052944,8.322446,-17.139027,24.793102,-53.418114,49.012077,14.460713,-2.4723084,-2.5494356,-3.089257,-29.862299,27.185495,60.984985,1.6683019,1.491989,-2.786867
12,6.077855587005615,4.212888717651367,76.48802947998047,-0.9861592415358948,1.7567816937604994,-161.20560803387883,9.234991,-0.20916651,18.205349,39.716743,-11.6795845,-13.163271,-9.606819,-1.1927189,-50.67138,17.30649,-15.575301,-12.596516,-9.663739,4.2995243,8.435315,-17.359509,24.88964,-53.191994,49.16346,14.387431,-2.454873,-2.4849823,-3.2438025,-29.694157,27.407288,60.735718,1.7356931,1.5042913,-2.7358804
13,6.451846599578857,4.507995128631592,76.41393280029297,-1.0721407538149939,1.7498590499762037,-161.1015370034112,9.003149,-0.109659426,17.639648,39.370193,-12.219149,-11.131407,-10.129596,-1.1875455,-50.807243,17.760128,-15.356657,-12.927938,-9.65028,4.1896834,8.548727,-17.572683,24.984722,-52.923435,49.30764,14.325974,-2.4141197,-2.4497783,-3.4345624,-29.549368,27.686724,60.463394,1.6148517,1.5502816,-2.7081265
14,6.839466094970703,4.80600643157959,76.34648132324219,-1.1843884775319402,1.7370175946451594,-161.02201765819976,8.767854,0.04861926,17.166668,39.047676,-12.816917,-9.261916,-10.654241,-1.1494495,-50.932713,18.19611,-15.07887,-13.262874,-9.624142,4.10619,8.684992,-17.783207,25.078966,-52.616493,49.452847,14.266766,-2.3563786,-2.4375973,-3.6704586,-29.429365,28.041826,60.181232,1.3829273,1.621565,-2.6888838
15,7.235597133636475,5.1103515625,76.2762451171875,-1.308613783109514,1.729044072298428,-160.9711481157246,8.557888,0.22451669,16.792307,38.678253,-13.491436,-7.633069,-11.197629,-1.098232,-51.051907,18.632668,-14.748398,-13.601977,-9.592964,4.034942,8.82696,-17.977585,25.17409,-52.27698,49.60356,14.202667,-2.297385,-2.4257193,-3.9248054,-29.33047,28.41669,59.85868,1.065887,1.7025623,-2.6697237
16,7.642293930053711,5.41307258605957,76.20565032958984,-1.4307086944748406,1.7366686281818633,-160.95320610624128,8.404694,0.37782308,16.522621,38.19004,-14.255445,-6.3248334,-11.777444,-1.0554812,-51.1689,19.090675,-14.373099,-13.945404,-9.554292,3.9599807,8.961068,-18.155518,25.272444,-51.926014,49.766914,14.1197605,-2.2526982,-2.3909283,-4.2129693,-29.2507,28.802954,59.49895,0.7449598,1.7766409,-2.643823
17,8.062058448791504,5.721368789672852,76.13545989990234,-1.5673736768846278,1.7637476592329828,-160.9670569606768,8.344146,0.5145875,16.354355,37.523533,-15.142704,-5.483053,-12.390141,-0.9952839,-51.29796,19.544062,-13.943667,-14.299988,-9.510349,3.8975348,9.08245,-18.313303,25.375341,-51.55967,49.942467,14.013316,-2.2245815,-2.3305144,-4.5244584,-29.1896,29.190786,59.08441,0.38463557,1.8482429,-2.5910969
18,8.492396354675293,6.020451545715332,76.06232452392578,-1.7200768838389744,1.8031062856716014,-161.00900076023453,8.361822,0.6514574,16.287636,36.70745,-16.11968,-5.036957,-13.029102,-0.9199529,-51.436356,19.996305,-13.461116,-14.6610155,-9.456331,3.849733,9.201296,-18.461763,25.478971,-51.181534,50.13144,13.886677,-2.2053025,-2.255137,-4.8643413,-29.14997,29.596588,58.625893,-0.021975417,1.9226582,-2.5209143
19,8.931266784667969,6.318869590759277,76.00025177001953,-1.8389578790918137,1.8282072951098882,-161.04829650887496,8.44201,0.74308115,16.30742,35.784653,-17.086071,-4.7285867,-13.685212,-0.93473226,-51.584583,20.549463,-12.970364,-15.000033,-9.440626,3.7651873,9.341262,-18.581429,25.593697,-50.777367,50.31973,13.754023,-2.195416,-2.1640372,-5.2250385,-29.12188,29.992397,58.12968,-0.44110727,1.9864007,-2.4710033
20,9.379505157470703,6.621916770935059,75.94538116455078,-1.8988335634418267,1.8580495118781466,-161.12473560257553,8.509172,0.7798888,16.455383,34.845554,-17.977806,-4.306417,-14.365714,-1.0653974,-51.68953,21.196865,-12.448613,-15.000033,-9.409996,3.6197965,9.480227,-18.681072,25.716248,-50.368725,50.514538,13.621611,-2.1954265,-2.0549402,-5.589389,-29.100098,30.339033,57.60015,-0.8213261,2.0259361,-2.4790838
21,9.841814041137695,6.919539928436279,75.89879608154297,-1.8925137958347258,1.8947990157348817,-161.24673447315325,8.543799,0.7675659,16.773993,33.9388,-18.813509,-3.6996768,-15.0892105,-1.2769656,-51.735813,21.897676,-11.87936,-15.000033,-9.357917,3.402767,9.615234,-18.7634,25.842035,-49.95281,50.723217,13.496211,-2.20942,-1.9255697,-5.9592423,-29.082537,30.629688,57.03394,-1.1750137,2.0362363,-2.5507028
22,10.306239128112793,7.224695205688477,75.85929870605469,-1.8383449853333635,1.9400996005647173,-161.41006605819533,8.578019,0.7128394,17.245825,33.013462,-19.623285,-3.0477085,-15.851665,-1.5447448,-51.734753,22.633812,-11.257469,-15.000033,-9.298222,3.1326065,9.746701,-18.813751,25.982948,-49.51313,50.930172,13.374609,-2.2357545,-1.778552,-6.3450546,-29.06611,30.885502,56.433388,-1.5260288,2.0254352,-2.6685271
23,10.778964042663574,7.528238773345947,75.83061981201172,-1.738468968215517,1.9924267323526923,-161.60648193607986,8.625417,0.5948655,17.791805,32.013245,-20.35881,-2.405561,-16.657364,-1.8705513,-51.6807,23.4163,-10.584544,-15.000033,-9.227983,2.811036,9.878505,-18.849298,26.13468,-49.08383,51.144398,13.236439,-2.2663834,-1.6167855,-6.739913,-29.048332,31.101841,55.817284,-1.8302394,1.9998724,-2.835733
24,11.259511947631836,7.836953639984131,75.81083679199219,-1.5953234311998028,2.0504152179405626,-161.8275574503587,8.699374,0.39444512,18.333992,30.879622,-20.968035,-1.8273615,-17.510237,-2.254328,-51.568634,24.253693,-9.860611,-15.000033,-9.156162,2.4417546,10.014182,-18.869463,26.299023,-48.678017,51.362232,13.070819,-2.2936127,-1.4440699,-7.128297,-29.021328,31.267162,55.195496,-2.0623472,1.9658984,-3.0558686
25,11.753169059753418,8.143647193908691,75.79828643798828,-1.397002861702825,2.1109324112246184,-162.0692815948528,8.82177,0.08790165,18.87585,29.561365,-21.424784,-1.3275735,-18.391283,-2.7159426,-51.46576,25.14911,-9.112602,-15.000033,-9.084439,2.006607,10.15776,-18.880238,26.478386,-48.300026,51.589157,12.8701,-2.3180063,-1.2463827,-7.523432,-28.979893,31.380985,54.573006,-2.2069187,1.9256772,-3.3517063
26,12.255768775939941,8.455153465270996,75.7944564819336,-1.1479446047691064,2.1765161933335215,-162.3362462909827,8.985429,-0.31073076,19.452667,28.087994,-21.752491,-0.87695676,-19.302505,-3.2427502,-51.35071,26.08714,-8.326042,-15.000033,-9.010935,1.5099592,10.30555,-18.877779,26.67395,-47.941505,51.824062,12.64083,-2.3432338,-1.0269591,-7.9255915,-28.922134,31.442492,53.9458,-2.2901304,1.8751223,-3.7148914
27,12.769775390625,8.765304565429688,75.80240631103516,-0.8769439315819929,2.2544296761114557,-162.63311713336506,9.157904,-0.7610598,20.035992,26.524654,-21.97303,-0.46380633,-20.278187,-3.7751064,-51.088734,27.035698,-7.43263,-15.000033,-8.930538,0.9882765,10.450416,-18.854328,26.884642,-47.605095,52.056347,12.392218,-2.3651333,-0.81519985,-8.340926,-28.849047,31.4806,53.34478,-2.3027775,1.8097079,-4.1026936
28,13.289504051208496,9.073246002197266,75.80982208251953,-0.6132934912415109,2.352418140520214,-162.9661232817278,9.301913,-1.2182758,20.598715,24.945248,-22.112534,-0.07618955,-21.354973,-4.2464595,-50.550762,27.959402,-6.3642282,-15.000033,-8.838153,0.4793381,10.584084,-18.802456,27.107653,-47.292435,52.27784,12.133171,-2.3794584,-0.6403382,-8.772927,-28.763044,31.521748,52.79852,-2.239501,1.7247705,-4.472245
29,13.816137313842773,9.378070831298828,75.82334899902344,-0.3470948235076548,2.4678454745430223,-163.3192460447795,9.423069,-1.7004949,21.109394,23.325123,-22.148191,0.298169,-22.555515,-4.7000422,-49.76251,28.951145,-5.150342,-15.000033,-8.753845,-0.025584556,10.711458,-18.720306,27.340834,-46.9913,52.4873,11.852277,-2.3824675,-0.5022472,-9.212089,-28.663074,31.549881,52.29868,-2.0667906,1.6018358,-4.832531
30,14.346951484680176,9.676883697509766,75.83495330810547,-0.07595330238132346,2.600464766027594,-163.69699772285412,9.536672,-2.2159767,21.594467,21.634924,-22.076014,0.64809436,-23.853273,-5.119005,-48.785503,29.967094,-3.800314,-15.000033,-8.670974,-0.5331203,10.833544,-18.61484,27.583694,-46.706726,52.69238,11.5474415,-2.3772573,-0.38774464,-9.667391,-28.549326,31.565697,51.84198,-1.7922328,1.447559,-5.199095
31,14.884037971496582,9.98637866973877,75.85331726074219,0.15976047148795294,2.7549320183921733,-164.1304080174942,9.610032,-2.6955538,22.10953,19.975904,-21.957989,0.95443565,-25.193605,-5.3484006,-47.57294,30.775219,-2.2455194,-15.000033,-8.555684,-1.0012121,10.941013,-18.482143,27.83464,-46.455875,52.893353,11.24863,-2.3696089,-0.3065487,-10.133546,-28.424202,31.588346,51.433662,-1.5067192,1.2968324,-5.538392
32,15.412518501281738,10.280957221984863,75.87116241455078,0.3792178941961272,2.821208680976256,-164.47468161858507,9.810642,-3.1828544,22.533897,18.252592,-21.758354,1.2323143,-26.449408,-5.4904823,-45.928238,31.448505,-0.60773385,-13.936892,-8.542655,-1.4463414,11.128001,-18.327099,28.08888,-46.263897,53.093525,10.974686,-2.3645318,-0.26653236,-10.622655,-28.295313,31.649397,51.091167,-1.2898731,1.1847552,-5.817362
33,15.937704086303711,10.56052303314209,75.89605712890625,0.534008730022501,2.8577410500964198,-164.8285336728706,10.041444,-3.5939558,22.964403,16.554237,-21.531448,1.4671495,-27.726145,-5.3227744,-43.565975,31.858482,1.1970091,-11.437597,-8.536583,-1.8138839,11.345837,-18.148054,28.343391,-46.124577,53.292892,10.721518,-2.3594732,-0.270197,-11.133942,-28.16539,31.743011,50.807327,-1.1705933,1.1230737,-6.0357857
34,16.46014976501465,10.832745552062988,75.91995239257812,0.633938737273641,2.8757870932745564,-165.19869989201783,10.273721,-3.9309897,23.39663,14.898335,-21.273537,1.66695,-29.017334,-4.84246,-40.65855,32.06846,3.0387318,-8.120444,-8.53351,-2.1160808,11.58682,-17.950785,28.596678,-46.034985,53.496307,10.477088,-2.3527534,-0.312241,-11.6667,-28.035482,31.86224,50.578793,-1.0960124,1.093109,-6.2084665
35,16.972238540649414,11.105985641479492,75.93501281738281,0.6997117281275226,2.8721302640947495,-165.57562226569385,10.495367,-4.209576,23.826475,13.336474,-21.000048,1.8441032,-30.18215,-4.1440578,-37.525627,32.10086,4.6965666,-4.2446766,-8.528255,-2.3742375,11.836369,-17.734053,28.847008,-46.006744,53.707893,10.273042,-2.351833,-0.3918845,-12.190424,-27.90548,32.006817,50.393887,-1.0479233,1.0871403,-6.3248324
36,17.46379280090332,11.381426811218262,75.95387268066406,0.7579028678920042,2.8430249032331414,-165.94750943816248,10.702319,-4.457666,24.247448,11.905009,-20.71906,2.0104175,-31.09593,-3.377197,-34.498596,31.987177,6.025633,-0.1156863,-8.516134,-2.6155372,12.080866,-17.498453,29.091993,-46.052536,53.932487,10.141901,-2.36432,-0.50817776,-12.684845,-27.774797,32.185173,50.249203,-0.9962812,1.0969288,-6.3745847
37,17.944652557373047,11.655282974243164,75.96458435058594,0.8348345943620764,2.7717370972418376,-166.29956457799182,10.932612,-4.7157497,24.647015,10.560264,-20.414583,2.1799417,-31.713081,-2.4681005,-31.390247,31.509348,7.2076607,4.794069,-8.509175,-2.867698,12.325671,-17.24965,29.33179,-46.191753,54.1767,10.084548,-2.4023697,-0.6728059,-13.142687,-27.642542,32.389027,50.13446,-0.9434413,1.1396126,-6.331822
38,18.40371322631836,11.922462463378906,75.96763610839844,0.9166502859927206,2.6644305356901996,-166.6422782469516,11.181834,-4.9660244,25.031845,9.287738,-20.081032,2.3466692,-32.091682,-1.4400252,-28.13937,30.811832,8.14311,10.40069,-8.502676,-3.1160717,12.575482,-16.991158,29.565575,-46.416767,54.439697,10.085614,-2.458675,-0.88191146,-13.580175,-27.50892,32.62144,50.05885,-0.8944971,1.2130632,-6.21011
39,18.84697914123535,12.192354202270508,75.98611450195312,0.9711581786333876,2.5563892437630185,-167.00889259879685,11.369301,-5.145909,25.433388,8.184186,-19.750145,2.4884043,-32.309288,-0.6325434,-25.414904,30.40049,8.535879,15.000033,-8.465391,-3.3279166,12.810272,-16.718163,29.788742,-46.696724,54.71861,10.152013,-2.5122042,-1.1115218,-13.993627,-27.373854,32.890568,50.03515,-0.84811616,1.2807084,-6.058035
40,19.298906326293945,12.515801429748535,76.02586364746094,0.8552575121757339,2.582936567055635,-167.72018195876333,11.017924,-4.8737645,26.198912,8.0761385,-19.837181,2.5011258,-32.38164,-0.12881663,-24.459368,30.25344,8.620442,15.000033,-8.081019,-3.3839045,12.928795,-16.442915,30.00347,-47.0244,55.028038,10.281952,-2.5449953,-1.3389142,-14.391683,-27.23112,33.223263,50.087048,-0.77268976,1.3073188,-5.9281726
41,19.736181259155273,12.79409122467041,76.08782196044922,0.7994817342789446,2.5550733630213767,-168.23883291775863,10.697622,-4.679664,26.744583,8.0237055,-19.836359,2.5472984,-32.608887,-0.48821837,-23.857338,31.400211,7.832122,15.000033,-7.876056,-3.4651484,13.079527,-16.159365,30.19803,-47.398952,55.359753,10.478895,-2.5533614,-1.5581828,-14.805069,-27.091463,33.62915,50.23434,-0.6717952,1.275915,-5.816657
42,20.16022300720215,13.022199630737305,76.15660095214844,0.8015029997748958,2.4842591445921323,-168.62221853372228,10.428863,-4.570344,27.12995,7.958587,-19.729288,2.6211157,-32.874588,-1.4701301,-23.498602,33.32715,6.4521046,15.000033,-7.792421,-3.5739737,13.24741,-15.871711,30.366825,-47.827034,55.720486,10.745773,-2.5477397,-1.7817674,-15.220955,-26.958158,34.098587,50.45804,-0.5459458,1.2086239,-5.701081
43,20.563695907592773,13.249728202819824,76.24027252197266,0.8333056462960535,2.388794075472457,-168.94440095139637,10.202665,-4.504459,27.442383,7.871755,-19.539555,2.6976907,-33.038193,-2.7872443,-23.348427,35.493084,4.8081307,15.000033,-7.753972,-3.6887848,13.414398,-15.572342,30.504799,-48.266052,56.100273,11.069691,-2.5206733,-2.0095665,-15.615386,-26.828913,34.622093,50.753254,-0.4161805,1.1216036,-5.5949783
44,20.950916290283203,13.482892990112305,76.33472442626953,0.8411239593215991,2.3034262711260856,-169.31842256962835,9.973543,-4.3920054,27.808977,7.806034,-19.320469,2.7402031,-32.98524,-4.125726,-23.448568,37.389366,3.2427433,14.831776,-7.647473,-3.765297,13.550785,-15.244037,30.608404,-48.661198,56.48403,11.449972,-2.4648564,-2.2410047,-15.9774885,-26.697113,35.20343,51.125877,-0.29116648,1.0302535,-5.5135775
45,21.33863639831543,13.731145858764648,76.43559265136719,0.783643804095283,2.2636993507669843,-169.82971096063045,9.692781,-4.1573157,28.318762,7.7996325,-19.074034,2.7184374,-32.649864,-5.493151,-24.205215,38.909508,1.8149842,13.637366,-7.3947296,-3.7708101,13.626752,-14.889716,30.67783,-49.033104,56.890854,11.906827,-2.3833213,-2.4755688,-16.311596,-26.557081,35.868362,51.59718,-0.1540905,0.9194182,-5.4903135
46,21.71282386779785,13.985559463500977,76.54458618164062,0.715961107278725,2.2243765514162535,-170.3553025104448,9.421984,-3.8960211,28.839403,7.801786,-18.768137,2.6721885,-32.102997,-7.060148,-25.297516,40.377224,0.27670798,12.35545,-7.1161675,-3.7496452,13.676267,-14.511528,30.711298,-49.394398,57.322266,12.437277,-2.2788908,-2.7142718,-16.625845,-26.407625,36.60899,52.165337,-0.0102758035,0.78659993,-5.5073175
47,22.071035385131836,14.234770774841309,76.65739440917969,0.6410892092071078,2.1780638140343624,-170.88549827461708,9.169999,-3.6165025,29.359564,7.8090105,-18.436192,2.6123915,-31.431019,-8.652259,-26.38249,41.75474,-1.3170604,11.0303755,-6.820354,-3.7049663,13.706053,-14.099315,30.707426,-49.691162,57.746017,12.996143,-2.1456065,-2.958495,-16.917192,-26.246666,37.384563,52.805885,0.1046791,0.6671014,-5.506056
48,22.430673599243164,14.48018741607666,76.76887512207031,0.5621624848762126,2.118441201278313,-171.41156648296794,8.945311,-3.3282828,29.868895,7.814384,-18.109722,2.550315,-30.741915,-10.088435,-27.119322,43.004368,-2.887414,9.694421,-6.517938,-3.6394374,13.721991,-13.646422,30.667381,-49.87865,58.131294,13.5259495,-1.9775218,-3.2090626,-17.18191,-26.07243,38.155487,53.49426,0.15255347,0.59609085,-5.428431
49,22.776336669921875,14.72586727142334,76.88139343261719,0.4727791627896611,2.0383310509412436,-171.939686034674,8.756435,-3.0255916,30.370636,7.8191404,-17.79299,2.4906602,-30.076002,-11.314539,-27.402718,44.146587,-4.441224,8.244224,-6.2027855,-3.5457,13.72906,-13.1345,30.58945,-49.932068,58.468616,14.0539255,-1.7582453,-3.4673865,-17.420113,-25.884926,38.94119,54.259132,0.12878217,0.56997824,-5.272482
50,23.11005210876465,14.968945503234863,76.99433898925781,0.3729508954721308,1.9437637400684606,-172.47260557800993,8.595078,-2.7042437,30.870073,7.827296,-17.470896,2.4280546,-29.391241,-12.4151535,-27.421103,45.199917,-5.999787,6.6946025,-5.8755803,-3.423564,13.720501,-12.569147,30.473444,-49.87873,58.77329,14.594739,-1.496575,-3.7337,-17.630102,-25.684702,39.753563,55.103596,0.045666795,0.57372224,-5.064801
51,23.443824768066406,15.209399223327637,77.1067886352539,0.2743761173093998,1.8485609044190359,-172.99728517174893,8.409437,-2.3568985,31.35989,7.9210205,-17.190836,2.3540504,-28.68239,-13.421718,-27.281986,46.129246,-7.488527,5.2426133,-5.5503993,-3.2882624,13.686838,-11.973321,30.3244,-49.74067,59.042324,15.086856,-1.2227112,-4.0063767,-17.819746,-25.473122,40.557667,55.973038,-0.083686054,0.6251916,-4.7900233
52,23.76520538330078,15.456623077392578,77.21349334716797,0.18992208100965427,1.7671208543076773,-173.50116968296246,8.189623,-2.003068,31.831945,8.077503,-16.945494,2.2636127,-27.93998,-14.3748665,-27.09918,46.901855,-8.833317,4.0869145,-5.240177,-3.15614,13.620111,-11.361447,30.150814,-49.526875,59.26419,15.48017,-0.96588135,-4.283439,-17.978354,-25.25123,41.293533,56.79696,-0.2711741,0.7423447,-4.431827
53,24.077587127685547,15.700833320617676,77.3175048828125,0.11840144384053389,1.7010831917278726,-173.9829871248099,7.9993105,-1.685705,32.285835,8.132193,-16.643139,2.149118,-27.152163,-15.274493,-26.89087,47.505737,-10.000444,3.299095,-4.9456973,-3.0256562,13.519179,-10.72489,29.956785,-49.217068,59.423325,15.770335,-0.71141094,-4.568999,-18.108925,-25.021444,41.962254,57.578377,-0.54279375,0.9493547,-3.9532185
54,24.381736755371094,15.93660831451416,77.41436004638672,0.054311641782839724,1.6440664792782134,-174.44947466364675,7.8337016,-1.391929,32.724945,8.116306,-16.299982,2.016975,-26.327341,-16.108915,-26.615568,47.969307,-11.02287,2.758397,-4.660867,-2.8910437,13.390226,-10.054279,29.743174,-48.807674,59.516243,15.984284,-0.44969562,-4.862547,-18.208183,-24.785364,42.58224,58.33934,-0.8946535,1.2277677,-3.372013
55,24.68660545349121,16.177019119262695,77.5091323852539,0.0024210312730129947,1.5983894096421545,-174.90037947161397,7.670226,-1.1135318,33.14659,8.077492,-15.952138,1.8824195,-25.47843,-16.904129,-26.304935,48.311703,-11.927313,2.3766217,-4.3855705,-2.762826,13.237204,-9.3793745,29.51733,-48.358356,59.558933,16.094004,-0.21694154,-5.1527777,-18.279991,-24.54498,43.143646,59.053383,-1.2650498,1.5321785,-2.755049
56,24.987627029418945,16.434831619262695,77.59918212890625,-0.03226462276747246,1.5665803848012962,-175.3352724221362,7.491078,-0.84626126,33.54422,8.050794,-15.631088,1.7638063,-24.619854,-17.681366,-25.983023,48.54897,-12.738098,2.0695465,-4.1163983,-2.6520054,13.064843,-8.731211,29.29106,-47.933098,59.56695,16.06949,-0.048869826,-5.428453,-18.326387,-24.303701,43.632095,59.69173,-1.5914884,1.8190206,-2.1699367
57,25.27654457092285,16.684171676635742,77.68121337890625,-0.049087048239002125,1.5521951478199125,-175.754766257204,7.298949,-0.59351146,33.9169,8.025895,-15.340772,1.6606206,-23.748392,-18.440296,-25.655308,48.67934,-13.443014,1.8434063,-3.8494794,-2.559636,12.869591,-8.1036625,29.073282,-47.526802,59.52815,15.860275,0.051681053,-5.6961727,-18.332708,-24.06304,44.020493,60.23859,-1.8887472,2.1005013,-1.6039376
58,25.558269500732422,16.945209503173828,77.75468444824219,-0.050957782631268676,1.55329424258045,-176.15896725154454,7.103447,-0.35805744,34.267647,7.982609,-15.061918,1.5649756,-22.855885,-19.171234,-25.31526,48.699577,-14.03279,1.7295675,-3.5845728,-2.4821274,12.65361,-7.482402,28.86793,-47.11435,59.427876,15.493281,0.10407097,-5.9590893,-18.307936,-23.82544,44.329014,60.709274,-2.1706653,2.3921905,-1.031158
59,25.846975326538086,17.203035354614258,77.82366943359375,-0.03878596875814288,1.564458444384478,-176.54635706140138,6.8881116,-0.12451648,34.598152,7.969057,-14.80595,1.4808463,-21.948662,-19.881666,-24.96935,48.626686,-14.542683,1.6812155,-3.3264685,-2.4210112,12.430154,-6.8807173,28.679922,-46.723797,59.276722,15.05668,0.10516135,-6.2010765,-18.26272,-23.593231,44.57304,61.10201,-2.4143088,2.659779,-0.5001115
60,26.127300262451172,17.470361709594727,77.88624572753906,-0.013510479431505507,1.5801372402435014,-176.91541818759558,6.6356635,0.12311866,34.90979,8.035501,-14.585146,1.4125351,-21.03483,-20.579386,-24.622452,48.478058,-15.00844,1.6523025,-3.0763416,-2.3782184,12.212728,-6.314888,28.513842,-46.387943,59.087833,14.637928,0.050634295,-6.4064307,-18.210838,-23.369493,44.77434,61.416573,-2.5848432,2.869738,-0.05996201
61,26.408863067626953,17.74061393737793,77.94294738769531,0.025869361781084548,1.601746927910249,-177.26169272994838,6.3398366,0.387459,35.194786,8.1912985,-14.400131,1.370788,-20.111704,-21.263062,-24.266554,48.245533,-15.427129,1.6457591,-2.8372,-2.353976,12.002415,-5.7827487,28.373514,-46.109673,58.85146,14.22497,-0.078035355,-6.5787206,-18.149652,-23.156565,44.92024,61.638588,-2.65369,3.0200033,0.28593493
62,26.69321060180664,18.016178131103516,77.99036407470703,0.07902824226495582,1.6317795363830023,-177.5870875604468,6.007568,0.6634401,35.454727,8.4185705,-14.249759,1.3498174,-19.174908,-21.929974,-23.904392,47.92878,-15.786339,1.6784167,-2.6063912,-2.3475847,11.79389,-5.275193,28.261429,-45.874107,58.560562,13.7817,-0.2729,-6.725696,-18.072723,-22.955982,45.003304,61.76862,-2.6449094,3.1282775,0.5599559
63,26.97237777709961,18.30628204345703,78.02978515625,0.14267666241143917,1.6656603092390594,-177.8996960973691,5.651925,0.9497596,35.704906,8.699672,-14.128228,1.3296014,-18.228817,-22.584303,-23.557201,47.552322,-16.105692,1.7262131,-2.3778098,-2.3576233,11.591304,-4.8003545,28.17922,-45.689472,58.234703,13.35813,-0.49987227,-6.836764,-17.987026,-22.768465,45.053505,61.827354,-2.6019323,3.1905015,0.7512086
64,27.25667953491211,18.596004486083984,78.06708526611328,0.21286900712997212,1.6985603312366173,-178.20741313338488,5.2852197,1.2463363,35.96032,9.018879,-14.031414,1.2905655,-17.276163,-23.227942,-23.24678,47.135094,-16.401207,1.766096,-2.1462188,-2.3815494,11.398251,-4.3677897,28.127337,-45.56506,57.895267,13.002546,-0.7251387,-6.9002895,-17.898277,-22.593418,45.097725,61.836643,-2.5730698,3.2022266,0.84904873
65,27.54121971130371,18.892587661743164,78.09078979492188,0.28276544229494366,1.7282125563769855,-178.508980893559,4.908606,1.5623032,36.225433,9.382509,-13.969659,1.2210716,-16.312439,-23.853167,-22.968405,46.677246,-16.677763,1.7907838,-1.9129215,-2.4144268,11.215082,-3.9797149,28.106993,-45.503468,57.535435,12.740568,-0.9488419,-6.921389,-17.811867,-22.431469,45.144108,61.79838,-2.5607047,3.1474185,0.8427765
66,27.825376510620117,19.196813583374023,78.10408782958984,0.3554994764920688,1.757735954364495,-178.8011013153368,4.5157523,1.896411,36.491848,9.796998,-13.942557,1.1355048,-15.336534,-24.460354,-22.714811,46.170635,-16.926794,1.812434,-1.6811924,-2.4577045,11.040436,-3.6301868,28.119022,-45.499146,57.147118,12.542012,-1.1867629,-6.90328,-17.71715,-22.281345,45.169388,61.696953,-2.5521777,3.0337346,0.7408651
67,28.1129150390625,19.5058536529541,78.12015533447266,0.4419331781487532,1.7900931332871253,-179.0893972867975,4.110424,2.2318044,36.754616,10.24104,-13.924733,1.046512,-14.360552,-25.063313,-22.501394,45.62604,-17.146727,1.8386631,-1.4462199,-2.521332,10.874013,-3.3159578,28.161547,-45.548683,56.752056,12.374566,-1.4285322,-6.830363,-17.623419,-22.142542,45.191597,61.552254,-2.5357738,2.890242,0.56081843
68,28.411489486694336,19.82074737548828,78.12432861328125,0.553147207455526,1.8286750744532134,-179.3794513908919,3.6972466,2.550195,37.01006,10.690042,-13.889145,0.9677292,-13.396676,-25.67734,-22.34363,45.05447,-17.335892,1.8778495,-1.204929,-2.6147206,10.715373,-3.033736,28.23035,-45.64681,56.37329,12.207207,-1.6639661,-6.6869884,-17.537302,-22.013105,45.226265,61.382046,-2.5020697,2.7461073,0.31993476
69,28.698396682739258,20.147178649902344,78.1250228881836,0.6971970428307923,1.873572009974983,-179.67762486483974,3.2739506,2.8472097,37.260918,11.153661,-13.83345,0.90392447,-12.441372,-26.318096,-22.255882,44.456104,-17.513594,1.919457,-0.9533289,-2.7470217,10.564208,-2.7854857,28.323921,-45.814068,56.01173,12.018617,-1.9014052,-6.445411,-17.45245,-21.88969,45.263477,61.177155,-2.451118,2.5964441,-0.01095165
70,28.986892700195312,20.480777740478516,78.12112426757812,0.866827166872109,1.9237340625163355,-179.9795253444746,2.8410206,3.1306982,37.50871,11.635303,-13.766886,0.8475573,-11.491108,-26.974295,-22.22568,43.827896,-17.674395,1.9650259,-0.6938281,-2.911611,10.420337,-2.5751762,28.441242,-46.047657,55.66147,11.830801,-2.143461,-6.121552,-17.37005,-21.770994,45.301384,60.936935,-2.3859391,2.4292355,-0.42986584
71,29.287212371826172,20.8102970123291,78.11483001708984,1.0481846636186818,1.9803437567525295,179.72561956013874,2.397551,3.409787,37.745876,12.123944,-13.697346,0.79326546,-10.558175,-27.612522,-22.229342,43.172832,-17.778946,2.0395513,-0.43487716,-3.0915363,10.283377,-2.4006562,28.577347,-46.304623,55.337173,11.677196,-2.3712196,-5.7643137,-17.300343,-21.657883,45.353928,60.68727,-2.3188975,2.263908,-0.872911
72,29.587326049804688,21.1494083404541,78.09989166259766,1.2290705641775772,2.0448038336808834,179.44863703670478,1.9344836,3.698435,37.964607,12.630583,-13.638849,0.7358636,-9.654738,-28.203808,-22.241295,42.497986,-17.790249,2.1663945,-0.18694814,-3.2699783,10.152309,-2.2550476,28.724495,-46.53411,55.05171,11.59643,-2.5649438,-5.4224324,-17.244318,-21.55085,45.42272,60.446503,-2.276227,2.1209857,-1.2760996
73,29.887638092041016,21.488887786865234,78.08114624023438,1.4082970311190537,2.1193229722789244,179.19351604709684,1.4479821,3.9953454,38.15981,13.153927,-13.598627,0.6765378,-8.7740345,-28.753038,-22.280092,41.803097,-17.688416,2.3577554,0.0458483,-3.4441707,10.022805,-2.1443849,28.878141,-46.74326,54.813793,11.621648,-2.7186935,-5.0830894,-17.208788,-21.450989,45.52614,60.222607,-2.2509522,2.002062,-1.6494668
74,30.185361862182617,21.836172103881836,78.06297302246094,1.5920360808871796,2.202580236353139,178.95406852744713,0.9394316,4.2969127,38.33628,13.698985,-13.572202,0.61749446,-7.911797,-29.271183,-22.348047,41.08671,-17.498041,2.597637,0.2681746,-3.6212072,9.8957815,-2.0701246,29.036211,-46.94878,54.62005,11.727689,-2.8423529,-4.727748,-17.188591,-21.35774,45.654823,60.003113,-2.237293,1.8981224,-2.0182524
75,30.50350570678711,22.17911720275879,78.03455352783203,1.7777609391738944,2.2900073401149426,178.725194558031,0.42090386,4.6046643,38.502117,14.2525835,-13.540663,0.55501443,-7.084372,-29.73912,-22.393364,40.353943,-17.249752,2.8654304,0.48429886,-3.7987175,9.777676,-2.028029,29.195402,-47.126,54.47396,11.854364,-2.9402854,-4.3954477,-17.182056,-21.269981,45.791004,59.78851,-2.2390726,1.8129181,-2.3418155
76,30.819229125976562,22.532997131347656,78.00696563720703,1.96263753207428,2.377039667167095,178.50199292310094,-0.09931804,4.9234467,38.664715,14.810749,-13.489479,0.48528716,-6.307555,-30.137842,-22.364473,39.60635,-16.972923,3.1400282,0.6974523,-3.9739926,9.674794,-2.010365,29.352034,-47.245533,54.37705,11.944593,-3.0177836,-4.1258535,-17.192991,-21.186413,45.924114,59.583385,-2.253043,1.7500242,-2.5795274
77,31.135395050048828,22.896799087524414,77.9798583984375,2.150275740565606,2.4658336292779195,178.2832621918191,-0.62016183,5.2473273,38.827576,15.366357,-13.409598,0.40665743,-5.5904026,-30.469465,-22.24054,38.84878,-16.66666,3.4139767,0.90832406,-4.1500945,9.584431,-2.0207353,29.504183,-47.306435,54.339474,11.978601,-3.0799906,-3.9266593,-17.221077,-21.105375,46.04936,59.39202,-2.2783623,1.7135323,-2.7177317
78,31.45705795288086,23.255970001220703,77.94865417480469,2.3400842401291264,2.557714005932523,178.07150827552792,-1.1478033,5.578429,38.985916,15.929353,-13.31328,0.3216114,-4.9220643,-30.742804,-22.047808,38.079052,-16.320534,3.6968994,1.1246867,-4.315116,9.501866,-2.0963485,29.600939,-47.338333,54.415565,11.993592,-3.125979,-3.7736094,-17.243135,-21.053598,46.160316,59.18771,-2.320494,1.7025496,-2.776915
79,31.777359008789062,23.625001907348633,77.91621398925781,2.5251584476167723,2.6468908146095487,177.86723054468857,-1.6767048,5.924565,39.135105,16.497715,-13.206522,0.23233196,-4.292291,-30.956728,-21.802877,37.295135,-15.953798,3.9943836,1.327848,-4.4828243,9.435706,-2.1665294,29.734465,-47.307735,54.490658,11.995165,-3.1435475,-3.6710544,-17.30198,-20.980148,46.287598,59.01473,-2.374824,1.706313,-2.7761028
80,32.10860824584961,23.999046325683594,77.8819808959961,2.696387285466015,2.727469502172919,177.67102102748058,-2.2061472,6.2992554,39.269096,17.08179,-13.101961,0.14066195,-3.689978,-31.107693,-21.524277,36.490574,-15.581554,4.3128324,1.5182068,-4.6386642,9.393054,-2.244645,29.877851,-47.217213,54.581436,11.99999,-3.1272,-3.6146657,-17.40219,-20.90052,46.447704,58.861454,-2.4293482,1.7187074,-2.7278655
81,32.442344665527344,24.38389015197754,77.84369659423828,2.8533368531981425,2.7980829566977343,177.48569757278224,-2.7391486,6.7057447,39.383945,17.690912,-13.004432,0.0452946,-3.1358314,-31.191427,-21.179874,35.687603,-15.207617,4.5667014,1.7053604,-4.7759967,9.3716955,-2.357155,30.000036,-47.083942,54.727222,12.015515,-3.069066,-3.6199477,-17.526236,-20.833223,46.62779,58.71251,-2.4802332,1.7421305,-2.6139
82,32.7812614440918,24.771743774414062,77.80591583251953,2.999750850710068,2.861776363826245,177.30991990375358,-3.2748642,7.136662,39.482723,18.315071,-12.905787,-0.05429179,-2.6313071,-31.21464,-20.768648,34.886524,-14.824537,4.7817693,1.8806447,-4.9018025,9.369554,-2.4820712,30.122337,-46.888474,54.904068,12.038267,-2.9745548,-3.6839457,-17.681522,-20.765476,46.832447,58.576958,-2.5307465,1.7786233,-2.434537
83,33.1195068359375,25.162151336669922,77.76392364501953,3.1312469984077667,2.9191014281743155,177.13819530921668,-3.8074145,7.5920563,39.57007,18.93987,-12.79872,-0.15524708,-2.1306653,-31.173388,-20.361374,34.029358,-14.428182,5.1318684,2.0665715,-5.004509,9.386322,-2.6611714,30.20721,-46.676033,55.154804,12.046016,-2.8613694,-3.765577,-17.845652,-20.719574,47.040386,58.433544,-2.6020658,1.8241693,-2.2266273
84,33.47019958496094,25.5654239654541,77.72705841064453,3.245415082434432,2.9708570044217324,176.96498765274944,-4.328855,8.068386,39.65115,19.543257,-12.671955,-0.25481156,-1.592117,-31.071072,-20.023983,33.063786,-14.013194,5.7929115,2.2163198,-5.087888,9.425424,-2.8164544,30.310219,-46.37542,55.390354,12.035814,-2.7438421,-3.8327396,-18.079462,-20.664387,47.32869,58.320415,-2.6797125,1.8724792,-2.032554
85,33.83230972290039,25.963899612426758,77.68441772460938,3.3416860601803013,3.012269397858543,176.78392309874243,-4.830812,8.566121,39.73245,20.124388,-12.527603,-0.35104382,-0.99169815,-30.903456,-19.760265,31.950705,-13.565695,6.8268023,2.3714411,-5.148292,9.491214,-2.9988356,30.39953,-46.031017,55.66763,11.983223,-2.6238415,-3.8869498,-18.348413,-20.617846,47.656776,58.217365,-2.799281,1.9285121,-1.8406441
86,34.18205261230469,26.37074851989746,77.64774322509766,3.4218067861694497,3.044809938909942,176.5993934618869,-5.319615,9.085619,39.80913,20.691397,-12.36868,-0.4460422,-0.35236314,-30.666557,-19.538939,30.710382,-13.079776,8.136854,2.5333986,-5.185948,9.580287,-3.2186315,30.466112,-45.65202,56.00046,11.897717,-2.4943178,-3.9421954,-18.647825,-20.585712,48.018753,58.120132,-2.945234,1.9929593,-1.6362967
87,34.5458984375,26.78455924987793,77.60377502441406,3.485813308970082,3.0783977308661834,176.42183327330295,-5.810586,9.624853,39.87033,21.240509,-12.188814,-0.543217,0.30162594,-30.352755,-19.377111,29.3684,-12.559062,9.659329,2.6646376,-5.201089,9.681952,-3.4363747,30.528809,-45.21704,56.338642,11.815055,-2.357977,-3.9783432,-18.988972,-20.55655,48.42221,58.02968,-3.086037,2.0554612,-1.4522729
88,34.92640686035156,27.2095947265625,77.56427001953125,3.534121267177452,3.1231804071865192,176.26162883430916,-6.3197126,10.181313,39.904663,21.769434,-11.982009,-0.64593256,0.94684786,-29.95823,-19.291534,27.949657,-12.011024,11.330053,2.8273308,-5.19993,9.783501,-3.7407393,30.563248,-44.864304,56.73513,11.730257,-2.2175887,-3.9694867,-19.314375,-20.545109,48.75934,57.921543,-3.2124465,2.1037204,-1.3170327
89,35.3133544921875,27.635196685791016,77.52326965332031,3.5709974521620858,3.1810943835571277,176.1190251847305,-6.8493485,10.750029,39.912487,22.277199,-11.748048,-0.7554979,1.6227796,-29.461115,-19.28877,26.367994,-11.330907,13.37382,2.900665,-5.1751814,9.884675,-3.9881582,30.604734,-44.410183,57.087654,11.701812,-2.0681164,-3.9124265,-19.7111,-20.53319,49.17928,57.82177,-3.2710714,2.1393552,-1.2408082
90,35.70541763305664,28.08084487915039,77.4866714477539,3.4507186573147184,3.299570649776065,175.93211127179822,-7.537126,11.605857,39.881542,23.018147,-11.590889,-0.9027257,2.2719102,-28.594887,-19.3615,24.512842,-10.484784,15.000033,2.9883094,-5.0036473,9.939935,-4.2285547,30.65688,-43.91856,57.425503,11.688702,-1.9084355,-3.8187265,-20.153084,-20.518839,49.63024,57.730656,-3.2969308,2.1649683,-1.207171
91,36.115657806396484,28.561248779296875,77.46015930175781,3.016078021345533,3.5268286653204624,175.6480232313893,-8.519618,13.023037,39.770508,24.21063,-11.589834,-1.1196078,2.7802434,-27.11527,-19.502367,22.383936,-9.597308,15.000033,3.1927912,-4.5476403,9.895499,-4.5218477,30.697922,-43.466415,57.784134,11.665381,-1.751294,-3.6936448,-20.591715,-20.512634,50.03712,57.629658,-3.3299725,2.1799464,-1.2136909
92,36.52336883544922,29.045528411865234,77.4239273071289,2.69161767092126,3.7164347394788173,175.42890855868538,-9.381441,14.201755,39.63397,25.113237,-11.446826,-1.3102082,3.2296207,-25.84497,-19.677908,20.448988,-9.036681,15.000033,3.3475296,-4.1927323,9.898384,-4.8360395,30.734234,-43.005848,58.13508,11.643188,-1.6119145,-3.5505116,-21.03962,-20.513224,50.431656,57.517773,-3.3710432,2.1882098,-1.2581605
93,36.940269470214844,29.506790161132812,77.37814331054688,2.5097327751174023,3.8598914100815516,175.2872255204431,-10.10538,15.096384,39.48644,25.717005,-11.166426,-1.4659913,3.5671165,-24.856136,-19.88374,18.822947,-8.941724,15.000033,3.4480975,-3.9716642,9.9605,-5.1831174,30.76871,-42.551346,58.49007,11.614342,-1.4944307,-3.382063,-21.490908,-20.518559,50.80827,57.39013,-3.4362798,2.1893876,-1.3542075
94,37.34852600097656,29.974504470825195,77.3372802734375,2.4188928685301834,3.976451789759418,175.20077052828512,-10.74713,15.809679,39.328503,26.126795,-10.792854,-1.600229,3.8063452,-24.042355,-20.133488,17.40859,-9.179001,15.000033,3.4742455,-3.8319635,10.067153,-5.509611,30.81725,-42.03624,58.807323,11.602119,-1.3911717,-3.1888144,-21.975374,-20.526136,51.214783,57.252514,-3.5019467,2.1840913,-1.4995071
95,37.761260986328125,30.45182228088379,77.2944107055664,2.3811203641386323,4.079159415749496,175.15400227279093,-11.339359,16.406582,39.16252,26.394226,-10.342451,-1.7241106,3.9703465,-23.350582,-20.447903,16.176088,-9.614571,15.000033,3.537119,-3.746957,10.194917,-5.933478,30.847933,-41.62289,59.16417,11.559355,-1.2975259,-2.9829237,-22.426308,-20.536348,51.514523,57.108852,-3.5871222,2.1691504,-1.6637462
96,38.191341400146484,30.926931381225586,77.24578094482422,2.3576086664993428,4.1813191937580365,175.13099483647855,-11.914099,16.951944,38.988144,26.565668,-9.828575,-1.8488406,4.097248,-22.719196,-20.846115,15.066262,-10.100977,15.000033,3.485893,-3.6545024,10.346157,-6.238689,30.902527,-41.02825,59.380806,11.567277,-1.211001,-2.786771,-22.953962,-20.554695,51.907177,56.964912,-3.6105163,2.151975,-1.824455
97,38.629878997802734,31.397157669067383,77.19640350341797,2.378256146114737,4.285053472998524,175.1216829981996,-12.463664,17.420109,38.8292,26.642124,-9.252915,-1.9748025,4.1592584,-22.193012,-21.359121,14.159703,-10.724734,15.000033,3.4611955,-3.606478,10.508906,-6.593604,30.959648,-40.48093,59.575436,11.561054,-1.1247772,-2.5947466,-23.469677,-20.576345,52.21394,56.81265,-3.617705,2.1249244,-1.9696078
98,39.06597137451172,31.878562927246094,77.14881896972656,2.439395891145495,4.381891085095324,175.138598898911,-12.980538,17.807575,38.672844,26.618624,-8.616375,-2.0991464,4.1383357,-21.781378,-21.985662,13.494518,-11.542461,15.000033,3.4406645,-3.59429,10.688676,-6.9871087,31.006027,-39.953644,59.75836,11.558431,-1.0426372,-2.399136,-23.98322,-20.600863,52.462894,56.65784,-3.610102,2.0885243,-2.1147027
99,39.50144577026367,32.359554290771484,77.10336303710938,2.461123037457316,4.471031058165534,175.19713318341178,-13.4954405,18.200142,38.464386,26.521376,-7.926272,-2.2281127,4.104133,-21.348446,-22.689516,12.89824,-12.343338,15.000033,3.3309414,-3.5243475,10.894268,-7.305595,31.070734,-39.314224,59.83307,11.573965,-0.9742067,-2.213615,-24.535633,-20.640537,52.75179,56.496735,-3.579308,2.0505629,-2.26818
100,39.9516716003418,32.8425178527832,77.07383728027344,2.3681654193530575,4.5541474719029775,175.31083806050586,-14.038834,18.676216,38.15068,26.37,-7.186524,-2.3678036,4.124397,-20.758099,-23.42457,12.196585,-12.914129,15.000033,3.1858232,-3.3283124,11.109993,-7.6272674,31.129074,-38.681934,59.8647,11.554841,-0.92839307,-2.0444984,-25.07191,-20.690504,52.995304,56.342533,-3.5715954,2.0123894,-2.4354396
101,40.40032196044922,33.320274353027344,77.06008911132812,2.1298729438565447,4.627692067705969,175.4839081907328,-14.615532,19.27391,37.709213,26.17548,-6.4086204,-2.5188155,4.262573,-19.93797,-24.228998,11.283523,-13.184627,15.000033,2.988717,-2.968721,11.346144,-7.952754,31.169754,-38.033966,59.863205,11.513796,-0.9150171,-1.8945704,-25.604624,-20.752804,53.206783,56.19836,-3.6088276,1.9775113,-2.6304638
102,40.84835433959961,33.79405212402344,77.0608901977539,1.7889236330989322,4.695826089333801,175.7078098276626,-15.217003,19.94793,37.164013,25.93144,-5.590227,-2.6796606,4.4891963,-18.94389,-25.119911,10.244086,-13.274654,15.000033,2.7445536,-2.4887824,11.601266,-8.279344,31.19002,-37.361988,59.83003,11.463371,-0.9273517,-1.7579311,-26.137218,-20.828867,53.39136,56.058002,-3.6710472,1.9436595,-2.8456962
103,41.29237747192383,34.26998519897461,77.08207702636719,1.3490204977959135,4.791560707649071,175.95307389704135,-15.889292,20.710337,36.52749,25.67434,-4.7304387,-2.8610492,4.7432632,-17.770304,-25.994032,9.0772505,-13.19025,15.000033,2.4805136,-1.8978745,11.829819,-8.594293,31.18823,-36.682507,59.758812,11.378896,-0.9511736,-1.629505,-26.65314,-20.919407,53.54918,55.922768,-3.7246957,1.9071618,-3.0556643
104,41.7520751953125,34.759864807128906,77.12158203125,0.810711281879127,4.953483271238063,176.1794658090539,-16.684359,21.584593,35.815163,25.436874,-3.8199325,-3.0778158,4.9287434,-16.328194,-26.63537,7.7189775,-12.895633,14.275737,2.2350178,-1.2125701,11.983051,-8.87562,31.161982,-35.99835,59.635265,11.253139,-0.97196394,-1.505359,-27.137293,-21.024714,53.683254,55.794254,-3.7271717,1.8637406,-3.2346914
105,42.20117950439453,35.25163269042969,77.1541748046875,0.260894225779671,5.134448650613697,176.46749188529748,-17.534266,22.40695,35.015266,25.117292,-2.7875748,-3.2182283,4.644288,-15.08945,-27.018616,7.3356953,-12.949617,13.578697,1.9305725,-0.49781638,12.122118,-9.143643,31.110165,-35.31056,59.45874,11.04514,-0.98714113,-1.3883287,-27.605314,-21.14617,53.79269,55.667027,-3.65372,1.8133647,-3.3782964
106,42.652137756347656,35.73502731323242,77.18344116210938,-0.318117183069804,5.331610037946299,176.8121189171321,-18.428686,23.204824,34.121456,24.72483,-1.6587647,-3.3127036,4.228856,-13.887901,-27.301315,7.2199826,-12.990275,12.952353,1.575176,0.26465946,12.255269,-9.388834,31.030254,-34.59761,59.22684,10.794454,-1.0039709,-1.279745,-28.05364,-21.284565,53.871548,55.53829,-3.533254,1.7577077,-3.4991608
107,43.10337829589844,36.205570220947266,77.22212219238281,-0.8602701268376672,5.533562394211993,177.1827234706299,-19.257515,23.881792,33.208427,24.159164,-0.474705,-3.5330544,3.8194642,-12.748977,-27.572609,7.124746,-12.969562,12.369596,1.1981355,0.99928296,12.370007,-9.614037,30.922447,-33.919,58.97316,10.520768,-1.0240151,-1.1700499,-28.46483,-21.43967,53.946545,55.430927,-3.3841562,1.6941937,-3.5986178
108,43.54403305053711,36.663291931152344,77.2691421508789,-1.3026133946083374,5.727115635620283,177.54855657775565,-19.903013,24.34277,32.35506,23.307798,0.726239,-4.049715,3.4372313,-11.748333,-27.88592,7.046318,-12.96864,11.805543,0.8366104,1.6316667,12.4494,-9.790444,30.782568,-33.28995,58.705875,10.2936535,-1.0477626,-1.0509049,-28.805588,-21.609722,54.024586,55.359077,-3.236628,1.6204939,-3.6777334
109,43.973323822021484,37.09714126586914,77.32229614257812,-1.6469139870956349,5.931663383448497,177.90738890605726,-20.340805,24.548815,31.576225,21.984924,2.0887506,-4.959052,3.0507421,-10.895861,-28.254742,6.9879956,-12.988939,11.259092,0.48377913,2.1692789,12.4631405,-9.920892,30.603771,-32.721294,58.43696,10.089804,-1.076059,-0.9047791,-29.065243,-21.79391,54.104027,55.320885,-3.10257,1.5320454,-3.7361414
110,44.37103271484375,37.531410217285156,77.37106323242188,-1.93161880674008,6.14286307782728,178.2735714632149,-20.613459,24.569248,30.82431,20.282764,3.5844553,-6.153833,2.6458247,-10.149725,-28.643919,6.9467883,-12.98455,10.737054,0.13252932,2.6546443,12.428114,-10.008426,30.380314,-32.18317,58.15301,9.914421,-1.1077921,-0.7407401,-29.285503,-21.995052,54.211185,55.328243,-2.9267008,1.4301347,-3.7731144
111,44.74787902832031,37.957401275634766,77.41065216064453,-2.1526653645681257,6.309192852775881,178.64003648808335,-20.684004,24.464687,30.109255,18.462442,4.9282303,-7.4950123,2.277302,-9.501017,-29.031298,6.9132056,-12.96402,10.227535,-0.20092145,3.07559,12.399334,-10.096817,30.119125,-31.730923,57.881985,9.762049,-1.1425817,-0.587653,-29.437727,-22.209305,54.301426,55.368923,-2.7662532,1.3253757,-3.7904906
112,45.11079788208008,38.37104797363281,77.44783782958984,-2.3067017333707005,6.3798780635789685,178.99904158623272,-20.53975,24.30571,29.452621,16.831629,5.8219075,-8.839888,2.0105546,-8.933294,-29.39611,6.88163,-12.946029,9.718015,-0.4945459,3.4142823,12.430233,-10.237708,29.835733,-31.436298,57.65398,9.615079,-1.1793911,-0.47453243,-29.533258,-22.433725,54.375668,55.45809,-2.6221836,1.2262558,-3.7897282
113,45.472740173339844,38.79296112060547,77.50592041015625,-2.3853441155079405,6.311947470600904,179.35090289668565,-20.083878,24.046652,28.862247,15.286632,6.189413,-10.389929,1.9093176,-8.441384,-29.734165,6.8432117,-12.944359,9.200979,-0.7418039,3.6482694,12.555966,-10.430002,29.541513,-31.319439,57.47184,9.45009,-1.2215167,-0.39712772,-29.589874,-22.66659,54.467022,55.60956,-2.4532614,1.1235106,-3.765676
114,45.833335876464844,39.216060638427734,77.57823944091797,-2.403542691547853,6.137593499526212,179.6938684622954,-19.365295,23.699995,28.355442,13.756187,6.1708946,-12.129518,1.9341601,-8.01609,-30.051329,6.8058705,-12.956536,8.682375,-0.9523378,3.7973835,12.740275,-10.632576,29.236452,-31.331589,57.302696,9.286414,-1.2671896,-0.3462144,-29.57339,-22.906181,54.532154,55.800278,-2.3092453,1.0168972,-3.7186866
115,46.175846099853516,39.63772201538086,77.64253234863281,-2.379885271546085,5.929998178111258,-179.97203008707086,-18.621227,23.39398,27.957888,12.619732,5.7973514,-13.595412,1.9940866,-7.6452847,-30.352322,6.778403,-12.971724,8.171593,-1.127138,3.8931892,12.924831,-10.858828,28.923069,-31.463453,57.13323,9.159346,-1.3080491,-0.34111682,-29.533907,-23.154762,54.603466,56.052208,-2.1473126,0.9247287,-3.6600535
116,46.508262634277344,40.046993255615234,77.70745086669922,-2.3175626578830917,5.767391370630786,-179.6405832874004,-18.098118,23.225218,27.66854,12.257385,5.1134353,-14.337456,1.9914305,-7.3379536,-30.645376,6.774215,-12.976798,7.6794076,-1.2803133,3.9544303,13.045766,-11.096653,28.60104,-31.674086,56.934772,9.12745,-1.3360897,-0.4023175,-29.40832,-23.410418,54.572826,56.320183,-2.0884225,0.86886203,-3.6026983
117,46.83226776123047,40.426177978515625,77.78346252441406,-2.197724344023105,5.672641025865671,-179.30143451392442,-17.926697,23.227703,27.414476,12.923406,4.00021,-14.045964,1.89264,-7.1215024,-30.93438,6.8030777,-12.96161,7.2081375,-1.4053355,3.956416,13.084562,-11.364649,28.273447,-31.991283,56.714806,9.198443,-1.3429233,-0.53581345,-29.273834,-23.677616,54.531467,56.65162,-2.0398488,0.8569395,-3.5385303
118,47.169639587402344,40.839683532714844,77.87327575683594,-2.020844609344055,5.600745687031416,-178.9624064464006,-17.96289,23.33698,27.187775,14.372853,2.4801607,-13.039014,1.7481923,-6.9908433,-31.210028,6.8682413,-12.941696,6.750223,-1.5054678,3.896804,13.074725,-11.63927,27.939617,-32.404488,56.47126,9.352135,-1.3354831,-0.73196423,-29.043886,-23.953915,54.386993,56.99659,-2.1082914,0.8795518,-3.4652004
119,47.49900436401367,41.23933792114258,77.96446990966797,-1.8231907447228652,5.528662057278471,-178.64458988352152,-17.995684,23.484211,27.09488,16.148924,0.84908295,-11.809404,1.5929685,-6.8997974,-31.463535,6.9454837,-12.918168,6.3032928,-1.5647185,3.8218074,13.043687,-11.921678,27.599543,-32.894894,56.19824,9.571131,-1.3280811,-0.9822015,-28.815989,-24.244452,54.259502,57.403473,-2.115909,0.9192351,-3.4018614
120,47.824867248535156,41.61314010620117,78.04742431640625,-1.6273049374385713,5.44148082213488,-178.36007113982268,-17.850897,23.603275,27.253122,17.866032,-0.61820495,-10.841662,1.4528139,-6.8194785,-31.693537,7.0183682,-12.894525,5.8679023,-1.5990152,3.7685337,13.007618,-12.182307,27.251074,-33.404217,55.875084,9.854346,-1.3358727,-1.2800024,-28.518913,-24.54717,54.056007,57.818996,-2.1400905,0.964525,-3.3697634
121,48.14090347290039,41.97280502319336,78.13204193115234,-1.4179707454147963,5.3425959881495935,-178.1107173067435,-17.495564,23.65539,27.699358,19.47774,-1.8550923,-10.229315,1.3235724,-6.768857,-31.901045,7.086502,-12.863482,5.444612,-1.5960078,3.722668,12.96438,-12.438138,26.895643,-33.959984,55.506233,10.209403,-1.3621967,-1.6451095,-28.199194,-24.86422,53.843666,58.28203,-2.0800235,1.0177747,-3.3916984
122,48.44602584838867,42.3213996887207,78.21212768554688,-1.1879050659454435,5.238744319256522,-177.89020195915904,-17.008633,23.687529,28.376282,21.167501,-3.0060742,-9.719656,1.1944096,-6.7564807,-32.08672,7.15546,-12.824623,5.0343256,-1.5589567,3.6708584,12.905959,-12.685231,26.533043,-34.565063,55.092583,10.641165,-1.4013029,-2.0747876,-27.839218,-25.194984,53.598717,58.7812,-1.9857002,1.084575,-3.4509263
123,48.74269485473633,42.66866683959961,78.28285217285156,-0.9610627729147783,5.124246007346351,-177.69160552136273,-16.40535,23.754364,29.270382,22.935051,-4.124785,-9.273911,1.0759517,-6.751721,-32.255524,7.220971,-12.78355,4.640021,-1.5054944,3.6361752,12.842201,-12.914734,26.163395,-35.18079,54.633812,11.114804,-1.4538472,-2.5241888,-27.46778,-25.539988,53.339985,59.307327,-1.8631016,1.1513016,-3.5092309
124,49.03761672973633,42.99641418457031,78.34471893310547,-0.7623050707643731,4.993195038456463,-177.50790447538608,-15.701019,23.908768,30.366634,24.781412,-5.266278,-8.855278,0.9790893,-6.722547,-32.411972,7.279261,-12.748936,4.264312,-1.4605085,3.6437926,12.782135,-13.104773,25.786966,-35.75185,54.121227,11.605548,-1.5194151,-2.9495568,-27.075304,-25.89739,53.035656,59.82709,-1.7789099,1.2060626,-3.528546
125,49.327762603759766,43.31515884399414,78.39576721191406,-0.5948018799036617,4.837390653061628,-177.34551309137407,-14.860304,24.17266,31.76504,26.72677,-6.454144,-8.478136,0.9132753,-6.6665564,-32.550957,7.3285336,-12.722347,3.9140747,-1.4240377,3.7018569,12.734093,-13.251966,25.405142,-36.276276,53.54346,12.138734,-1.6076624,-3.3675106,-26.67174,-26.266779,52.69461,60.351917,-1.7528479,1.2487345,-3.4984374
126,49.61920928955078,43.62205123901367,78.43841552734375,-0.4461140358857157,4.662567875200446,-177.20460097318494,-13.87343,24.508457,33.442932,28.768309,-7.6594925,-8.148824,0.8696308,-6.599552,-32.672665,7.3733406,-12.699503,3.5865846,-1.3906629,3.7964752,12.690777,-13.361447,25.019411,-36.771664,52.90351,12.719448,-1.7164814,-3.7920578,-26.233107,-26.646206,52.29185,60.87625,-1.7892517,1.2857026,-3.4395165
127,49.902645111083984,43.9219970703125,78.47650146484375,-0.31562483617337767,4.4836655330352295,-177.06947286639425,-12.785806,24.869556,35.20751,30.844053,-8.846209,-7.8210654,0.834182,-6.517427,-32.789272,7.413003,-12.678092,3.2695239,-1.3619453,3.915428,12.642777,-13.448466,24.632425,-37.238304,52.225365,13.281444,-1.8253884,-4.174465,-25.81298,-27.03568,51.905243,61.414955,-1.752784,1.310702,-3.3593109
128,50.180458068847656,44.21395492553711,78.5106201171875,-0.20440835123632506,4.315180079630057,-176.9244874227621,-11.658322,25.217463,36.85956,32.902782,-9.977852,-7.451236,0.79353654,-6.414713,-32.912678,7.4450893,-12.656298,2.9500637,-1.3522472,4.0494967,12.578152,-13.512567,24.247347,-37.65981,51.525845,13.762787,-1.9124004,-4.467628,-25.40419,-27.43176,51.527275,61.946316,-1.6109829,1.3198118,-3.2659223
129,50.450443267822266,44.49750518798828,78.53643798828125,-0.11334218359708821,4.160244143939495,-176.77147624923427,-10.483032,25.572344,38.426228,34.961723,-11.059574,-7.006894,0.73804003,-6.294963,-33.038418,7.4831686,-12.64346,2.627559,-1.3708379,4.201255,12.492317,-13.535351,23.864649,-37.999928,50.782772,14.166412,-1.9603361,-4.671213,-24.962257,-27.82946,51.085102,62.443962,-1.4125003,1.3079443,-3.1583984
130,50.71834182739258,44.78151321411133,78.55880737304688,-0.04249181547813938,4.011105069583219,-176.6166935061576,-9.232339,25.940338,39.987938,37.036537,-12.105852,-6.5169315,0.6824339,-6.15541,-33.163277,7.5124955,-12.633664,2.3072329,-1.4034679,4.3735948,12.394936,-13.528836,23.486034,-38.284603,49.994522,14.516907,-1.9822093,-4.8067327,-24.552837,-28.229782,50.67915,62.96052,-1.0795652,1.2772584,-3.0331142
131,50.991966247558594,45.06269073486328,78.5713882446289,0.009596222008001446,3.86648748175843,-176.45072983335493,-7.9535365,26.26494,41.422104,39.06999,-13.095285,-6.0326786,0.5699643,-6.036788,-33.291664,7.685673,-12.704811,1.986205,-1.4605081,4.561561,12.285141,-13.502056,23.116322,-38.551888,49.197163,14.794542,-2.0018826,-4.8628464,-24.115303,-28.627008,50.229843,63.448765,-0.7492974,1.2424984,-2.8961027
132,51.257240295410156,45.34189224243164,78.58273315429688,0.0452973461455048,3.7255866284484194,-176.26410602140348,-6.7041616,26.491997,42.603817,41.00654,-14.003738,-5.6076293,0.44023255,-5.9159765,-33.439552,7.9113626,-12.806655,1.6597238,-1.5355557,4.7556524,12.16476,-13.482623,22.762869,-38.8638,48.433662,14.969723,-2.0425477,-4.826631,-23.66341,-29.019344,49.76948,63.911892,-0.43121782,1.215091,-2.7532437
133,51.51493453979492,45.621795654296875,78.58885192871094,0.06314991983375935,3.5895565723431235,-176.0506052076139,-5.4894037,26.652813,43.560043,42.879925,-14.848079,-5.1986957,0.322888,-5.770382,-33.61402,8.117876,-12.902705,1.3223246,-1.6246147,4.95502,12.035227,-13.471948,22.429743,-39.229065,47.694477,15.010269,-2.1084177,-4.6782246,-23.245739,-29.406153,49.381187,64.383575,-0.018747933,1.1914108,-2.594164
134,51.773582458496094,45.90311050415039,78.58477020263672,0.060891598421294935,3.4590582061659374,-175.8159885962795,-4.2987704,26.770496,44.332508,44.713997,-15.63554,-4.798664,0.21494368,-5.6003175,-33.809563,8.308335,-12.996385,0.9769851,-1.740544,5.165303,11.893346,-13.447811,22.11802,-39.610172,46.957127,14.938669,-2.1877942,-4.4314365,-22.807285,-29.782902,48.968254,64.832596,0.39351296,1.1687311,-2.4201279
135,52.02621841430664,46.177764892578125,78.5770034790039,0.04287268612167796,3.331906890366069,-175.56809915921357,-3.1792061,26.775444,44.81915,46.438602,-16.321712,-4.5205026,0.11570042,-5.412256,-34.022465,8.482431,-13.086697,0.6323092,-1.8812188,5.3812094,11.741037,-13.415317,21.82969,-40.014034,46.243298,14.812389,-2.2794847,-4.122528,-22.306181,-30.147135,48.45588,65.22515,0.6799717,1.1561017,-2.2539647
136,52.27448272705078,46.45127868652344,78.5655288696289,0.01284481648058479,3.2066834356909473,-175.31459052595085,-2.1856484,26.594683,44.92023,47.98688,-16.861061,-4.4809813,0.022850582,-5.2128735,-34.248985,8.639754,-13.171182,0.2965537,-2.0185676,5.595696,11.589779,-13.401843,21.565847,-40.47074,45.577187,14.689287,-2.3806303,-3.7856598,-21.838066,-30.502401,47.996254,65.61673,0.9598251,1.1584622,-2.117737
137,52.523658752441406,46.72113037109375,78.55010986328125,-0.03396542848593167,3.082307501413313,-175.05081029799592,-1.348967,26.210281,44.579906,49.369247,-17.275433,-4.6935086,-0.05864491,-4.995277,-34.496178,8.772353,-13.246947,-0.025742143,-2.1668646,5.81451,11.437642,-13.397987,21.32744,-40.97821,44.955013,14.555696,-2.4917698,-3.3978379,-21.375324,-30.846983,47.548634,65.99542,1.167426,1.1776727,-2.0180066
138,52.7697639465332,46.98511505126953,78.5318603515625,-0.096851453444974,2.9608812787406107,-174.7738677422318,-0.647472,25.653667,43.87143,50.61948,-17.58094,-5.112552,-0.13047972,-4.759745,-34.763794,8.882545,-13.315022,-0.33966628,-2.328504,6.0371175,11.281793,-13.400164,21.114975,-41.53054,44.367542,14.389126,-2.6145446,-2.9511917,-20.912546,-31.180222,47.106472,66.35661,1.3237436,1.2114339,-1.9427695
139,53.021209716796875,47.24851989746094,78.50945281982422,-0.16334906068640911,2.845863819586313,-174.49404222641886,-0.05641712,24.920095,42.89148,51.709324,-17.730839,-5.769621,-0.2085036,-4.525974,-35.038357,8.992234,-13.381474,-0.650089,-2.509584,6.251523,11.116892,-13.397062,20.928047,-42.097126,43.82141,14.241999,-2.748272,-2.5062475,-20.382704,-31.499075,46.540577,66.64637,1.3039111,1.2549585,-1.8872813
140,53.26375198364258,47.519771575927734,78.48644256591797,-0.22071534740908902,2.741027140243121,-174.22156412050342,0.45058098,24.002684,41.73427,52.6067,-17.68064,-6.6968493,-0.31434017,-4.317733,-35.306774,9.135589,-13.457624,-0.96204233,-2.6576853,6.442539,10.958518,-13.431252,20.764935,-42.704273,43.330864,14.160559,-2.889195,-2.1190217,-19.983517,-31.808264,46.165993,66.99094,1.4604152,1.3018051,-1.8452617
141,53.516204833984375,47.775753021240234,78.46504211425781,-0.26720538857085907,2.645845793866686,-173.961405810623,0.8601177,22.843632,40.341255,53.282925,-17.426891,-7.973348,-0.45129794,-4.139944,-35.564156,9.320209,-13.545454,-1.2769678,-2.8274214,6.6136827,10.787519,-13.452895,20.62529,-43.296753,42.89253,14.171712,-3.051646,-1.7905852,-19.509495,-32.096943,45.634167,67.248184,1.374794,1.3617562,-1.8114687
142,53.7645263671875,48.02872085571289,78.44510650634766,-0.30826253425935085,2.5597092034712663,-173.70623061803195,1.1789807,21.44525,38.705967,53.765125,-17.028126,-9.571264,-0.60992473,-3.9816265,-35.819286,9.527462,-13.637553,-1.5917068,-2.987698,6.7664747,10.612521,-13.492457,20.509071,-43.91934,42.507755,14.24113,-3.2298791,-1.4921341,-19.064402,-32.370285,45.12815,67.49834,1.260748,1.4314306,-1.7899115
143,54.01271438598633,48.28586959838867,78.427001953125,-0.3421043768813568,2.485408087907652,-173.44841739785684,1.459786,19.89613,36.98914,54.099483,-16.524973,-11.360333,-0.79346377,-3.8446066,-36.07865,9.759431,-13.735794,-1.9042841,-3.160347,6.8997593,10.43032,-13.536512,20.41572,-44.545082,42.17204,14.347237,-3.3981128,-1.2494066,-18.594582,-32.624233,44.55663,67.69702,1.0841366,1.5009629,-1.791107
144,54.26488494873047,48.54148483276367,78.40696716308594,-0.36818329938610167,2.425203420918922,-173.18073290520343,1.7438921,18.294992,35.336662,54.33142,-15.938256,-13.208315,-0.9949295,-3.7222216,-36.34893,9.995484,-13.831459,-2.2132633,-3.3404284,7.0111895,10.244959,-13.595124,20.344728,-45.17443,41.88538,14.463679,-3.5299456,-1.0864493,-18.121132,-32.857117,43.953106,67.8551,0.9532468,1.5581597,-1.8255131
145,54.5201530456543,48.79681396484375,78.38880157470703,-0.35077561187633294,2.410444003188038,-172.8670646721467,1.9876065,16.57774,33.73801,54.422615,-15.217722,-15.000033,-1.2938644,-3.7046666,-36.65775,10.367192,-13.986384,-2.509574,-3.564801,7.069721,10.022473,-13.664339,20.29645,-45.804607,41.651222,14.594775,-3.625132,-1.0184401,-17.624952,-33.064983,43.28377,67.960495,0.82627887,1.6022576,-1.905659
146,54.81062698364258,49.013084411621094,78.38776397705078,-0.12192404412353464,2.5683465982173037,-172.35585682734168,2.0277443,14.502695,32.406033,54.25642,-14.297092,-15.000033,-2.0388854,-4.2212,-37.0954,11.459372,-14.45687,-2.7419555,-3.9541419,6.944821,9.637864,-13.751349,20.26928,-46.445843,41.47018,14.747089,-3.6960132,-1.0259444,-17.135708,-33.24758,42.592464,68.037155,0.7194299,1.6375672,-2.0255396
147,55.096954345703125,49.233116149902344,78.38275146484375,0.12917648921267075,2.727550532654327,-171.848457339152,2.1139278,12.410222,31.177326,53.98879,-13.330609,-15.000033,-2.7990692,-4.784357,-37.513256,12.583644,-14.934048,-2.96662,-4.342754,6.7878675,9.25508,-13.843836,20.261896,-47.08099,41.331192,14.912285,-3.7347946,-1.090592,-16.642597,-33.403652,41.865314,68.074135,0.6476,1.6635195,-2.1619573
148,55.37936019897461,49.45726776123047,78.37329864501953,0.38275961140986603,2.875187135353149,-171.3555826200456,2.2643487,10.398153,30.088676,53.668694,-12.386624,-15.000033,-3.5389903,-5.3481493,-37.9002,13.676404,-15.38811,-3.1860144,-4.7236257,6.618279,8.888261,-13.937455,20.271442,-47.698463,41.224495,15.077388,-3.7340958,-1.1901671,-16.140831,-33.5342,41.095467,68.06212,0.63492626,1.6786916,-2.295039
149,55.66312789916992,49.67628860473633,78.35847473144531,0.6459289447348927,3.018532315552702,-170.86823288962142,2.458183,8.44327,29.117163,53.276646,-11.394609,-15.000033,-4.2809033,-5.933217,-38.256393,14.774566,-15.837347,-3.3947408,-5.1021276,6.43235,8.531193,-14.036329,20.295376,-48.30018,41.149498,15.258848,-3.6783187,-1.333132,-15.6469345,-33.640285,40.299587,68.01165,0.7346335,1.6762604,-2.430473
150,55.95062255859375,49.89564895629883,78.34304809570312,0.9210676383992961,3.161561738306251,-170.38250118506946,2.684031,6.5190883,28.230347,52.794083,-10.336144,-15.000033,-5.0208488,-6.5371957,-38.590122,15.860752,-16.272728,-3.5948608,-5.4844646,6.2275887,8.177468,-14.14036,20.332962,-48.88816,41.113647,15.458078,-3.5767117,-1.5268191,-15.1447315,-33.720875,39.456226,67.91219,0.89803547,1.658949,-2.5750515
151,56.24283981323242,50.11379623413086,78.31878662109375,1.1770330707335273,3.289323400851267,-169.91453596624874,2.9589145,4.719786,27.436413,52.273216,-9.342861,-15.000033,-5.7204704,-7.0983663,-38.906395,16.873981,-16.668564,-3.8006,-5.85238,6.0289874,7.846107,-14.250533,20.3833,-49.46379,41.11885,15.63959,-3.4582164,-1.7463205,-14.638233,-33.777073,38.587563,67.767784,1.088638,1.6385493,-2.7108006
152,56.53248977661133,50.33731460571289,78.29196166992188,1.3803158339842752,3.388886782734141,-169.48014783660253,3.2921352,3.1391544,26.738718,51.76932,-8.538808,-15.000033,-6.334943,-7.545488,-39.215088,17.731808,-16.985792,-4.026484,-6.2085686,5.868826,7.554596,-14.356702,20.439938,-50.004368,41.16965,15.772033,-3.353301,-1.9679208,-14.164813,-33.80296,37.761158,67.606346,1.2872695,1.6275237,-2.8193302
153,56.81566619873047,50.56807327270508,78.26177978515625,1.5182655418864992,3.4580286387434205,-169.08713982745502,3.6736422,1.7857624,26.099533,51.29328,-7.9442115,-15.000033,-6.851168,-7.850877,-39.523094,18.407227,-17.21533,-4.279721,-6.4934106,5.743025,7.3101335,-14.492558,20.514997,-50.576828,41.266094,15.827494,-3.2556894,-2.1911793,-13.647312,-33.812374,36.866283,67.36749,1.4580997,1.6358271,-2.901608
154,57.10133743286133,50.80154037475586,78.22572326660156,1.6049612791245886,3.507572884025406,-168.72309326006038,4.0860105,0.6172901,25.51019,50.81649,-7.475276,-15.000033,-7.299112,-8.049747,-39.83281,18.950523,-17.379162,-4.552268,-6.7711434,5.6554255,7.0989037,-14.624363,20.599663,-51.117252,41.40464,15.84014,-3.1570368,-2.4301105,-13.14167,-33.7986,35.973965,67.08518,1.6323304,1.6556375,-2.963104
155,57.38801956176758,51.04207229614258,78.185546875,1.6474994529172158,3.544149172663919,-168.37321569229488,4.5238333,-0.35096884,25.017336,50.335823,-7.098668,-15.000033,-7.6949453,-8.159876,-40.149567,19.380583,-17.489231,-4.8365517,-7.035139,5.59726,6.9183693,-14.765703,20.693962,-51.642796,41.58451,15.820533,-3.068363,-2.6657116,-12.646048,-33.76224,35.098454,66.77603,1.8139868,1.6697233,-3.002546
156,57.673526763916016,51.285858154296875,78.14395141601562,1.6534807881849918,3.5742412075380074,-168.02310125592427,4.983376,-1.10264,24.672129,49.84652,-6.7822185,-15.000033,-8.051979,-8.198152,-40.47743,19.710281,-17.55359,-5.124934,-7.2991724,5.5661025,6.764964,-14.917658,20.794382,-52.146362,41.80467,15.782509,-3.0026934,-2.8808427,-12.171472,-33.705547,34.273674,66.46078,2.0034137,1.6612945,-3.0171247
157,57.96160125732422,51.53681182861328,78.09769439697266,1.614977772831646,3.6009743611081193,-167.66809715565358,5.4675255,-1.5840123,24.534698,49.370605,-6.523486,-15.000033,-8.364675,-8.148043,-40.822784,19.916533,-17.56356,-5.415116,-7.5659494,5.5693974,6.637853,-15.084226,20.90128,-52.634228,42.06927,15.704147,-2.9685397,-3.0828118,-11.711531,-33.630184,33.483288,66.12964,2.2146447,1.6212106,-2.9927335
158,58.262603759765625,51.785804748535156,78.0506362915039,1.5326300498904595,3.6219022638606155,-167.31508510992373,5.9704266,-1.8251097,24.56164,48.90523,-6.3413944,-15.000033,-8.635854,-8.012736,-41.182682,20.015108,-17.525597,-5.7107472,-7.8128786,5.5972667,6.540308,-15.275137,21.027544,-53.131115,42.3719,15.5773535,-2.9552658,-3.2755408,-11.248713,-33.529423,32.691494,65.7698,2.4362266,1.5594454,-2.9367309
159,58.56441116333008,52.042293548583984,78.00160217285156,1.4267177675248106,3.634431210021496,-166.96647203137425,6.4765735,-1.9257491,24.659067,48.402313,-6.200176,-15.000033,-8.877513,-7.827378,-41.549995,20.042099,-17.453278,-6.013155,-8.060627,5.637618,6.4694324,-15.466006,21.162231,-53.593918,42.705173,15.462231,-2.951384,-3.440352,-10.806103,-33.410824,31.95592,65.40492,2.6313167,1.4902228,-2.874653
160,58.874671936035156,52.30466079711914,77.95149993896484,1.3170789725371408,3.635529009690433,-166.62486306927573,6.972255,-1.9901817,24.72504,47.815857,-6.088574,-15.000033,-9.10884,-7.6346555,-41.91624,20.055605,-17.371777,-6.323386,-8.290574,5.667325,6.4265018,-15.666859,21.304731,-54.03409,43.065,15.398459,-2.9430144,-3.5552676,-10.3903475,-33.275414,31.30263,65.05633,2.7748153,1.4262433,-2.8346653
161,59.1880989074707,52.56852340698242,77.89730072021484,1.204445613187516,3.6259786285933293,-166.283811987421,7.4687157,-1.9922551,24.804237,47.13739,-6.000598,-15.000033,-9.323639,-7.430189,-42.287285,20.037687,-17.275179,-6.64409,-8.509369,5.682106,6.4102454,-15.877932,21.455032,-54.45407,43.454384,15.410939,-2.9293637,-3.6111941,-9.994333,-33.124554,30.73543,64.71933,2.8392274,1.3652184,-2.824267
162,59.50504684448242,52.84025573730469,77.84294891357422,1.0801005157935017,3.6066545712456284,-165.94392814437145,7.96718,-1.8973037,24.931145,46.39322,-5.9516363,-15.000033,-9.519768,-7.2008095,-42.66458,19.980595,-17.16096,-6.973328,-8.719781,5.6918883,6.4205875,-16.098259,21.613157,-54.852753,43.87542,15.472283,-2.9168396,-3.6206384,-9.613437,-32.95865,30.235674,64.38307,2.8431551,1.3021302,-2.828803
163,59.83201217651367,53.10578155517578,77.78742218017578,0.94980127617991,3.575471665080839,-165.6180032221055,8.443149,-1.7888677,24.991888,45.574646,-5.930784,-15.000033,-9.705411,-6.959279,-43.03627,19.906736,-17.030802,-7.306428,-8.910469,5.696191,6.4572086,-16.321999,21.777462,-55.21911,44.32025,15.552072,-2.902821,-3.59506,-9.25875,-32.77859,29.797272,64.05933,2.8189383,1.246528,-2.8433414
164,60.153995513916016,53.37467956542969,77.73016357421875,0.8186222278357232,3.5305909828417144,-165.31824446677913,8.868219,-1.7429657,24.871748,44.685085,-5.929632,-15.000033,-9.891775,-6.720539,-43.390842,19.846424,-16.89045,-7.638991,-9.073062,5.694751,6.517532,-16.53753,21.945175,-55.535904,44.78129,15.6241255,-2.8846703,-3.5460503,-8.931995,-32.585808,29.400024,63.75841,2.7820904,1.202994,-2.8625739
165,60.486595153808594,53.63926315307617,77.66859436035156,0.7014143203362826,3.476919817919208,-165.03613981272213,9.241088,-1.7868725,24.562555,43.661488,-5.9091926,-15.000033,-10.097763,-6.5212655,-43.73443,19.841698,-16.75444,-7.967315,-9.210765,5.6766267,6.598364,-16.753061,22.114185,-55.814747,45.269207,15.693288,-2.8670776,-3.4602797,-8.630699,-32.38055,29.040043,63.473225,2.7457001,1.1765132,-2.8899498
166,60.82264709472656,53.905059814453125,77.60578155517578,0.5900568522562484,3.41436190965936,-164.76804696659008,9.575133,-1.8699456,24.119877,42.52756,-5.885619,-15.000033,-10.311982,-6.3415394,-44.07179,19.862265,-16.613468,-8.294573,-9.327988,5.645965,6.698964,-16.970589,22.283478,-56.058582,45.788033,15.770136,-2.8497462,-3.3370414,-8.342455,-32.164146,28.712795,63.19382,2.6839883,1.1622063,-2.9267206
167,61.16312789916992,54.17317581176758,77.54043579101562,0.4561321553138716,3.3338376896177544,-164.53376848787957,9.863839,-1.9466666,23.525002,41.417503,-5.9332356,-15.000033,-10.503389,-6.1144485,-44.388912,19.839382,-16.442312,-8.626571,-9.410715,5.6276126,6.825463,-17.17759,22.451965,-56.244965,46.319126,15.834585,-2.8223667,-3.2064743,-8.079341,-31.93914,28.43179,62.931767,2.596134,1.1601733,-2.9643407
168,61.51014709472656,54.443687438964844,77.47177124023438,0.2716528638305107,3.2271020880552785,-164.35242161998232,10.097975,-1.9692705,22.763487,40.470673,-6.1250467,-15.000033,-10.63754,-5.768455,-44.672745,19.689919,-16.208626,-8.968893,-9.447577,5.6454153,6.9829473,-17.36102,22.619352,-56.35078,46.84444,15.865414,-2.775092,-3.0987265,-7.8586555,-31.709711,28.216581,62.70339,2.4845662,1.1704853,-2.9944384
169,61.84954071044922,54.719383239746094,77.39957427978516,0.026039816683045433,3.087596550637012,-164.23793141444415,10.250651,-1.9391981,21.763721,39.74994,-6.491402,-15.000033,-10.698633,-5.2729545,-44.908566,19.380499,-15.898342,-9.320545,-9.430686,5.7096124,7.1758013,-17.508427,22.78512,-56.35981,47.359985,15.857598,-2.6997612,-3.021285,-7.66663,-31.477755,28.061665,62.504444,2.3185134,1.1928368,-3.0198662
170,62.19866180419922,54.99628829956055,77.32350158691406,-0.26286895671006055,2.9246654482501966,-164.17223518422125,10.322249,-1.8630761,20.570095,39.201347,-6.984214,-15.000033,-10.706928,-4.667699,-45.110813,18.945288,-15.522719,-9.678944,-9.372326,5.805971,7.396537,-17.631317,22.949818,-56.289165,47.87677,15.819598,-2.603872,-2.9582887,-7.5020742,-31.244244,27.96517,62.32845,2.1123106,1.2293109,-3.043284
171,62.540618896484375,55.283145904541016,77.24418640136719,-0.5796498307702218,2.753032984194567,-164.12629892707903,10.337827,-1.7053499,19.343042,38.796192,-7.571274,-15.000033,-10.687712,-3.993059,-45.307545,18.42038,-15.096585,-10.047719,-9.300252,5.922488,7.629022,-17.733479,23.115128,-56.144455,48.39182,15.7649,-2.501126,-2.9055007,-7.341992,-31.008282,27.886557,62.143795,1.8683591,1.2777449,-3.0546913
172,62.902156829833984,55.573036193847656,77.15882873535156,-0.9094871391835042,2.5852795058410916,-164.0738743511873,10.330312,-1.4394281,18.237007,38.48482,-8.227861,-15.000033,-10.668199,-3.2932444,-45.52454,17.85548,-14.640645,-10.430053,-9.222621,6.04395,7.86795,-17.834898,23.282858,-55.9477,48.90252,15.705903,-2.404268,-2.8578517,-7.2619276,-30.775898,27.88946,62.000156,1.6995596,1.3354341,-3.0457478
173,63.27105712890625,55.86873245239258,77.06515502929688,-1.269308595913467,2.4135342481714375,-164.01130284347985,10.29617,-1.0286523,17.25378,38.298573,-8.993513,-15.000033,-10.622531,-2.5331855,-45.77715,17.20405,-14.141743,-10.832653,-9.164035,6.189196,8.114992,-17.91523,23.45549,-55.66969,49.412186,15.663163,-2.318134,-2.81691,-7.1370173,-30.540445,27.839045,61.793457,1.4690506,1.4113233,-3.0122125
174,63.65321731567383,56.16265106201172,76.96908569335938,-1.6568343550989293,2.235024461572216,-163.94958328213133,10.216768,-0.50629723,16.329239,38.245197,-9.878068,-15.000033,-10.550927,-1.7112145,-46.04698,16.467539,-13.596452,-11.250699,-9.093949,6.352297,8.379274,-17.989292,23.63317,-55.329277,49.919403,15.623017,-2.2344782,-2.7837255,-7.0559444,-30.3073,27.837593,61.60408,1.2704716,1.5020944,-2.9602673
175,64.05784606933594,56.43364334106445,76.87843322753906,-1.7953191984266437,2.1779305819682393,-163.78653335360474,10.0330925,-0.313793,15.670402,38.000267,-10.65075,-13.386165,-10.885797,-1.5200378,-46.308308,16.530687,-13.383638,-11.620219,-9.118975,6.305295,8.494903,-18.04182,23.81586,-54.928097,50.4065,15.550082,-2.1502547,-2.7552207,-6.952325,-30.074541,27.810604,61.36899,1.0175095,1.5940235,-2.8901594
176,64.47188568115234,56.70248794555664,76.7867660522461,-1.880795271812479,2.144274287147307,-163.63476560684586,9.856424,-0.2158177,15.154425,37.66098,-11.405397,-11.481805,-11.300969,-1.4406538,-46.5346,16.71439,-13.197241,-11.9790745,-9.122658,6.2048464,8.588821,-18.098497,24.00355,-54.51183,50.863674,15.404989,-2.0614107,-2.72989,-6.964745,-29.854652,27.911959,61.19738,0.8787822,1.6704357,-2.8039517
177,64.896728515625,56.96962356567383,76.6943588256836,-1.9627279238124622,2.109373026934169,-163.51549200920613,9.717003,-0.12671599,14.711291,37.256126,-12.155792,-9.929264,-11.711875,-1.3404334,-46.726696,16.843546,-12.968476,-12.341272,-9.105312,6.0927386,8.680874,-18.13538,24.197136,-54.046967,51.279938,15.160641,-1.9618568,-2.7174983,-6.999052,-29.644958,28.046022,61.011612,0.75970876,1.7275379,-2.6836958
178,65.33257293701172,57.232810974121094,76.59895324707031,-2.046078426735696,2.0727911689160825,-163.42223209567055,9.601587,-0.03039236,14.332164,36.812477,-12.926815,-8.619833,-12.120003,-1.2196618,-46.89594,16.928082,-12.703392,-12.708538,-9.076485,5.976505,8.771441,-18.149807,24.397768,-53.527313,51.66328,14.839833,-1.8554363,-2.7159965,-6.994208,-29.440771,28.143263,60.763012,0.58721465,1.7749156,-2.5328214
179,65.77311706542969,57.49941635131836,76.50760650634766,-2.1234457154317226,2.041592305316594,-163.35785740768173,9.510386,0.057797372,14.025506,36.312508,-13.728142,-7.5199337,-12.545563,-1.097396,-47.036835,17.0014,-12.401305,-13.073274,-9.020862,5.8467298,8.863697,-18.164452,24.605602,-52.99734,52.023315,14.496083,-1.7541826,-2.7061381,-7.077358,-29.251314,28.335617,60.550865,0.4802437,1.8165901,-2.3846269
180,66.21906280517578,57.764530181884766,76.41435241699219,-2.1877485594862898,2.022241590291301,-163.32518053697106,9.443746,0.12140191,13.799577,35.739403,-14.568707,-6.59622,-13.008783,-0.9925165,-47.144093,17.095776,-12.060874,-13.427724,-8.965857,5.7036924,8.946118,-18.162712,24.822515,-52.46083,52.363678,14.184012,-1.6719028,-2.670909,-7.149725,-29.069485,28.50797,60.285515,0.28514856,1.8616884,-2.2669256
181,66.68132781982422,58.02913284301758,76.3252182006836,-2.2474753490029427,2.0167264014792368,-163.32588107695136,9.424867,0.16326886,13.649235,35.0561,-15.467363,-5.9275966,-13.504695,-0.8876528,-47.21865,17.188526,-11.675063,-13.769746,-8.893549,5.5533876,9.020423,-18.159254,25.048697,-51.931194,52.685455,13.918668,-1.6088992,-2.6078348,-7.2896256,-28.900995,28.74671,60.025482,0.07899291,1.9183679,-2.1785417
182,67.15409851074219,58.295082092285156,76.23287963867188,-2.3037235113470866,2.021543168698499,-163.35774204133602,9.4521675,0.19274724,13.577166,34.270187,-16.403671,-5.5079093,-14.027235,-0.78107697,-47.263725,17.276203,-11.248088,-14.102825,-8.812003,5.397948,9.087289,-18.143282,25.284683,-51.389362,52.983654,13.670494,-1.5596346,-2.5260646,-7.4534435,-28.743788,29.007801,59.739475,-0.1711738,1.9813114,-2.1056013
183,67.64006805419922,58.562381744384766,76.14682006835938,-2.338246382119974,2.0351048989347285,-163.41789242032226,9.489749,0.20010512,13.601171,33.431858,-17.330048,-5.175039,-14.58742,-0.70732933,-47.277477,17.400272,-10.7856245,-14.427514,-8.721174,5.2168117,9.153354,-18.120123,25.531128,-50.856842,53.26275,13.420894,-1.5268574,-2.4235544,-7.646054,-28.59653,29.291391,59.443134,-0.42592242,2.0329747,-2.0643647
184,68.12583923339844,58.833248138427734,76.0671157836914,-2.3314752699404573,2.0555987588397477,-163.50394975542653,9.500131,0.17227149,13.735537,32.597256,-18.205715,-4.7640214,-15.198849,-0.70485073,-47.256313,17.609356,-10.296336,-14.744341,-8.623186,4.988097,9.224171,-18.095797,25.788702,-50.35624,53.52925,13.148149,-1.5135214,-2.2982113,-7.86522,-28.45696,29.58861,59.147633,-0.6578276,2.055904,-2.0714853
185,68.63399505615234,59.100460052490234,75.99229431152344,-2.2727844954076772,2.0672475019741374,-163.58650207018738,9.495451,0.10045986,13.981075,31.780666,-19.043648,-4.222258,-15.858089,-0.83211803,-47.217926,17.986519,-9.825921,-15.000033,-8.54526,4.699881,9.316932,-18.080023,26.05799,-49.900864,53.785282,12.822215,-1.5237511,-2.1417775,-8.117389,-28.325579,29.906599,58.85625,-0.8745849,2.0399334,-2.138774
186,69.14733123779297,59.36565399169922,75.93034362792969,-2.1781102366988634,2.082837378133825,-163.68774235153248,9.487408,-0.005351879,14.341177,30.947004,-19.858994,-3.643337,-16.55035,-1.0488288,-47.144165,18.458876,-9.340396,-15.000033,-8.461805,4.370044,9.41613,-18.06621,26.338734,-49.476067,54.02682,12.465213,-1.5554214,-1.9583005,-8.406997,-28.202524,30.252672,58.567913,-1.0781528,1.996527,-2.2551942
187,69.66963958740234,59.6298942565918,75.87493896484375,-2.041179650566258,2.1072716992673826,-163.82040154137994,9.47677,-0.16317248,14.778155,30.066006,-20.604435,-3.0637603,-17.290842,-1.318091,-47.02236,18.984692,-8.810413,-15.000033,-8.366634,3.9919221,9.516755,-18.043873,26.630594,-49.072777,54.255592,12.119572,-1.6017021,-1.7632627,-8.718447,-28.08393,30.603958,58.278988,-1.2507167,1.9405622,-2.403665
188,70.19513702392578,59.899566650390625,75.8270492553711,-1.8535384257147702,2.1405938703539396,-163.989141991781,9.477784,-0.39698243,15.248916,29.089422,-21.223728,-2.5197039,-18.076204,-1.6364871,-46.847992,19.544214,-8.220399,-15.000033,-8.258553,3.556094,9.617275,-18.00197,26.932178,-48.681347,54.473373,11.830044,-1.6551398,-1.5720015,-9.037265,-27.964424,30.937254,57.98841,-1.3737388,1.8864685,-2.5670345
189,70.72845458984375,60.172550201416016,75.79169464111328,-1.599093657911823,2.1843153474415598,-164.19207115125036,9.50501,-0.7298136,15.770766,27.979942,-21.69385,-2.023481,-18.905844,-2.0402846,-46.673306,20.16894,-7.595024,-15.000033,-8.135333,3.0399754,9.716533,-17.94886,27.243784,-48.30983,54.685818,11.615168,-1.7204657,-1.3779064,-9.391673,-27.842379,31.276285,57.71469,-1.3858246,1.8330579,-2.7504768
190,71.2713623046875,60.44569778442383,75.76909637451172,-1.2876986889308943,2.238498983965062,-164.4267493493015,9.553202,-1.1463094,16.358458,26.758911,-22.04127,-1.5551658,-19.777088,-2.5133615,-46.481243,20.84311,-6.9262567,-15.000033,-8.002459,2.456104,9.814935,-17.88173,27.565699,-47.954483,54.88954,11.451522,-1.7990732,-1.1766165,-9.757504,-27.714195,31.599726,57.436657,-1.3427489,1.774352,-2.959746
191,71.82978057861328,60.71242141723633,75.75249481201172,-0.9524740720750492,2.3019687764564916,-164.69812947828538,9.602443,-1.6080124,16.966938,25.474968,-22.28804,-1.1035581,-20.684204,-2.9683747,-46.168392,21.477324,-6.1496444,-15.000033,-7.855996,1.8449984,9.916841,-17.7958,27.895357,-47.612892,55.08403,11.309058,-1.877856,-0.98567533,-10.1419735,-27.581232,31.919897,57.178043,-1.2898554,1.7147745,-3.181057
192,72.40335845947266,60.97068786621094,75.737548828125,-0.6277030779843005,2.373147065067234,-165.0116705027626,9.63069,-2.0742793,17.553013,24.182512,-22.460308,-0.65826964,-21.620508,-3.3144922,-45.639114,21.98133,-5.203165,-15.000033,-7.6904283,1.2499858,10.027573,-17.67963,28.22691,-47.271126,55.26498,11.169312,-1.9436833,-0.8227784,-10.554657,-27.446297,32.255074,56.96235,-1.2643826,1.659494,-3.4004185
193,72.98050689697266,61.231468200683594,75.73259735107422,-0.3002411723104611,2.446377944543789,-165.3623038930206,9.646115,-2.5712886,18.094845,22.859713,-22.537569,-0.20386426,-22.61676,-3.5957308,-44.884987,22.456871,-4.130833,-15.000033,-7.513732,0.65876865,10.157612,-17.538097,28.555885,-46.92126,55.43881,11.029205,-1.9951915,-0.6822753,-10.998163,-27.310528,32.602154,56.793526,-1.2906494,1.6066877,-3.6357796
194,73.56012725830078,61.48834228515625,75.73404693603516,0.03890041389639369,2.5181143849466237,-165.7383149566034,9.671435,-3.1127503,18.611101,21.472906,-22.510674,0.2461983,-23.651407,-3.833338,-43.971664,22.907698,-2.956656,-15.000033,-7.336223,0.05937173,10.308191,-17.376965,28.880228,-46.571342,55.61021,10.898854,-2.038675,-0.5577552,-11.467124,-27.174038,32.956078,56.660328,-1.3421896,1.5549712,-3.887092
195,74.14318084716797,61.735389709472656,75.74980926513672,0.3827998251026386,2.536986728262239,-166.050644861224,9.79426,-3.6987123,19.035227,19.97751,-22.371176,0.6869506,-24.614079,-4.082202,-42.852245,23.320133,-1.7201563,-14.230919,-7.239066,-0.5353351,10.515109,-17.188078,29.195448,-46.23231,55.774315,10.774851,-2.0723643,-0.46471635,-11.9544325,-27.040014,33.324863,56.557255,-1.3912603,1.5102367,-4.113318
196,74.72023010253906,61.97446060180664,75.77162170410156,0.6714171642913882,2.5290577272615438,-166.33983636524096,9.950442,-4.226805,19.426552,18.492247,-22.195934,1.084948,-25.43661,-4.156323,-41.48349,23.412338,-0.33223674,-12.525565,-7.1768484,-1.0604094,10.741861,-16.96899,29.498201,-45.92479,55.93236,10.646989,-2.0953264,-0.41961184,-12.446675,-26.911493,33.714478,56.47458,-1.4104015,1.4788904,-4.273328
197,75.30006408691406,62.20102310180664,75.79227447509766,0.8842523798864332,2.4960156800776043,-166.60667453472516,10.121134,-4.661184,19.786324,17.043427,-21.999214,1.4420277,-26.126368,-3.9791608,-39.809105,23.137037,1.1830587,-9.971511,-7.154829,-1.490823,10.994492,-16.719013,29.784073,-45.644978,56.080536,10.510417,-2.104223,-0.42299047,-12.953113,-26.792221,34.122337,56.413223,-1.384366,1.4633596,-4.3529277
198,75.86886596679688,62.420475006103516,75.82193756103516,1.04161641215344,2.4406104650896316,-166.85999074022075,10.304717,-5.032167,20.114992,15.611202,-21.761375,1.7696967,-26.710344,-3.596952,-37.852783,22.597193,2.7254665,-6.718341,-7.163092,-1.8495476,11.27098,-16.444496,30.050379,-45.38846,56.226425,10.371325,-2.1007926,-0.4671583,-13.473891,-26.684082,34.547802,56.37474,-1.3267822,1.4602023,-4.3744946
199,76.43041229248047,62.640838623046875,75.85150909423828,1.173367436770088,2.355859478865756,-167.0955083333014,10.518784,-5.373902,20.41326,14.192868,-21.476763,2.0652118,-27.139816,-3.1065903,-35.748234,21.851973,4.212095,-2.933818,-7.192921,-2.1731105,11.557445,-16.147968,30.29667,-45.16909,56.382427,10.240595,-2.0911117,-0.5556443,-13.975175,-26.58418,34.988808,56.342525,-1.263573,1.4668823,-4.351729
200,76.96993255615234,62.85902404785156,75.87859344482422,1.310453340311557,2.235383732518957,-167.30839893006802,10.782352,-5.7204404,20.679308,12.783098,-21.137392,2.3279068,-27.371542,-2.6105356,-33.62456,20.950832,5.6082883,1.2110263,-7.234517,-2.5011876,11.83988,-15.834254,30.52413,-45.002922,56.562237,10.128643,-2.081161,-0.69207925,-14.438254,-26.488667,35.4572,56.314358,-1.205414,1.4800342,-4.298979
201,77.49088287353516,63.07955551147461,75.90139770507812,1.4908633880085234,2.048397081298817,-167.47193729695462,11.167312,-6.1219497,20.881832,11.301207,-20.706429,2.5686116,-27.284042,-2.047135,-31.35735,19.588642,7.174156,6.376814,-7.315041,-2.8780277,12.132721,-15.4978695,30.735447,-44.899014,56.773876,10.017809,-2.076375,-0.8861887,-14.863676,-26.394539,35.964996,56.291943,-1.150509,1.5074418,-4.200966
202,77.9925308227539,63.30058670043945,75.9150161743164,1.6946092627154985,1.8080447845427445,-167.5948412153318,11.658817,-6.5533338,21.023102,9.735159,-20.174816,2.7930293,-26.949795,-1.4362522,-28.918903,17.93396,8.720479,12.419392,-7.432708,-3.2786953,12.434388,-15.137066,30.931564,-44.84666,57.007088,9.909925,-2.071998,-1.1334966,-15.256757,-26.2994,36.497746,56.27574,-1.1006635,1.5481393,-4.0566053
203,78.48782348632812,63.57570266723633,75.91969299316406,1.7606877723795231,1.6862006547220756,-168.01513407858602,11.746583,-6.657594,21.480968,8.845333,-19.927979,2.9070847,-26.487673,-0.55039114,-27.259796,15.972931,10.167909,15.000033,-7.2403264,-3.5560553,12.622093,-14.791595,31.098324,-44.860107,57.28204,9.846437,-2.062353,-1.4162378,-15.590225,-26.209133,37.019505,56.2475,-1.056781,1.5875037,-3.902854
204,78.99421691894531,63.870323181152344,75.96412658691406,1.704773909392898,1.64791096382153,-168.5732017444217,11.525679,-6.508173,22.090807,8.479957,-19.869081,2.9535031,-26.257437,0.08815363,-26.224564,14.881272,10.929588,15.000033,-6.9160733,-3.7083085,12.739658,-14.419304,31.273567,-44.876102,57.526985,9.866258,-2.0352626,-1.7165313,-15.927307,-26.092876,37.561764,56.265064,-1.0205499,1.6041948,-3.7807076
205,79.48828887939453,64.1221694946289,76.0519790649414,1.6053181977604907,1.6098326284844613,-168.99336012468225,11.30667,-6.338888,22.54196,8.0996895,-19.696915,3.0114355,-26.628027,-0.047339436,-25.092762,15.789402,10.3962965,15.000033,-6.7032337,-3.7797303,12.857976,-14.061315,31.418774,-44.93142,57.775837,9.96508,-1.9898001,-2.0378845,-16.256594,-25.978655,38.095467,56.312153,-0.99726456,1.587396,-3.6894515
206,79.95850372314453,64.33116912841797,76.14352416992188,1.506702170472917,1.5672354071268382,-169.31061945327906,10.963449,-6.131425,22.884407,8.012495,-19.586657,3.0751522,-27.363478,-0.70556086,-23.866064,17.94266,9.048832,15.000033,-6.572287,-3.8224604,12.965799,-13.714022,31.527468,-45.029934,58.04386,10.129217,-1.9318568,-2.3873365,-16.56487,-25.870205,38.627327,56.37637,-0.9835169,1.5495836,-3.6107378
207,80.40946197509766,64.52449798583984,76.24267578125,1.4370737815527945,1.519619984422209,-169.5678878564341,10.632565,-5.966992,23.15547,7.9179783,-19.407412,3.1462028,-28.152004,-1.645926,-22.778067,20.527998,7.352476,15.000033,-6.4742126,-3.8695965,13.056731,-13.38025,31.590818,-45.155094,58.328514,10.370077,-1.8596967,-2.742615,-16.828661,-25.78091,39.14547,56.44731,-0.9885866,1.5043466,-3.5472932
208,80.86190795898438,64.71556091308594,76.3510971069336,1.385832349891584,1.4695942968304008,-169.82565695046483,10.310927,-5.8159885,23.426474,7.8312597,-19.187147,3.212006,-28.701744,-2.6478336,-22.099087,22.839579,5.6976256,15.000033,-6.373327,-3.921009,13.1231985,-13.020868,31.626947,-45.251766,58.59336,10.700282,-1.7706666,-3.0814605,-17.060535,-25.682049,39.66745,56.554386,-1.030222,1.463451,-3.5075796
209,81.29949951171875,64.91388702392578,76.46531677246094,1.3364262025111284,1.420968025059233,-170.0998065840324,9.995409,-5.6535697,23.712687,7.7572947,-18.919994,3.2699184,-28.944582,-3.7587469,-22.029352,24.826876,4.0472164,15.000033,-6.2440658,-3.9617012,13.162315,-12.63999,31.631994,-45.33818,58.844345,11.176643,-1.659661,-3.4023118,-17.25239,-25.577953,40.196804,56.700336,-1.1163414,1.4218719,-3.508814
210,81.7302474975586,65.11029815673828,76.58735656738281,1.2969262172967078,1.3644342558185067,-170.3536318011738,9.69743,-5.498786,23.972477,7.6831403,-18.592104,3.3262691,-29.005934,-5.104014,-22.383642,26.811829,2.2120478,15.000033,-6.120508,-3.9965873,13.183758,-12.249885,31.605606,-45.433697,59.091557,11.7681055,-1.5310138,-3.7167463,-17.406488,-25.47316,40.730175,56.876602,-1.2376416,1.3758801,-3.5424583
211,82.15081024169922,65.3030014038086,76.7101058959961,1.2578904526030588,1.2952963395605555,-170.59221676808437,9.420196,-5.338563,24.21548,7.613681,-18.233438,3.370944,-28.916359,-6.550438,-22.91594,28.715517,0.33351862,14.838202,-6.0010614,-4.0193825,13.200083,-11.843101,31.548222,-45.488605,59.317444,12.385853,-1.3950297,-4.0206885,-17.53236,-25.366909,41.246857,57.07849,-1.3775744,1.3388011,-3.5747988
212,82.56475067138672,65.51310729980469,76.83810424804688,1.1600286221355158,1.258438331674061,-170.94103336332032,9.105092,-5.0758977,24.571795,7.5867877,-17.889074,3.3636854,-28.725937,-7.7830615,-23.496693,30.298256,-1.3316638,13.621595,-5.769345,-3.9809065,13.184402,-11.422398,31.465218,-45.46864,59.51131,12.926424,-1.2621319,-4.3087535,-17.626451,-25.254335,41.713387,57.289684,-1.5310527,1.324478,-3.5735857
213,82.97552490234375,65.7235107421875,76.96597290039062,1.0430089749926228,1.2114448767324277,-171.2932205642153,8.808331,-4.7839546,24.934698,7.565272,-17.540604,3.3338044,-28.472723,-8.913157,-23.863321,31.766665,-2.9002917,12.312339,-5.5306373,-3.9089653,13.172508,-10.969906,31.355103,-45.34336,59.65221,13.40405,-1.1227186,-4.5842915,-17.701956,-25.136919,42.14559,57.53176,-1.7023394,1.3364303,-3.5451393
214,83.37985229492188,65.92830657958984,77.09275817871094,0.9100177998548202,1.1569262683124701,-171.64675858924505,8.527574,-4.465357,25.299307,7.5488014,-17.175238,3.2855039,-28.13217,-10.006629,-24.170856,33.152832,-4.4371743,10.917493,-5.2885957,-3.806352,13.157554,-10.48981,31.218351,-45.139378,59.749233,13.854529,-0.9749105,-4.8484488,-17.754955,-25.015017,42.553246,57.803936,-1.8963703,1.3672136,-3.502091
215,83.773681640625,66.13468933105469,77.22090911865234,0.7742164062306159,1.0992060911698474,-171.99147646073493,8.256483,-4.136765,25.6537,7.53555,-16.801073,3.2208064,-27.7126,-11.07737,-24.465082,34.450024,-5.87973,9.591355,-5.0509515,-3.6922417,13.131912,-9.993745,31.059376,-44.877342,59.812782,14.231414,-0.83591384,-5.0925565,-17.787941,-24.888847,42.92241,58.084972,-2.0840096,1.4110098,-3.4180503
216,84.16053009033203,66.34602355957031,77.34542846679688,0.6493997204474279,1.0431543719065357,-172.31782238895437,7.9882174,-3.8164406,25.986753,7.522746,-16.425314,3.14454,-27.221182,-12.1467905,-24.79535,35.65145,-7.16382,8.488226,-4.825491,-3.5872314,13.08838,-9.495115,30.886509,-44.582436,59.852676,14.482392,-0.72242665,-5.3074293,-17.805578,-24.759552,43.239655,58.355263,-2.2363393,1.4615873,-3.266875
217,84.54612731933594,66.56049346923828,77.46409606933594,0.5312571901271606,0.9863377964412311,-172.62323541288816,7.7256513,-3.4994128,26.29638,7.509054,-16.04044,3.0473623,-26.63946,-13.220746,-25.208155,36.753227,-8.237903,7.675686,-4.614456,-3.4882054,13.030329,-8.985117,30.705042,-44.237797,59.855267,14.592183,-0.62883013,-5.4897165,-17.79349,-24.625635,43.47795,58.60575,-2.3543525,1.5168123,-3.0268617
218,84.9207992553711,66.76553344726562,77.57801818847656,0.4133628704696867,0.928294716634976,-172.91392529289635,7.47171,-3.1780612,26.588818,7.493776,-15.644956,2.930024,-25.967861,-14.290384,-25.683693,37.76881,-9.140696,7.0555344,-4.412843,-3.3874125,12.960768,-8.456605,30.516785,-43.83529,59.810844,14.588592,-0.54773647,-5.644614,-17.756506,-24.487894,43.652462,58.848858,-2.451125,1.5795437,-2.7168806
219,85.29154968261719,66.97784423828125,77.68521881103516,0.30658847853127125,0.8768841668740894,-173.19339159133014,7.2125735,-2.8638043,26.866611,7.4865246,-15.259839,2.8105514,-25.24244,-15.355612,-26.170189,38.713413,-9.943642,6.535399,-4.217577,-3.2957008,12.873965,-7.9274893,30.326155,-43.416367,59.734367,14.479344,-0.49301103,-5.775304,-17.709587,-24.348915,43.79241,59.07646,-2.532555,1.6530685,-2.3713703
220,85.65369415283203,67.19109344482422,77.78392028808594,0.22186349044846468,0.8398671684893825,-173.4654918034875,6.9445977,-2.5738366,27.132442,7.4740715,-14.893851,2.7076437,-24.501019,-16.414654,-26.610846,39.600216,-10.71936,6.025857,-4.023994,-3.2248657,12.764337,-7.416791,30.138542,-43.02515,59.641823,14.270889,-0.47876444,-5.8854103,-17.665155,-24.213036,43.92271,59.27908,-2.6079724,1.7404909,-2.0245743
221,86.0153579711914,67.40412139892578,77.87641906738281,0.16277179689832408,0.8226547377279007,-173.7293680073785,6.6599164,-2.3124871,27.384691,7.4596148,-14.5540905,2.6291766,-23.752737,-17.475704,-27.008722,40.445663,-11.476791,5.5065656,-3.8307533,-3.1787095,12.627136,-6.9218373,29.956976,-42.65547,59.53011,13.912627,-0.5151457,-5.9793077,-17.617493,-24.08305,44.036766,59.44412,-2.6833007,1.8576258,-1.6586026
222,86.37480926513672,67.6216812133789,77.95893859863281,0.12236641035868594,0.8203536103655,-173.9842533536618,6.364204,-2.0713398,27.623896,7.442831,-14.231471,2.5643775,-22.978617,-18.533575,-27.39258,41.24282,-12.17914,5.022657,-3.6388521,-3.150684,12.467994,-6.4334335,29.782763,-42.289986,59.38814,13.4171295,-0.59202766,-6.054852,-17.56227,-23.960281,44.125137,59.575523,-2.7513232,1.9980099,-1.2638055
223,86.72327423095703,67.8432388305664,78.03852844238281,0.09772172624948706,0.826268010885818,-174.2343537741481,6.063745,-1.8449425,27.855734,7.427937,-13.923053,2.503976,-22.176521,-19.565926,-27.739834,41.965485,-12.829384,4.584845,-3.446464,-3.1372533,12.296793,-5.959668,29.61886,-41.955387,59.219757,12.887222,-0.69307625,-6.1062713,-17.505075,-23.846199,44.198982,59.681343,-2.8106203,2.1319785,-0.8865646
224,87.06533813476562,68.06344604492188,78.11131286621094,0.08524728841239765,0.8333900596759528,-174.4840022539237,5.768485,-1.6293324,28.086191,7.41052,-13.621388,2.438802,-21.348526,-20.550627,-28.026222,42.591896,-13.432565,4.2041483,-3.2501302,-3.1344304,12.123407,-5.5105233,29.46868,-41.680992,59.030502,12.425121,-0.8024584,-6.126912,-17.456642,-23.742804,44.276867,59.77346,-2.8488195,2.2297964,-0.5734404
225,87.40638732910156,68.27890014648438,78.1712646484375,0.08251033297324545,0.8430054381547502,-174.73402454573178,5.4778256,-1.4220185,28.315533,7.3917994,-13.324354,2.3688338,-20.49381,-21.475935,-28.231937,43.11421,-13.981231,3.8921318,-3.0489905,-3.1391487,11.945625,-5.082819,29.334455,-41.47343,58.81298,12.034191,-0.9233253,-6.1114106,-17.415293,-23.652191,44.35847,59.850876,-2.8528943,2.2808561,-0.3290812
226,87.74617004394531,68.50586700439453,78.2264404296875,0.09136922138805598,0.8580078921813933,-174.98261555870135,5.1877675,-1.2255915,28.541878,7.3709383,-13.034236,2.2983475,-19.615095,-22.35413,-28.376518,43.54987,-14.475436,3.6391587,-2.8432896,-3.1536815,11.760694,-4.671658,29.216938,-41.317596,58.564224,11.668289,-1.062257,-6.065101,-17.374079,-23.574938,44.43363,59.903965,-2.8317738,2.302542,-0.13114189
227,88.08259582519531,68.73900604248047,78.27491760253906,0.11491628892455576,0.8743914485000973,-175.23048250504374,4.8998084,-1.0422167,28.767065,7.3517337,-12.757979,2.2239568,-18.716797,-23.197767,-28.493925,43.91029,-14.929669,3.4248157,-2.6327085,-3.1833966,11.577289,-4.2855096,29.117405,-41.212555,58.29828,11.351378,-1.2086377,-5.9964623,-17.333961,-23.510052,44.50041,59.932106,-2.816386,2.306746,0.014405507
228,88.41126251220703,68.97159576416016,78.31493377685547,0.15628385605140674,0.8880951278605193,-175.47820607312767,4.6186967,-0.8759178,28.993155,7.328825,-12.496693,2.1426153,-17.803698,-24.021044,-28.618132,44.20959,-15.360215,3.22908,-2.4164848,-3.2342043,11.403507,-3.9319496,29.036932,-41.15533,58.02902,11.110068,-1.3513767,-5.9137554,-17.306324,-23.456886,44.570953,59.943546,-2.8232374,2.3046808,0.1011356
229,88.74003601074219,69.20516967773438,78.34375,0.21512523676186193,0.8969814327032856,-175.7264882664262,4.3403134,-0.72146887,29.22352,7.3199677,-12.268821,2.0517576,-16.870087,-24.824425,-28.752497,44.452812,-15.774104,3.0389314,-2.194126,-3.3071995,11.244445,-3.6101108,28.985897,-41.15719,57.74519,10.951354,-1.49378,-5.814462,-17.280201,-23.419744,44.630928,59.91714,-2.8843777,2.3003669,0.12408161
230,89.06981658935547,69.44500732421875,78.36263275146484,0.2891372422564173,0.9034463538291717,-175.97485017404486,4.0690145,-0.5808657,29.456179,7.3075676,-12.059345,1.9537494,-15.914328,-25.599691,-28.882881,44.63298,-16.16164,2.8667421,-1.965783,-3.4000502,11.1012335,-3.3093648,28.969065,-41.20457,57.428795,10.868721,-1.638399,-5.69703,-17.249958,-23.405645,44.67305,59.841934,-2.986317,2.2884881,0.08931321
231,89.39997863769531,69.69436645507812,78.37903594970703,0.3823420898072746,0.9115929584848641,-176.22283191918402,3.8008413,-0.4589541,29.68664,7.2914357,-11.854265,1.8514477,-14.951471,-26.350864,-29.012453,44.753323,-16.518261,2.7311516,-1.7383715,-3.5112212,10.957083,-3.0400598,28.958187,-41.287895,57.127537,10.842457,-1.7768234,-5.565671,-17.239878,-23.39166,44.73237,59.77754,-3.0770574,2.2641494,0.0019194294
232,89.72782135009766,69.9443130493164,78.38919830322266,0.49876954581533195,0.9254737268333768,-176.47015552514256,3.524486,-0.35640377,29.910599,7.2866855,-11.646495,1.7476782,-13.99794,-27.08315,-29.14332,44.819138,-16.840502,2.6505494,-1.5049294,-3.6444862,10.815998,-2.8036506,28.955275,-41.38798,56.841797,10.860436,-1.8982676,-5.4311004,-17.237152,-23.380327,44.787983,59.722565,-3.1390977,2.2239704,-0.12677617
233,90.05815124511719,70.19530487060547,78.38887023925781,0.6409981430584877,0.9433500707364212,-176.7184860789055,3.2426636,-0.27692556,30.126574,7.295387,-11.439145,1.638437,-13.048348,-27.800951,-29.279295,44.832024,-17.133986,2.631433,-1.2638886,-3.8036613,10.6782055,-2.5991678,28.96082,-41.50926,56.561127,10.951349,-1.9915518,-5.2911916,-17.243284,-23.369722,44.844727,59.68001,-3.1662858,2.162015,-0.31566626
234,90.38651275634766,70.45303344726562,78.38162231445312,0.8064067440266228,0.9646300921700738,-176.96797361657468,2.9622562,-0.22116694,30.337513,7.3015256,-11.229444,1.5224116,-12.097784,-28.499043,-29.418264,44.79131,-17.399437,2.6622856,-1.020395,-3.9851646,10.546926,-2.4241807,28.973114,-41.645172,56.285023,11.118147,-2.0660667,-5.1439447,-17.261763,-23.36293,44.900993,59.64305,-3.1763656,2.0800605,-0.5613891
235,90.71151733398438,70.71241760253906,78.3729248046875,0.9908588275257221,0.9935733663313981,-177.2147556718221,2.672632,-0.18140648,30.545712,7.3112783,-11.012536,1.4111968,-11.157476,-29.172201,-29.5549,44.695065,-17.625044,2.7354355,-0.7568735,-4.190962,10.411344,-2.2879474,29.012333,-41.838253,56.030273,11.270634,-2.1328545,-4.9906964,-17.276133,-23.351282,44.9452,59.616184,-3.1634345,1.9943385,-0.8300525
236,91.03585815429688,70.98152923583984,78.35771942138672,1.1890033463874843,1.0339571185189147,-177.45518661778803,2.363959,-0.14966115,30.75253,7.3277287,-10.781237,1.3130376,-10.239975,-29.810263,-29.683865,44.541325,-17.799055,2.8425622,-0.5022984,-4.41006,10.282438,-2.1726117,29.05841,-42.009556,55.8149,11.388357,-2.2091613,-4.838328,-17.304502,-23.343948,44.98736,59.590965,-3.1329598,1.9208301,-1.07719
237,91.36676788330078,71.24946594238281,78.33963012695312,1.4050345634615675,1.0912744869938313,-177.68870588781976,2.0302243,-0.13102312,30.959179,7.3480496,-10.533053,1.2295871,-9.347644,-30.421747,-29.811892,44.334305,-17.923952,2.9868321,-0.24959068,-4.6467595,10.147484,-2.091012,29.110207,-42.194103,55.657032,11.435101,-2.3054473,-4.678005,-17.341976,-23.339243,45.03201,59.575535,-3.0642633,1.8592526,-1.307706
238,91.69532775878906,71.52508544921875,78.32106018066406,1.6397945899602349,1.1621238354542893,-177.91712740826256,1.6766685,-0.12697801,31.165014,7.3729105,-10.272314,1.1560116,-8.474555,-31.009361,-29.937586,44.077187,-18.00721,3.1697245,0.016439594,-4.910137,10.012768,-2.0381682,29.198904,-42.41065,55.517952,11.433782,-2.4097323,-4.5124583,-17.38314,-23.334648,45.065777,59.56571,-2.960323,1.8014883,-1.5384797
239,92.02544403076172,71.79801177978516,78.29934692382812,1.8832977619613185,1.2377591944776933,-178.14028687051493,1.2674564,-0.09616719,31.367512,7.519895,-10.06026,1.0905244,-7.6197076,-31.552883,-30.043657,43.75792,-18.039837,3.380257,0.2718717,-5.1786284,9.885855,-2.006506,29.282724,-42.601185,55.419678,11.428493,-2.5085268,-4.3545985,-17.433807,-23.332762,45.099155,59.55706,-2.858389,1.7543108,-1.7505239
