Frame,root_translateX,root_translateY,root_translateZ,root_rotateX,root_rotateY,root_rotateZ,left_hip_pitch_joint_dof,left_hip_roll_joint_dof,left_hip_yaw_joint_dof,left_knee_joint_dof,left_ankle_pitch_joint_dof,left_ankle_roll_joint_dof,right_hip_pitch_joint_dof,right_hip_roll_joint_dof,right_hip_yaw_joint_dof,right_knee_joint_dof,right_ankle_pitch_joint_dof,right_ankle_roll_joint_dof,waist_yaw_joint_dof,waist_roll_joint_dof,waist_pitch_joint_dof,left_shoulder_pitch_joint_dof,left_shoulder_roll_joint_dof,left_shoulder_yaw_joint_dof,left_elbow_joint_dof,left_wrist_roll_joint_dof,left_wrist_pitch_joint_dof,left_wrist_yaw_joint_dof,right_shoulder_pitch_joint_dof,right_shoulder_roll_joint_dof,right_shoulder_yaw_joint_dof,right_elbow_joint_dof,right_wrist_roll_joint_dof,right_wrist_pitch_joint_dof,right_wrist_yaw_joint_dof
0,0.02059902623295784,1.3385753631591797,78.3185806274414,0.6061803725629654,3.676689198853609,-92.78021377719593,-1.766751,9.029164,27.797314,10.592378,-10.326049,-6.763706,-5.866922,-8.692786,-19.5743,11.533237,-8.1035385,5.1256123,-2.2483566,-1.4846221,5.3401604,-0.37573475,25.693298,-38.59157,48.637516,16.242477,4.733453,-0.9983593,-5.6323843,-23.978588,51.74921,51.255257,-8.68227,-0.83191025,-6.2178745
1,0.019870012998580933,1.3345081806182861,78.31642150878906,0.601518693780841,3.6775589026994706,-92.78138366821362,-1.7644054,9.03557,27.797005,10.595857,-10.334357,-6.773526,-5.8588786,-8.686727,-19.578115,11.523533,-8.098764,5.124789,-2.2545302,-1.4834052,5.3278775,-0.34829694,25.744797,-38.403126,48.599842,16.245857,4.7464547,-0.9867084,-5.5955415,-24.014343,51.461746,51.181007,-8.63684,-0.81493574,-6.20361
2,0.01949210837483406,1.3300094604492188,78.3167495727539,0.5968055764388079,3.6785607404909966,-92.78274311168816,-1.7618666,9.041756,27.796734,10.59891,-10.342983,-6.784052,-5.8511534,-8.680973,-19.582047,11.514586,-8.094077,5.1247187,-2.2661805,-1.4785982,5.306417,-0.3297767,25.775059,-38.228615,48.58779,16.244902,4.759522,-0.9693138,-5.5716157,-24.03486,51.19599,51.13561,-8.580771,-0.79772556,-6.1890373
3,0.01973436027765274,1.324592113494873,78.31684875488281,0.5920173062918875,3.6792713275483226,-92.78374389477712,-1.7599889,9.048641,27.796438,10.603792,-10.351728,-6.793264,-5.8442245,-8.675184,-19.585495,11.507519,-8.091254,5.1232185,-2.2596455,-1.4818578,5.30444,-0.30074784,25.849127,-38.035675,48.528004,16.249746,4.7718954,-0.9634263,-5.517616,-24.088203,50.878693,51.029118,-8.545709,-0.78173876,-6.174097
4,0.02010418474674225,1.3187174797058105,78.31636047363281,0.5873617582238987,3.6799924616884847,-92.78386569316065,-1.759485,9.056115,27.796022,10.61111,-10.359868,-6.798813,-5.8370605,-8.668801,-19.588676,11.50053,-8.091014,5.1182265,-2.259605,-1.4844097,5.2960844,-0.26111838,25.927773,-37.797646,48.474182,16.258608,4.7817473,-0.963473,-5.4731436,-24.148697,50.583168,50.917706,-8.492791,-0.76775014,-6.18123
5,0.019987883046269417,1.3146820068359375,78.31603240966797,0.5815254043376907,3.680490048349257,-92.78231016369519,-1.7604727,9.065824,27.795439,10.622002,-10.36684,-6.7992744,-5.829214,-8.660228,-19.591747,11.494026,-8.095623,5.1055746,-2.262214,-1.4867033,5.284714,-0.21339564,26.012526,-37.51556,48.42825,16.285109,4.7907186,-0.97723,-5.4302487,-24.217878,50.305473,50.79638,-8.433127,-0.7561427,-6.224833
6,0.018045699223876,1.3082669973373413,78.31612396240234,0.5751431828698734,3.680778568794914,-92.7794680208482,-1.7643998,9.07788,27.794394,10.639347,-10.375148,-6.7960978,-5.8242445,-8.651429,-19.594296,11.494747,-8.107258,5.0876994,-2.266587,-1.488964,5.2732244,-0.16103294,26.103727,-37.201466,48.385906,16.322327,4.7989874,-1.0008612,-5.393473,-24.295689,50.044056,50.667522,-8.363069,-0.7462006,-6.2938657
7,0.017590731382369995,1.3030781745910645,78.31716918945312,0.5695692434609619,3.6811126273489485,-92.7770832605868,-1.7671403,9.088198,27.7938,10.653975,-10.381694,-6.7916737,-5.818169,-8.643059,-19.59622,11.4919815,-8.116365,5.071966,-2.27079,-1.4922466,5.261472,-0.0995695,26.201727,-36.838734,48.338634,16.357155,4.801713,-1.024699,-5.357597,-24.38186,49.764946,50.52235,-8.289567,-0.7388488,-6.357937
8,0.017602834850549698,1.2981199026107788,78.31890869140625,0.5668428399043888,3.6816861593848214,-92.77677662350978,-1.7670981,9.093391,27.793972,10.661923,-10.386892,-6.788392,-5.812303,-8.638189,-19.596872,11.487007,-8.120412,5.0659466,-2.2752895,-1.4988196,5.248752,-0.028645761,26.307116,-36.412666,48.282784,16.372202,4.7940917,-1.0392803,-5.309835,-24.477722,49.42843,50.346245,-8.229598,-0.73524344,-6.38662
9,0.018147114664316177,1.2932889461517334,78.31912994384766,0.5681132104362702,3.6828269260910544,-92.77975703473919,-1.763294,9.091046,27.794813,10.660667,-10.38952,-6.7859716,-5.8074408,-8.638443,-19.59539,11.479033,-8.116228,5.074575,-2.2766263,-1.5096588,5.237253,0.051345177,26.420603,-35.922886,48.21815,16.368103,4.7678156,-1.0456347,-5.254038,-24.583809,49.02358,50.143524,-8.181694,-0.74203366,-6.363584
10,0.01830023154616356,1.2897404432296753,78.31632232666016,0.572378885713855,3.684361440634661,-92.78489710875984,-1.7574538,9.083785,27.796206,10.653975,-10.390706,-6.7834597,-5.801751,-8.641851,-19.59264,11.465837,-8.105358,5.0928936,-2.2755163,-1.5241404,5.226698,0.13944316,26.542473,-35.377613,48.14702,16.350458,4.7276607,-1.0479068,-5.1897764,-24.701014,48.567577,49.91469,-8.142753,-0.75644624,-6.3075213
11,0.01967138610780239,1.284451961517334,78.31626892089844,0.5770384229632093,3.68567980463699,-92.79035398399921,-1.74969,9.074945,27.798492,10.643627,-10.390968,-6.782178,-5.7957788,-8.645965,-19.589476,11.452007,-8.093378,5.113442,-2.2728496,-1.5395067,5.2162237,0.237836,26.67311,-34.774555,48.061466,16.314796,4.689153,-1.0405416,-5.1217813,-24.830153,48.08113,49.65484,-8.098777,-0.7647704,-6.2405324
12,0.020626798272132874,1.2839925289154053,78.31724548339844,0.5799157798488439,3.686312420388285,-92.79442093763767,-1.7421483,9.068619,27.80201,10.635989,-10.39342,-6.7834044,-5.792595,-8.649533,-19.586475,11.447868,-8.089323,5.1289263,-2.271823,-1.5541623,5.2046046,0.3463953,26.812805,-34.11176,47.95675,16.25428,4.6677876,-1.0183239,-5.0511336,-24.972908,47.58285,49.3567,-8.041209,-0.7532673,-6.184731
13,0.02139621414244175,1.2788349390029907,78.31817626953125,0.5799870025428614,3.6854918964328305,-92.79644254237124,-1.7315816,9.064917,27.808014,10.625521,-10.396334,-6.789613,-5.788011,-8.65085,-19.58444,11.447437,-8.091139,5.1379776,-2.2730868,-1.5671138,5.1918936,0.47198328,26.960896,-33.376427,47.829723,16.184776,4.674699,-0.97610295,-4.979151,-25.131111,47.08297,49.02059,-7.9589458,-0.7169144,-6.154014
14,0.025910135358572006,1.2743421792984009,78.31715393066406,0.5785768775576954,3.683798934611787,-92.79744235022073,-1.7187012,9.061999,27.815954,10.612651,-10.399679,-6.799297,-5.7835803,-8.65182,-19.582739,11.45131,-8.097161,5.144363,-2.276538,-1.5792384,5.1795006,0.61277914,27.117128,-32.571926,47.683056,16.103443,4.6991816,-0.9181639,-4.90618,-25.304688,46.57272,48.648777,-7.8571424,-0.66327053,-6.1339707
15,0.02728302776813507,1.2691030502319336,78.31595611572266,0.5769190280088564,3.682408813192878,-92.79811534773071,-1.7074652,9.060396,27.823557,10.602029,-10.403048,-6.8082724,-5.779728,-8.65201,-19.581114,11.455611,-8.104194,5.148252,-2.2818482,-1.5913365,5.166077,0.7646351,27.283169,-31.718607,47.515533,15.980065,4.7237387,-0.85314393,-4.8285475,-25.493374,46.038517,48.236637,-7.7549,-0.59785056,-6.104119
16,0.027122484520077705,1.2649521827697754,78.31591033935547,0.5756590628139003,3.6824802862961254,-92.79917042888671,-1.7011001,9.059898,27.828407,10.596427,-10.4050665,-6.812299,-5.7761765,-8.651,-19.57934,11.454624,-8.107868,5.149979,-2.287571,-1.6044714,5.1519794,0.91783077,27.46186,-30.840488,47.328037,15.781742,4.7308087,-0.7897366,-4.746344,-25.696096,45.46805,47.781124,-7.667323,-0.5260156,-6.044022
17,0.02536456659436226,1.261373519897461,78.31705474853516,0.5756085140235466,3.685127414517194,-92.80113302455854,-1.7033393,9.061578,27.829245,10.6006365,-10.405835,-6.808016,-5.775022,-8.649224,-19.57662,11.449605,-8.109263,5.148366,-2.2913303,-1.6203347,5.1357822,1.075281,27.65533,-29.933262,47.118908,15.48578,4.714949,-0.725985,-4.6543913,-25.911728,44.851257,47.277386,-7.592563,-0.44541207,-5.9466267
18,0.0243734959512949,1.2636185884475708,78.31532287597656,0.5759728320700599,3.6893110954391948,-92.80338018553215,-1.710773,9.064436,27.827583,10.61008,-10.405158,-6.7983627,-5.774768,-8.646312,-19.573473,11.440334,-8.108599,5.143688,-2.2937336,-1.6390908,5.1178994,1.2409244,27.864101,-28.989155,46.88759,15.11273,4.6855907,-0.6592098,-4.551412,-26.140574,44.19457,46.72709,-7.52615,-0.35434312,-5.82331
19,0.02401767298579216,1.2617219686508179,78.31693267822266,0.5760797109088872,3.6937089261174028,-92.80552850928422,-1.7195396,9.068476,27.825136,10.622045,-10.405002,-6.788801,-5.774079,-8.642761,-19.571133,11.429933,-8.106838,5.1383247,-2.2960868,-1.6581575,5.100855,1.4132326,28.08867,-28.02443,46.630596,14.698601,4.647737,-0.5967745,-4.4432106,-26.382477,43.51006,46.13755,-7.4770966,-0.25950292,-5.6808543
20,0.023567449301481247,1.2573153972625732,78.31700134277344,0.5754415582024638,3.696867653150086,-92.8069664535107,-1.7244064,9.072336,27.824112,10.629864,-10.40492,-6.784567,-5.7709765,-8.63889,-19.571232,11.419356,-8.1034155,5.134685,-2.2988834,-1.6755525,5.0880423,1.585394,28.3285,-27.057934,46.347824,14.277484,4.6067,-0.5458648,-4.3400693,-26.636919,42.8108,45.51967,-7.452781,-0.16761956,-5.5260663
21,0.02340177446603775,1.2526859045028687,78.31803131103516,0.5735403839521774,3.6972401382486884,-92.80641207794436,-1.7213137,9.075018,27.824467,10.629584,-10.404302,-6.7885094,-5.761437,-8.634749,-19.57636,11.40606,-8.096381,5.1335297,-2.3030105,-1.6902981,5.0783553,1.7587785,28.583246,-26.090067,46.037445,13.8569355,4.561664,-0.5141951,-4.2355165,-26.904186,42.090313,44.875256,-7.478047,-0.08331103,-5.3510365
22,0.023338302969932556,1.2476917505264282,78.3180923461914,0.5706519047080482,3.696063819250701,-92.80461983662651,-1.7132729,9.07729,27.825317,10.623733,-10.402493,-6.79737,-5.746819,-8.629467,-19.58515,11.388887,-8.0858755,5.1334043,-2.3069077,-1.7033075,5.0708413,1.9362855,28.852701,-25.112926,45.700092,13.419051,4.510706,-0.49612987,-4.1281304,-27.184149,41.344727,44.20059,-7.539941,-0.002274476,-5.155172
23,0.02109135314822197,1.2457818984985352,78.32003021240234,0.5674937190839371,3.695686712761123,-92.80378029772949,-1.7076269,9.080769,27.827307,10.6214,-10.403366,-6.80725,-5.735502,-8.624277,-19.592632,11.3750925,-8.076477,5.1338773,-2.3101587,-1.7162545,5.066729,2.1121135,29.135834,-24.131176,45.343834,12.960284,4.457533,-0.4788004,-4.023779,-27.475605,40.586388,43.48863,-7.5975676,0.08223171,-4.9560947
24,0.02143140509724617,1.2408825159072876,78.32156372070312,0.5646204175919337,3.6986411163803448,-92.80624369138043,-1.7092558,9.086167,27.831247,10.625299,-10.406753,-6.8143535,-5.7314563,-8.618248,-19.594376,11.36185,-8.067435,5.1344576,-2.3129652,-1.7313421,5.065592,2.2807763,29.431154,-23.149315,44.978508,12.477581,4.405614,-0.44889462,-3.9295783,-27.778242,39.829567,42.73649,-7.6117005,0.1769726,-4.7715993
25,0.02100278064608574,1.245193362236023,78.3206558227539,0.5615246662528738,3.7067945490095817,-92.81311069933301,-1.7226918,9.095026,27.83788,10.640097,-10.4155855,-6.81819,-5.7394376,-8.611283,-19.587837,11.352695,-8.061184,5.13518,-2.3158143,-1.7482073,5.066396,2.4398057,29.73779,-22.16747,44.611473,11.941767,4.3479357,-0.40338892,-3.8459415,-28.091114,39.076435,41.937286,-7.56191,0.2904662,-4.6070514
26,0.022783521562814713,1.2467416524887085,78.31956481933594,0.5580559963914327,3.7183345573401234,-92.82295431573058,-1.7441233,9.10665,27.846489,10.66284,-10.4287,-6.8206096,-5.753991,-8.60271,-19.576134,11.342635,-8.054386,5.1361527,-2.3190143,-1.7660708,5.0685644,2.5917704,30.055502,-21.182993,44.238533,11.364314,4.2850175,-0.34914726,-3.7708116,-28.414112,38.32177,41.098034,-7.4726996,0.4171323,-4.4529605
27,0.020377347245812416,1.2500659227371216,78.31710815429688,0.5552187340779559,3.730414601453608,-92.83435179541092,-1.7654814,9.117374,27.856323,10.683636,-10.440256,-6.8213778,-5.770241,-8.594336,-19.562565,11.332822,-8.047338,5.137286,-2.3217165,-1.7851418,5.0743227,2.7394354,30.382677,-20.19663,43.848545,10.802533,4.231476,-0.28808334,-3.7047696,-28.746178,37.564518,40.230343,-7.369975,0.5430277,-4.3049445
28,0.01920684613287449,1.2498046159744263,78.3160629272461,0.5531752227762542,3.739945627375271,-92.84584067913588,-1.780234,9.124815,27.866394,10.6972685,-10.447146,-6.820211,-5.7823095,-8.587531,-19.550877,11.322369,-8.039609,5.138347,-2.323454,-1.8051941,5.085229,2.883838,30.717087,-19.209497,43.433407,10.313884,4.202094,-0.22145897,-3.6468654,-29.085505,36.803455,39.345043,-7.2801123,0.653819,-4.1585436
29,0.01911473460495472,1.245270013809204,78.31808471679688,0.5531253063927818,3.746229605023529,-92.8566690499634,-1.7870569,9.127387,27.875887,10.702496,-10.447634,-6.8156314,-5.7909164,-8.584415,-19.54263,11.316189,-8.033652,5.1402035,-2.324671,-1.8257661,5.1005077,3.0243897,31.057753,-18.22418,42.997074,9.921659,4.205726,-0.14657474,-3.5972452,-29.430847,36.033817,38.44922,-7.2068114,0.73582274,-4.0084643
30,0.020399514585733414,1.2460774183273315,78.31904602050781,0.5542555396835823,3.750883361048859,-92.86778455635266,-1.7891573,9.126603,27.88563,10.701705,-10.443531,-6.808195,-5.7965317,-8.58298,-19.535822,11.309295,-8.027011,5.1426015,-2.3252642,-1.8467422,5.1187243,3.159095,31.404638,-17.240286,42.544914,9.592612,4.232986,-0.06291267,-3.5568202,-29.78206,35.257584,37.53839,-7.1373777,0.7999034,-3.8584785
31,0.02151820994913578,1.250780701637268,78.32035064697266,0.5555237855862666,3.7543272427274714,-92.88010384583761,-1.7878826,9.1248865,27.896484,10.696988,-10.437841,-6.800868,-5.8018217,-8.581457,-19.527687,11.303394,-8.020228,5.1438756,-2.3239512,-1.8686912,5.1410437,3.2879176,31.756409,-16.253613,42.069424,9.299743,4.2711725,0.025041968,-3.528436,-30.138512,34.485523,36.607727,-7.0724216,0.8685097,-3.7177029
32,0.02246396243572235,1.2519192695617676,78.3211669921875,0.555643498699761,3.7570106881409604,-92.89460534168214,-1.7831275,9.123807,27.909693,10.68674,-10.432135,-6.79666,-5.8064647,-8.577629,-19.515768,11.295139,-8.011705,5.142505,-2.320027,-1.8916155,5.1683965,3.411475,32.11096,-15.258966,41.563034,9.016527,4.3075523,0.112612315,-3.5171752,-30.498947,33.729786,35.655125,-7.012386,0.9641611,-3.5956025
33,0.02238377556204796,1.2529851198196411,78.32083892822266,0.5541187200895346,3.7578827355223834,-92.91131420559124,-1.7737583,9.124115,27.924927,10.6715355,-10.428887,-6.796804,-5.811736,-8.57092,-19.498692,11.287978,-8.002989,5.136592,-2.3145447,-1.9155282,5.2002726,3.5319605,32.46746,-14.245083,41.022038,8.762787,4.350123,0.18804006,-3.5248024,-30.862595,32.99528,34.67796,-6.9527597,1.1018813,-3.4956973
34,0.023876147344708443,1.2600436210632324,78.32157135009766,0.5517130699427664,3.757096343198428,-92.92982284115276,-1.7588665,9.124327,27.942106,10.648516,-10.424791,-6.799611,-5.816193,-8.562482,-19.478241,11.280616,-7.993918,5.127554,-2.3094306,-1.9402522,5.235377,3.6511073,32.826122,-13.215313,40.45078,8.544376,4.4020414,0.2573911,-3.5518706,-31.229662,32.278355,33.681828,-6.8948245,1.2665467,-3.4130437
35,0.02516905404627323,1.2623172998428345,78.3220443725586,0.5490357767398154,3.756813004637632,-92.95027195958939,-1.744976,9.125411,27.961212,10.626571,-10.4209175,-6.8034554,-5.821728,-8.552977,-19.455399,11.271955,-7.9830084,5.118297,-2.3038282,-1.9656099,5.273866,3.764321,33.185467,-12.189083,39.856846,8.313884,4.4432383,0.34277272,-3.600347,-31.599428,31.576458,32.674522,-6.847555,1.4357451,-3.3442678
36,0.02451869659125805,1.2652428150177002,78.32146453857422,0.5472464020768476,3.7590543357214217,-92.9726109647902,-1.7369624,9.127521,27.982853,10.6110525,-10.416267,-6.806729,-5.8315635,-8.544342,-19.431002,11.263646,-7.970359,5.1120243,-2.2963815,-1.9917431,5.314979,3.863338,33.542625,-11.188054,39.25165,8.023894,4.453326,0.46681175,-3.6709058,-31.971247,30.886261,31.664318,-6.820523,1.5868425,-3.2857924
37,0.025895610451698303,1.2700258493423462,78.32190704345703,0.5456311942725031,3.764436553433401,-92.99674010694176,-1.737434,9.13237,28.006535,10.605549,-10.411161,-6.810674,-5.84478,-8.535226,-19.405083,11.252402,-7.953491,5.1101184,-2.2856703,-2.0168226,5.3578286,3.942157,33.89752,-10.224552,38.644493,7.6478963,4.4151154,0.6479968,-3.7676368,-32.346527,30.21125,30.6558,-6.8122525,1.713564,-3.2342346
38,0.026933712884783745,1.274428367614746,78.32335662841797,0.5441942674997924,3.771806435429804,-93.02261583910956,-1.7426177,9.138692,28.032656,10.604455,-10.404773,-6.81559,-5.86076,-8.525962,-19.377134,11.239658,-7.933951,5.1108217,-2.2711186,-2.0411417,5.4020524,4.0011435,34.250065,-9.2887125,38.031708,7.215885,4.342338,0.8702368,-3.8855376,-32.72572,29.549438,29.642006,-6.8190384,1.8279871,-3.1920564
39,0.026750026270747185,1.2775784730911255,78.32418823242188,0.5437431895802208,3.780584469447454,-93.05061961392276,-1.749084,9.14401,28.061348,10.603623,-10.39708,-6.818486,-5.878847,-8.517156,-19.348076,11.225416,-7.912633,5.112094,-2.252642,-2.0661612,5.4477835,4.0432715,34.59734,-8.368856,37.403828,6.7655263,4.2615604,1.1049858,-4.018914,-33.106583,28.891638,28.620466,-6.848158,1.9356798,-3.1644406
40,0.027060410007834435,1.2856955528259277,78.32524871826172,0.5452376200415209,3.790272492207503,-93.0811621220764,-1.756011,9.14692,28.092789,10.6030035,-10.389965,-6.8165255,-5.903641,-8.511805,-19.318016,11.2213125,-7.8971667,5.1119123,-2.2304876,-2.0936,5.494015,4.0701666,34.935543,-7.453641,36.75403,6.335047,4.199721,1.324466,-4.163675,-33.48587,28.230026,27.59369,-6.906857,2.0397067,-3.157069
41,0.02822638489305973,1.2921323776245117,78.32662200927734,0.5506407910095054,3.801750657039817,-93.11615121261605,-1.760389,9.143653,28.13014,10.596465,-10.38043,-6.805977,-5.934542,-8.510815,-19.286327,11.222022,-7.885003,5.1098356,-2.2035286,-2.1242948,5.5385695,4.081155,35.262333,-6.5384536,36.081215,5.9271307,4.165277,1.5183071,-4.3207955,-33.859924,27.560133,26.563824,-7.020826,2.1383576,-3.175359
42,0.029493195936083794,1.3031448125839233,78.32523345947266,0.5588983600141949,3.8150323737367047,-93.15492475210307,-1.7646675,9.136458,28.172066,10.587349,-10.368944,-6.7893987,-5.9708304,-8.5130005,-19.253054,11.226834,-7.875345,5.106883,-2.1736014,-2.157197,5.58076,4.0750923,35.578915,-5.6294174,35.391556,5.5253043,4.143726,1.7032726,-4.4972568,-34.22938,26.89122,25.535566,-7.178891,2.2303941,-3.2153668
43,0.030979657545685768,1.3083257675170898,78.3281021118164,0.5664135679862143,3.8278553783076874,-93.19335142124592,-1.7688031,9.129943,28.213306,10.578518,-10.358236,-6.7731247,-6.007159,-8.514767,-19.220594,11.232804,-7.865759,5.103408,-2.143916,-2.1889994,5.6244993,4.05309,35.885662,-4.732173,34.684727,5.137657,4.1280704,1.892161,-4.693256,-34.594315,26.230085,24.507736,-7.332711,2.3238637,-3.268233
44,0.03373302146792412,1.3168716430664062,78.33006286621094,0.5700881334092511,3.8378636531954773,-93.22719836267741,-1.772833,9.127717,28.248741,10.572181,-10.350219,-6.763338,-6.037382,-8.512864,-19.19109,11.234612,-7.8523293,5.099921,-2.1178584,-2.2167757,5.673154,4.0157104,36.182537,-3.8525684,33.96199,4.7724333,4.1111054,2.0981174,-4.907602,-34.95479,25.583721,23.479172,-7.433658,2.4254973,-3.3256195
45,0.0356159545481205,1.3265080451965332,78.33070373535156,0.567706420620453,3.843983383842292,-93.25509451244183,-1.7757787,9.132574,28.27583,10.568034,-10.345767,-6.763218,-6.057493,-8.504124,-19.16595,11.228419,-7.8320622,5.0968556,-2.0969303,-2.238189,5.7274513,3.9623828,36.469883,-2.9849474,33.22155,4.475399,4.109478,2.2977593,-5.144109,-35.311905,24.95329,22.449587,-7.471164,2.5426495,-3.3789775
46,0.035211317241191864,1.33568274974823,78.33213806152344,0.5613121519206514,3.8476534299206873,-93.27944185809669,-1.7789961,9.142439,28.297539,10.567925,-10.345227,-6.7689977,-6.074024,-8.491963,-19.143328,11.222727,-7.810139,5.093933,-2.0797734,-2.2552643,5.7852345,3.8939333,36.74796,-2.1279905,32.462463,4.2275076,4.121211,2.49324,-5.4019103,-35.666134,24.336382,21.419147,-7.4697256,2.6693292,-3.4352195
47,0.039597731083631516,1.3432276248931885,78.33143615722656,0.5544292133274336,3.850295744123831,-93.3016588598733,-1.7820718,9.152364,28.317348,10.567625,-10.344845,-6.776321,-6.0882335,-8.479459,-19.122152,11.215064,-7.7874365,5.090116,-2.0646982,-2.2714672,5.846082,3.8096428,37.016552,-1.2956964,31.689405,3.940799,4.1106033,2.7357936,-5.6770463,-36.0166,23.734507,20.387672,-7.4355893,2.7961762,-3.5086322
48,0.0415971614420414,1.3499486446380615,78.33367919921875,0.5507938303847729,3.853557551819414,-93.3235039874257,-1.7838943,9.157351,28.33883,10.561715,-10.340062,-6.7809033,-6.1049933,-8.47138,-19.101065,11.21062,-7.768888,5.0846395,-2.0488906,-2.2898986,5.909267,3.708276,37.275173,-0.504073,30.907145,3.5268993,4.0406384,3.076526,-5.9633265,-36.36023,23.147469,19.354048,-7.374643,2.9138992,-3.6137667
49,0.04116038978099823,1.3624041080474854,78.33326721191406,0.5514923638580003,3.8575336059866485,-93.34477576692409,-1.7852387,9.156227,28.362463,10.552202,-10.331824,-6.782368,-6.1267467,-8.4693775,-19.079676,11.214384,-7.7591653,5.075238,-2.0309741,-2.312987,5.974802,3.5857,37.524044,0.24249008,30.122505,2.976382,3.8921905,3.5396063,-6.2610703,-36.695396,22.57552,18.319355,-7.2761927,3.0260456,-3.7591865
50,0.0432480089366436,1.375234603881836,78.3338394165039,0.55460911869478,3.8614905934157964,-93.36480156987659,-1.7838145,9.150229,28.387003,10.534744,-10.318464,-6.7826867,-6.148311,-8.470272,-19.059092,11.217972,-7.7523394,5.063182,-2.0114603,-2.338576,6.0426025,3.4417377,37.7639,0.9497335,29.332088,2.3327456,3.6843908,4.093171,-6.573346,-37.02087,22.017834,17.285152,-7.1416984,3.1354725,-3.9361887
51,0.04681659862399101,1.3814700841903687,78.33612060546875,0.5585170832596935,3.8656551841279168,-93.38443764935077,-1.7850267,9.14423,28.411217,10.521307,-10.306627,-6.7813506,-6.17379,-8.47359,-19.03835,11.228423,-7.748541,5.0521617,-1.9919934,-2.3647058,6.1094785,3.2805371,37.995743,1.6177061,28.528053,1.5885069,3.4367325,4.7042384,-6.904158,-37.338123,21.478033,16.256187,-6.9957433,3.2308273,-4.1322994
52,0.05141610652208328,1.389888882637024,78.33717346191406,0.5617505145674978,3.870292198677977,-93.40461622486275,-1.7887506,9.13969,28.434416,10.512043,-10.296869,-6.7776885,-6.1991706,-8.47605,-19.017733,11.236824,-7.74004,5.0459,-1.9735035,-2.3884966,6.1733513,3.1050348,38.220448,2.2457826,27.702885,0.73539025,3.1687195,5.340273,-7.254674,-37.648605,20.957516,15.234705,-6.862966,3.3011518,-4.3348103
53,0.05605466291308403,1.4051398038864136,78.33755493164062,0.5639553956530378,3.875552772882645,-93.42649027063165,-1.7961828,9.137694,28.45695,10.508103,-10.28915,-6.7703924,-6.225787,-8.477361,-18.996246,11.244595,-7.7250757,5.047016,-1.9566995,-2.4095352,6.2325845,2.9188263,38.43999,2.8319387,26.854809,-0.27183023,2.867752,6.009027,-7.6273556,-37.955883,20.458237,14.216192,-6.7545867,3.3397746,-4.5377164
54,0.058945029973983765,1.4150317907333374,78.33860778808594,0.5658205876580684,3.881278166670508,-93.44922469835367,-1.8078436,9.13787,28.478642,10.51131,-10.284594,-6.760196,-6.25607,-8.479284,-18.97413,11.257337,-7.7088943,5.0530133,-1.9401143,-2.428535,6.289768,2.7187696,38.654346,3.3765626,25.987574,-1.4136516,2.5227363,6.7192817,-8.018118,-38.25972,19.976805,13.197229,-6.6553445,3.3538322,-4.7483873
55,0.06053891405463219,1.4271256923675537,78.33789825439453,0.5675607872977173,3.8872093044491005,-93.47087469310615,-1.8194976,9.137213,28.499527,10.513299,-10.279587,-6.7494693,-6.2857285,-8.481365,-18.952932,11.268539,-7.691661,5.0598817,-1.9227637,-2.4471107,6.3465567,2.5017533,38.861156,3.8838542,25.09863,-2.601795,2.1610103,7.442224,-8.422141,-38.557545,19.511318,12.185817,-6.550108,3.3531122,-4.9744525
56,0.06739401817321777,1.4335030317306519,78.33773040771484,0.5700910058363877,3.893045205300051,-93.48928357275618,-1.8293077,9.13449,28.519196,10.510797,-10.272942,-6.740653,-6.3135986,-8.484144,-18.933697,11.278986,-7.678035,5.063647,-1.9045103,-2.4662101,6.4043694,2.2653873,39.057224,4.3588233,24.185734,-3.7484431,1.8122337,8.151548,-8.837787,-38.845196,19.062014,11.192841,-6.4240994,3.347061,-5.2238083
57,0.0713418498635292,1.4467355012893677,78.33860778808594,0.5736239325074215,3.898579485079146,-93.50278570621263,-1.8343512,9.127518,28.53762,10.4975395,-10.262339,-6.734655,-6.3374476,-8.48804,-18.918022,11.285811,-7.668847,5.0629845,-1.8869082,-2.4867244,6.4633107,2.0090506,39.240192,4.80867,23.245436,-4.8316646,1.4878418,8.833602,-9.267684,-39.1192,18.626265,10.223559,-6.280091,3.334453,-5.497104
58,0.07585368305444717,1.4564435482025146,78.3404769897461,0.5777272523504338,3.9039390066539514,-93.51284619587744,-1.8362395,9.11744,28.555037,10.476606,-10.248921,-6.7301073,-6.3584104,-8.492474,-18.904898,11.289402,-7.661456,5.0600214,-1.8711308,-2.50775,6.5221376,1.7372593,39.410465,5.2311854,22.276836,-5.8968997,1.1722113,9.506044,-9.718207,-39.379246,18.209211,9.276803,-6.125158,3.3111382,-5.7909317
59,0.07779546827077866,1.4673149585723877,78.3405990600586,0.5816826686682126,3.909650762184347,-93.52229102652333,-1.8401941,9.108361,28.571375,10.459377,-10.236942,-6.7259555,-6.380383,-8.497026,-18.891653,11.294639,-7.65518,5.0562854,-1.8568166,-2.5284536,6.579894,1.4518745,39.56969,5.616565,21.287777,-6.9588184,0.8533962,10.190861,-10.194064,-39.626877,17.823383,8.354281,-5.9516487,3.2822437,-6.107112
60,0.07848876714706421,1.4782377481460571,78.34016418457031,0.5843406075474372,3.916085110829164,-93.53397646323245,-1.8497897,9.103551,28.586662,10.452699,-10.228199,-6.721277,-6.4058046,-8.500632,-18.87583,11.30333,-7.646977,5.053123,-1.8428377,-2.5474195,6.636127,1.1539664,39.719776,5.9538927,20.285717,-8.032007,0.51838946,10.909327,-10.698097,-39.86385,17.47997,7.456338,-5.7515287,3.2527695,-6.447724
61,0.08074317872524261,1.4902857542037964,78.34202575683594,0.5852170839407486,3.9239378851913997,-93.54891284380791,-1.8682638,9.104545,28.599785,10.46231,-10.224594,-6.715909,-6.436932,-8.503189,-18.855694,11.317568,-7.635642,5.051133,-1.828412,-2.5648715,6.689415,0.8442501,39.861847,6.2402196,19.268974,-9.123445,0.1545317,11.669033,-11.23407,-40.09316,17.185457,6.583457,-5.502213,3.225084,-6.8207235
62,0.08653294295072556,1.5033211708068848,78.34255981445312,0.5848510227801356,3.93278886931197,-93.56543949358735,-1.892774,9.109725,28.611038,10.483016,-10.224723,-6.710419,-6.4719596,-8.505289,-18.832993,11.335767,-7.622735,5.049512,-1.8135886,-2.580921,6.7408566,0.5206792,39.995304,6.479859,18.234776,-10.224637,-0.23029208,12.4574795,-11.798119,-40.314354,16.932184,5.733269,-5.213765,3.1953037,-7.2228794
63,0.09059244394302368,1.5143752098083496,78.3436508178711,0.5841723034760574,3.9414816265639545,-93.58264970715004,-1.9186347,9.116202,28.622843,10.506546,-10.225562,-6.704586,-6.507538,-8.506696,-18.809988,11.354901,-7.6100545,5.047662,-1.7994602,-2.595942,6.7922416,0.18084994,40.120087,6.673233,17.190987,-11.326168,-0.6184481,13.266504,-12.38245,-40.525093,16.711342,4.9018397,-4.927347,3.1600907,-7.638746
64,0.09267565608024597,1.5247626304626465,78.34452819824219,0.5841184093044117,3.9491206856130154,-93.5997224222817,-1.942452,9.122446,28.637419,10.529023,-10.226824,-6.6981773,-6.5411677,-8.507733,-18.789345,11.372239,-7.5988626,5.045031,-1.786304,-2.6104786,6.84532,-0.17882967,40.236538,6.819396,16.145473,-12.419427,-0.9916767,14.088698,-12.98106,-40.72136,16.514431,4.089727,-4.684995,3.1145039,-8.052986
65,0.09600316733121872,1.536030650138855,78.34381103515625,0.5849085351109726,3.9556922459362855,-93.6154212962698,-1.9631807,9.127399,28.655548,10.546692,-10.226059,-6.6902127,-6.57136,-8.508248,-18.773304,11.385262,-7.5894623,5.0411687,-1.775197,-2.626176,6.9004183,-0.5585551,40.34489,6.9172745,15.097859,-13.504679,-1.3539959,14.94007,-13.59104,-40.898575,16.331146,3.292531,-4.512261,3.0593498,-8.455795
66,0.09830603003501892,1.5502710342407227,78.34318542480469,0.586375033703231,3.9616835181964096,-93.63052415707435,-1.9838809,9.132949,28.676004,10.565729,-10.226252,-6.6811514,-6.60048,-8.508271,-18.75989,11.39713,-7.581731,5.036438,-1.764911,-2.6436255,6.956248,-0.95808446,40.445988,6.9658537,14.045399,-14.585559,-1.7134383,15.819773,-14.217334,-41.05605,16.168196,2.5148795,-4.384045,2.9962564,-8.856897
67,0.09903275966644287,1.563596487045288,78.34485626220703,0.5876080323321918,3.966550070054151,-93.64717209916041,-2.001376,9.13808,28.69825,10.581467,-10.225705,-6.6728854,-6.628395,-8.507599,-18.745544,11.40838,-7.573713,5.0315733,-1.7536547,-2.6614926,7.0118985,-1.377986,40.541637,6.966264,12.992218,-15.660448,-2.056628,16.696184,-14.864175,-41.19679,16.043377,1.762704,-4.265556,2.926931,-9.270124
68,0.09964719414710999,1.5781002044677734,78.3454818725586,0.5883052008851736,3.969684331293234,-93.66734635304235,-2.0133705,9.142318,28.721771,10.591435,-10.224256,-6.6673713,-6.6562176,-8.506585,-18.72617,11.421574,-7.564622,5.0274463,-1.7403203,-2.678793,7.066249,-1.8174838,40.633743,6.920302,11.941946,-16.729008,-2.368782,17.538012,-15.538403,-41.32724,15.977467,1.0431261,-4.1215143,2.8526325,-9.709125
69,0.10400043427944183,1.5923861265182495,78.34529113769531,0.5881151848721106,3.970433995597826,-93.69334855486308,-2.0178597,9.145837,28.747728,10.594458,-10.222645,-6.665909,-6.6838884,-8.504892,-18.699287,11.437433,-7.5531487,5.0246572,-1.7244982,-2.6935542,7.1195545,-2.2734857,40.72289,6.826443,10.884887,-17.806965,-2.6354072,18.362587,-16.245258,-41.453224,15.98089,0.3606989,-3.9422488,2.770663,-10.178308
70,0.10662995278835297,1.6024798154830933,78.34517669677734,0.5874210240959278,3.9693043780051234,-93.72350030148091,-2.0167089,9.148736,28.776016,10.592623,-10.22114,-6.667173,-6.7114086,-8.502626,-18.667429,11.455664,-7.5407453,5.022674,-1.706884,-2.705586,7.1729164,-2.7463825,40.807407,6.6849766,9.821188,-18.892199,-2.8677118,19.179625,-16.978579,-41.574234,16.041546,-0.29272825,-3.7439086,2.6810405,-10.670882
71,0.11206778138875961,1.6138361692428589,78.34546661376953,0.5868734030236717,3.9674796759567483,-93.75401258919831,-2.0125113,9.150438,28.804249,10.585994,-10.21752,-6.669184,-6.737465,-8.500255,-18.634775,11.472116,-7.527494,5.0205235,-1.6877582,-2.7162497,7.2268476,-3.2422988,40.885483,6.500579,8.770536,-19.957024,-3.0865045,19.946653,-17.725824,-41.685535,16.144072,-0.93003434,-3.5302393,2.5884988,-11.183554
72,0.11283272504806519,1.6238864660263062,78.3455810546875,0.5872071353821746,3.966360220855685,-93.78128601480542,-2.0108948,9.151556,28.829842,10.581717,-10.213442,-6.669952,-6.764789,-8.499287,-18.605095,11.492376,-7.519746,5.017183,-1.6681677,-2.7278743,7.2813525,-3.7673156,40.95591,6.278338,7.7529874,-20.972658,-3.310357,20.619938,-18.477522,-41.780746,16.275356,-1.5609878,-3.3069332,2.4979181,-11.712797
73,0.11332158744335175,1.6357200145721436,78.34636688232422,0.5893420631467404,3.966100278004759,-93.80366882071469,-2.0096104,9.149526,28.852009,10.572509,-10.203889,-6.669418,-6.7907085,-8.50023,-18.57962,11.510359,-7.5155916,5.012445,-1.6477817,-2.7433243,7.3364305,-4.3247914,41.01776,6.0200043,6.770451,-21.961222,-3.544928,21.180727,-19.23028,-41.8544,16.430254,-2.1864622,-3.0700114,2.4055636,-12.273566
74,0.11436682939529419,1.647683024406433,78.3459243774414,0.5925630868094448,3.966095895437945,-93.82335366579156,-2.0086913,9.146042,28.87183,10.562136,-10.192417,-6.66862,-6.8152623,-8.501971,-18.556475,11.527358,-7.51456,5.0067005,-1.6274631,-2.7615378,7.3926516,-4.9062266,41.070057,5.7268486,5.80901,-22.927444,-3.7751055,21.654474,-19.992489,-41.904068,16.616968,-2.7986734,-2.823927,2.3098726,-12.861131
75,0.11678901314735413,1.6621543169021606,78.34571838378906,0.595739225073603,3.966185544852628,-93.84225648706752,-2.0074239,9.142064,28.891193,10.550463,-10.17989,-6.666704,-6.8410697,-8.504292,-18.53427,11.547259,-7.5146976,5.00039,-1.6087414,-2.7798028,7.446743,-5.5118995,41.11713,5.3908424,4.879028,-23.821293,-3.9878771,22.066578,-20.770088,-41.933903,16.843458,-3.3928866,-2.5764835,2.2190394,-13.445328
76,0.11901521682739258,1.672804355621338,78.34626770019531,0.5976210948592696,3.966297315505334,-93.8623211808778,-2.0073154,9.140416,28.911291,10.542614,-10.170492,-6.6630282,-6.8675327,-8.505643,-18.512564,11.568343,-7.512233,4.99387,-1.5923284,-2.7947,7.497336,-6.138493,41.161892,5.0072584,3.9852176,-24.591639,-4.170204,22.442219,-21.5645,-41.94491,17.112244,-3.9691064,-2.3370357,2.141602,-13.995434
77,0.12251017987728119,1.6820980310440063,78.34728240966797,0.5975242703454245,3.966713758820845,-93.88504922242676,-2.0072591,9.141073,28.933796,10.53594,-10.163138,-6.6557536,-6.898054,-8.505922,-18.490473,11.595493,-7.506748,4.986193,-1.5789702,-2.8043644,7.547409,-6.775699,41.202938,4.5859275,3.1181903,-25.194218,-4.311151,22.774107,-22.375233,-41.935837,17.418503,-4.531499,-2.1166663,2.0863764,-14.49459
78,0.12562720477581024,1.6920689344406128,78.34700775146484,0.5961482363717234,3.9674709366208782,-93.90929004332544,-2.0078208,9.143314,28.957384,10.531495,-10.158047,-6.6457443,-6.931253,-8.505784,-18.468609,11.626762,-7.4997516,4.9775724,-1.568825,-2.811344,7.5953093,-7.4278107,41.240364,4.125172,2.2799344,-25.668606,-4.4167075,23.055319,-23.201378,-41.907402,17.763123,-5.079038,-1.9028738,2.0470135,-14.96254
79,0.12844093143939972,1.7024993896484375,78.34710693359375,0.5946172767997816,3.967748239188776,-93.93214611002678,-2.0099084,9.146711,28.979662,10.531001,-10.155003,-6.6365447,-6.9630375,-8.505481,-18.448109,11.657482,-7.4927897,4.9698677,-1.5603198,-2.818029,7.643131,-8.10191,41.27336,3.6185124,1.4729649,-26.085094,-4.4981103,23.307196,-24.036106,-41.858295,18.146303,-5.61366,-1.687471,2.0097227,-15.419769
80,0.12936165928840637,1.7146812677383423,78.34876251220703,0.5943177767582426,3.9667980085347057,-93.95099915601979,-2.0137625,9.150062,28.998352,10.534556,-10.152989,-6.63159,-6.9881353,-8.505362,-18.429783,11.679761,-7.4858513,4.9651923,-1.5539917,-2.8285396,7.690574,-8.800964,41.302387,3.060643,0.6992676,-26.51397,-4.567655,23.55092,-24.876995,-41.789997,18.572275,-6.1346207,-1.4574765,1.9603161,-15.885926
81,0.1285262554883957,1.7249385118484497,78.34870147705078,0.5957959823173753,3.9634936199912523,-93.96481056224148,-2.017616,9.152083,29.01279,10.540613,-10.152,-6.634466,-7.002884,-8.505338,-18.413525,11.688727,-7.4782925,4.965347,-1.5491285,-2.8435664,7.738819,-9.5296135,41.328335,2.4468508,-0.035332218,-26.931614,-4.6083093,23.77566,-25.722557,-41.703476,19.041847,-6.643026,-1.2094773,1.8969613,-16.357853
82,0.12920360267162323,1.7363783121109009,78.34758758544922,0.5984221575284159,3.9585808780476945,-93.97504935248489,-2.0222664,9.153631,29.024092,10.549901,-10.152737,-6.6424327,-7.012403,-8.506193,-18.398726,11.6933155,-7.472644,4.968865,-1.5440853,-2.861311,7.787876,-10.286753,41.35022,1.7783332,-0.7326124,-27.316153,-4.6198597,23.976336,-26.570448,-41.597248,19.550703,-7.140233,-0.9521955,1.8263912,-16.828222
83,0.13029804825782776,1.7498191595077515,78.34828186035156,0.6006534759597033,3.9540218437284547,-93.98311507825221,-2.0315216,9.157808,29.032824,10.567491,-10.156133,-6.64952,-7.019645,-8.506125,-18.386614,11.693926,-7.465853,4.9725637,-1.5393684,-2.8805504,7.8363953,-11.066534,41.364365,1.060466,-1.4020983,-27.739128,-4.6408753,24.181839,-27.414867,-41.46882,20.091288,-7.6294565,-0.68596816,1.7467557,-17.309727
84,0.13141949474811554,1.7612196207046509,78.34869384765625,0.6009471511098244,3.9517148132486137,-93.99014012481642,-2.0490887,9.167191,29.039644,10.598563,-10.163932,-6.6496234,-7.0306625,-8.504683,-18.378042,11.697997,-7.4588847,4.9732113,-1.5375819,-2.9006882,7.8817296,-11.85951,41.366623,0.3009643,-2.0543685,-28.271072,-4.710835,24.420187,-28.255758,-41.31794,20.660118,-8.109935,-0.4077092,1.6562495,-17.814653
85,0.13075608015060425,1.7720658779144287,78.34931182861328,0.5982835067260474,3.9534018855304125,-93.99615815043487,-2.081095,9.185165,29.043848,10.652814,-10.179866,-6.638683,-7.0469494,-8.500419,-18.374517,11.704392,-7.450153,4.9696136,-1.5309098,-2.9145021,7.9296784,-12.667884,41.35115,-0.5051693,-2.702082,-28.99322,-4.8568773,24.692047,-29.069502,-41.13145,21.24506,-8.594051,-0.14869238,1.547234,-18.364353
86,0.12978200614452362,1.7826467752456665,78.34796142578125,0.5937669177417453,3.9576727764542996,-94.00078862030774,-2.1219633,9.208049,29.04577,10.720908,-10.200121,-6.620718,-7.066741,-8.494862,-18.374693,11.713473,-7.4413705,4.9635944,-1.5325989,-2.9299204,7.9697547,-13.483805,41.321373,-1.3533585,-3.3309991,-29.842503,-5.054491,24.983517,-29.89336,-40.91925,21.869429,-9.055819,0.12290763,1.4218099,-18.941431
87,0.1298528015613556,1.7932772636413574,78.34796142578125,0.5883631314382904,3.961708251299779,-94.00412563636188,-2.1656506,9.233624,29.045818,10.795458,-10.222779,-6.602015,-7.08455,-8.48796,-18.37715,11.72013,-7.4314504,4.9564185,-1.5285783,-2.942904,8.0160265,-14.320624,41.272167,-2.242163,-3.9372146,-30.683014,-5.2654896,25.298168,-30.693174,-40.669254,22.512154,-9.518358,0.38561928,1.2969931,-19.520258
88,0.12977753579616547,1.803598165512085,78.34720611572266,0.5828355106140698,3.9626809875929982,-94.00645894437436,-2.2063606,9.259672,29.044281,10.869788,-10.246464,-6.5889697,-7.0986967,-8.481088,-18.37975,11.726965,-7.4230714,4.9491296,-1.5365598,-2.9647272,8.056015,-15.170785,41.205875,-3.1574845,-4.496575,-31.370945,-5.4505982,25.643185,-31.523552,-40.398247,23.196793,-9.947208,0.70082074,1.1868715,-20.061928
89,0.13020871579647064,1.8156287670135498,78.34756469726562,0.5775676496074038,3.9597014039832255,-94.0070821577071,-2.2399244,9.284037,29.04087,10.935677,-10.267399,-6.5840273,-7.1053247,-8.473679,-18.383541,11.728952,-7.414147,4.9416704,-1.5463581,-2.9904542,8.101732,-16.039156,41.11814,-4.10314,-5.018737,-31.866236,-5.600983,26.040878,-32.352463,-40.102226,23.906807,-10.369385,1.0413567,1.0982598,-20.56486
90,0.1281103938817978,1.8264551162719727,78.34735107421875,0.5717147277686626,3.9543553648480585,-94.00614791497792,-2.2727778,9.310083,29.035074,11.00498,-10.290832,-6.583641,-7.1084313,-8.465858,-18.38877,11.729955,-7.405689,4.933562,-1.5590472,-3.018679,8.149278,-16.922281,41.007935,-5.0817904,-5.5068583,-32.243473,-5.7361526,26.481737,-33.182472,-39.781796,24.645554,-10.779603,1.40549,1.0219032,-21.044107
91,0.12461520731449127,1.8370635509490967,78.34717559814453,0.5656741900763433,3.94746142344902,-94.0050903218889,-2.3041317,9.336381,29.028938,11.074667,-10.3146715,-6.5846305,-7.108575,-8.457476,-18.393837,11.728719,-7.396731,4.925499,-1.5716485,-3.0465775,8.197904,-17.818027,40.873604,-6.085474,-5.9591846,-32.54336,-5.857031,26.923428,-34.00367,-39.43521,25.406183,-11.178303,1.7991343,0.95106953,-21.50379
92,0.12392216920852661,1.8466542959213257,78.34700775146484,0.5597161046215918,3.940155444198136,-94.0056889284419,-2.3369536,9.364028,29.023924,11.151063,-10.341274,-6.5838404,-7.1107426,-8.449712,-18.396011,11.732647,-7.390722,4.9181275,-1.5802845,-3.0711071,8.246241,-18.71985,40.714737,-7.1048894,-6.3782954,-32.80757,-5.9645257,27.323095,-34.807407,-39.059822,26.186806,-11.563309,2.2217538,0.87912095,-21.947409
93,0.12360101193189621,1.8556054830551147,78.34510040283203,0.5532491157493614,3.932086806582015,-94.008516583175,-2.3711493,9.393506,29.020626,11.235291,-10.370741,-6.581065,-7.1131988,-8.441296,-18.39454,11.737529,-7.385057,4.911807,-1.5865748,-3.091459,8.294111,-19.6241,40.529617,-8.133933,-6.7639337,-33.01192,-6.046659,27.669641,-35.5905,-38.65298,26.978601,-11.941985,2.6969259,0.8086186,-22.35057
94,0.12291011959314346,1.865030288696289,78.34434509277344,0.5465461822437455,3.9229759798196064,-94.0127772845355,-2.406655,9.42488,29.017979,11.327521,-10.40361,-6.5777445,-7.1159453,-8.432927,-18.39045,11.7449045,-7.380912,4.906152,-1.5946034,-3.11015,8.3398285,-20.529533,40.318607,-9.175614,-7.1144753,-33.145798,-6.1054354,27.985733,-36.368717,-38.216934,27.790955,-12.303035,3.2232463,0.74124527,-22.718685
95,0.12478019297122955,1.8733024597167969,78.34354400634766,0.5403202551871907,3.913581617519829,-94.01746159356335,-2.4436932,9.456955,29.015476,11.425073,-10.438285,-6.573419,-7.119684,-8.425458,-18.385553,11.755606,-7.378741,4.9006,-1.6031086,-3.1273084,8.383285,-21.437208,40.08364,-10.234635,-7.4311123,-33.271416,-6.163457,28.279535,-37.145546,-37.753445,28.637905,-12.630378,3.7604446,0.6690374,-23.10184
96,0.12490279972553253,1.882491111755371,78.3426284790039,0.5343326023152372,3.9045572252223697,-94.02157943865221,-2.4759676,9.485627,29.013245,11.510096,-10.4704275,-6.567736,-7.124379,-8.419095,-18.381704,11.768602,-7.3779206,4.894593,-1.6090595,-3.1426754,8.427135,-22.354418,39.82596,-11.3177805,-7.7129164,-33.450798,-6.2441216,28.558834,-37.90796,-37.260006,29.52733,-12.919713,4.2571087,0.5838027,-23.551685
97,0.1252356618642807,1.8917875289916992,78.3413314819336,0.528800136099312,3.896642445976414,-94.02448730953503,-2.5068936,9.512409,29.01022,11.58856,-10.502133,-6.559618,-7.1314335,-8.413999,-18.379583,11.786634,-7.379877,4.887209,-1.6148229,-3.1578155,8.468432,-23.280539,39.546608,-12.423874,-7.95578,-33.694546,-6.349132,28.807528,-38.6638,-36.737072,30.464193,-13.1612425,4.705498,0.48182184,-24.068361
98,0.1243884339928627,1.899946689605713,78.34168243408203,0.523404472362997,3.889321915171506,-94.0268997716798,-2.5369139,9.538216,29.006695,11.663719,-10.5343,-6.5496736,-7.140196,-8.409919,-18.37814,11.808192,-7.3837047,4.87899,-1.62181,-3.1728246,8.508328,-24.213776,39.24427,-13.549182,-8.159636,-33.97226,-6.4677997,29.02724,-39.411053,-36.183926,31.440449,-13.363018,5.1307163,0.36771122,-24.629349
99,0.12461254000663757,1.9092761278152466,78.3410873413086,0.5190343588929408,3.881488400489434,-94.02985864051095,-2.5635908,9.561408,29.004444,11.733269,-10.56453,-6.539551,-7.148991,-8.407195,-18.376497,11.831398,-7.388777,4.871571,-1.6283438,-3.1875746,8.547466,-25.141798,38.91935,-14.69308,-8.337492,-34.283936,-6.605446,29.253548,-40.14327,-35.600258,32.460094,-13.526477,5.540094,0.24445675,-25.247803
100,0.12360145151615143,1.9161592721939087,78.34041595458984,0.5164335604035488,3.8721287619999427,-94.03469709969538,-2.5839615,9.580525,29.005096,11.794656,-10.590415,-6.5310125,-7.1559763,-8.406217,-18.37395,11.852636,-7.39314,4.8667316,-1.6396376,-3.2040646,8.584959,-26.058847,38.57297,-15.854347,-8.491256,-34.62867,-6.7679176,29.52197,-40.891994,-34.990902,33.53547,-13.630547,5.969781,0.11427147,-25.934935
101,0.12489542365074158,1.9231572151184082,78.33993530273438,0.5164056850490263,3.8608684001177087,-94.04186766088434,-2.598293,9.594719,29.009256,11.850007,-10.61241,-6.5240264,-7.1618414,-8.408477,-18.371256,11.874769,-7.3988585,4.865066,-1.6543815,-3.2220035,8.622316,-26.952255,38.205166,-17.024282,-8.626541,-34.99563,-6.9536767,29.816837,-41.65541,-34.35762,34.65892,-13.678021,6.432196,-0.032784075,-26.682976
102,0.12600256502628326,1.931028127670288,78.3376693725586,0.5183113264783342,3.848253317523288,-94.05063200764279,-2.6073027,9.604962,29.016031,11.898433,-10.630627,-6.5178747,-7.1660976,-8.412988,-18.368767,11.895582,-7.404348,4.8657227,-1.6710188,-3.240061,8.66268,-27.837702,37.81414,-18.207289,-8.733258,-35.389446,-7.1609893,30.127129,-42.39037,-33.697353,35.823105,-13.700312,6.8886843,-0.19584861,-27.490395
103,0.1278337836265564,1.938704013824463,78.33724212646484,0.5205115767570758,3.8349222542750803,-94.06061744924327,-2.611913,9.613061,29.024385,11.940346,-10.646469,-6.513083,-7.1692114,-8.4175205,-18.364103,11.915426,-7.4096074,4.867623,-1.6895841,-3.2576418,8.700123,-28.708094,37.402676,-19.41241,-8.82656,-35.829502,-7.3969555,30.494251,-43.13959,-33.01433,37.045456,-13.658662,7.3573847,-0.35741594,-28.375872
104,0.12896519899368286,1.944975733757019,78.33464813232422,0.5212703768846445,3.821652845793873,-94.07155542857366,-2.6138551,9.621972,29.032953,11.9771185,-10.662012,-6.510291,-7.1715393,-8.419438,-18.355114,11.933411,-7.4134927,4.8697104,-1.7095175,-3.2726712,8.735074,-29.573786,36.97293,-20.651384,-8.91197,-36.33808,-7.669334,30.960081,-43.880688,-32.310303,38.334213,-13.567339,7.8119206,-0.49977437,-29.361591
105,0.12940597534179688,1.951806664466858,78.33416748046875,0.5196799600767171,3.807917224323071,-94.0834090176139,-2.611207,9.632356,29.041065,12.006139,-10.677363,-6.5111322,-7.171075,-8.417037,-18.340117,11.946959,-7.414819,4.8728204,-1.7254462,-3.2861576,8.769027,-30.412815,36.526817,-21.921013,-9.010633,-36.962513,-8.005826,31.539469,-44.65075,-31.586956,39.698074,-13.39839,8.328577,-0.6331793,-30.501816
106,0.131366565823555,1.9577794075012207,78.33412170410156,0.5167942439340859,3.7936028861500257,-94.09635646074993,-2.605025,9.64311,29.049442,12.029667,-10.692539,-6.5147386,-7.170043,-8.412454,-18.320557,11.960695,-7.4163256,4.8771386,-1.742758,-3.296994,8.802874,-31.223368,36.063263,-23.212078,-9.114815,-37.675003,-8.398192,32.206795,-45.348988,-30.842567,41.12089,-13.228962,8.834415,-0.76569736,-31.770193
107,0.13202112913131714,1.9631941318511963,78.33281707763672,0.5137463250838546,3.7800630948125273,-94.11038912819787,-2.5969534,9.652969,29.05916,12.048645,-10.705829,-6.5181737,-7.1687546,-8.407188,-18.299242,11.972025,-7.4161816,4.8805857,-1.7684708,-3.3073466,8.837902,-32.091915,35.58075,-24.549023,-9.1530905,-38.400135,-8.799842,32.94585,-46.073563,-30.078651,42.600506,-12.986639,9.292795,-0.87238646,-33.065132
108,0.1324118822813034,1.9681437015533447,78.33087158203125,0.511447239263768,3.7684846698295282,-94.12558439886685,-2.590665,9.661726,29.070978,12.067551,-10.716781,-6.5184507,-7.1712832,-8.40377,-18.278831,11.986619,-7.4167476,4.881034,-1.7904366,-3.3134594,8.859974,-32.90352,35.08259,-25.91667,-9.231607,-39.007797,-9.161266,33.74141,-46.798634,-29.298992,44.113438,-12.66742,9.599731,-0.9226792,-34.284794
109,0.13553619384765625,1.971832275390625,78.33245086669922,0.5100428698615033,3.759976728983224,-94.14230702631808,-2.588009,9.669416,29.08543,12.088093,-10.724638,-6.513457,-7.1795497,-8.402396,-18.259703,12.005099,-7.4171333,4.8754287,-1.8014576,-3.3188813,8.874539,-33.63285,34.569572,-27.32686,-9.378358,-39.433247,-9.472345,34.64213,-47.563354,-28.502127,45.66096,-12.252185,9.778187,-0.88881177,-35.49325
110,0.13730120658874512,1.9756625890731812,78.33238220214844,0.5092345363172411,3.753720124545621,-94.1605547237627,-2.5865781,9.676006,29.10195,12.10717,-10.729495,-6.5052705,-7.1919293,-8.402146,-18.240524,12.0269165,-7.418034,4.8657165,-1.8348494,-3.3198056,8.880739,-34.4379,34.04165,-28.785967,-9.432787,-39.807487,-9.757744,35.638676,-48.241825,-27.695835,47.261295,-11.854182,9.796845,-0.787006,-36.7128
111,0.14078770577907562,1.9778105020523071,78.33230590820312,0.5086858487726351,3.7479025020250183,-94.1792951054339,-2.5841026,9.681569,29.119816,12.123901,-10.733498,-6.4969816,-7.203554,-8.402338,-18.22152,12.046454,-7.4180446,4.8572583,-1.8561321,-3.317796,8.883612,-35.211506,33.498962,-30.271929,-9.5125,-40.149273,-10.015979,36.63794,-48.95235,-26.877468,48.878677,-11.350866,9.717673,-0.6482045,-37.78874
112,0.14502018690109253,1.980177640914917,78.33211517333984,0.5087107912302913,3.740832498203794,-94.19773603542268,-2.5783925,9.685616,29.138504,12.1377325,-10.739269,-6.491836,-7.208502,-8.402054,-18.203178,12.056321,-7.415673,4.855323,-1.877093,-3.3087394,8.878869,-35.955975,32.944748,-31.755594,-9.609846,-40.53047,-10.247511,37.543625,-49.643906,-26.049162,50.497627,-10.765882,9.490956,-0.5040517,-38.561886
113,0.14789654314517975,1.982399582862854,78.33114624023438,0.5097242191591702,3.7312932589564447,-94.21549035187293,-2.5658762,9.686836,29.158342,12.143962,-10.746242,-6.491581,-7.202461,-8.400855,-18.186005,12.050845,-7.409113,4.864043,-1.8984497,-3.2929678,8.8688755,-36.699047,32.380062,-33.239643,-9.721949,-40.966415,-10.40558,38.293537,-50.31224,-25.208155,52.090614,-10.094075,9.02884,-0.28461877,-38.73203
114,0.15180298686027527,1.9839272499084473,78.33139038085938,0.5112442409451289,3.7205116146059165,-94.2331647924837,-2.5485635,9.685646,29.179564,12.143844,-10.753203,-6.4942203,-7.1896515,-8.399479,-18.169601,12.036188,-7.40044,4.8796754,-1.9194984,-3.2719731,8.854279,-37.442745,31.805372,-34.735146,-9.8407345,-41.43172,-10.505214,38.951683,-50.96104,-24.353664,53.675537,-9.343444,8.368005,-0.0022040142,-38.466618
115,0.1559745967388153,1.9859095811843872,78.33160400390625,0.5130653361064658,3.7103377959978094,-94.25105014660846,-2.5319693,9.684283,29.201078,12.145313,-10.761512,-6.497135,-7.1774306,-8.398378,-18.152863,12.021309,-7.3921213,4.8957567,-1.9432056,-3.2446096,8.834385,-38.152092,31.224253,-36.23048,-9.959425,-41.9319,-10.641332,39.610317,-51.59772,-23.494164,55.30311,-8.527948,7.677306,0.19280624,-38.3143
116,0.1591627597808838,1.9878400564193726,78.33036041259766,0.5142860116946715,3.7027921539120747,-94.26976426515027,-2.5195947,9.683795,29.222143,12.150856,-10.769649,-6.4977126,-7.1706686,-8.3977375,-18.135347,12.011208,-7.3851347,4.9059196,-1.9697322,-3.210037,8.812033,-38.822174,30.644625,-37.718758,-10.05326,-42.486942,-10.910164,40.359806,-52.23535,-22.642687,57.022434,-7.6636734,7.135007,0.16323853,-38.82957
117,0.16335922479629517,1.989877462387085,78.3309097290039,0.5149301080034722,3.699220750486259,-94.28912204178661,-2.5152504,9.685462,29.241762,12.166355,-10.779156,-6.494882,-7.1748257,-8.398182,-18.116863,12.013601,-7.3831124,4.9069486,-2.0054185,-3.1716173,8.797041,-39.47993,30.068834,-39.292217,-10.178226,-43.21381,-11.445947,41.383705,-52.901707,-21.806366,58.95014,-6.7609863,6.820241,-0.18979703,-40.158245
118,0.16759097576141357,1.9904993772506714,78.32953643798828,0.5151627849090057,3.6982979649432512,-94.30895804272403,-2.51529,9.688094,29.260508,12.186463,-10.788849,-6.4901814,-7.1831617,-8.398605,-18.098051,12.018692,-7.3822107,4.902762,-2.0446644,-3.1290774,8.788615,-40.112362,29.495607,-40.925323,-10.336432,-44.05187,-12.170127,42.57646,-53.57458,-20.9863,61.023647,-5.823973,6.617786,-0.7680336,-42.00927
119,0.17552703619003296,1.9910106658935547,78.33021545410156,0.5154146516368096,3.698155336336603,-94.32964734121433,-2.5160568,9.690364,29.280193,12.2073965,-10.799501,-6.4847302,-7.194176,-8.399932,-18.077953,12.027174,-7.3821535,4.8976083,-2.0738513,-3.0765502,8.773544,-40.680534,28.935692,-42.4329,-10.4104,-44.782063,-12.848377,43.59865,-54.18498,-20.193073,63.02274,-4.873334,6.408777,-1.4051421,-44.28663
120,0.18285703659057617,1.9895853996276855,78.33138275146484,0.5157030525008433,3.6972446517969404,-94.35188558626207,-2.514351,9.69136,29.302404,12.225969,-10.81214,-6.4797373,-7.2052226,-8.402394,-18.055481,12.037307,-7.3814635,4.8956738,-2.0821147,-3.01028,8.742301,-41.13218,28.41196,-43.623882,-10.303849,-45.18904,-13.231248,44.11907,-54.677692,-19.44698,64.728836,-3.9324856,6.089221,-1.9291476,-46.89943
121,0.1923845112323761,1.9872803688049316,78.3299789428711,0.5159165477601992,3.6938241530144937,-94.37678905781699,-2.5070364,9.690957,29.328697,12.23987,-10.827302,-6.475842,-7.214403,-8.406026,-18.030043,12.049249,-7.3794813,4.897242,-2.0594387,-2.933131,8.699481,-41.454998,27.951502,-44.416897,-9.987545,-45.152466,-13.157833,43.967854,-55.080624,-18.775684,66.16862,-3.0065062,5.6528463,-2.3253944,-50.555725
122,0.2032480388879776,1.9859631061553955,78.33016204833984,0.5159700233355828,3.6892262676430456,-94.40353468173794,-2.4964619,9.689508,29.357756,12.250545,-10.843883,-6.472299,-7.2236066,-8.410281,-18.002056,12.06347,-7.376925,4.900293,-2.0194273,-2.8484056,8.654217,-41.677692,27.57315,-44.917675,-9.545277,-44.818775,-12.786608,43.352924,-55.420708,-18.195381,67.43675,-2.1179743,5.14353,-2.6524694,-55.071823
123,0.21337270736694336,1.984443187713623,78.32915496826172,0.5164425348826356,3.686463704734796,-94.43039166433157,-2.4863338,9.686106,29.387362,12.258274,-10.85955,-6.4681363,-7.2348337,-8.415861,-17.973352,12.07793,-7.374397,4.9057612,-1.9890995,-2.7542155,8.602341,-41.79968,27.285522,-45.21725,-9.054107,-44.367966,-12.344539,42.513863,-55.645107,-17.710325,68.4185,-1.311109,4.5568585,-2.8570032,-59.003674
124,0.22233247756958008,1.9817676544189453,78.32796478271484,0.5182816592926088,3.688474116755334,-94.4552264534911,-2.4827347,9.681167,29.414648,12.268237,-10.874457,-6.4623322,-7.249199,-8.42278,-17.945377,12.088557,-7.3716903,4.9145064,-1.9876997,-2.6500876,8.539863,-41.845657,27.088638,-45.41628,-8.570329,-44.001072,-12.053665,41.69363,-55.70958,-17.315735,68.99047,-0.6110077,3.904573,-2.916127,-60.905502
125,0.2321283519268036,1.978387475013733,78.3262710571289,0.5216181660861205,3.6970349711665977,-94.47777658926888,-2.4865365,9.673382,29.43925,12.276967,-10.885399,-6.454209,-7.268202,-8.430859,-17.918,12.093533,-7.3683105,4.928336,-2.0227373,-2.5289476,8.46278,-41.80122,26.979298,-45.48936,-8.076904,-43.794514,-12.058978,40.883713,-55.552055,-17.010561,69.00383,-0.016727379,3.1371634,-2.8653624,-60.00848
126,0.24374337494373322,1.976379156112671,78.3258056640625,0.5261704447996824,3.7102565513396177,-94.49919860975008,-2.496181,9.664085,29.462355,12.287168,-10.895458,-6.4444575,-7.29175,-8.440502,-17.890316,12.097252,-7.365795,4.946308,-2.0797403,-2.3942866,8.371628,-41.67567,26.957447,-45.409313,-7.543979,-43.645065,-12.214648,39.98006,-55.22553,-16.801416,68.55897,0.4861047,2.2647119,-2.76082,-57.20728
127,0.2552141547203064,1.9741179943084717,78.3240966796875,0.5311762862606767,3.7252391740748374,-94.51912935384993,-2.507163,9.653011,29.484333,12.295737,-10.904755,-6.43411,-7.315676,-8.451056,-17.863884,12.099385,-7.362987,4.9648366,-2.1475763,-2.260578,8.272004,-41.48906,27.021229,-45.266865,-7.031055,-43.455475,-12.300504,39.085495,-54.860573,-16.688251,67.90882,0.89850897,1.3885976,-2.615591,-53.562263
128,0.26674094796180725,1.9728100299835205,78.32357025146484,0.5361201591785429,3.7394326546915737,-94.5376319989611,-2.51709,9.641221,29.505346,12.304442,-10.915671,-6.424311,-7.339767,-8.463888,-17.839695,12.107261,-7.3627267,4.9805655,-2.214751,-2.1421041,8.169021,-41.275818,27.166838,-45.15476,-6.5870876,-43.13111,-12.0983925,38.30287,-54.580338,-16.665102,67.30901,1.2285316,0.61171424,-2.4012601,-50.131954
129,0.28121447563171387,1.9698307514190674,78.32099151611328,0.5410491028339406,3.753559870227849,-94.55361005847799,-2.5271437,9.6289,29.525421,12.313411,-10.927863,-6.414921,-7.363795,-8.478838,-17.819578,12.119766,-7.362934,4.9919047,-2.2825158,-2.0439284,8.056402,-41.054287,27.394438,-45.112507,-6.2033734,-42.591557,-11.570693,37.770214,-54.4273,-16.724888,66.79812,1.4955318,-0.10091085,-2.0332637,-47.024666
130,0.2934354245662689,1.9644697904586792,78.3218002319336,0.5460422302244339,3.768597871873566,-94.56760399639329,-2.5376709,9.61532,29.544426,12.321144,-10.939993,-6.4054246,-7.387972,-8.495505,-17.80244,12.133893,-7.3630075,5.0009665,-2.3600109,-1.9555225,7.93156,-40.800545,27.703259,-45.082592,-5.858271,-41.90358,-10.827798,37.38978,-54.327824,-16.86369,66.260345,1.6993234,-0.8034178,-1.5507997,-43.72883
131,0.30691227316856384,1.9565269947052002,78.3221664428711,0.551131633099712,3.7819379760614007,-94.58122781900745,-2.5452628,9.600609,29.562683,12.327652,-10.953521,-6.396604,-7.410929,-8.51343,-17.785135,12.15111,-7.3661547,5.0095096,-2.4452553,-1.8688259,7.80691,-40.48571,28.08468,-45.01348,-5.58074,-41.18042,-9.875215,36.911537,-54.23387,-17.076817,65.716896,1.826381,-1.4058518,-1.0701355,-40.367504
132,0.32235026359558105,1.9461946487426758,78.32093811035156,0.5562967720220438,3.790988290778109,-94.59630389896009,-2.5433996,9.583095,29.580841,12.325758,-10.965893,-6.3891025,-7.426223,-8.5309515,-17.76542,12.162569,-7.370369,5.0194297,-2.5346344,-1.7752285,7.6958203,-40.072887,28.524532,-44.851204,-5.4019494,-40.51753,-8.721113,36.08705,-54.10314,-17.355541,65.1825,1.8641205,-1.8008472,-0.694121,-37.06659
133,0.33732736110687256,1.936390995979309,78.31986236572266,0.5609661662485854,3.794250172751603,-94.61278523731056,-2.5301678,9.562305,29.597107,12.314605,-10.978395,-6.384458,-7.433485,-8.5484705,-17.741726,12.17056,-7.379205,5.030648,-2.6270604,-1.6694512,7.5962105,-39.55289,29.012777,-44.56582,-5.321805,-39.878674,-7.252678,34.822453,-53.946392,-17.6909,64.66329,1.8114433,-1.8934565,-0.4110174,-33.79626
134,0.3523586094379425,1.9282761812210083,78.31883239746094,0.5655855703437708,3.7932525089188265,-94.62974787519647,-2.5074136,9.538169,29.612154,12.293823,-10.989786,-6.3818145,-7.433,-8.56568,-17.716024,12.173048,-7.390013,5.0423455,-2.7257872,-1.5554775,7.4997683,-38.923424,29.545065,-44.185986,-5.3282886,-39.186092,-5.5112195,33.25283,-53.779716,-18.076199,64.15165,1.6865253,-1.7563878,-0.14483626,-30.507898
135,0.36913618445396423,1.91879403591156,78.31722259521484,0.5702834524410555,3.7903128094279794,-94.64811750284856,-2.4816532,9.513907,29.628899,12.27376,-11.002413,-6.3784685,-7.430703,-8.583348,-17.689342,12.176928,-7.4017015,5.055203,-2.8285668,-1.4397359,7.413474,-38.253292,30.115614,-43.76279,-5.3714995,-38.536026,-3.7337632,31.480959,-53.58443,-18.504042,63.635853,1.5141233,-1.5134922,0.09592573,-27.299398
136,0.38928478956222534,1.9083361625671387,78.3160400390625,0.5755852827602486,3.787613676840084,-94.66868189100468,-2.4569325,9.491474,29.65113,12.259598,-11.015688,-6.371724,-7.4296703,-8.601042,-17.663057,12.182988,-7.410198,5.069923,-2.9346511,-1.3283292,7.340847,-37.52804,30.715237,-43.332737,-5.456584,-37.985855,-2.1488285,29.61673,-53.311935,-18.969536,63.10359,1.3030808,-1.3092989,0.28669915,-24.268135
137,0.40537723898887634,1.8979833126068115,78.31464385986328,0.5808125428108282,3.7854671774616646,-94.69039807815189,-2.4360936,9.4730625,29.67967,12.256942,-11.032097,-6.358889,-7.4301124,-8.618269,-17.640242,12.192312,-7.414105,5.0879126,-3.0361586,-1.2228467,7.2869225,-36.77253,31.33552,-42.903748,-5.5571485,-37.67556,-0.8058148,27.604334,-52.967617,-19.465631,62.527237,1.0725616,-1.0809883,0.42097154,-21.387653
138,0.42183926701545715,1.8870333433151245,78.31291198730469,0.5861031241052684,3.7827983332386363,-94.71325608872205,-2.4159427,9.456488,29.712755,12.26061,-11.050514,-6.3420386,-7.4300866,-8.635556,-17.619123,12.202868,-7.4147453,5.1084995,-3.1315267,-1.1211743,7.2464266,-35.97623,31.970194,-42.45872,-5.677883,-37.519276,0.42506203,25.421623,-52.573086,-19.987425,61.913708,0.82187,-0.7762976,0.5172917,-18.617498
139,0.43866583704948425,1.8748502731323242,78.31106567382812,0.5921198106208242,3.7797063789736898,-94.7393905963756,-2.3937807,9.439871,29.749443,12.264422,-11.068152,-6.325682,-7.431179,-8.652887,-17.594471,12.215671,-7.4160047,5.1287436,-3.2234828,-1.0241904,7.2156634,-35.16572,32.61367,-42.014748,-5.811474,-37.30935,1.5804815,23.225197,-52.1513,-20.532028,61.296745,0.5524681,-0.5167694,0.56757224,-16.03976
140,0.4557372033596039,1.8615262508392334,78.31056213378906,0.6003193385976239,3.7761650946934666,-94.77075711697405,-2.3674111,9.42078,29.789005,12.263598,-11.082765,-6.3142247,-7.434939,-8.671184,-17.560425,12.231067,-7.420587,5.1459794,-3.30916,-0.933086,7.187686,-34.310955,33.26167,-41.582153,-5.99502,-36.80875,2.6819854,21.16303,-51.730354,-21.099205,60.711914,0.2744159,-0.41727674,0.55251104,-13.73871
141,0.47297048568725586,1.849172592163086,78.308349609375,0.6118664048032327,3.7716565311460704,-94.80820491232392,-2.3358934,9.397722,29.83154,12.258206,-11.092481,-6.3101816,-7.4430847,-8.692403,-17.513845,12.253868,-7.4321513,5.1588364,-3.388818,-0.84698755,7.1644216,-33.437214,33.91067,-41.17459,-6.204685,-35.969185,3.7515068,19.1989,-51.312714,-21.68828,60.160862,0.0037901246,-0.5445693,0.41135195,-11.736928
142,0.4873952269554138,1.8365521430969238,78.31053161621094,0.6262427006449881,3.7663836802670785,-94.85037233982226,-2.3003879,9.371756,29.877316,12.249801,-11.09874,-6.310683,-7.4535937,-8.715143,-17.458418,12.280505,-7.447376,5.1689105,-3.4629738,-0.7665526,7.1506095,-32.57415,34.5553,-40.789505,-6.4101043,-34.92586,4.7550297,17.267746,-50.9096,-22.297054,59.628803,-0.2539911,-0.7990471,0.1575317,-9.98825
143,0.5005213618278503,1.8234474658966064,78.3106689453125,0.6401878963344357,3.7614376980666813,-94.8967287331795,-2.2625468,9.346214,29.926,12.238312,-11.105418,-6.3123302,-7.466391,-8.736671,-17.398241,12.30862,-7.464013,5.1780577,-3.5290306,-0.6919103,7.137721,-31.68299,35.19221,-40.407036,-6.6488047,-33.725357,5.6259785,15.472813,-50.486294,-22.925272,59.121254,-0.5402906,-1.1090955,-0.11713634,-8.476151
144,0.5150997638702393,1.810471773147583,78.31076049804688,0.6513732396826002,3.7578271567362496,-94.946116626988,-2.2241497,9.323666,29.977488,12.223129,-11.116553,-6.311547,-7.481971,-8.753891,-17.337742,12.33717,-7.4806952,5.1880264,-3.5880527,-0.6249467,7.1235633,-30.770857,35.81809,-40.014286,-6.9265428,-32.445946,6.306526,13.924722,-50.035515,-23.57165,58.6468,-0.88863987,-1.3891662,-0.31402043,-7.1851015
145,0.5303019285202026,1.7971283197402954,78.30857849121094,0.6576813256223962,3.7543984167401354,-94.99996909451723,-2.1820838,9.305097,30.032066,12.200455,-11.134495,-6.30789,-7.499818,-8.765238,-17.27647,12.367077,-7.4992347,5.198806,-3.6378577,-0.56585723,7.10968,-29.840223,36.43057,-39.616547,-7.247293,-31.128094,6.7641125,12.68049,-49.621727,-24.235514,58.22762,-1.2744724,-1.6129533,-0.41060752,-6.1644506
146,0.5447388887405396,1.7835434675216675,78.30399322509766,0.6614553563400017,3.751071683690565,-95.05818126019845,-2.1363244,9.288632,30.08974,12.171498,-11.156612,-6.3029575,-7.5197697,-8.772444,-17.212673,12.398317,-7.519488,5.209617,-3.6793091,-0.5134596,7.0959973,-28.893229,37.02831,-39.21799,-7.6003976,-29.742218,7.044345,11.679336,-49.233074,-24.91587,57.856003,-1.6851699,-1.8267773,-0.45575336,-5.404132
147,0.5587229132652283,1.7717562913894653,78.30284118652344,0.664505137085754,3.7507063589114242,-95.11806432724644,-2.0934405,9.273615,30.149696,12.142722,-11.178798,-6.29681,-7.541432,-8.777677,-17.148638,12.425186,-7.535773,5.2211,-3.7137892,-0.4686294,7.079369,-27.932575,37.60969,-38.805897,-7.9742565,-28.257551,7.2110844,10.858388,-48.82262,-25.610369,57.50121,-2.130312,-1.9954894,-0.4538976,-4.7989135
148,0.572209894657135,1.761367678642273,78.30030822753906,0.6693877723111069,3.756212240344776,-95.17677083878009,-2.0598922,9.25865,30.210901,12.121096,-11.197364,-6.2892857,-7.5681114,-8.784298,-17.085863,12.449499,-7.5460763,5.233973,-3.7438407,-0.43262702,7.05768,-26.963049,38.17303,-38.36781,-8.355732,-26.640818,7.32444,10.152198,-48.37759,-26.316496,57.135624,-2.602828,-2.054184,-0.40937316,-4.243801
149,0.5844063758850098,1.7499099969863892,78.30030059814453,0.6779193891097838,3.7704226489296624,-95.23514654630199,-2.0385296,9.242118,30.276478,12.107506,-11.20949,-6.2777586,-7.6005616,-8.793575,-17.023382,12.465899,-7.54453,5.2504325,-3.7687974,-0.40800828,7.0263257,-25.983622,38.71858,-37.921055,-8.742851,-24.833803,7.3593225,9.589676,-47.894344,-27.032288,56.763973,-3.1066332,-1.9438965,-0.28806245,-3.727337
150,0.5967541337013245,1.739022135734558,78.30010986328125,0.6883477176469476,3.791064759073434,-95.2940216625443,-2.0261848,9.225749,30.345634,12.100413,-11.218653,-6.263234,-7.638058,-8.803822,-16.960749,12.4775095,-7.53517,5.2694144,-3.7879164,-0.39391345,6.987894,-24.999825,39.24516,-37.468506,-9.135379,-22.875961,7.305266,9.1967,-47.386097,-27.75666,56.3955,-3.6392236,-1.70853,-0.09663002,-3.3004422
151,0.6094509959220886,1.7254464626312256,78.2986068725586,0.6979818641431207,3.8135943799550844,-95.35119068579333,-2.0184484,9.21162,30.412178,12.097835,-11.228052,-6.2507467,-7.6762877,-8.812736,-16.900711,12.487244,-7.5243163,5.2867866,-3.8016775,-0.3849158,6.948565,-24.010427,39.749813,-36.972485,-9.534395,-20.870836,7.2402825,8.896569,-46.852875,-28.48905,56.011673,-4.1848245,-1.447701,0.09811584,-2.951297
152,0.621136486530304,1.709529161453247,78.29777526855469,0.7036244886635751,3.833359323561749,-95.40428032178968,-2.009869,9.201853,30.469702,12.0952215,-11.239463,-6.2454996,-7.7076197,-8.816774,-16.846931,12.491936,-7.5154037,5.298384,-3.810632,-0.374954,6.9168935,-23.019258,40.228252,-36.395172,-9.937796,-18.922537,7.238791,8.6073,-46.281036,-29.22769,55.589237,-4.7362514,-1.2714437,0.22829607,-2.667585
153,0.6317911744117737,1.695811152458191,78.29798126220703,0.7031114253897482,3.8488681532528566,-95.45354482656614,-2.0007768,9.199671,30.515415,12.096353,-11.256197,-6.251642,-7.7316604,-8.814296,-16.800558,12.494222,-7.509833,5.3008227,-3.8158908,-0.3579199,6.893769,-22.018206,40.67781,-35.72676,-10.355089,-16.909163,7.348064,8.321406,-45.67361,-29.972874,55.139057,-5.2822614,-1.1846361,0.25324216,-2.4508498
154,0.6403883695602417,1.681997299194336,78.29810333251953,0.6986887607682647,3.8626746558348435,-95.49992583605567,-1.9934785,9.202787,30.55306,12.102396,-11.276783,-6.2653885,-7.7515473,-8.8072605,-16.759632,12.493719,-7.5053463,5.2970605,-3.8180957,-0.33732623,6.875539,-21.006683,41.097492,-34.985046,-10.782819,-14.822172,7.5224504,8.071066,-45.03636,-30.724167,54.667805,-5.8294477,-1.1342505,0.21568105,-2.306007
155,0.6500158905982971,1.6677839756011963,78.29720306396484,0.6934622818610497,3.8762765326102118,-95.54236979015995,-1.9869474,9.20704,30.586197,12.106709,-11.29577,-6.280416,-7.7670884,-8.798759,-16.72292,12.487302,-7.5011053,5.2925205,-3.8147438,-0.3215966,6.862067,-19.99364,41.48549,-34.17479,-11.205754,-12.935404,7.6946054,7.8351035,-44.36128,-31.477676,54.146667,-6.3908525,-1.142492,0.1715651,-2.2243338
156,0.6566866040229797,1.6554187536239624,78.29468536376953,0.6908238631598055,3.891114573545421,-95.57969619648655,-1.9805787,9.20735,30.618578,12.105198,-11.3096075,-6.2900887,-7.781233,-8.792576,-16.688314,12.478033,-7.499958,5.2924867,-3.8042505,-0.31983778,6.852646,-18.988745,41.840034,-33.30072,-11.605494,-11.524884,7.796155,7.5982604,-43.647312,-32.22807,53.54874,-6.974944,-1.2259203,0.17703669,-2.1969094
157,0.6624166965484619,1.644364356994629,78.29547882080078,0.6917673713345847,3.90751527019702,-95.61111480696492,-1.9740994,9.2023535,30.65093,12.095212,-11.315312,-6.292511,-7.791842,-8.789485,-16.654968,12.461551,-7.5032806,5.298481,-3.7850425,-0.3347392,6.8465314,-17.987768,42.15835,-32.351288,-11.980146,-10.645781,7.8155107,7.3242,-42.889233,-32.97121,52.862373,-7.5837917,-1.4492041,0.24992242,-2.2502925
158,0.6666919589042664,1.6332944631576538,78.29579162597656,0.694634854134243,3.924713570227395,-95.63723937069005,-1.968043,9.194476,30.681509,12.080385,-11.316263,-6.2912254,-7.7997417,-8.787934,-16.623734,12.440354,-7.5108266,5.30761,-3.7589056,-0.36118945,6.8438115,-16.990486,42.43853,-31.330301,-12.334208,-10.158096,7.7908926,7.0354443,-42.09098,-33.705112,52.10308,-8.20599,-1.7808908,0.35861602,-2.3788285
159,0.6729215383529663,1.6208258867263794,78.29341888427734,0.6981381028676352,3.9426116747942066,-95.65971000287297,-1.9631749,9.185843,30.70947,12.0640745,-11.316353,-6.2879143,-7.8069816,-8.7871475,-16.596584,12.418756,-7.5175166,5.318683,-3.7271397,-0.39420965,6.843728,-16.007563,42.681465,-30.26485,-12.669737,-10.044676,7.733379,6.8075523,-41.259087,-34.42649,51.277977,-8.836605,-2.0923831,0.487894,-2.5260108
160,0.6769482493400574,1.6075736284255981,78.29585266113281,0.700755895867667,3.961022173855547,-95.68001670080245,-1.9573967,9.176894,30.73445,12.043271,-11.316428,-6.284308,-7.81468,-8.786022,-16.575718,12.399521,-7.517563,5.330432,-3.6930132,-0.42978677,6.84395,-15.050594,42.88966,-29.183228,-12.982886,-10.288886,7.6532693,6.716441,-40.41175,-35.13363,50.39861,-9.463852,-2.245347,0.62070614,-2.6349308
161,0.6787311434745789,1.5957597494125366,78.29302215576172,0.7028465269687152,3.981597864156718,-95.69855111694392,-1.952308,9.166677,30.757023,12.018484,-11.319188,-6.2772617,-7.824425,-8.785267,-16.563398,12.381764,-7.5049024,5.34612,-3.6591973,-0.4681892,6.8425226,-14.1168995,43.063656,-28.087294,-13.274321,-11.073702,7.5412226,6.806745,-39.54911,-35.82469,49.45782,-10.089087,-2.2018266,0.769634,-2.6935792
162,0.6802513599395752,1.5824358463287354,78.29380798339844,0.7046790106513505,4.0038592724171265,-95.71450742440943,-1.9476441,9.155127,30.777292,11.989536,-11.322785,-6.267119,-7.836053,-8.785312,-16.55791,12.366561,-7.485114,5.365202,-3.619423,-0.5107547,6.842647,-13.207105,43.20291,-26.969315,-13.545246,-12.34491,7.3925447,7.0272927,-38.648125,-36.495087,48.446934,-10.718358,-2.0477412,0.9376102,-2.7323916
163,0.6806986331939697,1.5682520866394043,78.2923355102539,0.7059673547088685,4.024439509953484,-95.72746106127815,-1.9426858,9.145196,30.793377,11.961382,-11.325534,-6.2605677,-7.844811,-8.78429,-16.5553,12.351483,-7.4661083,5.38085,-3.5707278,-0.5566574,6.8467097,-12.333851,43.30891,-25.838228,-13.793608,-13.730186,7.224735,7.311402,-37.717648,-37.14191,47.382793,-11.343949,-1.8085153,1.0928391,-2.757832
164,0.6807224750518799,1.553464412689209,78.29425048828125,0.7061066604742752,4.039856307683698,-95.73687275162726,-1.9357079,9.139356,30.803766,11.93686,-11.324877,-6.264352,-7.8493505,-8.7813015,-16.551172,12.340909,-7.4591093,5.386158,-3.5208032,-0.60639685,6.850131,-11.49931,43.38414,-24.6953,-14.0119505,-14.858475,7.060642,7.596015,-36.806454,-37.77185,46.29818,-11.940651,-1.4724101,1.2032459,-2.773357
165,0.6758635640144348,1.5425385236740112,78.29904174804688,0.7045546054470678,4.048112300405188,-95.74203438118668,-1.9265234,9.139339,30.805227,11.919177,-11.319537,-6.2853427,-7.846438,-8.775119,-16.543541,12.333509,-7.4685802,5.3752203,-3.4555392,-0.6581628,6.865986,-10.71417,43.42791,-23.53878,-14.209051,-15.679595,6.901466,7.877704,-35.8573,-38.377247,45.1626,-12.5290165,-1.0626575,1.254479,-2.7661774
166,0.6719751954078674,1.5313670635223389,78.2985610961914,0.7019022024896348,4.051292453927044,-95.74322146248477,-1.9155273,9.143279,30.799623,11.904812,-11.310386,-6.3182974,-7.8381925,-8.766732,-16.534868,12.328172,-7.488094,5.353066,-3.3847747,-0.7136747,6.8862453,-9.968982,43.440144,-22.364855,-14.379595,-16.37506,6.7368374,8.187084,-34.89834,-38.95875,43.983444,-13.100074,-0.5487493,1.2657845,-2.7365208
167,0.6680740714073181,1.5204848051071167,78.29468536376953,0.6982742570857762,4.052549724633933,-95.74205627515633,-1.9043143,9.1496105,30.79237,11.89301,-11.301927,-6.351501,-7.8284335,-8.757199,-16.528316,12.32555,-7.510922,5.3292623,-3.3077102,-0.7679228,6.9075284,-9.267252,43.424908,-21.190746,-14.530225,-16.922533,6.578913,8.51101,-33.937103,-39.515427,42.78801,-13.656461,0.0009120253,1.2563455,-2.719925
168,0.6630342602729797,1.5109095573425293,78.29283142089844,0.6936408335171823,4.054865164079933,-95.73993472651853,-1.8950458,9.157421,30.788637,11.88372,-11.298667,-6.373321,-7.8208084,-8.747439,-16.527079,12.325301,-7.530071,5.3134537,-3.2349818,-0.81948745,6.918744,-8.604152,43.388634,-20.028019,-14.658478,-17.29975,6.4403105,8.837843,-33.01854,-40.05455,41.618717,-14.186732,0.55271006,1.2445427,-2.749102
169,0.6572350263595581,1.500029444694519,78.29271697998047,0.6862971914566919,4.05984937510335,-95.73572447844074,-1.8897185,9.168191,30.790924,11.878587,-11.304264,-6.378239,-7.8161983,-8.7362,-16.534645,12.326704,-7.543545,5.308128,-3.144543,-0.86154586,6.937055,-7.9897313,43.332085,-18.875195,-14.790072,-17.412277,6.335651,9.160749,-32.06759,-40.55992,40.44577,-14.7157135,1.026849,1.221167,-2.8420634
170,0.6524667739868164,1.4908277988433838,78.29415130615234,0.6769400849794994,4.065397181278799,-95.72904289558494,-1.885724,9.181335,30.79612,11.8750925,-11.314538,-6.373336,-7.813805,-8.723845,-16.548008,12.332609,-7.556432,5.30815,-3.0593305,-0.90275407,6.9469814,-7.407338,43.257065,-17.71715,-14.906809,-17.302517,6.25718,9.490442,-31.154478,-41.03854,39.287605,-15.211027,1.5203912,1.1800127,-2.9722688
171,0.6460444927215576,1.4814778566360474,78.29240417480469,0.6684359543327262,4.069890373911898,-95.72285933261439,-1.8819958,9.194739,30.801014,11.874564,-11.326044,-6.365564,-7.81046,-8.712195,-16.562296,12.338371,-7.5667853,5.311786,-2.970579,-0.939994,6.9580455,-6.8706126,43.169678,-16.579258,-15.00635,-17.15431,6.1843944,9.834114,-30.26518,-41.48577,38.151794,-15.689355,1.9871329,1.144572,-3.1339345
172,0.639411985874176,1.4733718633651733,78.29249572753906,0.6634838919245876,4.071497655293311,-95.71989147150151,-1.876561,9.205546,30.802338,11.876465,-11.334761,-6.3618855,-7.8039203,-8.702913,-16.572035,12.341165,-7.5737343,5.317176,-2.882548,-0.97653407,6.966493,-6.386261,43.079674,-15.486106,-15.071511,-17.152273,6.093957,10.201181,-29.42973,-41.90267,37.06192,-16.148413,2.4253745,1.1383109,-3.3157985
173,0.6335080862045288,1.4671361446380615,78.29317474365234,0.665680814664243,4.070001616700983,-95.72159156990449,-1.869454,9.210354,30.798203,11.880658,-11.338427,-6.36155,-7.793505,-8.699442,-16.575554,12.338923,-7.5738196,5.328376,-2.800494,-1.0188955,6.9669833,-5.951667,42.995384,-14.435842,-15.09487,-17.32515,5.973833,10.604955,-28.668211,-42.295456,36.028828,-16.583317,2.8568354,1.1689769,-3.5252945
174,0.6229599714279175,1.461641788482666,78.29187774658203,0.6724856766826904,4.066366160453802,-95.7263117945361,-1.8614813,9.211327,30.790546,11.886695,-11.339161,-6.3616624,-7.7809553,-8.699704,-16.57574,12.334639,-7.5692487,5.3447876,-2.7196727,-1.065448,6.965594,-5.5598145,42.919243,-13.41501,-15.0939045,-17.58346,5.836519,11.037526,-27.956936,-42.663273,35.03561,-17.002815,3.2701457,1.2230482,-3.765944
175,0.6141768097877502,1.45238196849823,78.2937240600586,0.6785684501770342,4.060149019061986,-95.73196411840924,-1.8523248,9.214795,30.782463,11.896458,-11.340993,-6.3662033,-7.766473,-8.698397,-16.57418,12.331243,-7.5663652,5.357868,-2.6408544,-1.1125035,6.966228,-5.2037125,42.852364,-12.425993,-15.081381,-17.933317,5.6936784,11.476659,-27.295956,-43.005688,34.081554,-17.40511,3.6448522,1.2925818,-4.016101
176,0.604107677936554,1.4468024969100952,78.29243469238281,0.6787750503228183,4.050839633923401,-95.73637964327622,-1.8408806,9.22672,30.776957,11.909383,-11.346281,-6.3792005,-7.7503285,-8.690115,-16.572472,12.331539,-7.571225,5.359178,-2.5668383,-1.1568158,6.9701405,-4.8777866,42.79459,-11.472311,-15.063756,-18.38089,5.557007,11.900271,-26.689955,-43.323914,33.166496,-17.788832,3.968876,1.370201,-4.2533793
177,0.5918468832969666,1.440467119216919,78.29033660888672,0.6710918043944382,4.036674334244639,-95.73879213429178,-1.8244267,9.249123,30.774628,11.924239,-11.355423,-6.407139,-7.7305894,-8.672376,-16.56933,12.336022,-7.587867,5.342971,-2.4941225,-1.197009,6.9815483,-4.5863247,42.744408,-10.550984,-15.0383835,-18.960648,5.4227753,12.29664,-26.13075,-43.616657,32.28074,-18.155716,4.2246037,1.4659588,-4.471077
178,0.5807217359542847,1.4363688230514526,78.28712463378906,0.6583391956181525,4.018452257977071,-95.74042853866462,-1.8048513,9.279134,30.774,11.943297,-11.368057,-6.446108,-7.7093444,-8.648952,-16.564413,12.346964,-7.6143293,5.314917,-2.4248216,-1.236281,6.9955955,-4.330932,42.703083,-9.661417,-15.000309,-19.657812,5.2852554,12.678841,-25.627369,-43.88687,31.43107,-18.50503,4.4302015,1.580507,-4.679965
179,0.5719777345657349,1.4305721521377563,78.28460693359375,0.643105769736641,3.9996131226726095,-95.74226486789291,-1.7858336,9.313362,30.7749,11.964875,-11.382361,-6.484302,-7.687253,-8.621766,-16.560804,12.356846,-7.6405206,5.283612,-2.3610008,-1.275157,7.0086765,-4.110266,42.673313,-8.81488,-14.954695,-20.405329,5.153582,13.062314,-25.19025,-44.13778,30.635742,-18.829351,4.5994,1.6922541,-4.887518
180,0.5581409335136414,1.429200291633606,78.28384399414062,0.6282739513413235,3.983850395307924,-95.74563932987576,-1.7727844,9.348941,30.777487,11.991069,-11.398361,-6.5097947,-7.667751,-8.593944,-16.56135,12.363543,-7.659447,5.257715,-2.304276,-1.3143262,7.0172496,-3.924287,42.658142,-8.023684,-14.906861,-21.136995,5.0374236,13.463323,-24.826878,-44.371487,29.91104,-19.1248,4.7465806,1.7793596,-5.1015654
181,0.5451420545578003,1.4262874126434326,78.28250885009766,0.6123246710021149,3.9735783771554236,-95.750509062048,-1.7704766,9.388806,30.782072,12.026424,-11.418596,-6.515598,-7.652347,-8.563582,-16.569817,12.365377,-7.668001,5.2371297,-2.2562082,-1.3524249,7.0181937,-3.770365,42.659443,-7.292608,-14.856969,-21.874899,4.932986,13.892987,-24.545599,-44.5899,29.268745,-19.384872,4.8630037,1.8337473,-5.327657
182,0.5317635536193848,1.421554446220398,78.2845458984375,0.5945121926896615,3.9664735099735653,-95.75646457612012,-1.7748969,9.4331255,30.788729,12.06833,-11.442239,-6.5093184,-7.639615,-8.530068,-16.58369,12.364651,-7.6710405,5.218081,-2.217285,-1.391155,7.012657,-3.6492102,42.677734,-6.614015,-14.800027,-22.641714,4.8361115,14.341175,-24.345758,-44.795986,28.700563,-19.612131,4.949531,1.8680459,-5.559866
183,0.518052339553833,1.418600082397461,78.2851333618164,0.5783790928788296,3.958653766934542,-95.76364003278483,-1.7790734,9.476223,30.795938,12.110898,-11.465329,-6.5011044,-7.6269097,-8.497829,-16.59639,12.36363,-7.671597,5.2035036,-2.1806693,-1.4323254,7.0085564,-3.5689306,42.712902,-5.9849687,-14.742773,-23.373278,4.7573957,14.793147,-24.205439,-44.98768,28.186573,-19.824188,5.016682,1.8913753,-5.7906933
184,0.5040991306304932,1.4179980754852295,78.28618621826172,0.5672425218769771,3.9462975113714878,-95.77236033622489,-1.7753602,9.512298,30.802513,12.147481,-11.48379,-6.5011144,-7.610485,-8.470746,-16.60166,12.362453,-7.67176,5.1963577,-2.1406736,-1.4789494,7.011397,-3.538262,42.76565,-5.4038796,-14.688784,-24.005142,4.708857,15.234799,-24.110199,-45.162415,27.711277,-20.031067,5.077025,1.9128742,-6.0112805
185,0.48964837193489075,1.4185973405838013,78.28651428222656,0.5646015811088819,3.9276549555814797,-95.78342168652742,-1.760862,9.537091,30.808735,12.177619,-11.496635,-6.5116296,-7.5890365,-8.4525795,-16.594925,12.361149,-7.670207,5.2036467,-2.0964987,-1.5349504,7.0216484,-3.5623722,42.839172,-4.8740597,-14.633254,-24.505754,4.7087874,15.669501,-24.06159,-45.320415,27.272161,-20.230556,5.13059,1.9312534,-6.2149596
186,0.47617602348327637,1.419714093208313,78.28580474853516,0.5676681874550731,3.9050945071488727,-95.79657556394488,-1.740097,9.555123,30.814844,12.204989,-11.506258,-6.527414,-7.563379,-8.439701,-16.580761,12.356849,-7.6649003,5.221631,-2.048321,-1.5982322,7.0376534,-3.6397133,42.93483,-4.3984547,-14.575611,-24.91593,4.747632,16.104208,-24.062824,-45.461582,26.87615,-20.419945,5.1656528,1.9430169,-6.40763
187,0.4620468318462372,1.4200410842895508,78.28316497802734,0.5710351787063905,3.880626332474469,-95.80991124228234,-1.7166097,9.572269,30.820301,12.228935,-11.513811,-6.5472527,-7.5382667,-8.427468,-16.565474,12.35669,-7.6628923,5.2374353,-1.9991139,-1.6652782,7.0568447,-3.7616549,43.04966,-3.9700952,-14.520842,-25.279194,4.7958193,16.52978,-24.110777,-45.585922,26.519323,-20.607508,5.201985,1.9537262,-6.597345
188,0.4475690424442291,1.4236124753952026,78.28242492675781,0.5692391947828326,3.8563749882787337,-95.82150840108986,-1.6939322,9.595313,30.823921,12.24966,-11.520632,-6.5699854,-7.5158944,-8.409887,-16.555756,12.361945,-7.668323,5.2379675,-1.951184,-1.7309256,7.0773616,-3.92044,43.178455,-3.5820494,-14.475087,-25.637346,4.8235364,16.935871,-24.202785,-45.693855,26.200407,-20.799606,5.255044,1.9689206,-6.7923474
189,0.4323700964450836,1.4251357316970825,78.27752685546875,0.5598483283442511,3.8310054133270453,-95.83133389686553,-1.6705352,9.626924,30.825274,12.264967,-11.526333,-6.60033,-7.495925,-8.384761,-16.55389,12.375616,-7.68585,5.216305,-1.9051621,-1.7902297,7.100288,-4.119238,43.319706,-3.2344902,-14.43474,-25.995539,4.8344083,17.310535,-24.344137,-45.78723,25.924692,-21.000051,5.3414574,1.992301,-6.9971137
190,0.4150758981704712,1.4306716918945312,78.27177429199219,0.5460762586835164,3.804013770665595,-95.84008479842335,-1.6453117,9.663412,30.824976,12.276264,-11.530833,-6.6371884,-7.4772887,-8.355418,-16.556103,12.396024,-7.7120533,5.1805854,-1.8597821,-1.8453207,7.12615,-4.360257,43.47386,-2.9301913,-14.400449,-26.33207,4.841352,17.661228,-24.535738,-45.8668,25.693598,-21.203886,5.447488,2.020064,-7.206955
191,0.3953685164451599,1.437062382698059,78.27195739746094,0.5307151574308618,3.778740506252844,-95.84766748139447,-1.6235728,9.701961,30.823442,12.288266,-11.535488,-6.670829,-7.461759,-8.324317,-16.56016,12.417932,-7.739,5.1402936,-1.8161011,-1.9030482,7.1516647,-4.635641,43.636524,-2.6662652,-14.373642,-26.647017,4.8283587,18.007015,-24.768457,-45.931164,25.497438,-21.407824,5.547839,2.0466585,-7.4158406
192,0.3776963949203491,1.4452804327011108,78.27389526367188,0.516872944584491,3.758434593109874,-95.85355857437735,-1.6120503,9.740633,30.82085,12.309278,-11.54299,-6.6915555,-7.4509897,-8.294134,-16.563566,12.436307,-7.7588906,5.104924,-1.7737098,-1.968491,7.174411,-4.93705,43.800747,-2.439626,-14.359547,-26.939667,4.7793117,18.366104,-25.030298,-45.976185,25.32578,-21.610256,5.612172,2.0667927,-7.618163
193,0.35697147250175476,1.4553838968276978,78.27365112304688,0.5042861920833295,3.745837269913216,-95.85676152122888,-1.6166109,9.780962,30.815928,12.345828,-11.557015,-6.691329,-7.4492908,-8.264823,-16.566677,12.454168,-7.772438,5.0740714,-1.7336893,-2.0426943,7.190899,-5.267421,43.964092,-2.2541423,-14.355728,-27.205423,4.684725,18.73889,-25.327065,-45.99926,25.186996,-21.802584,5.6308208,2.0787256,-7.8191514
194,0.33933377265930176,1.463030457496643,78.27835845947266,0.4914895564739103,3.7384474605963525,-95.85761238390263,-1.6328601,9.823707,30.808752,12.393665,-11.575981,-6.6772017,-7.4539633,-8.235042,-16.570335,12.472,-7.782662,5.0435944,-1.6988478,-2.122823,7.2003345,-5.6280017,44.127274,-2.1094418,-14.359292,-27.44345,4.5554647,19.116087,-25.672268,-46.002655,25.088346,-21.98133,5.6262436,2.0858161,-8.018268
195,0.32528752088546753,1.470673680305481,78.28056335449219,0.48005029059591003,3.732149668775216,-95.85867129812955,-1.6497039,9.864153,30.80251,12.438695,-11.591729,-6.661753,-7.458439,-8.206238,-16.573503,12.484918,-7.7867217,5.017615,-1.6690849,-2.2072794,7.2068233,-6.0126076,44.287186,-1.9980336,-14.3685055,-27.657017,4.4060407,19.501144,-26.059605,-45.988598,25.018093,-22.153027,5.6068826,2.090569,-8.201963
196,0.3118298649787903,1.4773794412612915,78.27822875976562,0.4710707835203427,3.7227629434771483,-95.86233360507738,-1.659133,9.899258,30.799871,12.475164,-11.60096,-6.657651,-7.456685,-8.180198,-16.574759,12.490568,-7.7841654,5.0002737,-1.6347369,-2.290085,7.221822,-6.422395,44.43671,-1.916929,-14.389304,-27.850086,4.2510004,19.896763,-26.456718,-45.94985,24.956009,-22.338564,5.5520334,2.0954554,-8.3603945
197,0.29949015378952026,1.4828163385391235,78.27943420410156,0.4660894751522389,3.7098653217959265,-95.87033959101576,-1.657865,9.926232,30.803444,12.497037,-11.598378,-6.669529,-7.4472384,-8.158195,-16.572971,12.48527,-7.7690377,4.997151,-1.594813,-2.3699267,7.245157,-6.8591137,44.57394,-1.8655453,-14.420572,-28.014372,4.105929,20.284658,-26.868267,-45.883236,24.901068,-22.533993,5.441707,2.1042352,-8.477403
198,0.28651338815689087,1.4891643524169922,78.27852630615234,0.4644094092848135,3.6954354718195,-95.88116532952724,-1.6503658,9.946527,30.81118,12.508971,-11.587719,-6.690202,-7.4334073,-8.139689,-16.569025,12.472427,-7.744512,5.004591,-1.562671,-2.4531944,7.264711,-7.3150706,44.70216,-1.8413361,-14.455419,-28.14802,3.9600055,20.669695,-27.33513,-45.800816,24.872166,-22.716366,5.3169494,2.1148932,-8.558076
199,0.27300336956977844,1.4965428113937378,78.27735900878906,0.46263969213659706,3.6789189299601026,-95.89195977850162,-1.6399419,9.966245,30.81872,12.518746,-11.5759325,-6.714534,-7.415431,-8.120913,-16.564953,12.455086,-7.719284,5.0126038,-1.5295532,-2.5346348,7.2898526,-7.7920485,44.815643,-1.8475165,-14.501995,-28.266829,3.7875519,21.08786,-27.812252,-45.696465,24.857018,-22.907207,5.1868124,2.1207387,-8.634755
200,0.25823476910591125,1.5060738325119019,78.27571868896484,0.4580846141206292,3.6597326436110382,-95.90027409014654,-1.6301388,9.990199,30.821877,12.536075,-11.571808,-6.737298,-7.396395,-8.100284,-16.562038,12.443971,-7.706332,5.0112247,-1.5124549,-2.6211727,7.3073297,-8.275337,44.91244,-1.8788216,-14.548759,-28.379644,3.5629525,21.57554,-28.340223,-45.585014,24.869904,-23.078424,5.1396046,2.115728,-8.724992
201,0.24098823964595795,1.517872929573059,78.27155303955078,0.44736945824851204,3.6356049315294166,-95.9041091322365,-1.6211767,10.023554,30.816797,12.566686,-11.579997,-6.760952,-7.3709025,-8.073737,-16.561949,12.433761,-7.7096276,4.9935927,-1.4618056,-2.6880372,7.3593946,-8.807872,44.975815,-1.960309,-14.617724,-28.48715,3.2659311,22.136225,-28.75252,-45.415943,24.865675,-23.322905,5.006059,2.0984077,-8.860064
202,0.22895275056362152,1.5323196649551392,78.27365112304688,0.4338731272087476,3.6072290137693352,-95.90534077728574,-1.6102988,10.060969,30.807095,12.602583,-11.594006,-6.787088,-7.3414154,-8.04483,-16.562775,12.427252,-7.7252746,4.966334,-1.4356618,-2.761616,7.3925557,-9.350448,45.017628,-2.0712814,-14.670732,-28.570883,2.9152734,22.75396,-29.25556,-45.226,24.907034,-23.512407,4.9496903,2.0727384,-8.993574
203,0.21871277689933777,1.5433202981948853,78.27596282958984,0.4208460488269261,3.57959084684832,-95.90657979416906,-1.5991981,10.096304,30.79816,12.635686,-11.607657,-6.8087616,-7.3131824,-8.017083,-16.563604,12.420837,-7.739764,4.940187,-1.4134132,-2.8343596,7.4246755,-9.903644,45.03588,-2.209536,-14.734282,-28.647848,2.542079,23.427286,-29.77978,-45.012386,24.976072,-23.694653,4.930897,2.0379536,-9.1378765
204,0.2088768184185028,1.5528805255889893,78.2774658203125,0.4125388425222851,3.557366662801782,-95.90998347612596,-1.5922439,10.124497,30.794832,12.663828,-11.617304,-6.81913,-7.2950606,-7.995605,-16.563137,12.419587,-7.744359,4.9258723,-1.3927512,-2.9101644,7.451334,-10.462763,45.032013,-2.3754916,-14.811775,-28.729164,2.1773615,24.156229,-30.327166,-44.7761,25.075653,-23.859861,4.9690485,1.9935601,-9.289063
205,0.19861268997192383,1.5616060495376587,78.2795639038086,0.4115208333209927,3.54426027451105,-95.91679061667908,-1.5903156,10.140285,30.801088,12.679551,-11.619013,-6.809836,-7.291802,-7.9834185,-16.561102,12.423179,-7.7308226,4.9321575,-1.3795081,-2.9934912,7.4659224,-11.019282,45.01015,-2.5705569,-14.907201,-28.808285,1.8087081,24.971878,-30.91995,-44.523148,25.208609,-23.99581,5.110617,1.9268618,-9.439058
206,0.18918484449386597,1.5695128440856934,78.27852630615234,0.41505039133299276,3.5369655530913526,-95.92539159865157,-1.5913649,10.147704,30.813354,12.686335,-11.615843,-6.786653,-7.2971373,-7.977015,-16.558434,12.428325,-7.7053,4.951327,-1.365063,-3.0790522,7.4789577,-11.583593,44.968307,-2.797519,-15.020653,-28.883032,1.4262147,25.864305,-31.519432,-44.24678,25.36073,-24.130596,5.3101764,1.8416785,-9.595664
207,0.1809481382369995,1.579572081565857,78.27637481689453,0.41924450240560795,3.52973336867571,-95.93471284862797,-1.5924356,10.154105,30.82597,12.693022,-11.611783,-6.764076,-7.3045096,-7.971984,-16.554585,12.43636,-7.6805825,4.969565,-1.3453671,-3.1634617,7.4954033,-12.162999,44.901333,-3.0494053,-15.146939,-28.969381,1.064038,26.772175,-32.109276,-43.94201,25.532373,-24.268621,5.509454,1.7626973,-9.769342
208,0.1721954196691513,1.5905506610870361,78.27742004394531,0.4200867206524992,3.5166661049827135,-95.94353951854303,-1.5871487,10.164723,30.833904,12.700331,-11.606521,-6.7565327,-7.303056,-7.962984,-16.549519,12.44071,-7.664977,4.973003,-1.3280619,-3.245252,7.5127816,-12.75204,44.804234,-3.3091836,-15.277119,-29.082575,0.75641376,27.633465,-32.717026,-43.615574,25.732653,-24.392645,5.692773,1.7149099,-9.967101
209,0.16357068717479706,1.6020653247833252,78.27889251708984,0.41593794325866273,3.494214530862357,-95.95181165084257,-1.5715735,10.181831,30.83387,12.70906,-11.599767,-6.7730846,-7.287686,-7.948033,-16.54243,12.440469,-7.664528,4.9535646,-1.3013523,-3.3149803,7.543089,-13.356884,44.669632,-3.575769,-15.419342,-29.183102,0.5352083,28.432062,-33.294632,-43.258625,25.946693,-24.532795,5.814106,1.7057998,-10.173667
210,0.15289944410324097,1.6138827800750732,78.28013610839844,0.40927320384312416,3.4660704101779523,-95.96002890385037,-1.5493871,10.20221,30.829313,12.717709,-11.590879,-6.8043714,-7.26409,-7.929888,-16.533697,12.436858,-7.67233,4.9200926,-1.2766073,-3.3781714,7.5738835,-13.967445,44.499294,-3.8500934,-15.567207,-29.275402,0.3751605,29.200136,-33.89342,-42.877964,26.190594,-24.65325,5.9314647,1.7221097,-10.385324
211,0.14726975560188293,1.625726580619812,78.2802734375,0.40147288441057505,3.4377194860555123,-95.96797788906316,-1.5269068,10.223244,30.82475,12.725933,-11.582334,-6.8369284,-7.2392464,-7.910623,-16.524963,12.430647,-7.6800957,4.884127,-1.249468,-3.4370186,7.6076665,-14.586872,44.29105,-4.1351113,-15.727116,-29.44942,0.22222964,29.946007,-34.480988,-42.46933,26.467764,-24.777336,6.0149956,1.7575413,-10.654493
212,0.14129385352134705,1.6385538578033447,78.27944946289062,0.39405422706288457,3.4145617297453703,-95.97535979322853,-1.5116855,10.243194,30.824793,12.736945,-11.578215,-6.857336,-7.22279,-7.893407,-16.517748,12.428662,-7.682919,4.8572435,-1.2310274,-3.49934,7.6338005,-15.206917,44.046078,-4.42779,-15.895241,-29.791218,0.020225046,30.677998,-35.09916,-42.04014,26.80151,-24.873817,6.0914283,1.8059685,-11.024476
213,0.1367226392030716,1.6498721837997437,78.27727508544922,0.3866081597077669,3.398709291724141,-95.98180755781665,-1.5049268,10.261619,30.832432,12.7480345,-11.578044,-6.860584,-7.2140164,-7.876311,-16.513067,12.423396,-7.67318,4.8432956,-1.2166234,-3.5634406,7.656152,-15.824689,43.760063,-4.719577,-16.079708,-30.334679,-0.24224396,31.388422,-35.712708,-41.58627,27.182808,-24.971687,6.12433,1.8750836,-11.511436
214,0.13275927305221558,1.6599619388580322,78.27742767333984,0.37868545627772393,3.387066136325387,-95.98754327712813,-1.5038173,10.280124,30.844654,12.761199,-11.581554,-6.854312,-7.2109084,-7.8595486,-16.50978,12.418904,-7.658199,4.835846,-1.2094339,-3.6274338,7.673513,-16.438496,43.432674,-5.0099726,-16.277418,-31.027153,-0.5409599,32.073795,-36.342873,-41.10995,27.612143,-25.055042,6.136846,1.9655435,-12.087839
215,0.1304202675819397,1.6700798273086548,78.27987670898438,0.3714082321466416,3.3772963160986773,-95.9933187755294,-1.5052052,10.296821,30.856924,12.773772,-11.585786,-6.8440866,-7.211748,-7.844838,-16.506805,12.417741,-7.643053,4.831087,-1.2041144,-3.688532,7.691057,-17.057299,43.067398,-5.3164225,-16.482538,-31.83077,-0.88003385,32.74697,-36.975037,-40.609627,28.088932,-25.12347,6.141537,2.0601149,-12.748044
216,0.1285172700881958,1.6824238300323486,78.28135681152344,0.3665877557554132,3.3669547707386487,-95.99947668363836,-1.5061761,10.309342,30.865131,12.784299,-11.588797,-6.8354044,-7.213482,-7.8340454,-16.503248,12.419514,-7.631521,4.8252387,-1.1998413,-3.747669,7.7093964,-17.68994,42.67128,-5.6579146,-16.685574,-32.707626,-1.2633348,33.4226,-37.62238,-40.087593,28.618563,-25.15878,6.172139,2.1410787,-13.483232
217,0.1261262744665146,1.6944990158081055,78.28612518310547,0.36455173903476934,3.356631529697471,-96.00730938977077,-1.5063171,10.316326,30.867537,12.789216,-11.589427,-6.828282,-7.218422,-7.8284087,-16.498537,12.427956,-7.6258025,4.8163757,-1.1920508,-3.809443,7.730289,-18.341928,42.243748,-6.0356865,-16.886623,-33.727703,-1.7222621,34.1105,-38.265408,-39.542458,29.19488,-25.174074,6.208406,2.2094913,-14.309107
218,0.125335231423378,1.709240436553955,78.28608703613281,0.36475565687999745,3.3471996533710824,-96.01605265506096,-1.5077406,10.319463,30.866552,12.792232,-11.589954,-6.8201537,-7.227937,-7.8268843,-16.493238,12.443474,-7.6242266,4.8067813,-1.1826031,-3.873599,7.7517486,-19.007431,41.78391,-6.4425178,-17.087257,-34.883953,-2.2494617,34.797634,-38.906754,-38.974228,29.814713,-25.170713,6.2483697,2.2727268,-15.223449
219,0.12556947767734528,1.7228670120239258,78.28545379638672,0.36625283114861573,3.336753550195777,-96.0237436385063,-1.5086459,10.320221,30.86425,12.795322,-11.58947,-6.813116,-7.2358003,-7.8276176,-16.48812,12.457708,-7.6232805,4.7991138,-1.174977,-3.9333448,7.7751694,-19.686281,41.298546,-6.888038,-17.281317,-36.026566,-2.787501,35.46745,-39.5535,-38.383774,30.480114,-25.13911,6.324116,2.3206978,-16.193918
220,0.12601765990257263,1.736689567565918,78.28347778320312,0.36882813338432036,3.3233421824195237,-96.0284383196404,-1.5078727,10.320378,30.862612,12.803185,-11.588496,-6.809036,-7.238403,-7.8299766,-16.48369,12.46845,-7.6228657,4.796049,-1.1729449,-3.984345,7.80054,-20.376146,40.799725,-7.3817225,-17.462067,-37.0104,-3.2754798,36.108887,-40.2242,-37.77411,31.190664,-25.064419,6.479672,2.3418837,-17.187334
221,0.12595778703689575,1.7525973320007324,78.28181457519531,0.3735089676089674,3.3043001870067465,-96.02924629530911,-1.5003003,10.317785,30.863182,12.81325,-11.584927,-6.8101535,-7.2292614,-7.8343616,-16.479387,12.467836,-7.6216474,4.802251,-1.175777,-4.0303254,7.834558,-21.070324,40.29255,-7.9204884,-17.642357,-37.816887,-3.6984076,36.73138,-40.895813,-37.14345,31.92783,-24.964748,6.7287807,2.3196673,-18.196373
222,0.12866251170635223,1.7702347040176392,78.28028106689453,0.3800404395050959,3.281307085945231,-96.02734889082892,-1.4889511,10.312761,30.86421,12.825911,-11.580129,-6.8148923,-7.2137756,-7.8412685,-16.474833,12.463484,-7.62222,4.814897,-1.1838845,-4.0762296,7.875492,-21.77198,39.77719,-8.500441,-17.81904,-38.521564,-4.085626,37.34224,-41.57598,-36.492645,32.69502,-24.837511,7.0566263,2.260912,-19.236536
223,0.1320212185382843,1.7867475748062134,78.27581787109375,0.3863855994726711,3.259312587385503,-96.02369672235503,-1.4820256,10.309243,30.864113,12.84433,-11.576491,-6.8194413,-7.1999674,-7.84878,-16.471907,12.460386,-7.6219616,4.8257036,-1.1931928,-4.116499,7.9166727,-22.49039,39.25789,-9.129862,-17.9766,-39.125477,-4.4396377,37.930084,-42.259243,-35.823032,33.50847,-24.679415,7.421783,2.188638,-20.314413
224,0.13359953463077545,1.7999215126037598,78.27635192871094,0.38997061083633755,3.2431234356906975,-96.01927181425478,-1.4848669,10.309445,30.8617,12.864119,-11.572463,-6.8199487,-7.1963115,-7.854766,-16.472158,12.465368,-7.619019,4.826143,-1.1997783,-4.1463847,7.9493794,-23.225952,38.74208,-9.815208,-18.110386,-39.63071,-4.762821,38.483788,-42.949886,-35.137726,34.38725,-24.48449,7.7905593,2.1272767,-21.435768
225,0.13464803993701935,1.8140912055969238,78.27782440185547,0.38901011246115547,3.2359550439856464,-96.01517084782506,-1.5040231,10.31734,30.856306,12.890703,-11.569816,-6.816037,-7.208775,-7.857682,-16.476599,12.483006,-7.6114225,4.8089867,-1.2015327,-4.165211,7.973698,-23.97786,38.23094,-10.55051,-18.216476,-39.992184,-5.0309424,39.013092,-43.631466,-34.43595,35.32725,-24.266506,8.189605,2.0848083,-22.620625
226,0.13495010137557983,1.8292924165725708,78.28117370605469,0.3850636546502712,3.234538799108532,-96.0104265863994,-1.5351758,10.330832,30.84866,12.924425,-11.568544,-6.8095183,-7.2327285,-7.859208,-16.483929,12.511225,-7.601983,4.780352,-1.2004837,-4.1762695,7.993504,-24.733624,37.724052,-11.330327,-18.312029,-40.227497,-5.2478743,39.52271,-44.300537,-33.716877,36.31984,-24.026966,8.624998,2.0450568,-23.859806
227,0.13905173540115356,1.8423683643341064,78.2840347290039,0.38120806350352193,3.23426780862896,-96.00370828993263,-1.5680878,10.343149,30.839224,12.956391,-11.566863,-6.7999606,-7.2568264,-7.861294,-16.493153,12.537631,-7.591026,4.7521,-1.2038127,-4.184658,8.012225,-25.524504,37.223988,-12.175396,-18.368607,-40.433903,-5.459743,39.994064,-44.99107,-32.982742,37.3738,-23.735956,9.041849,1.9991218,-25.117353
228,0.13954854011535645,1.8584489822387695,78.28779602050781,0.3803733540908864,3.2303879572257608,-95.99327361753589,-1.5932378,10.3481,30.827948,12.97892,-11.563419,-6.786946,-7.2724776,-7.8663235,-16.502932,12.55588,-7.5820527,4.7359176,-1.2071863,-4.191983,8.028374,-26.311504,36.739162,-13.091569,-18.42803,-40.707134,-5.7137184,40.407047,-45.700764,-32.237114,38.489143,-23.381752,9.366503,1.9415156,-26.357264
229,0.14151740074157715,1.8748257160186768,78.28882598876953,0.3841083443287313,3.2201027819214167,-95.97853811412863,-1.605491,10.342358,30.815752,12.988309,-11.558278,-6.7669277,-7.276127,-7.8760376,-16.511389,12.564354,-7.5770288,4.7376885,-1.2205331,-4.203245,8.050654,-27.144949,36.27014,-14.086516,-18.436235,-41.074703,-6.0351105,40.73982,-46.34409,-31.481651,39.666264,-23.042025,9.60938,1.8371385,-27.606262
230,0.145676389336586,1.8911175727844238,78.28826141357422,0.39053996319788986,3.2063932886706956,-95.96028081037876,-1.6112231,10.330058,30.802073,12.98998,-11.552256,-6.7413144,-7.271931,-7.8885045,-16.51998,12.565057,-7.573218,4.7502503,-1.2333106,-4.2183585,8.078975,-28.01239,35.815617,-15.158084,-18.410322,-41.48806,-6.3945937,41.0089,-47.019733,-30.715967,40.895847,-22.63877,9.849393,1.7019758,-28.871847
231,0.14873167872428894,1.9100673198699951,78.28632354736328,0.39760158323640227,3.1935148880235324,-95.9396790964945,-1.6168067,10.315389,30.78573,12.98755,-11.5444975,-6.716943,-7.2664,-7.9020605,-16.531176,12.562453,-7.5693936,4.7657366,-1.250416,-4.2328057,8.100022,-28.870188,35.376625,-16.300497,-18.395266,-41.93102,-6.7609553,41.25203,-47.69712,-29.943424,42.180386,-22.188362,9.924793,1.614779,-30.089485
232,0.15270324051380157,1.927988052368164,78.28349304199219,0.4035183650810495,3.1856558263853683,-95.91734392449072,-1.6283548,10.302344,30.765352,12.98418,-11.533948,-6.700609,-7.263408,-7.913917,-16.547918,12.555766,-7.562165,4.7762637,-1.2773948,-4.245209,8.107983,-29.73983,34.953102,-17.524729,-18.381254,-42.39656,-7.1040134,41.5084,-48.40788,-29.167185,43.51985,-21.666473,9.715477,1.6595879,-31.197102
233,0.15625585615634918,1.9459820985794067,78.27970123291016,0.408186217014522,3.183402586253805,-95.8936152642666,-1.6470505,10.291689,30.739815,12.980384,-11.520672,-6.696836,-7.263215,-7.924209,-16.572317,12.544674,-7.5515747,4.7805514,-1.3172114,-4.2534075,8.092746,-30.532894,34.546913,-18.819548,-18.442501,-42.873787,-7.4216185,41.8265,-49.087677,-28.395374,44.926517,-21.135105,9.108026,1.9259945,-32.230007
234,0.15749412775039673,1.9635623693466187,78.27991485595703,0.4125006011240522,3.184846072182543,-95.86804007457755,-1.6690565,10.280813,30.710234,12.972388,-11.503834,-6.701058,-7.2634807,-7.93375,-16.6026,12.528021,-7.538301,4.7825036,-1.3688972,-4.2631836,8.074786,-31.417568,34.15455,-20.215025,-18.43078,-43.405247,-7.729698,42.17315,-49.795444,-27.624296,46.39123,-20.56078,8.233637,2.3590732,-33.20374
235,0.1576688438653946,1.9810702800750732,78.28072357177734,0.41570020488408765,3.1899568583833986,-95.84049542211429,-1.6958728,10.271296,30.678019,12.96509,-11.485704,-6.706668,-7.2657824,-7.9421263,-16.63501,12.509057,-7.522446,4.782118,-1.4261109,-4.270079,8.04925,-32.330574,33.771473,-21.686804,-18.400463,-43.959732,-8.022583,42.464832,-50.5083,-26.854076,47.88892,-19.925909,7.204567,2.824557,-34.01462
236,0.15691815316677094,1.9973376989364624,78.2833023071289,0.4170485342288577,3.1988410295989818,-95.81103836464435,-1.7291516,10.264618,30.644844,12.962015,-11.466865,-6.7070475,-7.27337,-7.9492283,-16.665747,12.493238,-7.504613,4.77941,-1.486187,-4.2689047,8.015132,-33.206593,33.39395,-23.20745,-18.408854,-44.50014,-8.29211,42.617767,-51.212273,-26.086945,49.395073,-19.213001,6.133205,3.179364,-34.566235
237,0.15629072487354279,2.010627269744873,78.28811645507812,0.4155819343881766,3.2132357616451617,-95.77819901592675,-1.7731762,10.2630415,30.608368,12.967736,-11.447047,-6.7002387,-7.2866616,-7.9531536,-16.694794,12.477996,-7.4815927,4.7717633,-1.5429744,-4.25872,7.9732842,-34.06266,33.01972,-24.783272,-18.45174,-45.03639,-8.467272,42.575222,-51.928894,-25.321344,50.893143,-18.394701,5.013808,3.4009528,-34.77394
238,0.1590987592935562,2.0199708938598633,78.29348754882812,0.4120760059753998,3.2325374879332407,-95.74248401097417,-1.825058,10.264537,30.569056,12.977003,-11.424883,-6.689826,-7.304694,-7.955131,-16.723688,12.4630995,-7.454609,4.7601695,-1.5982226,-4.2403216,7.923995,-34.905746,32.647453,-26.422924,-18.518574,-45.577198,-8.572069,42.39403,-52.650993,-24.556711,52.398876,-17.492163,3.791092,3.5489779,-34.71084
239,0.15922875702381134,2.0311479568481445,78.29856872558594,0.4080174335898509,3.253351083533358,-95.70666723990139,-1.8776958,10.265904,30.5312,12.985047,-11.40329,-6.6774874,-7.324171,-7.9568787,-16.751839,12.448084,-7.4271064,4.7495475,-1.6571388,-4.2127295,7.8729453,-35.72554,32.275974,-28.118526,-18.601143,-46.101925,-8.740336,42.15989,-53.367878,-23.795162,53.936672,-16.531385,2.5268104,3.6022718,-34.527233
