Frame,root_translateX,root_translateY,root_translateZ,root_rotateX,root_rotateY,root_rotateZ,left_hip_pitch_joint_dof,left_hip_roll_joint_dof,left_hip_yaw_joint_dof,left_knee_joint_dof,left_ankle_pitch_joint_dof,left_ankle_roll_joint_dof,right_hip_pitch_joint_dof,right_hip_roll_joint_dof,right_hip_yaw_joint_dof,right_knee_joint_dof,right_ankle_pitch_joint_dof,right_ankle_roll_joint_dof,waist_yaw_joint_dof,waist_roll_joint_dof,waist_pitch_joint_dof,left_shoulder_pitch_joint_dof,left_shoulder_roll_joint_dof,left_shoulder_yaw_joint_dof,left_elbow_joint_dof,left_wrist_roll_joint_dof,left_wrist_pitch_joint_dof,left_wrist_yaw_joint_dof,right_shoulder_pitch_joint_dof,right_shoulder_roll_joint_dof,right_shoulder_yaw_joint_dof,right_elbow_joint_dof,right_wrist_roll_joint_dof,right_wrist_pitch_joint_dof,right_wrist_yaw_joint_dof
0,0.06850162893533707,2.0597753524780273,77.6089096069336,1.1366276051678046,1.2308107702189957,-96.5712646561348,2.2399757,1.0813102,4.7440243,6.899581,-9.519062,-4.138477,-0.3323082,-7.24303,-10.097124,6.8369584,-7.9935927,7.803344,-0.8571758,-0.75941294,4.8285503,1.4689261,15.527388,-34.407894,55.642868,7.7745676,0.4579794,-5.141964,-8.512361,-10.9490595,33.578888,59.602604,-9.773076,11.420671,3.5913038
1,0.0884849950671196,2.0552027225494385,77.61034393310547,1.1445346879094571,1.232182766196617,-96.57656580971953,2.2380455,1.0541619,4.750891,6.900956,-9.526053,-4.11228,-0.33829767,-7.2691727,-10.087134,6.836295,-7.9884524,7.831684,-0.86428404,-0.76575565,4.7917304,1.4478015,15.543666,-34.46887,55.67916,7.664489,0.41320857,-5.1827946,-8.515591,-10.943387,33.57149,59.63868,-9.770386,11.416569,3.6133602
2,0.10979612171649933,2.0543951988220215,77.60916137695312,1.1527884383221434,1.2342572722610918,-96.58147474995953,2.2355502,1.0265636,4.7572675,6.9019995,-9.533146,-4.0850296,-0.34550142,-7.295634,-10.077386,6.8361607,-7.983548,7.8610425,-0.8642683,-0.7712143,4.7512503,1.4179939,15.557534,-34.543354,55.726044,7.5436573,0.3659305,-5.224746,-8.512831,-10.938725,33.550583,59.673264,-9.771904,11.411971,3.6452675
3,0.1279830038547516,2.058621644973755,77.6085205078125,1.1599940007408398,1.2348992221915345,-96.5873702214778,2.2347333,0.9999639,4.764707,6.902604,-9.539563,-4.059872,-0.35096946,-7.32139,-10.067082,6.8358164,-7.978394,7.888293,-0.8609477,-0.776923,4.716371,1.3866061,15.568126,-34.61386,55.77163,7.439515,0.32478034,-5.261293,-8.510247,-10.9357,33.536026,59.704216,-9.770265,11.408237,3.658347
4,0.14895638823509216,2.0613558292388916,77.60651397705078,1.1646459311503965,1.2320659969248373,-96.59552164757872,2.238162,0.9759681,4.774402,6.9031973,-9.545578,-4.039874,-0.35260245,-7.344858,-10.055867,6.8358555,-7.9731526,7.910209,-0.84275085,-0.78536355,4.6948895,1.3558159,15.579433,-34.68783,55.803112,7.369502,0.29941335,-5.2832437,-8.501856,-10.93291,33.531013,59.721592,-9.759976,11.407109,3.623548
5,0.1756308525800705,2.0611250400543213,77.60269165039062,1.1638962494940979,1.2238427521031843,-96.60637291354334,2.247845,0.95819974,4.787032,6.903688,-9.551835,-4.029754,-0.34815925,-7.3633723,-10.044959,6.836061,-7.967369,7.922265,-0.82446086,-0.79330385,4.695525,1.3356035,15.5867815,-34.735268,55.80944,7.3653126,0.294919,-5.291128,-8.499461,-10.931686,33.563385,59.72511,-9.732462,11.415968,3.5115337
6,0.19678105413913727,2.0609872341156006,77.60315704345703,1.1593916991240671,1.2118524385002836,-96.61931988739813,2.2621722,0.94476396,4.801962,6.903396,-9.557576,-4.026609,-0.3389473,-7.3781815,-10.034119,6.8354697,-7.9608455,7.9273186,-0.8046216,-0.80100834,4.7105575,1.3232597,15.592037,-34.768642,55.797478,7.404051,0.3056335,-5.287763,-8.4997015,-10.931253,33.626137,59.71805,-9.687669,11.431685,3.3435755
7,0.22036616504192352,2.0604639053344727,77.60504150390625,1.1561463486637844,1.1990522621710678,-96.6330499404734,2.2772183,0.92886734,4.817537,6.9036922,-9.562117,-4.021931,-0.3293895,-7.3952074,-10.021065,6.8364916,-7.9553504,7.9335256,-0.7909486,-0.80987453,4.729566,1.3213319,15.595388,-34.78798,55.77517,7.4557095,0.32216153,-5.27535,-8.50331,-10.931312,33.701214,59.71122,-9.640162,11.440853,3.1702595
8,0.24479544162750244,2.059105396270752,77.60540008544922,1.15941864123542,1.1879498496771776,-96.64675748173696,2.291335,0.9035123,4.832777,6.9029517,-9.563237,-4.0071993,-0.32194662,-7.420298,-10.0031185,6.836635,-7.9494467,7.949088,-0.7794247,-0.82424164,4.7455387,1.3182923,15.596762,-34.80172,55.76087,7.4915524,0.3337485,-5.2582107,-8.503707,-10.931447,33.75124,59.707687,-9.614724,11.429275,3.0460496
9,0.2677081823348999,2.0679328441619873,77.60719299316406,1.17077444067242,1.1771497727695004,-96.6611492640106,2.3058302,0.86662906,4.8470945,6.9018173,-9.55816,-3.977668,-0.31667247,-7.455524,-9.978305,6.8382273,-7.947929,7.9635024,-0.7731821,-0.8446933,4.754434,1.3196257,15.597769,-34.817078,55.755184,7.493724,0.34043154,-5.227234,-8.500251,-10.931539,33.791016,59.715084,-9.603932,11.382619,2.968242
10,0.29361069202423096,2.066084623336792,77.60814666748047,1.1873615026995294,1.1657724023911353,-96.67623959303947,2.3216758,0.821812,4.861162,6.8996673,-9.548033,-3.9387112,-0.31091794,-7.4972463,-9.948848,6.8392005,-7.948809,7.976544,-0.76271015,-0.8713574,4.7658205,1.3185302,15.598049,-34.8305,55.753925,7.486062,0.3464848,-5.186124,-8.494143,-10.931679,33.807014,59.72673,-9.61312,11.310696,2.9182189
11,0.3239608407020569,2.05751371383667,77.60482788085938,1.2077993202989554,1.158169769332938,-96.69026245467784,2.3334184,0.7711993,4.8755875,6.897732,-9.539379,-3.8969347,-0.3094104,-7.5442767,-9.917135,6.840578,-7.9450874,8.012175,-0.7544811,-0.90081483,4.7700305,1.3213204,15.59796,-34.845715,55.752605,7.47184,0.3509023,-5.145001,-8.484201,-10.931739,33.812202,59.735344,-9.627329,11.2410965,2.9060187
12,0.3578633666038513,2.045989513397217,77.60130310058594,1.2302824531857754,1.1585951347283683,-96.70101362346543,2.3364751,0.7171101,4.8909593,6.896011,-9.537897,-3.8590827,-0.31320357,-7.59405,-9.886344,6.8372736,-7.927029,8.094031,-0.75584817,-0.9313146,4.7646775,1.3288894,15.597509,-34.848194,55.747707,7.4662905,0.3515151,-5.119741,-8.479507,-10.931772,33.80444,59.739037,-9.642675,11.199976,2.9464784
13,0.3940088748931885,2.04288911819458,77.58929443359375,1.2588090158106795,1.1711985999739272,-96.70720223367051,2.324757,0.65691143,4.9138427,6.8964343,-9.54506,-3.821296,-0.32743227,-7.650258,-9.854975,6.8307867,-7.8869324,8.25417,-0.76013774,-0.9667522,4.745249,1.3413173,15.595632,-34.841137,55.7408,7.471511,0.34137413,-5.1075654,-8.475543,-10.931875,33.745968,59.73,-9.678295,11.196079,3.084762
14,0.4263819754123688,2.039599657058716,77.58447265625,1.2923626624570328,1.1929015230655982,-96.70990120888301,2.3031135,0.5907198,4.9414873,6.8976145,-9.557999,-3.7818923,-0.3487014,-7.712222,-9.822629,6.8207564,-7.8308744,8.471234,-0.77873486,-1.0053415,4.7140446,1.3636937,15.593327,-34.8185,55.72989,7.478272,0.3231974,-5.103254,-8.478641,-10.931982,33.671986,59.716763,-9.715994,11.216085,3.2949884
15,0.4577609598636627,2.0307278633117676,77.57867431640625,1.3238697070567518,1.2157545283054807,-96.71187942821524,2.280366,0.5233469,4.9618096,6.898398,-9.575771,-3.7506347,-0.37090033,-7.773516,-9.791503,6.81003,-7.77412,8.689484,-0.788592,-1.0431138,4.6863465,1.3753648,15.589253,-34.793835,55.719822,7.5036454,0.3111074,-5.1184683,-8.477486,-10.932475,33.57863,59.697105,-9.7678795,11.246012,3.5095785
16,0.4959028363227844,2.019779682159424,77.57295989990234,1.3463173990505417,1.2327125745529017,-96.7150487514575,2.2647893,0.4593643,4.961965,6.8989663,-9.599014,-3.737113,-0.38838482,-7.82851,-9.764764,6.803054,-7.733906,8.853205,-0.7940862,-1.0713373,4.6656356,1.3834262,15.58549,-34.772682,55.70008,7.5501375,0.32032952,-5.1592426,-8.4735775,-10.933307,33.52309,59.684525,-9.806936,11.274653,3.6485267
17,0.5404981374740601,2.009159803390503,77.56948852539062,1.3548969633821768,1.2392046203544118,-96.72140292100102,2.2631943,0.4007772,4.930186,6.8981943,-9.632546,-3.7545984,-0.39669728,-7.8723717,-9.743852,6.799602,-7.7149944,8.939222,-0.7796471,-1.0881317,4.6621876,1.37241,15.581095,-34.75503,55.66849,7.654143,0.3708211,-5.260004,-8.459642,-10.93471,33.494465,59.67317,-9.847141,11.30329,3.6838226
18,0.5834404230117798,2.0066888332366943,77.56675720214844,1.354545834642126,1.2398679044424725,-96.72933922350988,2.268508,0.34487927,4.876182,6.8977523,-9.674769,-3.794358,-0.3998358,-7.909478,-9.726894,6.7979336,-7.70854,8.980011,-0.75319207,-1.0970049,4.6699452,1.3476442,15.574094,-34.734665,55.62959,7.8029766,0.44872445,-5.4065347,-8.439059,-10.937428,33.480476,59.6601,-9.891564,11.336759,3.659666
19,0.625154972076416,2.0050580501556396,77.56237030029297,1.351750361217043,1.2411417761926729,-96.73575459892155,2.2727714,0.28919992,4.8191876,6.897689,-9.716329,-3.8330615,-0.40384746,-7.946983,-9.712546,6.797601,-7.7078886,9.003626,-0.7319403,-1.1003354,4.678558,1.3225329,15.56236,-34.712616,55.59648,7.9369817,0.51782256,-5.5362325,-8.420601,-10.942491,33.48014,59.65123,-9.929352,11.367977,3.6128993
20,0.6693319082260132,2.003955841064453,77.5562744140625,1.3535858963891045,1.2494371984415356,-96.73789340622442,2.2669945,0.23121022,4.778739,6.8976703,-9.745983,-3.8474202,-0.41495836,-7.992126,-9.698907,6.7971125,-7.7057467,9.038082,-0.7241172,-1.1034882,4.677139,1.313468,15.549853,-34.702984,55.57364,7.9893136,0.5446935,-5.5849376,-8.410504,-10.948225,33.483345,59.653755,-9.950762,11.388489,3.5797987
21,0.7153586149215698,1.9946836233139038,77.5556411743164,1.3612868284739945,1.268795979372762,-96.73118609573805,2.2457352,0.17107773,4.7586646,6.8984513,-9.760588,-3.8329422,-0.43551284,-8.046975,-9.688906,6.7957673,-7.7025027,9.087839,-0.74083155,-1.1088842,4.6620374,1.3300567,15.543072,-34.707294,55.56398,7.921366,0.50296855,-5.510986,-8.411796,-10.951309,33.48228,59.668045,-9.961742,11.399916,3.5797613
22,0.7638272643089294,1.986020803451538,77.55422973632812,1.37125261140265,1.2952626754435723,-96.71837727199728,2.2143934,0.11001895,4.7491674,6.8997674,-9.765746,-3.801412,-0.46319762,-8.107451,-9.681922,6.795601,-7.701417,9.139038,-0.7594717,-1.1055163,4.632496,1.3377641,15.512237,-34.74321,55.60009,7.769986,0.4158934,-5.3498693,-8.408737,-10.965335,33.473682,59.68664,-9.962658,11.405516,3.5906818
23,0.818891167640686,1.976449728012085,77.55165100097656,1.3831670212988967,1.3221537896039923,-96.70779227849697,2.1813996,0.046763316,4.7487254,6.9020457,-9.766268,-3.7542713,-0.4920144,-8.172007,-9.672623,6.7945046,-7.6989417,9.191902,-0.7764279,-1.1033566,4.606349,1.3479766,15.482635,-34.77772,55.632477,7.603308,0.3239862,-5.1761293,-8.4094515,-10.979957,33.468864,59.70966,-9.951911,11.399179,3.5882657
24,0.8797277808189392,1.9701523780822754,77.54531860351562,1.3958164725042312,1.3430846734454696,-96.70754557236178,2.1557498,-0.019827511,4.756012,6.9050493,-9.767546,-3.6927385,-0.5183383,-8.238333,-9.654835,6.793881,-7.692806,9.2466135,-0.7767518,-1.1027795,4.5934973,1.348713,15.45216,-34.79863,55.649464,7.483903,0.26761958,-5.0567875,-8.408859,-10.997371,33.47276,59.731915,-9.926731,11.375353,3.548511
25,0.9440112709999084,1.9640839099884033,77.5425796508789,1.4096832381292623,1.3561062982260343,-96.72583244356527,2.1402361,-0.08986444,4.7737985,6.9090285,-9.771462,-3.614728,-0.54290456,-8.305574,-9.622315,6.7936225,-7.6809425,9.302921,-0.7506634,-1.1077992,4.600724,1.3404751,15.428787,-34.80176,55.63658,7.431452,0.26296237,-5.0075974,-8.410179,-11.013297,33.49398,59.754677,-9.873103,11.320681,3.447117
26,1.0073683261871338,1.9687130451202393,77.53692626953125,1.424999184935861,1.3647835993120572,-96.75647984370285,2.1301978,-0.16275905,4.801725,6.913715,-9.775363,-3.5202196,-0.5672553,-8.375057,-9.579822,6.793254,-7.6649055,9.361007,-0.71003234,-1.1080922,4.61917,1.3148565,15.386761,-34.791546,55.62846,7.4150085,0.2850502,-4.990911,-8.405022,-11.046423,33.534637,59.766617,-9.793125,11.243369,3.3041694
27,1.0666425228118896,1.9668810367584229,77.5357666015625,1.4407557258876595,1.3708868501249352,-96.78541961931732,2.122214,-0.23840539,4.8335514,6.9189196,-9.776466,-3.414043,-0.58789957,-8.448072,-9.538146,6.792495,-7.6483197,9.42129,-0.6677605,-1.1074337,4.6430674,1.2892177,15.345529,-34.773098,55.609974,7.4114876,0.318242,-5.0011735,-8.398595,-11.082652,33.57277,59.777607,-9.715318,11.16632,3.1593447
28,1.1346546411514282,1.9568334817886353,77.53240203857422,1.4560667280438921,1.3762395396337,-96.79887345440777,2.1124876,-0.3163957,4.863012,6.9248977,-9.771866,-3.3009982,-0.60238767,-8.526596,-9.50778,6.792845,-7.6350675,9.484481,-0.64114314,-1.1022882,4.6641574,1.2696519,15.301843,-34.746128,55.58952,7.4024835,0.34471655,-5.030578,-8.390405,-11.123473,33.596264,59.78947,-9.663303,11.114148,3.052678
29,1.2141708135604858,1.9408529996871948,77.52992248535156,1.473048870420073,1.3810463795669166,-96.79003928140745,2.0988138,-0.3974902,4.898055,6.9313836,-9.753016,-3.1664054,-0.60834694,-8.614248,-9.492782,6.793446,-7.626471,9.550544,-0.63791955,-1.0939221,4.6806264,1.2616822,15.257733,-34.697933,55.562645,7.37532,0.36150512,-5.095967,-8.383292,-11.166391,33.601463,59.807346,-9.647333,11.099904,2.9914029
30,1.2946686744689941,1.9285595417022705,77.52376556396484,1.4913147065554593,1.3844540580516054,-96.76733400604296,2.082939,-0.48130047,4.9387126,6.939389,-9.724414,-3.0129807,-0.6085038,-8.709205,-9.487056,6.7945385,-7.6200686,9.619238,-0.6484981,-1.0815059,4.696425,1.2573748,15.208865,-34.63249,55.53272,7.342845,0.37702358,-5.1946497,-8.374566,-11.215267,33.596676,59.82594,-9.652312,11.108924,2.955484
31,1.3710880279541016,1.9239461421966553,77.51770782470703,1.506661360051835,1.3866208180806692,-96.73968236248217,2.0692585,-0.5669877,4.9672585,6.9474635,-9.701832,-2.8715513,-0.60476846,-8.804299,-9.4867,6.795028,-7.6135807,9.690485,-0.6614558,-1.0651047,4.712156,1.2521278,15.15707,-34.57608,55.50461,7.3240676,0.39227945,-5.2911205,-8.362814,-11.267207,33.581364,59.842842,-9.667933,11.12244,2.9428682
32,1.450425624847412,1.9124643802642822,77.51264953613281,1.5147612331321176,1.387730133274779,-96.71627774440483,2.0629833,-0.65376586,4.9658127,6.952169,-9.699606,-2.7731447,-0.5998239,-8.892543,-9.487519,6.7950125,-7.605311,9.764394,-0.6645793,-1.0442208,4.7284784,1.2394831,15.102126,-34.55546,55.48585,7.3388696,0.40803617,-5.349655,-8.3475485,-11.321034,33.55745,59.8553,-9.679894,11.121645,2.951515
33,1.5381735563278198,1.8976271152496338,77.50240325927734,1.5094194243083163,1.3892784742921358,-96.6998718426777,2.063038,-0.739711,4.910464,6.9571466,-9.733066,-2.7533324,-0.5955254,-8.96533,-9.489879,6.793397,-7.593115,9.84204,-0.64881605,-1.015635,4.743506,1.2103847,15.043054,-34.592884,55.48555,7.4089937,0.42579314,-5.3489823,-8.3254175,-11.376102,33.517315,59.86088,-9.688789,11.094018,2.9977145
34,1.624946117401123,1.883443832397461,77.49285888671875,1.4940544111667875,1.3906795853043643,-96.68541646159899,2.069121,-0.8255188,4.817047,6.959463,-9.788866,-2.7865903,-0.590662,-9.028308,-9.495286,6.7912703,-7.5786495,9.922995,-0.62079424,-0.98029685,4.7574115,1.1688606,14.97899,-34.671513,55.499653,7.51804,0.44471946,-5.3117266,-8.296907,-11.432346,33.4603,59.861282,-9.701325,11.0522785,3.0770273
35,1.7108073234558105,1.8697268962860107,77.48284912109375,1.4812534010884497,1.3889298251239393,-96.67053029108467,2.079656,-0.9155408,4.7279043,6.9618464,-9.8466015,-2.8120093,-0.5798082,-9.096942,-9.502321,6.7879124,-7.5649633,10.005246,-0.5940556,-0.94555426,4.7732463,1.1292539,14.9109955,-34.75635,55.514782,7.6280546,0.4620547,-5.268341,-8.269064,-11.490264,33.400703,59.86414,-9.713531,11.01445,3.1557572
36,1.8020309209823608,1.851151466369629,77.478271484375,1.4831924245796146,1.3810917107172498,-96.65247380721365,2.0944984,-1.0139343,4.6849675,6.9632816,-9.883347,-2.7688277,-0.5601086,-9.186444,-9.509258,6.786713,-7.556498,10.086676,-0.58334506,-0.9183301,4.794497,1.108636,14.841485,-34.810215,55.51457,7.702442,0.4748972,-5.249803,-8.248147,-11.549915,33.35324,59.875538,-9.722028,10.999415,3.2002923
37,1.9009345769882202,1.8276655673980713,77.47355651855469,1.5071727940049704,1.3627424545722355,-96.63098701442235,2.1157675,-1.1229147,4.7168436,6.964831,-9.8888235,-2.6250136,-0.5274818,-9.306934,-9.51496,6.7890477,-7.555553,10.165922,-0.59958553,-0.90257126,4.8277073,1.1173501,14.772745,-34.81368,55.48615,7.7354636,0.48425707,-5.2724614,-8.241831,-11.611705,33.32958,59.900032,-9.720849,11.0189295,3.1934564
38,2.0042967796325684,1.802146077156067,77.4698715209961,1.5455885093202573,1.3366100757369055,-96.60748048839018,2.1431785,-1.2402779,4.795482,6.9654994,-9.875993,-2.4182642,-0.48378453,-9.448285,-9.520839,6.7923193,-7.559401,10.244315,-0.6351836,-0.894197,4.870021,1.1484284,14.705775,-34.786198,55.4357,7.7460904,0.49112692,-5.317834,-8.245535,-11.6746,33.32274,59.932297,-9.71185,11.060812,3.1557796
39,2.096602439880371,1.7839994430541992,77.4633560180664,1.587566063287876,1.3105270924052834,-96.58128353898556,2.171566,-1.3624235,4.8775706,6.966183,-9.860965,-2.1922786,-0.43840563,-9.596012,-9.528054,6.795936,-7.5640736,10.3241825,-0.67650825,-0.8889041,4.9095535,1.190192,14.641601,-34.751343,55.37881,7.732863,0.4925026,-5.3638225,-8.249626,-11.737448,33.317158,59.96843,-9.706647,11.107673,3.1103644
40,2.189972162246704,1.760899305343628,77.45831298828125,1.622304481350268,1.2923147944164284,-96.55187281236101,2.195475,-1.4859174,4.9196897,6.966639,-9.858112,-1.9908078,-0.39917985,-9.735368,-9.538111,6.798538,-7.5662766,10.407593,-0.70908,-0.8821046,4.9347734,1.2310266,14.580993,-34.733246,55.33042,7.6944175,0.48527744,-5.388599,-8.241827,-11.79807,33.29516,60.001644,-9.717876,11.142034,3.0804217
41,2.290024757385254,1.7302311658859253,77.45084381103516,1.645889311221102,1.286194718392405,-96.5195158347842,2.211044,-1.610766,4.902065,6.966934,-9.8672285,-1.8250448,-0.37134105,-9.861357,-9.551032,6.8001666,-7.564002,10.49591,-0.7258348,-0.87200195,4.9387703,1.2705384,14.524774,-34.740417,55.29679,7.603806,0.46150962,-5.3728375,-8.220977,-11.855446,33.25547,60.03534,-9.751035,11.157864,3.0787442
42,2.389863967895508,1.694714069366455,77.4447250366211,1.6642518074954888,1.287302613088188,-96.48447316182241,2.221996,-1.7383994,4.8505826,6.9673495,-9.882067,-1.6718547,-0.34894863,-9.981967,-9.566476,6.8004193,-7.5591903,10.587693,-0.73440534,-0.8617231,4.928834,1.3139526,14.473153,-34.760647,55.26875,7.470394,0.42537457,-5.3327303,-8.191449,-11.909508,33.202667,60.07132,-9.801814,11.164922,3.090652
43,2.4939873218536377,1.660202980041504,77.43896484375,1.681602868069631,1.2897763699125557,-96.44574051565051,2.2340348,-1.8674867,4.7900085,6.9684663,-9.907734,-1.5235599,-0.3255776,-10.102304,-9.584208,6.801195,-7.555484,10.680985,-0.7422064,-0.85416025,4.914545,1.3566337,14.425934,-34.78809,55.24082,7.345531,0.3916287,-5.299223,-8.156558,-11.960002,33.136723,60.10609,-9.857308,11.168904,3.0981944
44,2.5963940620422363,1.628666877746582,77.42909240722656,1.7015484157989553,1.2877536845809145,-96.4025892771522,2.2535162,-1.9964554,4.745079,6.969965,-9.948935,-1.3724905,-0.2935188,-10.2271185,-9.604412,6.8018975,-7.5555215,10.773664,-0.75721264,-0.85243183,4.90536,1.3953916,14.38392,-34.81606,55.205624,7.280727,0.37549236,-5.303124,-8.117635,-12.004399,33.053856,60.135162,-9.909707,11.176172,3.0833097
45,2.6960558891296387,1.5947319269180298,77.419189453125,1.7244496758000518,1.2727792077961522,-96.35429276483357,2.290784,-2.1219952,4.734199,6.9727907,-10.0120535,-1.2059481,-0.24311699,-10.3580065,-9.627372,6.8044467,-7.5627556,10.868278,-0.7883972,-0.861024,4.907731,1.4368598,14.356026,-34.83468,55.146744,7.3131285,0.39273158,-5.3754096,-8.085793,-12.032502,32.965862,60.172543,-9.945459,11.189447,3.0291088
46,2.8027560710906982,1.5600429773330688,77.40714263916016,1.7484046343735444,1.250220938514771,-96.30137777728562,2.340007,-2.2456408,4.7399936,6.9762354,-10.092693,-1.0316284,-0.18051367,-10.492454,-9.653206,6.806712,-7.573577,10.964901,-0.8152527,-0.8707335,4.9158983,1.4602292,14.321813,-34.86584,55.094707,7.406352,0.43054923,-5.489682,-8.037613,-12.065486,32.851936,60.194626,-9.978456,11.205748,2.9525392
47,2.9125964641571045,1.5155121088027954,77.395263671875,1.773633471086921,1.2350048638436795,-96.2451247572732,2.3817034,-2.3735132,4.733641,6.9789867,-10.1801,-0.87270755,-0.12393035,-10.628659,-9.6815405,6.8085246,-7.5842876,11.0574665,-0.8419736,-0.8815572,4.9181924,1.4755139,14.282691,-34.905552,55.055737,7.505533,0.4630568,-5.5967784,-7.9809465,-12.101809,32.71745,60.204998,-10.020691,11.220279,2.8764846
48,3.0121943950653076,1.4747668504714966,77.38599395751953,1.7998893959868336,1.2421230821705431,-96.18682499261219,2.3968089,-2.5107799,4.686914,6.9804616,-10.264237,-0.75179005,-0.092681706,-10.764351,-9.712093,6.810585,-7.591089,11.1396885,-0.8782309,-0.8973995,4.9035645,1.5030777,14.252592,-34.943584,55.02225,7.5552816,0.46570015,-5.6491113,-7.9308686,-12.128491,32.57029,60.21609,-10.086237,11.228029,2.8225703
49,3.1148078441619873,1.4424349069595337,77.37254333496094,1.8259918516897033,1.286392532766526,-96.12386215652717,2.367415,-2.6624587,4.57398,6.9794,-10.345131,-0.6882599,-0.10270838,-10.900353,-9.74772,6.8101707,-7.591643,11.224297,-0.93301,-0.9174143,4.8574195,1.5565206,14.236579,-34.981808,54.989964,7.525157,0.4186353,-5.6099524,-7.8950334,-12.142101,32.417713,60.236458,-10.192386,11.225991,2.8038929
50,3.218498706817627,1.405322790145874,77.3565902709961,1.8543871136765409,1.35630879678612,-96.05659725025495,2.3085644,-2.8260849,4.416782,6.97628,-10.427485,-0.66525877,-0.15034375,-11.0408945,-9.785436,6.8291764,-7.59981,11.310124,-0.9713665,-0.9423296,4.790745,1.5991849,14.222859,-35.057224,54.98068,7.442236,0.33982044,-5.510327,-7.845043,-12.154342,32.216137,60.243084,-10.339041,11.216437,2.809605
51,3.311018705368042,1.360856294631958,77.33831024169922,1.888491751588808,1.4271918080875352,-95.99091740347176,2.2476594,-2.995485,4.2575073,6.973276,-10.505504,-0.6523003,-0.21076412,-11.18621,-9.818634,6.8732505,-7.618804,11.368911,-1.0273167,-0.9771887,4.727009,1.6571184,14.219824,-35.103504,54.961815,7.362096,0.2605605,-5.4128785,-7.806719,-12.1561575,32.01963,60.251534,-10.476543,11.205205,2.8148847
52,3.41261625289917,1.326962947845459,77.31929779052734,1.9298613408606795,1.4744573308595674,-95.9325829834576,2.213488,-3.162761,4.137695,6.971217,-10.573603,-0.6189746,-0.33292115,-11.347541,-9.826496,7.1033545,-7.734309,11.371137,-1.0691727,-1.0266346,4.691944,1.6995949,14.223144,-35.133495,54.94474,7.3227267,0.21346493,-5.373724,-7.762748,-12.15047,31.794275,60.246174,-10.581682,11.196026,2.8021717
53,3.5140581130981445,1.2888625860214233,77.29589080810547,1.9748819076130182,1.4913895345624333,-95.87912808092108,2.212664,-3.3211524,4.0673413,6.96935,-10.626531,-0.560304,-0.67219007,-11.554901,-9.776459,7.866694,-8.151727,11.281358,-1.1074973,-1.0859067,4.6925535,1.7291812,14.229134,-35.12222,54.920956,7.360452,0.21678421,-5.4304953,-7.7169523,-12.138129,31.551025,60.227036,-10.636987,11.195133,2.7603698
54,3.59987473487854,1.249050259590149,77.28033447265625,2.0255256794738523,1.4914344046031878,-95.82910158675924,2.2294517,-3.4783254,4.025024,6.9678707,-10.668665,-0.49109495,-1.0650408,-11.784608,-9.702814,8.781339,-8.666623,11.1218405,-1.1288962,-1.159665,4.7155094,1.7387758,14.240403,-35.099697,54.902863,7.440619,0.2504618,-5.5441427,-7.667703,-12.113555,31.267443,60.20007,-10.670429,11.19743,2.7030807
55,3.6957192420959473,1.2083185911178589,77.2639389038086,2.0926131964555013,1.480913933649747,-95.79005857718415,2.2599409,-3.6479723,4.005537,6.9659634,-10.707378,-0.41106457,-1.5366411,-12.044865,-9.592997,9.872217,-9.246657,10.946366,-1.1447172,-1.2570937,4.751199,1.747755,14.26081,-35.06859,54.889763,7.5151644,0.28783104,-5.6606684,-7.6222515,-12.073846,30.972252,60.17076,-10.688492,11.194091,2.6417406
56,3.785047769546509,1.173567533493042,77.23828887939453,2.1865020607319745,1.4659294432872716,-95.76930468136503,2.2998033,-3.8429759,4.003277,6.9636436,-10.750134,-0.3200182,-2.106138,-12.340146,-9.437381,11.156568,-9.855522,10.808718,-1.1578535,-1.3848071,4.793204,1.7661656,14.291038,-35.03923,54.885956,7.535616,0.30252758,-5.7261567,-7.580472,-12.028053,30.68339,60.132847,-10.700132,11.176118,2.5909863
57,3.8543920516967773,1.1430861949920654,77.20571899414062,2.3237706159163016,1.4516431948258763,-95.77440853910463,2.344857,-4.0816126,4.0251374,6.96065,-10.797069,-0.20714335,-2.7971961,-12.686488,-9.219903,12.667535,-10.505781,10.752304,-1.1486409,-1.5666755,4.836297,1.7987773,14.348973,-35.037655,54.88627,7.4737473,0.28014395,-5.7138786,-7.5382576,-11.961367,30.374918,60.090122,-10.722541,11.133041,2.5593295
58,3.9257805347442627,1.108789086341858,77.16324615478516,2.494016338224192,1.4335459126788648,-95.79925598767278,2.3983765,-4.351715,4.070756,6.956544,-10.844337,-0.07627625,-3.596494,-13.077084,-8.947237,14.393078,-11.21064,10.736563,-1.1311733,-1.7890902,4.886902,1.8478941,14.430148,-35.038975,54.881077,7.363338,0.23691191,-5.658114,-7.499386,-11.88385,30.061403,60.039246,-10.739724,11.072896,2.5378213
59,4.00337028503418,1.069865107536316,77.11795043945312,2.6683288529969333,1.4030775415594254,-95.83061398359128,2.4675405,-4.622166,4.1234264,6.9526715,-10.894798,0.051070314,-4.446779,-13.471635,-8.650965,16.236568,-11.914577,10.691443,-1.1093462,-2.0242674,4.957082,1.8996617,14.532135,-35.04047,54.868725,7.2284837,0.19619739,-5.5941234,-7.46303,-11.795595,29.741165,59.97705,-10.744543,11.010957,2.514508
60,4.072934150695801,1.032017707824707,77.08153533935547,2.819327169155855,1.351867140400824,-95.85517508248746,2.5593219,-4.8638086,4.1670117,6.9503675,-10.951716,0.15379846,-5.302996,-13.832028,-8.360038,18.1285,-12.567438,10.546014,-1.0902834,-2.2446537,5.0574684,1.9402748,14.648554,-35.035107,54.85037,7.0953794,0.18118177,-5.5569825,-7.4318953,-11.69769,29.421015,59.903534,-10.724391,10.962505,2.476947
61,4.1326398849487305,0.9947548508644104,77.0497055053711,2.946492253624737,1.2732595901003665,-95.87441110498739,2.678651,-5.076804,4.203408,6.9478493,-11.014602,0.22080381,-6.16079,-14.157197,-8.067951,20.073866,-13.153799,10.294763,-1.0698203,-2.451005,5.2005653,1.9564843,14.773533,-35.010906,54.825214,6.9579015,0.20726632,-5.567903,-7.408904,-11.591302,29.090706,59.813377,-10.695028,10.935625,2.4400945
62,4.188852787017822,0.9573974609375,77.0157241821289,3.0635619762398583,1.1731465961070904,-95.89366049235139,2.820262,-5.275982,4.2391424,6.9459305,-11.0823965,0.26552686,-7.038427,-14.46428,-7.7642546,22.097296,-13.696613,9.971035,-1.0453945,-2.6550176,5.376459,1.954415,14.905277,-34.975582,54.800594,6.807828,0.25879252,-5.603444,-7.3912344,-11.476699,28.75144,59.708595,-10.65578,10.921022,2.4044888
63,4.252906799316406,0.9152203798294067,76.97989654541016,3.1653150748476424,1.0618603022540767,-95.90557277418289,2.97895,-5.4542403,4.264952,6.944203,-11.154724,0.30349794,-7.909362,-14.744618,-7.475955,24.130804,-14.201405,9.564416,-1.0278375,-2.8475406,5.561318,1.9477772,15.044336,-34.95196,54.792744,6.665849,0.3122624,-5.631549,-7.3732734,-11.3546505,28.424892,59.602077,-10.5734005,10.907571,2.3363495
64,4.314119815826416,0.8706111311912537,76.94629669189453,3.246510400285579,0.9496700789026381,-95.90329562670293,3.14723,-5.604245,4.271995,6.9460335,-11.232525,0.35024476,-8.750369,-14.993378,-7.228989,26.115135,-14.677076,9.065868,-1.0290728,-3.0202687,5.731176,1.9525036,15.192606,-34.96176,54.81537,6.553302,0.34426522,-5.6204486,-7.350507,-11.227287,28.133596,59.50795,-10.414758,10.883805,2.2016687
65,4.3656182289123535,0.8265134692192078,76.91158294677734,3.3033251877547682,0.8328727463685861,-95.88440408028778,3.3340774,-5.719959,4.2573214,6.947807,-11.314548,0.41454622,-9.563575,-15.211191,-7.041117,28.09498,-15.148394,8.404508,-1.054374,-3.1686873,5.8857536,1.9737706,15.353687,-35.025703,54.874207,6.457237,0.34065464,-5.535836,-7.3196087,-11.09515,27.883017,59.422928,-10.113961,10.845778,1.9523699
66,4.414484024047852,0.7660040855407715,76.88021087646484,3.3395955705165097,0.7078575123086277,-95.85291710189186,3.5387383,-5.806821,4.226034,6.9526815,-11.402725,0.48665544,-10.353006,-15.400104,-6.89736,30.074654,-15.600911,7.6109023,-1.0969374,-3.299446,6.0362954,2.0048685,15.528392,-35.12747,54.957573,6.3721695,0.31661537,-5.4035606,-7.2831173,-10.959155,27.661242,59.341,-9.707644,10.798097,1.6200814
67,4.426671981811523,0.6582861542701721,76.87312316894531,3.3607256441420263,0.5852637920517115,-95.81076522878078,3.7459085,-5.874622,4.181271,6.957597,-11.49332,0.5542833,-11.104842,-15.551404,-6.7760663,31.947033,-15.982798,6.8291597,-1.1503065,-3.4179459,6.177009,2.0416682,15.713131,-35.233715,55.053467,6.3298726,0.29236555,-5.2827396,-7.2407746,-10.820232,27.464127,59.264477,-9.316569,10.74387,1.290739
68,4.454524517059326,0.5619295239448547,76.86168670654297,3.371473561819493,0.4759014957853816,-95.76040120277857,3.9403625,-5.931822,4.1260376,6.9621735,-11.585874,0.60480434,-11.805846,-15.653071,-6.6582603,33.605446,-16.246843,6.204436,-1.2088842,-3.5284274,6.300826,2.079941,15.901261,-35.30944,55.15357,6.3630166,0.2881667,-5.23197,-7.1963124,-10.681114,27.290546,59.2013,-9.060115,10.688746,1.0494632
69,4.487055778503418,0.4668709337711334,76.8488540649414,3.3665180381956414,0.38023177843621564,-95.70150126184838,4.118532,-5.975086,4.0599284,6.967105,-11.679646,0.63137794,-12.450277,-15.705167,-6.561752,35.046185,-16.380365,5.78308,-1.273448,-3.6261203,6.408338,2.110528,16.08725,-35.3456,55.26331,6.5128407,0.31520343,-5.290448,-7.1501565,-10.542623,27.15178,59.15579,-9.03081,10.639545,0.9562596
70,4.524620056152344,0.37256482243537903,76.8372802734375,3.3462295488899,0.29345747765426444,-95.63332407499631,4.2893643,-6.0003457,3.981878,6.971254,-11.775052,0.6416994,-13.051012,-15.712453,-6.4924016,36.330257,-16.413448,5.489328,-1.3471475,-3.7082055,6.501159,2.135332,16.269346,-35.35913,55.391647,6.7528152,0.36002845,-5.418486,-7.1016088,-10.405264,27.046816,59.12541,-9.144078,10.593101,0.9527675
71,4.550978183746338,0.27080896496772766,76.8269271850586,3.3170708373073756,0.21863952460570085,-95.55743814730494,4.4514513,-6.013917,3.894509,6.977227,-11.874517,0.64458877,-13.625966,-15.665213,-6.413674,37.452267,-16.363617,5.285566,-1.4261267,-3.779847,6.5753474,2.1638618,16.446629,-35.357853,55.536076,7.011351,0.40608832,-5.5564666,-7.04762,-10.270277,26.953289,59.099342,-9.252363,10.540469,0.9470331
72,4.575803279876709,0.15797185897827148,76.81705474853516,3.2840523676955846,0.1588094806176898,-95.47531630204153,4.6056657,-6.022516,3.800074,6.9822674,-11.976997,0.64903945,-14.191552,-15.556067,-6.288358,38.403336,-16.246618,5.134429,-1.5065904,-3.8472729,6.626524,2.2060254,16.619074,-35.349113,55.693386,7.2167597,0.43784088,-5.644469,-6.9865975,-10.141241,26.848476,59.069653,-9.209735,10.473268,0.8473912
73,4.610805988311768,0.036204494535923004,76.80268096923828,3.2502411650972887,0.11555637948119299,-95.38578401927776,4.7515593,-6.026787,3.6960747,6.9876833,-12.085178,0.6507752,-14.759384,-15.364955,-6.0838494,39.18409,-16.041618,5.01591,-1.5854588,-3.9100342,6.651155,2.2603166,16.78673,-35.341927,55.87383,7.3670115,0.4495404,-5.6733265,-6.911872,-10.0199175,26.733656,59.03798,-8.946552,10.392021,0.630596
74,4.619753360748291,-0.09338659793138504,76.7983169555664,3.210722529711843,0.08707630368971427,-95.2884680285377,4.889514,-6.023218,3.5823584,6.993635,-12.19858,0.647024,-15.319746,-15.1019125,-5.828162,39.80072,-15.749584,4.9577265,-1.6639197,-3.9647243,6.6528034,2.3215814,16.949203,-35.33187,56.075733,7.4939194,0.45031467,-5.6725454,-6.8231616,-9.906675,26.616196,59.0035,-8.552417,10.299072,0.3462675
75,4.639646053314209,-0.22799423336982727,76.79524230957031,3.1664790445126094,0.0710555999005063,-95.18693209767162,5.019092,-6.01235,3.464961,6.9991927,-12.312759,0.6491153,-15.854996,-14.802064,-5.574871,40.247944,-15.41848,4.9902406,-1.7445868,-4.0125666,6.63861,2.3946407,17.105976,-35.305763,56.277393,7.5771713,0.4473651,-5.6403546,-6.7278996,-9.803449,26.484392,58.952194,-8.117704,10.187736,0.012682072
76,4.660211563110352,-0.3672434687614441,76.78638458251953,3.1175674092640575,0.06547453264581315,-95.08416066669326,5.1394577,-5.994739,3.3497977,7.006015,-12.425351,0.6683479,-16.348825,-14.503863,-5.375485,40.52419,-15.098862,5.139965,-1.8295826,-4.0542755,6.6161695,2.4832072,17.256807,-35.251945,56.45743,7.594874,0.44768494,-5.575054,-6.630105,-9.712298,26.322819,58.865913,-7.7361717,10.052582,-0.35141137
77,4.666808128356934,-0.5229619741439819,76.79019927978516,3.0638904288916415,0.07423620376515142,-94.97272637700831,5.245703,-5.971325,3.2362182,7.012955,-12.532952,0.72458607,-16.784954,-14.218437,-5.246727,40.61073,-14.822259,5.478327,-1.9289734,-4.0890756,6.579213,2.5960977,17.401245,-35.17076,56.616245,7.504932,0.45471042,-5.4396825,-6.5234003,-9.63565,26.122904,58.729004,-7.389231,9.870187,-0.80077136
78,4.677105903625488,-0.6764404773712158,76.78805541992188,3.0068604492212363,0.09693406603759748,-94.85347593535656,5.339877,-5.9421024,3.1215584,7.0200515,-12.638083,0.80629915,-17.17556,-13.928425,-5.1576695,40.514996,-14.558563,5.9653044,-2.0377815,-4.1163025,6.5272017,2.7280283,17.539032,-35.068134,56.763214,7.330809,0.46364918,-5.2473297,-6.405163,-9.57409,25.8939,58.55065,-7.0419154,9.649774,-1.3241494
79,4.682916164398193,-0.8251996636390686,76.78804016113281,2.9449326557109576,0.12473190850716019,-94.74241002010223,5.432686,-5.9061823,3.008611,7.02713,-12.745097,0.8777762,-17.549492,-13.627384,-5.0886335,40.277405,-14.266054,6.4588737,-2.136461,-4.1379704,6.4755177,2.8630064,17.67042,-34.939274,56.8895,7.1498075,0.46986097,-5.0712843,-6.2875767,-9.527326,25.646944,58.35445,-6.764682,9.438007,-1.8058114
80,4.702308177947998,-1.005241870880127,76.76556396484375,2.8794692541018527,0.14877146627197907,-94.6557510886803,5.534032,-5.8626447,2.9003322,7.0336394,-12.857243,0.90336025,-17.934906,-13.31247,-5.019456,39.93732,-13.901311,6.8186936,-2.2057488,-4.1559687,6.4399047,2.9852061,17.795994,-34.77929,56.985725,7.039179,0.46953803,-4.984904,-6.183766,-9.493267,25.393982,58.163757,-6.6248794,9.283567,-2.131302
81,4.711954116821289,-1.1777721643447876,76.7543716430664,2.805392240496251,0.1664244536425494,-94.60310325098894,5.6459746,-5.806732,2.792548,7.0393085,-12.972503,0.8538826,-18.344172,-12.962707,-4.9294653,39.488613,-13.426123,6.970571,-2.232698,-4.168523,6.4241676,3.0893283,17.916006,-34.573036,57.05211,7.043862,0.45266,-5.029422,-6.094428,-9.469804,25.118757,57.97119,-6.6876965,9.213912,-2.2496254
82,4.704675674438477,-1.3454899787902832,76.75262451171875,2.7244352424253773,0.18246468134874055,-94.57416786936196,5.7633147,-5.740557,2.685521,7.0439425,-13.089401,0.75506335,-18.758926,-12.58871,-4.835249,38.91361,-12.870043,7.0012527,-2.2308745,-4.1761036,6.420022,3.1845033,18.030605,-34.327515,57.09265,7.1140175,0.4243021,-5.1585693,-6.0149293,-9.455936,24.82192,57.770298,-6.899742,9.199929,-2.2299058
83,4.69957160949707,-1.5176316499710083,76.73468017578125,2.6474653750343506,0.19908844258630282,-94.55431760496157,5.8856993,-5.674314,2.5891368,7.0492578,-13.214506,0.65319246,-19.158466,-12.230923,-4.7733607,38.229095,-12.287928,7.012061,-2.2216794,-4.1854014,6.423888,3.278091,18.140522,-34.06881,57.10316,7.1868544,0.4043201,-5.3143473,-5.9534726,-9.453379,24.541449,57.591618,-7.1518607,9.205455,-2.1390173
84,4.69333028793335,-1.694643497467041,76.71417236328125,2.5813717090696926,0.21818185133657278,-94.52898188454192,6.0127883,-5.618203,2.5129173,7.054537,-13.351772,0.59454983,-19.522333,-11.927076,-4.779424,37.450855,-11.734918,7.104309,-2.2268608,-4.202239,6.433144,3.37751,18.24668,-33.82293,57.07826,7.1988096,0.41252023,-5.4391646,-5.9155188,-9.464125,24.314634,57.461334,-7.335055,9.195518,-2.0431876
85,4.7011027336120605,-1.8759278059005737,76.6912612915039,2.5319457349015173,0.23907298148154757,-94.49278646670136,6.144685,-5.5777645,2.4646516,7.063247,-13.504895,0.6027426,-19.829079,-11.699633,-4.89073,36.559544,-11.23758,7.3530946,-2.2542672,-4.230908,6.450345,3.4892197,18.349552,-33.5847,57.001247,7.1208262,0.4710184,-5.5146914,-5.9083776,-9.491945,24.156578,57.38739,-7.4091744,9.15837,-1.9250875
86,4.698055267333984,-2.0703537464141846,76.67020416259766,2.4943995941263934,0.2606645003921783,-94.453567166204,6.281993,-5.5471497,2.436835,7.072647,-13.669096,0.6492625,-20.091457,-11.519719,-5.080025,35.548416,-10.758312,7.689027,-2.2928822,-4.267129,6.4767685,3.6089647,18.449217,-33.343147,56.877834,6.990655,0.56371003,-5.5727763,-5.925582,-9.537985,24.046766,57.35231,-7.435897,9.113811,-1.7604812
87,4.687029838562012,-2.2645795345306396,76.64778900146484,2.4606478121466493,0.2848370247611773,-94.41698061292074,6.423845,-5.519543,2.416293,7.08236,-13.844175,0.7024905,-20.341503,-11.34972,-5.284739,34.45439,-10.25832,7.997088,-2.3346322,-4.3042345,6.5074244,3.7273428,18.545874,-33.116554,56.73732,6.8465385,0.65395063,-5.6309905,-5.953921,-9.598151,23.969095,57.34673,-7.4558573,9.073886,-1.6059209
88,4.6691508293151855,-2.4661970138549805,76.62254333496094,2.4261637096368633,0.31387273893423473,-94.38856094289619,6.567466,-5.487611,2.390473,7.0930147,-14.029155,0.7307027,-20.611624,-11.154058,-5.4424114,33.315815,-9.701577,8.161189,-2.3704822,-4.3358455,6.536679,3.8333807,18.639706,-32.924614,56.610867,6.725856,0.70497084,-5.706928,-5.98113,-9.6645975,23.906548,57.3637,-7.5107627,9.050181,-1.5186596
89,4.6481475830078125,-2.6799609661102295,76.59452056884766,2.3869302464474127,0.35321962591882006,-94.37148170429622,6.707358,-5.444785,2.3560615,7.1039023,-14.224557,0.7194998,-20.930632,-10.924339,-5.5331917,32.15653,-9.090428,8.092593,-2.397223,-4.359088,6.558362,3.9253035,18.731438,-32.76109,56.505672,6.6222806,0.69683844,-5.8177676,-6.013779,-9.732055,23.865814,57.416718,-7.6216755,9.050927,-1.5133452
90,4.63651180267334,-2.9004530906677246,76.55827331542969,2.345855099578724,0.40019306519891595,-94.36206837469264,6.845952,-5.396274,2.3200278,7.1156526,-14.430701,0.6877187,-21.273308,-10.678455,-5.5951753,30.95163,-8.441824,7.8726406,-2.4203181,-4.3793526,6.5757504,4.008075,18.821686,-32.61955,56.407528,6.520511,0.65265805,-5.9499373,-6.0585966,-9.799466,23.85115,57.51092,-7.765164,9.068093,-1.5607485
91,4.610055923461914,-3.1170806884765625,76.5257797241211,2.3105249814467608,0.4443924665509463,-94.35629009846602,6.9950805,-5.352799,2.2849681,7.1272383,-14.645242,0.65348977,-21.594593,-10.424339,-5.649912,29.670675,-7.7444606,7.6394167,-2.4428701,-4.4035,6.596977,4.0818624,18.909819,-32.520363,56.314995,6.4459963,0.60028076,-6.074435,-6.107158,-9.866632,23.843262,57.62991,-7.913119,9.089133,-1.6523786
92,4.582972049713135,-3.3343634605407715,76.49254608154297,2.2880907731676174,0.47507301822604603,-94.34984001252336,7.1667104,-5.326515,2.253015,7.1384306,-14.866365,0.63534254,-21.848177,-10.173109,-5.714702,28.279175,-6.9828067,7.5306373,-2.4660885,-4.438491,6.6307654,4.1431375,18.994095,-32.487293,56.22955,6.4230905,0.56751144,-6.161779,-6.148857,-9.93381,23.820322,57.755154,-8.037832,9.101638,-1.7792906
93,4.560055732727051,-3.5623013973236084,76.44812774658203,2.2830985080444735,0.4860066455422769,-94.34303251580495,7.3677564,-5.3220696,2.2278528,7.1494665,-15.094667,0.6439368,-22.01229,-9.931202,-5.784659,26.740313,-6.1263537,7.575668,-2.4871674,-4.4873247,6.683286,4.1830645,19.073336,-32.547935,56.15198,6.4925117,0.5653044,-6.2115464,-6.1829348,-10.001421,23.778948,57.88661,-8.135691,9.106962,-1.9628097
94,4.541242599487305,-3.8074791431427,76.40084075927734,2.29220173789537,0.48302301009071924,-94.33668840118933,7.5917206,-5.3346453,2.2058427,7.1597896,-15.330082,0.6678506,-22.112644,-9.697281,-5.849117,25.076939,-5.1880164,7.702804,-2.5050159,-4.5473785,6.7492785,4.202784,19.146885,-32.685722,56.0848,6.6299057,0.57740796,-6.2364902,-6.2123895,-10.070064,23.726454,58.031406,-8.22165,9.110465,-2.1995325
95,4.5070061683654785,-4.07098913192749,76.34104919433594,2.313448255036795,0.47316112402621485,-94.32504627361472,7.8306313,-5.361743,2.1768863,7.169796,-15.571879,0.69202656,-22.1641,-9.471169,-5.9161544,23.325258,-4.2134075,7.898321,-2.5260305,-4.6169143,6.8203425,4.213992,19.214334,-32.8578,56.031685,6.760655,0.59098506,-6.22711,-6.2331038,-10.1402645,23.660349,58.182438,-8.29328,9.105109,-2.4434783
96,4.480647563934326,-4.328337669372559,76.2934341430664,2.345199629452768,0.46331702373040673,-94.30240929591763,8.076181,-5.40105,2.1310132,7.178245,-15.81724,0.70168823,-22.188154,-9.253906,-5.993635,21.535172,-3.24955,8.148206,-2.5574567,-4.6946,6.888274,4.2298155,19.275677,-33.01997,55.995636,6.8105907,0.5927713,-6.1739345,-6.242215,-10.212577,23.57953,58.333946,-8.3467655,9.083877,-2.6489737
97,4.459160804748535,-4.593327045440674,76.2302017211914,2.3877183327099702,0.4592211343753265,-94.26665476560031,8.3207655,-5.455348,2.0599813,7.1860604,-16.066418,0.6855128,-22.195492,-9.046791,-6.0694127,19.703804,-2.2956207,8.45764,-2.606306,-4.780555,6.9480133,4.259045,19.331438,-33.167248,55.981144,6.7258024,0.5764871,-6.0408373,-6.2413383,-10.289112,23.485813,58.49275,-8.368182,9.01893,-2.807804
98,4.417201519012451,-4.881943702697754,76.16133117675781,2.4461596120740565,0.4533408114898747,-94.21739417647078,8.5737,-5.5300083,1.9671249,7.192007,-16.319212,0.655095,-22.16615,-8.859897,-6.141797,17.800667,-1.3273695,8.83039,-2.6720157,-4.879448,7.0073543,4.2951627,19.382296,-33.318943,55.982807,6.5577474,0.5495506,-5.844483,-6.230771,-10.369775,23.3811,58.657524,-8.362481,8.922623,-2.9426832
99,4.367115497589111,-5.1639299392700195,76.09445190429688,2.5257973829691496,0.4326537494897394,-94.15097225282582,8.851346,-5.627419,1.8598791,7.19581,-16.576015,0.6300819,-22.077572,-8.706952,-6.2354803,15.834958,-0.35814852,9.251213,-2.7508981,-4.9982104,7.0761194,4.3293314,19.428509,-33.46639,55.989536,6.390929,0.52041906,-5.654449,-6.20653,-10.450774,23.262812,58.812332,-8.358598,8.848165,-3.0548718
100,4.339986324310303,-5.4569902420043945,76.01007843017578,2.6315077080199445,0.3845592751647475,-94.06408640993915,9.1676035,-5.7486467,1.7457967,7.200182,-16.837952,0.6297158,-21.908579,-8.597601,-6.3767366,13.816923,0.6005569,9.705591,-2.8433108,-5.1440644,7.1615415,4.353174,19.467745,-33.59713,55.993805,6.310316,0.49811584,-5.539946,-6.1706576,-10.520135,23.131447,58.950375,-8.386173,8.848827,-3.1475449
101,4.293567180633545,-5.763417720794678,75.9191665649414,2.7803713519542934,0.29354333605896904,-93.9500765395711,9.543216,-5.909186,1.6299626,7.2039847,-17.109169,0.67228746,-21.600662,-8.537234,-6.564384,11.651383,1.6015898,10.282734,-2.95634,-5.3370447,7.2730393,4.363086,19.498302,-33.70162,56.00005,6.3626785,0.48145184,-5.535767,-6.128368,-10.566679,22.985031,59.076214,-8.457408,8.9647875,-3.2191253
102,4.233468532562256,-6.069431304931641,75.8328857421875,2.969077371272784,0.16783626152451325,-93.80866468187571,9.967319,-6.108126,1.5013758,7.206289,-17.38701,0.74386865,-21.158712,-8.523804,-6.7916665,9.317958,2.6597595,10.959771,-3.0927527,-5.573341,7.404621,4.3660583,19.52366,-33.78843,56.008762,6.4936004,0.4669195,-5.599736,-6.080179,-10.596979,22.825554,59.195736,-8.554442,9.158888,-3.2690117
103,4.192884922027588,-6.394870758056641,75.73410034179688,3.166394056203827,0.033672400587822705,-93.65064779566885,10.4058,-6.31554,1.3489385,7.2074184,-17.662428,0.81462383,-20.613256,-8.535884,-7.0873313,6.840683,3.7471902,11.554884,-3.2191582,-5.8193183,7.544734,4.357179,19.557268,-33.89331,56.004734,6.6330914,0.46176398,-5.685621,-5.9993305,-10.629228,22.631056,59.28091,-8.670127,9.36825,-3.2981944
104,4.140133380889893,-6.728415012359619,75.63077545166016,3.3335038237880883,-0.0790429917351528,-93.4925480720182,10.819458,-6.4921284,1.1688517,7.2101555,-17.927578,0.8524233,-21.073042,-8.670203,-7.319816,6.5152674,3.6380005,11.882457,-3.372921,-6.034637,7.657327,4.3718743,19.580496,-33.96578,55.98545,6.7359185,0.47031,-5.7449074,-5.9333496,-10.651608,22.47428,59.387154,-8.77538,9.531275,-3.3239934
105,4.0901618003845215,-7.060812950134277,75.53752899169922,3.447219972991679,-0.15473485791823433,-93.35097492258487,11.188598,-6.617321,0.9633197,7.2132516,-18.171227,0.8547708,-21.648258,-8.796114,-7.6407313,6.4315186,3.3199744,11.814222,-3.511766,-6.191946,7.7405043,4.3913326,19.599773,-34.044693,55.945084,6.778529,0.5090727,-5.7648125,-5.86074,-10.677598,22.327976,59.49333,-8.876644,9.628301,-3.3379066
106,4.040556907653809,-7.393597602844238,75.4557876586914,3.521188241398312,-0.20539805781036866,-93.22192279552362,11.529524,-6.701975,0.7440361,7.217755,-18.40205,0.83443016,-22.226133,-8.905718,-8.049619,6.369694,2.9234748,11.475866,-3.6726575,-6.305588,7.7923336,4.4367046,19.605848,-34.086834,55.885937,6.8020396,0.5690305,-5.7699256,-5.8129935,-10.69501,22.232908,59.631523,-8.965282,9.693297,-3.344996
107,3.979914665222168,-7.7469000816345215,75.36982727050781,3.5726309488810597,-0.24299408758104307,-93.09222717894095,11.862554,-6.7556124,0.52366656,7.2230773,-18.639477,0.78371274,-22.791239,-9.010625,-8.525159,6.324952,2.5005093,11.070407,-3.801619,-6.394079,7.839789,4.4590693,19.607996,-34.14614,55.833893,6.804189,0.62294984,-5.771034,-5.715911,-10.722414,22.089828,59.712788,-9.069692,9.7448015,-3.3402243
108,3.9275095462799072,-8.1120023727417,75.28303527832031,3.622158415810535,-0.2809748192859293,-92.94326671780073,12.209232,-6.791528,0.3089858,7.227731,-18.901724,0.69544405,-23.326584,-9.130291,-9.046994,6.291888,2.1043043,10.8006115,-3.9560928,-6.4779754,7.875568,4.501534,19.603802,-34.169888,55.782383,6.799871,0.64092904,-5.777357,-5.604255,-10.744285,21.946787,59.77277,-9.163772,9.798045,-3.3398824
109,3.8672029972076416,-8.487613677978516,75.19026184082031,3.6717598336173993,-0.3236491245132901,-92.77088908233937,12.576386,-6.806805,0.1058702,7.2342806,-19.207048,0.5390338,-23.828386,-9.268216,-9.625181,6.271832,1.7510605,10.726196,-4.112741,-6.560259,7.910364,4.545176,19.59203,-34.163586,55.75005,6.776267,0.6047495,-5.7895374,-5.4499307,-10.767026,21.754719,59.778202,-9.270938,9.85652,-3.3382769
110,3.8042914867401123,-8.871648788452148,75.09595489501953,3.712118563668557,-0.36366770673169163,-92.58378272569941,12.952403,-6.796711,-0.09044978,7.2411423,-19.540192,0.3274857,-24.302362,-9.413599,-10.265627,6.260011,1.4158893,10.737945,-4.2803397,-6.631809,7.9352226,4.599195,19.57178,-34.123837,55.725945,6.734371,0.5333979,-5.8027534,-5.272412,-10.785119,21.545277,59.75373,-9.381378,9.911803,-3.3358006
111,3.730416774749756,-9.257233619689941,74.99978637695312,3.751456191287282,-0.3985494884930742,-92.3811498275544,13.329548,-6.776041,-0.29131988,7.247365,-19.872374,0.11992179,-24.750202,-9.570866,-10.939255,6.255086,1.0841032,10.784389,-4.4742765,-6.7012115,7.944367,4.669279,19.549715,-34.072197,55.688747,6.699333,0.45535934,-5.81937,-5.0929484,-10.7942915,21.351532,59.726868,-9.4730215,9.963345,-3.3391674
112,3.6514501571655273,-9.648370742797852,74.90043640136719,3.7930004287560144,-0.4280714632728823,-92.16582895135025,13.701144,-6.7545295,-0.50497204,7.2544436,-20.176285,-0.025001539,-25.16607,-9.736711,-11.617557,6.243935,0.74688935,10.812727,-4.6597257,-6.7718687,7.95381,4.69889,19.519884,-34.06166,55.662384,6.7072926,0.39420262,-5.847522,-4.8928995,-10.79981,21.132221,59.67777,-9.560812,10.008646,-3.3380942
113,3.574719190597534,-10.048455238342285,74.79975128173828,3.854393922512112,-0.44582657774845175,-91.93744715923906,14.059041,-6.7557535,-0.73466307,7.2619386,-20.440596,-0.07517662,-25.572556,-9.934824,-12.307364,6.2520185,0.38209754,10.816324,-4.8715706,-6.860635,7.939707,4.737387,19.496086,-34.080585,55.602566,6.774902,0.35848776,-5.89119,-4.6979837,-10.79996,20.95132,59.636734,-9.609584,10.04896,-3.3468795
114,3.4932029247283936,-10.459549903869629,74.71322631835938,3.9179664253267696,-0.4550149766431697,-91.69936152648687,14.410138,-6.7551694,-0.97110665,7.2703075,-20.682596,-0.06924764,-25.949524,-10.141411,-13.024218,6.2499695,0.016087504,10.817584,-5.075546,-6.9474525,7.9173517,4.7583675,19.469456,-34.136715,55.533787,6.8842316,0.33429876,-5.9464498,-4.4858236,-10.79616,20.750097,59.578693,-9.649698,10.083074,-3.356121
115,3.415339469909668,-10.872535705566406,74.61979675292969,3.975438098642794,-0.46328029348516364,-91.4462766426198,14.763028,-6.741589,-1.2213293,7.278373,-20.913406,-0.04544504,-26.28905,-10.346617,-13.7291355,6.246151,-0.34427592,10.81821,-5.2633977,-7.028067,7.89551,4.73422,19.436014,-34.243484,55.49216,6.9810495,0.31819874,-5.9984274,-4.2466297,-10.787361,20.51399,59.50043,-9.683052,10.111338,-3.3615887
116,3.3307931423187256,-11.299328804016113,74.52397918701172,4.017872401472995,-0.4767383853445277,-91.17152185902812,15.124978,-6.7022586,-1.492991,7.2863293,-21.14527,-0.042001627,-26.585827,-10.540225,-14.384291,6.250509,-0.69133514,10.819764,-5.4891458,-7.0871167,7.8781004,4.733018,19.408985,-34.343216,55.415154,7.026984,0.3167219,-6.031161,-4.018769,-10.775515,20.299732,59.431534,-9.686211,10.13537,-3.364887
117,3.2340736389160156,-11.744479179382324,74.4406509399414,4.030677229436426,-0.5084922630532688,-90.87040573193413,15.510284,-6.6193433,-1.7916123,7.294824,-21.39129,-0.06580505,-26.811323,-10.708925,-15.027687,6.2392917,-1.020678,10.830608,-5.7197533,-7.1167502,7.88407,4.7033815,19.382225,-34.48287,55.34544,6.988587,0.3324666,-6.0414314,-3.772043,-10.7574005,20.053146,59.346382,-9.663151,10.150169,-3.3656626
118,3.151820659637451,-12.178193092346191,74.3526611328125,4.02657937746423,-0.5506043401705141,-90.54596831982745,15.910707,-6.509417,-2.1131408,7.3035183,-21.641808,-0.09624358,-26.981731,-10.865689,-15.662018,6.222509,-1.3403089,10.847774,-5.9672384,-7.127661,7.9016933,4.6690574,19.35907,-34.64732,55.259953,6.898281,0.3655286,-6.0363154,-3.5190928,-10.734133,19.797516,59.25582,-9.611544,10.157344,-3.3664734
119,3.060861587524414,-12.612080574035645,74.25801849365234,4.015979025146084,-0.5762506802068548,-90.21521782762402,16.29593,-6.38518,-2.4367118,7.3123345,-21.876015,-0.13632776,-27.146004,-11.007062,-16.203974,6.2351646,-1.6504207,10.849849,-6.2242427,-7.124404,7.907522,4.64354,19.340494,-34.809334,55.154045,6.796573,0.40362298,-6.0200257,-3.272878,-10.708511,19.548885,59.175465,-9.559673,10.164225,-3.3568296
120,2.960261344909668,-13.064631462097168,74.18048095703125,4.007162807902578,-0.5673011892744704,-89.89076034521037,16.64471,-6.256681,-2.7460318,7.3207626,-22.072552,-0.1889549,-27.310907,-11.12011,-16.581207,6.243889,-1.9172022,10.814993,-6.414749,-7.117853,7.893852,4.549053,19.315313,-35.028652,55.10662,6.7033057,0.42894137,-5.9946017,-2.9990551,-10.669975,19.233942,59.092075,-9.564666,10.175955,-3.3217623
121,2.857468366622925,-13.51585578918457,74.09867858886719,4.012848229546967,-0.5147803987817003,-89.56474196644052,16.944677,-6.139129,-3.0514076,7.3282156,-22.22914,-0.25527507,-27.498556,-11.222585,-16.78324,6.2514243,-2.1449614,10.746273,-6.647437,-7.1091704,7.841991,4.4994464,19.2946,-35.181175,55.018856,6.655357,0.44572842,-5.955297,-2.753938,-10.637131,18.971516,59.034687,-9.60425,10.189357,-3.2602198
122,2.7582716941833496,-13.974616050720215,74.02075958251953,4.026237747696464,-0.43221689158219256,-89.2327352585893,17.21152,-6.0239134,-3.3580456,7.3354487,-22.355858,-0.3334979,-27.690523,-11.312492,-16.847473,6.25978,-2.3418894,10.651824,-6.8753242,-7.0970783,7.770063,4.4381175,19.274065,-35.336273,54.932384,6.619079,0.45852444,-5.9015656,-2.5031853,-10.603982,18.697746,58.97795,-9.677723,10.201957,-3.1759875
123,2.66847825050354,-14.443195343017578,73.94695281982422,4.041226984615429,-0.3286045040437658,-88.9065076133848,17.458496,-5.905244,-3.6502762,7.3420997,-22.447542,-0.41853663,-27.861685,-11.372011,-16.76447,6.2731323,-2.496603,10.5214205,-7.096172,-7.0744777,7.6818066,4.3804607,19.2536,-35.48175,54.84213,6.5951953,0.46289045,-5.8518276,-2.260452,-10.571641,18.440027,58.9371,-9.756115,10.230889,-3.0791657
124,2.5716283321380615,-14.907978057861328,73.87965393066406,4.041627593169573,-0.22743924686783437,-88.60241216941932,17.714743,-5.7651463,-3.907528,7.349115,-22.501787,-0.5073029,-27.959457,-11.369037,-16.531311,6.2752223,-2.5896437,10.34391,-7.2624083,-7.0280137,7.604938,4.2916617,19.22954,-35.65091,54.78077,6.5724826,0.45356968,-5.8256154,-2.017622,-10.538113,18.174767,58.914066,-9.830197,10.289328,-2.9764168
125,2.472238063812256,-15.383172035217285,73.81645965576172,4.047504446839765,-0.11116212794228528,-88.31297628393777,17.96044,-5.6276283,-4.131134,7.355123,-22.5157,-0.59343666,-28.013378,-11.328412,-16.088676,6.2912927,-2.6596234,10.100501,-7.3894105,-6.9744043,7.516172,4.1874027,19.197447,-35.837734,54.73646,6.554656,0.4264232,-5.826885,-1.7836701,-10.500308,17.90869,58.91969,-9.879591,10.384849,-2.8847768
126,2.377607583999634,-15.86783218383789,73.76044464111328,4.049900638973768,0.012520205167737473,-88.03477900131256,18.203114,-5.481868,-4.3279767,7.3611627,-22.493969,-0.68252784,-28.01448,-11.245916,-15.465009,6.3049645,-2.6965659,9.8018675,-7.524781,-6.902227,7.422445,4.1146655,19.166739,-35.988464,54.663704,6.5550222,0.38629693,-5.849629,-1.5735786,-10.469469,17.692163,58.951748,-9.90014,10.511506,-2.7976358
127,2.2826223373413086,-16.363006591796875,73.70635986328125,4.0315741206579165,0.14331104697099586,-87.78017574277712,18.444818,-5.310245,-4.496607,7.3669043,-22.432194,-0.7803716,-27.962332,-11.102007,-14.755989,6.313999,-2.638014,9.485396,-7.611623,-6.7989273,7.328852,4.0143948,19.128038,-36.156048,54.62414,6.558517,0.34177613,-5.8793283,-1.3665075,-10.438548,17.479193,59.00453,-9.9380665,10.658802,-2.686207
128,2.188568592071533,-16.86407470703125,73.65852355957031,3.9692120516411484,0.2764963258948561,-87.56028696819813,18.691317,-5.0879087,-4.636365,7.374538,-22.327415,-0.89392203,-27.848972,-10.873208,-14.063277,6.315058,-2.4211957,9.187658,-7.6582255,-6.6375766,7.2404733,3.9105494,19.078669,-36.31983,54.60117,6.5704155,0.30810097,-5.9008837,-1.1759304,-10.411859,17.30203,59.086483,-10.0110235,10.82316,-2.5303288
129,2.108070135116577,-17.37945556640625,73.62080383300781,3.8573022187242403,0.4098300486212051,-87.38939527172579,18.952454,-4.811853,-4.7393613,7.38221,-22.188324,-1.0267135,-27.647219,-10.538231,-13.34921,6.3259597,-2.0345569,8.93686,-7.6694574,-6.407485,7.154368,3.8302588,19.020151,-36.462242,54.577393,6.5939517,0.28711802,-5.914598,-1.0080901,-10.395149,17.183952,59.213497,-10.129557,10.999059,-2.3266053
130,2.020310878753662,-17.893360137939453,73.6032485961914,3.679704043625385,0.5479296576830694,-87.26767486387752,19.2224,-4.4616113,-4.793461,7.394625,-22.020628,-1.1818571,-27.349537,-10.08363,-12.593539,6.3130894,-1.4978127,8.698935,-7.6379714,-6.0935388,7.0726814,3.7613769,18.950846,-36.589252,54.558624,6.6281357,0.27217937,-5.926542,-0.85941094,-10.39011,17.112993,59.37751,-10.278524,11.190004,-2.085745
131,1.9338383674621582,-18.42171287536621,73.60037231445312,3.4798120603528897,0.6930962018523107,-87.15802623341622,19.484755,-4.0829563,-4.8336415,7.407319,-21.795162,-1.3452827,-27.045773,-9.610276,-11.882131,6.3183274,-0.84826267,8.437935,-7.580919,-5.738349,6.991439,3.6563947,18.842901,-36.716316,54.59084,6.6752167,0.2641104,-5.9288573,-0.7250107,-10.399689,17.068596,59.55286,-10.438334,11.4057,-1.8052765
132,1.8287115097045898,-18.952999114990234,73.61322021484375,3.2590464626909195,0.8477921240485612,-87.03677715531262,19.725124,-3.6723833,-4.8745413,7.420758,-21.491512,-1.5130236,-26.789396,-9.15091,-11.327933,6.311499,-0.09020715,8.108741,-7.529328,-5.349027,6.9213986,3.5195735,18.7099,-36.819473,54.64831,6.74237,0.26739424,-5.9198275,-0.6217397,-10.4269495,17.06351,59.71981,-10.5792055,11.656185,-1.4841378
133,1.719391942024231,-19.48343276977539,73.64799499511719,3.006036410113281,1.0277959579205487,-86.8780217802115,19.916416,-3.2108798,-4.9366994,7.4372306,-21.108398,-1.6974753,-26.624983,-8.705434,-10.996566,6.2868943,0.855821,7.653464,-7.492484,-4.914285,6.8639593,3.331252,18.56633,-36.914764,54.719894,6.833052,0.29169953,-5.9015565,-0.5516638,-10.468692,17.077944,59.863266,-10.689906,11.957941,-1.111556
134,1.6396596431732178,-20.004199981689453,73.69770050048828,2.7178603911336747,1.2267762112698966,-86.70005823029116,20.075586,-2.699426,-5.007461,7.4547505,-20.657814,-1.8985425,-26.511879,-8.248365,-10.828988,6.25053,1.971251,7.111346,-7.4551187,-4.4291835,6.8175235,3.100362,18.40609,-37.00577,54.81295,6.942675,0.3323193,-5.874731,-0.5073112,-10.526407,17.113602,59.995464,-10.787656,12.301012,-0.6908603
135,1.5594329833984375,-20.520517349243164,73.75555419921875,2.4218293978558028,1.414701987837603,-86.54400677123299,20.250158,-2.177891,-5.0544734,7.475756,-20.134945,-2.0908005,-26.388304,-7.785745,-10.739889,6.212907,3.0902574,6.584579,-7.403123,-3.9372337,6.7901535,2.8943589,18.261032,-37.06156,54.88407,7.054561,0.37442806,-5.839349,-0.48987895,-10.586808,17.196302,60.138035,-10.89783,12.654006,-0.24388956
136,1.4570952653884888,-21.073448181152344,73.8127212524414,2.143951160667755,1.5608808449927565,-86.44962247538987,20.337282,-1.7003645,-5.040242,7.820439,-19.703054,-2.2471566,-26.189777,-7.32412,-10.636675,6.1840544,4.0460415,6.1738687,-7.3211412,-3.4608665,6.780022,2.7342634,18.090761,-37.05867,54.971386,7.160428,0.39866948,-5.7883267,-0.4873907,-10.665276,17.354443,60.305355,-11.040177,12.986319,0.21059719
137,1.3607996702194214,-21.63902473449707,73.87757873535156,1.8841548549822424,1.6497141114714449,-86.42910708553886,20.335321,-1.266696,-4.949946,8.538977,-19.3983,-2.368959,-25.890831,-6.8510137,-10.474147,6.164653,4.8168645,5.9128976,-7.2040877,-3.0094528,6.797381,2.6468205,17.919575,-36.98886,55.05155,7.2639227,0.3988786,-5.710819,-0.50332874,-10.751707,17.604864,60.51481,-11.216899,13.288754,0.6554015
138,1.2513926029205322,-22.231678009033203,73.94835662841797,1.6293329568315364,1.6998328812154144,-86.45998095954563,20.395918,-0.84058523,-4.810165,9.246097,-19.015827,-2.4673915,-25.526882,-6.3678684,-10.303173,6.14997,5.4834914,5.7438297,-7.063361,-2.5654256,6.836038,2.6086092,17.747316,-36.863304,55.125908,7.3697915,0.3851372,-5.6128073,-0.5426083,-10.846117,17.933466,60.754784,-11.416286,13.577681,1.104967
139,1.143729329109192,-22.808330535888672,74.02442932128906,1.385163774397973,1.7330645680971892,-86.52941745898927,20.424145,-0.4398096,-4.642941,10.073989,-18.601862,-2.5291424,-25.123621,-5.90108,-10.173199,6.141247,6.032345,5.629916,-6.9091473,-2.13341,6.876108,2.6123583,17.574247,-36.683342,55.185287,7.461704,0.3671196,-5.5201454,-0.60731906,-10.946778,18.314545,61.004883,-11.64565,13.859187,1.585183
140,1.0318031311035156,-23.397384643554688,74.10540008544922,1.1569344178818195,1.7726844338898131,-86.62108560072194,20.325792,-0.08087792,-4.474351,11.149654,-18.199404,-2.5419178,-24.709581,-5.475878,-10.13921,6.138117,6.446746,5.535713,-6.755287,-1.7178146,6.896716,2.6519635,17.40111,-36.450344,55.21971,7.5235505,0.35475466,-5.4583898,-0.7011462,-11.051639,18.72421,61.246815,-11.910769,14.139246,2.1215296
141,0.91189044713974,-23.98932647705078,74.19514465332031,0.9364696911564907,1.835629305831598,-86.73973020985984,20.063503,0.23943093,-4.3143573,12.523304,-17.846043,-2.4987702,-24.299025,-5.0911503,-10.261989,6.141726,6.678128,5.4419293,-6.5975704,-1.3094476,6.881327,2.7362854,17.226635,-36.144753,55.222816,7.5494676,0.3483805,-5.4307833,-0.8260101,-11.15902,19.169214,61.488216,-12.232252,14.419524,2.7507842
142,0.8051801323890686,-24.587512969970703,74.28459167480469,0.7201567496143857,1.9090572619372725,-86.88661617494225,19.689564,0.534542,-4.1514316,14.115341,-17.505497,-2.4083989,-23.878431,-4.731966,-10.5021105,6.1514773,6.749206,5.37183,-6.43602,-0.90570706,6.8407,2.8645158,17.050049,-35.772404,55.201263,7.548648,0.34365422,-5.4249077,-0.98082066,-11.269066,19.66006,61.737072,-12.600443,14.694774,3.4499116
143,0.6920555830001831,-25.196996688842773,74.38079833984375,0.5189594482985007,1.9723294848357307,-87.0391254372356,19.251457,0.8050488,-3.979764,15.844413,-17.104015,-2.2835746,-23.437548,-4.3995485,-10.766827,6.1635876,6.75592,5.3545213,-6.289988,-0.51941633,6.7963476,3.016547,16.87378,-35.374794,55.16366,7.5268393,0.3428143,-5.4431944,-1.1576252,-11.381085,20.172344,61.96975,-12.980703,14.961209,4.155559
144,0.5813626646995544,-25.802946090698242,74.47523498535156,0.3448378237557512,2.004352154474322,-87.17548305103892,18.791458,1.0496029,-3.792065,17.642723,-16.572342,-2.1375246,-22.967125,-4.0954275,-10.962765,6.1740403,6.7960258,5.4185314,-6.175313,-0.16399065,6.771446,3.1715927,16.702568,-34.996666,55.11781,7.4883714,0.34833145,-5.487887,-1.3477014,-11.493872,20.678745,62.161636,-13.337873,15.216082,4.803638
145,0.46858665347099304,-26.414722442626953,74.58031463623047,0.21006732815909546,1.9880677853517283,-87.29577173091296,18.349636,1.2499205,-3.5781324,19.471342,-15.8786335,-1.9475436,-22.454475,-3.8254402,-11.052039,6.1823072,6.906081,5.6202965,-6.097852,0.14706467,6.7829075,3.348038,16.537977,-34.619877,55.05543,7.456537,0.3637232,-5.571676,-1.5565144,-11.607455,21.185072,62.317524,-13.685708,15.472806,5.3921704
146,0.3489854633808136,-27.02606964111328,74.68194580078125,0.11003068327089437,1.9374237498170714,-87.4117906440347,17.898245,1.4080684,-3.339416,21.365831,-15.056403,-1.7147493,-21.909208,-3.5835922,-11.085857,6.1897783,7.0287485,5.9308586,-6.0456758,0.4192276,6.817053,3.5501323,16.380415,-34.231537,54.972366,7.420592,0.38695848,-5.6895313,-1.7831954,-11.720882,21.70036,62.444473,-14.035665,15.728412,5.950381
147,0.2404896318912506,-27.639404296875,74.79148864746094,0.030976380592007424,1.876845824236576,-87.52031085165667,17.397022,1.5517333,-3.0864747,23.333105,-14.129631,-1.4905068,-21.353296,-3.356016,-11.103417,6.1985035,7.11903,6.2490134,-6.0046663,0.66451895,6.851826,3.7368126,16.235123,-33.885803,54.884598,7.3351045,0.4125454,-5.8168426,-2.0142987,-11.833435,22.201097,62.526596,-14.347102,15.958673,6.459137
148,0.1356305480003357,-28.254831314086914,74.9007797241211,-0.04075021517939521,1.8305371699435498,-87.61838842703683,16.805248,1.7061304,-2.8323822,25.385252,-13.124612,-1.3288593,-20.806772,-3.1341941,-11.142487,6.208595,7.136976,6.47147,-5.9558105,0.8952785,6.866411,3.865679,16.110176,-33.64292,54.8063,7.15211,0.43531755,-5.928901,-2.2338898,-11.943274,22.659134,62.543964,-14.57787,16.139515,6.898956
149,0.016938790678977966,-28.867164611816406,75.01033782958984,-0.0962657566825289,1.811141284861848,-87.7050731416453,16.096704,1.8601183,-2.5519633,27.542706,-12.00779,-1.2251107,-20.276087,-2.9362693,-11.22047,6.21846,7.078283,6.5833426,-5.889887,1.0990796,6.844014,3.9274035,16.01334,-33.518272,54.736702,6.7733006,0.4568266,-6.027674,-2.429092,-12.048125,23.058455,62.479137,-14.744723,16.270035,7.2653255
150,-0.1141091138124466,-29.488122940063477,75.1292495727539,-0.12973137963022768,1.802638970826876,-87.78438188331529,15.2991295,1.9987195,-2.2476256,29.794907,-10.778848,-1.1643901,-19.749413,-2.7650406,-11.310923,6.2307525,6.9632287,6.6346817,-5.809242,1.2661722,6.801319,3.9469109,15.95236,-33.488163,54.660896,6.2482815,0.4803281,-6.12412,-2.6130095,-12.141417,23.407175,62.350258,-14.8628645,16.362322,7.565936
151,-0.2520875930786133,-30.10614585876465,75.24481201171875,-0.16037284493868026,1.7859257901764805,-87.86105121676756,14.450641,2.137253,-1.9770101,32.11372,-9.519986,-1.1870823,-19.212143,-2.5882595,-11.385315,6.2413564,6.7957644,6.6181893,-5.721944,1.4200723,6.767647,3.9353793,15.921125,-33.539906,54.578903,5.75875,0.5011614,-6.2069054,-2.8076797,-12.227835,23.726313,62.18436,-14.883574,16.413755,7.801118
152,-0.3704417049884796,-30.707365036010742,75.36564636230469,-0.2076156022225807,1.7421080946844978,-87.93953305868153,13.586128,2.2892692,-1.7999759,34.482307,-8.316315,-1.3325795,-18.657757,-2.3749506,-11.414239,6.259661,6.5735908,6.5268335,-5.6333456,1.5875316,6.773214,3.9012053,15.911506,-33.665085,54.49098,5.4850903,0.5141484,-6.2648463,-3.0268369,-12.3190775,24.032055,61.998005,-14.760035,16.42177,7.9733872
153,-0.49331071972846985,-31.3131160736084,75.47883605957031,-0.2684763038809131,1.6692735287450522,-88.01583693529787,12.710636,2.4411619,-1.7535242,36.915688,-7.192815,-1.675457,-18.087185,-2.1217806,-11.373804,6.2872334,6.2863164,6.3342752,-5.545017,1.7670932,6.819857,3.8319259,15.924744,-33.908325,54.4097,5.5243726,0.5186259,-6.2975235,-3.2697914,-12.414665,24.319643,61.78321,-14.449124,16.392588,8.081991
154,-0.6154899597167969,-31.88846206665039,75.5831527709961,-0.3331861556601829,1.5753399442315559,-88.09026468528862,11.802744,2.5742376,-1.8044862,39.43582,-6.1185207,-2.1850805,-17.500618,-1.847115,-11.280529,6.3164816,5.9407477,6.0531898,-5.4477396,1.9506131,6.898963,3.7280264,15.966364,-34.265522,54.321243,5.761148,0.51689184,-6.311176,-3.512482,-12.52885,24.577906,61.50715,-13.984485,16.32569,8.131403
155,-0.7517937421798706,-32.47529983520508,75.68057250976562,-0.4117633124799167,1.4566728539161038,-88.17215970362885,10.860685,2.6995711,-1.9063134,42.03021,-5.092057,-2.7361767,-16.893686,-1.5514537,-11.166567,6.3512053,5.5549536,5.734379,-5.3368797,2.1411016,7.0123987,3.6067414,16.026363,-34.647984,54.22039,6.062268,0.50747573,-6.301052,-3.7771733,-12.6454,24.81656,61.22,-13.44077,16.207266,8.120338
156,-0.891667902469635,-33.05617904663086,75.77410888671875,-0.5160723566862709,1.3100039151126857,-88.2703239587201,9.8833,2.839757,-2.0107467,44.681313,-4.1042843,-3.1949193,-16.259413,-1.2325294,-11.06684,6.3875465,5.1508455,5.4283767,-5.2117634,2.3522277,7.1660957,3.4900234,16.0931,-34.964005,54.09062,6.294553,0.48877227,-6.263512,-4.0706263,-12.773218,25.053278,60.943405,-12.885933,16.023884,8.053
157,-1.0268625020980835,-33.62763977050781,75.86750030517578,-0.6529960834093654,1.1272520013388787,-88.38789518121658,8.849727,3.0079741,-2.122365,47.44956,-3.097618,-3.4939473,-15.586,-0.88677573,-10.991816,6.425571,4.715364,5.1426063,-5.0735955,2.5953846,7.37007,3.3709962,16.158533,-35.204178,53.928555,6.4374,0.4650252,-6.186264,-4.3954163,-12.92082,25.28703,60.670765,-12.269578,15.753349,7.9211955
158,-1.1413846015930176,-34.18925094604492,75.94168090820312,-0.8148645411445447,0.9126387672413946,-88.51891117539233,7.770371,3.1911654,-2.260606,50.31862,-2.0898023,-3.7122328,-14.879375,-0.51572376,-10.921617,6.4643316,4.2442594,4.851955,-4.926266,2.8666856,7.6178837,3.2377386,16.22007,-35.40902,53.750446,6.559199,0.434899,-6.074338,-4.743581,-13.089546,25.515594,60.38661,-11.577032,15.407377,7.730516
159,-1.2490713596343994,-34.74652862548828,76.0091323852539,-0.9932343924647392,0.681793753503911,-88.65839787966812,6.6895504,3.3848755,-2.397598,53.154358,-1.1795095,-3.9228592,-14.1621895,-0.12488856,-10.847402,6.5043573,3.770021,4.5583982,-4.7733493,3.1559134,7.8885036,3.1050022,16.273804,-35.56187,53.572296,6.6607547,0.38837358,-5.9493136,-5.1128273,-13.277794,25.754145,60.110744,-10.931143,15.023958,7.502329
160,-1.345223069190979,-35.31200408935547,76.06272888183594,-1.1801962233497025,0.45059839148963693,-88.80195243685553,5.6454425,3.5909932,-2.5059156,55.834366,-0.47253343,-4.1932225,-13.5835085,0.2536499,-10.760683,6.8214936,3.1785836,4.265566,-4.620491,3.4536302,8.160831,2.9893472,16.315554,-35.642467,53.40987,6.743854,0.31510666,-5.833112,-5.5032964,-13.480343,26.02182,59.86508,-10.452085,14.642373,7.254931
161,-1.438056468963623,-35.872802734375,76.10723114013672,-1.3851544049234659,0.2162367927744889,-88.95142431577213,4.635023,3.8351035,-2.5767503,58.386143,0.10976316,-4.574018,-13.033073,0.64990515,-10.656141,7.1792088,2.6066628,3.975015,-4.4761944,3.7695312,8.437916,2.898642,16.341887,-35.633312,53.26857,6.8071423,0.18112582,-5.724663,-5.9260635,-13.694943,26.32814,59.660122,-10.266653,14.251271,6.9885526
162,-1.5316659212112427,-36.423744201660156,76.14051818847656,-1.6082778106155247,-0.02706916622758004,-89.10826508028121,3.6369936,4.12314,-2.6260505,60.868244,0.5813324,-5.002321,-12.477545,1.0643945,-10.538629,7.5305676,2.0590544,3.686103,-4.3372903,4.106993,8.726437,2.8215232,16.351501,-35.546474,53.144688,6.852039,0.0019642634,-5.6142344,-6.3814163,-13.920262,26.66462,59.487495,-10.278862,13.838447,6.69157
163,-1.6269797086715698,-36.965511322021484,76.16522979736328,-1.8346433894099665,-0.2679074546752936,-89.2666239883163,2.6587136,4.429026,-2.6597555,63.211773,0.7413201,-5.374199,-11.924585,1.4732993,-10.418772,7.8780584,1.5193723,3.3969307,-4.1908183,4.4446464,9.010084,2.7447894,16.34461,-35.408978,53.042442,6.882403,-0.15845327,-5.5103583,-6.8565736,-14.152012,27.024403,59.346443,-10.272696,13.4420185,6.363316
164,-1.7266687154769897,-37.50372314453125,76.17576599121094,-2.046689213365379,-0.49490114702531063,-89.4208602346336,1.7103307,4.7253237,-2.6808672,65.33916,0.39065817,-5.591046,-11.382038,1.8586777,-10.309209,8.22018,0.9742306,3.104412,-4.023213,4.7612305,9.272785,2.655609,16.322424,-35.248714,52.96457,6.901494,-0.23582588,-5.421605,-7.336246,-14.383168,27.397242,59.234978,-10.034507,13.098043,6.0057774
165,-1.823739767074585,-38.048606872558594,76.1813735961914,-2.252853136151209,-0.7047545357216016,-89.57061480628883,0.8166013,5.0147786,-2.6934,67.22493,-0.7221912,-5.618281,-10.854869,2.2328293,-10.2248535,8.553643,0.42576882,2.7991867,-3.8315501,5.0576053,9.509839,2.554717,16.284578,-35.06078,52.912167,6.906618,-0.18888289,-5.3459296,-7.828555,-14.610659,27.792597,59.15821,-9.39578,12.821679,5.6092863
166,-1.9198795557022095,-38.58517074584961,76.18562316894531,-2.4552690156523123,-0.9033457654846824,-89.71864032441388,-0.03701111,5.3124237,-2.6942978,68.91317,-2.423757,-5.5121093,-10.339661,2.6050637,-10.156614,8.878986,-0.11855359,2.4842331,-3.6225297,5.3420973,9.728672,2.4467702,16.230932,-34.835014,52.885376,6.8963675,-0.05991858,-5.2800393,-8.339908,-14.83397,28.21197,59.119717,-8.508252,12.587041,5.1773095
167,-2.012394666671753,-39.11274719238281,76.19845581054688,-2.640435130920241,-1.0936099944257045,-89.86392500310902,-0.8988841,5.6032696,-2.6762948,70.42869,-4.274667,-5.3141203,-9.832246,2.9544373,-10.082342,9.198444,-0.6621814,2.1744812,-3.3959692,5.6017404,9.931591,2.3267791,16.164114,-34.59098,52.885025,6.8773494,0.090113126,-5.2307577,-8.854151,-15.050538,28.630995,59.118652,-7.6399736,12.369771,4.7313795
168,-2.1119234561920166,-39.64640808105469,76.21662902832031,-2.7888148207954893,-1.278517439885061,-90.00525775931565,-1.816385,5.8736057,-2.631332,71.79286,-5.8342834,-5.063428,-9.327304,3.2588577,-9.980409,9.512678,-1.2082274,1.8851309,-3.150306,5.8226233,10.120837,2.1881835,16.089054,-34.352196,52.912422,6.85365,0.2004107,-5.204623,-9.357404,-15.257957,29.023903,59.157337,-7.058943,12.149904,4.291
169,-2.2123568058013916,-40.17231369018555,76.23027801513672,-2.8901370185178568,-1.4538647847617776,-90.13970441994374,-2.819452,6.115885,-2.5546443,73.01523,-6.98269,-4.7307286,-8.838977,3.5029507,-9.838368,9.843355,-1.7695758,1.6171811,-2.872083,5.986778,10.288598,2.0233526,16.009094,-34.11639,52.97818,6.827139,0.25710148,-5.2197714,-9.841951,-15.456325,29.391108,59.244633,-6.8534846,11.912158,3.833233
170,-2.3069987297058105,-40.6995964050293,76.25125122070312,-2.9555182714895403,-1.6195986396912885,-90.26883067747849,-3.876875,6.336841,-2.4535415,74.07998,-7.952739,-4.3091784,-8.365337,3.7032964,-9.672159,10.183539,-2.340453,1.3626391,-2.5652559,6.104885,10.437664,1.8393329,15.925277,-33.875507,53.074085,6.794129,0.29217812,-5.2675476,-10.317585,-15.64599,29.74077,59.377316,-6.8756137,11.674447,3.3542705
171,-2.405057907104492,-41.22795104980469,76.27513122558594,-3.0031017816143235,-1.7846893822079637,-90.39789664211936,-4.9431434,6.5486565,-2.3347924,74.967674,-8.833793,-3.8684413,-7.8763766,3.884223,-9.502915,10.487664,-2.89286,1.1234312,-2.25375,6.2061424,10.586413,1.6534365,15.839303,-33.64343,53.17099,6.7524214,0.31368694,-5.314179,-10.796199,-15.824173,30.05917,59.539055,-7.0363674,11.469733,2.902173
172,-2.491607427597046,-41.753543853759766,76.29483795166016,-3.054011414754447,-1.9582521592381106,-90.53221272749569,-5.9730325,6.7641616,-2.2043674,75.6595,-9.715409,-3.4788232,-7.3398147,4.069629,-9.350776,10.7061405,-3.3970997,0.9017307,-1.9606395,6.319375,10.751911,1.4830486,15.75338,-33.43472,53.2399,6.6996756,0.32993567,-5.3257713,-11.288136,-15.986998,30.329067,59.71451,-7.2506824,11.328841,2.5257614
173,-2.5824596881866455,-42.27437210083008,76.3114242553711,-3.112004196203484,-2.1468772728943635,-90.66883051242445,-6.9557443,6.992842,-2.056227,76.14618,-10.617807,-3.1650994,-6.743487,4.2644143,-9.226149,10.825109,-3.841008,0.7024605,-1.6950036,6.4515715,10.946288,1.3318677,15.669296,-33.24972,53.271526,6.6291513,0.34096536,-5.282068,-11.807417,-16.131323,30.55212,59.91594,-7.551781,11.266351,2.2491431
174,-2.6689629554748535,-42.79480743408203,76.32498168945312,-3.170006432159259,-2.344296715661478,-90.80651893868153,-7.914586,7.226166,-1.8863598,76.43809,-11.493657,-2.8887062,-6.1041827,4.45703,-9.116736,10.868262,-4.2404013,0.52247167,-1.4437245,6.586691,11.157374,1.1929178,15.588048,-33.081997,53.279675,6.543402,0.34322253,-5.204909,-12.345644,-16.256245,30.734146,60.149773,-7.96773,11.264313,2.0421746
175,-2.744466543197632,-43.3024787902832,76.33230590820312,-3.2213777914705775,-2.5401441494707186,-90.95375507205048,-8.854561,7.450282,-1.7041812,76.54415,-12.330248,-2.6263716,-5.442253,4.645258,-9.008771,10.860324,-4.617529,0.3521491,-1.1953892,6.7203574,11.365856,1.0672528,15.51045,-32.935898,53.27061,6.4543834,0.33923537,-5.1239886,-12.883546,-16.362526,30.870712,60.39462,-8.396966,11.302414,1.8731261
176,-2.8221852779388428,-43.82826232910156,76.35479736328125,-3.263026413441251,-2.7241644376089544,-91.11875048238025,-9.781421,7.6504774,-1.5195376,76.474945,-13.115595,-2.354247,-4.7772117,4.8257413,-8.888026,10.824693,-4.993608,0.18252179,-0.9376708,6.8481927,11.5526495,0.9547455,15.4372425,-32.817425,53.250893,6.3732176,0.3316027,-5.0688486,-13.397002,-16.451656,30.952206,60.624184,-8.7424345,11.360618,1.7102011
177,-2.8969626426696777,-44.371646881103516,76.37199401855469,-3.2924766144297815,-2.8998305263968116,-91.31397650384221,-10.689801,7.8212295,-1.3209448,76.21393,-13.849705,-2.0330424,-4.1104,4.991911,-8.753873,10.777673,-5.3875036,0.0077131833,-0.657599,6.9665194,11.716223,0.8547154,15.368633,-32.731464,53.223145,6.2959294,0.31943735,-5.049621,-13.8806505,-16.52553,30.974428,60.84225,-8.981426,11.453378,1.5415592
178,-2.9563939571380615,-44.91218185424805,76.38529968261719,-3.3111964146876725,-3.070355140697909,-91.5317804049833,-11.577273,7.970107,-1.1058906,75.761284,-14.538714,-1.6877149,-3.4332592,5.145734,-8.612522,10.7050495,-5.784495,-0.16545933,-0.36514658,7.073199,11.866241,0.7772961,15.318787,-32.673836,53.168446,6.216026,0.3029433,-5.0510635,-14.353493,-16.57326,30.942402,61.06796,-9.165414,11.583479,1.3841565
179,-3.027357816696167,-45.448848724365234,76.39567565917969,-3.329102091032553,-3.225465625955269,-91.75026829236856,-12.453541,8.103875,-0.89753944,75.148865,-15.177788,-1.3897524,-2.7480617,5.296682,-8.460341,10.5818205,-6.155935,-0.3265291,-0.080456205,7.1873217,11.999302,0.7050061,15.258446,-32.636932,53.111374,6.150682,0.2828088,-5.0606604,-14.800073,-16.621353,30.861877,61.260563,-9.304945,11.716023,1.2545972
180,-3.092974901199341,-45.94154357910156,76.4057846069336,-3.355863313309811,-3.354595750950419,-91.94759298849876,-13.328875,8.229371,-0.7179842,74.408745,-15.760903,-1.2103412,-2.0564783,5.454884,-8.293679,10.3818,-6.472456,-0.46576467,0.17716123,7.3072467,12.111849,0.65049106,15.206741,-32.61705,53.03097,6.10634,0.26320016,-5.068921,-15.231866,-16.655575,30.736294,61.41727,-9.413279,11.814041,1.1639769
181,-3.1450271606445312,-46.4752082824707,76.40592956542969,-3.3987531472318433,-3.455690377112409,-92.11842137104561,-14.198887,8.353898,-0.5710391,73.52873,-16.313469,-1.2223138,-1.3609991,5.627956,-8.106222,10.102682,-6.723418,-0.58419675,0.39925775,7.440796,12.202676,0.61837393,15.161255,-32.613102,52.916313,6.0908546,0.2440577,-5.075623,-15.645227,-16.677126,30.540567,61.534824,-9.514694,11.865715,1.1313
182,-3.2005231380462646,-47.01350402832031,76.41056823730469,-3.449698652039991,-3.533951185879385,-92.27472531417254,-15.058968,8.4718485,-0.4405027,72.495094,-16.826729,-1.3700557,-0.65900177,5.8077974,-7.9011292,9.754891,-6.924406,-0.6855908,0.5837388,7.579223,12.277403,0.6281137,15.136031,-32.611237,52.747482,6.098254,0.22456928,-5.0885396,-16.052147,-16.68148,30.300278,61.62688,-9.588819,11.89109,1.1431103
183,-3.2660419940948486,-47.5483283996582,76.406494140625,-3.5002859341455057,-3.590329714745096,-92.42054888655441,-15.917429,8.569496,-0.31861073,71.33393,-17.24268,-1.5308821,0.05083605,5.9809284,-7.689691,9.341138,-7.0902867,-0.7649431,0.76900595,7.713277,12.331541,0.63148105,15.111868,-32.641277,52.589317,6.1149797,0.20480683,-5.1000977,-16.434368,-16.677748,30.025469,61.67815,-9.609059,11.900632,1.1683662
184,-3.3156261444091797,-48.0773811340332,76.40938568115234,-3.54023581702129,-3.6253888067006974,-92.56001950074962,-16.782845,8.633729,-0.20070973,70.07323,-17.506645,-1.5814356,0.76789796,6.1338654,-7.483803,8.866716,-7.237258,-0.817602,0.94508255,7.832155,12.369569,0.6379336,15.091814,-32.678547,52.448235,6.13458,0.18512103,-5.109406,-16.80249,-16.670525,29.79016,61.68299,-9.529065,11.906485,1.1724997
185,-3.3592023849487305,-48.610565185546875,76.4122314453125,-3.567416554774,-3.6306095631656974,-92.69313094580691,-17.676853,8.656427,-0.091222435,68.711815,-17.587013,-1.4608755,1.517792,6.2699156,-7.2777405,8.255949,-7.327885,-0.8232077,1.1252047,7.9339967,12.38064,0.62630725,15.069679,-32.743717,52.34914,6.1663804,0.16203237,-5.1173587,-17.146,-16.660955,29.580992,61.626472,-9.322112,11.912448,1.1486682
186,-3.4000186920166016,-49.146175384521484,76.41185760498047,-3.58689670668428,-3.608080497372134,-92.81847244891816,-18.58664,8.647353,0.009683399,67.23791,-17.522032,-1.2425114,2.2919343,6.392654,-7.0683184,7.5305905,-7.3667173,-0.79154384,1.2938772,8.025135,12.368627,0.6139416,15.046922,-32.822186,52.268623,6.2140417,0.13616723,-5.125696,-17.470789,-16.651064,29.3916,61.51606,-9.010734,11.912592,1.1139121
187,-3.4460577964782715,-49.68164825439453,76.4060287475586,-3.5989536878762767,-3.574674059695668,-92.93790879462807,-19.46901,8.620079,0.11123064,65.66446,-17.362888,-1.0045582,2.9820423,6.485364,-6.8788633,6.9646435,-7.4980974,-0.76318985,1.4572206,8.106924,12.350857,0.6039263,15.021388,-32.90436,52.20062,6.2510753,0.11435269,-5.127726,-17.780533,-16.64154,29.228472,61.37102,-8.642764,11.902125,1.0731648
188,-3.472874641418457,-50.22025680541992,76.40269470214844,-3.604797603822795,-3.547691978645213,-93.05244062283558,-20.281178,8.5870285,0.22182034,64.003296,-17.159029,-0.82682854,3.428154,6.527787,-6.739692,6.9417214,-7.9241886,-0.777913,1.6129099,8.182321,12.34526,0.6042934,14.989211,-32.972164,52.137405,6.25299,0.102951676,-5.1172686,-18.084248,-16.633364,29.108137,61.215115,-8.264668,11.87669,1.0307785
189,-3.508112668991089,-50.755149841308594,76.3876724243164,-3.60539665919661,-3.5389244547539436,-93.15912304800902,-20.997438,8.562831,0.3612709,62.235443,-16.929117,-0.7306291,3.8919806,6.5487895,-6.6420255,6.9351726,-8.366189,-0.88633144,1.7401282,8.255358,12.37437,0.6374958,14.958786,-33.010777,52.047043,6.20753,0.106496826,-5.0824547,-18.392801,-16.629688,29.05884,61.0499,-7.840319,11.826049,0.9542175
190,-3.5465431213378906,-51.28840255737305,76.37060546875,-3.600858939085608,-3.5373482107028353,-93.2575007339325,-21.6436,8.534211,0.52038074,60.359356,-16.643848,-0.67534983,4.3598523,6.5503745,-6.5758557,6.9452696,-8.824176,-1.0539796,1.8493035,8.329026,12.417573,0.67295724,14.904982,-33.039318,51.976803,6.1315484,0.119252175,-5.0264006,-18.696596,-16.627817,29.05937,60.87119,-7.3654127,11.755321,0.852176
191,-3.5620105266571045,-51.84173583984375,76.3716812133789,-3.5924743105772063,-3.5256384913687406,-93.3524254422648,-22.255714,8.473006,0.6619472,58.41403,-16.280624,-0.6469958,4.820048,6.543555,-6.50736,6.957128,-9.29226,-1.1977326,1.9523761,8.389262,12.455649,0.7306706,14.86447,-33.042168,51.89624,6.044279,0.13646324,-4.9820747,-18.988281,-16.629282,29.097141,60.66364,-6.906941,11.683747,0.79338825
192,-3.563492774963379,-52.399879455566406,76.36673736572266,-3.577667057011626,-3.485935394825923,-93.44985972722374,-22.87132,8.356069,0.7468037,56.438873,-15.817131,-0.62816495,5.255439,6.538158,-6.403505,6.9653974,-9.771534,-1.2343245,2.0632038,8.435819,12.454056,0.7843568,14.809104,-33.010033,51.85902,5.97223,0.14984876,-4.973522,-19.264795,-16.630829,29.160727,60.436638,-6.5361834,11.632561,0.84287417
193,-3.606806755065918,-52.9388542175293,76.32032775878906,-3.5558477137127156,-3.4062603251091366,-93.54927203613649,-23.517193,8.178992,0.755707,54.455814,-15.242031,-0.59440374,5.6530247,6.532497,-6.250517,6.970448,-10.270147,-1.0948318,2.1906683,8.458509,12.397808,0.83740705,14.749353,-32.940254,51.862114,5.915118,0.1613634,-5.016539,-19.526764,-16.630487,29.238953,60.18205,-6.2989426,11.624337,1.0677303
194,-3.63244891166687,-53.494407653808594,76.29188537597656,-3.525092000308442,-3.2977429921569734,-93.64974564886005,-24.169077,7.960152,0.7101858,52.440704,-14.567219,-0.55750394,6.022817,6.521942,-6.068978,6.975888,-10.786966,-0.83926356,2.327076,8.461172,12.305087,0.8960292,14.688729,-32.838486,51.89033,5.8616366,0.17390803,-5.094231,-19.775288,-16.627113,29.33808,59.90124,-6.1515875,11.643132,1.4157412
195,-3.6591901779174805,-54.055477142333984,76.25175476074219,-3.4953394374468916,-3.178161236474303,-93.75572273607867,-24.782677,7.71569,0.6286536,50.353107,-13.808945,-0.5529933,6.3823233,6.5118504,-5.8772063,6.981972,-11.301274,-0.57719076,2.4718635,8.454092,12.198379,0.96065557,14.632774,-32.718204,51.9307,5.813139,0.18341315,-5.1859565,-20.007517,-16.622002,29.463938,59.60879,-6.0255494,11.65101,1.7749836
196,-3.674560785293579,-54.61844253540039,76.2107162475586,-3.4727039185531052,-3.065838153303212,-93.87103510912324,-25.315508,7.4614487,0.52751106,48.15563,-12.983845,-0.61640525,6.7490396,6.5083427,-5.6920967,6.9897785,-11.791635,-0.4180207,2.6221895,8.449835,12.100401,1.028794,14.582096,-32.591267,51.975563,5.7717137,0.18528649,-5.2710624,-20.215609,-16.615623,29.618557,59.315155,-5.857716,11.610319,2.033891
197,-3.695955753326416,-55.18900680541992,76.16374206542969,-3.464016089589721,-2.9659688974209115,-93.99527602023284,-25.765587,7.196607,0.38727322,45.8358,-12.062922,-0.74014646,7.126836,6.515362,-5.521973,7.0002284,-12.242772,-0.41677737,2.7820196,8.4531765,12.013435,1.103843,14.532453,-32.450172,52.02743,5.736722,0.173724,-5.347206,-20.393734,-16.610277,29.828548,59.024223,-5.6206403,11.488781,2.1296575
198,-3.737307071685791,-55.758331298828125,76.10651397705078,-3.46428611430803,-2.8695410886440347,-94.12628310266001,-26.151505,6.922583,0.20026335,43.412323,-11.048506,-0.90688175,7.5077634,6.529233,-5.354973,7.0115914,-12.668264,-0.5057624,2.9543443,8.457282,11.927743,1.1847881,14.48795,-32.296707,52.086807,5.7053747,0.15302622,-5.4243155,-20.540749,-16.60744,30.076546,58.723408,-5.3558226,11.313094,2.1342478
199,-3.7578842639923096,-56.337608337402344,76.05314636230469,-3.466865131384556,-2.773264400165048,-94.26556011921262,-26.458532,6.657293,0.0004303906,40.886745,-10.000247,-1.1384851,7.8909264,6.545399,-5.1770988,7.024303,-13.092756,-0.6101982,3.1270628,8.45932,11.847141,1.2650776,14.452929,-32.146236,52.148777,5.6828456,0.13287409,-5.499839,-20.67414,-16.604536,30.321714,58.415756,-5.0867767,11.135146,2.1360548
200,-3.789285659790039,-56.91534423828125,75.98767852783203,-3.465579402539512,-2.674100261032985,-94.41531347123278,-26.669767,6.4162064,-0.17643811,38.25371,-8.974115,-1.4580957,8.275803,6.560019,-4.974645,7.0364,-13.538201,-0.6556719,3.280883,8.458754,11.775592,1.3418217,14.426838,-32.004387,52.20899,5.6777587,0.12256287,-5.5715084,-20.815321,-16.596231,30.530357,58.10802,-4.8376794,11.008074,2.2219272
201,-3.825763702392578,-57.49379348754883,75.91608428955078,-3.4597991896743774,-2.573552837501666,-94.57578364907802,-26.757177,6.1845155,-0.35407487,35.448822,-7.9510655,-1.9393474,8.664629,6.5740747,-4.7383924,7.049363,-14.019915,-0.6047136,3.3918839,8.456514,11.72086,1.4277353,14.405068,-31.843624,52.25457,5.685639,0.12474463,-5.6372523,-20.989803,-16.570326,30.712484,57.81198,-4.6210046,10.946497,2.4281855
202,-3.849583387374878,-58.08638381958008,75.84469604492188,-3.4553722758406176,-2.4743746155760458,-94.74915550275018,-26.724121,5.9698887,-0.54420626,32.468037,-6.900886,-2.5447142,9.058879,6.5923033,-4.475192,7.063267,-14.52268,-0.50362474,3.4951637,8.4507675,11.676625,1.5135353,14.398098,-31.690962,52.293865,5.697386,0.13545859,-5.6968412,-21.17461,-16.528292,30.857882,57.52435,-4.4299774,10.921417,2.704225
203,-3.8728435039520264,-58.67790985107422,75.76302337646484,-3.4557761481937317,-2.375197527081962,-94.94110116691488,-26.604048,5.8141937,-0.686296,29.400827,-5.862946,-3.1341307,9.455308,6.614793,-4.1953726,7.0772734,-15.024105,-0.4033756,3.6017118,8.446321,11.63342,1.5954211,14.406862,-31.560555,52.342007,5.735958,0.15130123,-5.757162,-21.357449,-16.470337,30.979685,57.252132,-4.2357416,10.922615,3.000279
204,-3.8931071758270264,-59.28232192993164,75.66764068603516,-3.469144316373432,-2.274209084894921,-95.15552189160465,-26.43748,5.750984,-0.71458435,26.350227,-4.8804965,-3.5718062,9.848758,6.641187,-3.9100049,7.092042,-15.502093,-0.3548088,3.7294846,8.447012,11.578719,1.6601298,14.429655,-31.47781,52.42369,5.821755,0.16886204,-5.8233294,-21.5224,-16.402874,31.082014,57.002037,-4.013366,10.939419,3.2676177
205,-3.9196524620056152,-59.88715744018555,75.56642150878906,-3.5024004118467027,-2.1676505851063275,-95.39080688864908,-26.235529,5.7908063,-0.5902027,23.327377,-3.9697058,-3.831969,10.233942,6.6791544,-3.6277468,7.1104884,-15.951218,-0.38698187,3.8909593,8.460678,11.502587,1.694473,14.463979,-31.463333,52.556824,5.971457,0.18895917,-5.9019833,-21.656675,-16.331463,31.156172,56.76648,-3.7513053,10.994619,3.513673
206,-3.939601421356201,-60.50006103515625,75.46681213378906,-3.5548016258412978,-2.0607398054624024,-95.6489385750804,-25.97127,5.9115167,-0.34625834,20.27643,-3.1028621,-3.9902108,10.618757,6.7318087,-3.3359275,7.1287403,-16.381056,-0.4686325,4.0773544,8.48818,11.415618,1.7077014,14.51035,-31.499594,52.725983,6.1702743,0.21271221,-5.9885616,-21.773579,-16.255407,31.206259,56.546547,-3.4622054,11.085577,3.7578018
207,-3.957864999771118,-61.12478256225586,75.36371612548828,-3.616022906679991,-1.9635508231269885,-95.93796702010448,-25.643091,6.088151,-0.022234457,17.22982,-2.2639759,-4.0666084,11.013936,6.789125,-3.0151906,7.147861,-16.800127,-0.55948746,4.2768316,8.524673,11.337651,1.7165692,14.568535,-31.557497,52.906384,6.3919015,0.2367363,-6.0714407,-21.877893,-16.172098,31.241898,56.340977,-3.1628816,11.164374,3.9705577
208,-3.9721570014953613,-61.74608612060547,75.25691986083984,-3.6794488946972064,-1.8857988143297657,-96.26561811869418,-25.249214,6.2947974,0.34180135,14.21651,-1.437448,-4.0815716,11.431115,6.841046,-2.6471822,7.1667285,-17.216269,-0.6193249,4.476163,8.566617,11.287594,1.7344264,14.633386,-31.606699,53.07933,6.6113796,0.25733206,-6.138345,-21.980076,-16.08555,31.283167,56.1526,-2.8609366,11.182487,4.1230497
209,-4.001669883728027,-62.36451721191406,75.13294982910156,-3.7429911806182017,-1.8314348044245763,-96.63478368621284,-24.728426,6.524265,0.7553212,11.09744,-0.5589961,-4.0092735,11.874717,6.887688,-2.2276964,7.184393,-17.635113,-0.63799745,4.6660533,8.61937,11.27585,1.7649331,14.703573,-31.642664,53.239872,6.8385773,0.26725355,-6.186777,-22.080091,-15.993418,31.332552,55.982487,-2.53693,11.097219,4.1800747
210,-4.008376121520996,-62.995487213134766,75.0139389038086,-3.8117647018423546,-1.7935991352183154,-97.04034903004637,-24.05942,6.774802,1.2455767,7.8109303,0.39191732,-3.8575475,12.336578,6.9320445,-1.767215,7.2014585,-18.050844,-0.6366203,4.8537583,8.684601,11.288674,1.7976732,14.77635,-31.67927,53.40449,7.0823293,0.27020186,-6.222255,-22.175798,-15.898688,31.386087,55.831367,-2.1899934,10.943515,4.167036
211,-4.004660129547119,-63.6319694519043,74.89911651611328,-3.874735828257318,-1.7601475943398095,-97.47053868100531,-24.28329,7.041957,1.6768284,6.5602627,0.27972773,-3.6897306,12.80312,6.95657,-1.277351,7.220027,-18.454855,-0.61938053,5.0443845,8.740351,11.307471,1.8318082,14.852798,-31.712187,53.574715,7.3154755,0.2797882,-6.2464137,-22.264906,-15.796982,31.437935,55.694843,-1.8698024,10.789797,4.1442327
212,-4.000968933105469,-64.275634765625,74.79113006591797,-3.9141487866316926,-1.7188639829066625,-97.91313001682616,-24.974844,7.306708,2.075698,6.461429,-0.39931163,-3.572702,13.263274,6.9428024,-0.7703752,7.237865,-18.836296,-0.5904324,5.248876,8.772665,11.313991,1.8472357,14.912309,-31.743565,53.775013,7.514222,0.30818698,-6.258751,-22.329302,-15.714505,31.481712,55.544556,-1.6202768,10.706781,4.1741915
213,-3.9984207153320312,-64.92476654052734,74.6817855834961,-3.918830575629861,-1.6635474974334632,-98.36203010356583,-25.626404,7.5386486,2.5040076,6.4142904,-1.0661932,-3.4822521,13.708632,6.8732533,-0.2554573,7.257768,-19.19953,-0.5486802,5.453264,8.749406,11.303427,1.8653924,14.985962,-31.772562,53.979073,7.6681805,0.36803824,-6.255535,-22.40649,-15.60451,31.519146,55.425663,-1.4714093,10.727238,4.27828
214,-3.99440860748291,-65.5772705078125,74.572998046875,-3.890488593643199,-1.597540351129988,-98.81920513123924,-26.231277,7.7407007,2.968144,6.4008975,-1.7215959,-3.3966017,14.142936,6.7533646,0.26857314,7.278797,-19.548187,-0.49060285,5.6657524,8.699972,11.286259,1.850144,15.029741,-31.808195,54.227474,7.800447,0.44698954,-6.2351046,-22.447975,-15.534296,31.546312,55.27089,-1.3863813,10.813306,4.4279156
215,-3.988426446914673,-66.24400329589844,74.46339416503906,-3.856693578798878,-1.5264990768984006,-99.28752601191583,-26.75609,7.9374614,3.4591577,6.413071,-2.3504064,-3.3852289,14.573976,6.611413,0.80860233,7.3025775,-19.877203,-0.41864666,5.868016,8.616138,11.255698,1.8675526,15.110732,-31.82115,54.451614,7.8950043,0.5324984,-6.214096,-22.521168,-15.394047,31.576588,55.197456,-1.3458749,10.907807,4.5753984
216,-3.982839822769165,-66.9107666015625,74.34893798828125,-3.8358319859964607,-1.4571258066586437,-99.76878413095646,-27.16376,8.149351,3.9719396,6.432112,-2.9260962,-3.5172894,15.009917,6.46986,1.3704885,7.3252845,-20.174604,-0.33621803,6.0672836,8.538734,11.220051,1.8954184,15.185595,-31.790926,54.679855,7.966088,0.60369176,-6.2041636,-22.570818,-15.258772,31.624023,55.127712,-1.2975312,10.968379,4.693817
217,-3.977022409439087,-67.59220123291016,74.23222351074219,-3.8500779217340733,-1.3991884110611055,-100.28741355919463,-27.432924,8.424914,4.5427413,6.4478283,-3.4804146,-3.9319289,15.461373,6.3542595,1.9845287,7.3461924,-20.449694,-0.2478089,6.2914743,8.492766,11.181862,1.9329278,15.250078,-31.717663,54.92095,7.9965887,0.6528798,-6.2106886,-22.580835,-15.137692,31.680285,55.04654,-1.2507467,10.981,4.7905555
218,-3.9662938117980957,-68.2753677368164,74.11369323730469,-3.881617488298558,-1.3468239156685762,-100.83363041875853,-27.581867,8.739717,5.1650815,6.4589043,-3.9999356,-4.5505605,15.921514,6.2460413,2.6372035,7.365317,-20.700336,-0.15202259,6.532043,8.459669,11.139011,1.9754325,15.3065195,-31.612873,55.175316,7.9905715,0.6906628,-6.2256417,-22.56308,-15.028451,31.746342,54.961903,-1.214582,10.971459,4.8789763
219,-3.9576761722564697,-68.96861267089844,73.9993667602539,-3.8977302208936244,-1.283247389162339,-101.35995547634012,-27.635498,9.011017,5.7664127,6.4680233,-4.403678,-5.1131005,16.3717,6.1090794,3.2713194,7.385273,-20.908175,-0.04326865,6.7368436,8.400213,11.084652,2.0327744,15.368549,-31.477016,55.416576,7.97777,0.72715604,-6.2426763,-22.537018,-14.904204,31.825258,54.902477,-1.1745875,10.951327,4.9323716
220,-3.9562113285064697,-69.66175079345703,73.895751953125,-3.86561700343938,-1.191716454016134,-101.81856686354966,-27.618338,9.156007,6.26953,6.475478,-4.615629,-5.35759,16.794142,5.90723,3.828624,7.406265,-21.048683,0.08495311,6.908821,8.296724,11.008662,2.0351954,15.401415,-31.374203,55.695656,7.981843,0.7696041,-6.2470465,-22.428734,-14.837539,31.874142,54.781395,-1.108107,10.939484,4.9351044
221,-3.950411081314087,-70.34905242919922,73.81391906738281,-3.7970457181450623,-1.0646990500491098,-102.1964579857321,-27.516813,9.184362,6.667997,6.4826784,-4.64335,-5.191763,17.18055,5.6569405,4.3011017,7.4240026,-21.119474,0.23514977,6.960566,8.151561,10.912846,2.0815735,15.448978,-31.225403,55.914772,8.022064,0.8279553,-6.252524,-22.353693,-14.738509,31.96347,54.72651,-1.0075369,10.93376,4.863128
222,-3.938554286956787,-71.03913879394531,73.74417877197266,-3.7001085374875777,-0.9127716503141836,-102.51918260304092,-27.324286,9.126494,6.9975934,6.4880633,-4.522339,-4.7585607,17.541616,5.367392,4.716193,7.4401364,-21.131645,0.40442157,6.9571905,7.969002,10.7933,2.1187973,15.497068,-31.07438,56.138264,8.070658,0.89260626,-6.2563434,-22.247896,-14.635511,32.04993,54.674965,-0.8908583,10.932259,4.732182
223,-3.9308507442474365,-71.744384765625,73.69053649902344,-3.532925623478248,-0.7490028316470637,-102.79691421725074,-27.072954,8.92889,7.246091,6.491517,-4.225083,-4.1492767,17.890467,4.989321,5.06765,7.466217,-21.085016,0.5915743,6.910066,7.7046094,10.672641,2.1518154,15.546331,-30.906567,56.348858,8.13097,0.95772076,-6.2480483,-22.124584,-14.528257,32.13855,54.63965,-0.75344414,10.920435,4.5690775
224,-3.9282727241516113,-72.46368408203125,73.63400268554688,-3.2518000962553404,-0.5852078015333088,-103.04026094366296,-26.79291,8.537795,7.4048896,6.4857345,-3.7179432,-3.4560468,18.24075,4.471829,5.3485937,7.510793,-20.977362,0.7960457,6.848439,7.315078,10.57105,2.1622143,15.5883465,-30.72749,56.552437,8.202575,1.0159298,-6.2155724,-21.9658,-14.436805,32.21608,54.598305,-0.5946297,10.88742,4.401808
225,-3.9347097873687744,-73.18182373046875,73.60215759277344,-2.805498665981129,-0.4130897525107143,-103.23474991145545,-26.46412,7.8886914,7.5162854,6.472167,-2.9963307,-2.5881014,18.590532,3.756724,5.5249357,7.5805454,-20.828148,1.0431805,6.7484746,6.740495,10.49665,2.1537347,15.63239,-30.524763,56.744892,8.304499,1.0643398,-6.1556454,-21.786333,-14.343385,32.29767,54.555042,-0.3983443,10.818896,4.2158523
226,-3.9322686195373535,-73.88835144042969,73.6171875,-2.2184239633555296,-0.2328519815484352,-103.38947257383744,-26.080542,7.0212874,7.5913563,6.453434,-2.06899,-1.5393891,18.419788,2.927131,5.587444,8.782247,-21.221064,1.3272517,6.657396,6.0230064,10.437304,2.0836966,15.652944,-30.35361,56.970013,8.421253,1.1069229,-6.0685434,-21.533411,-14.30299,32.34321,54.45658,-0.17325452,10.727395,4.0121064
227,-3.9227828979492188,-74.61358642578125,73.63923645019531,-1.5567276851403589,-0.06380009348610391,-103.5508266592325,-25.694414,6.0419216,7.578423,6.429318,-0.93229944,-0.5259432,18.143557,2.0183637,5.645466,10.253007,-21.667875,1.6071246,6.5523105,5.2198224,10.399597,2.0468054,15.680775,-30.115894,57.138004,8.540652,1.1474732,-5.972447,-21.28198,-14.251485,32.415077,54.395115,0.061416797,10.633058,3.8154736
228,-3.9078826904296875,-75.35321044921875,73.6683578491211,-0.892654457392032,0.07973627119046002,-103.76537100311803,-25.345247,5.0663033,7.420491,6.3850336,0.4148558,0.2426125,17.792513,1.1094168,5.7757998,11.925532,-22.098324,1.8388484,6.5143166,4.41101,10.365859,2.029881,15.704966,-29.855244,57.26034,8.6150255,1.1909667,-5.8677588,-21.002277,-14.204858,32.4649,54.377567,0.2663563,10.559466,3.662051
229,-3.9014477729797363,-76.08439636230469,73.70096588134766,-0.2100483780994411,0.1894550493990355,-104.06851940497441,-25.049236,4.060488,6.9693756,6.3153734,2.1315424,0.7501885,17.355473,0.17453796,6.022863,13.83425,-22.547136,2.0345404,6.565375,3.5819948,10.345939,2.0460653,15.72171,-29.548277,57.31965,8.657699,1.2475945,-5.749031,-20.706491,-14.165235,32.50969,54.40368,0.45647144,10.521372,3.5880744
230,-3.894118547439575,-76.84766387939453,73.72499084472656,0.5285015611629785,0.2834163746355806,-104.43274706062688,-24.775265,2.9810638,6.3145323,6.2326994,4.1577363,1.105951,16.846502,-0.8247741,6.347264,15.9278555,-22.99691,2.215977,6.686221,2.6924598,10.33832,2.078353,15.729332,-29.207787,57.335125,8.679963,1.3120605,-5.615031,-20.386967,-14.134029,32.54569,54.458096,0.6401376,10.504616,3.5667963
231,-3.890423536300659,-77.62491607666016,73.7519302368164,1.2709737646709374,0.38999016307403556,-104.79760410999586,-24.4961,1.9314414,5.7236114,6.145533,6.162839,1.2963513,16.289156,-1.8121765,6.6825395,18.094444,-23.341154,2.349253,6.8123126,1.789388,10.315616,2.12937,15.73538,-28.836374,57.318172,8.655642,1.3631102,-5.483359,-20.05042,-14.092366,32.5754,54.570675,0.7894909,10.488041,3.5339882
232,-3.8926727771759033,-78.40872192382812,73.77702331542969,1.9589611472437853,0.5355021801577033,-105.09869438394036,-24.196114,1.0198627,5.44734,6.068056,7.8132253,1.3065575,15.688212,-2.7073078,6.956377,20.26001,-23.49528,2.396024,6.9382987,0.9298701,10.240036,2.146412,15.741538,-28.522062,57.32341,8.535274,1.381734,-5.3625193,-19.64156,-14.052684,32.523117,54.724102,0.8554795,10.450686,3.4314232
233,-3.897956371307373,-79.18234252929688,73.81058502197266,2.574468172368915,0.7490297403824133,-105.33244145079942,-23.89434,0.30610913,5.6184464,6.006959,9.004226,1.0562434,15.008075,-3.4892259,7.177766,22.433012,-23.472324,2.3579774,7.0384135,0.11543922,10.073117,2.160896,15.76147,-28.217543,57.33205,8.28837,1.3531039,-5.2522907,-19.17888,-13.984376,32.418743,54.957516,0.8574512,10.369413,3.2185967
234,-3.9243345260620117,-79.93708801269531,73.85126495361328,3.141307115634585,1.009677665551444,-105.51605674344177,-23.590868,-0.27615827,6.053973,5.9520545,9.931477,0.5919465,14.245526,-4.1946692,7.3642626,24.657137,-23.314112,2.243126,7.1344905,-0.6739146,9.835717,2.1659994,15.7960415,-27.935125,57.337753,7.934689,1.2915233,-5.1456356,-18.66252,-13.894466,32.255234,55.255344,0.8020715,10.261041,2.9358487
235,-3.9642746448516846,-80.69567108154297,73.90550994873047,3.662397078558671,1.2647788404858336,-105.62149747429312,-23.259998,-0.8055107,6.533509,5.9053164,10.697882,0.07052921,13.428228,-4.8300247,7.4595113,26.97689,-23.001616,2.0192237,7.1737423,-1.4219515,9.58982,2.1612353,15.845548,-27.678484,57.323753,7.550426,1.2177982,-5.0595884,-18.125828,-13.782385,32.040745,55.60852,0.65062994,10.161845,2.6353323
236,-3.996095895767212,-81.44309997558594,73.95136260986328,4.139169090061044,1.4588122905681176,-105.62732446704227,-22.883297,-1.3616235,6.8411155,5.8694787,11.38904,-0.36957496,12.598093,-5.402912,7.4102697,29.41952,-22.50966,1.6559533,7.118358,-2.1079507,9.39882,2.1396046,15.904976,-27.460201,57.280907,7.210176,1.1533719,-5.009367,-17.598698,-13.655761,31.781466,56.004925,0.37065145,10.108847,2.3697088
237,-4.027652740478516,-82.18389892578125,74.00501251220703,4.539021806293385,1.5784160998624577,-105.4903400137435,-22.478525,-1.9499414,6.892613,5.8397655,12.048581,-0.8046843,11.773894,-5.871546,7.1344924,32.004166,-21.812414,1.0825318,6.9327207,-2.700096,9.27232,2.09416,15.974562,-27.27669,57.21356,6.9157224,1.1001954,-4.9999166,-17.068356,-13.511346,31.452183,56.442173,-0.06862069,10.108325,2.1286163
238,-4.072410583496094,-82.89653778076172,74.06471252441406,4.861208295844964,1.6470652709802787,-105.23996704830773,-22.057907,-2.5344706,6.809783,5.809587,12.613697,-1.2962713,10.930568,-6.2491593,6.676513,34.721825,-20.934412,0.32025364,6.650805,-3.2055218,9.177072,2.0285792,16.054314,-27.123367,57.12595,6.633074,1.0488281,-5.022439,-16.529163,-13.3485365,31.058989,56.92851,-0.6414279,10.142919,1.8926303
239,-4.093926906585693,-83.6158676147461,74.13066864013672,5.158685019948103,1.6643312944519348,-104.96420947587104,-21.595457,-3.134133,6.691372,5.7854233,13.004721,-1.682122,10.05934,-6.6255093,6.17366,37.531536,-19.914528,-0.51156086,6.343745,-3.664035,9.116688,1.9520428,16.137926,-27.01449,57.010616,6.3831286,1.0033492,-5.0713363,-16.005367,-13.176352,30.644611,57.45246,-1.3016558,10.213942,1.7015394
240,-4.102137565612793,-84.34457397460938,74.22169494628906,5.488279116436688,1.631694424542939,-104.75014119956653,-21.059614,-3.765439,6.6386747,5.7742033,13.156098,-1.7870072,9.154392,-7.081724,5.7688065,40.38551,-18.782473,-1.2780106,6.082785,-4.118367,9.095803,1.8718679,16.21484,-26.9655,56.863873,6.1875954,0.96722454,-5.1403775,-15.518868,-13.011897,30.25463,57.99984,-2.0000157,10.322052,1.5954018
