Frame,root_translateX,root_translateY,root_translateZ,root_rotateX,root_rotateY,root_rotateZ,left_hip_pitch_joint_dof,left_hip_roll_joint_dof,left_hip_yaw_joint_dof,left_knee_joint_dof,left_ankle_pitch_joint_dof,left_ankle_roll_joint_dof,right_hip_pitch_joint_dof,right_hip_roll_joint_dof,right_hip_yaw_joint_dof,right_knee_joint_dof,right_ankle_pitch_joint_dof,right_ankle_roll_joint_dof,waist_yaw_joint_dof,waist_roll_joint_dof,waist_pitch_joint_dof,left_shoulder_pitch_joint_dof,left_shoulder_roll_joint_dof,left_shoulder_yaw_joint_dof,left_elbow_joint_dof,left_wrist_roll_joint_dof,left_wrist_pitch_joint_dof,left_wrist_yaw_joint_dof,right_shoulder_pitch_joint_dof,right_shoulder_roll_joint_dof,right_shoulder_yaw_joint_dof,right_elbow_joint_dof,right_wrist_roll_joint_dof,right_wrist_pitch_joint_dof,right_wrist_yaw_joint_dof
0,0.016095850616693497,1.7158570289611816,79.10829162597656,0.13788908705528313,1.4289986097120728,-91.10922419409,0.3037471,4.660394,19.203379,6.912986,-8.34283,-3.4124942,-0.09347328,-5.156207,-22.280832,7.365889,-6.9956603,2.8046472,-0.23839301,0.6014168,9.097458,0.9121179,9.123024,-21.361418,63.008053,5.8531766,-0.85833436,9.6276245,-8.998091,-12.106883,41.28106,67.42133,2.9219813,-2.6219132,-5.656795
1,0.017970753833651543,1.7035473585128784,79.10468292236328,0.14472073375545055,1.4000347399311712,-91.09642029374604,0.345093,4.651914,19.195189,6.913947,-8.354461,-3.4080126,-0.04956396,-5.165388,-22.27064,7.3693433,-7.0170207,2.8268754,-0.24473125,0.6094574,9.076134,1.045705,9.122285,-21.35935,63.065735,5.7810373,-0.8376639,9.51473,-8.950167,-12.093572,41.258553,67.46782,2.9285262,-2.5937407,-5.6643825
2,0.013434506952762604,1.6876299381256104,79.10731506347656,0.15232488107374723,1.3711785928555507,-91.08372176161546,0.3860229,4.642701,19.187325,6.914847,-8.365333,-3.4027534,-0.00623614,-5.175545,-22.25799,7.3738513,-7.039562,2.8505602,-0.24928401,0.61927956,9.053491,1.1813706,9.119304,-21.35578,63.122555,5.7071733,-0.8161789,9.401077,-8.897561,-12.0848055,41.227253,67.513405,2.9273484,-2.5663695,-5.674534
3,0.0137138357385993,1.6780154705047607,79.10693359375,0.15859649627092706,1.3425077113101724,-91.07131792198948,0.4274651,4.635074,19.178999,6.9147673,-8.376577,-3.3991146,0.0384836,-5.1834617,-22.24981,7.3753257,-7.0596056,2.871316,-0.24176875,0.630708,9.027266,1.30332,9.110355,-21.371796,63.195633,5.6380982,-0.79447854,9.293678,-8.854017,-12.064649,41.193558,67.57688,2.9323525,-2.5398908,-5.6794753
4,0.01567772775888443,1.6700187921524048,79.10723114013672,0.16148895708340158,1.3145582268639808,-91.05977138851183,0.46755853,4.63181,19.169813,6.916501,-8.390431,-3.3994584,0.08267643,-5.187337,-22.251554,7.3791037,-7.079484,2.8849525,-0.24899371,0.64603084,9.004742,1.4215361,9.106517,-21.38807,63.267254,5.580647,-0.7744797,9.188964,-8.8121605,-12.057604,41.185036,67.62578,2.9399376,-2.5140402,-5.667671
5,0.008637974970042706,1.6542166471481323,79.11073303222656,0.1594551104751844,1.2886356156767562,-91.04894568798827,0.505965,4.6345906,19.158924,6.9178395,-8.406916,-3.4050944,0.12667018,-5.184666,-22.269838,7.3819213,-7.095859,2.8882203,-0.25006825,0.6699675,8.96875,1.5409124,9.100846,-21.447084,63.343834,5.5306087,-0.7509322,9.099713,-8.775729,-12.04498,41.196644,67.69259,2.960418,-2.4882934,-5.6396832
6,0.006846908945590258,1.641931176185608,79.10816192626953,0.15384175573049141,1.2640622394518668,-91.03877505439789,0.54330957,4.6418533,19.146976,6.918852,-8.425328,-3.4145985,0.17035654,-5.1771097,-22.299467,7.3847985,-7.110373,2.8839662,-0.24876858,0.6979982,8.929793,1.6500576,9.09726,-21.530058,63.430023,5.48497,-0.7269527,9.017922,-8.754776,-12.032323,41.237396,67.77446,3.0066104,-2.464903,-5.5987077
7,0.006904502399265766,1.630094289779663,79.10623931884766,0.14765476017985346,1.239222083543517,-91.02973895187029,0.5813489,4.6499825,19.135489,6.9200234,-8.443947,-3.4259713,0.21491396,-5.1685696,-22.330452,7.3871794,-7.1246514,2.877471,-0.25251254,0.7272354,8.887988,1.7597789,9.096624,-21.621244,63.51597,5.4406447,-0.70500964,8.939229,-8.732224,-12.019846,41.28268,67.8546,3.042912,-2.4437313,-5.5487995
8,0.0025215011555701494,1.6131350994110107,79.10397338867188,0.1430888206856559,1.2121900909848138,-91.02214435454363,0.6229461,4.6561527,19.126108,6.9208593,-8.461113,-3.437403,0.26078087,-5.162972,-22.35285,7.3912864,-7.1422095,2.8740547,-0.25797504,0.7545759,8.850722,1.8632354,9.098629,-21.706308,63.60257,5.399686,-0.6888209,8.857073,-8.7142315,-12.0110445,41.327766,67.929985,3.0706122,-2.427241,-5.491203
9,-0.00036839148378930986,1.5956544876098633,79.10094451904297,0.14140553595643324,1.1816614622507422,-91.01692735478217,0.67024446,4.658928,19.11955,6.921445,-8.476315,-3.4493358,0.30779994,-5.1621346,-22.36283,7.399834,-7.165004,2.8734887,-0.26141894,0.78077245,8.805407,1.9698279,9.105069,-21.81188,63.69147,5.334895,-0.6820682,8.771016,-8.683452,-11.9991455,41.361706,68.004395,3.0738316,-2.419604,-5.427947
10,0.0008205078192986548,1.585425615310669,79.09783172607422,0.14091253045132918,1.1482953255676518,-91.01366180417418,0.72166806,4.660337,19.114836,6.921816,-8.489923,-3.4624906,0.35709012,-5.163621,-22.366156,7.4103775,-7.1911206,2.8735096,-0.26384342,0.805501,8.765542,2.0670352,9.114386,-21.918879,63.784615,5.269487,-0.6832027,8.679779,-8.663876,-11.990307,41.403034,68.08175,3.077971,-2.4187567,-5.353861
11,-0.003561294637620449,1.5686150789260864,79.09440612792969,0.1412484438744098,1.1159055961314508,-91.01069598949906,0.77176857,4.661351,19.11122,6.9236064,-8.504406,-3.4752016,0.40525728,-5.16579,-22.366714,7.420229,-7.21714,2.8761754,-0.26758853,0.8291665,8.722775,2.1637397,9.127644,-22.027103,63.87499,5.2127743,-0.6821635,8.594763,-8.637331,-11.982063,41.433887,68.149734,3.0636854,-2.4172945,-5.2761173
12,-0.005897341296076775,1.5533008575439453,79.09249877929688,0.14202784875734917,1.0879794846203987,-91.0065619508967,0.81692475,4.66219,19.108429,6.9238915,-8.519152,-3.4857144,0.45136234,-5.166713,-22.368334,7.423547,-7.239078,2.8834016,-0.27645537,0.85169077,8.6764345,2.2570972,9.140891,-22.120438,63.96374,5.186347,-0.67019093,8.525021,-8.609904,-11.976194,41.45405,68.21028,3.0324488,-2.4090457,-5.1989207
13,-0.008613824844360352,1.5374306440353394,79.09175872802734,0.14323941255598138,1.066567402706641,-91.00030605659508,0.854058,4.663367,19.107183,6.9247694,-8.535817,-3.494489,0.49489686,-5.1654453,-22.37232,7.4170933,-7.2546177,2.8987734,-0.2930181,0.87415165,8.627677,2.3430543,9.1525545,-22.195976,64.053856,5.201051,-0.6428562,8.470917,-8.588554,-11.972174,41.47111,68.26559,2.9858766,-2.3906662,-5.122966
14,-0.010285656899213791,1.5236570835113525,79.091796875,0.145171898916015,1.0503283034478141,-90.99351144754314,0.8855011,4.664252,19.107998,6.925497,-8.553576,-3.5021172,0.5347143,-5.163562,-22.375868,7.4060316,-7.2670145,2.9200585,-0.2937565,0.8951446,8.561613,2.4317124,9.172394,-22.307453,64.14267,5.215157,-0.60419035,8.434891,-8.556743,-11.966853,41.48071,68.32212,2.9386134,-2.3675647,-5.050539
15,-0.012550883926451206,1.5078272819519043,79.08942413330078,0.14799360993369906,1.0350034900912366,-90.98684838430943,0.9154918,4.664531,19.108513,6.926202,-8.571457,-3.507229,0.57326007,-5.1624694,-22.378263,7.394907,-7.2797594,2.9412813,-0.29830483,0.91264665,8.500107,2.515778,9.19528,-22.395954,64.225136,5.2546525,-0.5613397,8.409367,-8.526257,-11.961874,41.474346,68.369095,2.8770168,-2.3429844,-4.9756584
16,-0.01428709365427494,1.4919711351394653,79.08787536621094,0.1510082473433479,1.0175248018258183,-90.98158295250376,0.9481662,4.6635847,19.10693,6.9269657,-8.590123,-3.5083373,0.61085653,-5.163277,-22.378286,7.390036,-7.2973676,2.9562733,-0.31195226,0.93076944,8.443963,2.598613,9.210377,-22.444273,64.30345,5.316772,-0.52247846,8.397459,-8.501906,-11.959163,41.466137,68.411545,2.8222685,-2.3212454,-4.899112
17,-0.016634564846754074,1.4753037691116333,79.08677673339844,0.1557614496485614,0.9985792553254196,-90.97815516847685,0.9820808,4.6597023,19.101404,6.928141,-8.610709,-3.5003765,0.6441803,-5.1687336,-22.373655,7.39603,-7.3236313,2.962109,-0.3230367,0.9445356,8.3886595,2.6835334,9.224424,-22.471062,64.3738,5.394193,-0.48605543,8.406577,-8.475,-11.956981,41.44357,68.44785,2.7719963,-2.3034253,-4.81933
18,-0.017950940877199173,1.4612139463424683,79.08354187011719,0.16153478509090344,0.9794132912080724,-90.97602943898448,1.0160701,4.654085,19.09371,6.929863,-8.63325,-3.4856772,0.6740076,-5.177037,-22.365557,7.4084563,-7.355023,2.9624374,-0.32846475,0.9539488,8.334805,2.7715676,9.242827,-22.4832,64.43079,5.4887395,-0.44783345,8.433496,-8.445743,-11.954833,41.402237,68.47671,2.7194455,-2.2873836,-4.7367535
19,-0.0235502440482378,1.4450281858444214,79.08319854736328,0.1666924369644559,0.9579216955912803,-90.974411604453,1.0530964,4.6489735,19.085958,6.931487,-8.654306,-3.473945,0.7065199,-5.184631,-22.35825,7.4213867,-7.3863735,2.9611974,-0.33849815,0.9639965,8.283236,2.848754,9.258667,-22.475784,64.496445,5.5872674,-0.41585603,8.466514,-8.422227,-11.953075,41.364178,68.505424,2.6828735,-2.274097,-4.6567483
20,-0.024458957836031914,1.4274935722351074,79.08123779296875,0.16930365815415274,0.932315280377777,-90.97384137044952,1.0965273,4.647232,19.082148,6.932767,-8.671976,-3.4750965,0.746601,-5.1879497,-22.354424,7.4299083,-7.4125624,2.9620678,-0.3460915,0.9767394,8.238668,2.9301429,9.277907,-22.46019,64.54464,5.681595,-0.38692856,8.494947,-8.397161,-11.952327,41.312057,68.52572,2.6482143,-2.2627344,-4.5845523
21,-0.031097693368792534,1.4096496105194092,79.07955932617188,0.16832737356415864,0.8993437910613825,-90.9737071326278,1.150712,4.6500387,19.082785,6.933151,-8.682764,-3.4966862,0.79747564,-5.186372,-22.356848,7.437528,-7.4344163,2.9667726,-0.35206163,0.9934735,8.203421,3.0024214,9.300959,-22.44073,64.59353,5.7675104,-0.36610982,8.515311,-8.368563,-11.952913,41.247486,68.53503,2.6276023,-2.2533665,-4.520507
22,-0.03607619181275368,1.3916542530059814,79.0780029296875,0.16487492128362327,0.8612475437358521,-90.97411491289493,1.2123255,4.656029,19.086071,6.933067,-8.689019,-3.5318685,0.85811454,-5.1805034,-22.363604,7.4393325,-7.4507823,2.973071,-0.35549083,1.0109274,8.1745,3.071601,9.334687,-22.417423,64.63616,5.8476815,-0.35148737,8.532811,-8.341007,-11.956101,41.178253,68.53784,2.6276846,-2.24656,-4.4620066
23,-0.038423556834459305,1.3705968856811523,79.07548522949219,0.1600993231523641,0.8231690432862666,-90.9750709581949,1.2743127,4.663647,19.090757,6.932507,-8.695131,-3.5685568,0.9189801,-5.172749,-22.370771,7.440106,-7.4656515,2.9789114,-0.36791286,1.037259,8.137715,3.1311457,9.349431,-22.381598,64.695335,5.9132323,-0.34285736,8.55651,-8.316366,-11.958338,41.12116,68.54923,2.6355,-2.242479,-4.4135423
24,-0.038123566657304764,1.3587698936462402,79.07288360595703,0.1551024593378437,0.7896217558290799,-90.97714983185065,1.3300135,4.6720686,19.095749,6.932509,-8.706206,-3.5948997,0.9726059,-5.164116,-22.374468,7.442632,-7.482511,2.982156,-0.37039918,1.056489,8.108146,3.1803997,9.372511,-22.3343,64.74147,5.96108,-0.33768362,8.577904,-8.296533,-11.963767,41.055977,68.54808,2.637803,-2.241912,-4.3701453
25,-0.04152802750468254,1.3430448770523071,79.07229614257812,0.14948087913205801,0.7642628047693631,-90.98093921256165,1.3754385,4.6822004,19.10223,6.932943,-8.724934,-3.6058965,1.0146147,-5.153692,-22.372583,7.4446054,-7.4997325,2.980205,-0.37142476,1.0728345,8.072236,3.226598,9.399864,-22.27788,64.77918,5.9720507,-0.33973607,8.607066,-8.280207,-11.972259,41.005566,68.54078,2.64456,-2.2455394,-4.3344016
26,-0.04545442759990692,1.3267573118209839,79.07051086425781,0.14216810957242573,0.7437054176627422,-90.98627205756165,1.413966,4.694738,19.110235,6.9353385,-8.749011,-3.6085382,1.0486599,-5.141418,-22.367266,7.4496784,-7.518898,2.9747617,-0.37208852,1.0907618,8.030637,3.2646265,9.421318,-22.211578,64.8199,5.9571753,-0.3486563,8.643491,-8.265395,-11.980316,40.960976,68.53222,2.6515734,-2.252786,-4.3067164
27,-0.04714353755116463,1.3113754987716675,79.0650634765625,0.1352852899118519,0.7231946171163605,-90.99125663767244,1.452035,4.705997,19.116886,6.936951,-8.773253,-3.6086645,1.0824687,-5.1301827,-22.362322,7.453838,-7.537936,2.9706695,-0.3751597,1.104113,7.995798,3.3004847,9.44963,-22.1319,64.84658,5.9325995,-0.35726705,8.6712265,-8.2561655,-11.992828,40.92116,68.5167,2.6617732,-2.2625287,-4.2871
28,-0.04851417988538742,1.2965598106384277,79.06428527832031,0.13143640594425302,0.6983750430864086,-90.99402732504838,1.4939038,4.7133975,19.119001,6.938362,-8.794147,-3.6120684,1.1233727,-5.122469,-22.361235,7.454539,-7.5560865,2.9726896,-0.3764603,1.1181899,7.9630876,3.3221266,9.471227,-22.060362,64.882706,5.901685,-0.35942733,8.685266,-8.251398,-12.003338,40.88358,68.51259,2.6787443,-2.275152,-4.280578
29,-0.04850185662508011,1.2831733226776123,79.06253051757812,0.13257396614803152,0.6664778329691393,-90.99435992421296,1.5431693,4.714741,19.114527,6.938302,-8.810806,-3.6216354,1.1741495,-5.1202374,-22.365313,7.4537935,-7.575523,2.9851162,-0.38633198,1.1246691,7.947926,3.3470197,9.501571,-21.972025,64.89387,5.8693237,-0.35057834,8.669601,-8.240235,-12.019086,40.83171,68.48773,2.679559,-2.2896326,-4.2891116
30,-0.05171017348766327,1.268460750579834,79.06209564208984,0.13501512093176893,0.630948100423324,-90.99345367952114,1.5951782,4.7125006,19.105675,6.9390116,-8.826116,-3.6338112,1.2309889,-5.12125,-22.372345,7.4492626,-7.5940466,3.0044372,-0.39059585,1.132015,7.9316483,3.3542225,9.524596,-21.893116,64.920235,5.8183465,-0.33709,8.639895,-8.234704,-12.031672,40.78098,68.47887,2.6899865,-2.3101993,-4.312935
31,-0.05514988303184509,1.256508708000183,79.0623550415039,0.13922226137465707,0.5941410662482075,-90.99036307041992,1.6474701,4.7086163,19.094957,6.939874,-8.839207,-3.644838,1.2883195,-5.124371,-22.381392,7.4475203,-7.6139417,3.0234828,-0.39976835,1.13543,7.925909,3.3617272,9.55233,-21.805334,64.92805,5.7807903,-0.31941944,8.604019,-8.226107,-12.047599,40.72204,68.454895,2.6856365,-2.3269072,-4.3408747
32,-0.061221204698085785,1.246087670326233,79.06145477294922,0.143410762073352,0.5597466824236332,-90.9848575515675,1.696389,4.7053304,19.085392,6.9405136,-8.849513,-3.650948,1.339393,-5.1284256,-22.390806,7.4524345,-7.634831,3.0351868,-0.40697703,1.1397177,7.919836,3.3580844,9.580323,-21.72915,64.93891,5.7650867,-0.30417606,8.577049,-8.225411,-12.06429,40.672306,68.439026,2.6875362,-2.339176,-4.3631573
33,-0.06645272672176361,1.2335351705551147,79.05854034423828,0.14656916474053736,0.5286872062505532,-90.97652003179468,1.7400657,4.702596,19.078402,6.941656,-8.855356,-3.6485217,1.3829494,-5.1336975,-22.400316,7.4639297,-7.6550884,3.0358393,-0.41431445,1.1461155,7.9121857,3.34254,9.604807,-21.660894,64.955925,5.7889643,-0.29085013,8.561303,-8.227163,-12.078888,40.622112,68.42901,2.6814857,-2.3448002,-4.379967
34,-0.07192922383546829,1.2243282794952393,79.05662536621094,0.15061371971354356,0.49897717647924184,-90.96566725732195,1.7812847,4.699196,19.072292,6.9424467,-8.857095,-3.6404104,1.4211793,-5.1411266,-22.410591,7.483743,-7.6775575,3.0298104,-0.42250872,1.1478393,7.915182,3.3265455,9.641405,-21.590368,64.951775,5.843946,-0.27565736,8.545822,-8.230124,-12.101116,40.57155,68.40373,2.6718762,-2.344028,-4.3938694
35,-0.07611634582281113,1.2136303186416626,79.05513000488281,0.15357367700749103,0.4702965488923625,-90.95280083344684,1.8204993,4.6966505,19.06458,6.943743,-8.859009,-3.6326637,1.4587333,-5.1478276,-22.422182,7.502641,-7.6995115,3.022147,-0.43188995,1.159624,7.8995376,3.2949727,9.656273,-21.546179,64.97907,5.8869014,-0.26323715,8.545943,-8.238282,-12.10987,40.533157,68.41516,2.6641748,-2.3422427,-4.4100986
36,-0.07839805632829666,1.2019721269607544,79.0517578125,0.15461202959653905,0.4400890171646713,-90.93824043379784,1.861356,4.6957064,19.053186,6.944171,-8.86397,-3.6313655,1.5010872,-5.151429,-22.435501,7.516002,-7.721509,3.017769,-0.4431532,1.1597431,7.9106493,3.260081,9.691222,-21.48501,64.97253,5.9269805,-0.25563884,8.538621,-8.246414,-12.13074,40.481506,68.38989,2.641157,-2.336971,-4.4116983
37,-0.08435388654470444,1.1895956993103027,79.05184936523438,0.15459533572774786,0.4109877160326236,-90.92219547001011,1.900526,4.6979,19.037148,6.946016,-8.875294,-3.6395822,1.5459381,-5.1509237,-22.450293,7.5224156,-7.743777,3.0171473,-0.45738363,1.1710646,7.899063,3.2167592,9.708965,-21.459835,64.99118,5.9136596,-0.25416133,8.550578,-8.261937,-12.141027,40.459087,68.40446,2.6331098,-2.331133,-4.4111667
38,-0.08796652406454086,1.1774742603302002,79.04915618896484,0.15350892435287128,0.38142911263007295,-90.90448352585761,1.9405813,4.701891,19.017756,6.9464054,-8.88915,-3.6536674,1.5949169,-5.1468816,-22.466698,7.521584,-7.7647977,3.0179367,-0.47180587,1.173082,7.9048634,3.1746976,9.7487135,-21.435596,64.97791,5.8864813,-0.25522175,8.562385,-8.273079,-12.1646805,40.43413,68.38667,2.6184392,-2.3184385,-4.400682
39,-0.09476684778928757,1.1654610633850098,79.0515365600586,0.15161495093980665,0.3509253752920912,-90.88470286935097,1.980684,4.7063904,18.995874,6.946818,-8.903029,-3.66935,1.6459011,-5.142293,-22.485071,7.5202036,-7.7865033,3.0208404,-0.48676825,1.1753864,7.909678,3.1322975,9.792416,-21.425983,64.958626,5.8455377,-0.25932062,8.575918,-8.278598,-12.190888,40.411503,68.36687,2.6048324,-2.307398,-4.38738
40,-0.09881071746349335,1.1531327962875366,79.0499267578125,0.15224761677593884,0.31713627294762436,-90.86246025843516,2.0234556,4.709247,18.972536,6.947726,-8.915331,-3.6823401,1.7013328,-5.138909,-22.506258,7.5189466,-7.8075,3.0265813,-0.5013676,1.1769701,7.9200153,3.0806077,9.831763,-21.419584,64.942215,5.8122377,-0.26558867,8.585942,-8.2875395,-12.214285,40.388786,68.35226,2.5980644,-2.3018293,-4.3745637
41,-0.10612610727548599,1.1397027969360352,79.04989624023438,0.15165047438655085,0.27740835959053595,-90.83614286466279,2.06698,4.7110476,18.945892,6.9578943,-8.929776,-3.6925733,1.7648274,-5.1376696,-22.531393,7.517735,-7.8287325,3.0379455,-0.5157888,1.1748532,7.941083,3.020396,9.873466,-21.418354,64.92365,5.7861323,-0.27530771,8.589053,-8.300585,-12.238134,40.366375,68.337776,2.6071086,-2.304399,-4.3595576
42,-0.11276625841856003,1.1315730810165405,79.04832458496094,0.15443527518728606,0.23345413302697132,-90.8064043855881,2.1137462,4.7115664,18.916395,6.969128,-8.94374,-3.701893,1.8354903,-5.136917,-22.5598,7.5140476,-7.8493137,3.0537016,-0.53402454,1.1723638,7.967101,2.9510095,9.910025,-21.419714,64.90984,5.762779,-0.28906265,8.590172,-8.311308,-12.257189,40.336037,68.32507,2.6117945,-2.3121426,-4.342307
43,-0.1168571412563324,1.1250882148742676,79.0437240600586,0.15540438318475888,0.18994339525226744,-90.7766271931936,2.1583848,4.712665,18.886875,6.982799,-8.95759,-3.7092812,1.904928,-5.1362157,-22.589466,7.5111613,-7.868445,3.0684714,-0.54967356,1.1694502,7.9952602,2.8763745,9.944552,-21.423584,64.89302,5.7445216,-0.3024219,8.590304,-8.329785,-12.274295,40.31383,68.32106,2.6238573,-2.3213255,-4.3281436
44,-0.12549293041229248,1.1187632083892822,79.04203796386719,0.15493122886736896,0.15140952278876757,-90.7501640978309,2.1972165,4.715866,18.860151,6.9979286,-8.971343,-3.7136278,1.9657422,-5.134504,-22.618164,7.511111,-7.8849435,3.0769196,-0.5616327,1.1671759,8.022005,2.80604,9.978592,-21.424124,64.86149,5.735254,-0.3107119,8.590913,-8.351077,-12.2914,40.301083,68.318275,2.6331856,-2.3267615,-4.3220716
45,-0.13424240052700043,1.112342119216919,79.04097747802734,0.15322631099579945,0.11995320502800491,-90.72778831794326,2.2271678,4.722648,18.836897,7.017136,-8.9863405,-3.7138572,2.0133777,-5.1316624,-22.64686,7.5187793,-7.8995085,3.0757458,-0.57261926,1.1752139,8.03153,2.7392678,9.989938,-21.41921,64.83455,5.7468014,-0.31153965,8.600437,-8.376982,-12.297309,40.30024,68.34273,2.6296906,-2.3287303,-4.3330874
46,-0.13938826322555542,1.1054295301437378,79.03964233398438,0.15025839208911798,0.09008177181560861,-90.70742460169195,2.252994,4.732537,18.815237,7.0426536,-9.003985,-3.7110858,2.0577707,-5.1271906,-22.676632,7.526945,-7.9101253,3.0684853,-0.57782376,1.1779013,8.057541,2.6577985,10.010925,-21.406889,64.79705,5.770979,-0.30928418,8.6059265,-8.414957,-12.3095665,40.312485,68.357864,2.6366615,-2.327885,-4.3529367
47,-0.1454733908176422,1.0960674285888672,79.03843688964844,0.14709369291602184,0.06450754821048675,-90.68910185757247,2.2761858,4.741322,18.795557,7.0628495,-9.017571,-3.7064936,2.095143,-5.123591,-22.704088,7.537426,-7.920672,3.0597706,-0.5902358,1.1775273,8.084201,2.6028848,10.041908,-21.383877,64.71958,5.7945566,-0.30541113,8.604468,-8.446597,-12.330019,40.337368,68.355255,2.6421506,-2.324524,-4.3695846
48,-0.1520291566848755,1.0867664813995361,79.03938293457031,0.1474043966312553,0.04212964275070661,-90.67221660505652,2.29477,4.747655,18.77726,7.084006,-9.03033,-3.7016711,2.127873,-5.122348,-22.726297,7.546702,-7.932233,3.0544643,-0.6007278,1.1779945,8.106964,2.5406241,10.067895,-21.36182,64.64926,5.8026743,-0.30732945,8.598429,-8.474974,-12.349193,40.346684,68.35691,2.6297174,-2.3222134,-4.372982
49,-0.1580309271812439,1.0813637971878052,79.04124450683594,0.14913963728455043,0.02396366579743961,-90.6568471549606,2.3105266,4.7495565,18.760836,7.0987806,-9.037294,-3.6951177,2.1553786,-5.124499,-22.740995,7.5533333,-7.945456,3.0535185,-0.6054464,1.1832427,8.117126,2.4682963,10.075101,-21.352936,64.595215,5.7889,-0.31187096,8.593465,-8.509691,-12.354969,40.346024,68.38812,2.6030853,-2.3214562,-4.3604736
50,-0.1618085354566574,1.0763119459152222,79.0420913696289,0.1522826642691566,0.008816448765922006,-90.64320808115566,2.3222916,4.7492414,18.745987,7.1130924,-9.04211,-3.6868107,2.1777303,-5.1289277,-22.750265,7.559852,-7.9598713,3.0543985,-0.61055744,1.1825697,8.141773,2.385559,10.094234,-21.33048,64.528366,5.766753,-0.32086974,8.574347,-8.54809,-12.371786,40.3358,68.40175,2.5647933,-2.3212986,-4.329885
51,-0.1631767451763153,1.0704691410064697,79.0423583984375,0.1560227126613517,-0.0034269528431891665,-90.6308361833149,2.3314793,4.7483425,18.7325,7.1261883,-9.046227,-3.679984,2.197661,-5.1332736,-22.758024,7.5634665,-7.9727325,3.056791,-0.6118933,1.1850919,8.150938,2.3126216,10.101004,-21.319946,64.463684,5.7324543,-0.33288884,8.559647,-8.582824,-12.378399,40.33039,68.43155,2.5316954,-2.31952,-4.3016567
52,-0.16844382882118225,1.0627689361572266,79.04163360595703,0.15945948091247017,-0.015346941432118202,-90.61942085421117,2.343877,4.7476254,18.720243,7.132596,-9.0483465,-3.6781924,2.219218,-5.135272,-22.768105,7.5633173,-7.9823503,3.0601516,-0.6122003,1.1825918,8.173593,2.23279,10.112336,-21.29551,64.39652,5.6980524,-0.35725877,8.536466,-8.621871,-12.391072,40.32097,68.4472,2.51103,-2.3181117,-4.2757688
53,-0.17364737391471863,1.0582457780838013,79.04150390625,0.16179089139509864,-0.026601284650998744,-90.60878748548446,2.3596036,4.747168,18.70918,7.1317735,-9.048545,-3.68286,2.242992,-5.1346498,-22.782434,7.5588856,-7.9880815,3.0666602,-0.6122027,1.1784413,8.189865,2.1639888,10.121001,-21.26572,64.33023,5.6542287,-0.40018055,8.510202,-8.651222,-12.403032,40.313915,68.457756,2.5069928,-2.3149788,-4.2597237
54,-0.17989160120487213,1.0522114038467407,79.04051208496094,0.1627280478426868,-0.03701528795312212,-90.59887255753351,2.3751864,4.7472806,18.699072,7.130046,-9.049194,-3.6921103,2.2674267,-5.1323566,-22.798931,7.5520406,-7.991706,3.0757003,-0.6147565,1.1710759,8.211885,2.1004755,10.129065,-21.221836,64.25573,5.607247,-0.45716274,8.477417,-8.68227,-12.418074,40.315536,68.457695,2.5215895,-2.3094866,-4.2463636
55,-0.18346847593784332,1.044437050819397,79.03910064697266,0.1652865492353902,-0.04553937288708965,-90.59027430358309,2.3914065,4.7475176,18.690434,7.122901,-9.047896,-3.7038333,2.2897623,-5.128995,-22.814604,7.5438123,-7.9938726,3.0829852,-0.6122002,1.1647367,8.225524,2.037902,10.131878,-21.19033,64.18719,5.555062,-0.5113753,8.448169,-8.715599,-12.426806,40.3218,68.471085,2.5473278,-2.3048174,-4.237649
56,-0.18852438032627106,1.0410922765731812,79.0383529663086,0.16525334773652942,-0.05209572873861031,-90.58355111352493,2.4049602,4.7492375,18.68329,7.117972,-9.049457,-3.7160568,2.3076525,-5.124803,-22.826616,7.538229,-7.997564,3.0841568,-0.6163854,1.1597831,8.237327,1.9765226,10.132487,-21.157331,64.116844,5.513368,-0.5482009,8.421497,-8.747781,-12.434595,40.330235,68.48249,2.5644538,-2.3013914,-4.2291217
57,-0.1909770965576172,1.036112904548645,79.03836822509766,0.16310862925858605,-0.05525266432299131,-90.57932859524641,2.416255,4.753137,18.678207,7.1106157,-9.051876,-3.729984,2.3176558,-5.1191587,-22.834358,7.53784,-8.003782,3.0754843,-0.6239998,1.1582024,8.247976,1.9123896,10.129576,-21.124674,64.045135,5.481873,-0.55755085,8.402,-8.789145,-12.446564,40.357395,68.49967,2.5930667,-2.3013234,-4.223255
58,-0.1931305229663849,1.0327174663543701,79.0361557006836,0.16013889356602523,-0.055499071083410144,-90.57691260180702,2.4253247,4.758596,18.674667,7.1020856,-9.055542,-3.7460136,2.3218164,-5.112036,-22.83961,7.5403476,-8.011137,3.0600777,-0.62446904,1.1576693,8.252003,1.8494796,10.125082,-21.109552,63.971977,5.4508376,-0.5483805,8.389658,-8.825593,-12.453674,40.381573,68.51935,2.622468,-2.3026247,-4.2216616
59,-0.19764676690101624,1.0267285108566284,79.03596496582031,0.15608545346265326,-0.05574396697315788,-90.57519157997416,2.4338143,4.764296,18.671791,7.0957994,-9.060866,-3.7613146,2.3265162,-5.1050234,-22.842354,7.542105,-8.0188,3.0441117,-0.6412571,1.1603163,8.254729,1.7883202,10.113098,-21.085148,63.903915,5.429243,-0.53759456,8.375162,-8.86809,-12.4641075,40.424778,68.54,2.6556573,-2.3023694,-4.2181067
60,-0.2057119756937027,1.015843391418457,79.03636169433594,0.15489248707579484,-0.058261848171852766,-90.57398209648748,2.4451067,4.7679343,18.669947,7.090162,-9.065719,-3.772874,2.3344815,-5.1007886,-22.84205,7.54417,-8.027499,3.033467,-0.65091205,1.1587484,8.253062,1.7311078,10.104672,-21.079987,63.836044,5.4155717,-0.535084,8.35272,-8.901884,-12.469025,40.44199,68.56039,2.6643152,-2.298926,-4.207261
61,-0.20736241340637207,1.0099936723709106,79.03877258300781,0.15645011539062428,-0.06350013959854597,-90.57304348349521,2.457613,4.769342,18.668491,7.089504,-9.07174,-3.7797804,2.345582,-5.1007605,-22.836926,7.549172,-8.039126,3.0305943,-0.6684333,1.1497475,8.240302,1.691342,10.10201,-21.082685,63.767708,5.421859,-0.5506626,8.317446,-8.919473,-12.47006,40.444706,68.57266,2.6444612,-2.2892118,-4.1842732
62,-0.21093255281448364,1.0018471479415894,79.03931427001953,0.16180056615967597,-0.07461512455927392,-90.57187405644797,2.4775546,4.7679276,18.667229,7.087425,-9.076784,-3.78351,2.3658886,-5.1029773,-22.828661,7.5511637,-8.051003,3.0323448,-0.6819058,1.1523647,8.243727,1.6126245,10.080426,-21.112482,63.73211,5.42876,-0.5769194,8.271828,-8.959959,-12.47519,40.43909,68.60277,2.618358,-2.276965,-4.1535754
63,-0.21444278955459595,0.9923986196517944,79.03998565673828,0.1664685051760677,-0.08355289578043486,-90.5715134660389,2.4950275,4.766779,18.66714,7.087818,-9.082949,-3.7851536,2.383595,-5.105625,-22.819502,7.55344,-8.062984,3.0354095,-0.69523793,1.1467081,8.234506,1.553311,10.067459,-21.13812,63.688076,5.4434237,-0.60363644,8.226431,-8.988005,-12.476952,40.429764,68.62416,2.588982,-2.2635443,-4.1214113
64,-0.21802552044391632,0.9823426604270935,79.04054260253906,0.17001144132241414,-0.08908867445456,-90.57117172422868,2.508083,4.7668295,18.667873,7.0904036,-9.089771,-3.7854571,2.397195,-5.1071987,-22.813026,7.556392,-8.075261,3.037106,-0.6905313,1.1470127,8.215381,1.474034,10.036708,-21.176954,63.67498,5.442537,-0.6241077,8.196798,-9.002209,-12.478677,40.394623,68.640724,2.5557268,-2.2517796,-4.0954275
65,-0.22156496345996857,0.9724858999252319,79.03849792480469,0.17201256663804207,-0.08840006904817918,-90.56980058621467,2.5158021,4.7669315,18.669174,7.092833,-9.095976,-3.7813458,2.4038649,-5.1080613,-22.810303,7.557855,-8.086455,3.0354707,-0.69392115,1.1435187,8.192372,1.4063592,10.007821,-21.190819,63.653828,5.43012,-0.6368871,8.178345,-9.01909,-12.479098,40.37368,68.648674,2.5354402,-2.240556,-4.076509
66,-0.22544166445732117,0.9622169733047485,79.0350341796875,0.17482616982178054,-0.08388377808974498,-90.56787848325258,2.5189934,4.767402,18.670925,7.097491,-9.102715,-3.7735264,2.4062192,-5.108714,-22.809507,7.5591125,-8.097858,3.0324178,-0.701726,1.1357031,8.166171,1.3496789,9.982774,-21.191402,63.624493,5.4104586,-0.6453033,8.166015,-9.037617,-12.478636,40.36323,68.64988,2.5259466,-2.2289965,-4.061061
67,-0.23149226605892181,0.9521251320838928,79.03433227539062,0.17485457312180355,-0.07987036820785642,-90.56744251985033,2.5243843,4.769122,18.674164,7.1000586,-9.109183,-3.7684484,2.4109511,-5.1069026,-22.810186,7.5561943,-8.106499,3.030889,-0.7083459,1.1290312,8.1376295,1.2849067,9.9536295,-21.183455,63.610687,5.390341,-0.6525895,8.155127,-9.057745,-12.476776,40.349937,68.65214,2.5247304,-2.2207463,-4.047428
68,-0.23528093099594116,0.942218005657196,79.03190612792969,0.1747477399708046,-0.08045886677320875,-90.57004658006144,2.5370774,4.7728505,18.679863,7.0980964,-9.11522,-3.7725353,2.4229012,-5.1018467,-22.811792,7.5501084,-8.112043,3.0338678,-0.7179444,1.1275394,8.112765,1.2259326,9.913906,-21.163746,63.59263,5.3776426,-0.65516984,8.141059,-9.078468,-12.473111,40.32299,68.653755,2.523362,-2.2167962,-4.0353446
69,-0.24241076409816742,0.9274739027023315,79.03362274169922,0.171190636267089,-0.08695520800006001,-90.57723560054654,2.5615683,4.7799244,18.68976,7.0860734,-9.120243,-3.792064,2.445767,-5.0901904,-22.815475,7.534162,-8.1095085,3.0449438,-0.7275939,1.1323038,8.091772,1.1650745,9.862533,-21.12925,63.58001,5.3772106,-0.65290505,8.120747,-9.101884,-12.467422,40.27627,68.65898,2.5295813,-2.2211525,-4.0240307
70,-0.24643482267856598,0.916613757610321,79.03480529785156,0.1667126163118533,-0.09690471165364277,-90.5876403087313,2.5926018,4.789837,18.702646,7.0686574,-9.12469,-3.8221054,2.4753857,-5.0739164,-22.820955,7.5125637,-8.102434,3.061519,-0.73731136,1.1340814,8.077555,1.1183019,9.822502,-21.083464,63.546757,5.3799477,-0.64488167,8.093251,-9.124476,-12.461984,40.2203,68.65226,2.5497088,-2.2312486,-4.012919
71,-0.2481178194284439,0.9078615307807922,79.03369903564453,0.16211228920744428,-0.10966111358353753,-90.59926035540018,2.627472,4.7994733,18.715809,7.0504766,-9.128688,-3.8522508,2.5076492,-5.0580573,-22.825912,7.4928417,-8.09621,3.077575,-0.7463329,1.1395681,8.062749,1.0649467,9.770361,-21.034723,63.526234,5.383125,-0.6366228,8.0673275,-9.148615,-12.45434,40.1568,68.65055,2.5630639,-2.2420232,-4.003845
72,-0.25222402811050415,0.8968222737312317,79.0333251953125,0.15929055143615561,-0.12438626840246214,-90.61005817715609,2.6599514,4.807208,18.726135,7.0431614,-9.135578,-3.872163,2.5382593,-5.0475845,-22.82823,7.4826255,-8.096628,3.0868907,-0.75591344,1.1365825,8.051582,1.0266764,9.739398,-20.998339,63.48226,5.367889,-0.630028,8.040047,-9.169325,-12.449566,40.107708,68.6343,2.5731285,-2.2474656,-3.9965043
73,-0.2546357214450836,0.8851865530014038,79.03013610839844,0.15992384153174583,-0.14202731493950796,-90.61954022616857,2.689081,4.8114834,18.732067,7.0486436,-9.142814,-3.8766923,2.5647213,-5.045949,-22.827532,7.48862,-8.106851,3.085242,-0.7641648,1.1308287,8.042212,0.9842621,9.71022,-20.9722,63.442024,5.336626,-0.6258857,8.014863,-9.187236,-12.444884,40.06093,68.61331,2.5580633,-2.2446947,-3.9894698
74,-0.25916433334350586,0.8752756118774414,79.03007507324219,0.16318797447230876,-0.16262234470387432,-90.62882760776395,2.716343,4.8141384,18.735441,7.0657206,-9.152671,-3.8721697,2.5902107,-5.0496626,-22.824993,7.5059924,-8.124597,3.0768168,-0.769068,1.1253884,8.033144,0.93461347,9.674925,-20.955175,63.411438,5.293519,-0.62284553,7.9926057,-9.205752,-12.439472,40.014732,68.593056,2.530905,-2.2371438,-3.9835467
75,-0.2629971206188202,0.866532027721405,79.02934265136719,0.1664236885219859,-0.18445624996915627,-90.63820485529902,2.7455964,4.816444,18.738434,7.0825458,-9.163244,-3.8653243,2.6164076,-5.0539045,-22.820238,7.5241113,-8.143064,3.0679862,-0.77206653,1.120403,8.021869,0.8838055,9.637671,-20.94326,63.38607,5.249605,-0.623234,7.9729323,-9.222894,-12.434187,39.971146,68.57319,2.5030077,-2.2301214,-3.9813354
76,-0.26725998520851135,0.8528915047645569,79.02709197998047,0.16760291440153713,-0.20535026544582125,-90.64772315301335,2.777603,4.819783,18.74345,7.093593,-9.17572,-3.8628905,2.6446004,-5.0546756,-22.813068,7.5352616,-8.158037,3.065383,-0.779319,1.1119192,8.009062,0.8517718,9.612894,-20.929348,63.34482,5.2134833,-0.63144755,7.9536176,-9.236883,-12.430879,39.937565,68.5459,2.4892309,-2.2280679,-3.9845417
77,-0.270622581243515,0.8410764932632446,79.02458190917969,0.16780995950683203,-0.2240928074665092,-90.65752664804471,2.811801,4.8255463,18.75032,7.0973454,-9.191419,-3.866399,2.6758015,-5.049353,-22.802933,7.5329485,-8.165697,3.072427,-0.7841041,1.1075774,7.9885683,0.81510556,9.576578,-20.912075,63.323048,5.1984897,-0.6572617,7.942351,-9.252844,-12.426654,39.905754,68.52737,2.4927065,-2.2359889,-3.9983156
78,-0.27506816387176514,0.8274667859077454,79.02397155761719,0.1667529803545854,-0.241684538274049,-90.66747555412972,2.8465848,4.832806,18.758167,7.100157,-9.211665,-3.872309,2.706334,-5.0418615,-22.789919,7.5279064,-8.171508,3.0851097,-0.78969795,1.1013347,7.9636483,0.77871025,9.543046,-20.893698,63.310215,5.1908007,-0.69773006,7.9334154,-9.268382,-12.422823,39.884933,68.50827,2.5137353,-2.250734,-4.019412
79,-0.278506875038147,0.8146916627883911,79.02339172363281,0.16678085363389153,-0.26099689066785514,-90.6776513194295,2.8853953,4.840146,18.767746,7.099547,-9.231314,-3.8799357,2.74017,-5.0333247,-22.775364,7.520527,-8.177167,3.0985801,-0.79827124,1.0971526,7.9384,0.75107205,9.507834,-20.874403,63.29207,5.1889353,-0.7328887,7.9247293,-9.285138,-12.419204,39.86785,68.49219,2.5319846,-2.264339,-4.039647
80,-0.28327158093452454,0.801010251045227,79.02263641357422,0.1660444810729557,-0.285019258509766,-90.68832959324952,2.929043,4.8473296,18.78022,7.1001306,-9.249984,-3.888622,2.7781215,-5.0255427,-22.760225,7.5180717,-8.188197,3.1078675,-0.8084217,1.0922397,7.9174848,0.7268469,9.478889,-20.857365,63.269356,5.184932,-0.7491568,7.907867,-9.297488,-12.416041,39.841507,68.47322,2.5255527,-2.2710743,-4.048093
81,-0.28515294194221497,0.7865721583366394,79.02344512939453,0.1632663549146972,-0.3157133663798371,-90.69972652574107,2.9792159,4.8546743,18.797691,7.104131,-9.268236,-3.8988173,2.8236194,-5.0181527,-22.743252,7.519046,-8.204213,3.1128304,-0.81420666,1.0953786,7.8969245,0.6884526,9.433734,-20.846886,63.268368,5.18387,-0.7357593,7.885229,-9.311947,-12.411395,39.800095,68.4715,2.4814858,-2.2665029,-4.0389075
82,-0.2924700081348419,0.7679599523544312,79.02291107177734,0.16193582793676786,-0.3511314167624916,-90.71167413253647,3.0355313,4.8621435,18.819214,7.107078,-9.285052,-3.9107757,2.8731446,-5.011119,-22.724037,7.5253763,-8.225665,3.1157346,-0.82175624,1.0955446,7.8816915,0.66313773,9.402342,-20.83903,63.249496,5.181127,-0.7016661,7.8531523,-9.318375,-12.407836,39.749146,68.46039,2.4099267,-2.2539594,-4.0176806
83,-0.2947201132774353,0.7517402768135071,79.02206420898438,0.16106225654562428,-0.3878888501586748,-90.72366798059002,3.092126,4.869638,18.839954,7.112839,-9.3028555,-3.9231336,2.9239187,-5.004566,-22.706205,7.5320067,-8.248092,3.1150982,-0.8349644,1.0910944,7.8702106,0.6542357,9.387674,-20.8317,63.210606,5.174608,-0.663776,7.8170853,-9.326734,-12.406057,39.70937,68.44495,2.3476315,-2.2419658,-3.9952817
84,-0.2961941957473755,0.7383486032485962,79.02022552490234,0.15850781566119565,-0.4231318730520829,-90.73538731056858,3.146898,4.876487,18.855589,7.117378,-9.319488,-3.9346535,2.969869,-4.9999685,-22.692823,7.5438385,-8.272825,3.109548,-0.84553677,1.0854888,7.8609967,0.63877535,9.372441,-20.827318,63.179745,5.1692567,-0.64068305,7.7848177,-9.336244,-12.404085,39.66713,68.426674,2.3086073,-2.2390547,-3.980553
85,-0.2951028347015381,0.7290673851966858,79.01309967041016,0.15773193840619015,-0.45642553189476537,-90.74621607763245,3.1961863,4.884548,18.862354,7.1264853,-9.337155,-3.9456298,3.0111196,-4.996378,-22.68757,7.5587854,-8.298552,3.0943635,-0.85165095,1.084109,7.8535814,0.61569214,9.350251,-20.829403,63.158134,5.169797,-0.6332851,7.7598987,-9.350906,-12.401738,39.617783,68.41172,2.3035715,-2.249424,-3.977519
86,-0.2980186939239502,0.7198584675788879,79.01416015625,0.15486347160005526,-0.4893534665002057,-90.75734413997681,3.2436957,4.8934736,18.864296,7.1381083,-9.355518,-3.9567173,3.0491445,-4.993575,-22.686905,7.578452,-8.326772,3.0716617,-0.86110014,1.0780296,7.8478374,0.5878294,9.338688,-20.83246,63.144165,5.166899,-0.6383131,7.731732,-9.366799,-12.400437,39.581554,68.39151,2.331354,-2.270219,-3.9798925
87,-0.3047577440738678,0.7069605588912964,79.01234436035156,0.15397983734533605,-0.5212005939836424,-90.76815462193575,3.2897606,4.9004,18.865473,7.1494617,-9.373598,-3.9664392,3.085133,-4.99291,-22.686337,7.5990186,-8.355444,3.0504801,-0.87249714,1.0710322,7.842199,0.56896687,9.329013,-20.83533,63.12347,5.162619,-0.6495011,7.7096763,-9.383022,-12.399452,39.549816,68.370964,2.362653,-2.2909946,-3.9864998
88,-0.3130302429199219,0.6900740265846252,79.01034545898438,0.15489426291701974,-0.5519640172091762,-90.77941138072089,3.3362372,4.9032903,18.871132,7.1572394,-9.3908205,-3.9736736,3.1206067,-4.9955845,-22.679892,7.6163745,-8.381804,3.0397837,-0.8695217,1.0648361,7.833389,0.5382552,9.31165,-20.845158,63.122322,5.158797,-0.66725713,7.700044,-9.397431,-12.398502,39.504444,68.3596,2.36849,-2.3054893,-3.9936264
89,-0.31537163257598877,0.6794632077217102,79.00888061523438,0.16272135126513304,-0.5789898147455044,-90.79112837353544,3.3822825,4.898046,18.883518,7.1563206,-9.404851,-3.9776044,3.1544592,-5.0029263,-22.665257,7.625337,-8.403541,3.0440066,-0.8670061,1.0506755,7.8168917,0.50708395,9.299846,-20.850498,63.134296,5.1460395,-0.70157665,7.7035847,-9.410771,-12.398541,39.48211,68.350586,2.361244,-2.3117168,-4.0054846
90,-0.31506866216659546,0.6666200160980225,79.00811004638672,0.1723635455551449,-0.599474968457751,-90.80188272013284,3.4187472,4.889372,18.89791,7.158365,-9.420154,-3.9790294,3.1827688,-5.013428,-22.647163,7.6285515,-8.421618,3.0574732,-0.87049687,1.0327591,7.793307,0.49369186,9.297587,-20.849781,63.12793,5.1297226,-0.73935765,7.7163434,-9.427238,-12.398791,39.47794,68.34378,2.3474398,-2.311826,-4.021327
91,-0.31524771451950073,0.6557095050811768,79.0062255859375,0.1830278701017221,-0.6290801205045885,-90.81482965078138,3.4718523,4.8777637,18.916039,7.149538,-9.432046,-3.9791489,3.219366,-5.0259748,-22.624853,7.636466,-8.442667,3.0748408,-0.86918366,1.0151061,7.7782865,0.47180933,9.289753,-20.848045,63.146305,5.113138,-0.78967,7.73388,-9.437776,-12.399796,39.46508,68.33862,2.3198495,-2.310522,-4.0364738
92,-0.3164179027080536,0.6391815543174744,79.00286865234375,0.18905301290498291,-0.6609821918145962,-90.82810712690154,3.5240803,4.8732567,18.932215,7.1515174,-9.449538,-3.9786708,3.2615235,-5.032215,-22.603891,7.641733,-8.461936,3.0890152,-0.8677043,1.0034771,7.7619734,0.45303446,9.281228,-20.84826,63.160797,5.0983405,-0.81812966,7.738317,-9.447982,-12.401482,39.45668,68.33998,2.3087168,-2.308934,-4.040166
93,-0.3164300322532654,0.6231814026832581,79.00018310546875,0.1918153509952919,-0.701396610753639,-90.84316511972713,3.583233,4.877814,18.947636,7.166439,-9.474972,-3.9761243,3.3142395,-5.0315123,-22.581747,7.649773,-8.482995,3.10025,-0.8691472,0.99777204,7.749192,0.4425232,9.275551,-20.850496,63.171017,5.0816383,-0.8243175,7.726656,-9.452838,-12.402952,39.44987,68.34651,2.3068807,-2.3070657,-4.0284553
94,-0.32257726788520813,0.6092213988304138,79.00370788574219,0.19005321111847118,-0.7474460537941279,-90.85959175821216,3.6484358,4.8871946,18.963305,7.1861706,-9.503673,-3.9715884,3.3749318,-5.026362,-22.55784,7.6574435,-8.504252,3.1113439,-0.86975193,0.9947412,7.7397685,0.43690154,9.272356,-20.854412,63.17876,5.06423,-0.81645584,7.7052565,-9.457646,-12.404098,39.447334,68.3594,2.3147554,-2.304128,-4.006049
95,-0.32375672459602356,0.5905022025108337,79.00074005126953,0.18670927437141782,-0.7959016550085091,-90.8760586217129,3.7160783,4.898691,18.978212,7.20656,-9.53318,-3.968681,3.4392037,-5.018812,-22.536053,7.664922,-8.524657,3.1200864,-0.87042207,0.9951906,7.729915,0.43349096,9.269728,-20.858912,63.190372,5.0470243,-0.80374295,7.6808333,-9.457096,-12.405403,39.44123,68.374084,2.3237138,-2.3014777,-3.982033
96,-0.3227632939815521,0.5702587962150574,78.9970474243164,0.18353895350898014,-0.841755257320936,-90.89111918428596,3.7794564,4.90904,18.991041,7.2260947,-9.562229,-3.970802,3.4986372,-5.0124593,-22.520296,7.676226,-8.54453,3.124235,-0.8704542,0.99642783,7.7205405,0.42905295,9.268084,-20.859142,63.20527,5.03481,-0.7945074,7.658582,-9.457889,-12.4068575,39.43207,68.3886,2.3391745,-2.3004408,-3.964162
97,-0.32226625084877014,0.5558701753616333,78.99391174316406,0.17725188502952,-0.8837908452106339,-90.90433585221811,3.8404114,4.917574,19.00054,7.233731,-9.584436,-3.9818857,3.5528712,-5.0057044,-22.514809,7.6894574,-8.560561,3.119447,-0.87064683,1.0010432,7.7116313,0.42298958,9.266927,-20.85074,63.223152,5.0249076,-0.7920035,7.6334643,-9.461842,-12.409322,39.41791,68.40382,2.3654826,-2.3017528,-3.9529548
98,-0.3226800560951233,0.5431697368621826,78.99381256103516,0.16972568585809003,-0.9245468157906656,-90.91649285905892,3.898699,4.9272084,19.007639,7.2403603,-9.606095,-3.9990957,3.6057851,-4.9974318,-22.516628,7.7030854,-8.573023,3.1080723,-0.87285274,1.008164,7.705941,0.41526407,9.267038,-20.831852,63.243492,5.0201263,-0.79164994,7.6033773,-9.464361,-12.411945,39.396767,68.41464,2.3935149,-2.3037128,-3.9441476
99,-0.3233652412891388,0.5337882041931152,78.9913330078125,0.16401220005020556,-0.9654697018043905,-90.92804691175277,3.9561977,4.935378,19.014736,7.247537,-9.627939,-4.015879,3.6580813,-4.9908743,-22.518127,7.71781,-8.58775,3.098298,-0.87692535,1.0140626,7.700254,0.41049185,9.268393,-20.80845,63.266373,5.0256166,-0.7900702,7.5806727,-9.464874,-12.4148445,39.374046,68.425514,2.4186933,-2.3068488,-3.9393277
100,-0.32497042417526245,0.5208452939987183,78.98955535888672,0.16238796428337465,-1.0085402957011598,-90.93969889367179,4.0169387,4.9390717,19.024704,7.2540984,-9.649581,-4.0255904,3.713616,-4.988606,-22.512419,7.727794,-8.606306,3.098558,-0.87808233,1.0145557,7.6952305,0.4056671,9.270272,-20.790379,63.295742,5.0479665,-0.7841076,7.577893,-9.4652605,-12.416918,39.359337,68.438065,2.444431,-2.3108819,-3.9402566
101,-0.32833385467529297,0.5085234045982361,78.98822784423828,0.16910035224103614,-1.0568162201671836,-90.95177271834558,4.0842834,4.935375,19.039816,7.261055,-9.672135,-4.02365,3.774259,-4.9951105,-22.494257,7.735042,-8.63433,3.1154592,-0.87659824,1.00501,7.6942716,0.40068695,9.27328,-20.773804,63.332706,5.1066313,-0.76970863,7.603534,-9.461864,-12.419186,39.34845,68.447044,2.4646435,-2.317224,-3.950629
102,-0.33150559663772583,0.4946424067020416,78.98639678955078,0.18224612128222997,-1.1084639110306262,-90.9638912881565,4.1551156,4.927379,19.058159,7.2700677,-9.696583,-4.0146513,3.8394618,-5.0064306,-22.468927,7.7381725,-8.66799,3.1430016,-0.8754235,0.98853314,7.6964574,0.39692825,9.27816,-20.754221,63.3745,5.19382,-0.74976116,7.648337,-9.452496,-12.422048,39.33744,68.44926,2.4763944,-2.325246,-3.9684374
103,-0.33128222823143005,0.48181065917015076,78.98143768310547,0.19366770333794855,-1.1580898454465012,-90.97548419972111,4.2226377,4.9196243,19.075638,7.2796483,-9.719853,-4.0054235,3.9017804,-5.0177116,-22.443293,7.7413445,-8.700706,3.1706831,-0.87485486,0.96996677,7.6998663,0.3961199,9.288896,-20.729706,63.414074,5.2794437,-0.7317559,7.695346,-9.441584,-12.427477,39.328384,68.44653,2.4839983,-2.3317807,-3.9838693
104,-0.3303714394569397,0.4675281345844269,78.97917175292969,0.20045521534694088,-1.2002161109047746,-90.98604886886326,4.279755,4.91743,19.088396,7.2907367,-9.741048,-4.002902,3.9546034,-5.0232267,-22.424303,7.746751,-8.725464,3.1879559,-0.8710269,0.9622493,7.692052,0.39574012,9.294669,-20.718172,63.45953,5.3234854,-0.7218417,7.7368817,-9.433825,-12.429928,39.323463,68.458565,2.4910634,-2.3332365,-3.9922073
105,-0.3307088613510132,0.4563150405883789,78.97865295410156,0.19851117026849813,-1.232422162048418,-90.99562664747317,4.3210983,4.9239407,19.094704,7.30903,-9.762007,-4.011243,3.9968104,-5.0192637,-22.414196,7.7509904,-8.73726,3.1896214,-0.86793864,0.95851827,7.67682,0.3985089,9.305637,-20.69642,63.50319,5.3260694,-0.72637963,7.7616105,-9.416417,-12.434399,39.31571,68.45848,2.4825218,-2.3247712,-3.983394
106,-0.3334471583366394,0.4484747052192688,78.97975158691406,0.18941357654329627,-1.2565756923517097,-91.00388847210064,4.3301663,4.9443707,19.09434,7.376022,-9.805126,-4.026288,4.0278425,-5.0092845,-22.409546,7.759868,-8.743674,3.181912,-0.8632923,0.963394,7.654465,0.40179536,9.31559,-20.679499,63.548035,5.293766,-0.73911893,7.7823095,-9.402974,-12.438371,39.31153,68.465866,2.4706862,-2.3106403,-3.964889
107,-0.33327826857566833,0.43778350949287415,78.97793579101562,0.1783326610352667,-1.2789880191422855,-91.01102487492868,4.3371134,4.9665484,19.092033,7.441128,-9.846447,-4.0418863,4.0576334,-4.9966426,-22.40801,7.766773,-8.745757,3.171831,-0.8580363,0.97082263,7.6301875,0.40458325,9.326776,-20.662481,63.598053,5.254866,-0.7550569,7.7974176,-9.389416,-12.442716,39.30864,68.47731,2.4593794,-2.2966769,-3.9461095
108,-0.33228302001953125,0.42661720514297485,78.9760513305664,0.1680682687421982,-1.30516226004958,-91.01626924911699,4.3481145,4.988249,19.089602,7.5050287,-9.888852,-4.0524426,4.0934157,-4.9845533,-22.408361,7.7712274,-8.747902,3.1663644,-0.8590832,0.97431993,7.6149893,0.41815692,9.3475065,-20.636164,63.63486,5.2374845,-0.7672007,7.802646,-9.367756,-12.450308,39.301987,68.47463,2.445674,-2.2865367,-3.9362087
109,-0.33299630880355835,0.4180261492729187,78.97563934326172,0.15964850920600704,-1.3372842739101367,-91.01882962637448,4.365246,5.0096846,19.086452,7.568486,-9.9342985,-4.0550084,4.137706,-4.9732757,-22.411627,7.7739263,-8.749639,3.1684048,-0.8613734,0.97724515,7.606718,0.43145713,9.37157,-20.609592,63.677586,5.245687,-0.7785236,7.796402,-9.342541,-12.457921,39.29058,68.47274,2.436158,-2.2843885,-3.9409068
110,-0.3318689167499542,0.41033726930618286,78.97445678710938,0.15114290019525012,-1.372410712648597,-91.01909419533374,4.3829665,5.032642,19.081573,7.6356807,-9.983294,-4.0531716,4.186649,-4.9614916,-22.418287,7.7750807,-8.749403,3.1740193,-0.866274,0.9808865,7.6039004,0.44928107,9.39583,-20.57935,63.718853,5.2696676,-0.789308,7.782154,-9.3139925,-12.464777,39.276257,68.46819,2.4260514,-2.284466,-3.9555848
111,-0.3315300941467285,0.40425607562065125,78.9718017578125,0.14255049377702847,-1.4075835667613195,-91.01910634940035,4.402198,5.0543933,19.077717,7.699414,-10.030438,-4.050669,4.2349925,-4.950356,-22.42466,7.7770004,-8.751089,3.1794944,-0.87092,0.98524874,7.600551,0.46931726,9.418249,-20.549494,63.75913,5.299214,-0.79343253,7.7686944,-9.284695,-12.470358,39.261402,68.46713,2.4166863,-2.2863665,-3.9723046
112,-0.3327215313911438,0.3966831564903259,78.97112274169922,0.13549052170838344,-1.439817814690546,-91.0208677151289,4.4211736,5.0730047,19.077246,7.7576327,-10.072743,-4.05126,4.2784386,-4.9416685,-22.427221,7.779926,-8.757466,3.1813154,-0.8709392,0.9913418,7.589891,0.48423412,9.432555,-20.527891,63.809284,5.3224545,-0.78810734,7.767809,-9.25639,-12.473497,39.24964,68.47668,2.4113114,-2.2885308,-3.9848838
113,-0.32958123087882996,0.38823315501213074,78.9648666381836,0.1301861503216421,-1.4687646900137261,-91.02559495356776,4.4427066,5.0874047,19.08317,7.8055716,-10.107552,-4.057636,4.314361,-4.9356337,-22.423933,7.7867694,-8.772201,3.1771636,-0.86778986,0.9929261,7.577169,0.5018732,9.451546,-20.507267,63.850502,5.3433294,-0.7655601,7.7778115,-9.228132,-12.47752,39.240273,68.485016,2.4038472,-2.2903361,-3.988541
114,-0.3315708637237549,0.37964028120040894,78.96367645263672,0.12825931477785274,-1.4958092386158495,-91.0318830186127,4.4667287,5.098238,19.093231,7.845562,-10.136794,-4.067174,4.348007,-4.931433,-22.417213,7.791899,-8.790765,3.1694913,-0.86541986,0.98748606,7.567399,0.53860223,9.484513,-20.486876,63.860935,5.363131,-0.7272633,7.7929697,-9.190958,-12.484394,39.22873,68.47669,2.388788,-2.2901883,-3.988622
115,-0.33707112073898315,0.3707708716392517,78.96510314941406,0.12586897808415223,-1.521071718696067,-91.03811849446848,4.4872193,5.1075664,19.10288,7.8873115,-10.16618,-4.075949,4.377121,-4.92978,-22.409582,7.801269,-8.812151,3.1614954,-0.85941523,0.98351604,7.55352,0.56796104,9.511964,-20.470686,63.884655,5.378822,-0.69036025,7.8120728,-9.153778,-12.490136,39.21593,68.475655,2.3814938,-2.2917893,-3.986538
116,-0.3363398015499115,0.36414477229118347,78.96353912353516,0.1258691561115785,-1.5447753417422105,-91.04245118312996,4.5036974,5.1150365,19.107384,7.9286947,-10.194879,-4.079893,4.404353,-4.930743,-22.404509,7.810698,-8.829514,3.1566155,-0.852647,0.98194474,7.538221,0.5914123,9.529307,-20.451405,63.922596,5.391961,-0.6671251,7.8299704,-9.119339,-12.493734,39.200962,68.48324,2.389566,-2.2951837,-3.9838984
117,-0.33485129475593567,0.36019814014434814,78.96484375,0.12505857475992466,-1.5672715568976465,-91.04386838534313,4.5126944,5.1210084,19.103563,7.976987,-10.22803,-4.0769835,4.4301324,-4.9353905,-22.40396,7.8205943,-8.841878,3.1552231,-0.84829414,0.97336584,7.534559,0.6248026,9.556774,-20.415293,63.942657,5.4090433,-0.6620765,7.8381095,-9.081723,-12.499944,39.176376,68.47164,2.419195,-2.2985902,-3.9770546
118,-0.3336658179759979,0.3575363755226135,78.96223449707031,0.1271426543750885,-1.5879520933216946,-91.04357950715399,4.516457,5.124994,19.094725,8.027789,-10.262548,-4.0696316,4.4535522,-4.9432597,-22.405928,7.8318496,-8.852216,3.1557243,-0.845699,0.96217287,7.532854,0.66024685,9.587072,-20.371151,63.96267,5.4244184,-0.66930926,7.842936,-9.0433855,-12.507583,39.146526,68.4573,2.4646096,-2.3039145,-3.9664032
119,-0.33291247487068176,0.35489633679389954,78.95980834960938,0.12850561788132284,-1.6072666771347408,-91.04271440013402,4.518818,5.1279736,19.085127,8.076003,-10.294359,-4.060805,4.475088,-4.951293,-22.407356,7.8418174,-8.860327,3.158237,-0.84092456,0.953241,7.5293865,0.6901219,9.610623,-20.330017,63.9929,5.434657,-0.6802442,7.8475447,-9.007189,-12.513897,39.12101,68.45068,2.5126212,-2.310139,-3.9564915
120,-0.3288596570491791,0.3514424264431,78.95308685302734,0.1312090352601332,-1.6257727631966012,-91.04265030511807,4.523364,5.130138,19.079382,8.117711,-10.320292,-4.0533557,4.495442,-4.957639,-22.405045,7.8494296,-8.867205,3.1631393,-0.83347094,0.9537745,7.5191984,0.71287835,9.617428,-20.310825,64.03682,5.4257736,-0.6833789,7.86013,-8.977706,-12.515693,39.108078,68.46687,2.5440717,-2.3150208,-3.9546187
121,-0.3269652724266052,0.34779423475265503,78.95059967041016,0.13190418565149725,-1.6438464735533755,-91.04291039844017,4.529294,5.133321,19.078045,8.155188,-10.339913,-4.0482707,4.516334,-4.9599094,-22.397127,7.8508573,-8.8716545,3.1731842,-0.8280506,0.95468676,7.5095673,0.73689854,9.622678,-20.292927,64.07638,5.408985,-0.6780588,7.8679214,-8.945814,-12.517139,39.09726,68.48338,2.531093,-2.3192275,-3.9566963
122,-0.3270336985588074,0.3482804298400879,78.9490966796875,0.1340888513748006,-1.660830004421109,-91.04291551173948,4.532977,5.1376343,19.078487,8.195021,-10.358063,-4.0440044,4.5368605,-4.959584,-22.3857,7.8478613,-8.873897,3.1872654,-0.83230865,0.9429355,7.5131974,0.7890572,9.662259,-20.250793,64.068,5.3937845,-0.6685609,7.8597894,-8.898587,-12.528495,39.08016,68.46294,2.478872,-2.3220873,-3.9576352
123,-0.32460612058639526,0.3490690290927887,78.95050048828125,0.13461740455488036,-1.675514687886468,-91.04342544518197,4.535574,5.1414557,19.08044,8.229741,-10.372271,-4.039791,4.5537753,-4.9588566,-22.374563,7.844979,-8.874686,3.1995587,-0.8279369,0.94230515,7.5049877,0.82281023,9.678145,-20.235754,64.09357,5.36714,-0.65757585,7.862458,-8.85901,-12.53275,39.072166,68.47297,2.4323564,-2.3238194,-3.962116
124,-0.3213749825954437,0.350233793258667,78.9516830444336,0.13300092991471635,-1.6852057552403354,-91.04396986911122,4.5309644,5.1464887,19.081648,8.265405,-10.387161,-4.035109,4.5623355,-4.9582253,-22.368288,7.846608,-8.8744955,3.2037935,-0.82182854,0.9371447,7.5003924,0.86419505,9.702494,-20.210314,64.10703,5.363697,-0.64659226,7.8618283,-8.82059,-12.539412,39.06502,68.47554,2.4000492,-2.3201804,-3.9592268
125,-0.3205188810825348,0.3521302342414856,78.95299530029297,0.13130280328790692,-1.6871543561549665,-91.04372512324795,4.5145288,5.153519,19.081537,8.303985,-10.403209,-4.028861,4.5582933,-4.9581294,-22.369398,7.8551517,-8.873792,3.1942017,-0.815043,0.93300784,7.4917345,0.90933204,9.72271,-20.171095,64.121666,5.394106,-0.63297117,7.8630424,-8.777547,-12.544915,39.0521,68.4738,2.3735383,-2.3067448,-3.9483771
126,-0.32029783725738525,0.35335487127304077,78.95327758789062,0.12726780819564198,-1.682993445439762,-91.04306634031789,4.488662,5.1624355,19.080868,8.345371,-10.419733,-4.021676,4.545231,-4.9575915,-22.374945,7.866424,-8.871249,3.1753047,-0.8022286,0.9307608,7.4774337,0.94657207,9.735169,-20.130281,64.15286,5.4444823,-0.6197987,7.866424,-8.73842,-12.548399,39.042683,68.48195,2.3593802,-2.2879834,-3.9323971
127,-0.3192693889141083,0.35773858428001404,78.95410919189453,0.12367672145496865,-1.6789197584388074,-91.04399407704999,4.4667263,5.169993,19.081339,8.37753,-10.4323635,-4.0155373,4.5312176,-4.9573464,-22.381632,7.879357,-8.86806,3.1570847,-0.7876682,0.9316114,7.464301,0.9793639,9.743025,-20.09508,64.19112,5.494613,-0.60903037,7.8720827,-8.701757,-12.550371,39.033176,68.49744,2.351797,-2.2700975,-3.9153593
128,-0.31618714332580566,0.3601211905479431,78.95454406738281,0.11899321919747953,-1.6786174114668446,-91.04710823623293,4.4512,5.17721,19.082119,8.4050455,-10.444491,-4.0125823,4.524895,-4.955154,-22.387623,7.885512,-8.86147,3.14898,-0.77605754,0.93547815,7.4570436,1.0154887,9.747723,-20.068508,64.225006,5.536948,-0.60432124,7.880886,-8.666014,-12.551565,39.024017,68.51329,2.3463104,-2.2552793,-3.9027076
129,-0.3153960108757019,0.36191508173942566,78.95577239990234,0.1132611138609374,-1.6857234028448254,-91.05430197496705,4.450866,5.1839623,19.083847,8.419116,-10.453426,-4.0167484,4.5349855,-4.9484024,-22.395256,7.877726,-8.847661,3.1574626,-0.77375823,0.938997,7.4580307,1.0619947,9.756975,-20.026684,64.2517,5.589987,-0.6119954,7.884186,-8.630264,-12.553781,39.011543,68.52808,2.3455143,-2.2491677,-3.8879795
130,-0.308136910200119,0.3704415261745453,78.95162200927734,0.10711479319564417,-1.6978947344506101,-91.06385147537529,4.46229,5.1894226,19.085842,8.420414,-10.458334,-4.025666,4.555675,-4.9392495,-22.405117,7.8620853,-8.829311,3.1762233,-0.7833495,0.9415629,7.4760456,1.1284122,9.777123,-19.975506,64.24711,5.64967,-0.6254704,7.884585,-8.601595,-12.558362,39.004547,68.53539,2.3517783,-2.2459233,-3.8727784
131,-0.3051547706127167,0.375264972448349,78.95228576660156,0.1021938583946943,-1.709777553202442,-91.07500224005096,4.475267,5.1923327,19.09004,8.416615,-10.460393,-4.0323696,4.5710125,-4.9332857,-22.409637,7.8530607,-8.814167,3.1955976,-0.784043,0.94206583,7.4939647,1.1892061,9.801839,-19.947355,64.24646,5.6810675,-0.6416533,7.887588,-8.5726185,-12.563193,39.00219,68.545525,2.3666131,-2.2447393,-3.861758
132,-0.30139240622520447,0.3788069188594818,78.95220184326172,0.10185707736455196,-1.716808329355795,-91.08580038140107,4.4801936,5.1915827,19.09723,8.415544,-10.46016,-4.0297422,4.573529,-4.9328437,-22.402916,7.8499174,-8.8028145,3.2058153,-0.77559066,0.9433544,7.507694,1.2374591,9.814188,-19.931204,64.257545,5.6811204,-0.6543175,7.897446,-8.542127,-12.56535,38.99424,68.55981,2.3609238,-2.2407815,-3.858575
133,-0.29599714279174805,0.3878366947174072,78.95002746582031,0.10839676493462758,-1.7172169344768797,-91.09579647653943,4.4730887,5.1851125,19.108606,8.421379,-10.45923,-4.0125713,4.5546412,-4.9430847,-22.37793,7.863055,-8.802048,3.2030215,-0.75713706,0.9381015,7.5212407,1.2708224,9.820019,-19.920815,64.275925,5.6335025,-0.66587627,7.911255,-8.520123,-12.566584,38.993156,68.578964,2.3366117,-2.2325506,-3.8623579
134,-0.29251042008399963,0.40051913261413574,78.95157623291016,0.11688167415876113,-1.7152076304250072,-91.10368868225123,4.459518,5.1752815,19.121017,8.432418,-10.458168,-3.985783,4.528425,-4.9581623,-22.342573,7.877215,-8.803565,3.1928864,-0.73442066,0.92992765,7.5400615,1.2944214,9.822262,-19.91473,64.296196,5.5565996,-0.6766713,7.927824,-8.501553,-12.567164,38.99306,68.598366,2.2984579,-2.2227612,-3.8721979
135,-0.2914547920227051,0.4124926030635834,78.95423126220703,0.1294949901808887,-1.7069895205285466,-91.11724755141321,4.4423637,5.1608644,19.1402,8.435813,-10.451465,-3.9570677,4.4625506,-4.9890723,-22.296898,7.9585915,-8.837814,3.1800895,-0.720404,0.9159086,7.5549607,1.3417119,9.834521,-19.89104,64.29031,5.4733977,-0.6852501,7.940821,-8.477947,-12.570428,38.99858,68.60348,2.2471664,-2.210699,-3.883793
136,-0.28834453225135803,0.4259822964668274,78.95953369140625,0.13716099826979694,-1.70183751121303,-91.12955170994677,4.4270296,5.151444,19.155666,8.43884,-10.443353,-3.9351492,4.405339,-5.012822,-22.262957,8.03093,-8.863946,3.168951,-0.7054943,0.90867966,7.579867,1.3804336,9.844965,-19.875315,64.286255,5.424039,-0.6837123,7.9523344,-8.4600935,-12.573307,39.001358,68.61195,2.2239468,-2.2041104,-3.897816
137,-0.2839207053184509,0.44150644540786743,78.96141052246094,0.1388644142415325,-1.700987945088509,-91.14250701074913,4.418033,5.1479225,19.168676,8.436103,-10.431,-3.922897,4.3617673,-5.0258794,-22.242403,8.08784,-8.877332,3.1598947,-0.6901154,0.91045606,7.61147,1.4166473,9.850783,-19.86488,64.28207,5.418879,-0.66716963,7.9618263,-8.44583,-12.575106,39.001152,68.62512,2.2294743,-2.204144,-3.9157147
138,-0.2779310345649719,0.4539903700351715,78.96305084228516,0.13522352004204655,-1.7027600050958909,-91.15565694897221,4.4104443,5.14945,19.180237,8.434044,-10.4177,-3.915929,4.3271265,-5.030949,-22.229649,8.131643,-8.880795,3.1506658,-0.676502,0.91922677,7.6466994,1.448721,9.855351,-19.856821,64.28213,5.4375186,-0.64058185,7.970983,-8.43132,-12.57667,38.996555,68.64085,2.2463899,-2.2083492,-3.9382737
139,-0.2724676728248596,0.4722769260406494,78.96062469482422,0.13127494764963005,-1.7004781624813872,-91.17034255465997,4.399224,5.1502748,19.19241,8.426877,-10.400443,-3.910546,4.286502,-5.036191,-22.218855,8.176603,-8.882214,3.1415536,-0.66295946,0.92833805,7.6846385,1.483173,9.860461,-19.848122,64.274216,5.468329,-0.6134493,7.977972,-8.4190235,-12.578542,38.988407,68.65243,2.273302,-2.2138538,-3.9593346
140,-0.2692178785800934,0.49214038252830505,78.960205078125,0.1294664089945924,-1.688912891547575,-91.1873331466312,4.3781548,5.1472864,19.2065,8.415414,-10.380496,-3.9035008,4.2323756,-5.045005,-22.2057,8.222086,-8.882048,3.1325605,-0.6488293,0.9343631,7.7215533,1.5185895,9.86342,-19.839268,64.26067,5.496013,-0.59665823,7.983806,-8.412644,-12.579691,38.97893,68.6617,2.306531,-2.218095,-3.974483
141,-0.2688342332839966,0.510819137096405,78.96332550048828,0.1322130730857708,-1.6671707957649124,-91.20695685236176,4.3431935,5.141925,19.22182,8.405356,-10.360716,-3.8942118,4.166066,-5.056376,-22.192125,8.263627,-8.87792,3.1234508,-0.6392337,0.9371405,7.7546325,1.5514882,9.866309,-19.828064,64.25129,5.513112,-0.59774876,7.9849277,-8.410428,-12.5806465,38.96461,68.6688,2.3520014,-2.2227795,-3.9783146
142,-0.2614143490791321,0.5326526761054993,78.9634780883789,0.135174510600249,-1.6380898254970782,-91.22875144199381,4.2981253,5.1352754,19.238077,8.396408,-10.341077,-3.8843927,4.0904627,-5.06898,-22.179462,8.30229,-8.869605,3.1143086,-0.6285027,0.93590266,7.7918572,1.579912,9.873633,-19.811058,64.23971,5.5349827,-0.61016726,7.97928,-8.417695,-12.582602,38.941307,68.67392,2.4114761,-2.2291992,-3.971839
143,-0.2577167749404907,0.5539688467979431,78.97077178955078,0.13812827404174394,-1.6086282676732648,-91.24869858594916,4.252152,5.1295953,19.252136,8.384367,-10.319159,-3.875021,4.0255723,-5.074957,-22.168182,8.313888,-8.848027,3.1052475,-0.62371254,0.9369065,7.822037,1.6053851,9.875158,-19.806007,64.24096,5.5426607,-0.6241493,7.980506,-8.411393,-12.582755,38.932755,68.67305,2.466469,-2.2329805,-3.9741254
144,-0.24893829226493835,0.5798867344856262,78.97119903564453,0.14284523685044329,-1.5613629798244184,-91.27099111701185,4.1931763,5.118043,19.27081,8.355361,-10.285624,-3.864982,3.9272041,-5.0879035,-22.145971,8.3493,-8.83679,3.0960152,-0.60647756,0.9354176,7.8567276,1.6384238,9.879581,-19.788261,64.207275,5.570065,-0.6322911,7.989634,-8.424712,-12.582795,38.906837,68.6704,2.4896736,-2.2286155,-3.9823442
145,-0.24662211537361145,0.6036270260810852,78.97625732421875,0.1432534410210915,-1.5148936010051484,-91.28790568819868,4.134591,5.109852,19.285028,8.323175,-10.248999,-3.8566833,3.8456037,-5.089151,-22.12067,8.34737,-8.809882,3.0867577,-0.5934594,0.9369049,7.8822694,1.6665827,9.880705,-19.780916,64.188225,5.586271,-0.63414866,8.01494,-8.415737,-12.582254,38.895584,68.65675,2.4612908,-2.213674,-4.0146036
146,-0.23902906477451324,0.6367993354797363,78.97560119628906,0.14604053380443857,-1.4605690999013714,-91.30410033054893,4.0720305,5.098638,19.299738,8.277612,-10.203843,-3.8486764,3.7553608,-5.0898523,-22.088943,8.3410635,-8.781374,3.0776503,-0.5772813,0.93673116,7.912296,1.6991067,9.882666,-19.762033,64.150955,5.616117,-0.6315096,8.04881,-8.408152,-12.579292,38.86373,68.63569,2.3786342,-2.1898685,-4.056753
147,-0.23501068353652954,0.6641862988471985,78.97834014892578,0.14604606906469383,-1.402196404507749,-91.31947486175687,4.008053,5.086182,19.314775,8.221458,-10.1518135,-3.8403995,3.6656015,-5.087294,-22.05739,8.3200245,-8.743837,3.0686998,-0.5577427,0.9362284,7.94018,1.7252343,9.882791,-19.75009,64.11894,5.638266,-0.6274112,8.0870285,-8.40039,-12.575005,38.8421,68.61297,2.308944,-2.1667848,-4.104078
148,-0.23173068463802338,0.6924104690551758,78.98214721679688,0.14878295897895538,-1.3402471452378186,-91.33541750405806,3.94814,5.069324,19.332434,8.143447,-10.086941,-3.8307102,3.5766132,-5.084064,-22.030151,8.285994,-8.695679,3.0602953,-0.5385434,0.93530655,7.9695916,1.7521856,9.88119,-19.738577,64.083084,5.650847,-0.6222939,8.122173,-8.392178,-12.570448,38.823807,68.58476,2.2791214,-2.1523635,-4.146758
149,-0.23002265393733978,0.7239859104156494,78.99010467529297,0.1553369562257776,-1.277620970743278,-91.3534422116661,3.9011981,5.044265,19.35558,8.033507,-10.005739,-3.8181515,3.4915857,-5.082203,-22.006485,8.238181,-8.6364,3.054338,-0.51436603,0.93160796,8.008456,1.770735,9.877129,-19.72302,64.04842,5.657778,-0.6170958,8.150898,-8.394931,-12.564301,38.805443,68.55873,2.3120694,-2.1520662,-4.1813536
150,-0.22515173256397247,0.7553821206092834,78.99739837646484,0.16252194603498857,-1.2120259298769593,-91.37251032409907,3.858689,5.0143847,19.382088,7.9027505,-9.912791,-3.8036878,3.4066622,-5.0805817,-21.984589,8.178711,-8.567899,3.0500085,-0.49022928,0.92633283,8.049293,1.7887621,9.870373,-19.705023,64.011566,5.6563487,-0.61058,8.178647,-8.396506,-12.55756,38.789154,68.52638,2.3818119,-2.1588879,-4.214981
151,-0.2166483849287033,0.7920799851417542,79.00228881835938,0.1682232277247431,-1.1403027223443394,-91.39006770411697,3.812789,4.984193,19.40781,7.760146,-9.81139,-3.789819,3.321924,-5.074054,-21.967598,8.100932,-8.485977,3.043667,-0.465822,0.92302394,8.090383,1.8021984,9.861245,-19.68781,63.97513,5.653511,-0.60332555,8.206036,-8.405631,-12.5505085,38.78105,68.49621,2.4649491,-2.1692681,-4.2452183
152,-0.20885057747364044,0.8264697790145874,79.00720977783203,0.16836516807910948,-1.0581836418276538,-91.40369057216459,3.7521813,4.9592147,19.428143,7.617695,-9.705428,-3.7790935,3.2383578,-5.056661,-21.958677,7.9939837,-8.384648,3.0314405,-0.4492904,0.9243851,8.124117,1.8213763,9.847583,-19.67091,63.93052,5.6519933,-0.59232956,8.236325,-8.406166,-12.540909,38.771347,68.45605,2.5120292,-2.174949,-4.27431
153,-0.2029545158147812,0.8652092218399048,79.01435852050781,0.164456017321913,-0.9608904956675892,-91.4154784403396,3.6674054,4.9418454,19.444906,7.486448,-9.599571,-3.7727897,3.0972593,-5.049049,-21.952484,7.977039,-8.321706,3.010991,-0.4330507,0.92774826,8.144985,1.8453202,9.837587,-19.662983,63.87854,5.647791,-0.57928455,8.269709,-8.393909,-12.534049,38.76473,68.39937,2.5218804,-2.1756744,-4.3005853
154,-0.19637438654899597,0.9064323902130127,79.01873779296875,0.15479839966947403,-0.8539730945692978,-91.42685417706925,3.5680304,4.93004,19.460304,7.359501,-9.492052,-3.76929,2.941167,-5.037516,-21.95033,7.9675784,-8.255993,2.9847348,-0.4176159,0.93842536,8.162177,1.8631378,9.816868,-19.650438,63.829468,5.6539507,-0.5625133,8.308385,-8.394987,-12.518966,38.756145,68.3578,2.50542,-2.1757894,-4.323801
155,-0.1924552321434021,0.9442652463912964,79.02351379394531,0.14099116114336033,-0.7392121820258094,-91.43109681325251,3.4096675,4.940348,19.463127,7.3366714,-9.436335,-3.767451,2.7808435,-5.0195465,-21.957127,7.9472976,-8.184996,2.957247,-0.40987098,0.9509417,8.176579,1.8870527,9.801087,-19.645678,63.77044,5.6502423,-0.5472074,8.343167,-8.382151,-12.506687,38.74734,68.2948,2.479091,-2.1743357,-4.3447943
156,-0.19017353653907776,0.988158106803894,79.03011322021484,0.13285252644433268,-0.62262342872455,-91.42694442004175,3.2476442,4.943547,19.457048,7.308762,-9.378667,-3.7637534,2.621518,-5.007551,-21.969923,7.9199905,-8.117999,2.9345608,-0.40782693,0.9600791,8.1954,1.9030155,9.780761,-19.647799,63.71964,5.6417503,-0.53803885,8.372215,-8.373936,-12.489549,38.73479,68.23545,2.4561105,-2.1747932,-4.362996
157,-0.19228875637054443,1.0294859409332275,79.03482818603516,0.1306779454155697,-0.5047486259834167,-91.41223791359134,3.0834904,4.936291,19.43904,7.27136,-9.318487,-3.7601376,2.4643183,-5.004831,-21.991333,7.886391,-8.059904,2.9189665,-0.4128358,0.9649049,8.216112,1.9106768,9.756512,-19.662777,63.6798,5.6238284,-0.53470284,8.395138,-8.368073,-12.466592,38.71539,68.180786,2.432218,-2.1761632,-4.379682
158,-0.18689316511154175,1.0740340948104858,79.03890991210938,0.13483687712662562,-0.3837618999225538,-91.3891943317051,2.913818,4.922658,19.41122,7.228511,-9.256132,-3.7569928,2.306254,-5.007829,-22.020512,7.846683,-8.005826,2.9073236,-0.427638,0.9641407,8.242162,1.9253272,9.735855,-19.684723,63.625885,5.5977197,-0.533229,8.411832,-8.350196,-12.444088,38.68705,68.10329,2.3958514,-2.1746297,-4.394499
159,-0.18576674163341522,1.1217740774154663,79.0431900024414,0.14000854261847803,-0.26168852471179677,-91.3613291551525,2.742367,4.9060893,19.38008,7.180687,-9.188429,-3.7499526,2.147246,-5.0126967,-22.05113,7.804644,-7.951863,2.8969498,-0.45675126,0.9560606,8.280132,1.9517026,9.731193,-19.694384,63.552986,5.568006,-0.54036766,8.414691,-8.323132,-12.438663,38.678753,67.99482,2.3774047,-2.1764894,-4.4025664
160,-0.18391776084899902,1.1727982759475708,79.04621124267578,0.14457015606889775,-0.1318451721894136,-91.3307924452168,2.5544593,4.892062,19.34994,7.1467247,-9.120643,-3.7340434,1.9752254,-5.017794,-22.078041,7.768176,-7.895016,2.8848119,-0.4578275,0.9486567,8.318433,1.9546914,9.708412,-19.735666,63.49784,5.535094,-0.5479858,8.427719,-8.305141,-12.410282,38.631126,67.91036,2.3569922,-2.1803963,-4.4115705
161,-0.1809798926115036,1.2239818572998047,79.04669952392578,0.14973148037482395,-0.0023622376197631107,-91.29971640843301,2.3639622,4.8787336,19.325914,7.1181784,-9.047911,-3.7036145,1.7996,-5.0231476,-22.094622,7.7350206,-7.8343854,2.8725517,-0.4577808,0.9345142,8.3641405,1.9501463,9.681272,-19.764286,63.456272,5.5008802,-0.5721701,8.435103,-8.295049,-12.374862,38.599384,67.83469,2.3748784,-2.1945708,-4.4145665
162,-0.18031147122383118,1.2819445133209229,79.05109405517578,0.15516677528619935,0.1295270795615672,-91.26570474467536,2.1651938,4.8655386,19.303513,7.0985312,-8.973616,-3.662625,1.619405,-5.0297623,-22.10605,7.701551,-7.7704844,2.8608186,-0.46867645,0.91342705,8.42177,1.9601679,9.658861,-19.774483,63.39282,5.4669566,-0.60492593,8.436096,-8.277011,-12.344958,38.572155,67.73443,2.403838,-2.2106564,-4.412651
163,-0.1836356669664383,1.3349080085754395,79.05937194824219,0.15853838942413612,0.2663029635108405,-91.22801445762603,1.9593891,4.85371,19.277475,7.07615,-8.893387,-3.6217563,1.4336442,-5.0336266,-22.122116,7.667472,-7.7029223,2.8461144,-0.48009807,0.89182574,8.488583,1.9668474,9.642351,-19.793777,63.321644,5.43291,-0.63745505,8.431593,-8.265444,-12.322558,38.565964,67.62526,2.458093,-2.228659,-4.4093757
164,-0.1830582320690155,1.3910548686981201,79.06729125976562,0.1596366766965581,0.41024780101219765,-91.1860994226349,1.7442945,4.8446884,19.24242,7.0465355,-8.805874,-3.5916839,1.2431635,-5.031605,-22.152756,7.625555,-7.626371,2.8251073,-0.4898011,0.87916684,8.545242,1.946506,9.612521,-19.846718,63.286358,5.400207,-0.6606577,8.432241,-8.27023,-12.27695,38.56341,67.55784,2.499717,-2.2492955,-4.4153585
165,-0.18714067339897156,1.4549448490142822,79.07421875,0.1545894042495115,0.5615288639445533,-91.13726275622773,1.5190803,4.8412204,19.192997,7.0088253,-8.710523,-3.5786233,1.0471749,-5.020912,-22.206104,7.580439,-7.541875,2.7938333,-0.5097498,0.8731319,8.611151,1.9270291,9.596427,-19.924639,63.22985,5.37354,-0.665144,8.428504,-8.270606,-12.245796,38.582123,67.46329,2.5445528,-2.267417,-4.430963
166,-0.19495531916618347,1.5152781009674072,79.08195495605469,0.1459007530425344,0.7188295496132014,-91.08280991014027,1.285033,4.84122,19.133305,6.9646654,-8.607202,-3.5758195,0.84895,-5.0032444,-22.275276,7.526617,-7.4477386,2.7551386,-0.5302713,0.87127966,8.683867,1.8980232,9.586311,-20.028908,63.169636,5.3489046,-0.6587039,8.422534,-8.27513,-12.219388,38.61633,67.36112,2.6018317,-2.2860153,-4.452941
167,-0.20260679721832275,1.576603889465332,79.08784484863281,0.13691663935939993,0.8830343206510253,-91.02742533310787,1.0359029,4.843186,19.071379,6.933089,-8.508248,-3.574561,0.6425047,-4.985217,-22.347153,7.4713993,-7.3505845,2.7157102,-0.5475018,0.87009656,8.753354,1.8609396,9.578771,-20.154865,63.118,5.317235,-0.6524861,8.413356,-8.276572,-12.192123,38.652653,67.26328,2.644999,-2.304502,-4.4723096
168,-0.2081928253173828,1.640420913696289,79.09208679199219,0.13096805129459554,1.0544075048986483,-90.97548100971692,0.7671755,4.846112,19.014801,6.9275527,-8.421807,-3.5661623,0.42720622,-4.970468,-22.409681,7.4118886,-7.251974,2.6821523,-0.5593282,0.86501634,8.818667,1.8212041,9.573233,-20.28956,63.073174,5.276733,-0.65571976,8.399201,-8.282305,-12.164547,38.70006,67.178345,2.6735842,-2.3189125,-4.480002
169,-0.21263186633586884,1.708547830581665,79.09999084472656,0.12995847621190595,1.2323062544039773,-90.92630205470806,0.4906283,4.8433137,18.965103,6.9214625,-8.332925,-3.547234,0.2035485,-4.96136,-22.46065,7.3472614,-7.1524215,2.6584435,-0.56771326,0.85446393,8.88062,1.7750106,9.56851,-20.43729,63.041462,5.2162766,-0.6770363,8.379066,-8.2903805,-12.131831,38.7492,67.109116,2.669807,-2.3286939,-4.473726
170,-0.21660998463630676,1.7763005495071411,79.10647583007812,0.13178220002878865,1.4165801749954308,-90.87796931634139,0.20543821,4.8373466,18.91852,6.9148746,-8.241213,-3.5229106,-0.027549086,-4.9551086,-22.5064,7.2775903,-7.0503,2.6402965,-0.57277966,0.83993137,8.940656,1.7206913,9.565012,-20.599747,63.021427,5.1432824,-0.7091711,8.353968,-8.308327,-12.090535,38.807953,67.06001,2.6505332,-2.3359118,-4.4586735
171,-0.2197902351617813,1.8418569564819336,79.11309814453125,0.13448646773119582,1.6087639277964978,-90.8338224846817,-0.08724709,4.830896,18.877153,6.909196,-8.150458,-3.4964628,-0.26698697,-4.949063,-22.54617,7.204156,-6.945775,2.6220505,-0.58316183,0.8261495,8.997611,1.6711817,9.563333,-20.748743,62.998337,5.0803275,-0.7401373,8.322207,-8.323781,-12.063418,38.88645,67.00567,2.6239555,-2.3403778,-4.4340267
172,-0.21971815824508667,1.9042809009552002,79.11861419677734,0.1364658375583726,1.810562294184296,-90.79725653016334,-0.38496456,4.8259783,18.84357,6.9027534,-8.062876,-3.4712737,-0.5173384,-4.9415035,-22.579027,7.1317263,-6.840759,2.5980093,-0.5820497,0.81446326,9.032376,1.6256449,9.56058,-20.904327,62.985767,5.030173,-0.756223,8.292625,-8.337299,-12.034944,38.982033,66.97462,2.604118,-2.345858,-4.406474
173,-0.21958623826503754,1.9670015573501587,79.12315368652344,0.1380511110965152,2.0319603972012206,-90.76849513350177,-0.69964826,4.82289,18.81823,6.8963056,-7.9782276,-3.4465003,-0.79011786,-4.9323144,-22.604794,7.0578527,-6.7332954,2.5639737,-0.57110596,0.8056041,9.030437,1.5830042,9.554042,-21.068178,62.9912,4.994479,-0.75225616,8.264775,-8.35989,-11.995234,39.106827,66.99156,2.597127,-2.3591812,-4.378382
174,-0.22147870063781738,2.023872137069702,79.1262435913086,0.1398336343685192,2.2685944844560195,-90.7459735603399,-1.0278605,4.8204703,18.799793,6.8893027,-7.894551,-3.420941,-1.079129,-4.9223547,-22.623922,6.9795856,-6.622145,2.5239067,-0.55931747,0.797959,9.008991,1.5429177,9.544436,-21.224092,63.00481,4.976744,-0.7361211,8.234002,-8.389058,-11.955012,39.261265,67.03046,2.5969121,-2.3748462,-4.345312
175,-0.2267138510942459,2.0784380435943604,79.13143920898438,0.14130397000922162,2.5012486519746226,-90.73045718944006,-1.3459287,4.8192077,18.788416,6.8818135,-7.815154,-3.3972962,-1.3623683,-4.911142,-22.636396,6.902281,-6.511847,2.4843626,-0.5451883,0.79277587,8.981782,1.5085882,9.532025,-21.369331,63.025486,4.972239,-0.7147341,8.205556,-8.413707,-11.916298,39.422127,67.08134,2.5895262,-2.3856306,-4.306679
176,-0.22892901301383972,2.12898325920105,79.14019775390625,0.14139920815550555,2.7110287094235774,-90.72280125641068,-1.6318272,4.8206873,18.78401,6.8753467,-7.742688,-3.378469,-1.624704,-4.9008374,-22.641394,6.8450727,-6.4133787,2.4518359,-0.5269154,0.7904027,8.961616,1.4787856,9.513357,-21.501883,63.058975,4.976752,-0.6950714,8.186393,-8.451163,-11.869351,39.597843,67.16398,2.5969393,-2.3857825,-4.2634754
177,-0.23033104836940765,2.1735050678253174,79.14773559570312,0.13888344558531882,2.894955021137685,-90.72632345785044,-1.8815365,4.8262987,18.789486,6.8703976,-7.677065,-3.3644292,-1.8767927,-4.8952394,-22.635323,6.8395286,-6.339429,2.428975,-0.50130475,0.7922627,8.955054,1.4541532,9.490324,-21.616554,63.102818,5.000564,-0.6758465,8.177853,-8.490736,-11.821137,39.775425,67.26339,2.6098878,-2.3682234,-4.2087283
178,-0.22930540144443512,2.2153284549713135,79.1545181274414,0.1346553670493764,3.062663531951278,-90.73954748407913,-2.1060097,4.835036,18.803902,6.864783,-7.616242,-3.3538644,-2.1077113,-4.8860474,-22.620926,6.8335,-6.263158,2.4117866,-0.47151285,0.79830945,8.9507475,1.4331071,9.459112,-21.716293,63.162075,5.041904,-0.65441865,8.178235,-8.536294,-11.765424,39.961857,67.390396,2.6264913,-2.3385146,-4.145821
179,-0.23091745376586914,2.2533493041992188,79.15935516357422,0.13077250110192803,3.214024957734948,-90.75617944580476,-2.3069522,4.84409,18.821342,6.859751,-7.562167,-3.3474877,-2.3162532,-4.8768644,-22.60322,6.8273144,-6.1931376,2.3976471,-0.4338262,0.8043651,8.955159,1.4164387,9.432887,-21.811419,63.218594,5.0811534,-0.6356935,8.179118,-8.575589,-11.724463,40.151165,67.51102,2.6488333,-2.305313,-4.081452
180,-0.2321155071258545,2.2784674167633057,79.16001892089844,0.12974566224745115,3.348401638628799,-90.76972659055298,-2.4847457,4.8495455,18.835878,6.8539724,-7.515711,-3.3459184,-2.501068,-4.87209,-22.587019,6.822016,-6.1384315,2.383945,-0.40513238,0.8079769,8.960309,1.4056146,9.403312,-21.89203,63.277832,5.1057363,-0.62530065,8.17841,-8.612927,-11.681534,40.34354,67.63956,2.659139,-2.2789361,-4.028793
181,-0.2332514375448227,2.296205759048462,79.15709686279297,0.13372817123383793,3.4634104742642244,-90.77867977041188,-2.6374252,4.8491316,18.846992,6.8503156,-7.479842,-3.3512359,-2.6592562,-4.874614,-22.572134,6.8191214,-6.10532,2.3705783,-0.37566274,0.8048842,8.973292,1.3998715,9.379779,-21.967413,63.332108,5.1068177,-0.62777495,8.1696205,-8.637334,-11.647586,40.533005,67.75813,2.6544974,-2.2630382,-3.9853754
182,-0.2341262549161911,2.3229331970214844,79.1540298461914,0.14066773315611125,3.5602679922264047,-90.78642162075893,-2.7647913,4.844822,18.857544,6.84635,-7.452099,-3.362448,-2.7919827,-4.8811455,-22.556429,6.8161116,-6.086879,2.358717,-0.36090133,0.79977494,8.984386,1.4017632,9.347212,-22.021824,63.397087,5.095931,-0.639832,8.160673,-8.679138,-11.599141,40.755154,67.91508,2.6566033,-2.2537863,-3.9518273
183,-0.23519380390644073,2.3460307121276855,79.154052734375,0.14765691332848005,3.6439017174832475,-90.79385594106596,-2.8741708,4.8402095,18.866762,6.843175,-7.4305983,-3.3757346,-2.9065936,-4.887898,-22.541794,6.81449,-6.075598,2.3476107,-0.3465861,0.79365414,8.997366,1.4067727,9.31734,-22.067068,63.460377,5.0803714,-0.6527661,8.154065,-8.710409,-11.552114,40.9536,68.06415,2.6388125,-2.244038,-3.9267933
184,-0.23529644310474396,2.3617639541625977,79.15607452392578,0.15109224076464542,3.7196055934480197,-90.80202852639275,-2.9726083,4.8393507,18.873476,6.840736,-7.4131727,-3.3873029,-3.0100143,-4.8902893,-22.53007,6.812672,-6.0618277,2.3364713,-0.3326823,0.7909354,9.0090275,1.4141846,9.291221,-22.105206,63.517757,5.0669413,-0.6583916,8.155974,-8.738736,-11.511034,41.129032,68.201645,2.6208656,-2.2285862,-3.913329
185,-0.23654791712760925,2.373741865158081,79.15858459472656,0.1491261028570727,3.789300180441746,-90.81311297616585,-3.0614989,4.8440957,18.87757,6.83848,-7.400618,-3.3978326,-3.1037872,-4.885558,-22.52141,6.81037,-6.0430994,2.323612,-0.31279233,0.7936127,9.020798,1.4229417,9.272205,-22.140505,63.56475,5.0543404,-0.6541558,8.167899,-8.761334,-11.483428,41.279682,68.3177,2.6025026,-2.2033134,-3.9159975
186,-0.23575769364833832,2.38330078125,79.1557846069336,0.1445964790432665,3.850043076751308,-90.82585203490115,-3.137452,4.8513584,18.879713,6.8366523,-7.3939304,-3.4087424,-3.1850188,-4.877299,-22.514843,6.808078,-6.023709,2.3099508,-0.31825444,0.8028677,9.020247,1.4408938,9.237171,-22.14301,63.62164,5.045966,-0.6456768,8.191923,-8.803212,-11.435161,41.445847,68.467575,2.5841951,-2.173471,-3.9383476
187,-0.23361718654632568,2.392587661743164,79.15413665771484,0.13968158709602732,3.89980417790939,-90.83636839534013,-3.1996815,4.858779,18.879652,6.8358235,-7.389805,-3.4173155,-3.2514155,-4.869099,-22.510838,6.8072987,-6.0081506,2.298767,-0.32004488,0.81169677,9.020736,1.4529581,9.203377,-22.143785,63.681858,5.039823,-0.6339883,8.221293,-8.834863,-11.388235,41.5691,68.60479,2.554217,-2.1433268,-3.9636447
188,-0.23883402347564697,2.3980085849761963,79.15503692626953,0.1374867680595102,3.9364249847742094,-90.84065620673076,-3.246558,4.8631177,18.877363,6.8350086,-7.3844814,-3.4208207,-3.299517,-4.8640275,-22.509975,6.806122,-5.9987535,2.293339,-0.29813775,0.81223077,9.041331,1.454206,9.195573,-22.161522,63.722637,5.036511,-0.62046593,8.245306,-8.837881,-11.377591,41.626755,68.67544,2.5328722,-2.1170807,-3.9737859
189,-0.2416456788778305,2.40222430229187,79.15070343017578,0.13841880077310742,3.9570132841904395,-90.83623095974897,-3.275165,4.8642707,18.872196,6.8347883,-7.377463,-3.4184337,-3.325661,-4.862795,-22.513233,6.804897,-5.9980497,2.2970214,-0.31750804,0.8143506,9.047058,1.464558,9.166488,-22.153257,63.784054,5.033513,-0.60577625,8.282432,-8.857903,-11.33517,41.701103,68.78851,2.5403025,-2.0987897,-3.9801629
190,-0.2445196956396103,2.404794454574585,79.15128326416016,0.14062915828960756,3.9629116186568836,-90.82567162683723,-3.2864912,4.8637133,18.864292,6.8336625,-7.369126,-3.4116313,-3.331931,-4.8634443,-22.52007,6.804048,-6.0041327,2.3072357,-0.3265128,0.81123596,9.063204,1.4587584,9.143002,-22.145315,63.851448,5.038397,-0.5887479,8.322227,-8.872836,-11.293709,41.718624,68.8875,2.5490727,-2.0850682,-3.9768565
191,-0.24621444940567017,2.406747341156006,79.15092468261719,0.14434884870049172,3.9608594044461856,-90.81262719819672,-3.2886124,4.8618116,18.85486,6.83456,-7.3622017,-3.40103,-3.3277426,-4.866186,-22.528513,6.805238,-6.0137696,2.3183496,-0.3326736,0.8053172,9.081024,1.4535315,9.129482,-22.140175,63.90852,5.045452,-0.5709152,8.3600855,-8.879833,-11.26499,41.715492,68.96128,2.5706024,-2.0738199,-3.9746056
192,-0.25242191553115845,2.4075767993927,79.15349578857422,0.14874238713481674,3.957029871060193,-90.80068766193455,-3.2869906,4.858854,18.84498,6.8348417,-7.356251,-3.3872774,-3.319789,-4.8694816,-22.536901,6.8049154,-6.021259,2.3245475,-0.34153125,0.8000382,9.092811,1.4563742,9.121822,-22.133015,63.949883,5.0584784,-0.5541633,8.391924,-8.870282,-11.246586,41.69325,69.00075,2.5818686,-2.0624292,-3.9836202
193,-0.25311264395713806,2.4055306911468506,79.15174102783203,0.15446962375038747,3.954665617166084,-90.7898944190192,-3.2866528,4.853971,18.83355,6.8354278,-7.350225,-3.3662338,-3.313076,-4.8750267,-22.546408,6.8056874,-6.0253763,2.322896,-0.350627,0.79542667,9.093574,1.457436,9.114946,-22.125866,63.991123,5.082398,-0.5402393,8.416928,-8.85978,-11.228888,41.656532,69.02843,2.5944588,-2.0529542,-4.011344
194,-0.2605934143066406,2.401076316833496,79.1534652709961,0.1617097046520152,3.949850392503056,-90.7786896952345,-3.283202,4.847152,18.820595,6.836508,-7.344231,-3.3390403,-3.3021533,-4.882427,-22.55735,6.8072906,-6.0289755,2.3168466,-0.357367,0.7901664,9.085696,1.4530799,9.107292,-22.12088,64.035545,5.1151915,-0.5258105,8.438764,-8.85176,-11.206961,41.601196,69.053696,2.6123512,-2.046353,-4.0519896
195,-0.26616373658180237,2.395415782928467,79.15483093261719,0.16914948795297916,3.938503249116099,-90.76808130638695,-3.2703607,4.8402596,18.808254,6.8381624,-7.3410964,-3.314066,-3.282073,-4.889947,-22.566656,6.8082666,-6.0341015,2.3104856,-0.3713993,0.7863585,9.075004,1.4607964,9.103837,-22.110271,64.06198,5.147204,-0.513339,8.458046,-8.835939,-11.195319,41.54939,69.053535,2.6385198,-2.0410283,-4.0938582
196,-0.2704813480377197,2.3879096508026123,79.15545654296875,0.17484337070896377,3.9162039830963957,-90.75966038950315,-3.2407022,4.8351974,18.799063,6.838559,-7.342519,-3.2997556,-3.2483213,-4.894912,-22.571192,6.8097544,-6.044758,2.307672,-0.37848827,0.7846464,9.063387,1.4656839,9.101057,-22.10176,64.08762,5.173661,-0.5061651,8.476967,-8.816718,-11.184361,41.481808,69.04862,2.6518157,-2.0414586,-4.1237593
197,-0.27759063243865967,2.377359628677368,79.15650177001953,0.1788841095118572,3.8800142799110935,-90.75387784490158,-3.1911604,4.832122,18.793776,6.8399115,-7.3513255,-3.3004336,-3.1970065,-4.8974423,-22.566793,6.811339,-6.0641875,2.3092403,-0.38339037,0.7859114,9.0510845,1.4773175,9.099476,-22.09464,64.104614,5.185881,-0.5062617,8.497531,-8.794059,-11.17633,41.414124,69.03317,2.6715448,-2.0464687,-4.1384854
198,-0.2794210910797119,2.3662307262420654,79.15623474121094,0.18187724466140157,3.8328763592930404,-90.74981060350605,-3.125519,4.8302507,18.790909,6.84141,-7.3654137,-3.3109117,-3.132176,-4.8986487,-22.55661,6.8138366,-6.0896325,2.3131664,-0.38721868,0.78911084,9.036521,1.4935294,9.098909,-22.086515,64.11532,5.1911006,-0.5121316,8.517986,-8.76711,-11.171264,41.338127,69.00651,2.6915557,-2.055397,-4.1445017
199,-0.2800672650337219,2.3530120849609375,79.15504455566406,0.18296238087162914,3.779589078250459,-90.74710298420435,-3.0503726,4.8306384,18.789867,6.8425126,-7.381723,-3.325254,-3.0580666,-4.897002,-22.547146,6.815655,-6.11606,2.3190014,-0.40425536,0.7968592,9.016886,1.5185931,9.09904,-22.074749,64.11475,5.188163,-0.5193842,8.5380335,-8.746846,-11.170788,41.300774,68.97814,2.728966,-2.068875,-4.149847
200,-0.2842048704624176,2.3278284072875977,79.15054321289062,0.18124630344367387,3.7243492860752765,-90.74473682550511,-2.9723442,4.834342,18.789476,6.843338,-7.3969254,-3.3376167,-2.98003,-4.8919644,-22.545387,6.8172593,-6.138436,2.3264995,-0.3993837,0.8050177,9.001928,1.5272573,9.101788,-22.065607,64.11038,5.20967,-0.52310747,8.55087,-8.727928,-11.173689,41.236584,68.943,2.7413762,-2.0879343,-4.1504064
201,-0.28708869218826294,2.314495801925659,79.14781188964844,0.17385593565879853,3.6682181850183646,-90.74317549178006,-2.893068,4.8452415,18.791056,6.845593,-7.4105415,-3.3470492,-2.8984392,-4.879549,-22.554943,6.818325,-6.1526003,2.3381116,-0.39397207,0.82019037,8.983451,1.5268012,9.108224,-22.067657,64.10082,5.238489,-0.52140343,8.560155,-8.716523,-11.182032,41.206486,68.9073,2.7620003,-2.1163554,-4.151586
202,-0.28863799571990967,2.295461893081665,79.1469955444336,0.162424160915846,3.6088361985145823,-90.74267597508272,-2.8084118,4.8612714,18.794844,6.8475018,-7.4235616,-3.35645,-2.8109355,-4.8615026,-22.571497,6.8188543,-6.162157,2.3530877,-0.3835031,0.83849454,8.966677,1.5264125,9.123821,-22.076597,64.07239,5.2747045,-0.5160928,8.564388,-8.711851,-11.204205,41.21185,68.857445,2.8078012,-2.1511781,-4.1498837
203,-0.2929679751396179,2.282257556915283,79.14999389648438,0.15143552201786575,3.5470916054713495,-90.74263209556447,-2.7200122,4.876117,18.798088,6.8493285,-7.4384556,-3.3656898,-2.7196732,-4.8446984,-22.589787,6.819676,-6.1735306,2.3664198,-0.37801915,0.85803676,8.945682,1.51923,9.136241,-22.076773,64.04922,5.3074727,-0.5136457,8.563735,-8.717024,-11.2232685,41.22028,68.82227,2.8349497,-2.1899502,-4.148339
204,-0.29854530096054077,2.2573142051696777,79.14937591552734,0.14542406746941267,3.4803029137184742,-90.74226151586488,-2.625471,4.8849564,18.798126,6.851015,-7.4580164,-3.375002,-2.6226225,-4.8344502,-22.604998,6.8208456,-6.1937537,2.372846,-0.3816931,0.86885744,8.936013,1.5441489,9.161851,-22.060484,63.977222,5.325956,-0.5106239,8.560583,-8.700127,-11.264685,41.228874,68.739136,2.8366656,-2.2147028,-4.1576204
205,-0.2969244718551636,2.2339630126953125,79.1448745727539,0.14780748310576944,3.4096577432579296,-90.74184126728271,-2.5265388,4.883331,18.793175,6.854045,-7.4840016,-3.3833537,-2.5224164,-4.835745,-22.617546,6.823898,-6.2259665,2.3662903,-0.38172376,0.87248826,8.923299,1.5573432,9.178318,-22.037004,63.920696,5.318212,-0.51615334,8.551719,-8.700065,-11.295506,41.226357,68.68727,2.8021288,-2.2366784,-4.1753244
206,-0.3001713752746582,2.2128162384033203,79.1448745727539,0.15465807076930024,3.3347344574949807,-90.74149717331431,-2.4217215,4.8754773,18.78479,6.856282,-7.5138345,-3.3911066,-2.4174798,-4.843502,-22.62988,6.828413,-6.266564,2.3509574,-0.38581848,0.87062275,8.915872,1.5797702,9.198689,-21.999561,63.844116,5.2959995,-0.5245123,8.535885,-8.690623,-11.338814,41.215584,68.61403,2.7296946,-2.2524562,-4.1989803
207,-0.3049166202545166,2.1897542476654053,79.14383697509766,0.16318380992816667,3.2581224478440243,-90.7413776934835,-2.3145957,4.866196,18.776674,6.8595076,-7.5471134,-3.3997312,-2.3104978,-4.853366,-22.637766,6.8329363,-6.3101115,2.3376021,-0.38972598,0.86798406,8.907066,1.5980206,9.215445,-21.959232,63.772064,5.269899,-0.53518087,8.5225725,-8.680794,-11.379374,41.19132,68.54626,2.6438947,-2.2651343,-4.2258625
208,-0.3088974058628082,2.163770914077759,79.14181518554688,0.1698549203305161,3.1824354863459856,-90.7416295291466,-2.2069871,4.8600574,18.772959,6.861711,-7.581622,-3.4106572,-2.2037392,-4.859988,-22.637156,6.837,-6.3522706,2.3366823,-0.39151236,0.8681872,8.890912,1.6042538,9.225146,-21.924767,63.721886,5.250877,-0.54684716,8.521159,-8.692122,-11.403912,41.168434,68.51901,2.5887,-2.277281,-4.254099
209,-0.31752070784568787,2.1357693672180176,79.14043426513672,0.17385645002661915,3.106349324564945,-90.74421002958604,-2.096532,4.858534,18.777615,6.864112,-7.620982,-3.4258707,-2.0956416,-4.8621817,-22.619308,6.8395376,-6.392709,2.3560488,-0.39359295,0.86997384,8.88795,1.6116328,9.245436,-21.881914,63.65473,5.248333,-0.56097484,8.523127,-8.68898,-11.453114,41.133743,68.449875,2.5541606,-2.281714,-4.2737136
210,-0.320641428232193,2.1070733070373535,79.13480377197266,0.17717431428953637,3.029347289731563,-90.74837117017327,-1.9829688,4.858867,18.787943,6.86611,-7.6642575,-3.4440408,-1.9860734,-4.862831,-22.588955,6.8409724,-6.433298,2.3883905,-0.39272496,0.8732961,8.881077,1.6139344,9.265063,-21.844017,63.59634,5.2475257,-0.5780769,8.533351,-8.688293,-11.500342,41.08647,68.39365,2.5259001,-2.2832963,-4.293103
211,-0.31852495670318604,2.0851268768310547,79.1291732788086,0.17979816198585144,2.9545946291880694,-90.75034373109953,-1.8727274,4.8602743,18.796228,6.8686156,-7.7059565,-3.4618046,-1.8784095,-4.8625846,-22.562023,6.843479,-6.473498,2.421578,-0.39465967,0.8772207,8.864684,1.6062984,9.27399,-21.809134,63.559914,5.2485867,-0.5929611,8.553354,-8.711298,-11.520382,41.046932,68.38428,2.522747,-2.2853363,-4.3193717
212,-0.31884416937828064,2.0593042373657227,79.1266860961914,0.1809718797671416,2.884729503978948,-90.7462620781133,-1.7703986,4.8617287,18.795425,6.8700943,-7.7398634,-3.4756088,-1.7746389,-4.861252,-22.554502,6.844979,-6.5097957,2.4435353,-0.39722374,0.8782697,8.862533,1.595427,9.294675,-21.762703,63.508286,5.261382,-0.60079783,8.568424,-8.717474,-11.565734,40.977837,68.33448,2.5173178,-2.285533,-4.3452473
213,-0.32321417331695557,2.0380935668945312,79.12466430664062,0.18060689631894614,2.821361991602999,-90.73431656469361,-1.6797243,4.863583,18.781647,6.8725247,-7.7628517,-3.483115,-1.6762003,-4.858496,-22.576511,6.8473916,-6.5415154,2.4485586,-0.407614,0.8797719,8.848813,1.5774224,9.305072,-21.718193,63.47757,5.2765226,-0.5965578,8.593185,-8.746301,-11.589248,40.918198,68.33173,2.5513725,-2.2890313,-4.383697
214,-0.32967743277549744,2.0199263095855713,79.12376403808594,0.17884981212330175,2.762030363133844,-90.71697843366748,-1.5954437,4.865815,18.759766,6.874201,-7.778558,-3.486691,-1.5807737,-4.8543463,-22.61755,6.8494334,-6.5692344,2.443996,-0.41165316,0.8774802,8.853141,1.549696,9.325185,-21.665499,63.433628,5.307447,-0.5842732,8.614237,-8.762125,-11.636668,40.829174,68.286766,2.5980012,-2.2896457,-4.42046
215,-0.3395437002182007,1.9942734241485596,79.12393951416016,0.17657412488176766,2.706356065465398,-90.69634661183056,-1.5173063,4.8682637,18.734188,6.8768587,-7.7926683,-3.4898047,-1.4892726,-4.849881,-22.662666,6.851823,-6.5968943,2.43702,-0.42265162,0.8774034,8.8478565,1.5187359,9.338368,-21.616858,63.40381,5.3329945,-0.5714267,8.640887,-8.785991,-11.670127,40.7447,68.26903,2.6470575,-2.2909582,-4.4640546
216,-0.34448879957199097,1.9699945449829102,79.12141418457031,0.17495743845110723,2.653076385983033,-90.67481058848304,-1.442374,4.870477,18.70977,6.8785753,-7.8089814,-3.496116,-1.4014654,-4.8463964,-22.69673,6.8534803,-6.6268334,2.4349494,-0.4330794,0.8789668,8.841783,1.4826021,9.3517685,-21.578423,63.37818,5.346621,-0.56569016,8.666428,-8.8009615,-11.704742,40.65376,68.2452,2.6694198,-2.2906396,-4.5082784
217,-0.3481241464614868,1.9468135833740234,79.1202163696289,0.17453665455401154,2.603779081827934,-90.65232307439292,-1.3720024,4.8718023,18.687466,6.879969,-7.8298893,-3.5062826,-1.320597,-4.8451967,-22.71135,6.855123,-6.660823,2.43882,-0.4538232,0.8846138,8.822127,1.4449917,9.358065,-21.550592,63.368477,5.337125,-0.5710085,8.6957445,-8.834457,-11.719886,40.594913,68.261955,2.68615,-2.2899141,-4.5638137
218,-0.35547545552253723,1.926086664199829,79.11962890625,0.17477593968369418,2.557731122274342,-90.62813058011393,-1.3067576,4.8728523,18.664967,6.882349,-7.853136,-3.5185728,-1.2453705,-4.845338,-22.715675,6.8578005,-6.69776,2.444967,-0.46471128,0.8892411,8.811318,1.3927923,9.369162,-21.530403,63.35994,5.3229876,-0.5827233,8.720594,-8.848186,-11.744684,40.498,68.24973,2.6594493,-2.2855692,-4.6201143
219,-0.365689218044281,1.903247594833374,79.11853790283203,0.17490211064134104,2.5129572755935587,-90.60268830996117,-1.243249,4.874124,18.64189,6.8833723,-7.876011,-3.532615,-1.1731033,-4.846078,-22.721972,6.864356,-6.736625,2.4538906,-0.48770303,0.895623,8.7923565,1.3470107,9.375381,-21.51343,63.35556,5.301808,-0.59533143,8.748829,-8.870265,-11.757094,40.428085,68.258965,2.640425,-2.282581,-4.67507
220,-0.3684990108013153,1.88335120677948,79.11206817626953,0.17448619549853625,2.466120313003488,-90.57682648589453,-1.1780155,4.8767877,18.618164,6.8856196,-7.89945,-3.5480573,-1.0954971,-4.8447375,-22.742393,6.868479,-6.772129,2.465787,-0.48709637,0.89737946,8.787761,1.2837449,9.389043,-21.515005,63.35079,5.291014,-0.60364914,8.772607,-8.88466,-11.782022,40.336357,68.24537,2.6259007,-2.282524,-4.708224
221,-0.3765203654766083,1.8621174097061157,79.11004638671875,0.17294064212563753,2.4143976613493856,-90.5504111017241,-1.1070853,4.881381,18.59392,6.8865232,-7.921941,-3.5664911,-1.005503,-4.839457,-22.785496,6.864254,-6.800846,2.4843614,-0.50100565,0.897817,8.784968,1.227199,9.397209,-21.511955,63.345737,5.292544,-0.60600066,8.798281,-8.916624,-11.794448,40.284058,68.25347,2.6450944,-2.2871292,-4.719854
222,-0.3837129771709442,1.8432670831680298,79.10685729980469,0.17062102072502447,2.359576175849582,-90.52332447278488,-1.0327904,4.887604,18.569485,6.8873806,-7.94534,-3.5876293,-0.91091913,-4.8325214,-22.842453,6.86175,-6.8291807,2.5081546,-0.498098,0.89305586,8.794335,1.1578183,9.413328,-21.527082,63.340206,5.301353,-0.6046876,8.821573,-8.946421,-11.815479,40.22552,68.24771,2.678867,-2.2935398,-4.71213
223,-0.3929632306098938,1.8250634670257568,79.1068344116211,0.16815682370700488,2.308169887298978,-90.49559198924496,-0.96372116,4.894016,18.543999,6.888993,-7.9673367,-3.6080263,-0.82121056,-4.826093,-22.901417,6.860992,-6.856048,2.5301726,-0.51174134,0.89109385,8.794764,1.0996046,9.419642,-21.529638,63.3339,5.3126616,-0.60257006,8.846154,-8.994896,-11.822683,40.207226,68.26894,2.7262068,-2.3030412,-4.702678
224,-0.40093711018562317,1.8049348592758179,79.10655975341797,0.16590970530517823,2.264306342829893,-90.46831190711993,-0.90380484,4.899168,18.517666,6.8896866,-7.985877,-3.6245365,-0.7433195,-4.8209267,-22.949558,6.861304,-6.880465,2.5430903,-0.51374394,0.8869341,8.800146,1.0297683,9.42817,-21.533758,63.323574,5.3172126,-0.60184693,8.864411,-9.03627,-11.832078,40.17662,68.268776,2.748225,-2.3127313,-4.6975083
225,-0.40292641520500183,1.78645658493042,79.10416412353516,0.16361220886161656,2.2320561610243095,-90.44052802189917,-0.8595476,4.9034944,18.48855,6.8917446,-8.000453,-3.6350794,-0.682425,-4.8175073,-22.985899,6.862604,-6.8995285,2.5420127,-0.5146586,0.88442606,8.797814,0.9662406,9.438618,-21.533916,63.301075,5.3103876,-0.60274637,8.8782625,-9.066672,-11.844727,40.13864,68.25224,2.7336788,-2.323235,-4.7026057
226,-0.41067105531692505,1.7720226049423218,79.1039047241211,0.16129867054057595,2.2076162693639017,-90.41270888784304,-0.82419586,4.9065146,18.457935,6.891659,-8.010932,-3.6417253,-0.6324587,-4.81499,-23.015837,6.864292,-6.9144716,2.5317323,-0.51640916,0.8832954,8.78965,0.90481776,9.443444,-21.53084,63.274815,5.2977343,-0.6036816,8.89115,-9.104974,-11.851613,40.12183,68.240555,2.7171507,-2.334861,-4.7137437
227,-0.4183935523033142,1.7581015825271606,79.1022720336914,0.15979900831335606,2.1876655843479504,-90.38499803177692,-0.79518306,4.9087744,18.427689,6.8932743,-8.020598,-3.6473935,-0.5960404,-4.81651,-23.038418,6.881338,-6.937491,2.5198607,-0.51191217,0.8817938,8.7823,0.83936423,9.449364,-21.528475,63.246414,5.2860312,-0.60535055,8.899478,-9.148607,-11.861999,40.11341,68.22934,2.7023213,-2.3490446,-4.7225094
228,-0.42707282304763794,1.742560625076294,79.1010971069336,0.16021987706545607,2.1676139297456163,-90.35843413546081,-0.76550317,4.9087768,18.401064,6.894277,-8.029693,-3.6550043,-0.5578995,-4.818371,-23.053316,6.8920903,-6.9624104,2.5138035,-0.50552744,0.8772788,8.782892,0.77901405,9.46024,-21.52552,63.202778,5.2786245,-0.6061473,8.901663,-9.167748,-11.887292,40.1047,68.178505,2.6785095,-2.3605008,-4.7244787
229,-0.4316132664680481,1.7284082174301147,79.09794616699219,0.16342150295179142,2.1486351763617475,-90.33225174399735,-0.73654574,4.905524,18.378883,6.894565,-8.037618,-3.6673021,-0.52003646,-4.8209887,-23.053766,6.896503,-6.9930315,2.5174568,-0.49402916,0.87231094,8.773985,0.7211965,9.46452,-21.532198,63.165573,5.2799563,-0.6063581,8.902337,-9.202323,-11.9005575,40.128876,68.16045,2.679714,-2.3760402,-4.7183065
230,-0.4363393485546112,1.715213418006897,79.09530639648438,0.1690069563709644,2.131344450212048,-90.30652630840092,-0.7088329,4.899449,18.359846,6.8939996,-8.044238,-3.6820369,-0.48368445,-4.824428,-23.042307,6.8952947,-7.0261707,2.5262601,-0.48404586,0.86565197,8.763574,0.66268027,9.467316,-21.539001,63.13013,5.2845902,-0.60733396,8.899019,-9.228346,-11.914272,40.16329,68.13553,2.6721303,-2.3921878,-4.7067685
231,-0.44375136494636536,1.698502540588379,79.09159851074219,0.17481237015050755,2.1157514719698125,-90.28202308882031,-0.683412,4.8934994,18.342005,6.894171,-8.050933,-3.6946404,-0.44876212,-4.8279533,-23.032831,6.892729,-7.057784,2.5346296,-0.48144385,0.8609078,8.755232,0.62061054,9.469975,-21.538177,63.07413,5.2854843,-0.6068241,8.894035,-9.256327,-11.941158,40.239105,68.09647,2.6996434,-2.406627,-4.6972103
232,-0.45163625478744507,1.6804841756820679,79.09048461914062,0.17914194031341132,2.1004887437098185,-90.2607121006282,-0.6580448,4.8902297,18.324554,6.8947296,-8.05931,-3.7006006,-0.41635907,-4.831578,-23.038069,6.897512,-7.0862465,2.536861,-0.4720472,0.8573821,8.748396,0.57677764,9.469331,-21.530846,63.01914,5.2844887,-0.6051236,8.889608,-9.277602,-11.9588785,40.276,68.06156,2.6947548,-2.423778,-4.6942606
233,-0.4583090543746948,1.6617785692214966,79.0887451171875,0.18133134182988905,2.085863006752394,-90.2440196558405,-0.63246167,4.890855,18.30771,6.8957148,-8.069834,-3.6941311,-0.38624403,-4.8349633,-23.06686,6.911332,-7.1080675,2.5277793,-0.4577297,0.85563767,8.741593,0.54046696,9.46736,-21.51756,62.95447,5.273163,-0.599176,8.887067,-9.291694,-11.968729,40.287735,68.025955,2.6706848,-2.443929,-4.704896
234,-0.4684903621673584,1.6454843282699585,79.09130096435547,0.1821296260268325,2.0713529720445703,-90.23051194911523,-0.60668087,4.8939505,18.29149,6.897702,-8.082322,-3.67917,-0.35645562,-4.8378315,-23.110933,6.927869,-7.123937,2.5116556,-0.44985533,0.8578923,8.743895,0.50742275,9.460037,-21.481735,62.879284,5.262654,-0.5914808,8.882684,-9.311026,-11.989601,40.3144,67.97874,2.6580884,-2.4640806,-4.7228646
235,-0.4759586751461029,1.631036400794983,79.0926742553711,0.18287560928226618,2.058233055356406,-90.217892084432,-0.58287525,4.897465,18.275629,6.9000287,-8.094926,-3.6657696,-0.32887405,-4.8407917,-23.156422,6.9455466,-7.140025,2.4969711,-0.43419546,0.85919976,8.741936,0.47931394,9.453574,-21.456078,62.80272,5.2446866,-0.5843832,8.88055,-9.319311,-12.000184,40.31562,67.935646,2.6289842,-2.4845617,-4.741951
236,-0.47931772470474243,1.6188896894454956,79.09313201904297,0.1841647551403044,2.0462795112640957,-90.20278290019567,-0.56070906,4.899367,18.258978,6.901143,-8.106352,-3.663946,-0.29899287,-4.841996,-23.191347,6.952057,-7.1570063,2.4921865,-0.41673627,0.85804975,8.742767,0.45077518,9.446506,-21.43213,62.72885,5.233089,-0.5831611,8.879676,-9.33383,-12.008268,40.32354,67.89743,2.6204948,-2.499559,-4.753664
237,-0.48167794942855835,1.6062023639678955,79.09239196777344,0.1863029840193674,2.0354329624885334,-90.1842903757914,-0.54034275,4.8989363,18.240765,6.9005966,-8.116594,-3.6798983,-0.26391512,-4.840487,-23.212263,6.939948,-7.17494,2.5033734,-0.41095287,0.8562811,8.743789,0.43330202,9.437596,-21.397758,62.651657,5.22674,-0.59111845,8.881997,-9.333663,-12.014592,40.321224,67.84662,2.601,-2.5051894,-4.754654
238,-0.4858033359050751,1.592531442642212,79.09315490722656,0.18893155235032053,2.025486760325377,-90.16428592713942,-0.52135307,4.8972573,18.22195,6.8991632,-8.126684,-3.7071033,-0.22596397,-4.837147,-23.225616,6.9163923,-7.1934385,2.5247352,-0.40206313,0.8533225,8.747556,0.41494802,9.426635,-21.363155,62.576427,5.222762,-0.604978,8.886825,-9.342128,-12.019869,40.325348,67.80409,2.602067,-2.506292,-4.7490864
239,-0.492705762386322,1.578595519065857,79.09004974365234,0.19181651439595548,2.017234532365345,-90.1435501366918,-0.50524074,4.895262,18.203207,6.8992114,-8.136086,-3.7364914,-0.19055812,-4.833924,-23.234177,6.892118,-7.2112427,2.5470746,-0.40265158,0.85306495,8.75057,0.40312797,9.407828,-21.319185,62.50163,5.226654,-0.6200713,8.890275,-9.341604,-12.025326,40.32361,67.75594,2.593433,-2.5055501,-4.7417417
240,-0.4942307770252228,1.5700770616531372,79.0828857421875,0.1950066567832811,2.01093564158365,-90.12241008540673,-0.49125662,4.892823,18.185085,6.898329,-8.141773,-3.7589095,-0.16075823,-4.8324375,-23.241158,6.876116,-7.2277203,2.5612264,-0.40262166,0.8559381,8.750627,0.38621512,9.379654,-21.284185,62.44054,5.2377353,-0.6320191,8.890732,-9.3450775,-12.030167,40.32603,67.71884,2.5950153,-2.5085478,-4.7369695
