Frame,root_translateX,root_translateY,root_translateZ,root_rotateX,root_rotateY,root_rotateZ,left_hip_pitch_joint_dof,left_hip_roll_joint_dof,left_hip_yaw_joint_dof,left_knee_joint_dof,left_ankle_pitch_joint_dof,left_ankle_roll_joint_dof,right_hip_pitch_joint_dof,right_hip_roll_joint_dof,right_hip_yaw_joint_dof,right_knee_joint_dof,right_ankle_pitch_joint_dof,right_ankle_roll_joint_dof,waist_yaw_joint_dof,waist_roll_joint_dof,waist_pitch_joint_dof,left_shoulder_pitch_joint_dof,left_shoulder_roll_joint_dof,left_shoulder_yaw_joint_dof,left_elbow_joint_dof,left_wrist_roll_joint_dof,left_wrist_pitch_joint_dof,left_wrist_yaw_joint_dof,right_shoulder_pitch_joint_dof,right_shoulder_roll_joint_dof,right_shoulder_yaw_joint_dof,right_elbow_joint_dof,right_wrist_roll_joint_dof,right_wrist_pitch_joint_dof,right_wrist_yaw_joint_dof
0,0.0343363992869854,-2.0775885581970215,78.18572235107422,0.19593575637816188,-0.617844877041527,90.0829329197906,5.777717,10.457863,23.906967,6.918088,-8.616936,-9.208285,4.892874,-9.410141,-21.26709,7.632405,-9.993224,6.9662156,-2.388304,-0.7976936,8.794349,1.2733848,14.090749,-26.301952,65.70899,8.418165,-4.9859033,9.304852,-1.7099807,-11.524699,32.485382,60.71372,-11.94798,-2.3280141,-8.00031
1,0.042299214750528336,-2.0633480548858643,78.1916732788086,0.19614729876450746,-0.6273042945548587,90.08362077309286,5.7928205,10.457662,23.901426,6.919308,-8.626386,-9.198326,4.906549,-9.412039,-21.285072,7.639706,-10.002045,6.959338,-2.3875468,-0.8005004,8.802102,1.2906551,14.092708,-26.297674,65.70384,8.406365,-4.982191,9.322746,-1.7146494,-11.528519,32.47891,60.6999,-11.912447,-2.325191,-7.9947863
2,0.042232878506183624,-2.062840461730957,78.1902847290039,0.1974768760077918,-0.6370427694236127,90.08400245373217,5.808612,10.457142,23.89548,6.9201484,-8.636489,-9.187075,4.9212103,-9.413946,-21.304974,7.6463604,-10.011603,6.9509096,-2.3863623,-0.80201155,8.810577,1.3113061,14.094263,-26.290407,65.69583,8.397473,-4.978182,9.3425665,-1.7215387,-11.534031,32.468918,60.687634,-11.877279,-2.3227718,-7.9882865
3,0.04070359840989113,-2.0563957691192627,78.19115447998047,0.19759356520045615,-0.6462838048545728,90.08508709005065,5.8230977,10.457789,23.890142,6.921374,-8.644956,-9.178509,4.934593,-9.415066,-21.321129,7.6537004,-10.019771,6.945576,-2.3866253,-0.8024656,8.82001,1.3294755,14.09468,-26.282707,65.68776,8.389101,-4.9743567,9.359316,-1.7277604,-11.539409,32.45809,60.674335,-11.84704,-2.3202627,-7.9809833
4,0.0370357483625412,-2.0584535598754883,78.18753814697266,0.1947374869004207,-0.6551753977063813,90.08811637781105,5.836399,10.460943,23.886736,6.9218736,-8.6488695,-9.176789,4.9494863,-9.412528,-21.328606,7.6548843,-10.020695,6.948132,-2.3903115,-0.8022211,8.830506,1.3436165,14.09442,-26.27669,65.678696,8.380697,-4.968533,9.371524,-1.735318,-11.543554,32.448578,60.663795,-11.826087,-2.315954,-7.9740114
5,0.037352096289396286,-2.0574164390563965,78.18716430664062,0.1882704754661242,-0.6679711823116478,90.09544947229445,5.85178,10.469613,23.885788,6.921807,-8.6448555,-9.186383,4.97356,-9.402976,-21.32271,7.6437635,-10.0090685,6.9653034,-2.4021454,-0.7958367,8.856417,1.3617963,14.093894,-26.264923,65.64682,8.376765,-4.955581,9.379279,-1.7535354,-11.554001,32.42577,60.65371,-11.831988,-2.3079183,-7.961754
6,0.03914166986942291,-2.055917263031006,78.18730163574219,0.17832693122113044,-0.6799094915050508,90.10487313696791,5.8648906,10.481446,23.887432,6.9208813,-8.634653,-9.203909,4.996839,-9.390201,-21.305872,7.630344,-9.991257,6.9925194,-2.4183834,-0.79411715,8.876136,1.3660477,14.09372,-26.261917,65.63315,8.363642,-4.9423103,9.38166,-1.7656657,-11.557043,32.415318,60.64461,-11.843633,-2.2965126,-7.9562497
7,0.04298285394906998,-2.049690008163452,78.18888092041016,0.16850335888007453,-0.6908321343287577,90.11428999210048,5.8769736,10.493826,23.888409,6.920281,-8.625258,-9.222116,5.021678,-9.375566,-21.289404,7.6107726,-9.970308,7.0182695,-2.4309716,-0.7874754,8.900913,1.3714724,14.093638,-26.258308,65.60877,8.3548155,-4.9297285,9.380384,-1.7839056,-11.562758,32.395195,60.640247,-11.8564415,-2.2874765,-7.944658
8,0.04392674192786217,-2.0373480319976807,78.19161224365234,0.16221210873861885,-0.6940089968111708,90.11978106584957,5.882574,10.501266,23.88716,6.91987,-8.621724,-9.2331085,5.0335264,-9.367116,-21.281153,7.6019506,-9.958699,7.0308495,-2.4322903,-0.7814132,8.913768,1.3745129,14.093308,-26.259237,65.59296,8.351045,-4.92718,9.375215,-1.7917194,-11.569181,32.38247,60.63427,-11.842312,-2.2846189,-7.928169
9,0.041285380721092224,-2.033613443374634,78.19125366210938,0.16046714148759023,-0.6854415819489362,90.11927713193924,5.8782206,10.502349,23.881647,6.9202027,-8.627762,-9.234021,5.028594,-9.365879,-21.288225,7.6044955,-9.9595785,7.022667,-2.4185214,-0.7749902,8.909189,1.3784353,14.092545,-26.262861,65.58532,8.357353,-4.939902,9.364286,-1.7926215,-11.57333,32.383816,60.63481,-11.784915,-2.2907116,-7.9051
10,0.03364857658743858,-2.041295289993286,78.18466186523438,0.16181163091813458,-0.6683353883398903,90.11488840556981,5.867595,10.499203,23.87381,6.9182854,-8.638057,-9.2290945,5.0122623,-9.368686,-21.304186,7.6122913,-9.966486,7.0014844,-2.3956397,-0.76607734,8.892664,1.3847147,14.090874,-26.270039,65.57972,8.368581,-4.962745,9.3486395,-1.7882673,-11.578554,32.39683,60.63851,-11.696156,-2.3027248,-7.8765078
11,0.030920151621103287,-2.027280330657959,78.18504333496094,0.1634646466796881,-0.6508750699181306,90.11021870435408,5.854684,10.495791,23.865522,6.9206834,-8.651559,-9.222131,4.9934006,-9.373476,-21.319096,7.624984,-9.97695,6.978428,-2.3771656,-0.75588614,8.8721895,1.3931448,14.086508,-26.278673,65.57684,8.375609,-4.9858546,9.3344965,-1.7816744,-11.58884,32.424145,60.642807,-11.598172,-2.3157778,-7.8477
12,0.03351660817861557,-2.015718936920166,78.18798828125,0.16456841098200053,-0.6416319923308313,90.1093080100043,5.8496003,10.493395,23.85945,6.921209,-8.660501,-9.216418,4.984721,-9.376128,-21.323738,7.6340423,-9.9842,6.964796,-2.3723385,-0.7464015,8.861622,1.402549,14.079638,-26.279902,65.57111,8.375962,-4.9993935,9.325642,-1.7738372,-11.602335,32.447712,60.638626,-11.523388,-2.3247368,-7.819928
13,0.038171179592609406,-2.0094313621520996,78.19097900390625,0.16286096871741784,-0.6440647851091467,90.11312479157709,5.853951,10.494216,23.857216,6.9222474,-8.663933,-9.210764,4.9884324,-9.375674,-21.309046,7.640652,-9.985739,6.9640985,-2.3790033,-0.7400458,8.868486,1.4071763,14.073452,-26.27679,65.562836,8.362975,-4.99979,9.3196535,-1.7709136,-11.613161,32.44996,60.63229,-11.484569,-2.331558,-7.787133
14,0.036784082651138306,-2.0114409923553467,78.1898193359375,0.15977072259451483,-0.6536119037087378,90.11962009548668,5.8651204,10.495846,23.857365,6.921635,-8.664003,-9.204119,5.00062,-9.373251,-21.282469,7.6431317,-9.982581,6.970094,-2.3913531,-0.7356083,8.8846655,1.4090722,14.068423,-26.273502,65.55331,8.34008,-4.9923205,9.31513,-1.7697204,-11.620935,32.439617,60.625595,-11.465069,-2.338305,-7.7502723
15,0.03723582625389099,-2.0087220668792725,78.19100952148438,0.1581801710333302,-0.6653988779550147,90.12765935189267,5.877139,10.497274,23.857157,6.9236593,-8.664383,-9.200135,5.0156937,-9.371917,-21.258186,7.6464047,-9.982549,6.979528,-2.406407,-0.7348598,8.901141,1.4116577,14.0658045,-26.270933,65.543526,8.320005,-4.981271,9.316355,-1.7682132,-11.62428,32.42958,60.621334,-11.461797,-2.3421485,-7.7217813
16,0.03312219679355621,-2.0028305053710938,78.1876220703125,0.15751762285397108,-0.6759847113727264,90.13629882606655,5.889204,10.496205,23.854143,6.9234815,-8.6641035,-9.202713,5.0333085,-9.373036,-21.251097,7.645495,-9.987271,6.989128,-2.4153957,-0.7348093,8.916714,1.4136227,14.063383,-26.267357,65.53158,8.323592,-4.9702635,9.326805,-1.7636113,-11.626664,32.414375,60.61576,-11.482343,-2.3421683,-7.7078457
17,0.032980844378471375,-1.998090386390686,78.1847915649414,0.1607998675257482,-0.6875432435916732,90.14759396725123,5.9032135,10.49139,23.845606,6.9224772,-8.663989,-9.218788,5.0604286,-9.3774,-21.27245,7.634849,-10.000599,7.000697,-2.4183142,-0.737117,8.930632,1.4155791,14.058866,-26.263435,65.51961,8.364747,-4.9599366,9.354886,-1.7498754,-11.630001,32.391388,60.605194,-11.543352,-2.3350105,-7.7184324
18,0.03228043019771576,-1.9945658445358276,78.17896270751953,0.1652362573456325,-0.700323596322095,90.16106756035238,5.9189377,10.483677,23.833883,6.9205728,-8.662967,-9.24436,5.094073,-9.384334,-21.311665,7.6186366,-10.02028,7.014914,-2.425395,-0.74401635,8.940147,1.4206411,14.057191,-26.261152,65.5087,8.421591,-4.94936,9.396262,-1.736876,-11.630732,32.383743,60.599785,-11.622415,-2.3222902,-7.749908
19,0.027143707498908043,-1.9870232343673706,78.17577362060547,0.1703010406144711,-0.7097860186260028,90.17276865774797,5.931493,10.475491,23.8227,6.9191604,-8.663295,-9.266598,5.123249,-9.391781,-21.352108,7.602399,-10.037797,7.0273438,-2.4274318,-0.7499134,8.947448,1.4276634,14.054344,-26.25499,65.49338,8.485255,-4.936329,9.436918,-1.7168337,-11.63134,32.370968,60.587955,-11.707253,-2.3077543,-7.7847223
20,0.02927461825311184,-1.9814485311508179,78.18000793457031,0.17520156397419553,-0.7092059050284306,90.17790705394977,5.9329395,10.469188,23.817009,6.918899,-8.665501,-9.272667,5.132571,-9.398135,-21.376282,7.5958266,-10.047384,7.033077,-2.419266,-0.75003344,8.949764,1.4240538,14.04677,-26.245623,65.48407,8.533116,-4.9219875,9.460331,-1.6987615,-11.632171,32.35392,60.57662,-11.765338,-2.2975352,-7.8066216
21,0.030903741717338562,-1.9776886701583862,78.18514251708984,0.17807836080033906,-0.6919780120338498,90.17147294097963,5.9177275,10.464328,23.820835,6.9197645,-8.671772,-9.250214,5.1107283,-9.403175,-21.374662,7.602361,-10.04251,7.0274677,-2.3991947,-0.74548477,8.939673,1.4141009,14.04263,-26.240498,65.475975,8.545042,-4.9050345,9.456387,-1.6852506,-11.632283,32.351765,60.569138,-11.767378,-2.2919102,-7.8138027
22,0.029461435973644257,-1.9747287034988403,78.18885803222656,0.1800055442234988,-0.6673964896916132,90.15868633779215,5.8953724,10.459918,23.829351,6.920655,-8.680624,-9.209376,5.0765176,-9.406808,-21.360426,7.6102877,-10.0257635,7.0145164,-2.3720553,-0.7364109,8.926847,1.4062443,14.041633,-26.237751,65.46213,8.537642,-4.8887935,9.438875,-1.676408,-11.632177,32.35245,60.565372,-11.742851,-2.2899568,-7.811712
23,0.026535391807556152,-1.9751191139221191,78.18941497802734,0.18148255814350225,-0.6345988622445696,90.14388275079901,5.8631415,10.457115,23.839893,6.9234385,-8.689219,-9.169722,5.0267024,-9.410672,-21.340916,7.6275363,-10.010972,7.00097,-2.3389652,-0.72767556,8.905072,1.3902398,14.039437,-26.231012,65.45081,8.527287,-4.8653774,9.4141445,-1.6617326,-11.6319895,32.35567,60.556202,-11.707669,-2.287322,-7.8097615
24,0.019789567217230797,-1.9797395467758179,78.18329620361328,0.18253863560787328,-0.6150791540941537,90.14003923122588,5.8427825,10.455416,23.841562,6.925102,-8.693212,-9.151377,4.999156,-9.413338,-21.335136,7.63648,-10.003657,6.9956455,-2.3217387,-0.7221463,8.894003,1.3800031,14.036009,-26.22032,65.44082,8.52163,-4.847671,9.408926,-1.6468819,-11.631567,32.36159,60.54555,-11.693311,-2.285452,-7.812499
25,0.013941251672804356,-1.9776655435562134,78.17463684082031,0.18006489152310284,-0.6118096516554552,90.15204989549767,5.8367825,10.45639,23.830261,6.9236393,-8.688983,-9.167313,5.0026956,-9.412047,-21.350721,7.6265087,-10.003401,7.002426,-2.3255374,-0.7188145,8.895017,1.3818207,14.02915,-26.202017,65.42441,8.524628,-4.8276343,9.434507,-1.6339253,-11.63024,32.37001,60.536346,-11.716469,-2.2835379,-7.8244123
26,0.017229080200195312,-1.970420241355896,78.17341613769531,0.17614470571651922,-0.6173791094842132,90.17375755408673,5.8371887,10.459521,23.810944,6.922515,-8.680661,-9.204239,5.0226355,-9.40877,-21.378359,7.60723,-10.007803,7.016467,-2.3356214,-0.7172898,8.902296,1.3871331,14.023878,-26.188429,65.4055,8.52548,-4.8059716,9.478122,-1.6221497,-11.628758,32.374454,60.530033,-11.759665,-2.2831254,-7.840494
27,0.02269064076244831,-1.9690914154052734,78.17190551757812,0.17201145296689033,-0.6264747783220098,90.19675105108779,5.8421164,10.462372,23.791178,6.9194837,-8.670845,-9.243445,5.04933,-9.404451,-21.406042,7.5839205,-10.012445,7.0319557,-2.358581,-0.7152177,8.911981,1.3996336,14.013271,-26.157957,65.38511,8.536863,-4.7912254,9.520771,-1.6155401,-11.624698,32.387524,60.528503,-11.798358,-2.2827482,-7.855871
28,0.021505486220121384,-1.963767170906067,78.17440795898438,0.1696017535166489,-0.6324030763402556,90.21118198952786,5.8458853,10.463253,23.779524,6.9183884,-8.665225,-9.266264,5.0674934,-9.402441,-21.419643,7.5690126,-10.015775,7.043019,-2.3686504,-0.7138824,8.919006,1.4054691,14.005535,-26.14096,65.36931,8.539762,-4.793511,9.5400095,-1.6047591,-11.620445,32.397366,60.525314,-11.800978,-2.2844462,-7.863254
29,0.01642174832522869,-1.961975336074829,78.1768569946289,0.17021147580078663,-0.6362100247828052,90.21331741182809,5.8522973,10.4617605,23.780205,6.9170737,-8.664061,-9.267053,5.0755577,-9.40354,-21.409218,7.569034,-10.018808,7.048686,-2.3636363,-0.7124783,8.925647,1.404989,14.00257,-26.13456,65.3579,8.537164,-4.8261833,9.522515,-1.5928129,-11.617875,32.4068,60.523613,-11.749132,-2.2893717,-7.859635
30,0.013827375136315823,-1.9516570568084717,78.18223571777344,0.17146673585644898,-0.6402618196050743,90.20833461666906,5.860208,10.459481,23.788029,6.9187336,-8.666383,-9.255803,5.08135,-9.40567,-21.384031,7.5738206,-10.020598,7.051849,-2.3551784,-0.7125974,8.93154,1.4033813,13.999793,-26.12886,65.35019,8.531978,-4.8802533,9.482516,-1.5811586,-11.613835,32.42499,60.52477,-11.659481,-2.2955182,-7.851016
31,0.012444185093045235,-1.9581243991851807,78.1805191040039,0.1747698109648732,-0.6408565811130126,90.20182405778642,5.8646054,10.4552555,23.796846,6.920263,-8.669755,-9.238215,5.080634,-9.410112,-21.360113,7.5836387,-10.023729,7.0527005,-2.354857,-0.7136907,8.931032,1.4064276,13.996727,-26.117662,65.3433,8.527922,-4.9329853,9.440353,-1.5744421,-11.604526,32.451015,60.53353,-11.560917,-2.3022718,-7.8397512
32,0.017024433240294456,-1.958225131034851,78.18354034423828,0.1784019801156361,-0.634519181078792,90.19924413540629,5.859114,10.449357,23.800467,6.921014,-8.672018,-9.219985,5.0731487,-9.415912,-21.353825,7.5898695,-10.02601,7.05132,-2.3575172,-0.71529114,8.924739,1.4115032,13.995012,-26.102476,65.33211,8.534445,-4.960437,9.414513,-1.5658325,-11.591427,32.45298,60.539944,-11.497094,-2.3092766,-7.823825
33,0.01725766994059086,-1.9584825038909912,78.18379211425781,0.18484316528969028,-0.6131890792748692,90.20187490812532,5.8325696,10.439069,23.796196,6.921381,-8.672917,-9.197227,5.0500526,-9.425631,-21.376852,7.5908337,-10.027994,7.0448895,-2.367976,-0.7153974,8.903616,1.4227469,13.994308,-26.08862,65.31122,8.547621,-4.947935,9.414449,-1.5434986,-11.586015,32.4298,60.528206,-11.471303,-2.3161373,-7.7991023
34,0.014700829051434994,-1.9599024057388306,78.1822280883789,0.19312155867378142,-0.5812102315121201,90.20688301460964,5.791385,10.425014,23.787743,6.922589,-8.674102,-9.168598,5.01451,-9.43888,-21.417976,7.590755,-10.030313,7.0342126,-2.3699708,-0.71807116,8.878959,1.4251974,13.991896,-26.063452,65.29028,8.588644,-4.911031,9.424579,-1.5189853,-11.566375,32.341,60.517185,-11.50179,-2.3264267,-7.760101
35,0.011436469852924347,-1.9592652320861816,78.17955780029297,0.20064006686792984,-0.5533353650134549,90.21349090476943,5.7552547,10.41298,23.778069,6.9221377,-8.673939,-9.144124,4.984302,-9.450112,-21.459562,7.590167,-10.03168,7.025088,-2.3674593,-0.7201972,8.852872,1.4200834,13.988918,-26.05506,65.28331,8.619862,-4.8714347,9.440926,-1.4962419,-11.541424,32.2574,60.51423,-11.532379,-2.336037,-7.7271614
36,0.007417756598442793,-1.9640591144561768,78.17815399169922,0.20248181342263735,-0.5446251730595626,90.22130702530397,5.7420974,10.408577,23.76984,6.922631,-8.674255,-9.133577,4.9778757,-9.454348,-21.48445,7.5887027,-10.031038,7.023299,-2.3659697,-0.7206889,8.84188,1.4151611,13.987538,-26.0537,65.2846,8.637455,-4.850083,9.45359,-1.4774467,-11.519523,32.21486,60.51029,-11.540586,-2.340601,-7.710823
37,0.008316009305417538,-1.963414192199707,78.17816162109375,0.19546644083464795,-0.5602465736273966,90.23906799061483,5.756888,10.415775,23.7564,6.923693,-8.672626,-9.1452265,5.0070333,-9.447177,-21.492186,7.582754,-10.024791,7.0346174,-2.3701792,-0.71653694,8.851008,1.4037447,13.988898,-26.064573,65.30306,8.634126,-4.8610487,9.454245,-1.4634277,-11.506969,32.224255,60.50348,-11.517949,-2.3414304,-7.712621
38,0.011262122541666031,-1.9488983154296875,78.1795883178711,0.18253791419764098,-0.5919627192124931,90.26411357576669,5.790707,10.430346,23.738897,6.923094,-8.668443,-9.171851,5.0609937,-9.431996,-21.490768,7.5722623,-10.014754,7.0546517,-2.377341,-0.7104291,8.872851,1.387474,13.99291,-26.08451,65.334274,8.618547,-4.890063,9.449639,-1.4515027,-11.495956,32.26371,60.494873,-11.481379,-2.339056,-7.7267995
39,0.013818037696182728,-1.9430564641952515,78.17760467529297,0.16988173480848662,-0.6336021825209954,90.27857318016225,5.838648,10.446707,23.73145,6.9229145,-8.667175,-9.200582,5.118707,-9.4162245,-21.47471,7.5678926,-10.00753,7.0734515,-2.3883173,-0.70744026,8.896754,1.3860441,14.002883,-26.100313,65.36067,8.592926,-4.918492,9.450347,-1.4546826,-11.478646,32.343517,60.50634,-11.425608,-2.3348944,-7.7557487
40,0.010137886740267277,-1.947368860244751,78.17413330078125,0.1609270668245394,-0.6811561718537655,90.26322201025488,5.8993,10.459608,23.74986,6.9228115,-8.67326,-9.218238,5.1651187,-9.404664,-21.43787,7.5724845,-10.007096,7.0811486,-2.364122,-0.7025795,8.94322,1.3780867,14.008442,-26.098465,65.3724,8.597582,-4.928071,9.460866,-1.4560975,-11.470464,32.37885,60.504517,-11.404853,-2.333322,-7.7786365
41,0.0054765003733336926,-1.9635155200958252,78.16615295410156,0.15967160316902776,-0.7428762592922044,90.19640149497856,5.9864645,10.467229,23.813158,6.9248114,-8.694178,-9.218623,5.1927204,-9.401811,-21.360579,7.6025867,-10.024544,7.070652,-2.2888,-0.6983407,9.013727,1.3718576,14.010178,-26.082827,65.36576,8.62964,-4.9083977,9.493812,-1.4602672,-11.466413,32.38511,60.50281,-11.4128275,-2.3330653,-7.805403
42,0.0023021798115223646,-1.982367992401123,78.16338348388672,0.16164669774505802,-0.8195447315350354,90.09300572097474,6.099435,10.471703,23.909054,6.925857,-8.724469,-9.209567,5.2137485,-9.403596,-21.251352,7.6494837,-10.054035,7.048756,-2.1849766,-0.696364,9.111736,1.367586,14.010368,-26.03699,65.34375,8.691384,-4.8715053,9.539407,-1.4808396,-11.459554,32.37799,60.50984,-11.4437895,-2.3339415,-7.836996
43,-0.0025081494823098183,-2.0003273487091064,78.16656494140625,0.16395735151634144,-0.8841692917836845,89.99684161641592,6.1945486,10.476692,23.996777,6.9288416,-8.751871,-9.198951,5.2281055,-9.403019,-21.154646,7.6840453,-10.075089,7.026261,-2.085436,-0.6912785,9.183642,1.3629609,14.009434,-26.013573,65.33545,8.732717,-4.834176,9.583921,-1.4888982,-11.45668,32.37042,60.516785,-11.468878,-2.334968,-7.865011
44,-0.008591961115598679,-2.004685163497925,78.17139434814453,0.1637334059709792,-0.9322952688378822,89.93036429832124,6.264868,10.481736,24.059465,6.92785,-8.765432,-9.197513,5.2377806,-9.40188,-21.08941,7.7162895,-10.088464,7.0140915,-2.0246603,-0.68796587,9.261441,1.3549536,14.005448,-25.951468,65.314476,8.796709,-4.802645,9.609995,-1.5182451,-11.446502,32.347664,60.52604,-11.501844,-2.3428566,-7.8832717
45,-0.013052270747721195,-2.004788875579834,78.17208099365234,0.15553829144545217,-0.9328726973333578,89.93086487532021,6.261017,10.491367,24.059904,6.927361,-8.7536745,-9.20812,5.238543,-9.390947,-21.09736,7.7074823,-10.068558,7.0190616,-2.031722,-0.680787,9.265082,1.346865,14.004267,-25.935143,65.32409,8.805598,-4.786022,9.61231,-1.529182,-11.436708,32.3436,60.5374,-11.50261,-2.3527412,-7.886246
46,-0.00942237675189972,-2.0072128772735596,78.17227935791016,0.14341690282903305,-0.9054128824949536,89.96885908902311,6.213873,10.503188,24.025723,6.9260206,-8.725916,-9.226,5.2303333,-9.375736,-21.147785,7.680187,-10.030975,7.034116,-2.0750763,-0.67091334,9.232685,1.3384807,14.005843,-25.940565,65.342186,8.787926,-4.7748837,9.599686,-1.5302701,-11.430596,32.34132,60.54439,-11.488113,-2.3664846,-7.878793
47,-0.006413603201508522,-2.0045979022979736,78.17471313476562,0.13212144825471261,-0.8735269065130392,90.01379138106684,6.1604357,10.514149,23.985186,6.9244018,-8.697048,-9.244372,5.220736,-9.361127,-21.206446,7.652346,-9.99465,7.049081,-2.1186216,-0.6637443,9.192064,1.3302722,14.011277,-25.95771,65.36276,8.760228,-4.770484,9.582533,-1.5253714,-11.420978,32.335426,60.549725,-11.467052,-2.381001,-7.8720975
48,0.0011803063098341227,-2.0023880004882812,78.1781997680664,0.12521180661010373,-0.8612448721079464,90.03522455162827,6.137053,10.521441,23.966146,6.923849,-8.681864,-9.256427,5.2183805,-9.352542,-21.239328,7.639638,-9.977336,7.05401,-2.1350772,-0.6590204,9.173781,1.3287419,14.0171,-25.964022,65.37348,8.744151,-4.77539,9.570077,-1.5182741,-11.412878,32.32847,60.548237,-11.444782,-2.3945267,-7.874246
49,5.747796876676148e-06,-2.0045392513275146,78.17671203613281,0.12488259992903167,-0.8806623481459256,90.0193351265165,6.1629415,10.523597,23.981379,6.924478,-8.688696,-9.261092,5.230374,-9.351543,-21.234972,7.646766,-9.988818,7.042416,-2.1071112,-0.6567336,9.188932,1.334736,14.020198,-25.956648,65.374954,8.741999,-4.799264,9.564952,-1.5083178,-11.408079,32.3204,60.540977,-11.413869,-2.4081926,-7.8896637
50,-0.0018941047601401806,-2.0050535202026367,78.17237854003906,0.1295862200676507,-0.917933326399311,89.983892856578,6.21656,10.521966,24.014763,6.925105,-8.707701,-9.261791,5.2488656,-9.357136,-21.211401,7.671395,-10.021336,7.0209985,-2.059441,-0.6602748,9.226901,1.3503305,14.02551,-25.922651,65.364365,8.761232,-4.8386865,9.55876,-1.5016345,-11.3984995,32.305065,60.532227,-11.386283,-2.4229574,-7.9106135
51,-0.004072562325745821,-2.0136287212371826,78.16553497314453,0.1348736262372461,-0.9552175468792123,89.9468389459836,6.2707405,10.51903,24.049425,6.9251018,-8.727289,-9.258376,5.2654686,-9.363942,-21.181738,7.6979856,-10.054877,6.9990697,-2.0150006,-0.66530126,9.264482,1.3688152,14.030469,-25.882643,65.35187,8.781139,-4.874584,9.553242,-1.4987812,-11.3874655,32.29994,60.52578,-11.359159,-2.4361024,-7.935702
52,-0.005339738447219133,-2.021134853363037,78.16328430175781,0.13827138593265187,-0.9755869462457719,89.92651507122442,6.2981796,10.517261,24.068079,6.926864,-8.738106,-9.250762,5.2725296,-9.367953,-21.159513,7.7126594,-10.070402,6.9860644,-1.9854397,-0.6669538,9.281508,1.3789798,14.032297,-25.867891,65.34696,8.786305,-4.8872194,9.54919,-1.4957834,-11.38289,32.30083,60.522827,-11.342261,-2.447143,-7.959854
53,-0.0018601438496261835,-2.0198814868927,78.1666259765625,0.139151033215238,-0.9661553022495013,89.92944597222974,6.2829876,10.515103,24.064365,6.9272428,-8.734238,-9.232015,5.2553024,-9.370364,-21.142242,7.7200856,-10.062815,6.985858,-1.9889416,-0.67008495,9.2701025,1.3906564,14.036283,-25.857244,65.33495,8.792226,-4.861045,9.542482,-1.502953,-11.376099,32.31846,60.53088,-11.358881,-2.4524462,-7.991438
54,-0.00024577323347330093,-2.016817331314087,78.17189025878906,0.13917646257149174,-0.9379769978417604,89.94606096519335,6.240527,10.513256,24.047085,6.92828,-8.722653,-9.204689,5.223777,-9.371064,-21.126282,7.7203946,-10.040041,6.992723,-2.006336,-0.6748811,9.236203,1.3960824,14.042839,-25.867802,65.3281,8.783897,-4.8097596,9.536216,-1.5117258,-11.368567,32.351192,60.5444,-11.389974,-2.4523625,-8.030137
55,0.002328324830159545,-2.0248336791992188,78.17781829833984,0.13818355309251276,-0.9132754189635068,89.96648085905777,6.2005367,10.511954,24.027117,6.9291654,-8.708511,-9.182169,5.198642,-9.370906,-21.115728,7.717566,-10.015946,7.002592,-2.0262976,-0.67992777,9.20328,1.4037508,14.05049,-25.883951,65.3208,8.77026,-4.758657,9.531424,-1.5178187,-11.3618,32.3791,60.55683,-11.411781,-2.4554262,-8.060522
56,-0.0010942879598587751,-2.0363070964813232,78.17984008789062,0.13633494280182382,-0.9144738395839671,89.98034611649328,6.1926126,10.512402,24.015781,6.929055,-8.696664,-9.17786,5.200002,-9.370747,-21.114273,7.7159634,-10.003891,7.0111966,-2.039132,-0.6856938,9.196554,1.4128962,14.054489,-25.887157,65.31788,8.759921,-4.7344522,9.528664,-1.5161697,-11.358506,32.38518,60.556522,-11.401024,-2.4684048,-8.0668
57,-0.0014366322429850698,-2.0520925521850586,78.18013763427734,0.13414731514332978,-0.9600342907638647,89.98550226078129,6.2394714,10.515883,24.017849,6.927265,-8.687497,-9.205667,5.2489758,-9.369695,-21.130547,7.7153974,-10.01246,7.0191293,-2.0469139,-0.69813055,9.232986,1.4367019,14.062441,-25.862808,65.31054,8.750045,-4.7523594,9.529044,-1.5063031,-11.350682,32.36462,60.54204,-11.331936,-2.4973242,-8.033951
58,-0.002809373661875725,-2.068615674972534,78.17426300048828,0.13101937985369733,-1.0345247263381074,89.98714816010786,6.319833,10.521612,24.026474,6.926057,-8.679206,-9.254986,5.328784,-9.368264,-21.15965,7.7157297,-10.033393,7.0281787,-2.0542994,-0.71501434,9.304071,1.4671925,14.07231,-25.808603,65.29714,8.750662,-4.796169,9.528482,-1.497758,-11.337998,32.31353,60.520042,-11.235425,-2.5388417,-7.9693847
59,0.0026924158446490765,-2.0587499141693115,78.17977905273438,0.12722221748080736,-1.107252020980459,89.98651720455699,6.3997617,10.527324,24.036213,6.9234657,-8.672182,-9.302725,5.406521,-9.366365,-21.186876,7.715867,-10.054058,7.03532,-2.0596256,-0.730193,9.370375,1.4956794,14.079802,-25.761692,65.28966,8.753163,-4.842993,9.528885,-1.4883096,-11.326132,32.26513,60.499676,-11.137141,-2.5799732,-7.906833
60,0.0037273436319082975,-2.0555038452148438,78.17860412597656,0.12581223807443812,-1.1474191727879615,89.98473342132779,6.4433384,10.531317,24.041275,6.9230013,-8.669836,-9.3255005,5.4479365,-9.364643,-21.197077,7.7173405,-10.063451,7.037685,-2.0632222,-0.7377364,9.400129,1.5154599,14.083319,-25.745798,65.2906,8.759883,-4.8705597,9.527845,-1.480253,-11.320522,32.24379,60.487812,-11.072484,-2.6096208,-7.875624
61,0.0053624724969267845,-2.0606026649475098,78.17665100097656,0.12591561323971728,-1.1373352481079102,89.9808360797823,6.431675,10.531994,24.039034,6.9239497,-8.673971,-9.310157,5.4321866,-9.363352,-21.178566,7.723838,-10.057594,7.032307,-2.0663123,-0.7375734,9.382311,1.5224807,14.088457,-25.759914,65.29614,8.790175,-4.8728933,9.518242,-1.4808872,-11.315313,32.245453,60.486507,-11.06831,-2.6239598,-7.882924
62,0.00333978608250618,-2.063627243041992,78.17858123779297,0.12745272953180994,-1.0947623612629178,89.97416917855524,6.3849325,10.530752,24.033356,6.925794,-8.682507,-9.271375,5.379129,-9.362615,-21.141264,7.7342076,-10.042858,7.021393,-2.0631115,-0.7319196,9.32421,1.5260532,14.095878,-25.81607,65.30563,8.818437,-4.860049,9.506661,-1.4811469,-11.310891,32.270756,60.497128,-11.087132,-2.6296628,-7.918622
63,0.0027317297644913197,-2.066049098968506,78.17893981933594,0.12937379433119744,-1.0485611535709025,89.96796287942534,6.333519,10.5295515,24.026735,6.9279103,-8.6920395,-9.227919,5.321021,-9.36182,-21.104637,7.746046,-10.026477,7.0099635,-2.0457985,-0.7279321,9.254683,1.5281466,14.111819,-25.907564,65.31631,8.826995,-4.83797,9.499714,-1.4702271,-11.304966,32.30297,60.507576,-11.112522,-2.6300123,-7.9704504
64,0.0026038202922791243,-2.0630948543548584,78.1762924194336,0.12896333528905013,-1.0308040976860533,89.96511289068056,6.311879,10.530742,24.021894,6.928971,-8.698907,-9.198936,5.29741,-9.358778,-21.088428,7.7502756,-10.013188,7.003065,-2.0420613,-0.72497123,9.233673,1.5299484,14.114852,-25.920538,65.31856,8.860838,-4.818701,9.494103,-1.4738181,-11.304378,32.310043,60.510895,-11.159834,-2.6323025,-8.006807
65,0.0012260576477274299,-2.0814270973205566,78.17123413085938,0.1246537633664245,-1.0409222971949157,89.96626115618,6.31722,10.536793,24.019556,6.9309163,-8.702336,-9.187496,5.302574,-9.353663,-21.101803,7.7554293,-10.006078,7.0022817,-2.025119,-0.72245175,9.230631,1.5460954,14.117296,-25.932306,65.30735,8.863388,-4.781816,9.504372,-1.4658585,-11.303753,32.316612,60.521435,-11.208967,-2.6369386,-8.063519
66,0.009226026944816113,-2.081423044204712,78.17552185058594,0.11764390075632762,-1.0733238449636058,89.97089919636284,6.3451896,10.545763,24.017847,6.932658,-8.705019,-9.184643,5.33381,-9.346178,-21.134825,7.756748,-10.000522,7.005233,-2.004784,-0.7217949,9.251987,1.5741806,14.120707,-25.924421,65.28048,8.859548,-4.733071,9.525216,-1.4547133,-11.302434,32.31463,60.530273,-11.274216,-2.6397426,-8.127967
67,0.012156518176198006,-2.094863176345825,78.1722640991211,0.11136394340454064,-1.1119722081864822,89.97565367322326,6.3803735,10.553277,24.01782,6.933056,-8.705229,-9.188846,5.371732,-9.340304,-21.169605,7.757069,-9.998787,7.009153,-1.9867967,-0.72441477,9.282296,1.599501,14.12141,-25.902288,65.25605,8.853093,-4.695808,9.543377,-1.4478636,-11.301682,32.307117,60.540115,-11.331761,-2.6429603,-8.180015
68,0.00908510759472847,-2.0843393802642822,78.17634582519531,0.1089917009841487,-1.1448284392754773,89.97795890413238,6.411303,10.555826,24.020296,6.93288,-8.703139,-9.198901,5.4045753,-9.338798,-21.189827,7.755308,-10.002683,7.011384,-1.9846458,-0.73154587,9.309646,1.6314849,14.121728,-25.861311,65.22733,8.855765,-4.6903067,9.54818,-1.448201,-11.300346,32.29859,60.54985,-11.365585,-2.648201,-8.199683
69,0.009004726074635983,-2.0904762744903564,78.17879486083984,0.11383000090268985,-1.168382267734633,89.9757426342992,6.435376,10.551283,24.027788,6.932585,-8.698162,-9.222515,5.4250693,-9.345004,-21.186012,7.758868,-10.022237,7.0113597,-1.9843218,-0.74691015,9.319828,1.6455971,14.121861,-25.850971,65.225586,8.827517,-4.736251,9.53814,-1.4435959,-11.29963,32.29542,60.557137,-11.33558,-2.6563354,-8.1799555
70,0.004403569269925356,-2.1053974628448486,78.17780303955078,0.12323037514534688,-1.1971850218001483,89.96990192509531,6.469716,10.540281,24.040852,6.9291244,-8.690566,-9.258095,5.4503875,-9.357777,-21.167475,7.765028,-10.053781,7.0111065,-1.9961886,-0.77087784,9.329048,1.6750286,14.123965,-25.8269,65.226776,8.795516,-4.832599,9.514668,-1.4416784,-11.297442,32.289738,60.57001,-11.274388,-2.6700165,-8.121896
71,0.0008468514424748719,-2.107775926589966,78.17676544189453,0.1331397832530514,-1.2167230847668273,89.96470419138285,6.4922004,10.527783,24.052074,6.925975,-8.680816,-9.289003,5.4648232,-9.371809,-21.148394,7.7713118,-10.082366,7.0095186,-2.0070229,-0.7960514,9.331141,1.696797,14.128221,-25.809591,65.22719,8.762036,-4.919849,9.490773,-1.4410379,-11.294236,32.28739,60.581303,-11.20421,-2.679953,-8.061413
72,0.005237475968897343,-2.10504412651062,78.1761474609375,0.14276287128598047,-1.2240038893583935,89.96289759824404,6.4960938,10.5166,24.05635,6.9251175,-8.67139,-9.299142,5.463773,-9.384261,-21.14068,7.7786674,-10.09603,7.006675,-2.0096238,-0.81436056,9.324097,1.7134144,14.132331,-25.801237,65.22005,8.741329,-4.9606843,9.477766,-1.4393477,-11.291363,32.28718,60.59072,-11.1550045,-2.682001,-8.020596
73,0.012607716955244541,-2.112131118774414,78.17749786376953,0.15175667858351674,-1.2106976457983296,89.96583790842352,6.470611,10.504839,24.05039,6.924985,-8.660567,-9.276194,5.4374504,-9.3964205,-21.151682,7.787403,-10.087048,7.002345,-2.0021822,-0.82477397,9.301674,1.720245,14.134796,-25.798822,65.205414,8.743685,-4.930504,9.477149,-1.4372761,-11.289586,32.290436,60.597107,-11.14122,-2.6703708,-8.008802
74,0.015487154945731163,-2.1276164054870605,78.178466796875,0.16068264941488075,-1.1821426376353756,89.97176801369218,6.4233584,10.491986,24.037758,6.9269266,-8.649491,-9.231357,5.3909173,-9.4098015,-21.173298,7.8001447,-10.0652,6.996722,-1.9900224,-0.82976216,9.266787,1.7235212,14.13607,-25.80008,65.182945,8.761108,-4.855774,9.483816,-1.4356146,-11.288471,32.29755,60.601997,-11.144968,-2.6493227,-8.01165
75,0.015360314399003983,-2.133383274078369,78.18316650390625,0.16867707715977295,-1.153070187307808,89.97858206409657,6.374892,10.480954,24.023924,6.9282393,-8.637562,-9.184127,5.344065,-9.420613,-21.195099,7.811342,-10.038839,6.990229,-1.9761008,-0.83208555,9.233864,1.7231048,14.136118,-25.80196,65.16022,8.783383,-4.7745843,9.496501,-1.4336823,-11.288082,32.304623,60.60434,-11.150387,-2.628794,-8.017345
76,0.011286936700344086,-2.151196241378784,78.18512725830078,0.1722894680779143,-1.138128210427643,89.9842433586796,6.3434825,10.476062,24.014187,6.929144,-8.624971,-9.153813,5.313947,-9.42597,-21.206501,7.8205824,-10.019074,6.98323,-1.9637839,-0.8344308,9.215969,1.7240025,14.135698,-25.801231,65.14046,8.80093,-4.724635,9.514229,-1.4316554,-11.288006,32.308914,60.605522,-11.140722,-2.6189296,-8.014809
77,0.012995659373700619,-2.15877366065979,78.19336700439453,0.17106638131912405,-1.1410191998980923,89.98599478793956,6.3348885,10.480141,24.012554,6.9298363,-8.612195,-9.147926,5.303508,-9.423422,-21.199154,7.830585,-10.011577,6.974218,-1.9534564,-0.83643365,9.218138,1.7324302,14.134666,-25.792,65.11649,8.8176365,-4.714994,9.543458,-1.4310985,-11.287998,32.312508,60.60573,-11.106305,-2.6230028,-7.9977884
78,0.012962348759174347,-2.1698851585388184,78.19454956054688,0.1655712092878853,-1.1550060181295208,89.98547384029287,6.3401837,10.490238,24.015617,6.9299383,-8.598793,-9.15557,5.3053555,-9.415156,-21.18032,7.8403406,-10.009388,6.963558,-1.9466712,-0.83787555,9.236629,1.7418504,14.133089,-25.769396,65.09143,8.8399515,-4.7283344,9.580298,-1.4343979,-11.287971,32.315445,60.6042,-11.060371,-2.6359358,-7.9722314
79,0.016461217775940895,-2.180736780166626,78.1952896118164,0.15934887742135756,-1.1749273958716642,89.98796243768619,6.3513303,10.501938,24.016342,6.929364,-8.584466,-9.167709,5.3161483,-9.405125,-21.163786,7.8461795,-10.006195,6.9543085,-1.944975,-0.8387543,9.260331,1.755708,14.132409,-25.746353,65.0639,8.857626,-4.752278,9.615521,-1.4404486,-11.2878685,32.317276,60.605495,-11.013479,-2.6535144,-7.9478188
80,0.021003978326916695,-2.1932246685028076,78.19320678710938,0.15386657958332978,-1.1952194710611554,89.9982067051237,6.360137,10.510721,24.008509,6.9299154,-8.570711,-9.175295,5.328553,-9.3986845,-21.161692,7.8539343,-10.001406,6.9495316,-1.9537097,-0.8411746,9.278194,1.7661556,14.132446,-25.725855,65.04884,8.861782,-4.779013,9.63532,-1.4422579,-11.287478,32.32129,60.604797,-10.977156,-2.6706736,-7.9338408
81,0.027090249583125114,-2.2046258449554443,78.1941146850586,0.15113196264310141,-1.2183858637674974,90.02086679771122,6.3675137,10.515976,23.987156,6.936088,-8.561106,-9.178692,5.3518877,-9.396194,-21.181038,7.8545346,-9.992171,6.955567,-1.9752548,-0.84603465,9.287235,1.7708594,14.133202,-25.719633,65.05541,8.834033,-4.8120513,9.633051,-1.4334078,-11.286824,32.32423,60.602016,-10.956111,-2.6890867,-7.9334264
82,0.02847195416688919,-2.208266258239746,78.19863891601562,0.14879070495545715,-1.2463813683964369,90.05266069965393,6.3765736,10.520008,23.9563,6.9470534,-8.554899,-9.181603,5.386565,-9.395303,-21.214169,7.849018,-9.980649,6.9690604,-2.007441,-0.854041,9.291428,1.7738003,14.135892,-25.721224,65.07738,8.784725,-4.8547716,9.616464,-1.4163901,-11.285225,32.328304,60.59823,-10.943158,-2.7100549,-7.9422717
83,0.03101097047328949,-2.2253925800323486,78.20558166503906,0.14631453753528847,-1.27168282217427,90.08522880881068,6.377938,10.525254,23.92328,6.962763,-8.54867,-9.181005,5.4155154,-9.394198,-21.25225,7.8460803,-9.964931,6.977891,-2.0348957,-0.8616275,9.291889,1.7711353,14.1407175,-25.732996,65.1029,8.735052,-4.894809,9.597637,-1.3962953,-11.282812,32.331215,60.590107,-10.930991,-2.7284827,-7.9586587
84,0.0318419374525547,-2.239001989364624,78.213134765625,0.14245757951221436,-1.2872236100227752,90.11034417957369,6.364685,10.532,23.895523,6.9807177,-8.538518,-9.173504,5.4214263,-9.39268,-21.28602,7.856615,-9.94534,6.970247,-2.0499272,-0.86415577,9.291831,1.7649199,14.143933,-25.742598,65.114586,8.71611,-4.9201646,9.588325,-1.3888074,-11.281536,32.333977,60.583195,-10.914885,-2.7407389,-7.9781003
85,0.032712288200855255,-2.258441209793091,78.21961975097656,0.1381384298374188,-1.2913961948674146,90.12878996253336,6.3321457,10.540741,23.870447,7.0033083,-8.524414,-9.155852,5.4039764,-9.389936,-21.322641,7.879047,-9.919126,6.939567,-2.051893,-0.8618008,9.289217,1.7563109,14.147559,-25.751095,65.11308,8.741946,-4.923319,9.594196,-1.3933859,-11.280756,32.339497,60.572395,-10.887647,-2.7402103,-7.997906
86,0.030894288793206215,-2.28521990776062,78.22383880615234,0.13329523110871397,-1.2839451923679346,90.14733262677504,6.2765594,10.551769,23.841333,7.037279,-8.510332,-9.130198,5.365991,-9.387844,-21.367067,7.91394,-9.890155,6.893452,-2.0457478,-0.8576658,9.281019,1.7395428,14.151088,-25.766998,65.10991,8.791558,-4.913143,9.611321,-1.4043381,-11.280869,32.355156,60.556366,-10.836779,-2.7301483,-8.02831
87,0.039008840918540955,-2.311795473098755,78.22882843017578,0.12660022570735893,-1.2732916040387652,90.1558861963442,6.216445,10.56656,23.822655,7.073335,-8.494718,-9.103027,5.3144464,-9.382822,-21.397144,7.9527082,-9.854559,6.840685,-2.031957,-0.8497465,9.272954,1.72255,14.1553955,-25.779099,65.09436,8.84887,-4.8996005,9.626471,-1.4207641,-11.282252,32.372288,60.544228,-10.800848,-2.7219846,-8.062765
88,0.04594436287879944,-2.343224287033081,78.2373046875,0.11658832745399426,-1.26171216908382,90.14942579852348,6.1590967,10.587009,23.822863,7.1077676,-8.476952,-9.080292,5.249732,-9.37283,-21.395895,7.992425,-9.812319,6.790202,-2.0096385,-0.8368141,9.270466,1.7070909,14.159293,-25.780142,65.05758,8.892211,-4.8935757,9.630934,-1.4414675,-11.284333,32.384983,60.54032,-10.793972,-2.7265327,-8.105515
89,0.04736953601241112,-2.372335910797119,78.24767303466797,0.10231025271010008,-1.256949537519652,90.121215934561,6.118439,10.615051,23.851194,7.1378236,-8.459383,-9.066651,5.1771727,-9.355923,-21.342957,8.03341,-9.767892,6.743158,-1.9728017,-0.8186191,9.282214,1.6965197,14.16314,-25.761126,64.99748,8.926004,-4.9043245,9.618673,-1.4671394,-11.28672,32.38785,60.55375,-10.85721,-2.748033,-8.162468
90,0.04678746312856674,-2.4090704917907715,78.255859375,0.0846055757127731,-1.254889421235351,90.07621280651155,6.0864263,10.64872,23.900568,7.1650805,-8.440948,-9.057865,5.0947046,-9.333559,-21.253471,8.076075,-9.719385,6.6951146,-1.9323932,-0.7960754,9.311241,1.6933917,14.169824,-25.705294,64.90776,8.969747,-4.9254847,9.591655,-1.5061725,-11.2901745,32.383812,60.576447,-10.974114,-2.7811503,-8.226418
91,0.05282790586352348,-2.4471795558929443,78.27347564697266,0.06571828937066673,-1.2437255915745151,90.02600119416059,6.0398054,10.685747,23.954996,7.195754,-8.417812,-9.046602,4.9963684,-9.308161,-21.162077,8.115229,-9.655792,6.64717,-1.8942266,-0.7704154,9.338261,1.6941104,14.176421,-25.640858,64.79109,9.013229,-4.94002,9.561123,-1.5543253,-11.292975,32.37627,60.600796,-11.080972,-2.820954,-8.286988
92,0.050234999507665634,-2.505197763442993,78.28386688232422,0.0452000487421015,-1.2108315500668225,89.98047308057043,5.959811,10.721543,24.001385,7.2257543,-8.381108,-9.025468,4.8726597,-9.282269,-21.101355,8.149642,-9.568244,6.6000714,-1.861598,-0.74438983,9.344318,1.6829814,14.183981,-25.587994,64.66395,9.045097,-4.935566,9.533813,-1.6046566,-11.295862,32.36606,60.61372,-11.112831,-2.8650699,-8.330968
93,0.04623454809188843,-2.5686895847320557,78.2972183227539,0.02162675657909171,-1.1482734678569682,89.94367415030999,5.830702,10.760924,24.033064,7.2643943,-8.331757,-8.993227,4.7182746,-9.252453,-21.093811,8.174485,-9.448618,6.5501533,-1.840805,-0.7165334,9.3286915,1.668733,14.194637,-25.541271,64.51094,9.064373,-4.8977914,9.511707,-1.6642325,-11.29972,32.35505,60.61505,-11.041505,-2.90959,-8.339908
94,0.0472220703959465,-2.6304402351379395,78.3218765258789,-0.003978739881880471,-1.063816880833116,89.90907577745406,5.6689024,10.803518,24.059412,7.3032928,-8.269406,-8.953834,4.537977,-9.218688,-21.116777,8.1930275,-9.304035,6.4982476,-1.8156855,-0.68633866,9.288589,1.6368661,14.20234,-25.518307,64.36044,9.061456,-4.8383937,9.495734,-1.719707,-11.3026285,32.341652,60.610134,-10.898056,-2.9559283,-8.330828
95,0.04814552515745163,-2.6929733753204346,78.34994506835938,-0.0277179506961942,-0.9705173499076792,89.87421921315098,5.490833,10.84128,24.085398,7.3435106,-8.200807,-8.906771,4.3420777,-9.190287,-21.13849,8.21203,-9.146528,6.452246,-1.8005073,-0.6578687,9.255887,1.619518,14.227067,-25.481598,64.14845,9.070796,-4.776639,9.469206,-1.7843019,-11.312401,32.31115,60.58109,-10.739785,-3.014475,-8.318769
96,0.03919798508286476,-2.765981435775757,78.37474060058594,-0.044757843345730276,-0.8812557999381877,89.83602898010484,5.316882,10.864696,24.11738,7.3780346,-8.12855,-8.851872,4.141967,-9.175692,-21.126545,8.236744,-8.987704,6.420301,-1.7837989,-0.6319973,9.2202635,1.5920824,14.250481,-25.464205,63.92131,9.091226,-4.734951,9.437393,-1.8343089,-11.323941,32.2649,60.523846,-10.600888,-3.0888512,-8.340489
97,0.02841496653854847,-2.8483080863952637,78.39900207519531,-0.05017962572041258,-0.8026135990304293,89.79526873099164,5.159164,10.86374,24.159565,7.3994493,-8.050521,-8.789373,3.9475434,-9.182748,-21.06821,8.26446,-8.832733,6.413929,-1.7572325,-0.6153295,9.20043,1.5733778,14.296036,-25.467142,63.633125,9.132105,-4.7173576,9.381658,-1.855574,-11.352932,32.181774,60.406273,-10.500436,-3.1726248,-8.385491
98,0.01428254321217537,-2.9210546016693115,78.42792510986328,-0.04783830922632235,-0.7265391386201601,89.75319275557813,5.00347,10.847473,24.207544,7.4153943,-7.9674425,-8.719376,3.7496011,-9.203625,-20.981535,8.296206,-8.676501,6.425363,-1.7380359,-0.59870917,9.176489,1.5462279,14.329751,-25.474081,63.33507,9.19209,-4.7168365,9.316343,-1.8791453,-11.379947,32.09002,60.28167,-10.409154,-3.265515,-8.4499445
99,-0.01072254404425621,-3.0115859508514404,78.45133972167969,-0.048950713231008726,-0.6446128361642032,89.70739420147486,4.8347616,10.83261,24.255627,7.4348383,-7.882977,-8.640728,3.5374925,-9.22199,-20.88305,8.326061,-8.504312,6.4355745,-1.7214838,-0.57499254,9.153035,1.511754,14.365841,-25.485737,63.00763,9.258839,-4.7232924,9.256778,-1.8935399,-11.413177,31.978743,60.119404,-10.323355,-3.3839574,-8.543813
100,-0.03398556262254715,-3.1064887046813965,78.47342681884766,-0.06502813194356019,-0.5482389305092567,89.65524577435191,4.635468,10.836339,24.297874,7.4697924,-7.8015823,-8.552059,3.2932239,-9.224429,-20.788713,8.362973,-8.308692,6.4256616,-1.7010286,-0.538178,9.139837,1.4798101,14.431926,-25.504313,62.61512,9.31648,-4.729408,9.215515,-1.873265,-11.480303,31.836561,59.86281,-10.236464,-3.5440853,-8.673748
101,-0.05006680265069008,-3.200753688812256,78.50960540771484,-0.09904794380809256,-0.4401046569182926,89.58657476363562,4.409618,10.869048,24.33873,7.5267067,-7.732153,-8.454257,3.0147598,-9.201421,-20.697197,8.411577,-8.086285,6.379899,-1.6976852,-0.4808795,9.128156,1.4470372,14.490505,-25.481419,62.194332,9.40797,-4.736783,9.214342,-1.876486,-11.5455,31.716978,59.60216,-10.123734,-3.7648654,-8.853902
102,-0.08161245286464691,-3.3368821144104004,78.53514099121094,-0.14581127383234052,-0.3231280302238519,89.50565555435065,4.163405,10.918503,24.379374,7.597201,-7.6684194,-8.347632,2.7086558,-9.163762,-20.601694,8.469462,-7.842624,6.3117642,-1.6997927,-0.40990746,9.123267,1.4180629,14.556787,-25.438843,61.724964,9.522295,-4.745461,9.236285,-1.877262,-11.62379,31.59714,59.30235,-9.997682,-4.032911,-9.072088
103,-0.10812661051750183,-3.459535598754883,78.57305908203125,-0.19486806210335833,-0.18889173500387718,89.43183579632635,3.8869593,10.964294,24.40907,7.6674204,-7.594239,-8.230026,2.3785467,-9.127742,-20.509216,8.522233,-7.579934,6.2443233,-1.7274553,-0.33588287,9.102884,1.3733594,14.62036,-25.40643,61.248592,9.60032,-4.759397,9.2655,-1.867808,-11.699082,31.450048,58.953285,-9.896779,-4.3162036,-9.329349
104,-0.1697479635477066,-3.5889222621917725,78.60247039794922,-0.23328176327221714,-0.029132227744420525,89.38409786596426,3.5688345,10.985015,24.417429,7.726254,-7.494247,-8.098621,2.0228908,-9.113694,-20.42595,8.564796,-7.3046427,6.201191,-1.7916552,-0.2718874,9.054794,1.3046037,14.692201,-25.422813,60.774017,9.576661,-4.781079,9.280052,-1.814455,-11.778678,31.23768,58.49962,-9.858183,-4.582062,-9.621177
105,-0.22897587716579437,-3.7010200023651123,78.63408660888672,-0.24805397034432966,0.18260958960683749,89.38027120576395,3.182986,10.95576,24.390154,7.7520123,-7.352637,-7.9504123,1.6216872,-9.141597,-20.359093,8.589316,-7.02248,6.194827,-1.8981043,-0.23299047,8.949428,1.2116312,14.781506,-25.514523,60.29387,9.372248,-4.8122735,9.269652,-1.697406,-11.870517,30.939957,57.922043,-9.915249,-4.83187,-9.957969
106,-0.2746289372444153,-3.8286943435668945,78.66939544677734,-0.2442151728970749,0.4334229559934351,89.4060083986131,2.744987,10.891786,24.33675,7.7552133,-7.18172,-7.786292,1.1848803,-9.196903,-20.303791,8.594749,-6.7252607,6.210382,-2.0392234,-0.21070452,8.8025465,1.0982324,14.881521,-25.657156,59.80604,9.041497,-4.851153,9.2466955,-1.5379483,-11.966919,30.579342,57.25132,-10.040786,-5.078936,-10.338769
107,-0.3212229907512665,-4.014759540557861,78.69425964355469,-0.2154083971005183,0.6785843242367564,89.42535632429754,2.3175437,10.790854,24.297493,7.734884,-6.9887395,-7.605574,0.5219736,-9.366062,-20.195824,9.091179,-6.66413,6.2342315,-2.1907518,-0.21646015,8.665231,0.9655141,14.989097,-25.820726,59.31599,8.717333,-4.8940644,9.222365,-1.3495122,-12.062117,30.171988,56.48924,-10.183357,-5.308025,-10.740443
108,-0.3855474293231964,-4.199571132659912,78.71045684814453,-0.23852294396925952,0.8694894794231736,89.42258879172606,1.6605803,10.88158,24.221521,8.374922,-7.135999,-7.4207706,-0.16810714,-9.502063,-20.068352,9.744953,-6.6504283,6.241176,-2.3414304,-0.17423679,8.601391,0.81805414,15.110999,-25.983849,58.814354,8.528167,-4.9366755,9.2064295,-1.1346326,-12.160173,29.723223,55.61908,-10.291414,-5.505101,-11.1357355
109,-0.45987874269485474,-4.382573127746582,78.72114562988281,-0.32096908330632984,0.982018903041003,89.39231502978058,0.82079583,11.164358,24.11526,9.62833,-7.5991364,-7.2324176,-0.804696,-9.571485,-19.927357,10.429764,-6.6071653,6.2203345,-2.4922955,-0.07864132,8.637826,0.6534895,15.239985,-26.126188,58.301037,8.527629,-4.978155,9.202382,-0.9017453,-12.252528,29.22983,54.642174,-10.357542,-5.6603975,-11.526818
110,-0.548320472240448,-4.582444667816162,78.7347183227539,-0.43610574504635014,1.0407624283455494,89.34366957521596,-0.00793924,11.50372,24.013092,10.982018,-8.109807,-7.0341325,-1.4014223,-9.603198,-19.774904,11.122946,-6.5349703,6.183285,-2.6474454,0.043737326,8.742935,0.4704264,15.3763,-26.265661,57.779854,8.640264,-5.0207524,9.204962,-0.6469337,-12.338738,28.688623,53.565887,-10.4070425,-5.783765,-11.9247465
111,-0.6376985311508179,-4.787512302398682,78.73674011230469,-0.5756038771972687,1.0713889984352747,89.2747921999995,-0.8357834,11.882728,23.917631,12.401571,-8.646559,-6.8307776,-1.9813985,-9.60742,-19.614216,11.819749,-6.447206,6.1376376,-2.8140535,0.18503214,8.883302,0.27691662,15.520069,-26.413486,57.26442,8.810441,-5.0653973,9.214092,-0.38015896,-12.419947,28.13207,52.418354,-10.434412,-5.890786,-12.321043
112,-0.7104978561401367,-4.997277736663818,78.73658752441406,-0.7301739126715421,1.0990483756034926,89.18432832889995,-1.6511159,12.27449,23.837128,13.804779,-9.164422,-6.6267414,-2.5470142,-9.587908,-19.451939,12.471097,-6.3352666,6.091876,-3.0007448,0.3366067,9.02618,0.08328214,15.67092,-26.578362,56.766136,8.984156,-5.113079,9.229276,-0.11125604,-12.497797,27.594519,51.226013,-10.434046,-5.9972343,-12.707487
113,-0.8077409863471985,-5.20385217666626,78.72392272949219,-0.9029141475205033,1.1333570808922917,89.09009943672854,-2.4650364,12.678506,23.750235,15.187432,-9.66069,-6.43977,-3.0781472,-9.538716,-19.319965,13.036199,-6.2025766,6.0435324,-3.2250938,0.5044142,9.150578,-0.10760202,15.830124,-26.78454,56.286274,9.175138,-5.15974,9.256948,0.1647879,-12.575571,27.089401,49.98801,-10.370252,-6.110183,-13.097714
114,-0.9038140773773193,-5.404304504394531,78.71119689941406,-1.0952685438325103,1.1600623844327105,88.98689069778432,-3.2746582,13.102659,23.661352,16.57682,-10.149737,-6.26197,-3.5802944,-9.462453,-19.2048,13.550259,-6.051632,5.9899096,-3.4776661,0.68802714,9.278689,-0.30000642,15.997574,-27.020681,55.817524,9.402654,-5.206221,9.294969,0.4535202,-12.654662,26.597279,48.68814,-10.25753,-6.2208204,-13.490225
115,-1.0274381637573242,-5.628773212432861,78.68972778320312,-1.2946600289418517,1.1685850277019252,88.83780482472932,-4.0562057,13.537744,23.616123,17.960106,-10.628569,-6.0582347,-4.1074357,-9.379566,-19.042526,14.10462,-5.8857055,5.9407697,-3.7278624,0.86967033,9.441753,-0.49628952,16.170074,-27.24046,55.3613,9.621206,-5.2608795,9.330393,0.74343663,-12.7318325,26.105877,47.332886,-10.16323,-6.320424,-13.854343
116,-1.167726993560791,-5.873784065246582,78.66857147216797,-1.4900987678819677,1.1480254553988745,88.60673797667972,-4.7903514,13.980543,23.658064,19.3377,-11.097683,-5.792392,-4.7116857,-9.306414,-18.770517,14.787358,-5.7065783,5.906528,-3.9474602,1.0325539,9.669226,-0.69849634,16.343061,-27.394445,54.921913,9.787278,-5.3323126,9.350675,1.0178404,-12.801389,25.604765,45.936172,-10.155423,-6.3994083,-14.1606
117,-1.3056015968322754,-6.13004732131958,78.65711212158203,-1.6833364878459525,1.086706262129993,88.29192851838104,-5.4705553,14.43392,23.779879,20.721083,-11.560598,-5.4431252,-5.38281,-9.238911,-18.372358,15.595223,-5.50556,5.9066563,-4.136976,1.178045,9.977263,-0.9133098,16.51407,-27.46536,54.512295,9.901804,-5.4411187,9.336314,1.2732065,-12.859905,25.08378,44.491947,-10.277275,-6.4556236,-14.392458
118,-1.4643343687057495,-6.40334939956665,78.6341552734375,-1.8798371382850234,0.9928256948458599,87.910862565062,-6.102347,14.902188,23.964727,22.098402,-12.016672,-5.030962,-6.100172,-9.165644,-17.883032,16.486948,-5.281991,5.932374,-4.3111625,1.3135035,10.344627,-1.1394591,16.683054,-27.478947,54.13238,9.985727,-5.576731,9.300211,1.5135025,-12.907527,24.553095,43.003956,-10.484733,-6.493201,-14.569786
119,-1.6274867057800293,-6.691384315490723,78.59661865234375,-2.074232698452113,0.8850199775691876,87.4559832967983,-6.6988225,15.393733,24.237232,23.469019,-12.468742,-4.583748,-6.893016,-9.085664,-17.319195,17.476168,-5.043152,5.9539795,-4.463558,1.434125,10.744984,-1.3694513,16.849573,-27.453001,53.76765,10.021814,-5.701683,9.277886,1.7359577,-12.941535,24.033056,41.497566,-10.714488,-6.5121784,-14.71764
120,-1.8038309812545776,-6.9997029304504395,78.548583984375,-2.2598738426171443,0.7818771900227298,86.91994424939698,-7.264283,15.910517,24.625618,24.81527,-12.914378,-4.130297,-7.796202,-9.001032,-16.696617,18.588127,-4.798171,5.944622,-4.5883236,1.5331529,11.151743,-1.5942477,17.012999,-27.40286,53.403072,9.99447,-5.7782817,9.304808,1.9340339,-12.957464,23.544758,40.002174,-10.903385,-6.5128837,-14.861486
121,-1.9800668954849243,-7.318885803222656,78.50706481933594,-2.445628682839763,0.6967118829342486,86.30091291955995,-7.817694,16.46696,25.137394,26.148989,-13.346296,-3.668804,-8.810933,-8.89061,-16.027481,19.794218,-4.5344205,5.9108887,-4.6839952,1.6198916,11.552551,-1.8269299,17.172922,-27.338675,53.055798,9.888763,-5.786864,9.399117,2.1076825,-12.951133,23.097248,38.515793,-11.0141325,-6.4838057,-15.018059
122,-2.1720852851867676,-7.644041538238525,78.45121765136719,-2.6316379677951054,0.6158001928232856,85.6031032594469,-8.344594,17.058418,25.758856,27.472187,-13.767018,-3.187796,-9.91436,-8.751335,-15.304616,21.077105,-4.2440157,5.871734,-4.7542553,1.6943257,11.962028,-2.06831,17.329262,-27.250275,52.729893,9.717139,-5.7509413,9.539278,2.255904,-12.921915,22.678143,37.03161,-11.088589,-6.4290395,-15.171033
123,-2.372422456741333,-7.979445934295654,78.38555145263672,-2.7963024782470436,0.5178430794710068,84.82714027034359,-8.807785,17.660343,26.485487,28.77214,-14.196381,-2.7026963,-11.114798,-8.613322,-14.512128,22.49735,-3.9446385,5.8234854,-4.800974,1.7348921,12.394321,-2.2908356,17.482435,-27.12236,52.388622,9.504628,-5.6972218,9.701325,2.3714201,-12.870894,22.277126,35.57004,-11.181527,-6.37215,-15.29666
124,-2.566995859146118,-8.324460983276367,78.31461334228516,-2.9162536392987577,0.382251999992062,83.97418154139503,-9.169293,18.244993,27.313383,30.033102,-14.652599,-2.2285707,-12.409978,-8.500852,-13.634383,24.091938,-3.6438682,5.767285,-4.8259444,1.7198551,12.864028,-2.4665163,17.633646,-26.938108,51.993706,9.276051,-5.6525087,9.860797,2.4468756,-12.7994,21.8843,34.149807,-11.3470745,-6.3362455,-15.370879
125,-2.7792534828186035,-8.688146591186523,78.22885131835938,-2.9751934813220346,0.206559309783819,83.01592711462499,-9.397741,18.796364,28.30068,31.230164,-15.125866,-1.7485356,-13.824638,-8.403439,-12.6304245,25.881882,-3.3212569,5.6637287,-4.815035,1.6353126,13.387042,-2.5793757,17.779137,-26.66469,51.532524,9.028095,-5.6195974,10.016014,2.4617622,-12.703615,21.483381,32.808132,-11.631435,-6.3455024,-15.396315
126,-2.9973549842834473,-9.069387435913086,78.11771392822266,-2.9861081667007303,0.0019066503319389392,81.9614364460774,-9.519418,19.330036,29.431223,32.38881,-15.61381,-1.2620378,-15.338467,-8.291124,-11.522987,27.81689,-2.960707,5.553271,-4.772299,1.4958311,13.951218,-2.6494126,17.91849,-26.318441,51.028725,8.750828,-5.585945,10.17856,2.4207788,-12.582137,21.084948,31.529118,-11.995539,-6.381783,-15.383713
127,-3.2697434425354004,-9.389664649963379,77.99002838134766,-2.969349095618684,-0.23121598614043784,80.86721029532964,-9.5766945,19.860853,30.591343,33.54684,-16.144285,-0.8080143,-16.885113,-8.159769,-10.388943,29.835638,-2.5867293,5.556517,-4.7250133,1.3221576,14.530744,-2.696778,18.061218,-25.954363,50.488808,8.461022,-5.554489,10.343164,2.3594246,-12.443699,20.717146,30.245333,-12.3651705,-6.405363,-15.320119
128,-3.5226006507873535,-9.752591133117676,77.83074951171875,-2.947590593058243,-0.49286824786726685,79.78926857384798,-9.6184225,20.410229,31.667027,34.75236,-16.748941,-0.42779028,-18.416054,-8.013379,-9.301953,31.91514,-2.248551,5.785105,-4.699907,1.136843,15.101962,-2.735669,18.22312,-25.627851,49.90879,8.173634,-5.5278807,10.5034275,2.3213627,-12.302765,20.407757,28.876474,-12.663824,-6.3762484,-15.190494
129,-3.787794351577759,-10.113673210144043,77.64277648925781,-2.9149223383704026,-0.7729902151675586,78.71634203898645,-9.649638,20.960447,32.645767,35.9851,-17.445,-0.13842475,-19.947912,-7.853743,-8.302123,33.99304,-1.9007002,6.286309,-4.701474,0.9336553,15.663401,-2.7492595,18.415613,-25.340836,49.256107,7.86577,-5.4940333,10.651212,2.3245764,-12.167555,20.157934,27.382711,-12.894777,-6.275962,-14.976538
130,-4.010392189025879,-10.505290031433105,77.41035461425781,-2.8653247452331807,-1.0734051531369018,77.62614944389829,-9.650545,21.51041,33.582153,37.23416,-18.213514,0.08200649,-21.50169,-7.663774,-7.341698,36.11518,-1.5651842,7.0151825,-4.714599,0.70845366,16.231094,-2.7243676,18.641075,-25.065609,48.520416,7.5347533,-5.4551544,10.789537,2.3522656,-12.039185,19.954851,25.796719,-13.087259,-6.129626,-14.6889
131,-4.262197017669678,-10.859671592712402,77.14932250976562,-2.8212322034504793,-1.412203554476209,76.55856379663089,-9.640888,22.106909,34.453648,38.56839,-19.032087,0.2547636,-23.034155,-7.416318,-6.367886,38.418396,-1.3946162,7.9319835,-4.7365484,0.48622167,16.806906,-2.6783006,18.900787,-24.812971,47.73147,7.2277884,-5.4361534,10.928201,2.4043603,-11.922541,19.805838,24.133076,-13.205253,-5.957347,-14.354283
132,-4.505321979522705,-11.208529472351074,76.86469268798828,-2.8047666526407316,-1.80828765202134,75.55341403624708,-9.63654,22.79437,35.23919,40.050713,-19.87483,0.40101367,-24.500929,-7.07987,-5.3391466,41.04354,-1.536617,8.985343,-4.7638397,0.29155558,17.392673,-2.631325,19.194723,-24.597696,46.921295,6.990582,-5.461738,11.076923,2.4794385,-11.825181,19.716883,22.411196,-13.211358,-5.7821784,-13.99978
133,-4.714358329772949,-11.560443878173828,76.55142211914062,-2.821826508774042,-2.292433300592976,74.59061963200483,-9.602696,23.600965,35.954556,41.71411,-20.753292,0.48428786,-25.903095,-6.5428815,-4.1426973,44.04641,-2.065123,10.289108,-4.787379,0.12767455,18.014746,-2.5854409,19.52919,-24.4458,46.082195,6.8297143,-5.5549517,11.245866,2.5826585,-11.749826,19.701862,20.60872,-13.065574,-5.571848,-13.618604
134,-4.932448863983154,-11.914527893066406,76.20919036865234,-2.859993781766573,-2.846358369360158,73.65785674152252,-9.537552,24.492641,36.612747,43.512714,-21.670877,0.50263655,-27.262163,-5.8276052,-2.8754728,47.375313,-2.9323719,11.828005,-4.8101363,-0.016854698,18.664711,-2.5269215,19.905613,-24.344341,45.195683,6.7213645,-5.6969514,11.426071,2.7192683,-11.696134,19.753342,18.715576,-12.79678,-5.325267,-13.20172
135,-5.133438587188721,-12.251709938049316,75.85382080078125,-2.9109335909010023,-3.4151024427530836,72.80841620544362,-9.514391,25.413712,37.174683,45.390213,-22.58751,0.5367644,-28.562895,-5.130926,-1.7996014,50.995434,-4.060604,13.331958,-4.8473372,-0.14440687,19.290003,-2.4547262,20.31049,-24.247738,44.28486,6.669838,-5.849789,11.599946,2.889232,-11.671127,19.845697,16.765343,-12.47102,-5.108325,-12.770595
136,-5.3165459632873535,-12.575432777404785,75.47975158691406,-2.9658537896723733,-3.9439988510553063,72.09515109809459,-9.6056385,26.311806,37.603695,47.288067,-23.463377,0.66544974,-29.792023,-4.682574,-1.13824,54.857143,-5.3247833,14.515268,-4.914983,-0.25581,19.836931,-2.3750024,20.720663,-24.110537,43.384254,6.681288,-5.97592,11.7516,3.0939407,-11.686543,19.953606,14.789867,-12.15191,-4.9876313,-12.344825
137,-5.460410118103027,-12.912459373474121,75.09587097167969,-3.0373770647370852,-4.442036268132045,71.55167379777853,-9.845193,27.217562,37.864826,49.259865,-24.29618,0.95317155,-30.92743,-4.6264462,-1.0592493,59.02551,-6.738884,15.000033,-5.0383,-0.34354177,20.307543,-2.3132434,21.12503,-23.946115,42.528896,6.7892013,-6.0764074,11.880813,3.3501618,-11.749525,20.081436,12.769673,-11.872529,-4.9883037,-11.914086
138,-5.596325397491455,-13.230015754699707,74.70263671875,-3.1621518103750423,-4.928750322986898,71.12936407367577,-10.210208,28.195532,37.969986,51.33491,-25.107508,1.3306093,-31.96582,-4.848749,-1.4029531,63.459476,-8.292139,15.000033,-5.1875153,-0.36997378,20.72278,-2.2716048,21.520712,-23.77417,41.712337,6.98314,-6.1681285,11.997733,3.6560028,-11.862286,20.239195,10.69242,-11.589413,-5.0717006,-11.470929
139,-5.7374420166015625,-13.531599998474121,74.29963684082031,-3.263545246417543,-5.370769835619762,70.79689963385896,-10.649282,29.087442,37.980934,53.343086,-25.873707,1.7101308,-32.93632,-5.293906,-1.8081973,68.00941,-9.854441,15.000033,-5.3366017,-0.39608315,21.05702,-2.222835,21.892387,-23.557392,40.909904,7.204326,-6.2380385,12.102329,3.9877126,-12.028635,20.40912,8.597539,-11.250006,-5.2099605,-11.038774
140,-5.8708906173706055,-13.820597648620605,73.90218353271484,-3.3027668903025145,-5.732621406393689,70.51035591681524,-11.128173,29.809252,37.946106,55.155727,-26.586443,1.99488,-33.863293,-5.890024,-2.090888,72.502205,-11.282066,15.000033,-5.4498954,-0.4449348,21.284191,-2.146903,22.217682,-23.257906,40.107502,7.3946652,-6.2738595,12.195401,4.320822,-12.25481,20.57346,6.5264325,-10.802197,-5.37434,-10.641923
141,-5.989725589752197,-14.09017562866211,73.50737762451172,-3.2526449223807026,-5.95279624808951,70.27836392409583,-11.713542,30.313276,37.859535,56.75131,-27.260286,2.1604683,-34.851387,-6.6962695,-2.211282,77.023315,-12.540093,15.000033,-5.5340886,-0.52976173,21.339495,-2.0751746,22.474794,-22.862715,39.358612,7.6001654,-6.270527,12.284317,4.659621,-12.550076,20.699358,4.4734364,-10.249003,-5.5936384,-10.208132
142,-6.157136917114258,-14.413846969604492,73.06815338134766,-3.162378879818975,-6.065833137122379,70.10996673923295,-12.412492,30.69729,37.692562,58.224243,-27.908188,2.25824,-35.83987,-7.702375,-2.2313912,81.60639,-13.697494,15.000033,-5.5946712,-0.60387784,21.25311,-2.0285885,22.656775,-22.398527,38.682144,7.836172,-6.236757,12.369378,5.0194497,-12.917785,20.802343,2.4177067,-9.608709,-5.868156,-9.7491
143,-6.303017616271973,-14.736432075500488,72.64288330078125,-3.1036185887337155,-6.181447562090466,69.9624957305796,-13.102836,31.091246,37.458263,59.613644,-28.518713,2.3061414,-36.62085,-8.786688,-2.2536657,86.015366,-14.766184,14.673759,-5.5980144,-0.6122875,21.14167,-1.9630842,22.76813,-21.88278,38.001778,7.998882,-6.1802936,12.439265,5.387322,-13.352353,20.9384,0.3802165,-8.854337,-6.1284685,-9.417058
144,-6.374980449676514,-15.021790504455566,72.26595306396484,-3.077271865060249,-6.418848772198367,69.82551462240484,-13.619297,31.506678,37.207764,60.901,-29.062853,2.3380196,-36.9934,-9.833363,-2.2347896,90.04853,-15.787836,14.073143,-5.5434337,-0.5755169,21.125551,-1.8227901,22.822498,-21.326998,37.228127,7.9835234,-6.108571,12.481471,5.743711,-13.842493,21.16671,-1.6125685,-7.9633913,-6.3099856,-9.366862
145,-6.382364749908447,-15.273764610290527,71.9504623413086,-3.099843375252605,-6.8559776999326605,69.69471869374189,-13.868721,31.960209,36.932323,62.087708,-29.547646,2.3401465,-36.84457,-10.750996,-2.094091,93.68857,-16.758854,13.460082,-5.414144,-0.48714215,21.276413,-1.5826013,22.824615,-20.7181,36.346493,7.7550297,-6.0039654,12.522037,6.0828857,-14.3851,21.515915,-3.5500813,-6.8822975,-6.3912387,-9.704376
146,-6.464351654052734,-15.523932456970215,71.62084197998047,-3.1516030879634913,-7.417184126281933,69.58403479568885,-13.944836,32.41902,36.622635,63.166542,-29.977531,2.3040426,-36.30297,-11.629272,-1.8627225,97.04653,-17.670055,12.787423,-5.2273245,-0.3590206,21.519218,-1.266252,22.774858,-20.048994,35.38816,7.3697696,-5.868646,12.556872,6.4047947,-14.980376,21.953133,-5.441805,-5.6425977,-6.42226,-10.3287735
147,-6.530226230621338,-15.84455680847168,71.28111267089844,-3.2084396529773054,-7.986058903874033,69.49938827390639,-13.997641,32.85868,36.29308,64.13957,-30.33099,2.2727346,-35.53447,-12.487242,-1.5504298,100.08958,-18.5312,12.155154,-5.0163026,-0.2048178,21.753626,-0.88496786,22.686993,-19.341381,34.324432,6.859292,-5.7387185,12.527919,6.6920123,-15.619045,22.443228,-7.284493,-4.350125,-6.445911,-11.085601
148,-6.506298542022705,-16.15633773803711,70.99443054199219,-3.2454834920085815,-8.445330071579354,69.44541336605997,-14.178319,33.252033,35.957985,65.00954,-30.587412,2.2902167,-34.71425,-13.343946,-1.1932279,102.78564,-19.348358,11.63253,-4.812277,-0.04348428,21.87975,-0.44212246,22.58402,-18.616861,33.117565,6.2525315,-5.648428,12.375806,6.928243,-16.284542,22.951254,-9.073208,-3.1133382,-6.496381,-11.818364
149,-6.500996112823486,-16.48638153076172,70.73286437988281,-3.2626922383050787,-8.757993914695675,69.4249044220984,-14.545621,33.598804,35.61433,65.79757,-30.752045,2.3823802,-33.89417,-14.188132,-0.77262545,105.1469,-20.129137,11.260452,-4.616994,0.11473275,21.860739,0.08078365,22.487299,-17.842007,31.724329,5.5040083,-5.6483226,11.958692,7.0956187,-16.967394,23.496174,-10.810422,-1.8778065,-6.577821,-12.5443945
150,-6.474475383758545,-16.82773208618164,70.49429321289062,-3.2700402493705814,-8.988814439221414,69.43495746879029,-15.012104,33.907673,35.25734,66.49437,-30.831114,2.5212293,-32.9906,-15.015,-0.29395208,107.19241,-20.859612,10.992439,-4.4173975,0.26983288,21.75717,0.7040394,22.401672,-17.012985,30.144218,4.6081395,-5.6970253,11.345415,7.1966105,-17.664307,24.091585,-12.489513,-0.61697674,-6.678603,-13.326462
151,-6.470730781555176,-17.16029930114746,70.2959976196289,-3.2648544586632697,-9.176388116355078,69.47254736459755,-15.509159,34.16332,34.900608,67.057816,-30.806065,2.66981,-31.98077,-15.850613,0.17986272,108.893036,-21.508533,10.76879,-4.2172747,0.41877216,21.612696,1.4187433,22.32138,-16.20307,28.413864,3.6566803,-5.6963825,10.795504,7.2520432,-18.363823,24.68975,-14.092877,0.5179676,-6.79406,-14.075649
152,-6.378128528594971,-17.5884952545166,70.1363296508789,-3.2401196749236667,-9.357674918024786,69.53450019502783,-15.966193,34.34999,34.559135,67.44378,-30.657097,2.7909062,-30.843029,-16.719505,0.5872864,110.220856,-22.044052,10.527533,-4.012805,0.5607069,21.467146,2.1966605,22.234913,-15.498503,26.591032,2.7448215,-5.5586348,10.574948,7.284918,-19.05083,25.23241,-15.595397,1.3730612,-6.912591,-14.700279
153,-6.29811429977417,-18.00034523010254,70.01316833496094,-3.195517368710853,-9.549191430915542,69.61131146890263,-16.356585,34.46996,34.239864,67.6548,-30.390047,2.868386,-29.555716,-17.597607,0.96367157,111.16884,-22.459618,10.281307,-3.7935512,0.7002029,21.329014,3.0316398,22.131933,-14.949869,24.648582,1.8028158,-5.22646,10.836867,7.2816114,-19.717659,25.70345,-16.985231,1.8697119,-7.0429254,-15.164531
154,-6.219470500946045,-18.409536361694336,69.94027709960938,-3.1336340319353404,-9.730036463371814,69.70864855757213,-16.71795,34.527058,33.93625,67.70919,-30.010792,2.9237347,-28.146544,-18.4856,1.319772,111.75376,-22.759727,10.051815,-3.5566947,0.83755326,21.17286,3.9210286,22.013144,-14.518107,22.591208,0.81215143,-4.771131,11.4212055,7.2370024,-20.362494,26.124918,-18.264542,2.0983427,-7.1778555,-15.518186
155,-6.121821880340576,-18.84442710876465,69.90946197509766,-3.050985437273665,-9.881360202379717,69.8450959922181,-17.07535,34.508587,33.643875,67.58817,-29.50032,2.9757278,-26.666086,-19.44164,1.5589634,111.98473,-22.929905,9.789211,-3.3121016,0.96402013,20.987848,4.8423276,21.886951,-14.150595,20.522167,-0.05429702,-4.2982965,12.120813,7.1878242,-20.976555,26.500177,-19.432814,2.1589441,-7.2802887,-15.800286
156,-6.012424945831299,-19.30647087097168,69.92251586914062,-2.947777869060291,-9.985260913442787,70.03988599236914,-17.45395,34.4014,33.358578,67.27341,-28.839994,3.042989,-25.163328,-20.522442,1.5850089,111.87304,-22.959332,9.443963,-3.0685012,1.0675662,20.763433,5.774478,21.764673,-13.792765,18.54159,-0.62103724,-3.9019802,12.722715,7.1685753,-21.54647,26.831274,-20.48595,2.1498735,-7.3151255,-16.048388
157,-5.876995086669922,-19.806299209594727,69.97779846191406,-2.817151823916008,-10.050791583312579,70.31749905837917,-17.862661,34.19303,33.0632,66.78733,-28.03947,3.1375196,-23.599514,-21.76872,1.3642577,111.42057,-22.818504,8.982307,-2.8452373,1.1327404,20.503622,6.7255473,21.658207,-13.439191,16.672651,-0.7676399,-3.6081002,13.208689,7.1851187,-22.0612,27.11518,-21.427279,1.9981654,-7.2347007,-16.251797
158,-5.717416286468506,-20.31916046142578,70.07193756103516,-2.662928093344713,-10.083819263881026,70.66104145117089,-18.284075,33.8931,32.76786,66.130516,-27.103865,3.2457893,-21.957178,-23.13124,0.9342535,110.628456,-22.525194,8.43689,-2.632793,1.1611391,20.211853,7.7099924,21.570652,-13.109132,14.852804,-0.6152591,-3.3583524,13.673559,7.2092557,-22.516302,27.35677,-22.243294,1.6825427,-7.069545,-16.394783
159,-5.53289270401001,-20.870851516723633,70.21804809570312,-2.491344406219751,-10.056996501856112,71.02523176037018,-18.706472,33.523487,32.50778,65.254234,-26.009241,3.3492415,-20.31524,-24.530434,0.30829602,109.5049,-22.145287,7.860883,-2.3960178,1.1678963,19.876387,8.713023,21.49481,-12.786563,13.05913,-0.34653553,-3.1174,14.073367,7.2270646,-22.908272,27.570948,-22.909397,1.378275,-6.903281,-16.50868
160,-5.324759483337402,-21.472734451293945,70.42405700683594,-2.311442085509402,-9.943242959414421,71.364596852191,-19.1213,33.10768,32.31444,64.11061,-24.732168,3.4289215,-18.754099,-25.883514,-0.4958338,108.05632,-21.745293,7.3106594,-2.1007166,1.1699748,19.483427,9.716828,21.417267,-12.457129,11.275756,-0.14164077,-2.8537717,14.365375,7.2207084,-23.23509,27.774687,-23.397024,1.2605227,-6.819677,-16.627605
161,-5.0967206954956055,-22.09200668334961,70.67635345458984,-2.1234859021978045,-9.727582429627901,71.66243466965258,-19.540813,32.654537,32.194023,62.702118,-23.290009,3.4843562,-17.26424,-27.211226,-1.5276706,106.2637,-21.35138,6.8605394,-1.7264663,1.1737554,19.012749,10.719365,21.325764,-12.12291,9.497947,-0.018280938,-2.531697,14.503006,7.1929946,-23.494944,27.967941,-23.710062,1.4168456,-6.846791,-16.749477
162,-4.8440704345703125,-22.757205963134766,70.98617553710938,-1.9263369282789515,-9.424982579854689,71.94301847776632,-19.969082,32.1588,32.120667,61.053677,-21.69136,3.52199,-15.7877865,-28.511932,-2.80506,104.134735,-20.939577,6.4786096,-1.2946217,1.1744753,18.473589,11.721062,21.217667,-11.793384,7.7480474,0.11586236,-2.1786819,14.520719,7.145488,-23.686434,28.146864,-23.851406,1.738667,-6.9384522,-16.859856
163,-4.590831279754639,-23.470603942871094,71.34066009521484,-1.7320060079639434,-9.054880966662733,72.22312631566514,-20.386354,31.619535,32.075855,59.147453,-19.898346,3.5326374,-14.342312,-29.670464,-4.250769,101.71775,-20.505486,6.060847,-0.83359694,1.1715304,17.89472,12.707047,21.095371,-11.466734,6.0513225,0.2443692,-1.8595597,14.49861,7.056395,-23.810282,28.32182,-23.788374,2.1087656,-7.0671353,-16.974613
164,-4.310530662536621,-24.232881546020508,71.73160552978516,-1.5525944489745875,-8.636581425635226,72.5224516839929,-20.778149,31.031343,32.037716,56.96854,-17.87468,3.5081682,-12.960795,-30.586002,-5.7576876,99.0624,-20.05003,5.5106506,-0.36314565,1.1617274,17.304739,13.658131,20.976952,-11.152654,4.431619,0.34309754,-1.6379571,14.520476,6.918388,-23.861225,28.49061,-23.50168,2.4084687,-7.2052236,-17.107203
165,-4.008253574371338,-25.02436637878418,72.16435241699219,-1.3776453113062717,-8.143532211374652,72.82853523265598,-21.148209,30.369987,32.021667,54.467655,-15.6367,3.4954698,-11.700407,-31.233763,-7.3114295,96.14627,-19.647999,4.7350698,0.09367811,1.1440961,16.683384,14.597686,20.83171,-10.804376,2.9037077,0.4138812,-1.5546086,14.576019,6.701628,-23.850943,28.704111,-22.95658,2.6090846,-7.357699,-17.274527
166,-3.6859421730041504,-25.850135803222656,72.62429809570312,-1.2059227857002683,-7.5738571640061005,73.13800343004183,-21.509495,29.64294,32.019722,51.67786,-13.204316,3.481254,-10.525456,-31.649231,-8.962824,92.95804,-19.298315,3.821144,0.5751723,1.1198452,16.020369,15.502996,20.6772,-10.463847,1.4682547,0.45938352,-1.5671108,14.638278,6.4449253,-23.769295,28.920036,-22.1855,2.771046,-7.5349703,-17.45783
167,-3.3461649417877197,-26.70983123779297,73.1025619506836,-1.0553138926361076,-6.98412188538291,73.47824524005883,-21.845404,28.88238,31.983011,48.687817,-10.53507,3.364472,-9.340468,-31.841974,-10.698357,89.54019,-18.872623,2.9176097,1.0430439,1.0904343,15.366495,16.387465,20.519293,-10.134178,0.070968546,0.49681178,-1.6183757,14.7327585,6.131332,-23.620214,29.128252,-21.211624,2.919172,-7.7163982,-17.649374
168,-2.988463878631592,-27.61189079284668,73.5819091796875,-0.9398686741686442,-6.430052113822163,73.87621993517593,-22.143345,28.11691,31.849829,45.580353,-7.5816393,3.041812,-8.056665,-31.827806,-12.501252,85.92694,-18.2303,2.1677089,1.464913,1.060174,14.774156,17.259678,20.368906,-9.824233,-1.3429043,0.54067343,-1.6511323,14.886439,5.7558084,-23.410345,29.310013,-20.066763,3.0784197,-7.881651,-17.8412
169,-2.6156904697418213,-28.532291412353516,74.04774475097656,-0.859700290137584,-5.9164929026705115,74.34239631231486,-22.343832,27.344456,31.70295,42.20515,-4.080463,2.5121634,-6.69198,-31.578518,-14.36429,82.03203,-17.178846,1.4383426,1.8417906,1.0324007,14.259233,18.101053,20.234426,-9.531222,-2.744912,0.62438196,-1.6614355,15.123493,5.3303905,-23.138248,29.456272,-18.7217,3.2408423,-8.027633,-18.035952
170,-2.2142558097839355,-29.489606857299805,74.50023651123047,-0.8010717086744892,-5.4130256836712425,74.86529510960051,-22.50287,26.537413,31.482687,38.599953,-0.15604633,1.8102047,-5.3035493,-31.098713,-16.279585,77.87128,-15.853751,0.7119659,2.1857142,0.9970333,13.790604,18.915339,20.118225,-9.250703,-4.125365,0.72679263,-1.6755816,15.424716,4.8591037,-22.802639,29.575865,-17.177794,3.3990061,-8.164499,-18.235706
171,-1.8121099472045898,-30.44658851623535,74.9062271118164,-0.7595566190436256,-4.924628397651486,75.43614996391325,-22.747469,25.69745,30.931322,35.096947,3.6676424,0.886198,-3.8669157,-30.433119,-18.217691,73.60979,-14.57373,0.307404,2.4820573,0.9454928,13.354364,19.74861,20.022202,-8.987087,-5.573653,0.7792123,-1.6816814,15.751896,4.325951,-22.415142,29.676382,-15.523033,3.5798686,-8.292411,-18.432915
172,-1.3976212739944458,-31.410385131835938,75.24004364013672,-0.7395223167017455,-4.4616660268764505,76.04110781573571,-23.145489,24.836884,29.843666,31.965027,6.894247,-0.30195817,-2.3564768,-29.608072,-20.135612,69.38421,-13.623177,0.54648066,2.7216358,0.87795895,12.943121,20.649141,19.94699,-8.744751,-7.1843247,0.7119571,-1.6686211,16.067204,3.7200303,-21.997675,29.762018,-13.856312,3.8124335,-8.412012,-18.622099
173,-0.9680766463279724,-32.385902404785156,75.49028015136719,-0.7592643883308612,-4.014907473682521,76.67851487667907,-23.639662,23.860403,28.014454,28.875542,9.753987,-2.0439248,-0.70792526,-28.540432,-22.016293,64.95269,-12.789646,1.7046406,2.906932,0.801895,12.538145,21.662975,19.885471,-8.507346,-8.983843,0.48209974,-1.667475,16.35099,3.048425,-21.56703,29.853813,-12.196593,4.188162,-8.5390215,-18.858921
174,-0.5391793251037598,-33.35943603515625,75.64411163330078,-0.8181021878105339,-3.589826883684936,77.34904500179982,-24.102869,22.808903,25.624071,25.707155,12.394373,-4.2269893,1.0317405,-27.204527,-23.84026,60.259758,-11.940033,3.5554895,3.0437202,0.728933,12.1607,22.761013,19.8341,-8.271629,-10.93342,0.13512345,-1.6744604,16.626423,2.3237116,-21.129906,29.94197,-10.517011,4.668526,-8.668238,-19.130753
175,-0.11803453415632248,-34.34526443481445,75.71141815185547,-0.8973186957562096,-3.225651157198617,78.03413320658473,-24.513422,21.910019,23.152761,23.040417,14.240961,-6.2557616,2.7440698,-25.732412,-25.586044,55.712006,-11.468692,5.6565557,3.138847,0.6745474,11.870046,23.8785,19.80345,-8.066051,-13.033662,-0.2687518,-1.6259546,16.920145,1.5448078,-20.695822,29.980488,-8.8473425,5.086386,-8.7707205,-19.329388
176,0.3034747540950775,-35.36200714111328,75.68141174316406,-0.9746344395027793,-2.9572866215093283,78.71820012842906,-24.973568,21.371542,21.115343,21.572666,14.742372,-7.519816,4.3212605,-24.311434,-27.276453,51.75296,-11.796999,7.5577927,3.2016501,0.6468169,11.720383,24.949728,19.814592,-7.925018,-15.287722,-0.6737024,-1.4571476,17.259415,0.7141731,-20.276499,29.918344,-7.2224364,5.277353,-8.814363,-19.347076
177,0.7163964509963989,-36.40656661987305,75.55521392822266,-1.0266322709946096,-2.776689489923615,79.44595813267523,-25.656292,21.216114,19.686445,21.673248,13.3394575,-7.726872,5.847043,-23.016672,-29.038733,48.424717,-13.334084,9.307148,3.1969612,0.6186517,11.715905,25.981817,19.900183,-7.859909,-17.780413,-1.1595958,-1.1035725,17.687864,-0.15933926,-19.8772,29.711628,-5.6846623,5.1357217,-8.744604,-19.1041
178,1.113381028175354,-37.45880889892578,75.35335540771484,-1.0483765353683951,-2.6604018768510467,80.21519224508985,-26.58055,21.29256,18.571003,23.023884,10.45318,-7.2475295,7.34666,-21.81724,-30.885881,45.49803,-15.732239,11.097301,3.141691,0.5654364,11.823371,27.00311,20.071259,-7.857526,-20.497585,-1.7413566,-0.61697745,18.185362,-1.0679637,-19.499184,29.385647,-4.2231755,4.7729387,-8.595953,-18.67482
179,1.4965707063674927,-38.53190612792969,75.1008529663086,-1.0499867320765726,-2.616317083479771,80.94588504016647,-27.664017,21.528448,17.570616,25.323116,7.018676,-6.471031,8.621211,-20.770424,-32.66585,43.080605,-18.348488,12.678999,3.1138272,0.5025816,12.035714,27.970148,20.304585,-7.9166884,-23.269537,-2.2581773,-0.108430386,18.67902,-2.0106056,-19.148561,28.9956,-2.791032,4.350301,-8.46854,-18.184555
180,1.8534637689590454,-39.609439849853516,74.84979248046875,-1.0604016055609382,-2.662695987459631,81.55161509889884,-28.76995,21.885614,16.559433,28.216003,4.0036035,-5.7559237,9.476994,-19.904655,-34.17889,41.311935,-20.587946,13.768171,3.1894221,0.47656846,12.355445,28.834711,20.553686,-8.037495,-25.919022,-2.5353446,0.31462428,19.089903,-2.9823582,-18.838179,28.59948,-1.3417966,4.029812,-8.457701,-17.761284
181,2.1846747398376465,-40.69073486328125,74.59294128417969,-1.1165695662281474,-2.844372018560622,82.01799782323735,-29.86791,22.437881,15.591364,31.793617,1.5413016,-5.108898,9.85682,-19.229755,-35.337868,40.32819,-22.42194,14.1569395,3.3793545,0.5561365,12.835546,29.550655,20.784695,-8.229455,-28.39794,-2.4534342,0.612709,19.43666,-3.9876451,-18.5847,28.17919,0.118389465,3.8087637,-8.593416,-17.378965
182,2.503416061401367,-41.76966857910156,74.32515716552734,-1.2082131651436443,-3.1439053883789483,82.38776544018491,-30.997866,23.168056,14.692879,36.116894,-0.8088784,-4.375452,9.861406,-18.747093,-36.22393,40.095516,-24.20192,14.000524,3.6323085,0.7287364,13.461523,30.1436,20.991135,-8.487632,-30.788391,-2.1116877,0.8501553,19.736038,-5.0231857,-18.398483,27.724598,1.564235,3.6191406,-8.821428,-16.993433
183,2.779048442840576,-42.86928939819336,74.02650451660156,-1.29735726115863,-3.491778662725634,82.65787121652697,-32.088924,23.924189,13.777625,40.757755,-2.9278681,-3.6566453,9.546608,-18.457811,-36.874798,40.485058,-25.907598,13.5407505,3.9315553,0.92816514,14.141928,30.672005,21.164835,-8.7884445,-33.097355,-1.6584469,1.0748184,19.905693,-6.0671206,-18.280527,27.30632,3.009105,3.5225246,-9.106703,-16.706427
184,3.040952205657959,-43.961647033691406,73.71040344238281,-1.3440339561258918,-3.81684675930555,82.82596821557222,-33.090378,24.5642,12.770311,45.341206,-4.7187586,-3.0452166,8.969365,-18.364836,-37.343662,41.357407,-27.502213,13.02923,4.256278,1.0800377,14.784137,31.202744,21.295383,-9.102931,-35.338135,-1.2404785,1.3316388,19.863228,-7.11121,-18.222687,27.001202,4.4797797,3.5799634,-9.413762,-16.61838
185,3.2940375804901123,-45.032779693603516,73.38443756103516,-1.318685895350555,-4.1074649658452325,82.83608385656362,-34.015835,25.095194,11.664754,49.929646,-6.0458083,-2.5455158,8.0350485,-18.553745,-37.576298,42.89028,-28.995493,12.459915,4.641245,1.1621102,15.380016,31.76573,21.355774,-9.398127,-37.52412,-0.8549602,1.6371902,19.498884,-8.2366705,-18.225235,26.889748,6.104934,3.92028,-9.800421,-16.826342
186,3.5122625827789307,-46.105308532714844,73.0657958984375,-1.246838848567958,-4.4002863594712815,82.70694599842008,-34.868298,25.584766,10.5176,54.670544,-6.9993715,-2.1162443,6.7532077,-18.98151,-37.56353,45.068985,-30.383272,11.725079,5.0800147,1.2109603,15.975342,32.329952,21.36044,-9.688453,-39.64987,-0.43268,1.9609085,18.8833,-9.43341,-18.26521,26.913605,7.8469086,4.4660087,-10.26665,-17.247194
187,3.7586934566497803,-47.1455078125,72.74545288085938,-1.1697463293215695,-4.694145179362932,82.55014191532936,-35.597736,25.992744,9.346916,59.359177,-7.837589,-1.7784983,5.3395004,-19.466713,-37.44018,47.467964,-31.611153,10.928402,5.4724903,1.2427284,16.559383,32.8812,21.335932,-10.006522,-41.7048,-0.017335556,2.277031,18.198334,-10.561637,-18.318811,26.964466,9.476601,4.976772,-10.686584,-17.72225
188,3.9653918743133545,-48.18610382080078,72.41495513916016,-1.134380611136022,-4.9885718499881815,82.47832498897709,-36.161293,26.282463,8.163667,63.802563,-8.82749,-1.5508896,4.0107603,-19.845886,-37.34706,49.686104,-32.648746,10.161128,5.7188115,1.3154453,17.109827,33.338295,21.246851,-10.447353,-43.60003,0.3754848,2.5636353,17.62417,-11.463722,-18.43137,26.945557,10.749501,5.2297144,-10.92467,-18.107656
189,4.168471336364746,-49.211944580078125,72.08566284179688,-1.1377034756883195,-5.2872233852545465,82.48808720740617,-36.54817,26.415285,6.9263687,68.01642,-10.1081295,-1.5141734,2.7398846,-20.144032,-37.256622,51.80568,-33.473465,9.418827,5.822419,1.3672829,17.640265,33.79017,21.149809,-10.972316,-45.42796,0.7052558,2.8256855,17.212627,-12.185677,-18.528791,26.829536,11.739425,5.052906,-10.904086,-18.390676
190,4.380422592163086,-50.200889587402344,71.77784729003906,-1.1612498327296017,-5.588320215535193,82.53144139467373,-36.776627,26.431297,5.653441,72.11168,-11.532771,-1.6305,1.4447751,-20.433502,-37.12177,53.982193,-34.11558,8.657655,5.832254,1.3855304,18.145567,34.245003,21.059778,-11.567765,-47.19361,0.9897778,3.0739608,16.881454,-12.798234,-18.599316,26.67063,12.5646515,4.6007485,-10.708235,-18.644339
191,4.581841468811035,-51.180416107177734,71.47966766357422,-1.223775924133257,-5.8838632279435075,82.6542004901413,-36.853504,26.4176,4.435258,76.03469,-12.930912,-1.7350726,0.26126292,-20.641947,-37.056896,55.94577,-34.64722,7.898603,5.7246466,1.4132745,18.607939,34.602375,20.978338,-12.227209,-48.800186,1.2404808,3.2998362,16.577059,-13.209799,-18.653713,26.424435,13.0707,4.104724,-10.444034,-18.799288
192,4.7719011306762695,-52.1414680480957,71.20716857910156,-1.3426749182897286,-6.1658842115008,82.90134774376817,-36.78957,26.466034,3.349629,79.7139,-14.120368,-1.6600586,-0.67829365,-20.699781,-37.175743,57.434654,-35.137547,7.1653523,5.4704056,1.4685419,19.01286,34.81017,20.945826,-12.907156,-50.20588,1.4450898,3.4953957,16.254862,-13.343142,-18.678936,26.058004,13.115005,3.792983,-10.223536,-18.792263
193,4.967495441436768,-53.07475280761719,70.96976470947266,-1.5427756016143213,-6.4470244664784895,83.33558199983908,-36.611504,26.57213,2.3321161,83.16366,-15.000792,-1.338241,-1.261943,-20.556734,-37.563904,58.320454,-35.630844,6.476915,5.0271664,1.5617046,19.367073,34.845867,20.992739,-13.652645,-51.401417,1.5096416,3.6536083,15.933425,-13.118047,-18.66174,25.491732,12.554202,3.697198,-10.077981,-18.563623
194,5.137576103210449,-53.981910705566406,70.7674560546875,-1.812796582196287,-6.7250892834453815,83.91628806608333,-36.313114,26.722067,1.349174,86.4143,-15.685238,-0.8547124,-1.5856065,-20.25984,-38.14355,58.771378,-36.090668,5.8183794,4.4408784,1.6725808,19.676708,34.746613,21.127392,-14.473307,-52.42501,1.4575347,3.7838137,15.6428385,-12.57979,-18.600647,24.749655,11.490349,3.702005,-9.949166,-18.160551
195,5.3116374015808105,-54.877262115478516,70.60533142089844,-2.1127259598586634,-6.971670517348922,84.53013498761088,-35.852264,26.99362,0.5254675,89.39433,-16.298784,-0.26741228,-1.8268576,-19.881401,-38.78353,58.954865,-36.44971,5.1618223,3.8157835,1.7765777,19.927063,34.532703,21.344452,-15.275213,-53.283012,1.4552655,3.8952956,15.352262,-11.839168,-18.504543,23.957132,10.145361,3.8142028,-9.814789,-17.682991
196,5.458789348602295,-55.758506774902344,70.4881820678711,-2.4032711027078313,-7.1606342848710245,85.06453397961623,-35.189365,27.459394,-0.014521722,92.03205,-16.969164,0.36291128,-2.162959,-19.498158,-39.3574,59.045685,-36.64454,4.4762917,3.2449598,1.8540027,20.10385,34.228424,21.627117,-15.955812,-53.983852,1.672341,3.994707,15.023557,-11.0187845,-18.385532,23.249468,8.746932,4.0443335,-9.651892,-17.232851
197,5.598474979400635,-56.635982513427734,70.41014862060547,-2.69662358671475,-7.294114927002724,85.50383016044601,-34.293385,28.224375,-0.21382104,94.33582,-17.755228,1.0594636,-2.6012976,-19.087873,-39.864296,59.042698,-36.69167,3.7471316,2.7223933,1.9236459,20.196045,33.816544,21.966759,-16.493063,-54.513245,2.2221398,4.084825,14.618086,-10.133557,-18.247606,22.67283,7.286465,4.5138636,-9.447081,-16.83055
198,5.718153476715088,-57.511837005615234,70.3667221069336,-3.0055223078321673,-7.3850482070733685,85.90168986873914,-33.187218,29.227081,-0.14883281,96.3352,-18.583029,1.8442056,-3.055366,-18.616707,-40.36763,58.865444,-36.61399,2.993403,2.199958,1.9945449,20.217762,33.292404,22.357786,-16.935114,-54.872444,2.9944224,4.1563478,14.158025,-9.128558,-18.086016,22.164852,5.6612606,5.1799865,-9.211076,-16.429127
199,5.8141303062438965,-58.396522521972656,70.3780746459961,-3.290078489767307,-7.425251815185843,86.25005317744677,-31.910833,30.276947,0.11784706,97.99076,-19.377615,2.6516478,-3.5609467,-18.153395,-40.843395,58.5701,-36.35898,2.233543,1.7026428,2.0320036,20.187605,32.699814,22.782104,-17.283098,-55.084713,3.8283281,4.198502,13.694472,-8.035068,-17.90295,21.70037,3.9718838,5.804294,-8.959559,-16.027588
200,5.905622959136963,-59.293251037597656,70.44654846191406,-3.50745648789765,-7.406284124931843,86.54107940604246,-30.510748,31.177992,0.5277292,99.26276,-20.05667,3.4159586,-4.157847,-17.774677,-41.266975,58.21747,-35.871815,1.4839451,1.2484194,2.002584,20.123259,32.084484,23.21136,-17.533964,-55.17313,4.5639834,4.2044625,13.276093,-6.8883886,-17.701841,21.260532,2.3213289,6.150333,-8.711726,-15.6230345
201,5.957779407501221,-60.201881408691406,70.56792449951172,-3.6291947303117364,-7.315001834818895,86.75106833741054,-28.949213,31.945217,1.1796194,100.15119,-20.625645,4.170609,-4.8959823,-17.538628,-41.61344,57.857765,-35.14679,0.72485757,0.8446744,1.8863323,20.011646,31.449793,23.62248,-17.640823,-55.14792,5.260581,4.1561217,12.852799,-5.6808596,-17.480597,20.841614,0.7148555,6.108678,-8.470969,-15.224069
202,5.975541591644287,-61.10222244262695,70.75460052490234,-3.6816606510393903,-7.160795121423655,86.89158269954162,-27.21374,32.639206,2.085243,100.678604,-21.111626,4.9307814,-5.743971,-17.404085,-41.90452,57.453835,-34.206944,-0.04422301,0.46684548,1.7096127,19.845987,30.76409,24.009285,-17.617636,-54.974987,5.9744368,4.0628066,12.411529,-4.4146376,-17.23821,20.46716,-0.88054776,5.820627,-8.232118,-14.827564
203,5.963916778564453,-61.98434066772461,70.9990234375,-3.7097570088068585,-6.968197682680243,87.0085910498604,-25.41175,33.13731,3.0478747,100.84148,-21.456913,5.6077013,-6.621136,-17.30216,-42.18416,56.93454,-33.035717,-0.7794191,0.087937646,1.509872,19.651773,30.023335,24.370447,-17.55846,-54.624493,6.544213,3.9655333,12.056734,-3.132734,-16.983725,20.155075,-2.4247026,5.426095,-8.002238,-14.410888
204,5.939183712005615,-62.89203643798828,71.29296875,-3.756499060111307,-6.760496919240938,87.14743543513788,-23.66609,33.328823,3.8592997,100.63474,-21.599674,6.114321,-7.4482064,-17.160608,-42.495457,56.229103,-31.618572,-1.4379345,-0.3125883,1.3278257,19.45579,29.21796,24.707884,-17.563902,-54.064194,6.8075542,3.9089622,11.893231,-1.8689272,-16.733755,19.916943,-3.8868253,5.0677934,-7.786039,-13.95192
205,5.905266761779785,-63.832157135009766,71.65131378173828,-3.827252226050484,-6.552373443070636,87.30769393908429,-21.973679,33.166946,4.4773974,100.04304,-21.481848,6.4565864,-8.204352,-16.977234,-42.833824,55.326107,-29.944883,-2.0193672,-0.72847795,1.1770089,19.266775,28.336279,25.02378,-17.661303,-53.286655,6.681801,3.9323595,11.973805,-0.58744615,-16.50644,19.76208,-5.3012414,4.744241,-7.567159,-13.431698
206,5.844000339508057,-64.76368713378906,72.04867553710938,-3.9001703299288066,-6.327248235899269,87.46832098535891,-20.30327,32.721638,4.994066,99.076256,-21.145802,6.6746345,-8.936443,-16.789577,-43.176216,54.265472,-28.02547,-2.5413904,-1.1448923,1.0425705,19.070736,27.37651,25.316137,-17.80987,-52.305054,6.26547,4.003701,12.23595,0.73123544,-16.309422,19.673975,-6.6883817,4.398085,-7.349167,-12.865884
207,5.746096611022949,-65.70445251464844,72.48719024658203,-3.986267926674991,-6.062087629613101,87.64417120290115,-18.7372,32.068394,5.3956428,97.76773,-20.682138,6.732713,-9.664246,-16.57779,-43.539303,53.044205,-25.876198,-2.9894314,-1.570071,0.9232864,18.85981,26.344831,25.579826,-18.005968,-51.114056,5.6662917,4.060498,12.610402,2.0306194,-16.138456,19.627748,-7.997318,4.087281,-7.1646547,-12.285236
208,5.648397445678711,-66.67179107666016,72.95962524414062,-4.096361593712934,-5.733925882800455,87.84994517139367,-17.34989,31.28374,5.6734414,96.14859,-20.183962,6.594024,-10.410303,-16.325619,-43.9365,51.66417,-23.509148,-3.3481069,-2.0139928,0.81687963,18.623796,25.2492,25.808102,-18.244081,-49.70913,4.994605,4.0411735,13.025503,3.2471268,-15.980847,19.601011,-9.167135,3.8678555,-7.045005,-11.720496
209,5.5470170974731445,-67.64234924316406,73.4671859741211,-4.248633555349126,-5.3248849940406355,88.09373800114386,-16.156963,30.358595,5.798843,94.18221,-19.671339,6.168655,-11.166053,-16.024878,-44.443405,50.098248,-20.882631,-3.6735,-2.491979,0.73391056,18.341623,24.083685,25.995914,-18.528994,-48.049114,4.2119966,3.9240203,13.4706135,4.3582745,-15.829433,19.61014,-10.147867,3.7992969,-7.0120153,-11.167207
210,5.413527011871338,-68.66243743896484,73.98478698730469,-4.435758445220506,-4.8503876297167565,88.36193861308868,-15.11008,29.279516,5.772293,91.87063,-19.11363,5.507468,-11.933899,-15.693588,-45.01453,48.362156,-18.007257,-3.9502964,-2.9951768,0.6764942,18.01976,22.849884,26.141186,-18.859037,-46.143764,3.283998,3.7373955,13.975078,5.3859296,-15.682384,19.666143,-10.963585,3.8356564,-7.0420866,-10.612969
211,5.279541969299316,-69.72286224365234,74.52447509765625,-4.623280538405885,-4.336582176974376,88.6401883772454,-14.183811,28.107004,5.634184,89.29963,-18.515404,4.7793245,-12.741042,-15.343222,-45.47666,46.495758,-14.969046,-4.053145,-3.5015416,0.62188476,17.687925,21.570534,26.244713,-19.212624,-44.06538,2.3270266,3.5035841,14.525843,6.3257785,-15.53468,19.738533,-11.655908,3.8714159,-7.0987787,-10.076799
212,5.147131443023682,-70.80743408203125,75.0597152709961,-4.77591224520718,-3.8099913068803803,88.91554031680924,-13.356395,26.894487,5.4306297,86.55412,-17.876114,4.1494336,-13.611554,-14.973514,-45.646576,44.529465,-11.850446,-3.8541338,-3.9885678,0.5432412,17.376814,20.26966,26.309996,-19.568018,-41.887257,1.458549,3.2474694,15.112786,7.1771393,-15.3785095,19.793562,-12.27092,3.7998905,-7.1481004,-9.57763
213,5.0305938720703125,-71.90605926513672,75.59197235107422,-4.899299715038871,-3.2336647684685484,89.20289076180327,-12.724756,25.546085,5.046725,83.625786,-17.210066,3.655564,-14.531705,-14.551405,-45.63596,42.330242,-8.503293,-3.423844,-4.474519,0.43114188,17.065598,18.93327,26.338934,-19.933943,-39.578575,0.6609291,2.9603844,15.800894,7.9283457,-15.201205,19.824394,-12.786616,3.5861313,-7.19648,-9.1187
214,4.881210803985596,-73.01180267333984,76.09536743164062,-5.005321393253008,-2.608388280456735,89.50150569844365,-12.244358,24.082079,4.5000095,80.48137,-16.524544,3.2206821,-15.491567,-14.077091,-45.448074,39.913048,-4.9441977,-2.7813044,-4.9605846,0.29527974,16.745417,17.56245,26.333166,-20.313496,-37.11959,-0.10935798,2.6319864,16.57186,8.577041,-14.998138,19.847183,-13.178714,3.2853909,-7.2600265,-8.689282
215,4.708439350128174,-74.12133026123047,76.5571517944336,-5.064817821288025,-2.017028591088066,89.77976340770499,-11.703818,22.69995,4.042577,77.16453,-15.7929535,2.81924,-16.509418,-13.578207,-44.727,37.516567,-1.5042138,-1.7152365,-5.401909,0.13030347,16.466293,16.198593,26.298805,-20.67352,-34.604336,-0.77901495,2.2914627,17.295036,9.146215,-14.779217,19.859121,-13.506817,2.928588,-7.3161216,-8.288842
216,4.511378765106201,-75.24402618408203,76.96430206298828,-5.046190964595763,-1.5434226163515241,90.01006968346638,-10.908891,21.563274,3.9335215,73.70362,-14.972044,2.4028823,-17.57921,-13.056932,-43.124126,35.35298,1.4849298,-0.01115429,-5.756717,-0.07239644,16.282537,14.884983,26.244919,-20.980556,-32.133064,-1.2772412,1.9728557,17.843813,9.669057,-14.562893,19.85547,-13.846424,2.549556,-7.342263,-7.9185443
217,4.316042900085449,-76.376953125,77.29594421386719,-4.887174789729587,-1.2308012372404353,90.20537345985765,-9.764071,20.63089,4.291289,69.97651,-13.692883,1.9318256,-18.659039,-12.332094,-40.126995,33.05843,4.072493,2.8708186,-6.024364,-0.36739355,16.23401,13.61866,26.180355,-21.230967,-29.705095,-1.573862,1.6888208,18.181906,10.197683,-14.358035,19.809593,-14.22613,2.1083982,-7.321798,-7.574294
218,4.095398426055908,-77.50394439697266,77.5517807006836,-4.613378395297494,-1.0341022481358568,90.38337122804383,-8.385327,19.757572,4.973477,65.9963,-12.077622,1.3965693,-19.631245,-11.418244,-36.054935,30.61547,6.2688966,6.665986,-6.2286444,-0.7471888,16.294168,12.38842,26.109234,-21.437231,-27.292744,-1.7145398,1.425727,18.384052,10.715504,-14.166275,19.725466,-14.626724,1.607333,-7.270584,-7.258521
219,3.8763325214385986,-78.60108947753906,77.72163391113281,-4.333166627588281,-0.9001936033418161,90.51922266534363,-6.909173,18.96711,5.8545165,61.986927,-10.808069,0.785168,-20.49577,-10.629865,-31.876772,28.840687,7.747735,10.364762,-6.3632536,-1.1156319,16.416012,11.218296,26.031153,-21.589968,-24.940811,-1.7446866,1.1789758,18.490782,11.152988,-13.998351,19.646801,-15.053651,1.1456604,-7.213568,-6.98339
220,3.638270854949951,-79.71054077148438,77.80323791503906,-4.176861367529454,-0.7647775169246998,90.5764789024213,-5.4847097,18.352678,6.8179903,58.16041,-10.560892,0.0918709,-21.449509,-10.247683,-28.572042,28.59833,8.352037,12.976178,-6.4170504,-1.3527672,16.544193,10.134,25.941603,-21.67668,-22.692595,-1.708835,0.9426982,18.540127,11.436584,-13.87269,19.621214,-15.507325,0.82442933,-7.174399,-6.762551
221,3.3928916454315186,-80.85614776611328,77.8150405883789,-4.2060222712343585,-0.592287561906317,90.49391976834677,-4.010976,18.03573,7.988509,54.312042,-11.7733555,-0.7697386,-22.7449,-10.2997055,-26.37692,30.287498,8.032939,14.177208,-6.346284,-1.3821995,16.655184,9.144957,25.830214,-21.665424,-20.544836,-1.6057606,0.69769084,18.450823,11.549117,-13.810488,19.667322,-15.998316,0.72560954,-7.1560326,-6.606786
222,3.164659023284912,-82.01498413085938,77.76087951660156,-4.340785302315829,-0.4189076274015375,90.30570241995045,-2.4391303,17.924723,9.438691,50.34154,-13.935736,-1.8183881,-24.312943,-10.631899,-24.803873,33.3824,7.0092893,14.510303,-6.178672,-1.2774906,16.777864,8.237083,25.694645,-21.563566,-18.476595,-1.4149275,0.45256686,18.23074,11.535195,-13.818574,19.76509,-16.537504,0.78374696,-7.1444793,-6.5114026
223,2.917562246322632,-83.16519927978516,77.65019989013672,-4.50040550817666,-0.2835288625980458,90.11513184085042,-1.022419,17.864994,10.953863,46.66362,-16.339716,-2.900588,-25.929146,-11.232285,-23.706318,37.33349,5.61647,14.305113,-6.003221,-1.1374671,16.932964,7.403864,25.545504,-21.421392,-16.516811,-1.150132,0.24353379,18.0546,11.410999,-13.88821,19.900414,-17.113686,0.8782736,-7.1384625,-6.464841
224,2.690699338912964,-84.30014038085938,77.48567199707031,-4.613676416192271,-0.22442363453103484,90.022695542413,-0.041058447,17.74667,12.25894,43.765892,-18.346907,-3.7934432,-27.364649,-12.088659,-22.94655,41.625465,4.1565843,13.89344,-5.900951,-1.0550494,17.145046,6.6417093,25.401354,-21.291111,-14.700656,-0.82726234,0.107603684,18.099876,11.189892,-13.998801,20.056465,-17.713144,0.8856495,-7.137882,-6.4533644
225,2.483786106109619,-85.42997741699219,77.29376983642578,-4.66081270366006,-0.2615269910590068,90.03149555376885,0.43766114,17.59046,13.296791,41.799194,-19.938889,-4.370988,-28.58107,-13.37667,-22.717398,46.425747,2.5857847,13.155987,-5.877483,-1.069906,17.426472,5.969935,25.274248,-21.180115,-13.034206,-0.36110383,0.094500184,18.501925,10.8272915,-14.139085,20.252333,-18.316317,0.7707347,-7.157937,-6.4721613
226,2.303417444229126,-86.57979583740234,77.07429504394531,-4.669659212110927,-0.3755195643120449,90.10179590472684,0.5421307,17.467855,14.171611,40.54514,-21.45967,-4.713996,-29.625868,-15.106735,-22.9708,51.84011,0.8021495,11.951197,-5.8960185,-1.1439383,17.767605,5.3927784,25.167635,-21.061846,-11.511816,0.22214122,0.1763738,19.139963,10.32729,-14.304686,20.487146,-18.930313,0.59612906,-7.1940217,-6.526362
227,2.116178035736084,-87.71263122558594,76.82769012451172,-4.661647936582557,-0.5426714390701477,90.26308379021266,0.25740576,17.384953,14.805939,40.00272,-22.869188,-4.8722744,-30.448387,-16.963829,-23.252996,57.339443,-1.005667,10.607409,-5.962064,-1.2397316,18.159212,4.8856363,25.088566,-20.942766,-10.15334,0.7412753,0.27441704,19.80898,9.7722025,-14.482258,20.708624,-19.57627,0.3816397,-7.216342,-6.6141653
228,1.93714439868927,-88.84595489501953,76.54583740234375,-4.659088731141658,-0.7361079608072049,90.53965370229282,-0.4299442,17.350607,15.133072,40.164104,-24.116476,-4.905629,-31.06177,-18.57962,-23.146511,62.444443,-2.6484604,9.487257,-6.071294,-1.313745,18.588364,4.415633,25.046364,-20.837105,-8.973127,1.0164024,0.30243173,20.307241,9.246477,-14.652746,20.859753,-20.275667,0.14566642,-7.195389,-6.7312503
229,1.775680661201477,-89.9747543334961,76.24895477294922,-4.681556023489525,-0.9590974754650334,91.02164998663486,-1.7137086,17.390518,14.99379,41.33404,-25.173428,-4.7792087,-31.479664,-19.891352,-22.614555,67.175026,-4.1209946,8.6629095,-6.285538,-1.3596953,19.078754,3.9217386,25.059324,-20.763565,-7.957143,0.89004624,0.18882994,20.56188,8.746633,-14.796761,20.920246,-21.018808,-0.12882325,-7.124871,-6.880502
230,1.6393641233444214,-91.11451721191406,75.93758392333984,-4.7154777843923545,-1.222044986903883,91.66334496360231,-3.5288925,17.480875,14.467581,43.42635,-26.074833,-4.484556,-31.712444,-21.04201,-21.884144,71.77403,-5.517284,7.9781423,-6.5726724,-1.4080379,19.626366,3.4374936,25.133633,-20.718647,-7.106802,0.48997182,-0.0073451526,20.689651,8.228818,-14.909117,20.913773,-21.785109,-0.45030475,-7.0199146,-7.0567694
231,1.5108174085617065,-92.24964141845703,75.60808563232422,-4.7468081586570685,-1.506174818792424,92.28325351783295,-5.497921,17.571766,13.857533,45.838768,-26.85755,-4.1305766,-31.808258,-21.952583,-20.960896,76.13032,-6.7924013,7.4686866,-6.7913795,-1.4577698,20.174294,3.0727065,25.250328,-20.678974,-6.4574614,0.06908819,-0.17875175,20.773212,7.717567,-14.996421,20.85787,-22.573013,-0.7855854,-6.883315,-7.246577
232,1.3960771560668945,-93.4021224975586,75.25391387939453,-4.7579024928881,-1.7924165990554277,92.70087420589036,-7.2507405,17.645103,13.458671,47.985394,-27.57335,-3.8056357,-31.817257,-22.56292,-19.848417,80.13618,-7.9062123,7.1567307,-6.80549,-1.4945961,20.663235,2.9263458,25.374256,-20.61974,-6.0267115,-0.11548626,-0.21869385,20.895407,7.2394266,-15.074163,20.774284,-23.386444,-1.0985861,-6.71801,-7.43851
233,1.2723329067230225,-94.52728271484375,74.88931274414062,-4.74775916208906,-2.0749537568661176,92.87522222056573,-8.797923,17.738722,13.326895,49.89873,-28.199324,-3.469389,-31.794819,-22.786568,-18.462023,83.80737,-8.8254,7.10488,-6.5668178,-1.4910685,21.097479,2.9601524,25.480137,-20.564621,-5.7781715,-0.009308852,-0.070728816,21.091251,6.8190637,-15.154141,20.644966,-24.266804,-1.4079541,-6.5063624,-7.643297
234,1.1575373411178589,-95.63292694091797,74.51773071289062,-4.728922611443239,-2.362937107128477,92.89935565179896,-10.302204,17.860899,13.311497,51.8261,-28.716095,-3.1020443,-31.690693,-22.674662,-16.86178,87.21722,-9.594448,7.2893567,-6.153798,-1.4411992,21.495981,3.1188583,25.560492,-20.52215,-5.682637,0.26358616,0.19933482,21.307955,6.4418483,-15.2399645,20.468895,-25.201399,-1.7194766,-6.2522964,-7.8648267
235,1.0194473266601562,-96.6749267578125,74.16000366210938,-4.695230995969256,-2.660600668930043,92.79566490344443,-11.630599,17.974125,13.385367,53.52672,-29.203749,-2.7921712,-31.399235,-22.399563,-15.253268,90.331215,-10.283498,7.5875707,-5.626537,-1.3625877,21.822433,3.4826026,25.605833,-20.4386,-5.7722363,0.69405514,0.5148787,21.495838,6.0717096,-15.337353,20.297861,-26.109873,-1.9794748,-5.9914412,-8.0831785
236,0.8898841142654419,-97.65776062011719,73.81974792480469,-4.643546452440308,-2.9725057159072494,92.58753453855891,-12.64791,18.040813,13.52147,54.764416,-29.751114,-2.6171615,-30.82812,-22.150171,-13.82245,93.103546,-10.953294,7.8666997,-5.05202,-1.278388,22.04226,4.141159,25.606428,-20.25142,-6.087131,1.2741289,0.79842216,21.604002,5.6695337,-15.453523,20.190514,-26.910862,-2.1345341,-5.7598863,-8.280997
237,0.757409930229187,-98.6103744506836,73.4888687133789,-4.568381701291551,-3.3297937513015863,92.20382218454098,-13.161,18.057135,13.768941,55.336918,-30.50781,-2.660361,-29.94253,-21.935177,-12.52914,95.53987,-11.619185,8.102245,-4.3861427,-1.1868976,22.140839,5.186412,25.545807,-19.9232,-6.6847515,2.1638577,1.0409325,21.609985,5.223217,-15.605499,20.198011,-27.59236,-2.0636601,-5.573837,-8.478245
238,0.6130117774009705,-99.5111312866211,73.19451141357422,-4.470431668448299,-3.720100931274577,91.65996669846035,-13.291247,18.043943,14.123417,55.41735,-31.391018,-2.8507884,-28.794819,-21.697111,-11.297435,97.66218,-12.2441025,8.35017,-3.6243446,-1.0779841,22.138826,6.5509167,25.415674,-19.491434,-7.5275316,3.3174663,1.2766775,21.537342,4.7558365,-15.798599,20.287737,-28.200731,-1.8273798,-5.4127817,-8.6838045
239,0.48327991366386414,-100.38755798339844,72.9262924194336,-4.350736186080177,-4.083392203461371,91.10966823353617,-13.378035,17.996284,14.474225,55.340324,-32.137207,-3.0303338,-27.443817,-21.533407,-10.239217,99.43924,-12.798547,8.591642,-2.8857732,-0.96931523,22.056278,8.079246,25.22548,-19.016605,-8.5088215,4.4155316,1.4929249,21.410372,4.2817016,-16.014088,20.381672,-28.742392,-1.6482563,-5.256858,-8.857884
240,0.3745568096637726,-101.26493072509766,72.701171875,-4.21474378202511,-4.360878814488091,90.70652820484575,-13.760069,17.907297,14.707883,55.439903,-32.48805,-3.0347207,-25.956724,-21.538086,-9.453649,100.83754,-13.250163,8.813379,-2.2870855,-0.88364196,21.913868,9.621063,24.99855,-18.556849,-9.527473,5.136701,1.6802024,21.258,3.8060236,-16.217093,20.398634,-29.20682,-1.7534469,-5.085019,-8.954459
