Frame,root_translateX,root_translateY,root_translateZ,root_rotateX,root_rotateY,root_rotateZ,left_hip_pitch_joint_dof,left_hip_roll_joint_dof,left_hip_yaw_joint_dof,left_knee_joint_dof,left_ankle_pitch_joint_dof,left_ankle_roll_joint_dof,right_hip_pitch_joint_dof,right_hip_roll_joint_dof,right_hip_yaw_joint_dof,right_knee_joint_dof,right_ankle_pitch_joint_dof,right_ankle_roll_joint_dof,waist_yaw_joint_dof,waist_roll_joint_dof,waist_pitch_joint_dof,left_shoulder_pitch_joint_dof,left_shoulder_roll_joint_dof,left_shoulder_yaw_joint_dof,left_elbow_joint_dof,left_wrist_roll_joint_dof,left_wrist_pitch_joint_dof,left_wrist_yaw_joint_dof,right_shoulder_pitch_joint_dof,right_shoulder_roll_joint_dof,right_shoulder_yaw_joint_dof,right_elbow_joint_dof,right_wrist_roll_joint_dof,right_wrist_pitch_joint_dof,right_wrist_yaw_joint_dof
0,-0.9479740858078003,0.1661931872367859,54.17377471923828,2.396114478619054,17.594463678899256,-0.06016629482975485,-69.87227,13.7811985,-15.270586,95.30174,-40.306686,-15.000033,-89.89319,-27.06112,14.52455,80.34182,-12.568475,12.42736,-2.7754452,-0.06880133,29.793802,-59.27707,33.507275,-44.065876,-15.93746,12.728094,-3.884478,7.696695,-71.83922,-42.81988,30.157309,16.216082,-1.5390506,-7.8729024,-23.62973
1,-0.8549181818962097,-0.5025020837783813,54.2037239074707,2.467788784928937,17.619632180667406,0.0575379978117865,-69.59189,13.93451,-15.884697,94.551796,-39.835693,-15.000033,-89.97458,-27.08068,13.875156,81.05914,-13.041575,11.8437395,-2.9578204,-0.24723555,29.793802,-59.300415,33.41555,-44.03949,-15.970689,12.766327,-3.825531,7.808407,-71.79743,-42.847057,30.27615,16.17079,-1.4487295,-7.873893,-23.664942
2,-0.7747955322265625,-1.1583720445632935,54.25910186767578,2.5376729805986358,17.639128978385767,0.17474536197005794,-69.3215,14.100176,-16.488903,93.81893,-39.375248,-15.000033,-90.062035,-27.089159,13.242229,81.798004,-13.512238,11.267202,-3.164306,-0.44543973,29.793802,-59.300545,33.366016,-44.003357,-16.025263,12.811544,-3.7615664,7.928591,-71.77135,-42.83561,30.401733,16.136456,-1.3652054,-7.8793116,-23.701506
3,-0.6976867914199829,-1.8158659934997559,54.34201431274414,2.622125057709627,17.665333346749723,0.28830452177902494,-69.0378,14.230782,-17.1026,93.05285,-38.88379,-15.000033,-90.13521,-27.104403,12.604309,82.50101,-13.993956,10.682466,-3.3810081,-0.66141385,29.793802,-59.302227,33.319454,-43.947575,-16.06735,12.835313,-3.704228,8.029008,-71.785965,-42.789806,30.555735,16.138186,-1.2836599,-7.8802876,-23.743269
4,-0.6177656650543213,-2.468657970428467,54.45793914794922,2.738659641485707,17.71174837183321,0.3944403876715829,-68.71232,14.278387,-17.739552,92.20069,-38.3206,-15.000033,-90.17378,-27.142988,11.939734,83.10946,-14.499331,10.074176,-3.6043,-0.92615783,29.793802,-59.3141,33.284805,-43.874836,-16.09017,12.809286,-3.66058,8.090354,-71.834274,-42.696312,30.71519,16.170797,-1.207239,-7.869447,-23.7816
5,-0.534212589263916,-3.1346843242645264,54.59674072265625,2.9196794020526475,17.77904268811012,0.5028610224249866,-68.309975,14.196079,-18.403608,91.224174,-37.692104,-15.000033,-90.19353,-27.218039,11.276847,83.62145,-15.04937,9.432619,-3.8478198,-1.2805941,29.793802,-59.3352,33.281822,-43.78491,-16.099817,12.6858425,-3.6362133,8.106288,-71.892235,-42.563225,30.859667,16.21158,-1.1244286,-7.8374267,-23.813833
6,-0.45342203974723816,-3.7952237129211426,54.75861358642578,3.1469900267998425,17.86056010426825,0.6119925646284383,-67.84813,14.024442,-19.0884,90.15741,-37.01676,-15.000033,-90.19686,-27.317003,10.615181,84.06285,-15.631307,8.7687645,-4.109935,-1.7018219,29.793802,-59.361744,33.315495,-43.676792,-16.105854,12.486944,-3.6252913,8.08912,-71.96396,-42.394802,30.997446,16.2622,-1.0374649,-7.7905526,-23.842607
7,-0.3805955648422241,-4.456756114959717,54.945858001708984,3.3667871550636135,17.96368370083446,0.7035858945261338,-67.386154,13.849725,-19.801332,89.059006,-36.271088,-15.000033,-90.15339,-27.416533,9.897013,84.42085,-16.206911,8.099117,-4.360194,-2.12831,29.793802,-59.382755,33.382946,-43.557854,-16.130003,12.295564,-3.617113,8.052009,-72.05955,-42.199005,31.131762,16.32156,-0.9624517,-7.7441278,-23.86328
8,-0.30222848057746887,-5.136836051940918,55.15888214111328,3.5233352728098377,18.09620850420925,0.7596660676953011,-66.98778,13.756736,-20.548578,87.9878,-35.432297,-15.000033,-90.03294,-27.496618,9.062247,84.682396,-16.738152,7.43959,-4.5608363,-2.4916613,29.793802,-59.40748,33.47729,-43.43975,-16.1821,12.178737,-3.6018002,8.007853,-72.18127,-41.99267,31.261675,16.38579,-0.91533345,-7.713074,-23.870651
9,-0.22609858214855194,-5.803321838378906,55.39570617675781,3.6134480827284947,18.26628501008942,0.7778126776469202,-66.63861,13.742692,-21.339462,86.90278,-34.500095,-15.000033,-89.83192,-27.55216,8.103474,84.83395,-17.214777,6.7976766,-4.7002716,-2.779795,29.793802,-59.43898,33.5891,-43.324238,-16.260956,12.166787,-3.5766048,7.947378,-72.32171,-41.790993,31.387068,16.445795,-0.8871385,-7.70628,-23.863598
10,-0.1487565040588379,-6.481747150421143,55.6495475769043,3.660433803673586,18.4692982375778,0.7670156821019722,-66.3175,13.770384,-22.168167,85.78794,-33.488117,-15.000033,-89.5639,-27.593796,7.045488,84.88487,-17.657581,6.163512,-4.7883873,-3.016093,29.793802,-59.478596,33.710518,-43.21168,-16.357286,12.219764,-3.5477736,7.8682365,-72.470406,-41.601795,31.50355,16.496283,-0.8703964,-7.713392,-23.843924
11,-0.07904471457004547,-7.153622627258301,55.9163703918457,3.6486818353067285,18.69422502066813,0.7277482721419145,-66.08861,13.869905,-23.017624,84.75065,-32.380047,-15.000033,-89.22337,-27.620157,5.875545,84.85635,-18.074717,5.5262837,-4.821357,-3.1857972,29.793802,-59.528503,33.834866,-43.11153,-16.47722,12.303839,-3.5186179,7.793879,-72.623024,-41.432476,31.60209,16.537058,-0.882894,-7.7202053,-23.810436
12,-0.01032609399408102,-7.846991062164307,56.188720703125,3.562251206937941,18.9300643576144,0.6611645829833936,-66.01641,14.067833,-23.870802,83.89412,-31.163425,-15.000033,-88.80384,-27.632807,4.5810404,84.76635,-18.473263,4.875839,-4.7954745,-3.2733314,29.793802,-59.594864,33.9566,-43.033394,-16.623304,12.3816,-3.4924405,7.747834,-72.77274,-41.290577,31.67124,16.567537,-0.942441,-7.712483,-23.761766
13,0.050288088619709015,-8.534317016601562,56.472103118896484,3.421151462202046,19.178168187560196,0.572585206145753,-66.080795,14.359871,-24.700161,83.182755,-29.814936,-15.000033,-88.31319,-27.642408,3.1777709,84.60776,-18.859015,4.2104273,-4.71736,-3.2949595,29.793802,-59.672558,34.07236,-42.97486,-16.799152,12.478237,-3.4672601,7.758422,-72.91778,-41.179188,31.706457,16.578325,-1.0751607,-7.6854453,-23.688477
14,0.10661096125841141,-9.217439651489258,56.76320266723633,3.223171818679546,19.44254370121823,0.4592441911776359,-66.26426,14.725812,-25.529001,82.58368,-28.352829,-15.000033,-87.74781,-27.639904,1.6630766,84.371506,-19.226276,3.5359697,-4.581381,-3.2471106,29.793802,-59.767,34.178555,-42.935444,-16.99607,12.600036,-3.4425642,7.8057294,-73.057205,-41.101856,31.712662,16.569393,-1.2635088,-7.6469855,-23.5936
15,0.1602754294872284,-9.91014575958252,57.05146026611328,2.9172389790292046,19.715870184051678,0.3101956719613113,-66.63416,15.157504,-26.425493,82.21007,-26.833532,-15.000033,-87.08335,-27.589012,-0.004484324,84.07345,-19.565247,2.8535254,-4.3637686,-3.080983,29.793802,-59.891678,34.25994,-42.92927,-17.206114,12.694033,-3.423466,7.8416204,-73.18351,-41.071266,31.69132,16.550798,-1.4593209,-7.6014895,-23.494291
16,0.2157149612903595,-10.625858306884766,57.33075714111328,2.4496598962734932,19.98772335038879,0.11300693043249883,-67.254234,15.635793,-27.468744,82.18134,-25.316437,-15.000033,-86.29238,-27.451384,-1.8667185,83.72638,-19.864971,2.1636271,-4.0444465,-2.7446635,29.793802,-60.065556,34.292877,-42.962887,-17.405556,12.705896,-3.4167566,7.812954,-73.308945,-41.085,31.659346,16.55316,-1.6178613,-7.5536013,-23.410315
17,0.2608429491519928,-11.356709480285645,57.601165771484375,1.7578724613031877,20.27274417965952,-0.14041501020579675,-68.254486,16.231047,-28.733942,82.565125,-23.75582,-15.000033,-85.33263,-27.209932,-4.020406,83.29507,-20.099972,1.4670484,-3.5792813,-2.1898167,29.793802,-60.314617,34.3104,-43.074623,-17.640507,12.568799,-3.4253402,7.706599,-73.36961,-41.20165,31.547823,16.508453,-1.7220259,-7.490299,-23.330807
18,0.2965083122253418,-12.088613510131836,57.850276947021484,0.8682922478264088,20.556021561799614,-0.45447072748530176,-69.54606,16.855791,-30.236296,83.31582,-22.171589,-15.000033,-84.210175,-26.85445,-6.425321,82.773056,-20.282724,0.7632683,-2.9716108,-1.4232368,29.793802,-60.625645,34.265522,-43.23948,-17.884686,12.339926,-3.4491074,7.5402646,-73.393936,-41.413322,31.392784,16.444372,-1.7965778,-7.4128585,-23.254728
19,0.3400817811489105,-12.742368698120117,58.14058303833008,0.8828774801351291,20.867986774750246,-0.43443573390760865,-70.97516,17.274076,-29.679106,84.21433,-20.600588,-10.718874,-83.767105,-26.790886,-7.5821567,82.3448,-20.349518,0.27621555,-2.878223,-1.4399495,29.793802,-60.962044,34.24561,-43.247166,-18.009615,12.176783,-3.463019,7.329508,-73.514656,-41.6272,31.338005,16.206535,-1.7757425,-7.3369274,-23.186663
20,0.3774931728839874,-13.373231887817383,58.418888092041016,0.9967943038370454,21.13084579590908,-0.41393213933810297,-72.272736,17.474545,-28.932081,85.308266,-19.289326,-6.1916924,-83.397804,-26.689121,-8.523448,81.970345,-20.441984,-0.20858105,-2.8446,-1.5427641,29.793802,-61.22814,34.26153,-43.214355,-18.130337,12.089516,-3.4638996,7.141525,-73.6768,-41.81563,31.363615,15.9968195,-1.7228271,-7.2976766,-23.144114
21,0.4160275161266327,-13.999736785888672,58.68889617919922,1.1413567380235252,21.334542754462536,-0.41978410511177694,-73.49081,17.385965,-28.148794,86.650696,-18.082346,-1.075242,-83.04107,-26.512087,-9.334564,81.63268,-20.573172,-0.71491396,-2.8163188,-1.6670954,29.793802,-61.446648,34.30006,-43.177475,-18.230612,12.099488,-3.452091,7.0050955,-73.86748,-41.98649,31.46567,15.838685,-1.6300149,-7.312852,-23.14875
22,0.45759397745132446,-14.61011028289795,58.93402099609375,1.3135402328827712,21.495802594333195,-0.44224749727096124,-74.74563,17.156544,-27.22165,88.247185,-16.9495,4.712225,-82.6944,-26.277079,-10.040931,81.31007,-20.717464,-1.230294,-2.7967143,-1.8105727,29.793802,-61.632256,34.35538,-43.13569,-18.318848,12.167628,-3.432929,6.891528,-74.08595,-42.143932,31.62455,15.716391,-1.501112,-7.365726,-23.189281
23,0.5037196278572083,-15.195359230041504,59.15314483642578,1.4667227164286756,21.61003802350439,-0.5079235926858329,-75.83782,16.878973,-26.203089,89.967735,-16.122208,10.04883,-82.340546,-25.978369,-10.690652,81.01829,-20.878962,-1.7512739,-2.7636383,-1.9341726,29.793802,-61.76275,34.4169,-43.07508,-18.401619,12.254882,-3.4047072,6.7679076,-74.311134,-42.287014,31.8148,15.613531,-1.3724418,-7.4314494,-23.219088
24,0.5560324788093567,-15.744766235351562,59.34199523925781,1.5601199735376967,21.67450414132086,-0.6393210462999418,-76.519875,16.558264,-25.224537,91.68913,-15.808581,13.70327,-81.97,-25.61468,-11.322575,80.77634,-21.061827,-2.2713437,-2.7012663,-2.0042253,29.793802,-61.816624,34.471466,-42.981247,-18.48388,12.325799,-3.3655105,6.600896,-74.52818,-42.411655,32.013397,15.515978,-1.281108,-7.4850254,-23.19215
25,0.6055021286010742,-16.268665313720703,59.50120162963867,1.603681056325508,21.673892609348204,-0.8540822252656122,-76.53109,15.893556,-24.525442,93.369606,-16.120195,14.756898,-81.59487,-25.174236,-11.895779,80.60522,-21.2742,-2.783218,-2.6021104,-2.0306165,29.793802,-61.779606,34.505924,-42.8403,-18.546785,12.395464,-3.3115141,6.369288,-74.731575,-42.50841,32.222507,15.420702,-1.2400122,-7.5143466,-23.074446
26,0.6541344523429871,-16.766157150268555,59.624446868896484,1.6195404412485788,21.615938925195454,-1.1313867358220104,-76.041954,14.875888,-24.012642,95.0891,-16.9029,13.9765005,-81.22356,-24.668295,-12.394894,80.49319,-21.5124,-3.2895184,-2.4793894,-2.027024,29.793802,-61.67354,34.5182,-42.66304,-18.584696,12.477447,-3.2453907,6.0932174,-74.93771,-42.582455,32.45782,15.338975,-1.2286704,-7.5343933,-22.898813
27,0.6913433074951172,-17.241058349609375,59.710384368896484,1.5857121323314252,21.53391218565714,-1.4339790852299221,-75.43848,13.94151,-23.348814,96.9171,-17.963078,12.647458,-80.84447,-24.132107,-12.895792,80.41386,-21.764874,-3.798199,-2.3515275,-1.9764723,29.793802,-61.546844,34.510128,-42.4849,-18.605639,12.535061,-3.1731238,5.80445,-75.147255,-42.63587,32.689568,15.2795725,-1.2430913,-7.5615716,-22.715115
28,0.7291701436042786,-17.704301834106445,59.776878356933594,1.478393594089047,21.462540020599366,-1.7244768265767116,-75.08905,13.538409,-22.229258,98.91403,-19.041922,12.045671,-80.44748,-23.59901,-13.475484,80.33892,-22.018309,-4.316627,-2.2348313,-1.8445145,29.793802,-61.429134,34.486217,-42.32251,-18.643028,12.530408,-3.1023126,5.5308533,-75.37528,-42.690907,32.913967,15.251309,-1.268685,-7.61097,-22.578997
29,0.7755576968193054,-18.16254425048828,59.82963943481445,1.2514475312439923,21.402915584037896,-2.019201338045181,-75.128494,14.021328,-20.511185,101.21297,-20.154118,12.605128,-80.00709,-23.047148,-14.1850605,80.25661,-22.268335,-4.8568916,-2.1024532,-1.5818509,29.793802,-61.318825,34.440063,-42.180126,-18.708118,12.442279,-3.0274022,5.2712264,-75.618,-42.767685,33.12896,15.251955,-1.3285735,-7.692906,-22.501226
30,0.8150793313980103,-18.606220245361328,59.870033264160156,0.9285315277754476,21.338571781104925,-2.3308927419221783,-75.27662,15.116529,-18.408545,103.74899,-21.439827,13.6348915,-79.53619,-22.463385,-14.971971,80.18019,-22.521063,-5.4103518,-1.9461757,-1.2147505,29.793802,-61.21073,34.364567,-42.055305,-18.77892,12.2940445,-2.946411,5.014901,-75.87721,-42.88081,33.342575,15.2736635,-1.3969424,-7.797043,-22.45169
31,0.8485643267631531,-19.04557228088379,59.897010803222656,0.5909899056179416,21.278989265865846,-2.6157641419078073,-75.28875,16.305079,-16.167528,106.275444,-22.769112,14.695033,-79.07911,-21.900385,-15.765003,80.11766,-22.781128,-5.9578137,-1.8072454,-0.82418746,29.793802,-61.13415,34.267025,-41.961483,-18.847183,12.110879,-2.8711534,4.7779903,-76.11923,-43.023296,33.522686,15.286132,-1.4342713,-7.905977,-22.421541
32,0.8876268863677979,-19.488622665405273,59.915130615234375,0.31413375312756503,21.237052380449757,-2.8295262373114154,-74.976814,16.934689,-14.089961,108.54252,-23.959766,15.000033,-78.67943,-21.411585,-16.505623,80.083305,-23.057125,-6.4847198,-1.717324,-0.4719304,29.793802,-61.111195,34.149227,-41.90916,-18.918354,11.915776,-2.8152921,4.576926,-76.2074,-43.1695,33.573696,15.202411,-1.4864069,-7.9988256,-22.40243
33,0.918110728263855,-19.91947364807129,59.922019958496094,0.12402663444987554,21.215495511324686,-2.96515250116558,-74.412506,17.006737,-12.003631,110.55676,-24.961832,15.000033,-78.35448,-21.015285,-17.166311,80.08174,-23.345617,-6.987793,-1.7362163,-0.23949043,29.793802,-61.166138,34.042027,-41.903736,-18.943136,11.681983,-2.7857237,4.419499,-76.47593,-43.351295,33.692123,15.210062,-1.261892,-8.088247,-22.392756
34,0.9465292096138,-20.346813201904297,59.92442321777344,-0.02764401417896439,21.214886326171605,-3.042211499563856,-73.72324,16.797619,-9.781291,112.41744,-25.847794,15.000033,-78.07503,-20.684397,-17.794853,80.09859,-23.641438,-7.4748707,-1.786979,-0.009490601,29.793802,-61.255825,33.933247,-41.928806,-19.009329,11.391558,-2.7782168,4.299403,-76.51762,-43.523933,33.635395,15.07681,-1.1138209,-8.166995,-22.39833
35,0.9680342078208923,-20.761112213134766,59.92163848876953,-0.12439179636112557,21.225880451566564,-3.0491836131279237,-72.918304,16.28084,-7.4148445,114.01019,-26.595484,15.000033,-77.84159,-20.43121,-18.368502,80.14722,-23.947899,-7.9304595,-1.9201983,0.1566279,29.793802,-61.36798,33.834835,-41.980747,-19.055225,11.139662,-2.7701442,4.197852,-76.649666,-43.711246,33.611736,14.999534,-0.8495792,-8.239384,-22.415386
36,1.0000858306884766,-21.188194274902344,59.90464782714844,-0.1740768703290192,21.243971613582055,-2.981359429095423,-72.00471,15.241706,-5.1621995,115.22239,-27.190926,14.252942,-77.64297,-20.252092,-18.900604,80.23586,-24.273338,-8.350629,-2.1040492,0.31160873,29.793802,-61.480553,33.73552,-42.041267,-19.11658,10.981829,-2.747345,4.0980916,-76.65632,-43.892216,33.51061,14.863087,-0.685987,-8.289988,-22.446335
37,1.0211589336395264,-21.598928451538086,59.87530517578125,-0.1559258428484971,21.262879630855284,-2.817569746830814,-71.02789,13.610506,-2.9658058,116.015236,-27.604685,12.889858,-77.483894,-20.177357,-19.370348,80.38351,-24.624025,-8.722273,-2.3800683,0.41994312,29.793802,-61.58547,33.63582,-42.11476,-19.16885,10.982,-2.6959052,3.9912212,-76.66966,-44.07538,33.4115,14.747054,-0.51850486,-8.312571,-22.488127
38,1.0438357591629028,-22.01902198791504,59.845130920410156,-0.07569007998016364,21.2805304848445,-2.5723932258475517,-70.0652,11.464468,-0.7921946,116.436386,-27.882273,11.073436,-77.36018,-20.193739,-19.783487,80.5827,-24.99591,-9.054492,-2.769482,0.4463808,29.793802,-61.69967,33.55431,-42.202446,-19.182335,11.091097,-2.626093,3.884048,-76.95237,-44.303745,33.479942,14.797232,-0.12073769,-8.32282,-22.54319
39,1.0650269985198975,-22.439794540405273,59.8068962097168,0.01288838117219221,21.310938885787472,-2.2908657016728284,-69.21397,9.055096,1.3166741,116.51083,-28.118475,8.981455,-77.2555,-20.239983,-20.192354,80.79013,-25.369255,-9.367065,-3.1182706,0.5458386,29.793802,-61.79561,33.44987,-42.300507,-19.268553,11.217091,-2.5652974,3.795777,-76.76986,-44.493122,33.262737,14.596013,-0.073381536,-8.31623,-22.617058
40,1.0828145742416382,-22.85441780090332,59.76498794555664,0.09108212634035238,21.34916262739193,-2.0135515477877055,-68.48674,6.636983,3.3690584,116.25692,-28.393385,6.8014097,-77.15649,-20.266441,-20.608957,80.97927,-25.732302,-9.677484,-3.4746578,0.6080671,29.793802,-61.91308,33.34342,-42.42615,-19.294655,11.319268,-2.5226974,3.7329218,-76.79412,-44.699646,33.17743,14.546268,0.102858976,-8.33752,-22.70627
41,1.0903520584106445,-23.27211570739746,59.71654510498047,0.15190927297358872,21.405516933859563,-1.7389789398124669,-67.87368,4.2048163,5.3626223,115.631615,-28.713533,4.4738035,-77.068184,-20.266281,-21.035744,81.13966,-26.080744,-9.971425,-3.811554,0.6863048,29.793802,-62.01841,33.22731,-42.560455,-19.312899,11.377321,-2.5126407,3.7039716,-76.83127,-44.920242,33.12132,14.527385,0.25477907,-8.392473,-22.82911
42,1.1002768278121948,-23.704118728637695,59.671424865722656,0.202517314201472,21.475096223798737,-1.4524163766842766,-67.378075,1.6932907,7.281426,114.63956,-29.070015,1.9630033,-76.98809,-20.26054,-21.472311,81.28513,-26.422453,-10.247816,-4.1397853,0.77849084,29.793802,-62.12653,33.09779,-42.71198,-19.316566,11.4201975,-2.5235705,3.70153,-76.8671,-45.157063,33.07772,14.531792,0.38780314,-8.467321,-22.978262
43,1.0978074073791504,-24.126745223999023,59.61597442626953,0.22813019195988019,21.550246364379905,-1.1718171521315126,-67.0131,-0.73968583,9.098341,113.38905,-29.479334,-0.5234771,-76.90294,-20.236376,-21.942665,81.41587,-26.754433,-10.541774,-4.432528,0.8964645,29.793802,-62.241585,32.952557,-42.887173,-19.321545,11.462946,-2.5400703,3.7129943,-76.8902,-45.410686,33.03359,14.556645,0.5070031,-8.5405855,-23.131214
44,1.090999960899353,-24.556137084960938,59.56308364868164,0.21896487825994676,21.623942110948338,-0.912697394577029,-66.767265,-2.9514284,10.795317,111.98777,-29.933414,-2.7922482,-76.8031,-20.18391,-22.464163,81.53327,-27.07399,-10.886852,-4.668151,1.0461822,29.793802,-62.375942,32.792812,-43.09047,-19.334135,11.513806,-2.5469086,3.725113,-76.89857,-45.681755,32.981915,14.604159,0.6229888,-8.590859,-23.26563
45,1.0840582847595215,-24.99212646484375,59.502655029296875,0.1776053974302131,21.701248462660796,-0.675593416599813,-66.59397,-4.912508,12.405503,110.409,-30.418552,-4.823589,-76.69312,-20.105627,-23.040344,81.63664,-27.377453,-11.295356,-4.8361964,1.2353191,29.793802,-62.53318,32.61569,-43.326717,-19.370472,11.58625,-2.5422983,3.7503307,-76.82657,-45.96236,32.880486,14.638468,0.679211,-8.60401,-23.38687
46,1.072234869003296,-25.439775466918945,59.435401916503906,0.11486492065480394,21.784268366102122,-0.44981047563540677,-66.4644,-6.6905546,13.928736,108.61487,-30.92415,-6.708067,-76.5803,-20.00887,-23.654274,81.72809,-27.668459,-11.7471695,-4.967052,1.4362078,29.793802,-62.708824,32.425735,-43.593323,-19.406643,11.678726,-2.5321279,3.7897217,-76.782684,-46.264122,32.79973,14.716692,0.7546407,-8.597039,-23.50217
47,1.0585112571716309,-25.88412094116211,59.36213684082031,0.028806849569872978,21.86610793970721,-0.23368939417581022,-66.38519,-8.308079,15.301433,106.70762,-31.431532,-8.43095,-76.4604,-19.890747,-24.297997,81.80833,-27.95349,-12.227071,-5.051406,1.6663032,29.793802,-62.90028,32.222008,-43.875893,-19.449808,11.754991,-2.5172937,3.815157,-76.692055,-46.57812,32.68546,14.792913,0.80884326,-8.583154,-23.594765
48,1.039624810218811,-26.331571578979492,59.28535461425781,-0.08080801717068022,21.938241135512786,-0.025829362476826608,-66.365715,-9.792236,16.48234,104.791214,-31.919098,-9.964404,-76.32992,-19.749138,-24.960724,81.88091,-28.24004,-12.719738,-5.0925956,1.9236845,29.793802,-63.09902,32.004734,-44.164955,-19.490973,11.792602,-2.4972248,3.7990527,-76.53972,-46.89358,32.516457,14.858531,0.84700805,-8.578387,-23.645851
49,1.0168169736862183,-26.782577514648438,59.20609664916992,-0.21832709323453275,22.002379434859414,0.16315911548713213,-66.38607,-11.195434,17.433144,102.81206,-32.389553,-11.397106,-76.18923,-19.57254,-25.639229,81.93695,-28.525145,-13.223091,-5.0854874,2.206662,29.793802,-63.31217,31.777685,-44.455654,-19.53112,11.775833,-2.4637303,3.717916,-76.34888,-47.205154,32.303253,14.933834,0.89016753,-8.594061,-23.63101
50,0.9817150235176086,-27.23505210876465,59.11198425292969,-0.3780996072397782,22.06167197506918,0.3375195097376124,-66.41149,-12.497427,18.186695,100.745895,-32.841278,-12.716118,-76.04329,-19.367712,-26.33356,81.98023,-28.807524,-13.743735,-5.0376563,2.5084918,29.793802,-63.537724,31.544134,-44.750393,-19.57396,11.722177,-2.4192715,3.5917308,-76.125175,-47.509678,32.052597,15.022191,0.9296852,-8.619559,-23.566914
51,0.9527010917663574,-27.696386337280273,59.010009765625,-0.543843248106748,22.108312985612972,0.5208304529008783,-66.418785,-13.632914,18.77526,98.73758,-33.253822,-13.795185,-75.893814,-19.159002,-27.036198,82.0302,-29.0948,-14.279097,-4.976325,2.811645,29.793802,-63.76654,31.30765,-45.051582,-19.603462,11.649766,-2.3793626,3.4567192,-75.882774,-47.805183,31.779232,15.116053,0.95918596,-8.639757,-23.496258
52,0.9130293726921082,-28.159082412719727,58.897369384765625,-0.6998568669201266,22.135281713399422,0.7363717433018339,-66.39059,-14.547626,19.235569,96.933174,-33.59558,-14.520952,-75.74189,-18.970352,-27.740587,82.10643,-29.394783,-14.826689,-4.9237533,3.10521,29.793802,-63.991444,31.070013,-45.360275,-19.60724,11.572228,-2.3601785,3.3491514,-75.60212,-48.08521,31.474277,15.191565,0.9481982,-8.63843,-23.462221
53,0.8671914935112,-28.630489349365234,58.773868560791016,-0.8641815474836785,22.141980057403824,0.982634259640791,-66.319664,-15.254115,19.530094,95.34459,-33.881733,-14.887241,-75.58321,-18.786318,-28.388554,82.20361,-29.702732,-15.000033,-4.8777833,3.397993,29.793802,-64.20941,30.833157,-45.67982,-19.580366,11.476376,-2.3708284,3.2789452,-75.291046,-48.344166,31.139479,15.264069,0.8845765,-8.609134,-23.485441
54,0.8322539925575256,-29.101585388183594,58.64314270019531,-0.9871546083615578,22.113077677463977,1.3070527431505,-66.17652,-15.864498,19.685684,93.8731,-34.08484,-14.960138,-75.42172,-18.665178,-28.965498,82.356674,-30.04195,-15.000033,-4.897788,3.6594875,29.793802,-64.40149,30.597723,-46.001625,-19.526857,11.36238,-2.402459,3.2282887,-74.941925,-48.57289,30.786749,15.336763,0.7850968,-8.562812,-23.540571
55,0.7871727347373962,-29.571481704711914,58.497161865234375,-1.0682372218938132,22.061054608457574,1.673203140005254,-65.96833,-16.323944,19.787369,92.5651,-34.16228,-14.759918,-75.27002,-18.589323,-29.510012,82.55551,-30.40147,-15.000033,-4.947142,3.8846169,29.793802,-64.58799,30.368221,-46.322605,-19.45079,11.2598095,-2.4403589,3.1871958,-74.58038,-48.77149,30.425875,15.3979845,0.6738082,-8.507065,-23.60059
56,0.7410428524017334,-30.0576171875,58.34446716308594,-1.062525437089104,21.98154122286964,2.09368286611991,-65.68188,-16.63521,19.945461,91.43266,-34.052807,-14.293245,-75.14699,-18.5902,-29.980963,82.82385,-30.788568,-15.000033,-5.0419273,4.042286,29.793802,-64.77022,30.150011,-46.636234,-19.3572,11.199862,-2.4710946,3.1479437,-74.21416,-48.94316,30.070463,15.425133,0.580741,-8.45063,-23.638258
57,0.688125491142273,-30.5416259765625,58.17599868774414,-0.9519419580573208,21.873588418163873,2.5865716071511096,-65.25116,-16.708553,20.209715,90.457405,-33.625404,-13.779114,-75.06602,-18.69086,-30.360842,83.17794,-31.20855,-15.000033,-5.1985273,4.119974,29.793802,-64.958305,29.94949,-46.94678,-19.24674,11.195562,-2.4889538,3.115785,-73.8393,-49.0888,29.722055,15.408238,0.5116341,-8.39461,-23.6438
58,0.6351312398910522,-31.025001525878906,57.99797821044922,-0.7626746691246787,21.738135716357515,3.1384477509264657,-64.70485,-16.574142,20.528,89.64276,-32.961548,-13.143618,-75.0138,-18.869577,-30.672775,83.6004,-31.654766,-15.000033,-5.4086432,4.1288342,29.793802,-65.14332,29.771496,-47.2546,-19.119564,11.229159,-2.5013692,3.0929193,-73.47535,-49.210136,29.390484,15.369784,0.46962312,-8.335559,-23.632639
59,0.5828227996826172,-31.529972076416016,57.81037139892578,-0.5140800148476654,21.5724465262983,3.719491418224611,-64.16748,-16.408842,20.855497,89.035736,-32.328785,-11.947519,-74.971245,-19.096933,-30.934156,84.07025,-32.121708,-15.000033,-5.6454334,4.086761,29.793802,-65.29899,29.613598,-47.54504,-18.992727,11.281022,-2.5159009,3.0671716,-73.10048,-49.3028,29.05898,15.301793,0.42957795,-8.273022,-23.616438
60,0.5226602554321289,-32.02970504760742,57.610721588134766,-0.22347089848295676,21.373722833803875,4.300777052003446,-63.764786,-16.387047,21.14791,88.68761,-31.99869,-9.748394,-74.9194,-19.344675,-31.160841,84.56688,-32.60399,-15.000033,-5.8883567,4.0027857,29.793802,-65.4042,29.471302,-47.805355,-18.869186,11.332359,-2.5394754,3.0253277,-72.72732,-49.365,28.733816,15.215895,0.3906944,-8.207947,-23.606321
61,0.47331270575523376,-32.54708480834961,57.402835845947266,0.13948307027555884,21.129026593718734,4.89985828385558,-63.60945,-16.634838,21.362612,88.714874,-32.02887,-6.0199323,-74.86378,-19.636906,-31.32468,85.11362,-33.119247,-15.000033,-6.155263,3.8494995,29.793802,-65.45731,29.341928,-48.033607,-18.740564,11.383292,-2.574552,2.9542017,-72.34576,-49.391434,28.40981,15.101616,0.36246824,-8.1352625,-23.61239
62,0.4155922532081604,-33.05304718017578,57.18881607055664,0.5763817195286732,20.841289984981422,5.525047749811583,-63.635983,-17.040304,21.55973,89.086395,-32.280663,-1.1017758,-74.8126,-19.981989,-31.42158,85.71194,-33.66308,-15.000033,-6.4575953,3.6216774,29.793802,-65.470474,29.227224,-48.236176,-18.599161,11.444839,-2.6168776,2.8632197,-71.97276,-49.381226,28.099396,14.96786,0.3507388,-8.056896,-23.626482
63,0.3700449466705322,-33.57402420043945,56.9752197265625,1.024565851452286,20.533594257086328,6.133553032333352,-63.69636,-17.432047,21.837748,89.61766,-32.728596,4.145286,-74.7513,-20.3259,-31.507303,86.30602,-34.19362,-15.000033,-6.753096,3.3789856,29.793802,-65.44344,29.125643,-48.40941,-18.46404,11.509898,-2.6643357,2.7733135,-71.61067,-49.336243,27.79967,14.828538,0.31324357,-7.9820666,-23.633759
64,0.3255417048931122,-34.082542419433594,56.758644104003906,1.4201122913840851,20.230771719598838,6.682142511331459,-63.61002,-17.635887,22.248047,90.100464,-33.377686,8.835422,-74.66527,-20.61288,-31.640993,86.84307,-34.67147,-15.000033,-7.0019064,3.1763968,29.793802,-65.38383,29.035847,-48.552734,-18.344206,11.567652,-2.7146213,2.7047246,-71.30184,-49.27095,27.536291,14.722149,0.24478753,-7.9217725,-23.618454
65,0.28705090284347534,-34.591163635253906,56.53226852416992,1.7476301039231923,19.932232442723723,7.147410124527227,-63.29715,-17.617855,22.796085,90.4919,-34.325336,12.943126,-74.554855,-20.818281,-31.829485,87.325356,-35.08802,-15.000033,-7.1719704,3.0417624,29.793802,-65.27184,28.953259,-48.66146,-18.253143,11.6213255,-2.775887,2.6643414,-71.0279,-49.19783,27.304659,14.632884,0.121508375,-7.877862,-23.564173
66,0.2522542476654053,-35.160682678222656,56.3430061340332,1.875853322216052,19.68387235673865,7.481253136924169,-62.956856,-17.407022,22.89781,91.00324,-35.61383,15.000033,-74.318085,-20.792765,-32.268005,87.59299,-35.41964,-15.000033,-7.15569,3.0901697,29.793802,-65.15215,28.872404,-48.77637,-18.211882,11.671039,-2.8484442,2.6423056,-70.76182,-49.142544,27.045387,14.553392,-0.06296908,-7.8432665,-23.492336
67,0.2042594850063324,-35.749794006347656,56.17824172973633,1.8696958179854928,19.476371961722307,7.73649123301167,-62.598255,-16.98698,22.636293,91.59241,-37.056435,15.000033,-73.983315,-20.614487,-32.88999,87.68134,-35.680515,-15.000033,-7.0182543,3.2483783,29.793802,-65.058685,28.779741,-48.91073,-18.17851,11.710153,-2.915377,2.6344147,-70.48498,-49.111816,26.740103,14.474225,-0.26860175,-7.8166823,-23.42036
68,0.16193799674510956,-36.326560974121094,56.01360321044922,1.8802392998447983,19.270893373949168,8.00670743325779,-62.177895,-16.441504,22.546099,92.13126,-38.447964,15.000033,-73.651955,-20.475838,-33.500313,87.7486,-35.91237,-15.000033,-6.8960567,3.396816,29.793802,-64.97553,28.671515,-49.0319,-18.138494,11.734974,-2.9610903,2.632503,-70.2042,-49.099667,26.432547,14.397818,-0.45262828,-7.7954645,-23.373837
69,0.10997965186834335,-36.86949157714844,55.85635757446289,1.903739674447187,19.066523197255155,8.30241695757692,-61.62953,-15.703381,22.70202,92.58499,-39.84203,15.000033,-73.31678,-20.392664,-34.11172,87.80299,-36.131805,-15.000033,-6.811322,3.549611,29.793802,-64.87714,28.57717,-49.117268,-18.126305,11.734048,-2.974448,2.640262,-69.968376,-49.09619,26.167118,14.3603115,-0.6083373,-7.7814703,-23.368206
70,0.05788585543632507,-37.407562255859375,55.70112991333008,1.931876364713119,18.858708542506132,8.60357569492862,-60.94593,-14.796339,23.065865,92.96687,-41.292805,15.000033,-72.97313,-20.343206,-34.728485,87.84668,-36.33832,-15.000033,-6.738407,3.707245,29.793802,-64.76176,28.486439,-49.17789,-18.128595,11.715818,-2.9655755,2.6603074,-69.74408,-49.091385,25.913841,14.339128,-0.7627359,-7.7754245,-23.383091
71,-0.0054268259555101395,-37.93369674682617,55.56036376953125,1.9872507297962476,18.651631969611046,8.91182215591805,-60.29178,-13.921927,23.456392,93.316315,-42.629177,15.000033,-72.64814,-20.324888,-35.311657,87.874855,-36.491966,-15.000033,-6.680048,3.8255098,29.793802,-64.67342,28.369963,-49.236626,-18.084883,11.691789,-2.9518054,2.67904,-69.511154,-49.082653,25.64954,14.314807,-0.8993962,-7.7741756,-23.404736
72,-0.08660157024860382,-38.44532775878906,55.43316650390625,2.096394133938518,18.451822033508417,9.22788801163465,-59.84125,-13.2730255,23.690496,93.67526,-43.673355,15.000033,-72.36938,-20.338005,-35.822006,87.88318,-36.56146,-15.000033,-6.6664414,3.8668246,29.793802,-64.60167,28.269936,-49.272366,-18.00975,11.663327,-2.9513967,2.681715,-69.33845,-49.069633,25.445179,14.313263,-0.9648205,-7.7744575,-23.436947
73,-0.17024174332618713,-38.948936462402344,55.32450866699219,2.2717067720263966,18.266939462227167,9.575423809240757,-59.698494,-12.940082,23.686457,94.07916,-44.32698,15.000033,-72.147736,-20.399918,-36.247677,87.86426,-36.568607,-15.000033,-6.725719,3.8291626,29.793802,-64.5301,28.227226,-49.268032,-17.945984,11.607034,-2.9667594,2.6553085,-69.22903,-49.05264,25.311344,14.332921,-0.94235134,-7.7825646,-23.48606
74,-0.2700372040271759,-39.44053268432617,55.23628616333008,2.499917744434852,18.09120534027593,9.952264825961983,-59.769363,-12.820558,23.547361,94.50066,-44.680435,15.000033,-71.96953,-20.513556,-36.6089,87.82497,-36.518726,-15.000033,-6.837869,3.6928582,29.793802,-64.515915,28.169195,-49.270866,-17.796194,11.539868,-2.9870968,2.6057248,-69.11382,-49.006172,25.145344,14.346515,-0.87344974,-7.800786,-23.528273
75,-0.3801857531070709,-39.92124938964844,55.16991424560547,2.7707881090604096,17.921981366210975,10.316533880059884,-59.93429,-12.804754,23.366255,94.88397,-44.85779,15.000033,-71.83498,-20.653631,-36.91377,87.77799,-36.358128,-15.000033,-6.976754,3.5013623,29.793802,-64.4889,28.148275,-49.24358,-17.6542,11.488399,-3.0144792,2.5672848,-69.06038,-48.959866,25.04989,14.371815,-0.76914406,-7.809194,-23.586246
76,-0.49641817808151245,-40.39760971069336,55.12956237792969,3.071565645812704,17.75223125283936,10.625745128181993,-60.06573,-12.778592,23.228487,95.1741,-44.988235,15.000033,-71.74371,-20.790384,-37.16718,87.73469,-36.023293,-15.000033,-7.1062875,3.2374945,29.793802,-64.45625,28.147778,-49.208843,-17.481487,11.493278,-3.0484738,2.5661685,-68.99954,-48.867397,24.954481,14.363336,-0.71576786,-7.791952,-23.644003
77,-0.612469494342804,-40.87873077392578,55.11888885498047,3.430367825549373,17.576952774273796,10.884043761891625,-60.168095,-12.757377,23.155888,95.36492,-45.04362,15.000033,-71.69048,-20.919357,-37.34132,87.67902,-35.555893,-15.000033,-7.2402725,2.8746579,29.793802,-64.40888,28.184277,-49.16351,-17.28496,11.573954,-3.0955348,2.6231463,-68.95519,-48.73727,24.88088,14.32333,-0.7125151,-7.7299485,-23.709549
78,-0.7287384867668152,-41.3472900390625,55.13295364379883,3.8445458501121643,17.400297482050952,11.107868289438747,-60.295082,-12.78615,23.104609,95.48275,-44.976196,15.000033,-71.681694,-21.053297,-37.436726,87.6112,-34.96407,-15.000033,-7.3899636,2.4195518,29.793802,-64.352066,28.25995,-49.10327,-17.073881,11.706832,-3.1530445,2.7189913,-68.92454,-48.572,24.8241,14.255809,-0.7396604,-7.636665,-23.78198
79,-0.8483412861824036,-41.809391021728516,55.16978454589844,4.257334275218374,17.232888671168453,11.274426166445155,-60.397003,-12.79649,23.062046,95.51848,-44.88608,15.000033,-71.72904,-21.189682,-37.50768,87.5622,-34.147816,-15.000033,-7.5292807,1.9263655,29.793802,-64.27579,28.373621,-49.022118,-16.861387,11.865165,-3.207607,2.8256242,-68.93513,-48.379,24.812506,14.187414,-0.7586525,-7.545139,-23.854134
80,-0.9711123108863831,-42.26350021362305,55.234825134277344,4.610918397769964,17.088362658630068,11.36133442504675,-60.425644,-12.718209,23.013613,95.46285,-44.877834,15.000033,-71.86248,-21.31851,-37.59366,87.559555,-32.973698,-15.000033,-7.6218624,1.4646745,29.793802,-64.164955,28.517199,-48.912773,-16.678967,12.0236435,-3.2466621,2.9150438,-68.981125,-48.16995,24.855003,14.124404,-0.75284475,-7.4864955,-23.919842
81,-1.0919843912124634,-42.71985626220703,55.32560348510742,4.9113363213279895,16.97472833786865,11.364558700697929,-60.36519,-12.5409775,22.978838,95.28398,-44.973083,15.000033,-72.09336,-21.448515,-37.702724,87.61029,-31.406488,-15.000033,-7.661673,1.0306944,29.793802,-64.02288,28.683504,-48.77082,-16.514006,12.1985235,-3.2677956,2.9838164,-69.07405,-47.958992,24.964144,14.062364,-0.6905941,-7.4708786,-23.978052
82,-1.220159888267517,-43.160343170166016,55.43568801879883,5.181165098175119,16.886459094339298,11.29571176153392,-60.246494,-12.298736,22.956608,94.997246,-45.11731,15.000033,-72.40908,-21.577675,-37.812733,87.69296,-29.507587,-15.000033,-7.6548915,0.60973567,29.793802,-63.855053,28.865946,-48.60143,-16.3628,12.397648,-3.2782056,3.045473,-69.18562,-47.74901,25.114916,13.981906,-0.60207087,-7.4795623,-24.031967
83,-1.35551118850708,-43.58346939086914,55.57335662841797,5.389872036386572,16.815874809391644,11.156703158259084,-60.095062,-11.995993,22.905214,94.65934,-45.292538,15.000033,-72.79134,-21.688698,-37.92909,87.79477,-27.312325,-15.000033,-7.596047,0.23305917,29.793802,-63.665413,29.059048,-48.416943,-16.238384,12.576062,-3.2792058,3.0962508,-69.32362,-47.547203,25.309557,13.912904,-0.5031279,-7.5038624,-24.07971
84,-1.4869798421859741,-44.00740051269531,55.72966384887695,5.506242823419397,16.75557041591849,10.949110009540927,-59.940228,-11.637323,22.782377,94.32941,-45.480186,15.000033,-73.22299,-21.761723,-38.056908,87.90071,-24.851091,-15.000033,-7.472337,-0.057373025,29.793802,-63.457127,29.254898,-48.22815,-16.1627,12.685987,-3.2727952,3.1326492,-69.45938,-47.356003,25.527138,13.862647,-0.4384621,-7.5334396,-24.12023
85,-1.6176866292953491,-44.40361022949219,55.89894104003906,5.51565219382347,16.699335848331778,10.674849007601258,-59.77352,-11.231635,22.566544,93.99374,-45.691277,15.000033,-73.69997,-21.803875,-38.217854,88.02798,-22.089504,-15.000033,-7.284502,-0.2442351,29.793802,-63.22014,29.443916,-48.032703,-16.136143,12.710779,-3.2519782,3.1488502,-69.6028,-47.18274,25.7843,13.845802,-0.40340593,-7.5725775,-24.150576
86,-1.7522720098495483,-44.79582214355469,56.08123016357422,5.436234610259304,16.65326607621947,10.331720984749076,-59.591614,-10.7724905,22.28531,93.63035,-45.92903,15.000033,-74.23172,-21.820276,-38.40592,88.16745,-19.018023,-15.000033,-7.0260634,-0.34010383,29.793802,-62.964138,29.6179,-47.82902,-16.147215,12.6747055,-3.2190623,3.1480613,-69.733315,-47.02884,26.065683,13.836416,-0.39853305,-7.6229014,-24.172224
87,-1.8904858827590942,-45.18022537231445,56.27121353149414,5.290968901050804,16.624372345521344,9.916831162497125,-59.426632,-10.242912,21.975138,93.28513,-46.159454,15.000033,-74.801544,-21.808233,-38.603085,88.2745,-15.724864,-15.000033,-6.6956587,-0.38091338,29.793802,-62.71185,29.778158,-47.633465,-16.176394,12.608564,-3.188301,3.1406271,-69.870674,-46.8986,26.36286,13.838449,-0.39938563,-7.6744633,-24.188763
88,-2.030654191970825,-45.559783935546875,56.4622688293457,5.10382913602248,16.61858633210468,9.430395418636502,-59.305397,-9.625869,21.666132,93.00219,-46.34937,15.000033,-75.37568,-21.780664,-38.809853,88.31414,-12.311618,-15.000033,-6.2894335,-0.39407727,29.793802,-62.49023,29.931162,-47.45945,-16.213911,12.531559,-3.1747348,3.137122,-69.99273,-46.78939,26.639614,13.831089,-0.41230217,-7.715745,-24.204248
89,-2.170264959335327,-45.948768615722656,56.658363342285156,4.875286338652199,16.632675942209872,8.87223228939523,-59.22883,-8.920312,21.351397,92.78306,-46.481472,15.000033,-75.978874,-21.74192,-39.01415,88.32784,-8.770028,-15.000033,-5.8130426,-0.38923308,29.793802,-62.294975,30.083666,-47.3077,-16.266,12.451418,-3.1871662,3.1401632,-70.11345,-46.701042,26.905676,13.825147,-0.4448786,-7.738394,-24.217878
90,-2.3152081966400146,-46.331905364990234,56.85362243652344,4.597751732187151,16.660720199017845,8.246353742376584,-59.18459,-8.138185,21.01966,92.60513,-46.57398,15.000033,-76.57356,-21.725565,-39.27191,88.327614,-5.0905323,-15.000033,-5.269323,-0.3515009,29.793802,-62.112854,30.236965,-47.17058,-16.340044,12.352544,-3.216175,3.1446629,-70.21827,-46.630013,27.16251,13.813478,-0.50593793,-7.74972,-24.228096
91,-2.448153018951416,-46.727622985839844,57.049137115478516,4.287002201599748,16.702643534226546,7.560754694893649,-59.16958,-7.28163,20.6952,92.47205,-46.647346,15.000033,-77.016754,-21.807232,-39.697727,88.2455,-1.3607851,-15.000033,-4.669669,-0.2965071,29.793802,-61.94438,30.394081,-47.051044,-16.425198,12.237153,-3.2478747,3.1498437,-70.31831,-46.576046,27.410051,13.793637,-0.5429705,-7.7648754,-24.236225
92,-2.58874773979187,-47.127262115478516,57.2359733581543,3.9586475594031847,16.761564509763847,6.822213636498679,-59.18197,-6.349998,20.40248,92.38766,-46.72129,15.000033,-77.17014,-22.065016,-40.406525,88.02024,2.3579435,-15.000033,-4.0194006,-0.23490028,29.793802,-61.792976,30.557692,-46.95159,-16.513683,12.104716,-3.2684197,3.1553345,-70.40468,-46.53698,27.634396,13.748153,-0.5213059,-7.798094,-24.24344
93,-2.7352633476257324,-47.5379753112793,57.40950012207031,3.5966128805969877,16.861097472817004,5.960959448636294,-59.24787,-5.2614636,20.174576,92.38563,-46.811176,15.000033,-76.8758,-22.590862,-41.689423,87.52174,6.6548724,-15.000033,-3.26034,-0.18102424,29.793802,-61.676918,30.737082,-46.873253,-16.603088,11.935483,-3.2720804,3.1604035,-70.51868,-46.518295,27.847918,13.684369,-0.38304576,-7.8627825,-24.251556
94,-2.8671915531158447,-47.91579055786133,57.60044479370117,3.2864075325151556,16.87544137384228,5.271844117150585,-59.2074,-4.3431864,19.936514,92.30666,-46.812927,15.000033,-77.05944,-22.618233,-41.850895,86.863174,11.448354,-12.819787,-2.6907938,-0.11827689,29.793802,-61.4891,30.91478,-46.807934,-16.696262,11.732699,-3.2767794,3.180923,-70.56268,-46.5063,28.087887,13.599897,-0.16393606,-7.957802,-24.263851
95,-2.9750564098358154,-48.255069732666016,57.81596374511719,3.0002778946349355,16.82936538559006,4.72587152752599,-59.066032,-3.5841982,19.661034,92.133415,-46.75659,15.000033,-78.81027,-20.789698,-39.06107,86.1065,15.530479,-5.9219723,-2.2494457,-0.026043942,29.793802,-61.265884,31.079998,-46.759266,-16.782028,11.541708,-3.282039,3.2075417,-70.56255,-46.49665,28.333792,13.515052,0.061355747,-8.057185,-24.274572
96,-3.0757627487182617,-48.594722747802734,58.02414321899414,2.7106800537908553,16.788055297519534,4.218618511542554,-58.948853,-2.8659623,19.342588,91.962814,-46.69061,15.000033,-80.14511,-19.33791,-36.788437,85.70814,17.637592,-0.8201523,-1.8362318,0.08941719,29.793802,-61.056793,31.237951,-46.72696,-16.856628,11.410739,-3.284439,3.2294233,-70.57123,-46.497845,28.565098,13.444182,0.23548983,-8.13307,-24.27457
97,-3.172699451446533,-48.91987609863281,58.23329544067383,2.437538962163195,16.74154604415243,3.7895282256144025,-58.833027,-2.2419498,18.972162,91.765144,-46.612286,15.000033,-80.7378,-18.929869,-35.569477,85.81236,17.334288,1.2811772,-1.4927216,0.22280245,29.793802,-60.844067,31.388344,-46.707,-16.920805,11.369743,-3.2879133,3.247307,-70.580574,-46.514442,28.784035,13.380638,0.35376295,-8.181252,-24.259605
98,-3.2514758110046387,-49.25505828857422,58.45071792602539,2.1782226894112298,16.689637684054905,3.41949311910118,-58.71442,-1.6863111,18.56943,91.54974,-46.518406,15.000033,-80.82156,-19.310648,-35.03752,86.22931,15.417015,1.378431,-1.2025243,0.37031767,29.793802,-60.630302,31.53151,-46.700684,-16.977959,11.387988,-3.2906942,3.262981,-70.58411,-46.548004,28.99236,13.316837,0.4455288,-8.213473,-24.233727
99,-3.3302149772644043,-49.58156204223633,58.667724609375,1.9321889835744899,16.635216397573494,3.0967294096131104,-58.608368,-1.1774598,18.148369,91.33672,-46.39964,15.000033,-80.68164,-20.098137,-34.72799,86.78446,12.813909,0.5726446,-0.94997936,0.52675635,29.793802,-60.423977,31.667442,-46.71135,-17.030264,11.42872,-3.2866943,3.2770197,-70.57735,-46.59726,29.184528,13.254041,0.506171,-8.231314,-24.203794
100,-3.4069738388061523,-49.91340637207031,58.87411117553711,1.6995005031528327,16.57929431318447,2.813037670003114,-58.526268,-0.69556004,17.721344,91.1431,-46.248585,15.000033,-80.56331,-20.952105,-34.227562,87.318695,10.4387865,-0.10202858,-0.72359467,0.68582255,29.793802,-60.24464,31.798111,-46.74279,-17.075857,11.446028,-3.270142,3.2895422,-70.56923,-46.662083,29.36473,13.202306,0.5390617,-8.236965,-24.176199
101,-3.478839874267578,-50.246421813964844,59.0744743347168,1.4892077966543196,16.519912726983137,2.5757547581942406,-58.463177,-0.25297025,17.289618,90.96487,-46.055923,15.000033,-80.456795,-21.929726,-33.539845,87.83692,8.346565,-0.518044,-0.5342756,0.83640784,29.793802,-60.080997,31.925413,-46.797768,-17.119541,11.438633,-3.2292023,3.2981308,-70.56691,-46.74281,29.542295,13.165767,0.5358538,-8.224301,-24.152086
102,-3.5512309074401855,-50.58343505859375,59.26078414916992,1.298000094381716,16.458378430804622,2.384330831586395,-58.413906,0.14733893,16.846525,90.79852,-45.83031,15.000033,-80.29807,-23.1359,-32.811657,88.39403,6.1043916,-1.1271653,-0.37920362,0.9877943,29.793802,-59.930298,32.04918,-46.873497,-17.163424,11.424126,-3.1706643,3.3033886,-70.545845,-46.835117,29.69988,13.128493,0.48293692,-8.193662,-24.128366
103,-3.6175613403320312,-50.91728591918945,59.43794250488281,1.1122650761762247,16.398299157077204,2.2248900129741216,-58.384502,0.5312049,16.395203,90.65582,-45.588356,15.000033,-80.196526,-24.387753,-31.915161,88.92745,3.9122727,-1.8828942,-0.24866764,1.1447467,29.793802,-59.800003,32.17043,-46.964664,-17.19875,11.40825,-3.1150439,3.3111188,-70.54351,-46.942516,29.852976,13.112762,0.43709496,-8.160249,-24.104994
104,-3.6809206008911133,-51.26011276245117,59.60654067993164,0.8970281598899615,16.34331066605947,2.0732254416478213,-58.384045,0.95606273,15.906484,90.56228,-45.352436,14.876901,-80.227196,-25.493452,-30.762716,89.37246,1.9721864,-2.7702649,-0.1067171,1.3448929,29.793802,-59.695694,32.284496,-47.069595,-17.234522,11.392954,-3.0842576,3.327773,-70.52635,-47.06295,29.970089,13.106097,0.40526393,-8.136772,-24.083193
105,-3.741745710372925,-51.62176513671875,59.76818084716797,0.6000400093342645,16.291592944742703,1.9033356101902652,-58.419662,1.494794,15.317692,90.55685,-45.130474,14.424302,-80.40428,-26.373135,-29.337757,89.7304,0.3649429,-3.932728,0.08481074,1.63332,29.793802,-59.630806,32.385235,-47.20362,-17.260841,11.372658,-3.0927129,3.3633575,-70.494896,-47.20269,30.045198,13.120161,0.3960428,-8.127231,-24.061806
106,-3.80092453956604,-51.977561950683594,59.9149055480957,0.2886533573110752,16.243870785863823,1.755312383956838,-58.48424,2.0393097,14.713605,90.59192,-44.899235,13.984162,-80.73219,-27.15358,-27.628494,90.0544,-1.0339768,-5.3312826,0.27025765,1.9501314,29.793802,-59.591278,32.471115,-47.356926,-17.273836,11.359836,-3.125178,3.4114256,-70.46777,-47.36446,30.09861,13.149734,0.41060543,-8.124287,-24.039434
107,-3.8644981384277344,-52.325355529785156,60.045230865478516,-0.01806289257888241,16.199952870855284,1.6330328319731973,-58.564983,2.567056,14.100607,90.64082,-44.676918,13.539329,-81.12282,-27.867897,-25.752167,90.297264,-2.3269522,-6.730315,0.4470019,2.2825253,29.793802,-59.587276,32.542778,-47.519707,-17.280102,11.345017,-3.1615863,3.4546046,-70.43134,-47.54653,30.12421,13.181822,0.43253496,-8.125131,-24.019024
108,-3.9080758094787598,-52.70182418823242,60.165767669677734,-0.3004708545670458,16.159867609380647,1.5402710544099876,-58.649002,3.0527976,13.487351,90.6759,-44.479446,13.073668,-81.48654,-28.55979,-23.826729,90.40969,-3.6117826,-7.8889823,0.6063615,2.6100972,29.793802,-59.60203,32.600002,-47.682346,-17.294603,11.342941,-3.18099,3.4769895,-70.37986,-47.745,30.119484,13.206959,0.45519468,-8.127656,-24.002918
109,-3.9545767307281494,-53.05973434448242,60.27238464355469,-0.5596052524310344,16.121744027030722,1.4859433211430622,-58.73203,3.4899628,12.868727,90.69331,-44.31594,12.5868635,-81.79249,-29.290398,-21.891382,90.40181,-4.90952,-8.754851,0.7385741,2.9358206,29.793802,-59.632473,32.643105,-47.845936,-17.317936,11.364363,-3.172651,3.4600644,-70.32741,-47.959866,30.094868,13.236842,0.48503688,-8.132834,-23.992247
110,-3.99699068069458,-53.43012237548828,60.372859954833984,-0.8047733490836239,16.086572196561242,1.4654483841112014,-58.819115,3.8922074,12.242049,90.707344,-44.176365,12.086244,-82.09003,-30.027988,-19.886534,90.28976,-6.164937,-9.457036,0.85317254,3.2715008,29.793802,-59.69756,32.673504,-48.014122,-17.340986,11.388443,-3.1498337,3.4165018,-70.26016,-48.189373,30.040014,13.26764,0.5120295,-8.140842,-23.986153
111,-4.033351898193359,-53.79814910888672,60.455875396728516,-1.0258710862709706,16.058352581303623,1.4620602924517359,-58.91118,4.2667794,11.622834,90.71526,-44.051342,11.566928,-82.406265,-30.685764,-17.781298,90.03744,-7.3580923,-10.025108,0.95451087,3.5900848,29.793802,-59.773605,32.692104,-48.180496,-17.365208,11.42095,-3.12619,3.3789349,-70.20133,-48.432735,29.970448,13.30035,0.5585514,-8.15132,-23.982374
112,-4.074009895324707,-54.17021942138672,60.52873229980469,-1.2149901397808007,16.04133471962757,1.4590867931437241,-59.010517,4.624729,11.023722,90.71665,-43.93126,11.024076,-82.75237,-31.174099,-15.554017,89.61043,-8.47015,-10.492577,1.0592266,3.8805995,29.793802,-59.864193,32.69999,-48.338306,-17.39504,11.439415,-3.1166146,3.3787155,-70.12158,-48.68075,29.866905,13.311302,0.60248405,-8.16173,-23.98015
113,-4.104796409606934,-54.55384826660156,60.59765625,-1.3713287611757454,16.034296522918986,1.4617432407843405,-59.11387,4.9597282,10.437564,90.704834,-43.81606,10.440971,-83.108116,-31.484404,-13.193582,89.011,-9.503219,-10.888411,1.1567905,4.135054,29.793802,-59.969727,32.70068,-48.49063,-17.423431,11.45805,-3.127749,3.436434,-70.04608,-48.93165,29.741896,13.321191,0.6674677,-8.180768,-23.974218
114,-4.13238000869751,-54.932029724121094,60.651214599609375,-1.4993175024792573,16.036117737016447,1.4759825588801516,-59.220646,5.269794,9.860779,90.682335,-43.71104,9.825453,-83.447365,-31.665342,-10.72994,88.25901,-10.465069,-11.198546,1.2442778,4.3645587,29.793802,-60.086174,32.69507,-48.63806,-17.457214,11.480433,-3.1509655,3.5315034,-69.961266,-49.18104,29.5882,13.325153,0.7366617,-8.206143,-23.967218
115,-4.156404495239258,-55.32138442993164,60.69486618041992,-1.5961597910676595,16.049256076013695,1.4862382587952243,-59.334743,5.5683765,9.31454,90.65958,-43.608913,9.210569,-83.76083,-31.716026,-8.204013,87.3522,-11.346941,-11.394697,1.3319719,4.5619297,29.793802,-60.218906,32.685955,-48.77122,-17.490013,11.4665575,-3.1768405,3.6326256,-69.87689,-49.426247,29.419573,13.317445,0.80390984,-8.222643,-23.968441
116,-4.179186820983887,-55.709434509277344,60.72858428955078,-1.658758841442105,16.07679233960023,1.4773581472465174,-59.45989,5.8681984,8.820134,90.64457,-43.503223,8.629135,-84.03754,-31.639908,-5.6575894,86.28567,-12.139567,-11.449962,1.4285405,4.720614,29.793802,-60.350327,32.674126,-48.879414,-17.527737,11.395376,-3.1959798,3.709566,-69.79239,-49.66101,29.244335,13.284217,0.85407054,-8.214723,-23.987785
117,-4.201150894165039,-56.10340881347656,60.75431823730469,-1.6825666260671828,16.12016843746786,1.445156996649735,-59.601784,6.1754503,8.395792,90.64608,-43.384945,8.112074,-84.265045,-31.409805,-3.0568695,85.04473,-12.834536,-11.344072,1.5375161,4.8350186,29.793802,-60.496635,32.663208,-48.958336,-17.565866,11.201049,-3.2094429,3.7514355,-69.7061,-49.879032,29.061453,13.223556,0.87757814,-8.166701,-24.042076
118,-4.220891952514648,-56.49954605102539,60.769432067871094,-1.669114192206905,16.177488747942665,1.3991575224202226,-59.755436,6.4807477,8.027009,90.65546,-43.258236,7.6350155,-84.42046,-31.05374,-0.40716538,83.64062,-13.442679,-11.107452,1.6456777,4.9036603,29.793802,-60.638416,32.65475,-49.011814,-17.612963,10.930884,-3.220728,3.7759829,-69.63007,-50.07668,28.87669,13.148843,0.88810414,-8.091414,-24.121605
119,-4.24070930480957,-56.90216827392578,60.774452209472656,-1.6261511648584304,16.244970032626654,1.3440877320898073,-59.911255,6.7745767,7.6836457,90.6622,-43.139717,7.147274,-84.48656,-30.652586,2.1951501,82.107086,-13.98495,-10.785603,1.7482841,4.9381857,29.793802,-60.78063,32.651157,-49.042194,-17.656738,10.666896,-3.2254562,3.7921302,-69.5701,-50.25354,28.696745,13.069795,0.88984436,-8.015048,-24.19766
120,-4.255520820617676,-57.30747985839844,60.77275848388672,-1.560119956528971,16.319709942867913,1.2845898468301793,-60.059284,7.0473685,7.337373,90.65458,-43.043114,6.598945,-84.4634,-30.28279,4.661006,80.47664,-14.477651,-10.420666,1.8360196,4.9452796,29.793802,-60.894855,32.65118,-49.051254,-17.69953,10.522186,-3.2185035,3.8105338,-69.537346,-50.41075,28.531818,12.995104,0.89501023,-7.9641204,-24.240898
121,-4.270229339599609,-57.71405792236328,60.75690460205078,-1.4611758762735623,16.404935943268814,1.2251300994210104,-60.193504,7.281533,6.9835515,90.61233,-42.971615,5.9524684,-84.358025,-29.923452,7.0540066,78.72608,-14.902779,-9.97509,1.9056984,4.919068,29.793802,-60.990273,32.654823,-49.03617,-17.738682,10.55441,-3.1927974,3.8312314,-69.521706,-50.546764,28.373203,12.914479,0.89391565,-7.9482303,-24.238186
122,-4.277230262756348,-58.13019943237305,60.73272705078125,-1.3284351768728506,16.50069083523923,1.1628048994306581,-60.319206,7.487408,6.63797,90.54839,-42.92109,5.2425365,-84.16908,-29.561775,9.397883,76.85143,-15.260196,-9.44732,1.9583492,4.854515,29.793802,-61.06317,32.662132,-48.99672,-17.779097,10.705927,-3.1525571,3.8499742,-69.52863,-50.661125,28.224129,12.83115,0.89159364,-7.9527335,-24.206882
123,-4.281048774719238,-58.53947448730469,60.68818664550781,-1.1838327594443605,16.599141160946292,1.0891640333354784,-60.446712,7.699176,6.3008003,90.50811,-42.892628,4.526539,-83.90105,-29.28566,11.547422,74.90259,-15.599265,-8.927996,2.004406,4.7723556,29.793802,-61.121475,32.672096,-48.938366,-17.80854,10.866778,-3.1111572,3.8677387,-69.56768,-50.744694,28.098051,12.766489,0.88357043,-7.966752,-24.165398
124,-4.274750709533691,-58.958595275878906,60.63503646850586,-1.0526819086653196,16.694529710112317,0.9980899166246753,-60.58764,7.9472327,5.971559,90.52431,-42.881084,3.8661473,-83.56021,-29.172958,13.348738,72.908035,-15.951524,-8.500859,2.064866,4.705052,29.793802,-61.156902,32.683277,-48.87176,-17.84234,10.939718,-3.0820847,3.8882275,-69.60865,-50.817806,27.978264,12.706369,0.8644089,-7.9774785,-24.128336
125,-4.266761779785156,-59.385162353515625,60.57181930541992,-0.9324606622187939,16.787519055805223,0.8852320048236629,-60.74408,8.23643,5.6613736,90.60351,-42.884163,3.284326,-83.16611,-29.260368,14.776608,70.8417,-16.353317,-8.22782,2.136014,4.6476803,29.793802,-61.17038,32.688236,-48.793686,-17.86118,10.881476,-3.0689385,3.914219,-69.682945,-50.85795,27.888205,12.676498,0.8126236,-7.984628,-24.099915
126,-4.251994609832764,-59.81151580810547,60.49028778076172,-0.8145458355243699,16.881768945627048,0.7548250953029754,-60.91192,8.551441,5.365867,90.72655,-42.90262,2.7468193,-82.72365,-29.48927,15.906639,68.68859,-16.768162,-8.037984,2.2168896,4.5927653,29.793802,-61.158638,32.688515,-48.705585,-17.877726,10.756266,-3.0644999,3.9455512,-69.77295,-50.881157,27.811815,12.656557,0.73987633,-7.9931273,-24.070375
127,-4.236910343170166,-60.24320602416992,60.3983039855957,-0.7103043769090096,16.971534553306707,0.6126901883651711,-61.086853,8.892397,5.063422,90.888176,-42.935184,2.2271707,-82.22099,-29.800533,16.740728,66.50406,-17.127195,-7.8224497,2.3074996,4.5514574,29.793802,-61.1348,32.685055,-48.610485,-17.891558,10.611902,-3.0663056,3.9736464,-69.85863,-50.89503,27.737871,12.639242,0.6804283,-8.001498,-24.042856
128,-4.219876289367676,-60.6844482421875,60.2917366027832,-0.6289718182247864,17.051033763055433,0.4651082724405522,-61.26507,9.259028,4.7326794,91.08392,-42.98071,1.6975998,-81.64464,-30.136303,17.28535,64.34698,-17.361912,-7.476819,2.3995552,4.5255275,29.793802,-61.08102,32.674774,-48.513245,-17.911215,10.526392,-3.0709074,3.9917216,-69.93159,-50.900326,27.662851,12.623816,0.6759103,-8.009125,-24.020117
129,-4.192357540130615,-61.13302230834961,60.18258285522461,-0.5796125882595456,17.11867455300517,0.31182985887631826,-61.45394,9.659125,4.371451,91.32357,-43.034855,1.1665599,-80.98289,-30.537823,17.471848,62.181465,-17.459684,-7.014375,2.5007236,4.530314,29.793802,-61.019768,32.664833,-48.434803,-17.932503,10.507224,-3.0775695,4.02121,-70.00463,-50.89533,27.60363,12.629584,0.7600514,-8.021125,-24.014587
130,-4.165107250213623,-61.58726119995117,60.060546875,-0.5534035405048852,17.177514810752793,0.15019832654320892,-61.653915,10.089613,3.9904792,91.60605,-43.098457,0.64343864,-80.24347,-31.01032,17.318985,59.991913,-17.452362,-6.477441,2.6011505,4.552345,29.793802,-60.9186,32.633213,-48.321053,-17.949179,10.543312,-3.0953553,4.0162244,-70.040375,-50.868332,27.513897,12.619219,0.88479567,-8.0349865,-24.00151
131,-4.1265411376953125,-62.04850769042969,59.92228317260742,-0.5370033265591894,17.223382703988296,-0.01716821532549595,-61.844906,10.534591,3.5861304,91.90912,-43.18034,0.10267483,-79.4348,-31.4494,16.964964,57.87269,-17.345682,-5.8203025,2.7029128,4.5678024,29.793802,-60.829403,32.56379,-48.235294,-17.917212,10.5943165,-3.109628,4.0119233,-70.081894,-50.797054,27.433697,12.640103,0.9967017,-8.043509,-23.995672
132,-4.087503910064697,-62.517757415771484,59.777252197265625,-0.5164274887894527,17.25894651450486,-0.1874551571246678,-62.014816,10.978531,3.1554623,92.21118,-43.28661,-0.4807768,-78.57935,-31.757734,16.555992,55.919918,-17.150543,-5.0052037,2.801516,4.5662775,29.793802,-60.74263,32.489693,-48.162834,-17.87625,10.611669,-3.1154914,3.9988306,-70.12622,-50.709846,27.370695,12.667698,1.0531462,-8.035511,-23.99401
133,-4.041265487670898,-62.99397277832031,59.620933532714844,-0.4947857512179197,17.280642661927804,-0.35593963360362274,-62.16186,11.419311,2.688713,92.51371,-43.42592,-1.1175474,-77.617134,-31.9269,16.01372,54.136345,-17.004349,-4.1615376,2.896304,4.548707,29.793802,-60.640137,32.411766,-48.10576,-17.842865,10.583362,-3.109433,3.9647236,-70.14169,-50.605103,27.298954,12.68832,1.0182581,-8.000171,-24.000473
134,-3.991732358932495,-63.48563003540039,59.453041076660156,-0.47623015629953225,17.289640788061217,-0.5253837475102028,-62.294285,11.865473,2.191544,92.82569,-43.5896,-1.7926625,-76.57173,-31.999493,15.311319,52.481606,-16.870071,-3.2783837,2.9893343,4.5203013,29.793802,-60.528942,32.331097,-48.060978,-17.808666,10.525262,-3.0956926,3.9143693,-70.13734,-50.48295,27.223192,12.706046,0.92854345,-7.945498,-24.012915
135,-3.940347194671631,-64.00143432617188,59.270050048828125,-0.44975574493999976,17.293485553115985,-0.7041394205517726,-62.412846,12.316953,1.6840749,93.136055,-43.765263,-2.4928718,-75.586624,-31.960447,14.680335,50.983387,-16.50163,-2.0979304,3.0797176,4.4703584,29.793802,-60.42117,32.251053,-48.018505,-17.76112,10.464903,-3.0798376,3.8651185,-70.12731,-50.34371,27.15321,12.716902,0.82168853,-7.8888116,-24.016888
136,-3.872525691986084,-64.53413391113281,59.081260681152344,-0.40576669997322445,17.300431181746188,-0.901047799715702,-62.518837,12.774819,1.184749,93.43425,-43.936947,-3.205338,-74.7936,-31.797626,14.356452,49.665646,-15.656908,-0.34406528,3.166018,4.388762,29.793802,-60.309025,32.17383,-47.96866,-17.69619,10.44782,-3.0672848,3.8357108,-70.12056,-50.184475,27.096565,12.710556,0.7290758,-7.847318,-23.998013
137,-3.8148880004882812,-65.06217956542969,58.88547134399414,-0.33649441170026895,17.32008576090922,-1.134123437572883,-62.61168,13.246004,0.7043068,93.715225,-44.10889,-3.942594,-74.15467,-31.379534,14.567758,48.429077,-14.054391,2.4531238,3.252781,4.253027,29.793802,-60.207882,32.108433,-47.905933,-17.602016,10.480823,-3.0529945,3.830623,-70.15933,-50.007885,27.074625,12.697193,0.688377,-7.829361,-23.939653
138,-3.761044979095459,-65.59680938720703,58.68666076660156,-0.2535093647342976,17.347848854573687,-1.3964606276439275,-62.69525,13.731691,0.22866936,93.98513,-44.284657,-4.705706,-73.602554,-30.714815,15.183817,47.307777,-11.957626,6.0557795,3.344776,4.0849853,29.793802,-60.101166,32.056087,-47.832523,-17.502916,10.547371,-3.0366256,3.8410096,-70.19026,-49.805786,27.052692,12.657424,0.64572287,-7.823368,-23.855028
139,-3.7027294635772705,-66.14752960205078,58.48792266845703,-0.17062632782291232,17.3678679656011,-1.6595935394420664,-62.770412,14.222309,-0.25594985,94.24781,-44.45051,-5.465255,-73.23997,-30.010698,15.877795,46.545513,-9.892591,9.667153,3.419236,3.9023442,29.793802,-59.997326,32.018883,-47.75484,-17.387362,10.615124,-3.028482,3.8609593,-70.25947,-49.587917,27.076374,12.640886,0.62306273,-7.822681,-23.771435
140,-3.642498016357422,-66.70455932617188,58.29017639160156,-0.10001565602985296,17.365277720257144,-1.8923889944450667,-62.839996,14.705902,-0.7642232,94.50794,-44.594826,-6.1924696,-73.19771,-29.513361,16.261032,46.37243,-8.291576,12.4537945,3.4637458,3.7438848,29.793802,-59.878925,31.988731,-47.67495,-17.276007,10.6672535,-3.0404336,3.885907,-70.32158,-49.355865,27.132479,12.644447,0.5806284,-7.817153,-23.71885
141,-3.593597650527954,-67.25442504882812,58.08863067626953,-0.036433095138666265,17.335650718860297,-2.1006747585274956,-62.898483,15.190763,-1.2813216,94.77343,-44.719078,-6.869396,-73.61158,-29.422855,16.0668,46.916046,-7.1044736,14.191788,3.4829524,3.6034024,29.793802,-59.760204,31.961401,-47.594967,-17.143927,10.689441,-3.0865715,3.917183,-70.39516,-49.11567,27.243883,12.680778,0.5356871,-7.799349,-23.709572
142,-3.5578832626342773,-67.81993865966797,57.88643264770508,-0.08122036038406755,17.31051751468699,-2.365029823633875,-63.006504,15.783991,-1.9049424,95.06385,-44.8365,-7.548876,-74.353745,-29.531794,15.322044,47.99729,-6.0732403,15.000033,3.5638127,3.5446432,29.793802,-59.68354,31.93937,-47.526283,-16.989658,10.69283,-3.1548824,3.9558094,-70.5747,-48.900284,27.433744,12.7901745,0.54582864,-7.777298,-23.725368
143,-3.519176959991455,-68.4032974243164,57.6883659362793,-0.1424867829492625,17.27236766489833,-2.59415431018456,-63.123272,16.362967,-2.577271,95.3407,-44.925526,-8.226823,-75.27105,-29.689325,14.464988,49.451633,-5.3232594,15.000033,3.634364,3.5379066,29.793802,-59.5809,31.90375,-47.459908,-16.874706,10.705242,-3.224945,3.9988225,-70.64073,-48.685936,27.571117,12.843825,0.4730023,-7.7574425,-23.751717
144,-3.4701905250549316,-68.9972152709961,57.491580963134766,-0.1436413329490245,17.197364632436194,-2.7055679986547805,-63.201588,16.817415,-3.2493722,95.580505,-44.980198,-8.9009495,-76.16852,-29.647896,14.082087,51.087723,-4.9847717,15.000033,3.588416,3.499724,29.793802,-59.49098,31.861366,-47.395836,-16.744421,10.690623,-3.271785,4.035772,-70.73414,-48.48449,27.752802,12.938835,0.42771474,-7.7597904,-23.769442
145,-3.4123480319976807,-69.57719421386719,57.29307556152344,-0.05624927862918341,17.065482493781094,-2.650688475875862,-63.22197,17.089472,-3.91179,95.78978,-44.994637,-9.564901,-77.05069,-29.235004,14.423735,53.011898,-5.2691984,15.000033,3.3824112,3.433042,29.793802,-59.365547,31.806868,-47.334026,-16.628742,10.667325,-3.2880797,4.0688553,-70.79519,-48.28505,27.962925,13.04942,0.354862,-7.794606,-23.77981
146,-3.344710111618042,-70.162109375,57.092262268066406,0.11485672409248943,16.88053686205563,-2.4545431769084556,-63.183884,17.20672,-4.552521,95.97406,-44.975742,-10.209428,-77.9863,-28.592154,15.206968,55.26152,-6.0287247,14.766484,3.0355463,3.3310113,29.793802,-59.220516,31.739618,-47.27176,-16.507795,10.624824,-3.2877064,4.099678,-70.822205,-48.078598,28.201694,13.173633,0.25658518,-7.851971,-23.790565
147,-3.2768189907073975,-70.76864624023438,56.89377212524414,0.12733641902136328,16.726402666474915,-2.3223307781315765,-63.228436,17.455513,-5.3750987,96.14969,-44.941364,-10.919124,-78.81367,-27.810179,15.640968,57.45655,-6.8198566,13.846764,2.761473,3.3310452,29.793802,-59.101944,31.665653,-47.2219,-16.394857,10.612862,-3.2734041,4.1260166,-71.01891,-47.91743,28.509764,13.401167,0.26861122,-7.915977,-23.797075
148,-3.211944818496704,-71.36839294433594,56.69731521606445,0.09997240333850371,16.598440990471264,-2.20551955547282,-63.288624,17.747343,-6.239883,96.27388,-44.900864,-11.649832,-79.47626,-27.147228,15.848367,59.34342,-7.303153,13.359089,2.551518,3.3960388,29.793802,-58.999355,31.568457,-47.157433,-16.33405,10.600599,-3.2620976,4.146049,-71.00657,-47.762554,28.651741,13.492867,0.18169966,-7.9548664,-23.79941
149,-3.1391944885253906,-71.98539733886719,56.51271438598633,0.051527840965460855,16.496125799071084,-2.098322898685203,-63.349236,18.072174,-7.126736,96.33803,-44.86645,-12.410789,-79.94623,-26.686125,15.841042,60.83051,-7.3704305,13.502884,2.3490736,3.4489427,29.793802,-58.88156,31.450186,-47.072304,-16.278772,10.639583,-3.246388,4.149273,-71.01324,-47.627605,28.768215,13.570745,0.17808157,-7.971634,-23.786985
150,-3.050811767578125,-72.62422943115234,56.33584976196289,-0.017574955082262346,16.40793367079419,-1.9823589661519265,-63.410202,18.409906,-8.047327,96.35422,-44.828983,-13.1972885,-80.284836,-26.321241,15.727342,62.094147,-7.2407436,13.990017,2.1490233,3.517107,29.793802,-58.756294,31.309118,-46.97144,-16.24074,10.707687,-3.2246854,4.139502,-70.99677,-47.511387,28.84969,13.623407,0.20451252,-7.97492,-23.766006
151,-2.9511420726776123,-73.26917266845703,56.16928482055664,-0.0796988259905842,16.328173710162332,-1.8513041203452842,-63.456676,18.742064,-8.9647455,96.313354,-44.770824,-13.973044,-80.576065,-26.036203,15.542214,63.272472,-7.0743155,14.570254,1.9451714,3.5721908,29.793802,-58.63043,31.147276,-46.8716,-16.2097,10.795839,-3.205766,4.137667,-70.944664,-47.40875,28.896725,13.656409,0.24608436,-7.970808,-23.744658
152,-2.8499510288238525,-73.93524169921875,56.01580047607422,-0.13341821747676844,16.2568326648103,-1.715979049084037,-63.489513,19.07529,-9.867946,96.211395,-44.67625,-14.710754,-80.89143,-25.800905,15.272811,64.48836,-7.0202966,14.981218,1.7534521,3.6075692,29.793802,-58.52949,30.97155,-46.791233,-16.178911,10.882203,-3.1982262,4.1642413,-70.85241,-47.31535,28.907925,13.681335,0.2845418,-7.9651093,-23.73153
153,-2.739654302597046,-74.61280822753906,55.88299560546875,-0.05289735103606786,16.20797050790953,-1.51172725040563,-63.47249,19.28494,-10.565049,96.00445,-44.51773,-15.000033,-81.33934,-25.74306,14.991883,65.766014,-7.085783,15.000033,1.4703065,3.4931896,29.793802,-58.41052,30.794306,-46.706543,-16.148779,11.011804,-3.206726,4.234188,-70.71755,-47.20968,28.883652,13.670656,0.32898757,-7.9583054,-23.726152
154,-2.632063865661621,-75.29153442382812,55.76268005371094,0.12159241495391962,16.16701289189097,-1.2527794659238805,-63.404594,19.407396,-11.12458,95.716484,-44.320187,-15.000033,-81.8377,-25.815245,14.746173,67.05225,-7.206118,15.000033,1.1131065,3.268817,29.793802,-58.28912,30.628544,-46.611614,-16.118448,11.152638,-3.226024,4.332094,-70.55491,-47.078335,28.83665,13.644733,0.38014337,-7.948804,-23.725943
155,-2.526597261428833,-75.97106170654297,55.66396713256836,0.3344958235444475,16.125110645223753,-0.9678380092111576,-63.307873,19.499943,-11.646468,95.38016,-44.08604,-15.000033,-82.33716,-25.91821,14.534835,68.34099,-7.3959975,15.000033,0.7171045,2.9943764,29.793802,-58.15606,30.476452,-46.512802,-16.104841,11.293932,-3.2449968,4.4362073,-70.39536,-46.921,28.795204,13.6318035,0.4294314,-7.937253,-23.734844
156,-2.4240593910217285,-76.62849426269531,55.57652282714844,0.5906368375798293,16.08372952940589,-0.6530059428039114,-63.19603,19.55022,-12.12244,95.01325,-43.804733,-15.000033,-82.83075,-25.992647,14.4205265,69.61959,-7.660838,15.000033,0.28009492,2.684997,29.793802,-58.04504,30.342823,-46.40347,-16.098108,11.393773,-3.253191,4.5208426,-70.27939,-46.743584,28.79669,13.65212,0.4724583,-7.9233785,-23.756273
157,-2.3153634071350098,-77.30087280273438,55.500022888183594,0.9296801202134567,16.033315910889055,-0.27766715285361965,-63.061775,19.514679,-12.522791,94.62398,-43.45961,-15.000033,-83.34413,-26.026932,14.489652,70.92436,-8.025979,15.000033,-0.23413698,2.3118134,29.793802,-57.951275,30.231283,-46.27822,-16.110071,11.432705,-3.241834,4.581693,-70.20831,-46.54597,28.853176,13.706693,0.5235262,-7.9002557,-23.798836
158,-2.2076010704040527,-77.96746826171875,55.44428253173828,1.3334949958309834,15.974101895684102,0.14534456597434525,-62.900753,19.412287,-12.861758,94.20063,-43.060802,-15.000033,-83.87225,-26.058466,14.659525,72.24807,-8.480158,14.911408,-0.8133502,1.879337,29.793802,-57.8646,30.14452,-46.13857,-16.142862,11.430336,-3.2186563,4.63108,-70.16938,-46.325737,28.948269,13.787837,0.58061206,-7.870412,-23.858377
159,-2.1046230792999268,-78.63861083984375,55.41097640991211,1.6622550441754576,15.946276645341143,0.5130725506164058,-62.775875,19.390097,-13.252191,93.73382,-42.627666,-15.000033,-84.35903,-26.10333,14.595603,73.486694,-8.958387,14.432399,-1.3307067,1.5040458,29.793802,-57.811577,30.082388,-45.997868,-16.195904,11.417517,-3.1970575,4.6698456,-70.178825,-46.098648,29.055412,13.901187,0.6108326,-7.8462954,-23.920597
160,-1.9994380474090576,-79.30882263183594,55.39910888671875,1.8842392275447086,15.955357836172622,0.8007367491297116,-62.679203,19.480045,-13.705411,93.21161,-42.186684,-15.000033,-84.73832,-26.115103,14.326903,74.57992,-9.423998,13.962832,-1.7531959,1.2185785,29.793802,-57.776443,30.039385,-45.85884,-16.260862,11.43206,-3.1921928,4.699482,-70.22516,-45.879543,29.165907,14.033986,0.59514785,-7.840867,-23.970182
161,-1.8876336812973022,-79.97802734375,55.41257858276367,1.9784684135304678,16.00309783738687,0.9980656991670174,-62.6167,19.696936,-14.237968,92.632355,-41.747746,-15.000033,-84.987434,-26.09422,13.825137,75.51257,-9.87442,13.536073,-2.06475,1.0503393,29.793802,-57.759136,30.007484,-45.72376,-16.331192,11.494076,-3.2213533,4.724868,-70.30709,-45.682526,29.285658,14.189856,0.49941823,-7.862063,-24.000257
162,-1.7808749675750732,-80.64726257324219,55.4509391784668,1.9845913109267683,16.08234647574184,1.1339485516243113,-62.58169,20.000809,-14.8247595,92.00117,-41.296837,-15.000033,-85.14012,-26.049238,13.15479,76.32642,-10.334549,13.102142,-2.291601,0.97125137,29.793802,-57.773617,29.981127,-45.5942,-16.406628,11.571594,-3.2731822,4.743908,-70.41037,-45.51584,29.411264,14.360079,0.34893277,-7.900652,-24.019361
163,-1.6649771928787231,-81.32792663574219,55.51103973388672,1.9539171370664083,16.18838471343112,1.2356805891737623,-62.554016,20.350767,-15.423254,91.31306,-40.820786,-15.000033,-85.23326,-25.996191,12.390956,77.04655,-10.8050995,12.643346,-2.4652224,0.9294761,29.793802,-57.79735,29.955517,-45.471066,-16.494734,11.651829,-3.319372,4.7482247,-70.515465,-45.37604,29.527323,14.518781,0.21279901,-7.94465,-24.035028
164,-1.5503005981445312,-82.01597595214844,55.5960578918457,1.9373722557389226,16.314625100623267,1.3306278355589563,-62.50915,20.70501,-15.988237,90.5634,-40.313843,-15.000033,-85.30342,-25.945276,11.607916,77.70071,-11.284166,12.142508,-2.6167555,0.8732939,29.793802,-57.837616,29.932312,-45.353916,-16.588924,11.694372,-3.3319678,4.727836,-70.608154,-45.253246,29.620747,14.647845,0.15655048,-7.9822555,-24.05536
165,-1.4322664737701416,-82.71578216552734,55.699180603027344,1.94281421292584,16.460260264317952,1.4162829574128089,-62.434536,21.064476,-16.50792,89.74682,-39.783737,-15.000033,-85.35733,-25.897152,10.81142,78.2924,-11.780354,11.5919,-2.7505233,0.78575927,29.793802,-57.875248,29.912678,-45.23542,-16.701128,11.686291,-3.2910457,4.664808,-70.68598,-45.13557,29.68873,14.746248,0.2108723,-8.010701,-24.08755
166,-1.3159728050231934,-83.405029296875,55.82240676879883,1.9453987146088945,16.627705303826573,1.4814337223749257,-62.343033,21.447212,-17.001913,88.864914,-39.233524,-15.000033,-85.376175,-25.844368,9.967002,78.808105,-12.291017,11.003553,-2.8562994,0.6905654,29.793802,-57.914925,29.898,-45.116615,-16.82605,11.648796,-3.2152793,4.569175,-70.763504,-45.019005,29.741343,14.830677,0.33300802,-8.036765,-24.125908
167,-1.2002700567245483,-84.0911636352539,55.96673583984375,1.9484731661126193,16.81622645381074,1.541101507217515,-62.250164,21.837814,-17.471975,87.9304,-38.640648,-15.000033,-85.36198,-25.788488,9.090218,79.24871,-12.797737,10.389613,-2.9461012,0.5940047,29.793802,-57.976276,29.891928,-45.00851,-16.942257,11.610347,-3.1344721,4.473839,-70.84941,-44.904755,29.783749,14.9044075,0.48096034,-8.063047,-24.158506
168,-1.0836100578308105,-84.77238464355469,56.13201141357422,1.9554649115825258,17.02516629344112,1.610430698907953,-62.16773,22.22066,-17.919605,86.94877,-37.989887,-15.000033,-85.31742,-25.732113,8.1966095,79.61688,-13.283035,9.761926,-3.0322895,0.5019751,29.793802,-58.06795,29.897928,-44.923004,-17.039352,11.607297,-3.0783567,4.412332,-70.94726,-44.79714,29.817482,14.967208,0.6137095,-8.091772,-24.173082
169,-0.9678956270217896,-85.46334075927734,56.31438064575195,1.9848871690476433,17.25525075958927,1.692483226917133,-62.08498,22.586212,-18.322113,85.91481,-37.273804,-15.000033,-85.25531,-25.675896,7.312127,79.91589,-13.748331,9.11718,-3.118859,0.39902422,29.793802,-58.196014,29.920017,-44.8614,-17.110872,11.660802,-3.060804,4.4026947,-71.053375,-44.697304,29.838982,15.011538,0.7447406,-8.130715,-24.158518
170,-0.8580870628356934,-86.15587615966797,56.51531982421875,2.0297074581866603,17.506651143983653,1.7801210253935063,-61.997837,22.944372,-18.683163,84.82674,-36.50637,-15.000033,-85.17035,-25.615711,6.4211726,80.14292,-14.200619,8.452152,-3.1998496,0.2865456,29.793802,-58.35033,29.959879,-44.817566,-17.171143,11.748485,-3.0638356,4.424499,-71.166985,-44.604534,29.848639,15.037467,0.8886506,-8.17605,-24.123528
171,-0.7463058233261108,-86.8585433959961,56.739322662353516,2.05442861844834,17.778669150331428,1.8727569934151644,-61.934296,23.310602,-19.047338,83.70124,-35.68909,-15.000033,-85.04021,-25.55494,5.476832,80.29174,-14.630676,7.7760625,-3.2693913,0.19874619,29.793802,-58.526043,30.01618,-44.79302,-17.22631,11.833685,-3.0696783,4.4530296,-71.29149,-44.5232,29.850115,15.054016,1.0064111,-8.212798,-24.086214
172,-0.6400805115699768,-87.55430603027344,56.97769546508789,2.022907267164829,18.070797631105474,1.969368061417169,-61.922382,23.699314,-19.460627,82.55428,-34.83159,-15.000033,-84.84178,-25.497915,4.4330297,80.35508,-15.02914,7.1004496,-3.3182516,0.17287964,29.793802,-58.719406,30.081333,-44.791138,-17.285362,11.881067,-3.0608273,4.4635887,-71.43044,-44.46436,29.848942,15.067586,1.0604085,-8.2260065,-24.063904
173,-0.5386824011802673,-88.25126647949219,57.230655670166016,1.9061628143743103,18.390818176414914,2.061456894184799,-61.97769,24.123377,-19.959734,81.37493,-33.94061,-15.000033,-84.55334,-25.436245,3.2447395,80.311806,-15.381829,6.4293513,-3.3207912,0.25039506,29.793802,-58.949276,30.118237,-44.821903,-17.329073,11.871154,-3.035541,4.4437394,-71.5863,-44.45017,29.845453,15.075239,1.0155715,-8.19648,-24.064667
174,-0.4268823564052582,-88.95556640625,57.501976013183594,1.7320478728097528,18.737239920354504,2.152196182067972,-62.08413,24.57053,-20.510355,80.15974,-33.011627,-15.000033,-84.19466,-25.368277,1.9505994,80.1716,-15.697015,5.7571735,-3.299072,0.3847743,29.793802,-59.200176,30.181952,-44.88554,-17.384388,11.817098,-2.9979687,4.420059,-71.75349,-44.455738,29.829798,15.070152,0.9007792,-8.138166,-24.077087
175,-0.32157108187675476,-89.65592193603516,57.78019332885742,1.540709697542263,19.09349969806837,2.2569893373930587,-62.22516,25.02189,-21.062168,78.936714,-32.026085,-15.000033,-83.79343,-25.301153,0.6151886,79.97106,-15.999822,5.078325,-3.2698014,0.5470182,29.793802,-59.45805,30.257002,-44.961308,-17.447762,11.7634535,-2.9542863,4.38998,-71.91367,-44.49588,29.807617,15.048223,0.7789416,-8.081447,-24.09077
176,-0.21911191940307617,-90.34483337402344,58.07417678833008,1.5212445668908077,19.45765533611388,2.4636832809074356,-62.343933,25.327265,-21.29718,77.720955,-30.958279,-14.285633,-83.48634,-25.316717,-0.5051217,79.76094,-16.300303,4.4252014,-3.357099,0.57158464,29.793802,-59.719044,30.341026,-45.010075,-17.491371,11.770106,-2.9042678,4.3561344,-72.08448,-44.552685,29.800295,15.001091,0.7173581,-8.056698,-24.097725
177,-0.11870283633470535,-91.0313491821289,58.376651763916016,1.6163211553218273,19.820809425237865,2.7504075494243025,-62.415337,25.501163,-21.420357,76.4701,-29.831785,-13.459673,-83.22466,-25.394814,-1.4965929,79.54637,-16.619099,3.770243,-3.5365443,0.49905965,29.793802,-59.96651,30.44043,-45.035454,-17.521952,11.857146,-2.839582,4.3123865,-72.269485,-44.612007,29.815731,14.952273,0.72612995,-8.081649,-24.0916
178,-0.021582305431365967,-91.71473693847656,58.68672561645508,1.7484208027111112,20.18367561885034,3.0791101531451397,-62.474663,25.619217,-21.504002,75.19467,-28.65882,-12.579483,-82.95136,-25.499357,-2.4629257,79.301285,-16.94533,3.105294,-3.755943,0.39833906,29.793802,-60.209057,30.551208,-45.056232,-17.541697,11.992181,-2.7629519,4.259721,-72.46926,-44.66945,29.845545,14.9148855,0.76635385,-8.137987,-24.079672
179,0.07483623176813126,-92.39059448242188,58.99388122558594,1.9062003946341477,20.541553356418163,3.430476483331339,-62.59903,25.794033,-21.426676,74.00374,-27.398685,-11.563399,-82.672226,-25.609556,-3.4003904,79.03229,-17.26995,2.439818,-3.993384,0.2798116,29.793802,-60.45506,30.673414,-45.080124,-17.558168,12.13802,-2.6931806,4.215917,-72.674835,-44.72478,29.878548,14.888114,0.8239999,-8.203964,-24.074627
180,0.16571073234081268,-93.05537414550781,59.30459976196289,2.077194465640755,20.8900905857691,3.7841841545862502,-62.865387,26.142155,-21.05895,73.00553,-26.02008,-10.325152,-82.39134,-25.700144,-4.3071017,78.74292,-17.5829,1.7829871,-4.227301,0.15342024,29.793802,-60.704025,30.805626,-45.114735,-17.580235,12.2652,-2.6488366,4.1994724,-72.87704,-44.777912,29.902874,14.869864,0.88516074,-8.2578745,-24.089508
181,0.25224295258522034,-93.72749328613281,59.61600112915039,2.2565723604843395,21.2367216586887,4.141722149106998,-63.312374,26.834358,-20.242981,72.156784,-24.42753,-8.934319,-82.10591,-25.766914,-5.193515,78.42058,-17.883812,1.1340764,-4.4502654,0.024390217,29.793802,-60.972282,30.94801,-45.16923,-17.601238,12.35545,-2.6430025,4.220714,-73.07924,-44.830967,29.911863,14.864907,0.956296,-8.295713,-24.129997
182,0.33644887804985046,-94.3922348022461,59.92141342163086,2.448783766593008,21.57998313746228,4.509660671629447,-63.88044,27.781273,-19.06322,71.43129,-22.700148,-7.3817434,-81.811264,-25.819136,-6.06138,78.066,-18.177502,0.4885051,-4.670391,-0.11088017,29.793802,-61.255245,31.099878,-45.239094,-17.619307,12.427414,-2.6629856,4.2685275,-73.27994,-44.88554,29.909803,14.870876,1.041433,-8.328496,-24.18803
183,0.4222201108932495,-95.05445861816406,60.21739196777344,2.6556988794742664,21.901220477563633,4.875915693734491,-64.51093,28.720865,-17.75679,70.96309,-21.06957,-5.4596853,-81.51146,-25.85617,-6.8925147,77.703606,-18.462482,-0.14854112,-4.889826,-0.25578672,29.793802,-61.52492,31.257475,-45.3115,-17.649296,12.505003,-2.6888452,4.32861,-73.46777,-44.939972,29.905798,14.876404,1.1223295,-8.357236,-24.255909
184,0.49728113412857056,-95.70616149902344,60.508888244628906,2.8806566376146048,22.182959742606837,5.23007954683429,-65.17022,29.393694,-16.57536,70.88405,-19.752674,-2.9705675,-81.21418,-25.879656,-7.6665034,77.363266,-18.739494,-0.7721481,-5.1126904,-0.41449904,29.793802,-61.76205,31.41646,-45.372715,-17.6995,12.607145,-2.7005627,4.3858304,-73.635216,-44.99082,29.91053,14.873142,1.179826,-8.3828335,-24.326147
185,0.5659915208816528,-96.34024047851562,60.78950881958008,3.1374941408531103,22.43051367775574,5.585627274149637,-65.9771,29.799488,-15.504438,71.2554,-18.729729,0.6720763,-80.9215,-25.901232,-8.379144,77.02854,-19.00073,-1.3843544,-5.3520746,-0.5976939,29.793802,-61.97141,31.575153,-45.426235,-17.768484,12.746149,-2.693839,4.4461365,-73.786194,-45.033962,29.913877,14.864843,1.205651,-8.40716,-24.403265
186,0.63499915599823,-96.97376251220703,61.059391021728516,3.4211341025090096,22.648567158891122,5.943172230959772,-66.92661,30.09248,-14.410341,72.002144,-17.938202,5.225599,-80.628265,-25.917217,-9.040546,76.691025,-19.24841,-1.986534,-5.603317,-0.80179393,29.793802,-62.167286,31.734102,-45.47657,-17.845678,12.905632,-2.6789594,4.5134597,-73.92632,-45.068344,29.916199,14.857887,1.2096729,-8.429261,-24.489237
187,0.7079625129699707,-97.59121704101562,61.30873489379883,3.7080231442704585,22.820838669709463,6.274779241146143,-67.799286,30.191435,-13.422127,73.02084,-17.4377,9.580513,-80.33145,-25.909441,-9.649109,76.38473,-19.497374,-2.5714602,-5.848109,-1.0121225,29.793802,-62.32111,31.890062,-45.511192,-17.939568,13.08144,-2.6577199,4.5704494,-74.05087,-45.09471,29.945915,14.847176,1.2014865,-8.445949,-24.57367
188,0.7818874716758728,-98.18109893798828,61.53441619873047,3.974211542960879,22.931568093155104,6.552759711955227,-68.37055,29.96409,-12.7232275,74.20085,-17.21379,12.570477,-80.03461,-25.862192,-10.198938,76.152084,-19.76041,-3.1311338,-6.0722623,-1.216883,29.793802,-62.410107,32.03968,-45.515945,-18.051552,13.267011,-2.6317494,4.598802,-74.187386,-45.120518,30.052195,14.84638,1.2148801,-8.454948,-24.64677
189,0.8500229716300964,-98.7437515258789,61.72099304199219,4.231812232998818,22.969491787535038,6.772368612277974,-68.50878,29.067183,-12.629465,75.47892,-17.194277,13.477676,-79.7504,-25.77615,-10.654449,76.013214,-20.041183,-3.6595356,-6.2582245,-1.4057938,29.793802,-62.417805,32.170044,-45.478863,-18.201971,13.491937,-2.5972264,4.585547,-74.20901,-45.127357,30.176716,14.778194,1.161637,-8.445919,-24.709496
190,0.9224199056625366,-99.2783203125,61.87395477294922,4.491704526748008,22.944508193629485,6.948757580069506,-68.35072,27.597702,-12.979872,76.92197,-17.36381,12.995558,-79.478584,-25.66366,-11.020748,75.947815,-20.333258,-4.161509,-6.439075,-1.614553,29.793802,-62.36929,32.28524,-45.41203,-18.353498,13.756471,-2.5533614,4.540926,-74.27108,-45.12929,30.395884,14.737643,1.1448349,-8.427785,-24.76556
191,0.9881324172019958,-99.78207397460938,61.99029541015625,4.715726492673381,22.88238906033471,7.084222099194979,-68.10215,26.090591,-13.281126,78.6161,-17.770784,12.076559,-79.20051,-25.52395,-11.371248,75.92766,-20.632736,-4.646677,-6.6020803,-1.7971164,29.793802,-62.28387,32.3833,-45.33005,-18.51049,13.990506,-2.513116,4.486228,-74.36299,-45.13627,30.671232,14.72217,1.1443342,-8.410158,-24.81249
192,1.048079252243042,-100.28077697753906,62.080116271972656,4.862142715662283,22.809741321188646,7.180530380424233,-67.986534,25.111818,-13.065325,80.64117,-18.40229,11.700237,-78.89493,-25.35361,-11.783969,75.92234,-20.934772,-5.124869,-6.73454,-1.9047815,29.793802,-62.17534,32.46942,-45.247635,-18.685478,14.123222,-2.48891,4.444357,-74.477036,-45.15933,30.965649,14.731536,1.1430467,-8.40265,-24.846672
193,1.1036219596862793,-100.7536392211914,62.14606857299805,4.908025714900794,22.726268785569424,7.228432275209213,-68.09217,24.945145,-12.156509,83.13627,-19.32634,12.187143,-78.552734,-25.144003,-12.280035,75.9346,-21.238636,-5.596568,-6.8081307,-1.8999584,29.793802,-62.047195,32.52713,-45.17416,-18.88692,14.103176,-2.4853096,4.4252195,-74.52459,-45.19548,31.217894,14.713452,1.0842193,-8.410568,-24.853783
194,1.1584696769714355,-101.2160415649414,62.193084716796875,4.879080967327549,22.620148577491182,7.229531519394292,-68.26062,25.274904,-10.842757,86.021965,-20.541412,13.0198345,-78.18487,-24.898167,-12.818018,75.97488,-21.546719,-6.058533,-6.8420715,-1.826206,29.793802,-61.892212,32.560894,-45.10413,-19.099049,13.983517,-2.4942815,4.4160824,-74.575745,-45.250896,31.486334,14.706189,1.0306878,-8.429557,-24.83807
195,1.2088416814804077,-101.66346740722656,62.22341537475586,4.796691800425124,22.507318504743917,7.202157822292881,-68.366875,25.771097,-9.380129,89.03724,-21.876932,13.918897,-77.80229,-24.626402,-13.392342,76.02303,-21.85583,-6.513616,-6.8423676,-1.6778786,29.793802,-61.711876,32.584396,-45.019623,-19.347166,13.823646,-2.5150313,4.4061127,-74.61931,-45.35538,31.778885,14.696003,0.96641695,-8.443808,-24.832394
196,1.2600159645080566,-102.10365295410156,62.24073791503906,4.68338427073216,22.39895527750946,7.16530883722061,-68.31377,26.076818,-7.996781,91.92216,-23.14216,14.593348,-77.41194,-24.341461,-13.996724,76.061226,-22.165432,-6.9650183,-6.8190703,-1.5148307,29.793802,-61.572456,32.586773,-44.97099,-19.56007,13.69686,-2.5392597,4.39397,-74.59317,-45.478996,32.000813,14.659475,0.8465475,-8.441843,-24.8408
197,1.2994896173477173,-102.5340576171875,62.2474250793457,4.524166358348792,22.29502527263782,7.107428909894144,-68.11747,26.199736,-6.69838,94.70447,-24.354649,15.000033,-77.0021,-24.029625,-14.651027,76.07953,-22.477198,-7.4206457,-6.775249,-1.3323058,29.793802,-61.4572,32.575596,-44.94408,-19.746536,13.62605,-2.5721698,4.375368,-74.56696,-45.629833,32.2101,14.637284,0.6831484,-8.416439,-24.87836
198,1.3521639108657837,-102.96380615234375,62.24782943725586,4.310299800203767,22.18958917177906,7.022572134203895,-67.80945,26.235073,-5.4475923,97.4929,-25.59387,15.000033,-76.57064,-23.685905,-15.357425,76.09059,-22.79539,-7.8804917,-6.7000413,-1.1076372,29.793802,-61.35915,32.55169,-44.93156,-19.925756,13.563549,-2.6149404,4.354129,-74.49554,-45.804703,32.385586,14.599976,0.4555,-8.374111,-24.933456
199,1.3897061347961426,-103.37596893310547,62.23977279663086,4.092692805026925,22.087581522095572,6.947166223380125,-67.38151,26.060183,-4.141262,100.14724,-26.733377,15.000033,-76.154076,-23.349035,-16.054876,76.107056,-23.108578,-8.321995,-6.627423,-0.88062835,29.793802,-61.283474,32.520058,-44.94172,-20.081858,13.508596,-2.655247,4.331778,-74.403946,-46.000626,32.52958,14.560829,0.24842872,-8.329451,-24.991789
200,1.4325565099716187,-103.7885513305664,62.22422790527344,3.9158489463074466,21.993675944534687,6.913794243070164,-66.83324,25.49318,-2.7749252,102.52361,-27.64811,15.000033,-75.782715,-23.055058,-16.695057,76.14429,-23.41103,-8.729378,-6.582743,-0.68013567,29.793802,-61.24792,32.486897,-44.980896,-20.201532,13.443552,-2.6816607,4.3096747,-74.264595,-46.20475,32.61062,14.504929,0.10243946,-8.29551,-25.039423
201,1.480839729309082,-104.21174621582031,62.20546340942383,3.792731745512095,21.903144176688606,6.930730742628666,-66.19197,24.383068,-1.4618315,104.61987,-28.278,14.671302,-75.46237,-22.814655,-17.263931,76.21767,-23.705597,-9.097688,-6.5852685,-0.52943516,29.793802,-61.25118,32.46188,-45.054447,-20.275236,13.362949,-2.686621,4.2873316,-74.092476,-46.40788,32.636696,14.448807,0.038158532,-8.276826,-25.07718
202,1.520218849182129,-104.6169662475586,62.17515563964844,3.6963635202889447,21.813517748859468,6.976790942543017,-65.5002,22.760643,-0.2896162,106.49267,-28.708178,13.65109,-75.17281,-22.604343,-17.795113,76.32039,-24.000042,-9.440883,-6.622069,-0.41306484,29.793802,-61.280632,32.450783,-45.153133,-20.321941,13.272385,-2.677468,4.2646065,-73.87896,-46.602036,32.607033,14.387509,0.011767784,-8.265969,-25.11152
203,1.5555115938186646,-105.01078033447266,62.13328170776367,3.620358074778297,21.731774026478334,7.041943199315094,-64.798965,20.813616,0.90401787,108.09128,-29.030024,12.347651,-74.92034,-22.41719,-18.294497,76.44423,-24.291117,-9.765853,-6.686377,-0.32629222,29.793802,-61.32366,32.456184,-45.264248,-20.348083,13.19073,-2.6637137,4.2433996,-73.65994,-46.786,32.542362,14.327934,0.04509977,-8.262007,-25.136328
204,1.5875624418258667,-105.40167236328125,62.08647537231445,3.5486717966921373,21.664437195505936,7.11419034516562,-64.11459,18.687944,2.173691,109.35418,-29.321915,10.853014,-74.69536,-22.237139,-18.78478,76.57221,-24.579374,-10.083331,-6.760533,-0.24680252,29.793802,-61.36544,32.473137,-45.3763,-20.372648,13.136407,-2.655912,4.2261586,-73.41413,-46.9542,32.42613,14.246683,0.11676527,-8.261751,-25.146
205,1.621157169342041,-105.79222106933594,62.0289306640625,3.477805238843182,21.611198035255796,7.198131338927504,-63.464863,16.370808,3.5144248,110.27603,-29.604303,9.164906,-74.494415,-22.068249,-19.272196,76.705154,-24.867786,-10.389873,-6.8529563,-0.17660367,29.793802,-61.40959,32.49956,-45.492805,-20.386646,13.123166,-2.6549597,4.2185316,-73.15718,-47.106316,32.26149,14.155736,0.27894667,-8.269059,-25.130386
206,1.651699423789978,-106.17832946777344,61.963653564453125,3.409688782664221,21.56752723828273,7.293396169854647,-62.879204,13.819701,4.8818088,110.8788,-29.858458,7.2551126,-74.315865,-21.91093,-19.752663,76.84712,-25.154446,-10.683237,-6.9617305,-0.11726499,29.793802,-61.460148,32.534916,-45.61872,-20.386627,13.137499,-2.6562548,4.217624,-72.8812,-47.240715,32.048744,14.058476,0.51319814,-8.283724,-25.09583
207,1.6829198598861694,-106.56755065917969,61.89719009399414,3.3355950895621076,21.53227876140106,7.379792726711368,-62.378292,11.149255,6.26766,111.15251,-30.100441,5.188839,-74.154816,-21.74503,-20.23204,76.98882,-25.434298,-10.976074,-7.062043,-0.0568244,29.793802,-61.511852,32.57598,-45.747246,-20.379087,13.157326,-2.6616588,4.212409,-72.58665,-47.356796,31.801186,13.953174,0.73769754,-8.2989235,-25.060595
208,1.6994284391403198,-106.94213104248047,61.82078170776367,3.248334132860886,21.504427962881834,7.438132910527659,-61.96987,8.474171,7.664033,111.08815,-30.334822,3.0305326,-74.00635,-21.550741,-20.715065,77.12092,-25.702671,-11.2809305,-7.135551,0.00924096,29.793802,-61.562416,32.620724,-45.871143,-20.360401,13.160654,-2.6725152,4.19084,-72.32011,-47.462303,31.5647,13.862107,0.90416825,-8.309374,-25.043293
209,1.7186472415924072,-107.32044219970703,61.73588180541992,3.139332090210099,21.48811736544867,7.457938861722741,-61.655254,5.793803,9.062463,110.66334,-30.562077,0.75327814,-73.86865,-21.316706,-21.209736,77.234505,-25.955723,-11.599558,-7.167422,0.09213107,29.793802,-61.614697,32.66614,-45.986877,-20.330967,13.130235,-2.6956615,4.1406145,-72.06387,-47.56006,31.32939,13.775635,0.9791177,-8.313641,-25.054945
210,1.7420178651809692,-107.70802307128906,61.64969253540039,3.007401062360856,21.482524854654272,7.448987179029682,-61.440228,3.0932086,10.448399,109.890785,-30.800018,-1.6410623,-73.7389,-21.052242,-21.722088,77.33379,-26.198477,-11.928608,-7.165482,0.19375357,29.793802,-61.667522,32.708942,-46.101532,-20.290594,13.085069,-2.728387,4.071172,-71.80717,-47.65127,31.081612,13.689796,1.0003592,-8.314699,-25.083927
211,1.7553256750106812,-108.08503723144531,61.55702590942383,2.859278385099744,21.480660537947582,7.425030836580506,-61.317345,0.45931798,11.807381,108.81556,-31.061571,-4.0472817,-73.61694,-20.768505,-22.243368,77.42722,-26.432535,-12.2671175,-7.1413608,0.31364474,29.793802,-61.72441,32.74619,-46.218956,-20.245075,13.042887,-2.7586424,4.0024457,-71.56921,-47.74063,30.837767,13.614512,0.9980329,-8.31236,-25.115194
212,1.763359785079956,-108.45809936523438,61.46141815185547,2.703608542283213,21.476634038460666,7.401275930873333,-61.26871,-2.0307703,13.144565,107.48544,-31.341274,-6.350433,-73.50254,-20.479519,-22.766603,77.52376,-26.661678,-12.616146,-7.1063757,0.45513058,29.793802,-61.783714,32.77223,-46.340275,-20.205267,13.024552,-2.775139,3.9539404,-71.3518,-47.82608,30.604095,13.550531,0.98291796,-8.305614,-25.13533
213,1.766207218170166,-108.8308334350586,61.3575325012207,2.545325452771301,21.474742744816783,7.379091552439237,-61.27947,-4.4346614,14.448744,105.83287,-31.610859,-8.634869,-73.40282,-20.186405,-23.282257,77.621,-26.882963,-12.973575,-7.060529,0.6165109,29.793802,-61.853035,32.785557,-46.47094,-20.170757,13.03918,-2.7691772,3.9326224,-71.153854,-47.919106,30.37591,13.4875345,0.94639266,-8.287681,-25.13411
214,1.7731034755706787,-109.20532989501953,61.246700286865234,2.3808115335961166,21.47709239480134,7.3535675908950635,-61.334858,-6.752381,15.70227,103.856316,-31.880203,-10.915178,-73.31626,-19.884762,-23.796335,77.71472,-27.095575,-13.339893,-7.0016522,0.79958373,29.793802,-61.930702,32.782948,-46.60458,-20.13406,13.076871,-2.749184,3.9257083,-70.983864,-48.014317,30.160458,13.4360485,0.8850611,-8.26104,-25.123468
215,1.7713067531585693,-109.57300567626953,61.13085174560547,2.2095205338042376,21.47669708789919,7.3319355684246785,-61.403233,-8.846613,16.905222,101.708176,-32.164963,-12.992732,-73.23482,-19.583714,-24.319706,77.813515,-27.308182,-13.718125,-6.926432,1.0019356,29.793802,-62.017635,32.761913,-46.74678,-20.096188,13.124223,-2.727618,3.9294498,-70.819786,-48.12076,29.942556,13.387825,0.8322657,-8.238496,-25.111338
216,1.7626142501831055,-109.93914794921875,61.000640869140625,2.0333917985883483,21.465264523815375,7.321947545517996,-61.44074,-10.603716,18.066786,99.53604,-32.460884,-14.684993,-73.15216,-19.293886,-24.859375,77.93082,-27.526407,-14.110517,-6.8381577,1.2222259,29.793802,-62.10643,32.720074,-46.892506,-20.064817,13.1702385,-2.7176988,3.937594,-70.64817,-48.22956,29.71831,13.347163,0.81028825,-8.232755,-25.110338
217,1.752753734588623,-110.3082275390625,60.86117172241211,1.8812634711685376,21.440321472745918,7.33918510396973,-61.36252,-11.97326,19.46691,97.27342,-32.745483,-15.000033,-73.09736,-19.05359,-25.371946,78.101234,-27.754707,-14.498003,-6.7578783,1.4372549,29.793802,-62.196445,32.65755,-47.03905,-20.031008,13.228501,-2.7223659,3.9596236,-70.47908,-48.33656,29.49305,13.316764,0.8421203,-8.256159,-25.120739
218,1.7244915962219238,-110.65131378173828,60.7043571472168,1.8153099544370541,21.396579522088512,7.416139683626243,-61.183895,-13.189492,20.903952,94.83431,-32.967678,-15.000033,-73.1001,-18.910152,-25.794342,78.35817,-28.006767,-14.874509,-6.7442336,1.5909413,29.793802,-62.28068,32.57808,-47.168953,-19.985582,13.303725,-2.7333822,3.9930751,-70.33509,-48.433746,29.290281,13.293684,0.9164585,-8.298977,-25.134548
219,1.6971936225891113,-111.01256561279297,60.54065704345703,1.706105136682498,21.342931718887602,7.48521444402999,-60.948357,-14.201629,22.152906,92.43885,-33.127934,-15.000033,-73.07378,-18.736395,-26.225716,78.60563,-28.262617,-15.000033,-6.693045,1.7923137,29.793802,-62.368126,32.4799,-47.30705,-19.94851,13.361058,-2.7501853,4.018787,-70.19169,-48.525578,29.08588,13.29311,0.991695,-8.341978,-25.157942
220,1.6796555519104004,-111.37936401367188,60.37105178833008,1.6090785248633601,21.257552576594506,7.592543045529482,-60.640144,-15.050061,23.22636,90.205246,-33.1541,-15.000033,-73.02232,-18.587204,-26.632479,78.87664,-28.545927,-15.000033,-6.6587915,1.9992954,29.793802,-62.442673,32.36137,-47.44612,-19.916916,13.376656,-2.7706203,4.016481,-70.04102,-48.61336,28.89454,13.307528,1.0526625,-8.366176,-25.19047
221,1.6593297719955444,-111.75753021240234,60.19925308227539,1.481217653887901,21.156082386508256,7.684884743605771,-60.234364,-15.587681,24.162386,88.21287,-33.071045,-15.000033,-72.93603,-18.404373,-27.075472,79.129875,-28.833584,-15.000033,-6.586252,2.2368379,29.793802,-62.512054,32.221508,-47.585663,-19.905514,13.320903,-2.7922325,3.9678645,-69.88512,-48.698776,28.706478,13.341981,1.0845222,-8.359395,-25.237257
222,1.6306072473526,-112.14170837402344,60.024375915527344,1.3334201978425329,21.041595509276902,7.765656409975069,-59.71505,-15.853488,25.004221,86.38195,-32.89711,-15.000033,-72.82684,-18.197102,-27.54233,79.372185,-29.124506,-15.000033,-6.479414,2.4959157,29.793802,-62.58567,32.06104,-47.72687,-19.904657,13.211854,-2.816715,3.8875544,-69.73002,-48.78454,28.521893,13.393493,1.1038227,-8.334013,-25.295868
223,1.6033008098602295,-112.54041290283203,59.83734893798828,1.2071751391909902,20.910716915746566,7.871964248190869,-59.14574,-16.046635,25.72685,84.65544,-32.5879,-15.000033,-72.71618,-18.012522,-27.99816,79.6348,-29.434645,-15.000033,-6.3739285,2.7506833,29.793802,-62.662193,31.88214,-47.871365,-19.896856,13.108441,-2.8460674,3.8023212,-69.5766,-48.87297,28.341982,13.448127,1.1222427,-8.305363,-25.357077
224,1.567233681678772,-112.94255065917969,59.6409912109375,1.1401386769670687,20.762152144133978,8.0432949234359,-58.59685,-16.358202,26.27106,82.97423,-32.09486,-15.000033,-72.624306,-17.899643,-28.415075,79.94868,-29.780043,-15.000033,-6.303626,2.9827626,29.793802,-62.744476,31.687588,-48.021988,-19.867476,13.065385,-2.8828228,3.7390323,-69.416115,-48.964283,28.161133,13.485487,1.1409615,-8.288385,-25.41151
225,1.531797170639038,-113.3411865234375,59.42683410644531,1.1639471041815146,20.594032862763097,8.316837764678727,-58.008602,-16.838593,26.691362,81.16666,-31.198652,-15.000033,-72.57859,-17.91425,-28.761333,80.3569,-30.177885,-15.000033,-6.311452,3.1726272,29.793802,-62.833305,31.480242,-48.174988,-19.805378,13.098712,-2.9367113,3.7113564,-69.25759,-49.057587,27.984875,13.499818,1.1776699,-8.29131,-25.454426
226,1.488986849784851,-113.74095916748047,59.20113754272461,1.2457572738728007,20.40767172753082,8.662387641313078,-57.37162,-17.383564,26.979622,79.315125,-29.990318,-15.000033,-72.55643,-18.015226,-29.066349,80.83003,-30.616526,-15.000033,-6.367278,3.3395336,29.793802,-62.92539,31.261398,-48.3304,-19.724749,13.177346,-3.00353,3.7032878,-69.10114,-49.152256,27.814184,13.501455,1.2240767,-8.304816,-25.49166
227,1.4445302486419678,-114.17052459716797,58.976409912109375,1.332300104095227,20.20697085416046,9.0206426017476,-56.84203,-17.944439,26.987438,77.74992,-28.891497,-15.000033,-72.50846,-18.110437,-29.38835,81.292984,-31.06849,-15.000033,-6.4025693,3.5148847,29.793802,-63.01701,31.031878,-48.495396,-19.645893,13.287551,-3.064157,3.6969793,-68.935234,-49.251904,27.640713,13.501473,1.2553594,-8.3176985,-25.529041
228,1.3986870050430298,-114.61701202392578,58.74402618408203,1.426873245328692,19.99031320013398,9.378666238833967,-56.561428,-18.510363,26.69568,76.776085,-28.302086,-14.586959,-72.42679,-18.18437,-29.726181,81.73069,-31.524006,-15.000033,-6.4067883,3.692245,29.793802,-63.10644,30.793417,-48.663593,-19.577875,13.411082,-3.0984612,3.6733408,-68.75891,-49.360394,27.469482,13.505664,1.2540674,-8.318514,-25.568014
229,1.3427139520645142,-115.05474090576172,58.48940658569336,1.634812378595668,19.73217915319901,9.82167654278328,-56.618114,-19.194445,26.557302,76.55046,-28.288773,-10.672532,-72.395485,-18.396263,-29.952553,82.29,-32.02338,-15.000033,-6.482522,3.8029199,29.793802,-63.17131,30.546936,-48.81194,-19.521515,13.575218,-3.0853596,3.6223617,-68.58987,-49.473415,27.336557,13.510844,1.218606,-8.30135,-25.605724
230,1.2914789915084839,-115.50222778320312,58.249629974365234,1.9038708852596633,19.445423700376185,10.311263701453422,-56.993763,-19.954782,26.33658,76.97434,-28.658646,-5.1290894,-72.37121,-18.668104,-30.130808,82.893936,-32.54947,-15.000033,-6.584015,3.8801422,29.793802,-63.225925,30.29506,-48.95222,-19.472248,13.774018,-3.0416305,3.5550687,-68.42368,-49.58909,27.22637,13.518203,1.1549652,-8.273133,-25.644926
231,1.2411237955093384,-115.95645904541016,58.002174377441406,2.2044534585185347,19.148946379160257,10.817240007925689,-57.50484,-20.73967,26.122276,77.713066,-29.261126,0.73144186,-72.350075,-18.963755,-30.287476,83.498795,-33.076366,-15.000033,-6.6899805,3.9368594,29.793802,-63.272068,30.041595,-49.082924,-19.430637,13.963924,-2.998457,3.483185,-68.26106,-49.70395,27.121725,13.526271,1.0787259,-8.241213,-25.680561
232,1.1961325407028198,-116.3986587524414,57.748870849609375,2.5012269176985913,18.862160261028365,11.307177287461462,-57.91088,-21.478783,25.939108,78.38172,-29.984413,5.562841,-72.32719,-19.242435,-30.456642,84.063065,-33.57985,-15.000033,-6.7729697,3.9945424,29.793802,-63.322113,29.791775,-49.203133,-19.39419,14.090458,-2.9870515,3.4184966,-68.09694,-49.81285,27.000786,13.531727,0.99878085,-8.212608,-25.707441
233,1.1588160991668701,-116.8742446899414,57.48887634277344,2.7711738761206552,18.58529683573737,11.76007339341967,-58.11759,-22.190752,25.666546,78.89406,-30.981232,9.033583,-72.29455,-19.4798,-30.663809,84.585266,-34.062027,-15.000033,-6.810606,4.0686364,29.793802,-63.374733,29.550375,-49.316074,-19.372019,14.129307,-3.0179112,3.3669035,-67.92522,-49.91161,26.855087,13.538413,0.9155237,-8.191462,-25.721552
234,1.10391104221344,-117.3445816040039,57.22883987426758,3.03445753636009,18.309684739615477,12.195975881865806,-58.246647,-22.919191,25.286552,79.423355,-32.258934,11.843177,-72.25561,-19.70047,-30.88998,85.08481,-34.534847,-15.000033,-6.822099,4.145631,29.793802,-63.419483,29.319292,-49.42181,-19.367554,14.114405,-3.0731323,3.3220623,-67.742836,-49.997017,26.690084,13.542836,0.817673,-8.1732235,-25.726173
235,1.036445140838623,-117.80903625488281,56.98617172241211,3.320601829159244,18.041289915917492,12.643714095020952,-58.346607,-23.588856,24.952017,79.9621,-33.532986,14.195089,-72.22574,-19.933964,-31.101793,85.55415,-34.982395,-15.000033,-6.8453817,4.1997914,29.793802,-63.46881,29.101809,-49.51346,-19.360819,14.06777,-3.1417336,3.2762234,-67.57648,-50.070446,26.525267,13.548779,0.7179675,-8.15346,-25.72691
236,0.9655164480209351,-118.30643463134766,56.77893829345703,3.5901515554002876,17.82682338310596,13.093616829401428,-58.50901,-24.000168,24.574116,80.57122,-34.560467,15.000033,-72.17612,-20.110035,-31.368505,85.87106,-35.357307,-15.000033,-6.8599067,4.2585506,29.793802,-63.53991,28.9253,-49.595398,-19.36705,14.021148,-3.2123168,3.222517,-67.45402,-50.134354,26.35333,13.557553,0.61430556,-8.126398,-25.737867
237,0.8927638530731201,-118.81841278076172,56.590240478515625,3.917090005280464,17.639033730924446,13.603107212514193,-58.69123,-24.148577,24.414568,81.20504,-35.23629,15.000033,-72.15586,-20.33102,-31.5977,86.128555,-35.686035,-15.000033,-6.918891,4.275021,29.793802,-63.6549,28.745567,-49.66673,-19.338333,13.957092,-3.295549,3.1501207,-67.3414,-50.209526,26.157473,13.540339,0.5045386,-8.0777025,-25.7484
238,0.8205881118774414,-119.33377075195312,56.41420364379883,4.314545210187757,17.45228812569736,14.16337701956193,-58.84401,-24.145363,24.527306,81.822655,-35.706467,15.000033,-72.1764,-20.620556,-31.75712,86.384125,-35.989445,-15.000033,-7.03734,4.23618,29.793802,-63.76706,28.587994,-49.70831,-19.308367,13.867338,-3.3930652,3.065608,-67.25775,-50.28095,25.979311,13.516068,0.39863357,-8.014972,-25.758871
