Frame,root_translateX,root_translateY,root_translateZ,root_rotateX,root_rotateY,root_rotateZ,left_hip_pitch_joint_dof,left_hip_roll_joint_dof,left_hip_yaw_joint_dof,left_knee_joint_dof,left_ankle_pitch_joint_dof,left_ankle_roll_joint_dof,right_hip_pitch_joint_dof,right_hip_roll_joint_dof,right_hip_yaw_joint_dof,right_knee_joint_dof,right_ankle_pitch_joint_dof,right_ankle_roll_joint_dof,waist_yaw_joint_dof,waist_roll_joint_dof,waist_pitch_joint_dof,left_shoulder_pitch_joint_dof,left_shoulder_roll_joint_dof,left_shoulder_yaw_joint_dof,left_elbow_joint_dof,left_wrist_roll_joint_dof,left_wrist_pitch_joint_dof,left_wrist_yaw_joint_dof,right_shoulder_pitch_joint_dof,right_shoulder_roll_joint_dof,right_shoulder_yaw_joint_dof,right_elbow_joint_dof,right_wrist_roll_joint_dof,right_wrist_pitch_joint_dof,right_wrist_yaw_joint_dof
0,0.0725986585021019,2.5471720695495605,77.9286880493164,-0.9493708621091429,-3.0398792093515583,-88.83194724139722,3.9318657,5.472853,-11.707738,10.165392,-14.604687,-7.2055964,5.8699555,-2.9396431,-5.68708,10.650341,-12.100631,3.4254813,-0.26589563,0.89875776,6.826614,6.2725296,12.137499,-23.992378,58.0486,14.146124,3.4505923,-5.02852,-0.09006926,-13.414706,48.17559,74.79229,5.737336,0.84497815,-6.5758076
1,0.06932790577411652,2.5482122898101807,77.92913055419922,-0.9575565405439285,-3.0037580318183874,-88.78140900762013,3.8509872,5.4739957,-11.76764,10.209965,-14.608654,-7.222834,5.838688,-2.9325585,-5.7462964,10.644673,-12.091024,3.421236,-0.20418918,0.9092711,6.808348,6.213789,12.154312,-24.093164,58.061333,14.122718,3.4442432,-5.028201,-0.2188212,-13.44789,48.755043,75.374695,6.2661448,0.33755463,-6.120207
2,0.0607915036380291,2.5504891872406006,77.93009948730469,-0.9655765862128207,-2.970869994126544,-88.72203448661963,3.7780006,5.473983,-11.835837,10.242247,-14.60555,-7.2407813,5.8154364,-2.927473,-5.814141,10.636135,-12.082588,3.4171226,-0.16987713,0.91590345,6.788562,6.168234,12.17028,-24.167023,58.07247,14.105926,3.438577,-5.0286717,-0.31773844,-13.468511,49.32635,75.91679,6.7817464,-0.24528633,-5.810663
3,0.05588468164205551,2.5565595626831055,77.9336166381836,-0.9740658537062712,-2.931698440191737,-88.68074984011817,3.7035778,5.4771338,-11.885648,10.269136,-14.601012,-7.257101,5.775345,-2.9206991,-5.8642,10.635216,-12.07278,3.413149,-0.14343213,0.9227138,6.770686,6.141992,12.191005,-24.219086,58.05755,14.093208,3.4279814,-5.033457,-0.5290473,-13.4854145,49.996307,76.591095,7.3602953,-0.6688726,-5.193675
4,0.04914093762636185,2.5712389945983887,77.93689727783203,-0.9821541017519639,-2.877024215183073,-88.68495487022325,3.6242642,5.4884934,-11.889573,10.283946,-14.59257,-7.2696056,5.694224,-2.9094667,-5.8698645,10.651949,-12.05888,3.4095094,-0.0698432,0.9358525,6.7592387,6.106331,12.217367,-24.287315,58.02094,14.080528,3.4061382,-5.045864,-0.9855702,-13.498615,50.815155,77.57904,8.05571,-0.6953232,-3.8168752
5,0.04564828798174858,2.5883240699768066,77.94134521484375,-0.9902072166053154,-2.7960945747698345,-88.72795828935548,3.5222325,5.5075965,-11.854734,10.29479,-14.583288,-7.277818,5.5582113,-2.8940825,-5.837576,10.691371,-12.041489,3.40695,0.015541184,0.95642877,6.754655,6.0948834,12.25728,-24.335499,57.918156,14.070804,3.3677928,-5.07014,-1.7141589,-13.498519,51.980923,79.10259,9.081832,-0.29211926,-1.3520895
6,0.048601895570755005,2.6056864261627197,77.94659423828125,-1.0009572142998082,-2.69678421139426,-88.79982396880277,3.4066212,5.5325284,-11.790729,10.298589,-14.571196,-7.282892,5.3851147,-2.875357,-5.7771754,10.743189,-12.019481,3.4052193,0.1429253,0.9817326,6.756442,6.072327,12.30537,-24.40505,57.78966,14.057452,3.3186483,-5.09955,-2.636265,-13.473134,53.342003,81.01815,10.289473,0.45882306,1.8792573
7,0.0542835108935833,2.624544143676758,77.95216369628906,-1.009709623269582,-2.596939989869466,-88.92281171294186,3.3056183,5.565809,-11.675345,10.290996,-14.558168,-7.284818,5.188154,-2.8520794,-5.6668453,10.811012,-11.995745,3.403119,0.2942175,1.0011258,6.77301,6.055797,12.36507,-24.458326,57.642395,14.054792,3.2644534,-5.13637,-3.7922711,-13.428396,54.667316,82.952545,11.253288,1.6101271,5.3632503
8,0.0564156100153923,2.651840925216675,77.95451354980469,-1.0168023087969829,-2.514174001689778,-89.1192442417135,3.2473545,5.609692,-11.486156,10.26811,-14.546043,-7.283693,4.9823174,-2.8224967,-5.4848757,10.894549,-11.970828,3.3995032,0.47575322,1.0083958,6.8120403,6.0457993,12.438677,-24.487362,57.493977,14.069974,3.211601,-5.1823297,-5.1961346,-13.388697,55.69994,84.52201,11.545939,3.1414623,8.612282
9,0.06816026568412781,2.683013439178467,77.95626068115234,-1.018387528766805,-2.454629080473411,-89.40601332088491,3.2491305,5.66424,-11.205148,10.217414,-14.531295,-7.27854,4.763427,-2.7884643,-5.214987,11.008712,-11.951965,3.3940294,0.70254475,1.0033929,6.8727846,6.0414524,12.526479,-24.50592,57.352283,14.094927,3.1558137,-5.2485194,-6.835978,-13.38004,56.47958,85.43405,10.698173,5.501943,11.895241
10,0.08370261639356613,2.7129411697387695,77.95973205566406,-1.0171664135957394,-2.408412647407677,-89.76756433472653,3.2913523,5.727803,-10.84835,10.147926,-14.515611,-7.269901,4.5271196,-2.749076,-4.8724737,11.147368,-11.93594,3.3876436,0.95909554,0.9896981,6.946104,6.0567603,12.631845,-24.508818,57.197006,14.126677,3.0956602,-5.333201,-8.674107,-13.416823,57.14491,85.87395,8.954988,8.485266,15.432798
11,0.10045106709003448,2.7492787837982178,77.96355438232422,-1.0193819974833662,-2.369394999548964,-90.17741078410452,3.353535,5.8004003,-10.44374,10.07578,-14.503626,-7.2594995,4.2852426,-2.6996467,-4.4824934,11.28445,-11.909921,3.3809757,1.2039226,0.96771204,7.025708,6.1103926,12.756653,-24.459694,57.013107,14.178628,3.041394,-5.417017,-10.684992,-13.523528,57.551437,86.11996,7.066734,11.17339,18.592758
12,0.12218596786260605,2.785313606262207,77.96741485595703,-1.0260396783929937,-2.3311740466524586,-90.60921168973596,3.4157968,5.8825912,-10.019319,10.014419,-14.4981365,-7.249267,4.0516596,-2.635856,-4.070325,11.389802,-11.859261,3.3746808,1.4119209,0.9427816,7.11006,6.2021255,12.893577,-24.340767,56.798695,14.262116,3.0036287,-5.4766,-12.868702,-13.726121,57.53314,86.48318,5.956195,12.76565,20.591753
13,0.14595985412597656,2.8200347423553467,77.97178649902344,-1.0440335564545467,-2.2920825763683497,-91.0700545580185,3.4746401,5.9782276,-9.568888,9.971014,-14.503084,-7.240263,3.824533,-2.5531087,-3.629895,11.459025,-11.779642,3.366982,1.5673426,0.9168254,7.194434,6.3540735,13.039507,-24.117899,56.534206,14.400431,2.993669,-5.5187945,-15.259398,-14.068198,57.027508,87.122856,6.103538,12.951163,20.943937
14,0.17379523813724518,2.863372325897217,77.98025512695312,-1.0687190772791157,-2.255498419015736,-91.56947713109673,3.5415485,6.08547,-9.0816965,9.934619,-14.514714,-7.2312293,3.5995739,-2.4548051,-3.152048,11.504878,-11.677865,3.3584883,1.6816013,0.8899136,7.2790704,6.563415,13.192785,-23.80804,56.226734,14.579752,3.0030563,-5.5508204,-17.850517,-14.581003,56.160736,87.83418,7.033973,12.24129,20.116613
15,0.20058178901672363,2.909817695617676,77.98906707763672,-1.096971162816948,-2.2230519249713856,-92.08419003363711,3.6114068,6.197147,-8.580271,9.907147,-14.531813,-7.220864,3.3832839,-2.3477316,-2.657712,11.5301285,-11.559687,3.3521805,1.765035,0.86516947,7.375749,6.7979717,13.354469,-23.463297,55.903458,14.755349,3.0119367,-5.5523906,-20.594805,-15.261268,55.055264,88.380875,8.303608,11.1374445,18.689625
16,0.22435642778873444,2.9567761421203613,77.99665069580078,-1.1243864771970173,-2.1960518235621795,-92.5909211490605,3.6768613,6.305406,-8.087153,9.894222,-14.554982,-7.207684,3.1793933,-2.2392497,-2.1675262,11.542323,-11.433305,3.351163,1.8390582,0.84472984,7.4976597,7.0166235,13.528462,-23.145325,55.596073,14.882426,3.0010571,-5.5026245,-23.453068,-16.075762,53.829067,88.54936,9.512819,10.162607,17.213123
17,0.25452959537506104,3.0112664699554443,78.00501251220703,-1.152394788958788,-2.1751575347195877,-93.09192845705839,3.7365115,6.4099083,-7.60093,9.899044,-14.585947,-7.190032,2.9894247,-2.1288862,-1.6784288,11.535346,-11.292813,3.3587554,1.8927424,0.82689214,7.6477566,7.223385,13.716591,-22.853188,55.298435,14.943924,2.9613209,-5.3752146,-26.477573,-16.994314,52.339962,88.35463,10.798661,9.29935,15.55988
18,0.2833850085735321,3.0618624687194824,78.0114974975586,-1.1809672387140733,-2.1596778759030557,-93.59687574655683,3.7948358,6.5140996,-7.1118884,9.916112,-14.6227,-7.1690626,2.8089921,-2.0139997,-1.182053,11.512746,-11.139003,3.3723454,1.912679,0.809199,7.80807,7.445868,13.918677,-22.55691,54.99943,14.96219,2.904462,-5.189721,-29.690338,-18.017061,50.639465,87.97686,12.307486,8.270848,13.543834
19,0.30916255712509155,3.1164636611938477,78.01801300048828,-1.2113405719778378,-2.1491679857654518,-94.09330230706288,3.8542457,6.6165066,-6.630516,9.938209,-14.661616,-7.147567,2.6427426,-1.8979212,-0.6919428,11.476884,-10.980519,3.3858,1.919391,0.79446346,7.9707713,7.6720395,14.133739,-22.268501,54.719616,14.959293,2.841804,-4.9940996,-33.005146,-19.138416,48.97162,87.42158,13.564587,7.280054,11.575152
20,0.33607012033462524,3.168382167816162,78.02351379394531,-1.2405226717067397,-2.142976209576423,-94.56883251520777,3.919956,6.7158976,-6.1668887,9.953061,-14.696899,-7.1282077,2.492199,-1.7847728,-0.22129007,11.435674,-10.828528,3.3931968,1.9465039,0.78453016,8.1340065,7.8763056,14.3618145,-22.009073,54.484913,14.95898,2.7851143,-4.8348203,-36.352657,-20.342052,47.681934,86.6989,14.238114,6.5622168,10.046354
21,0.36476922035217285,3.2156898975372314,78.02959442138672,-1.2722402168505804,-2.147239075240695,-95.03838965700325,4.002731,6.816609,-5.704556,9.961201,-14.733236,-7.1121645,2.3584352,-1.6697433,0.24551623,11.393827,-10.685869,3.389746,2.0141742,0.7863693,8.312686,8.038755,14.599945,-21.798592,54.319397,14.961873,2.722939,-4.707389,-39.77669,-21.585213,46.686653,85.82524,13.859157,6.343569,9.13066
22,0.39605554938316345,3.2624826431274414,78.0368423461914,-1.3046272183827328,-2.160233844583139,-95.50256658353085,4.0990095,6.9175053,-5.2444086,9.963433,-14.7694435,-7.0979834,2.239992,-1.5532008,0.7091934,11.347349,-10.547234,3.3795094,2.1120138,0.79103255,8.495635,8.170332,14.856376,-21.633984,54.213478,14.953901,2.6547425,-4.5918818,-43.358414,-22.862879,46.405884,84.8466,13.295178,6.459121,8.593276
23,0.42660167813301086,3.305358409881592,78.0428695678711,-1.3346629250281716,-2.1694172634859306,-95.92730270961687,4.1818056,7.0096164,-4.822856,9.967777,-14.800715,-7.0839915,2.1363177,-1.4452194,1.1340406,11.2859745,-10.408884,3.3699548,2.1934557,0.7952357,8.66416,8.294574,15.109766,-21.449978,54.136326,14.960717,2.605848,-4.5105224,-46.961864,-24.142637,46.109726,83.65633,12.38509,6.6396904,8.161077
24,0.454941064119339,3.347172498703003,78.04959106445312,-1.3615156512291267,-2.1624350320182653,-96.27889900396177,4.2297297,7.083739,-4.475823,9.9706545,-14.816363,-7.0685863,2.0472717,-1.357492,1.4846357,11.198372,-10.266376,3.368372,2.23172,0.786815,8.788629,8.430695,15.3568945,-21.213493,54.062588,14.992145,2.6036382,-4.4848504,-50.4971,-25.442245,45.91233,82.19182,11.8235,6.5928807,7.5680404
25,0.4780237674713135,3.3856165409088135,78.05754852294922,-1.3834915974310944,-2.137671778411315,-96.55907719049877,4.2429476,7.1394367,-4.202462,9.969547,-14.813337,-7.0502563,1.9754171,-1.2913123,1.7614805,11.074559,-10.112974,3.3780642,2.2295525,0.77083784,8.868719,8.574726,15.593502,-20.92374,53.999683,15.060848,2.6705625,-4.550696,-53.970306,-26.773222,45.82132,80.45625,11.780055,6.2323475,6.743459
26,0.5030866265296936,3.4195449352264404,78.06785583496094,-1.4011176205001037,-2.1010950149383665,-96.7822952804425,4.225255,7.1807485,-3.987792,9.977533,-14.803249,-7.0301223,1.915062,-1.2416793,1.9805017,10.932102,-9.957753,3.3945131,2.2085137,0.7509563,8.916706,8.70871,15.82135,-20.60804,53.966522,15.157135,2.7873359,-4.6851425,-57.416794,-28.135384,45.88776,78.44477,11.990893,5.712172,5.8306546
27,0.5263775587081909,3.449305534362793,78.07926177978516,-1.4179882563779702,-2.0516128491521983,-96.93384187266912,4.177084,7.207625,-3.844859,9.983084,-14.780733,-7.010168,1.8700374,-1.209874,2.128897,10.768002,-9.80304,3.4135292,2.1567736,0.72181684,8.9305935,8.837916,16.036774,-20.257805,53.944492,15.263337,2.9168098,-4.8242345,-60.785927,-29.525188,46.009678,76.101875,12.208603,5.089078,4.877255
28,0.5481078028678894,3.4731075763702393,78.08979034423828,-1.431538455579453,-1.9876722130365772,-96.99861727951387,4.09022,7.219918,-3.787913,9.991995,-14.749906,-6.99275,1.8379385,-1.195627,2.193643,10.591432,-9.656979,3.4305701,2.0568466,0.67943263,8.905735,8.973235,16.235611,-19.860085,53.913067,15.360683,3.0217488,-4.9042854,-64.02826,-30.94457,46.093925,73.373695,12.1939335,4.4263387,3.9244225
29,0.5645103454589844,3.497437000274658,78.10128021240234,-1.4439091784258908,-1.9050623143979188,-96.96851837652927,3.9558485,7.2155094,-3.8262014,10.006778,-14.7098465,-6.9760103,1.8174522,-1.2015337,2.1662815,10.398602,-9.517889,3.4463837,1.8941531,0.6194609,8.828331,9.121016,16.415567,-19.404516,53.876907,15.4574585,3.0985212,-4.9063377,-67.107414,-32.40065,46.097073,70.179985,11.824662,3.706381,2.9456239
30,0.5746203064918518,3.516472101211548,78.11265563964844,-1.4529939488980588,-1.805823709517031,-96.85265101528482,3.7773433,7.1958675,-3.950932,10.030997,-14.662933,-6.9599047,1.8138691,-1.2257813,2.0550232,10.178346,-9.379627,3.4626603,1.6826769,0.54568,8.703933,9.272852,16.580114,-18.902357,53.846157,15.559211,3.1650283,-4.864832,-70.07263,-33.901215,46.104744,66.57779,11.264257,2.9163883,1.9222764
31,0.5812944173812866,3.532806873321533,78.12456512451172,-1.4603241895780694,-1.6988722410273842,-96.6634612754362,3.5786967,7.162731,-4.1464267,10.044757,-14.603319,-6.9486265,1.8205134,-1.2655494,1.8735598,9.962451,-9.257408,3.47682,1.4201212,0.4688784,8.544672,9.443012,16.725365,-18.352777,53.801777,15.640082,3.216123,-4.798871,-72.91137,-35.457348,46.12301,62.63156,10.605691,2.12338,0.89911944
32,0.585247278213501,3.540253162384033,78.13509368896484,-1.4648459214964549,-1.5922778164484492,-96.41249070467947,3.3736827,7.1201954,-4.399161,10.048899,-14.534869,-6.9466,1.845152,-1.3158101,1.6343173,9.750432,-9.153823,3.486124,1.1380566,0.39384663,8.377274,9.612734,16.855433,-17.779766,53.736145,15.6775,3.2479692,-4.7230515,-75.72666,-37.0743,46.27447,58.479385,10.066999,1.3941025,-0.0648563
33,0.5843729972839355,3.5445973873138428,78.144775390625,-1.4697631438869345,-1.48488723377925,-96.09448118707222,3.1676373,7.0699463,-4.7121735,10.026195,-14.451382,-6.9579535,1.8875464,-1.3755178,1.3330402,9.542979,-9.070722,3.4874465,0.81885135,0.32173777,8.190127,9.7924185,16.967577,-17.170298,53.64835,15.653268,3.2540298,-4.630521,-78.45469,-38.75927,46.558624,53.94911,9.666436,0.7657416,-0.920171
34,0.5776742100715637,3.547053098678589,78.15293884277344,-1.4723005664043687,-1.3736534986414934,-95.70583313068573,2.948865,7.009977,-5.0912166,9.991082,-14.356879,-6.979528,1.946752,-1.4460373,0.96523196,9.335703,-9.004321,3.4832845,0.45813924,0.24980655,7.9726453,9.981057,17.059832,-16.521927,53.550674,15.584525,3.238555,-4.5155597,-81.069954,-40.518116,46.94592,49.00097,9.319126,0.19776104,-1.7080454
35,0.5690480470657349,3.53733229637146,78.16064453125,-1.4703739143604297,-1.2644837299845004,-95.26188513659302,2.7304714,6.937914,-5.522761,9.940773,-14.252205,-7.0050087,2.0241904,-1.5280938,0.5439878,9.134124,-8.955981,3.4794452,0.083793856,0.181104,7.7442856,10.164398,17.131962,-15.8580065,53.446438,15.498291,3.2123325,-4.3975887,-83.64777,-42.34833,47.40464,43.898544,8.988658,-0.36973238,-2.511375
36,0.5513303875923157,3.5290367603302,78.16648864746094,-1.4610609949801512,-1.1633640429678413,-94.77788684992838,2.5234044,6.851092,-5.993359,9.875304,-14.139308,-7.0279746,2.1193557,-1.622367,0.08241397,8.948076,-8.929321,3.4816208,-0.27659914,0.11895317,7.5270114,10.329254,17.183859,-15.200713,53.334652,15.421569,3.186172,-4.2963524,-86.28357,-44.239643,47.903442,38.923943,8.632131,-0.9979079,-3.4147143
37,0.5331174731254578,3.5177056789398193,78.17176818847656,-1.442281712817466,-1.071867535726575,-94.24731181994535,2.3342538,6.7477875,-6.508715,9.782323,-14.013072,-7.047288,2.2375667,-1.7304821,-0.42623365,8.773932,-8.924002,3.4910905,-0.63471186,0.06963114,7.3304524,10.485865,17.210524,-14.524357,53.196186,15.3604355,3.1586792,-4.214636,-89.07215,-46.19421,48.48123,34.066757,8.150113,-1.7244921,-4.5051455
38,0.5137208104133606,3.4983038902282715,78.17659759521484,-1.418083645539535,-0.9871040578881829,-93.66545986856651,2.1486049,6.628723,-7.073817,9.681721,-13.879437,-7.066041,2.3761222,-1.8507856,-0.9857384,8.6122265,-8.940593,3.5049782,-1.0017849,0.032433946,7.14207,10.635786,17.209879,-13.825232,53.03921,15.301344,3.1254287,-4.142329,-91.96254,-48.213814,49.16058,29.187725,7.5798335,-2.5032146,-5.71841
39,0.4922354519367218,3.4637703895568848,78.18064880371094,-1.3890533346606464,-0.9075996892025785,-93.05040554824816,1.9736695,6.498759,-7.670696,9.565308,-13.737686,-7.08467,2.5316193,-1.9792871,-1.5788106,8.457281,-8.971364,3.522935,-1.3476163,-0.0035002963,6.9569025,10.755324,17.191483,-13.157839,52.89353,15.241593,3.0927374,-4.079819,-94.857254,-50.27836,49.869404,24.416386,7.090212,-3.2855203,-6.908659
40,0.4690062701702118,3.4305243492126465,78.1822280883789,-1.3546085320975243,-0.8315223567250078,-92.42033125903924,1.8062639,6.3611894,-8.282555,9.445852,-13.596359,-7.103422,2.6882944,-2.1129284,-2.1875398,8.329113,-9.023001,3.5444217,-1.6456299,-0.05245009,6.773466,10.829017,17.173725,-12.573381,52.77567,15.175081,3.0670254,-4.029047,-97.66744,-52.353043,50.507755,19.917587,6.860364,-4.0351195,-7.92746
41,0.4429187774658203,3.3976566791534424,78.18460083007812,-1.3140523710832017,-0.7539095383466169,-91.76217133829083,1.6468667,6.213162,-8.921666,9.305142,-13.443367,-7.1226487,2.8527532,-2.2551768,-2.8252015,8.21063,-9.088242,3.5710795,-1.9041687,-0.120279625,6.5923047,10.870515,17.167236,-12.061137,52.65737,15.094403,3.053265,-4.003017,-100.46159,-54.411587,51.02299,15.757741,7.0340014,-4.7989473,-8.732766
42,0.41976454854011536,3.3543541431427,78.18515014648438,-1.2682655820022912,-0.6770631748181559,-91.07206305013682,1.4959403,6.0537653,-9.591301,9.145006,-13.279741,-7.1421294,3.0258315,-2.40619,-3.4952326,8.107109,-9.171102,3.6026466,-2.1433117,-0.20506215,6.4185057,10.900012,17.173416,-11.5896225,52.517517,15.000514,3.0463398,-4.0004735,-103.29393,-56.443684,51.45113,11.874689,7.4862967,-5.5941453,-9.396172
43,0.3911609351634979,3.2999534606933594,78.1848373413086,-1.2182874466254172,-0.6104396787592161,-90.38220107762999,1.3662652,5.892301,-10.259839,8.975199,-13.115628,-7.1616035,3.2055318,-2.5572753,-4.166142,8.024025,-9.268175,3.6353552,-2.3531027,-0.3118589,6.2578096,10.915431,17.197132,-11.177512,52.380276,14.902167,3.0376723,-4.001834,-106.055145,-58.43437,51.810646,8.268081,8.003737,-6.3426275,-9.942875
44,0.3707049787044525,3.2382171154022217,78.18327331542969,-1.1683381194385334,-0.5631570109667363,-89.7245515326917,1.2716767,5.7386284,-10.895363,8.80162,-12.959293,-7.1806903,3.391234,-2.7002754,-4.806257,7.963605,-9.37494,3.665467,-2.5250633,-0.44700637,6.1145864,10.917652,17.245197,-10.8433,52.268085,14.806898,3.0184546,-3.9881747,-108.62187,-60.367092,52.107563,4.9515862,8.374857,-6.961775,-10.404533
45,0.3455582857131958,3.1813271045684814,78.18194580078125,-1.1179152173119458,-0.5364950554139394,-89.09772290837479,1.219277,5.592173,-11.498995,8.61163,-12.804241,-7.19886,3.5828767,-2.8376982,-5.416088,7.9300575,-9.493838,3.6926541,-2.6596186,-0.61629695,5.9861836,10.906432,17.32345,-10.599693,52.183273,14.705654,2.9808965,-3.9496765,-110.98188,-62.22014,52.288242,1.9887501,8.581094,-7.4151654,-10.767784
46,0.32531076669692993,3.127725839614868,78.17882537841797,-1.0670857852233204,-0.5258746769393741,-88.48758403674009,1.1867858,5.4481134,-12.086386,8.435422,-12.664366,-7.2162952,3.7802215,-2.971113,-6.009964,7.9210725,-9.626118,3.7184303,-2.769276,-0.8162982,5.867782,10.892709,17.430956,-10.427466,52.10879,14.595806,2.9308467,-3.900603,-113.18903,-63.97926,52.330853,-0.6153128,8.729964,-7.7519474,-11.02788
47,0.30293577909469604,3.065416097640991,78.17164611816406,-1.0244443272948291,-0.530769180966773,-87.90728171252555,1.1093603,5.3028717,-12.651522,8.415792,-12.615512,-7.234018,3.9882147,-3.088738,-6.5773644,7.916515,-9.759006,3.7412555,-2.8627708,-1.035244,5.760614,10.889655,17.561876,-10.299661,52.042114,14.493655,2.8806524,-3.856942,-115.21757,-65.64388,52.296463,-2.9228802,8.797837,-8.018022,-11.2316475
48,0.28051748871803284,3.002985954284668,78.16283416748047,-0.9861598730954765,-0.5523568976908413,-87.37111647309035,1.0602821,5.1723614,-13.1724,8.4014015,-12.578905,-7.2526174,4.206191,-3.1909363,-7.104832,7.908421,-9.885222,3.7611084,-2.9435232,-1.2688932,5.6674705,10.9053755,17.706491,-10.192692,51.984886,14.416658,2.8426948,-3.8334572,-117.04792,-67.22399,52.262028,-5.0077186,8.761123,-8.255653,-11.426097
49,0.261269211769104,2.942427635192871,78.15523529052734,-0.9533473687256746,-0.5942720035159229,-86.88256245351495,1.042396,5.0577583,-13.645864,8.399693,-12.560755,-7.272592,4.437086,-3.2766488,-7.59012,7.8998947,-10.0069685,3.7787614,-3.0062673,-1.5140905,5.5909967,10.936384,17.858515,-10.113322,51.940765,14.381457,2.8182263,-3.8365273,-118.69221,-68.72509,52.24703,-6.814246,8.571956,-8.448512,-11.619785
50,0.2378424108028412,2.8820979595184326,78.14525604248047,-0.925638495944232,-0.6548865145236661,-86.4346147557751,1.0535799,4.956107,-14.079121,8.406905,-12.557503,-7.2933655,4.6806617,-3.34927,-8.039178,7.8920302,-10.125922,3.794339,-3.0450861,-1.769697,5.5274158,10.970969,18.015696,-10.077616,51.91825,14.375587,2.8014538,-3.855978,-120.15161,-70.1431,52.209377,-8.320702,8.258429,-8.581962,-11.793462
51,0.21271507441997528,2.822118043899536,78.13623809814453,-0.9001730430789385,-0.7267081371592997,-86.02412955092252,1.084536,4.8669443,-14.474946,8.417233,-12.562863,-7.3137918,4.927536,-3.4096782,-8.45229,7.8813534,-10.238822,3.8056018,-3.0686634,-2.0299654,5.4715734,11.009282,18.174728,-10.070333,51.921894,14.374064,2.7942736,-3.8811936,-121.42441,-71.48067,52.154297,-9.636391,7.930207,-8.701345,-11.94624
52,0.18995316326618195,2.7653651237487793,78.12836456298828,-0.8810946386657577,-0.8018355449246041,-85.6486686606711,1.1241171,4.7896075,-14.836461,8.429585,-12.573273,-7.3327284,5.1660624,-3.4588592,-8.829538,7.8705997,-10.34645,3.8102055,-3.0796957,-2.285342,5.4194617,11.045421,18.32997,-10.083018,51.9593,14.351485,2.798403,-3.9016945,-122.4872,-72.74348,52.078465,-10.879219,7.6831384,-8.852279,-12.079377
53,0.1642911732196808,2.715069532394409,78.12049102783203,-0.8663050167740464,-0.878526504751809,-85.30607903033489,1.1654073,4.7245116,-15.165582,8.450421,-12.591477,-7.3492517,5.3897576,-3.496273,-9.170818,7.8672123,-10.4531,3.8034666,-3.083985,-2.5379574,5.370976,11.073493,18.482199,-10.11882,52.040173,14.300629,2.818915,-3.9116752,-123.37697,-73.93992,52.018726,-12.030252,7.5825896,-9.061955,-12.203751
54,0.13985949754714966,2.6683437824249268,78.1130599975586,-0.8567804245486006,-0.9606478087377094,-84.99840125842067,1.2164482,4.6723576,-15.460401,8.476077,-12.617041,-7.3641706,5.6074123,-3.5216324,-9.476145,7.8641205,-10.555306,3.787775,-3.0703108,-2.786683,5.328956,11.089506,18.63085,-10.189889,52.163185,14.234423,2.8533483,-3.9179099,-124.0811,-75.07224,51.960884,-13.043284,7.5590878,-9.301106,-12.317297
55,0.11547565460205078,2.621555805206299,78.1049575805664,-0.8494803446826741,-1.0491799352696438,-84.72829933574677,1.2825598,4.6314898,-15.718237,8.500852,-12.647306,-7.378896,5.8226027,-3.5379982,-9.745177,7.857142,-10.649977,3.7716823,-3.0395923,-3.0305793,5.292211,11.112021,18.770761,-10.271194,52.308,14.164041,2.892365,-3.925155,-124.62924,-76.143616,51.890965,-13.966223,7.5883627,-9.531054,-12.388868
56,0.09454437345266342,2.5720698833465576,78.09730529785156,-0.8444781143126292,-1.1449938975327254,-84.49887583288518,1.3634223,4.5982566,-15.936911,8.53142,-12.685509,-7.394763,6.0391684,-3.5485656,-9.977673,7.841574,-10.732904,3.763734,-2.9476879,-3.2450953,5.265629,11.1175585,18.887535,-10.387651,52.47728,14.096237,2.9260015,-3.9413233,-124.74648,-77.14138,51.621353,-14.927707,7.466346,-9.713159,-12.407521
57,0.07698962092399597,2.5264501571655273,78.08871459960938,-0.8392281426632072,-1.2530805285829616,-84.30933152051445,1.4677252,4.5727367,-16.116596,8.56244,-12.729503,-7.4132333,6.268795,-3.5537953,-10.176361,7.806935,-10.799653,3.7696397,-2.8620944,-3.4643886,5.2430587,11.169981,18.984137,-10.45546,52.64108,14.045317,2.9553509,-3.9620063,-124.690025,-78.08241,51.271305,-15.854594,7.3819504,-9.833351,-12.30585
58,0.05601847171783447,2.4837684631347656,78.07804870605469,-0.8359470689042903,-1.3714081137132634,-84.1586642248088,1.5921068,4.556181,-16.25821,8.594178,-12.77922,-7.433144,6.504577,-3.5526376,-10.340316,7.761008,-10.854455,3.7836509,-2.7579002,-3.6768224,5.228251,11.237684,19.060966,-10.514694,52.819405,14.002407,2.9841487,-3.9861221,-124.41577,-78.967636,50.847416,-16.733353,7.3128304,-9.9139595,-12.120243
59,0.03792757913470268,2.442837953567505,78.06828308105469,-0.8347546722794021,-1.4893391474045914,-84.04926982882016,1.7246337,4.5494976,-16.360018,8.624246,-12.832316,-7.452167,6.726027,-3.54547,-10.463978,7.7185326,-10.9032545,3.7970574,-2.6290443,-3.8749518,5.219047,11.310095,19.118687,-10.578785,53.00831,13.964567,3.0102694,-4.0093193,-123.96347,-79.795746,50.341457,-17.574724,7.271727,-9.96884,-11.913556
60,0.023173829540610313,2.404749870300293,78.05721282958984,-0.8363029164340412,-1.5964582622237102,-83.98344325757847,1.8518022,4.5533323,-16.420542,8.654236,-12.888875,-7.46795,6.911453,-3.532683,-10.541725,7.695094,-10.951382,3.8012004,-2.4687138,-4.0503964,5.213705,11.37587,19.158106,-10.661822,53.204674,13.928665,3.0313947,-4.027132,-123.35624,-80.56154,49.735504,-18.39182,7.260638,-10.01186,-11.749624
61,0.012616034597158432,2.3720943927764893,78.04798126220703,-0.8442480891108493,-1.689345196968026,-83.96702932442606,1.9743664,4.5711746,-16.433828,8.676459,-12.946165,-7.480691,7.0539775,-3.512334,-10.566768,7.6929526,-10.9988575,3.7918558,-2.2741055,-4.2008605,5.210273,11.437242,19.178415,-10.759364,53.407104,13.8931675,3.0453532,-4.033607,-122.593704,-81.26091,49.031723,-19.178871,7.2853355,-10.029571,-11.640086
62,0.002578332554548979,2.343918800354004,78.03910064697266,-0.8554054703514589,-1.7738667258734395,-83.99702733098849,2.0942578,4.6006355,-16.402979,8.700929,-13.009217,-7.491398,7.166147,-3.4848485,-10.543914,7.703672,-11.043074,3.7742145,-2.0476747,-4.3284693,5.210411,11.497646,19.178555,-10.868443,53.61772,13.859772,3.053716,-4.0333333,-121.66235,-81.89047,48.237797,-19.927528,7.3385906,-10.02007,-11.553674
63,-0.005228839814662933,2.317143440246582,78.0317153930664,-0.8684116686139964,-1.8530729911047776,-84.06233901551686,2.211641,4.6360617,-16.338459,8.73065,-13.076787,-7.498838,7.253878,-3.4549985,-10.4847765,7.728842,-11.086124,3.7537436,-1.800201,-4.437116,5.216083,11.555124,19.161367,-10.996437,53.83485,13.829789,3.0602267,-4.036611,-120.60461,-82.44682,47.36414,-20.641363,7.427436,-10.014064,-11.484807
64,-0.009794274345040321,2.290207862854004,78.02586364746094,-0.8792075409830677,-1.9304090886180354,-84.15178070735392,2.3336267,4.673209,-16.250086,8.754254,-13.140398,-7.5016756,7.323816,-3.4277878,-10.400945,7.7692,-11.129866,3.7359934,-1.543396,-4.5321903,5.228886,11.609722,19.131594,-11.149358,54.055523,13.803842,3.0685565,-4.0544415,-119.47411,-82.92756,46.429226,-21.31981,7.5626683,-10.04227,-11.427885
65,-0.00824934896081686,2.2685317993164062,78.01973724365234,-0.8896860898278405,-2.0086587117051526,-84.27363547081117,2.464008,4.7118154,-16.13044,8.775354,-13.201932,-7.498177,7.3751984,-3.4042633,-10.284416,7.829698,-11.175524,3.721465,-1.2667549,-4.6123943,5.253337,11.663476,19.089422,-11.330208,54.275715,13.779147,3.0817904,-4.094778,-118.275276,-83.32838,45.439606,-21.953653,7.779071,-10.129056,-11.388753
66,-0.008779183961451054,2.248387336730957,78.01494598388672,-0.9001844665866757,-2.085014062303595,-84.42958726856872,2.5549314,4.744953,-15.9822235,8.891392,-13.313778,-7.48967,7.4051642,-3.3778045,-10.133517,7.90737,-11.221223,3.7070465,-0.96943164,-4.671623,5.2862744,11.717795,19.033484,-11.534931,54.496174,13.755741,3.0971751,-4.1509657,-117.00246,-83.646866,44.405273,-22.540428,8.059843,-10.25266,-11.368235
67,-0.006923888809978962,2.2313666343688965,78.01000213623047,-0.9123249860734789,-2.155189960672842,-84.60010492663535,2.6502478,4.782018,-15.818386,8.985634,-13.41329,-7.479062,7.419584,-3.3520188,-9.967376,7.9903927,-11.264215,3.6942484,-0.6752214,-4.717337,5.319619,11.769798,18.967705,-11.761618,54.722095,13.737102,3.1096163,-4.212308,-115.699135,-83.88714,43.353756,-23.095264,8.3421955,-10.374076,-11.353754
68,-0.006566430442035198,2.220587968826294,78.00587463378906,-0.922574686260313,-2.214282172724119,-84.76512054107286,2.7369225,4.8200345,-15.657784,9.062963,-13.501146,-7.4694877,7.4244995,-3.3259454,-9.806092,8.0639925,-11.299599,3.6838906,-0.40676495,-4.754336,5.344856,11.817453,18.8984,-12.00931,54.95658,13.726561,3.1140347,-4.269103,-114.420525,-84.05876,42.323326,-23.62985,8.567039,-10.454726,-11.334032
69,-0.005963572766631842,2.212489366531372,78.00129699707031,-0.9356230541753682,-2.2604492624992627,-84.92611965659864,2.8121626,4.860536,-15.497666,9.125965,-13.580569,-7.461218,7.416442,-3.2980611,-9.647389,8.1298485,-11.327761,3.6765788,-0.1562772,-4.7800155,5.3595967,11.8538885,18.829412,-12.298705,55.208862,13.722487,3.1039784,-4.3214717,-113.16486,-84.16608,41.32574,-24.152168,8.724363,-10.482453,-11.306018
70,-0.0027047612238675356,2.203796148300171,77.99738311767578,-0.9485485178209053,-2.29656466971123,-85.09140627159947,2.8794312,4.903513,-15.33095,9.177849,-13.653111,-7.452839,7.395664,-3.2687163,-9.483342,8.189953,-11.348538,3.67167,0.08721259,-4.7941985,5.368606,11.881847,18.760443,-12.626589,55.473522,13.722621,3.0836632,-4.374998,-111.928535,-84.21224,40.361515,-24.655163,8.846692,-10.47872,-11.277586
71,0.00200582854449749,2.1994636058807373,77.99346923828125,-0.9592281905100458,-2.3246545814946944,-85.25148800481159,2.93976,4.944755,-15.169093,9.218006,-13.715282,-7.4446054,7.367133,-3.241629,-9.3247385,8.245366,-11.364863,3.6683013,0.31020683,-4.8034277,5.375399,11.908086,18.690903,-12.961887,55.73397,13.727924,3.0643952,-4.4280486,-110.75369,-84.20778,39.44626,-25.134216,8.934084,-10.455131,-11.256231
72,0.004075250588357449,2.192591667175293,77.9919204711914,-0.9677955384954251,-2.3468723254110015,-85.39673046593371,2.9921448,4.9796386,-15.023913,9.247909,-13.763677,-7.4369025,7.3365235,-3.2199495,-9.182585,8.295284,-11.378432,3.6654894,0.4998306,-4.813743,5.383571,11.939392,18.619902,-13.272948,55.973656,13.740354,3.0573258,-4.479003,-109.69462,-84.16798,38.603996,-25.57833,8.9932165,-10.423329,-11.249564
73,0.010208436287939548,2.190380811691284,77.99003601074219,-0.9716682544170684,-2.3640371018713235,-85.52757134049338,3.039346,5.0073094,-14.896263,9.264091,-13.795083,-7.4302063,7.30562,-3.205065,-9.057428,8.338179,-11.3890705,3.6632385,0.65981793,-4.826178,5.3977833,11.971548,18.547302,-13.5652275,56.1911,13.7536,3.0667505,-4.5261235,-108.75821,-84.102806,37.842567,-25.9927,9.007077,-10.376549,-11.269895
74,0.011422594077885151,2.190897226333618,77.98918151855469,-0.9711303987989116,-2.374904721019082,-85.64826052430651,3.0796332,5.0295806,-14.780679,9.268987,-13.81275,-7.424196,7.2698174,-3.1954477,-8.944151,8.377484,-11.397149,3.6619792,0.799391,-4.8379197,5.415682,11.998448,18.473753,-13.855191,56.39724,13.76925,3.086358,-4.570209,-107.925285,-84.01645,37.156296,-26.383707,8.983679,-10.312106,-11.311073
75,0.013636057265102863,2.1916186809539795,77.9900131225586,-0.9711049977123439,-2.3784850380957363,-85.75443161518604,3.1094322,5.04784,-14.679336,9.267298,-13.821928,-7.417894,7.232036,-3.1886525,-8.845382,8.407743,-11.400183,3.6613429,0.91885024,-4.8470516,5.4316387,12.018449,18.399485,-14.133866,56.59612,13.800403,3.1114895,-4.6139627,-107.191666,-83.91399,36.54145,-26.75392,8.954022,-10.248058,-11.355679
76,0.01387899648398161,2.1971936225891113,77.99066162109375,-0.9705323912926073,-2.3737820015661284,-85.84207125577137,3.1242363,5.063172,-14.594588,9.264305,-13.827529,-7.4104323,7.1930723,-3.1823854,-8.763794,8.4272375,-11.397055,3.6609325,1.0129644,-4.854075,5.4393106,12.033899,18.325262,-14.386464,56.790276,13.860363,3.1376295,-4.6592717,-106.5778,-83.803215,36.004776,-27.095715,8.965975,-10.202587,-11.383391
77,0.015466082841157913,2.2029714584350586,77.9913101196289,-0.9718925936458468,-2.357870716763435,-85.90940606955542,3.118898,5.0759177,-14.527195,9.263373,-13.832006,-7.3992248,7.149763,-3.176041,-8.700648,8.436106,-11.387595,3.6605356,1.0881331,-4.8565583,5.437567,12.037545,18.25335,-14.625859,56.986332,13.96971,3.1653197,-4.7110715,-106.09223,-83.69157,35.555656,-27.41521,9.0471115,-10.192447,-11.402379
78,0.019498679786920547,2.2086105346679688,77.99413299560547,-0.9746624200460184,-2.3320208729320027,-85.95897910311524,3.0957322,5.0854673,-14.476184,9.263286,-13.833213,-7.3856564,7.1034474,-3.1704533,-8.6544075,8.433002,-11.371042,3.660339,1.142632,-4.8563275,5.4287076,12.029503,18.181004,-14.852993,57.18402,14.11618,3.1966186,-4.765027,-105.705734,-83.577896,35.166637,-27.716812,9.170968,-10.203846,-11.416446
79,0.024388454854488373,2.2154762744903564,77.99567413330078,-0.9762323782406035,-2.3020258042477297,-85.99246077429069,3.066625,5.0915236,-14.440049,9.25496,-13.8270235,-7.3741536,7.0578732,-3.167656,-8.623146,8.424899,-11.352365,3.6607635,1.1777657,-4.856454,5.4170704,12.016815,18.109215,-15.051455,57.37022,14.261431,3.2284496,-4.815718,-105.409805,-83.46626,34.840218,-27.996208,9.288121,-10.210421,-11.410974
80,0.030060263350605965,2.2235610485076904,77.99675750732422,-0.9768084410655915,-2.273690817647796,-86.01138776363291,3.0377223,5.093342,-14.417965,9.240971,-13.814797,-7.369438,7.0174656,-3.1683571,-8.605117,8.415968,-11.334103,3.6619925,1.2068872,-4.857176,5.4109306,12.007558,18.04953,-15.213922,57.520348,14.36504,3.2571015,-4.864222,-105.22682,-83.37788,34.61168,-28.23965,9.354956,-10.186585,-11.380098
81,0.0360129289329052,2.2318859100341797,77.99774169921875,-0.976960993730385,-2.2472796053190236,-86.01462969488622,3.0118527,5.090266,-14.410906,9.215817,-13.793355,-7.374401,6.9835324,-3.1734684,-8.601313,8.405235,-11.315742,3.6643083,1.2025392,-4.8615665,5.4011483,11.995984,17.972975,-15.3132305,57.662167,14.413725,3.2861285,-4.8944607,-105.0618,-83.273705,34.38098,-28.463703,9.333505,-10.116838,-11.283352
82,0.04225385934114456,2.2415266036987305,77.99989318847656,-0.974979992153101,-2.220505335375218,-86.00182560853335,2.9845972,5.082971,-14.418952,9.181788,-13.763938,-7.38603,6.9540405,-3.1821306,-8.612215,8.390737,-11.295917,3.6674485,1.1835182,-4.8669786,5.3948555,11.985466,17.901937,-15.369685,57.77596,14.428558,3.3144782,-4.9225316,-104.985435,-83.18351,34.216286,-28.660728,9.265552,-10.019398,-11.150739
83,0.0496848002076149,2.2496092319488525,78.00324249267578,-0.9728118608677832,-2.193729632832856,-85.97600706035202,2.9567797,5.072713,-14.439547,9.141565,-13.729049,-7.399971,6.9283366,-3.1933134,-8.635188,8.374918,-11.277142,3.6711159,1.1618344,-4.876737,5.392062,11.978114,17.851116,-15.406271,57.855667,14.428337,3.3385954,-4.948683,-104.99703,-83.12592,34.12392,-28.831528,9.18451,-9.912416,-11.018067
84,0.056967541575431824,2.2610533237457275,78.00482940673828,-0.9706360009178181,-2.1675238297595496,-85.9405583234153,2.926358,5.060446,-14.470132,9.104908,-13.695149,-7.4116855,6.907028,-3.2054858,-8.667685,8.357302,-11.260205,3.6750343,1.1327063,-4.8844886,5.3858476,11.961055,17.798336,-15.434814,57.9286,14.439994,3.3559618,-4.9596334,-105.00865,-83.07008,34.047558,-28.99184,9.077344,-9.811934,-10.913179
85,0.06635245680809021,2.2672393321990967,78.00852966308594,-0.9684581665338242,-2.141579456349717,-85.89191443692383,2.8936765,5.046075,-14.513791,9.068587,-13.660674,-7.421111,6.8925476,-3.2182946,-8.71336,8.334559,-11.245322,3.6787162,1.0820999,-4.8946695,5.374921,11.944612,17.74494,-15.441327,57.988895,14.470872,3.3640163,-4.952315,-105.05389,-83.017746,34.00021,-29.1309,8.930715,-9.710953,-10.836231
86,0.07285249978303909,2.2766640186309814,78.00949096679688,-0.9666865116152322,-2.1156714177455935,-85.82980389455847,2.8586555,5.029187,-14.570684,9.031326,-13.624274,-7.430308,6.883368,-3.2326806,-8.772095,8.308469,-11.231988,3.6824596,1.0173612,-4.905957,5.362528,11.928222,17.69639,-15.426325,58.02984,14.507212,3.3647485,-4.9327817,-105.13875,-82.97464,33.990265,-29.247238,8.741561,-9.604351,-10.775557
87,0.07689481973648071,2.285640239715576,78.01241302490234,-0.9647329486531926,-2.0910392002043743,-85.76247217422504,2.8235366,5.0105004,-14.633213,8.994654,-13.586994,-7.4378777,6.876746,-3.248255,-8.835605,8.283227,-11.219803,3.6870682,0.9575848,-4.9220243,5.3507705,11.913004,17.668566,-15.409649,58.04069,14.538909,3.3627026,-4.910538,-105.23492,-82.95267,33.996822,-29.355814,8.587614,-9.512385,-10.73509
88,0.08351016044616699,2.2928316593170166,78.01478576660156,-0.9615599972189248,-2.06853551176455,-85.6973315940876,2.7894914,4.991114,-14.694892,8.962296,-13.551234,-7.442416,6.8719726,-3.2642994,-8.89677,8.258279,-11.205732,3.693543,0.897871,-4.9312973,5.339388,11.877053,17.629343,-15.386119,58.055763,14.575019,3.3596327,-4.88028,-105.35598,-82.91972,34.037193,-29.450172,8.534395,-9.453883,-10.714574
89,0.08982754498720169,2.3001677989959717,78.0181884765625,-0.9567904265571161,-2.047736902221017,-85.63406819538778,2.7560189,4.9700127,-14.755868,8.934366,-13.516543,-7.4420986,6.8678412,-3.2819107,-8.955475,8.235784,-11.189697,3.7024827,0.85442287,-4.951524,5.3237777,11.842511,17.621391,-15.379144,58.038532,14.595098,3.3611205,-4.853987,-105.42559,-82.91185,34.045395,-29.554459,8.649801,-9.454042,-10.7331
90,0.09420423209667206,2.3081493377685547,78.02008056640625,-0.9506384615272383,-2.0286761215902467,-85.56880534276041,2.7247524,4.9475217,-14.819504,8.905993,-13.480456,-7.4381175,6.8682714,-3.300574,-9.015841,8.209467,-11.169909,3.7134273,0.80967426,-4.969866,5.3128114,11.78964,17.614054,-15.362587,58.014874,14.618221,3.3615928,-4.822978,-105.500404,-82.90255,34.06921,-29.64986,8.865624,-9.494938,-10.782891
91,0.099311463534832,2.315002679824829,78.02298736572266,-0.9453104462830761,-2.012184337732669,-85.50692884963496,2.691951,4.9242287,-14.881071,8.887823,-13.449689,-7.4336686,6.8635626,-3.3201334,-9.072319,8.1979065,-11.157907,3.7250376,0.7683729,-4.985904,5.3008237,11.733521,17.60792,-15.339506,57.976444,14.641762,3.3594422,-4.7855215,-105.59021,-82.88964,34.108624,-29.73642,9.105471,-9.534659,-10.826962
92,0.10497613251209259,2.321582317352295,78.02366638183594,-0.9391802523830068,-1.999433660332285,-85.45247114273054,2.6638,4.90304,-14.936031,8.872378,-13.421982,-7.4319525,6.862071,-3.3369088,-9.121605,8.184063,-11.146356,3.735846,0.73625404,-4.9926376,5.296853,11.680003,17.60346,-15.310397,57.912884,14.667854,3.3501518,-4.742236,-105.73887,-82.862305,34.18979,-29.79629,9.27671,-9.530889,-10.829685
93,0.10986393690109253,2.332200288772583,78.02265167236328,-0.9340785001173693,-1.9908694958605273,-85.40697202095916,2.6419072,4.883758,-14.983171,8.857696,-13.396738,-7.4341903,6.859193,-3.3523464,-9.161179,8.177868,-11.141219,3.7460756,0.72699,-4.9976907,5.292862,11.615084,17.60487,-15.29733,57.84333,14.688773,3.3322294,-4.6781573,-105.83734,-82.84671,34.21839,-29.868351,9.343763,-9.458377,-10.760822
94,0.11218521744012833,2.342283010482788,78.02360534667969,-0.9290663615374504,-1.9858829365248907,-85.36804693736879,2.6230218,4.865265,-15.024863,8.848258,-13.3752165,-7.4385843,6.85693,-3.3666215,-9.1935835,8.174628,-11.138776,3.7562184,0.72435236,-5.0014167,5.2888703,11.54687,17.610262,-15.280801,57.76089,14.709467,3.3074367,-4.5989327,-105.93778,-82.82733,34.23757,-29.933527,9.365617,-9.343631,-10.644949
95,0.11576040089130402,2.3490092754364014,78.0260009765625,-0.923813801935173,-1.983721751167639,-85.33436046105636,2.6059842,4.848589,-15.061647,8.843556,-13.35738,-7.4435797,6.853871,-3.379244,-9.221717,8.176519,-11.139711,3.7657137,0.7206656,-5.000645,5.2943482,11.495107,17.62738,-15.245883,57.637573,14.728971,3.279969,-4.531703,-106.078896,-82.77793,34.28352,-29.96839,9.360292,-9.222729,-10.522725
96,0.11946374177932739,2.3577687740325928,78.02720642089844,-0.9207183261640716,-1.9832572005018565,-85.3069060485966,2.5904014,4.8347034,-15.092079,8.843086,-13.343336,-7.4474144,6.849863,-3.389579,-9.246396,8.180521,-11.140518,3.774061,0.72682667,-4.996437,5.299309,11.434899,17.647356,-15.20895,57.510777,14.743363,3.2589138,-4.4829926,-106.200554,-82.72675,34.30732,-30.003042,9.382506,-9.128432,-10.431193
97,0.12064936012029648,2.3688056468963623,78.02754974365234,-0.9205625697162615,-1.984536886640418,-85.2856443723873,2.575859,4.8252435,-15.115754,8.847821,-13.3340845,-7.45037,6.8445864,-3.3962839,-9.268791,8.186859,-11.142454,3.7820976,0.7272629,-4.990348,5.3064394,11.393084,17.682467,-15.14657,57.347507,14.750232,3.2458704,-4.471378,-106.32964,-82.638275,34.326286,-30.014063,9.433024,-9.072489,-10.376239
98,0.12292131781578064,2.3792474269866943,78.0293960571289,-0.9214504313825582,-1.9879045064160057,-85.27086804841872,2.5632284,4.819059,-15.133004,8.856525,-13.328609,-7.452961,6.8393683,-3.400055,-9.287732,8.193735,-11.144571,3.789886,0.74534386,-4.9780626,5.3166614,11.329148,17.712852,-15.086556,57.188362,14.755016,3.2384984,-4.475148,-106.43885,-82.56689,34.322063,-30.03373,9.506837,-9.037331,-10.343367
99,0.12312979996204376,2.3898122310638428,78.02975463867188,-0.9224840099083695,-1.9934763290074995,-85.26089494361372,2.5514085,4.8139515,-15.145377,8.870663,-13.326842,-7.4544415,6.8324265,-3.403229,-9.302395,8.206521,-11.148269,3.7953408,0.7639696,-4.9643784,5.331312,11.273914,17.752316,-15.015205,57.008575,14.759404,3.2311606,-4.4875026,-106.52953,-82.47583,34.296017,-30.045017,9.571725,-9.009048,-10.325121
100,0.1275959610939026,2.400470495223999,78.0298080444336,-0.9234231395286293,-2.001077403664435,-85.25454591284591,2.5444672,4.8089156,-15.153707,8.880421,-13.322967,-7.4539223,6.826674,-3.407527,-9.312112,8.219546,-11.14862,3.7965362,0.7757067,-4.9532456,5.349641,11.230028,17.797028,-14.931089,56.816936,14.76875,3.219734,-4.490944,-106.62354,-82.37071,34.25489,-30.041622,9.633151,-8.9749365,-10.312585
101,0.13012489676475525,2.41219425201416,78.02994537353516,-0.9219454214092019,-2.012329158574009,-85.25343411005137,2.5364368,4.8007135,-15.156455,8.902279,-13.325384,-7.450118,6.8102517,-3.4164379,-9.313947,8.261291,-11.159452,3.7913034,0.79199725,-4.940661,5.3750396,11.185304,17.841822,-14.845009,56.6216,14.79101,3.2024908,-4.4798455,-106.710495,-82.25982,34.19965,-30.033659,9.663855,-8.930757,-10.317607
102,0.13154195249080658,2.4244563579559326,78.02857971191406,-0.9195374039190849,-2.0267225381037504,-85.25756675619188,2.533314,4.792805,-15.15331,8.923451,-13.328011,-7.4438787,6.795334,-3.426289,-9.309795,8.305085,-11.167681,3.7812579,0.82465637,-4.9219146,5.4076734,11.124501,17.882463,-14.767623,56.432285,14.822066,3.1822493,-4.4605913,-106.76773,-82.15435,34.124718,-30.032442,9.664892,-8.88433,-10.344868
103,0.13164469599723816,2.4395811557769775,78.02861022949219,-0.9171928063994151,-2.0413282753757165,-85.26322515240507,2.5323026,4.7861943,-15.148739,8.940503,-13.328749,-7.437287,6.7826385,-3.434943,-9.303661,8.342617,-11.17141,3.7700598,0.85986197,-4.9020357,5.4420385,11.056846,17.919205,-14.688015,56.249813,14.850905,3.1615682,-4.435881,-106.83458,-82.063866,34.045235,-30.027288,9.702028,-8.840555,-10.373229
104,0.13666951656341553,2.452134609222412,78.02918243408203,-0.9168137691046025,-2.053059126645358,-85.26651378684457,2.5228686,4.7798867,-15.147933,8.965744,-13.333725,-7.4323974,6.7635098,-3.4418073,-9.299021,8.386379,-11.180851,3.7614307,0.8846169,-4.883657,5.4741793,10.998636,17.958689,-14.596072,56.064064,14.863112,3.1419313,-4.413396,-106.8988,-81.96996,33.952595,-30.01019,9.797442,-8.803734,-10.384668
105,0.13814964890480042,2.4661643505096436,78.02871704101562,-0.9192560690229763,-2.0620297732341206,-85.26807289224351,2.5119035,4.777326,-15.1501665,8.985547,-13.337339,-7.429923,6.748427,-3.4429348,-9.295346,8.4130945,-11.183805,3.7555077,0.90983826,-4.86145,5.504541,10.941237,17.997993,-14.496507,55.879017,14.846479,3.1236544,-4.3942413,-106.92022,-81.87004,33.837185,-29.987904,9.95683,-8.790407,-10.384968
106,0.14038556814193726,2.479342460632324,78.02960968017578,-0.9238473916515523,-2.0693490975958744,-85.2694616936089,2.4982827,4.7766943,-15.153545,9.0058365,-13.34226,-7.428652,6.7317767,-3.4412317,-9.290862,8.437372,-11.18671,3.7506719,0.92229354,-4.84178,5.532572,10.894184,18.037216,-14.376234,55.689713,14.8123455,3.1060202,-4.3739505,-106.96143,-81.77006,33.71679,-29.946106,10.200222,-8.792609,-10.372123
107,0.14066459238529205,2.495551586151123,78.02959442138672,-0.928233040444732,-2.074501165069551,-85.2679721012779,2.4811997,4.7759657,-15.160019,9.02577,-13.345459,-7.427973,6.715053,-3.4391763,-9.289537,8.457099,-11.18772,3.7475734,0.9329534,-4.8195972,5.560863,10.844436,18.076086,-14.2624445,55.50742,14.778203,3.0887103,-4.3540206,-106.98571,-81.667595,33.584015,-29.907461,10.433677,-8.779704,-10.349015
108,0.14259542524814606,2.510504722595215,78.03125,-0.9317388348435588,-2.076736794242993,-85.26086760253091,2.4575503,4.772296,-15.17134,9.049412,-13.34659,-7.427139,6.6993027,-3.4394364,-9.295317,8.470199,-11.185101,3.7469609,0.94125146,-4.7950625,5.589577,10.786678,18.114542,-14.171732,55.340958,14.761901,3.0717726,-4.3338614,-106.991585,-81.56511,33.435955,-29.885593,10.596765,-8.720779,-10.311544
109,0.14376063644886017,2.5275959968566895,78.03324890136719,-0.9324212245948801,-2.075031717700656,-85.24630311431154,2.427452,4.764468,-15.189116,9.073803,-13.342262,-7.425334,6.684289,-3.443833,-9.311381,8.476957,-11.179151,3.7506952,0.94118124,-4.7717834,5.6177006,10.722039,18.151817,-14.102322,55.19063,14.777851,3.054756,-4.3089085,-107.02155,-81.47765,33.299786,-29.86773,10.681021,-8.62239,-10.266274
110,0.14298459887504578,2.546414852142334,78.033203125,-0.9330404838388437,-2.0699819607983696,-85.22604529076949,2.3916736,4.754127,-15.21201,9.099449,-13.3346405,-7.423197,6.6700344,-3.4506805,-9.334938,8.477642,-11.170501,3.7578542,0.9345805,-4.749282,5.6460986,10.659202,18.195312,-14.047108,55.0432,14.810184,3.0372796,-4.2844305,-107.011734,-81.381294,33.13605,-29.859243,10.686107,-8.49567,-10.213559
111,0.14307622611522675,2.5619378089904785,78.03494262695312,-0.932689012482967,-2.0633921132355852,-85.20312544939303,2.3528945,4.743477,-15.237126,9.125199,-13.325799,-7.422028,6.6541934,-3.4575832,-9.360758,8.477621,-11.16104,3.7648184,0.91958183,-4.7278614,5.674146,10.599068,18.24153,-13.999643,54.904785,14.841589,3.0212853,-4.263622,-107.018715,-81.28366,32.958214,-29.860613,10.703389,-8.317608,-10.12896
112,0.14683431386947632,2.5764167308807373,78.03527069091797,-0.9339362619163338,-2.057475708937715,-85.18061544975725,2.314715,4.7357044,-15.261613,9.148639,-13.317808,-7.423126,6.6389723,-3.4608214,-9.38406,8.474885,-11.149568,3.7678442,0.9173619,-4.6969686,5.705364,10.524061,18.28554,-13.978049,54.789772,14.851852,3.0079293,-4.2528567,-106.99381,-81.1793,32.742516,-29.898333,10.748415,-8.065597,-10.002187
113,0.14696483314037323,2.5947117805480957,78.0361557006836,-0.9400646836926869,-2.05337368953403,-85.15436878913552,2.2783387,4.731667,-15.288666,9.168782,-13.311603,-7.4277954,6.625756,-3.4591699,-9.40774,8.4721,-11.139314,3.7631907,0.913963,-4.6593633,5.7400436,10.435556,18.321815,-13.970108,54.702297,14.8310995,2.9993865,-4.252995,-106.9979,-81.09244,32.54786,-29.961681,10.801283,-7.77275,-9.871141
114,0.14715635776519775,2.6156198978424072,78.03682708740234,-0.9478417653512854,-2.0497708898958353,-85.12448078279978,2.2414527,4.7297683,-15.318715,9.187221,-13.306024,-7.4350967,6.6133633,-3.4545262,-9.433077,8.468185,-11.128896,3.7537155,0.8904566,-4.6257668,5.7745996,10.362951,18.367418,-13.958096,54.61492,14.787155,2.9939265,-4.264807,-106.95013,-80.980156,32.295353,-30.051441,10.825405,-7.4365115,-9.720261
115,0.15029799938201904,2.63454008102417,78.03825378417969,-0.9551139235394815,-2.0445241943470696,-85.10012941119506,2.2042124,4.7287364,-15.343664,9.203836,-13.299625,-7.4425817,6.5959754,-3.4497223,-9.452064,8.465993,-11.116706,3.7458532,0.8918529,-4.5807395,5.8106565,10.270075,18.40785,-13.9803915,54.554104,14.743486,2.9887786,-4.2799683,-106.88406,-80.851746,31.982725,-30.173964,10.948512,-6.984733,-9.477175
116,0.15260377526283264,2.65317964553833,78.0413818359375,-0.9611524856619641,-2.035185834544808,-85.09087964455576,2.166992,4.727833,-15.3554325,9.217863,-13.290543,-7.4477925,6.568213,-3.4466984,-9.456927,8.468013,-11.101547,3.7458808,0.94367236,-4.5185013,5.8458424,10.143609,18.43968,-14.057143,54.530254,14.720114,2.980995,-4.291255,-106.73307,-80.67699,31.515362,-30.353174,11.262219,-6.341879,-9.059766
117,0.15755367279052734,2.6729063987731934,78.04442596435547,-0.9620669791587821,-2.0178663223954607,-85.09317783084725,2.1247804,4.72351,-15.358301,9.227224,-13.275229,-7.4507055,6.5267754,-3.4491446,-9.450814,8.4724865,-11.080629,3.7604718,0.99916303,-4.45421,5.872587,10.022283,18.463282,-14.1353,54.51673,14.740481,2.976395,-4.299927,-106.5864,-80.45871,30.91045,-30.605192,11.804709,-5.418889,-8.38817
118,0.1599755883216858,2.6921370029449463,78.04629516601562,-0.9588838143624154,-1.994933038478992,-85.10405199512557,2.0785732,4.7174745,-15.354488,9.234045,-13.256133,-7.4524317,6.4752975,-3.454304,-9.43625,8.479284,-11.056113,3.7845218,1.0651672,-4.382755,5.8944244,9.896529,18.478573,-14.226696,54.519684,14.787557,2.9741044,-4.309206,-106.3782,-80.19081,30.169306,-30.933973,12.46805,-4.2721143,-7.538194
119,0.1591586172580719,2.7158477306365967,78.04725646972656,-0.9579856408219428,-1.9738632435190415,-85.13337073678571,2.039003,4.7156215,-15.332834,9.240808,-13.239022,-7.45222,6.4176645,-3.4575016,-9.403914,8.493544,-11.032343,3.8070765,1.2313397,-4.2755346,5.922308,9.695057,18.48042,-14.43098,54.591072,14.823602,2.961956,-4.3130074,-105.76507,-79.80731,29.126822,-31.354322,13.117818,-3.0428872,-6.6534038
120,0.16048745810985565,2.7362639904022217,78.0498275756836,-0.9587311614835982,-1.9605247463220448,-85.19117305488001,2.0156186,4.7239294,-15.28217,9.247687,-13.227891,-7.449551,6.356528,-3.453514,-9.344659,8.519273,-11.012897,3.816973,1.3942682,-4.1873326,5.9397326,9.503396,18.48468,-14.643367,54.7065,14.82916,2.9317827,-4.2844996,-105.238846,-79.30632,27.884867,-31.58035,14.200373,-1.8703996,-5.757759
121,0.16131606698036194,2.7554914951324463,78.0518798828125,-0.9616878646834847,-1.9558656892907047,-85.27373093236226,2.0052857,4.7402616,-15.206239,9.261095,-13.22505,-7.4415793,6.287785,-3.4443045,-9.262412,8.568702,-11.005058,3.810724,1.6761231,-4.060979,5.9626613,9.230083,18.480518,-14.991841,54.901947,14.790441,2.8778408,-4.2363954,-104.395615,-78.5964,26.261732,-31.813053,15.284322,-0.5118307,-4.6419983
122,0.16117238998413086,2.7758235931396484,78.05492401123047,-0.9675718259210243,-1.9565368018768514,-85.37773414766292,2.0039647,4.7628736,-15.10877,9.278783,-13.227713,-7.4296284,6.2143335,-3.4307845,-9.160189,8.629456,-11.001345,3.7943616,1.9896837,-3.9262943,5.9770594,8.941541,18.469255,-15.3851385,55.14351,14.728581,2.8072407,-4.1670146,-103.33737,-77.6505,24.292778,-32.043877,16.412916,1.0280461,-3.3236914
123,0.1606123447418213,2.7947118282318115,78.05793762207031,-0.9731478036729424,-1.9649408061831306,-85.51415918542659,2.0229816,4.7973633,-14.97858,9.290828,-13.234637,-7.4189696,6.137854,-3.409369,-9.02639,8.699915,-11.000551,3.771612,2.3055358,-3.8032315,5.98053,8.663988,18.45921,-15.796154,55.427105,14.635339,2.7218163,-4.079708,-101.99341,-76.4585,22.12294,-32.174343,17.74893,2.213636,-2.3912609
124,0.1576329618692398,2.814595937728882,78.05850219726562,-0.9826112850997653,-1.9833694417641017,-85.6940288534413,2.071202,4.849047,-14.80488,9.292857,-13.247411,-7.41486,6.0627785,-3.37557,-8.849779,8.773247,-10.999133,3.7462173,2.6227734,-3.6983454,5.9767585,8.401995,18.457796,-16.228586,55.75548,14.497402,2.6225626,-3.981667,-100.24759,-75.01498,19.904274,-32.129627,19.456093,2.4888694,-2.4332392
125,0.15161041915416718,2.8296725749969482,78.06031799316406,-0.9915036098898173,-2.0132290759584106,-85.92980271451525,2.1575572,4.9205475,-14.57441,9.274862,-13.261576,-7.418913,5.985996,-3.3295624,-8.618298,8.852707,-10.99722,3.718695,2.9886928,-3.6006515,5.9681497,8.128974,18.46551,-16.733974,56.15041,14.275291,2.490593,-3.8566012,-98.12183,-73.27503,17.642185,-31.897402,21.84943,1.6224833,-3.6096802
126,0.14088326692581177,2.842165231704712,78.06075286865234,-1.0012376440825204,-2.0526490681764398,-86.21247541130892,2.2741778,5.0079813,-14.2964325,9.244428,-13.278843,-7.428334,5.901738,-3.2737126,-8.340661,8.950094,-10.999655,3.6873424,3.383924,-3.5099957,5.957463,7.8580537,18.481178,-17.288342,56.59211,13.98709,2.33099,-3.708585,-95.77884,-71.21339,15.375421,-31.521358,24.696836,-0.13582265,-5.533565
127,0.12498382478952408,2.8543789386749268,78.06095886230469,-1.0142643321775227,-2.100927062807264,-86.52085261491943,2.4101462,5.1085777,-13.992712,9.213378,-13.30595,-7.4417,5.8287663,-3.2047353,-8.037795,9.035805,-10.997646,3.6524687,3.7285745,-3.4385362,5.9534907,7.636401,18.507627,-17.805006,57.028072,13.7033415,2.1801674,-3.5775883,-93.29233,-68.882454,13.314997,-31.013557,27.354788,-2.6219697,-7.986217
128,0.10651480406522751,2.861414909362793,78.06078338623047,-1.035357242182018,-2.1571478709497325,-86.83368082458188,2.5563774,5.2197886,-13.685053,9.188119,-13.345804,-7.4577065,5.772139,-3.1221738,-7.7296667,9.108373,-10.9916115,3.6144466,3.9721177,-3.388216,5.966266,7.4882236,18.546152,-18.22898,57.418633,13.491009,2.0750716,-3.5057623,-90.70175,-66.386444,11.676801,-30.382742,29.22203,-5.6304035,-10.836616
129,0.0816057026386261,2.867037057876587,78.05841064453125,-1.067601131325563,-2.2206655464603595,-87.16206993251639,2.7155206,5.3491263,-13.362732,9.167499,-13.402335,-7.4785914,5.7274065,-3.0195813,-7.404343,9.169838,-10.980821,3.5705516,4.1717434,-3.3499675,6.015227,7.362259,18.599764,-18.62086,57.79102,13.359687,2.027078,-3.5093856,-87.915985,-63.793896,10.558443,-29.709557,30.06689,-9.858446,-14.894854
130,0.05811827629804611,2.869267225265503,78.05377197265625,-1.1071275105946035,-2.292767144294206,-87.51168618873635,2.8932037,5.495277,-13.01912,9.145044,-13.470627,-7.5043445,5.6926303,-2.8996768,-7.0568137,9.223887,-10.96649,3.521577,4.3809767,-3.3112807,6.0981684,7.2229667,18.664156,-19.036013,58.172928,13.272278,2.0161908,-3.5667067,-84.911804,-61.12533,9.876706,-28.984224,29.936403,-15.1349745,-20.12754
131,0.03504881635308266,2.8748703002929688,78.04705810546875,-1.1482633324766822,-2.374484843817149,-87.85339912099143,3.0767207,5.64242,-12.683446,9.135297,-13.549478,-7.530174,5.677916,-2.775245,-6.717411,9.267878,-10.951598,3.473133,4.5435877,-3.2726417,6.1877375,7.1144843,18.728094,-19.410896,58.536205,13.2288475,2.032879,-3.6596684,-81.74487,-58.429253,9.513749,-28.103523,29.007973,-19.863514,-25.12929
132,0.015185507014393806,2.874859571456909,78.04212188720703,-1.1903256612444515,-2.466930011811725,-88.15776461780084,3.2548263,5.774806,-12.384824,9.149735,-13.636481,-7.5510607,5.6962543,-2.6589546,-6.4165874,9.291836,-10.935057,3.4308496,4.6170955,-3.2380383,6.2611213,7.0652146,18.78055,-19.69273,58.862423,13.23147,2.0680125,-3.7682672,-78.45348,-55.76625,9.337219,-26.975084,27.994081,-22.564991,-28.24337
133,-0.008611996658146381,2.870668649673462,78.0350341796875,-1.232192455438214,-2.574091799236343,-88.42881589812296,3.4272292,5.8931923,-12.120101,9.200768,-13.739061,-7.5648284,5.749753,-2.5498264,-6.15138,9.298792,-10.918658,3.3945985,4.616761,-3.2036493,6.315319,7.049747,18.816835,-19.914968,59.190773,13.288804,2.1240156,-3.9138904,-74.83636,-53.186863,9.258557,-25.747635,27.318504,-22.627264,-28.579683
134,-0.025392891839146614,2.8646440505981445,78.02687072753906,-1.27823138352737,-2.693924026145666,-88.67808699951543,3.599563,6.0053697,-11.877643,9.277461,-13.855144,-7.5745087,5.8394313,-2.4415662,-5.909627,9.27586,-10.895347,3.361736,4.595898,-3.1831725,6.370094,7.0170593,18.848492,-20.12373,59.54956,13.400152,2.2057176,-4.090906,-70.84973,-50.719517,9.350395,-24.466755,26.778631,-20.975988,-27.078363
135,-0.03654227778315544,2.8634843826293945,78.01852416992188,-1.3193848299315099,-2.8182978444072044,-88.88784170117958,3.7609577,6.1044917,-11.674585,9.370632,-13.974589,-7.582582,5.948067,-2.342666,-5.7062864,9.2477045,-10.876089,3.3340528,4.565827,-3.198992,6.4389315,6.9703383,18.889187,-20.282461,59.88599,13.551593,2.3064365,-4.244275,-66.79936,-48.38788,9.719742,-22.852901,26.350677,-18.568224,-24.684368
136,-0.048536598682403564,2.858375310897827,78.01008605957031,-1.356268747190873,-2.939543895521309,-89.03985072229784,3.9025881,6.1844034,-11.527781,9.46759,-14.08497,-7.5915565,6.07421,-2.2594788,-5.557225,9.206987,-10.859714,3.3132722,4.5563912,-3.262758,6.545173,6.9027624,18.951101,-20.371155,60.14148,13.7281885,2.4192922,-4.322325,-63.08208,-46.195778,10.484677,-20.501486,26.046902,-16.344023,-22.34077
137,-0.06175018101930618,2.8514156341552734,78.00035858154297,-1.3853954689714645,-3.0589488383842918,-89.12370586961008,4.020995,6.2415,-11.448668,9.574178,-14.187968,-7.6018424,6.2246194,-2.1939635,-5.472369,9.149579,-10.846786,3.3030014,4.4836297,-3.3744717,6.6677094,6.8936086,19.0299,-20.297485,60.272774,13.967402,2.5592315,-4.3167067,-59.553493,-44.19281,11.656892,-17.36367,25.953636,-14.334535,-20.069649
138,-0.07119864225387573,2.840306520462036,77.99197387695312,-1.4111981351369587,-3.1797343307457386,-89.15088047742051,4.122293,6.2800207,-11.425941,9.692908,-14.288099,-7.611978,6.400084,-2.142574,-5.4413695,9.075417,-10.8357525,3.3014693,4.400351,-3.5144541,6.815757,6.8956547,19.120413,-20.136723,60.319862,14.260733,2.7238073,-4.259543,-56.16384,-42.39392,13.198011,-13.499062,25.932941,-12.102622,-17.49005
139,-0.08636758476495743,2.833576202392578,77.98430633544922,-1.4324733933422458,-3.297704236011257,-89.136200683256,4.2068434,6.3033905,-11.4433,9.817394,-14.383087,-7.6217456,6.580501,-2.1041055,-5.4496384,9.006533,-10.833994,3.302037,4.3619804,-3.6515589,6.9967756,6.8766155,19.210815,-19.965347,60.285973,14.523203,2.877132,-4.166546,-53.037224,-40.764954,14.942507,-9.058815,25.929914,-9.880456,-14.902748
140,-0.0994027704000473,2.826864242553711,77.97797393798828,-1.4470153219822979,-3.4085420060292146,-89.09467832234586,4.2776003,6.3157845,-11.484456,9.936061,-14.46828,-7.631113,6.747509,-2.077296,-5.4827375,8.960333,-10.846387,3.298177,4.3832965,-3.7643654,7.2076907,6.8351603,19.290321,-19.821022,60.165398,14.671479,2.983325,-4.049887,-50.294765,-39.25392,16.720867,-4.19692,25.981768,-7.8965373,-12.575555
141,-0.1131296381354332,2.8205740451812744,77.97254943847656,-1.4568256419172054,-3.5151164917143882,-89.02493943597986,4.3368926,6.3164496,-11.549679,10.050738,-14.545208,-7.639426,6.903208,-2.0620272,-5.5406275,8.939971,-10.875498,3.285951,4.4621687,-3.8568757,7.4479094,6.780224,19.355177,-19.682888,59.94522,14.670844,3.0319622,-3.8811977,-47.985653,-37.806084,18.491613,1.3135672,26.149366,-6.0944867,-10.513213
142,-0.11876425892114639,2.812636375427246,77.96519470214844,-1.4605036318932942,-3.6185048810292995,-88.92090310583919,4.3838053,6.303326,-11.646,10.163963,-14.614695,-7.646856,7.054427,-2.0596423,-5.629667,8.938067,-10.919117,3.2698424,4.555171,-3.9396033,7.7031107,6.7384953,19.404953,-19.50939,59.629467,14.57063,3.0417206,-3.6630647,-45.980278,-36.400547,20.308325,7.4667983,26.405586,-4.3768983,-8.589222
143,-0.12781327962875366,2.8127684593200684,77.95852661132812,-1.4598058427074248,-3.7114341145234353,-88.79001974892986,4.411426,6.278643,-11.7675495,10.275466,-14.675376,-7.654818,7.1921844,-2.0682504,-5.745404,8.951059,-10.971815,3.2550378,4.6458926,-3.9985476,7.96258,6.70813,19.436188,-19.334227,59.24502,14.414068,3.0206363,-3.4526713,-44.146698,-35.0316,22.146156,13.79496,26.68848,-2.9164073,-6.858898
144,-0.14521703124046326,2.805586338043213,77.95246887207031,-1.4558614877301914,-3.786487179256859,-88.64002754734157,4.4152412,6.2447596,-11.90809,10.379199,-14.722743,-7.6647396,7.3047595,-2.0868409,-5.883125,8.981175,-11.031378,3.2468565,4.7333198,-4.020421,8.217648,6.6717696,19.446693,-19.207855,58.827827,14.242437,2.977528,-3.3067153,-42.385174,-33.709614,23.983019,19.864115,26.958961,-1.8910531,-5.3693643
145,-0.15366432070732117,2.8003222942352295,77.94520568847656,-1.4478258801040071,-3.8417650757443216,-88.47491406573498,4.394204,6.202919,-12.063173,10.4734,-14.755051,-7.6783805,7.3871336,-2.1151469,-6.0396485,9.030776,-11.097219,3.2466164,4.835937,-4.0005455,8.480109,6.610588,19.4391,-19.158228,58.374462,14.034043,2.9055061,-3.2463543,-40.75525,-32.449677,25.856585,25.748535,27.379932,-1.4610865,-4.0726333
146,-0.16369891166687012,2.801039218902588,77.93948364257812,-1.4367787420885587,-3.881252604093859,-88.29003603732228,4.351426,6.1518564,-12.236874,10.559791,-14.774082,-7.694567,7.4453115,-2.153638,-6.2181053,9.100039,-11.171438,3.2514327,4.9573517,-3.9452186,8.748116,6.5291724,19.412453,-19.164417,57.878727,13.777453,2.803356,-3.2394483,-39.26277,-31.24807,27.738045,31.636078,27.960287,-1.4820828,-2.950766
147,-0.17014430463314056,2.804879665374756,77.932373046875,-1.4199717376630645,-3.906341677169832,-88.0799536327719,4.2880197,6.0895076,-12.436137,10.6389885,-14.781418,-7.7101893,7.490364,-2.202478,-6.423493,9.174273,-11.248694,3.260467,5.0715656,-3.8625221,8.992417,6.4464607,19.361965,-19.200005,57.37267,13.529325,2.689257,-3.2610393,-37.794384,-30.099293,29.543636,37.310318,28.468313,-1.6907413,-2.0882962
148,-0.17688614130020142,2.8091864585876465,77.9278793334961,-1.4010636081760994,-3.918623386035281,-87.83892042982276,4.2032156,6.0136414,-12.667679,10.716213,-14.781502,-7.7218776,7.530878,-2.261908,-6.6607146,9.24363,-11.32641,3.272865,5.1590757,-3.7601635,9.187898,6.375039,19.283276,-19.24359,56.88969,13.346335,2.5811756,-3.285285,-36.24414,-28.999773,31.199005,42.540077,28.668905,-1.8342643,-1.574902
149,-0.18660476803779602,2.8152685165405273,77.92281341552734,-1.376679435242237,-3.920806821813961,-87.56307566293084,4.0982275,5.9217677,-12.935923,10.79379,-14.775023,-7.727538,7.5715766,-2.3335652,-6.935067,9.30686,-11.40391,3.2898028,5.2819476,-3.615172,9.363665,6.254698,19.17191,-19.363935,56.440716,13.244914,2.4806077,-3.3192654,-34.466274,-27.89295,32.56576,47.237186,28.124987,-1.8680823,-1.534468
150,-0.19219155609607697,2.81811261177063,77.91912078857422,-1.347184643808549,-3.911035348658505,-87.25595932952274,3.9750068,5.8153257,-13.236263,10.864247,-14.757427,-7.7297945,7.605219,-2.417692,-7.242879,9.373237,-11.485306,3.31103,5.3622365,-3.472642,9.483656,6.1526713,19.047615,-19.492126,56.010033,13.190405,2.3813992,-3.364378,-32.834133,-26.866316,34.143726,51.7349,27.498028,-1.9440329,-1.8845853
151,-0.19695807993412018,2.8198423385620117,77.91473388671875,-1.315135411868257,-3.8844800852220773,-86.92439884697187,3.830273,5.698933,-13.561664,10.926441,-14.72943,-7.7310452,7.630302,-2.508966,-7.5746946,9.430004,-11.563451,3.3346448,5.4257593,-3.304982,9.577432,6.06364,18.890656,-19.607668,55.579685,13.179723,2.282379,-3.4074323,-31.079357,-25.855042,35.33791,55.808937,26.770208,-2.0107982,-2.377634
152,-0.19827307760715485,2.817004919052124,77.91365051269531,-1.2812858845634334,-3.8358813324768164,-86.57513477544333,3.665289,5.5768485,-13.905047,10.968644,-14.686343,-7.7341337,7.6405163,-2.6036267,-7.921168,9.475096,-11.637244,3.358244,5.4200964,-3.1416993,9.61721,6.0380425,18.701624,-19.636652,55.157146,13.197858,2.1862426,-3.4219663,-29.26556,-24.847878,36.055325,59.45359,26.408934,-2.068184,-2.773074
153,-0.20117568969726562,2.815969467163086,77.91342163085938,-1.246018545400859,-3.7590876428217523,-86.20136341428994,3.4701116,5.4480443,-14.274255,10.991857,-14.626942,-7.7403445,7.6261697,-2.7022738,-8.287724,9.517423,-11.710872,3.3794265,5.3575263,-2.9809034,9.6167,6.0664134,18.479052,-19.563408,54.724167,13.275006,2.09698,-3.401605,-27.355797,-23.810469,36.125687,62.664852,26.666695,-2.139199,-3.0191364
154,-0.20384730398654938,2.811889886856079,77.91356658935547,-1.2075957991348607,-3.658585292217575,-85.80221925289058,3.2479255,5.3109202,-14.669753,11.000652,-14.553777,-7.7480483,7.6006503,-2.8051183,-8.677254,9.538906,-11.777579,3.3999376,5.2550755,-2.8235734,9.582997,6.127842,18.231958,-19.425858,54.288483,13.404657,2.0133395,-3.3555384,-25.384398,-22.732384,35.726604,65.49181,27.326689,-2.2322137,-3.232122
155,-0.20812657475471497,2.815088987350464,77.91345977783203,-1.1673810433475165,-3.5444250605374306,-85.39394459638129,3.0191264,5.1686687,-15.072917,10.98809,-14.4664545,-7.755868,7.5690384,-2.911821,-9.074695,9.5478,-11.838291,3.4239945,5.0883303,-2.679517,9.506449,6.2462745,17.96845,-19.234407,53.869495,13.527401,1.9276567,-3.2892895,-23.371336,-21.622387,35.021904,67.85157,27.901934,-2.3024542,-3.4248743
156,-0.20782049000263214,2.8163790702819824,77.91386413574219,-1.1231568583038425,-3.4270768308313952,-84.99279671245097,2.8011487,5.0246286,-15.465648,10.952482,-14.367356,-7.762345,7.540957,-3.0213292,-9.465428,9.541226,-11.889231,3.4556723,4.8355207,-2.558827,9.377346,6.4444814,17.6972,-19.001738,53.48762,13.58434,1.8323433,-3.2087004,-21.343292,-20.512522,34.194786,69.66205,27.936594,-2.3054295,-3.6121564
157,-0.2015855461359024,2.8053677082061768,77.91781616210938,-1.0759245785241494,-3.3060355170257596,-84.59549645576276,2.596034,4.8762603,-15.849386,10.88719,-14.252585,-7.767745,7.5195093,-3.1369028,-9.852551,9.514393,-11.929538,3.5001726,4.482103,-2.4595833,9.198383,6.7493043,17.41153,-18.694242,53.113575,13.56771,1.7244395,-3.109658,-19.230478,-19.413942,32.99764,70.7373,27.143635,-2.167526,-3.8340786
158,-0.20073698461055756,2.8034164905548096,77.91944122314453,-1.0232435918212852,-3.1769750599002045,-84.19610606811092,2.394595,4.7232676,-16.231728,10.796363,-14.122994,-7.7725797,7.498597,-3.2575028,-10.24156,9.470977,-11.9611435,3.553957,4.060375,-2.375882,8.983714,7.125548,17.112123,-18.332685,52.74832,13.505784,1.608433,-2.990552,-17.029785,-18.324871,31.420778,71.131714,25.836985,-1.9236243,-4.0666375
159,-0.19088871777057648,2.7948079109191895,77.9228286743164,-0.9718745026129509,-3.043525378716288,-83.8061006088901,2.198985,4.573156,-16.603941,10.691371,-13.986475,-7.775827,7.4771304,-3.3759098,-10.621555,9.416529,-11.983871,3.608233,3.6067889,-2.3101254,8.739094,7.5174885,16.817953,-17.996273,52.446373,13.396989,1.4874725,-2.864085,-14.859294,-17.268383,29.96733,71.13328,24.419207,-1.6920166,-4.233063
160,-0.17847990989685059,2.7985682487487793,77.92672729492188,-0.9233078650412422,-2.9099012149702306,-83.43708411306895,2.0142074,4.434418,-16.956945,10.576389,-13.846738,-7.7765074,7.4548693,-3.485159,-10.98167,9.3529005,-11.99474,3.6542459,3.1429298,-2.2657287,8.468905,7.8885307,16.550842,-17.745405,52.247086,13.242856,1.3637657,-2.7467425,-12.840281,-16.287857,29.1637,71.0517,23.303556,-1.5977312,-4.2644277
161,-0.16559940576553345,2.7870230674743652,77.9346923828125,-0.880537133817024,-2.7701640773254983,-83.07709096998941,1.828243,4.3036666,-17.303339,10.460388,-13.705847,-7.773757,7.4241147,-3.5866983,-11.333239,9.292314,-12.000577,3.6898093,2.6421566,-2.2499027,8.157814,8.2607155,16.321163,-17.577402,52.13914,13.010811,1.2374487,-2.6408486,-10.98162,-15.434637,29.231203,70.8605,22.55038,-1.6997253,-4.0789065
162,-0.15868261456489563,2.7658891677856445,77.94158172607422,-0.8406426497447519,-2.624478098948684,-82.72492909636301,1.6476492,4.1802716,-17.64258,10.327574,-13.555526,-7.76835,7.393383,-3.6821778,-11.677598,9.216371,-11.992899,3.719582,2.0954247,-2.2504466,7.8157535,8.660378,16.118698,-17.453161,52.083298,12.711908,1.105527,-2.546356,-9.210688,-14.72108,29.86327,70.42161,21.963177,-1.9233375,-3.7310236
163,-0.15296772122383118,2.759209394454956,77.95052337646484,-0.8035357420158724,-2.484983737296016,-82.4083328929022,1.4843556,4.0689144,-17.947906,10.190291,-13.408877,-7.761187,7.359558,-3.7696187,-11.987489,9.141479,-11.980206,3.7449,1.554579,-2.2438152,7.4807568,9.054286,15.931615,-17.384325,52.087254,12.414238,0.9662973,-2.4731407,-7.5341134,-14.128839,30.79657,69.907005,21.574781,-2.1965542,-3.3618813
164,-0.13432636857032776,2.7538957595825195,77.95809936523438,-0.7699268707376338,-2.3637696491132454,-82.15512987399246,1.3514853,3.9746695,-18.192024,10.05793,-13.277148,-7.753158,7.3187165,-3.8477805,-12.235451,9.085475,-11.972022,3.767025,1.0660433,-2.2116294,7.1894364,9.4104805,15.748259,-17.377169,52.16136,12.186152,0.8186099,-2.4286845,-5.9654503,-13.617124,31.769373,69.49112,21.412561,-2.4468784,-3.1170082
165,-0.11697936803102493,2.758938789367676,77.9634017944336,-0.7401201085632365,-2.26137277411989,-81.97194912591952,1.2527661,3.9007542,-18.368444,9.924528,-13.1596,-7.7456365,7.268597,-3.9157238,-12.415048,9.048195,-11.968129,3.784314,0.63595855,-2.1540117,6.93904,9.72088,15.567985,-17.44775,52.32609,12.054156,0.6498833,-2.416904,-4.554163,-13.163377,32.845444,69.2571,21.617977,-2.692836,-3.0568955
166,-0.10059067606925964,2.761516809463501,77.96797943115234,-0.7150433842055587,-2.1721742569491385,-81.84393472688546,1.1695368,3.8420427,-18.4929,9.812271,-13.0640545,-7.7378073,7.2134743,-3.9720724,-12.541087,9.017293,-11.962211,3.7964084,0.23780033,-2.080041,6.7083316,10.001981,15.392632,-17.586899,52.57897,11.979103,0.4654303,-2.4303951,-3.3014386,-12.765362,34.114727,69.14218,22.12676,-2.9648035,-3.0976913
167,-0.08016641438007355,2.7659976482391357,77.97187805175781,-0.6969928854833783,-2.0982865648599853,-81.76666836913277,1.0707383,3.7870255,-18.57221,9.797357,-13.028796,-7.7271924,7.154809,-4.0171714,-12.617619,9.000136,-11.959625,3.806632,-0.12989557,-1.988863,6.507624,10.255152,15.216838,-17.76567,52.898575,11.929288,0.29180476,-2.4582412,-2.1422412,-12.409293,35.353348,69.087654,22.655413,-3.2081656,-3.1737363
168,-0.06723935157060623,2.7619197368621826,77.97359466552734,-0.6783233775163446,-2.0431613625060283,-81.73688583523997,1.0055692,3.74342,-18.605742,9.781572,-12.999828,-7.7110934,7.0976815,-4.058501,-12.647265,9.000181,-11.958236,3.8192227,-0.4579648,-1.8886428,6.34614,10.470284,15.035489,-17.96697,53.275146,11.871142,0.15610112,-2.486535,-1.0092483,-12.077722,36.326378,69.03719,22.915258,-3.3674004,-3.22438
169,-0.052588608115911484,2.7624330520629883,77.97681427001953,-0.6607944514355915,-2.01605331171902,-81.75734050830454,0.9807028,3.7089236,-18.591324,9.777482,-12.983892,-7.687025,7.0569553,-4.09625,-12.627573,9.008513,-11.955413,3.8371317,-0.741161,-1.7785267,6.237478,10.635417,14.848545,-18.213358,53.72774,11.781736,0.05883749,-2.5076072,0.113781676,-11.754739,36.92344,68.99029,22.823263,-3.4264035,-3.257018
170,-0.041359562426805496,2.783517837524414,77.97732543945312,-0.6412356643775652,-2.0127304651585347,-81.8290071250229,0.9906861,3.6844988,-18.52815,9.784178,-12.981745,-7.65688,7.021617,-4.1303716,-12.557399,9.035542,-11.957079,3.8577526,-0.9770393,-1.6602149,6.171377,10.7508545,14.6598835,-18.515486,54.263077,11.681107,-0.011464949,-2.5276377,1.1900847,-11.43504,37.27138,68.98007,22.528578,-3.417093,-3.3003109
171,-0.012620254419744015,2.786134719848633,77.97752380371094,-0.6250765214095441,-2.01566585560329,-81.9442803001844,1.0160915,3.6735606,-18.42297,9.791806,-12.986232,-7.6251364,6.9786057,-4.1561213,-12.444591,9.067055,-11.953895,3.8762875,-1.1671948,-1.5404922,6.1214657,10.830632,14.4699545,-18.830767,54.847744,11.603007,-0.046010457,-2.554285,2.200327,-11.122737,37.505653,69.004295,22.100275,-3.355381,-3.3267365
172,0.0007055465830489993,2.782151937484741,77.9814453125,-0.6143731769509755,-2.0073105559985542,-82.09555529179104,1.033287,3.6770988,-18.28247,9.799386,-12.995241,-7.596098,6.8938527,-4.174139,-12.295305,9.132855,-11.95854,3.888068,-1.3146667,-1.4242606,6.062058,10.889095,14.276666,-19.114037,55.44743,11.582974,-0.036247253,-2.5954144,3.1289945,-10.828506,37.761322,69.054436,21.605997,-3.2566748,-3.308127
173,0.013292334973812103,2.7890501022338867,77.98458099365234,-0.6101729820032866,-1.9803200218280295,-82.29216974810934,1.0404774,3.7018962,-18.097084,9.7926655,-13.001897,-7.571114,6.7703714,-4.1769505,-12.1019,9.199784,-11.953701,3.8910086,-1.4161762,-1.3083396,5.9891396,10.922701,14.075126,-19.353281,56.073753,11.638197,0.027227484,-2.655161,3.9720614,-10.558852,38.054844,69.12199,20.923925,-3.09177,-3.2151484
174,0.023244259878993034,2.8035478591918945,77.98735809326172,-0.6103066754444377,-1.944955887680872,-82.53423902931068,1.0453979,3.7439816,-17.867332,9.784118,-13.013128,-7.547742,6.6148286,-4.168108,-11.863654,9.281546,-11.946647,3.8880663,-1.476983,-1.1886312,5.9165483,10.92868,13.863326,-19.565044,56.735943,11.750438,0.13693361,-2.728961,4.740142,-10.314403,38.32587,69.20435,20.06596,-2.8642972,-3.0677292
175,0.03778804466128349,2.823166847229004,77.99113464355469,-0.6125730895415795,-1.9107659228053773,-82.80076662191662,1.061663,3.7959414,-17.613516,9.765108,-13.022814,-7.5248466,6.452487,-4.1526084,-11.60133,9.365494,-11.936385,3.881861,-1.5111464,-1.067602,5.846546,10.921061,13.643915,-19.751196,57.396694,11.899581,0.2759714,-2.8122637,5.4410944,-10.098109,38.597095,69.29862,19.306011,-2.6367378,-2.913649
176,0.05294988676905632,2.8440489768981934,77.9940185546875,-0.6159698121148702,-1.887290922922003,-83.07019638316392,1.086268,3.8466241,-17.357904,9.762886,-13.04376,-7.5014095,6.3059163,-4.134638,-11.335779,9.444723,-11.925572,3.8748245,-1.5359234,-0.9478857,5.7822294,10.917836,13.421757,-19.909164,58.01343,12.066014,0.4274847,-2.9011564,6.0809984,-9.914984,38.894672,69.40208,18.919931,-2.4691849,-2.8039837
177,0.06617081165313721,2.8527798652648926,77.99678802490234,-0.6191725704417647,-1.8802729504513556,-83.34360271353498,1.1365378,3.8976173,-17.098639,9.756605,-13.065377,-7.4773893,6.184592,-4.1154346,-11.065525,9.514594,-11.912829,3.8665025,-1.5449569,-0.8315259,5.729841,10.920134,13.198174,-20.034271,58.587795,12.26739,0.5968632,-3.001119,6.6580024,-9.769022,39.256676,69.514275,19.10384,-2.368039,-2.7466118
178,0.08038470149040222,2.860201597213745,77.99964904785156,-0.6227021737348382,-1.8835535101922047,-83.63019012978104,1.1987293,3.95129,-16.827507,9.761623,-13.096673,-7.4533634,6.073031,-4.0919476,-10.781837,9.583613,-11.899127,3.8557684,-1.5345186,-0.7156906,5.6873593,10.922018,12.972576,-20.126986,59.133568,12.506555,0.78929394,-3.113512,7.171375,-9.661781,39.660515,69.63065,19.671625,-2.3028233,-2.7177494
179,0.09481498599052429,2.8728907108306885,78.00395202636719,-0.627521107013623,-1.8887437026152798,-83.92087352222087,1.2679554,4.007987,-16.552162,9.760678,-13.126047,-7.428952,5.9675727,-4.065044,-10.49457,9.6448,-11.881241,3.8446882,-1.5225745,-0.5999258,5.6465263,10.930867,12.747905,-20.194891,59.62557,12.741064,0.9881516,-3.2278779,7.6332345,-9.593019,40.03636,69.735855,20.32315,-2.276945,-2.7209537
180,0.10785651206970215,2.8841984272003174,78.00718688964844,-0.63478760036513,-1.8874403999771057,-84.20651256619708,1.32634,4.065239,-16.281301,9.7653475,-13.157686,-7.403679,5.8602347,-4.0349126,-10.213464,9.697625,-11.858147,3.835032,-1.5250258,-0.48361924,5.599172,10.953827,12.529842,-20.247793,60.037914,12.927356,1.1769639,-3.333907,8.057021,-9.5609045,40.312794,69.81312,20.75876,-2.2938929,-2.7595835
181,0.1237148568034172,2.8853039741516113,78.01049041748047,-0.6436099791126338,-1.8731432338105474,-84.48737097560145,1.3686612,4.123968,-16.01491,9.76959,-13.187228,-7.3761506,5.7423987,-4.001516,-9.939303,9.744324,-11.829522,3.8271186,-1.5407718,-0.36805382,5.5401897,10.995828,12.321098,-20.276392,60.35555,13.045559,1.3694617,-3.4375978,8.44528,-9.565697,40.43114,69.85739,20.922153,-2.3792212,-2.8537521
182,0.1378534436225891,2.8886640071868896,78.01514434814453,-0.6552355741075983,-1.851730680650516,-84.76740424360959,1.4044269,4.1847754,-15.749174,9.770433,-13.214133,-7.346985,5.6212187,-3.9647675,-9.667564,9.782604,-11.794711,3.819982,-1.5589213,-0.25399682,5.4758115,11.050861,12.122281,-20.28469,60.59348,13.119284,1.568645,-3.5416536,8.794964,-9.606678,40.43795,69.871605,20.964195,-2.522851,-2.9948256
183,0.15309816598892212,2.900224208831787,78.01779174804688,-0.6663300141888502,-1.833609999425834,-85.04316571326247,1.4433501,4.246243,-15.486369,9.7725935,-13.242908,-7.319018,5.508823,-3.9255598,-9.3996525,9.813647,-11.757515,3.8137512,-1.5829176,-0.14289452,5.4135985,11.113191,11.937196,-20.298727,60.7692,13.171192,1.7424258,-3.630475,9.10395,-9.681298,40.420822,69.86214,20.8937,-2.674546,-3.144326
184,0.16298295557498932,2.9095354080200195,78.01898956298828,-0.6797342011861136,-1.828685906251391,-85.3115201127433,1.4894056,4.305993,-15.229533,9.79167,-13.282981,-7.295134,5.4179096,-3.884351,-9.137212,9.838341,-11.721949,3.8083985,-1.6170682,-0.035798386,5.3617687,11.178253,11.771246,-20.345314,60.898304,13.222108,1.8584607,-3.689154,9.371094,-9.78403,40.46916,69.83367,20.720888,-2.7840786,-3.263387
185,0.17266473174095154,2.9163551330566406,78.018310546875,-0.6934109944153117,-1.8425859209970283,-85.57244531370137,1.5463954,4.364569,-14.9778805,9.835329,-13.339366,-7.2763596,5.359125,-3.8396866,-8.879475,9.848371,-11.6849165,3.8050888,-1.6655121,0.06590847,5.3233075,11.253631,11.629496,-20.439556,60.968887,13.282521,1.8990663,-3.716431,9.589416,-9.911638,40.611572,69.79317,20.433155,-2.843951,-3.3538492
186,0.18278293311595917,2.9188473224639893,78.01860809326172,-0.7060722232895276,-1.8691505373050292,-85.82780473800328,1.6261197,4.424506,-14.728402,9.862146,-13.389214,-7.260879,5.3206477,-3.7946997,-8.625286,9.852286,-11.648837,3.8036518,-1.7264198,0.15861908,5.294322,11.343591,11.512758,-20.562239,60.97235,13.339119,1.8844748,-3.7205882,9.757716,-10.062256,40.801918,69.74384,20.031248,-2.8813944,-3.4317753
187,0.1921350508928299,2.9186196327209473,78.02091979980469,-0.7201501429371057,-1.9004987194171503,-86.0757944338825,1.7143207,4.4842997,-14.485367,9.879811,-13.435701,-7.247972,5.291067,-3.7496486,-8.377445,9.854344,-11.614467,3.801462,-1.7957505,0.24233688,5.270391,11.43746,11.419224,-20.688156,60.931725,13.378056,1.8395188,-3.700457,9.883473,-10.232682,41.0163,69.67913,19.544537,-2.891486,-3.4820645
188,0.20432884991168976,2.9175705909729004,78.02156066894531,-0.7325996245426252,-1.9290468094569813,-86.3147652164576,1.7997261,4.5429115,-14.252464,9.8906355,-13.479719,-7.2366567,5.255852,-3.7057223,-8.13863,9.86556,-11.586055,3.7959552,-1.8703932,0.31712407,5.2469883,11.524276,11.345189,-20.791142,60.871147,13.385799,1.7889911,-3.6543226,9.972104,-10.418714,41.232464,69.59665,19.00338,-2.8714066,-3.4891014
189,0.21489399671554565,2.9221553802490234,78.02265167236328,-0.7446307629810344,-1.9528132851870657,-86.54266063229389,1.8786201,4.5996614,-14.032463,9.895374,-13.522024,-7.2275963,5.21203,-3.6633308,-7.9105763,9.888586,-11.565174,3.7855074,-1.9563755,0.3818607,5.2207923,11.60629,11.288953,-20.86061,60.780144,13.345684,1.728435,-3.5682046,10.010612,-10.618929,41.454277,69.5043,18.338486,-2.8008668,-3.4236512
190,0.22310298681259155,2.9211127758026123,78.0233154296875,-0.7570979805085349,-1.976032037477291,-86.7609092818358,1.958515,4.6554375,-13.822778,9.890758,-13.561293,-7.2209797,5.166619,-3.6219718,-7.6914515,9.917861,-11.549132,3.7718613,-2.0541055,0.4373269,5.1941953,11.686921,11.250409,-20.910192,60.653496,13.270614,1.648314,-3.4470274,9.999303,-10.831933,41.691998,69.40398,17.559347,-2.6896076,-3.301419
191,0.22796520590782166,2.9227542877197266,78.0230484008789,-0.7686863320039414,-1.999381296341641,-86.97310770361214,2.0400157,4.710547,-13.619105,9.880797,-13.597934,-7.215234,5.1213865,-3.5813634,-7.478653,9.951502,-11.53686,3.7574005,-2.151269,0.48600397,5.169885,11.7543125,11.228224,-20.952772,60.527344,13.189401,1.565394,-3.317012,9.959298,-11.054421,41.929707,69.29229,16.81293,-2.580215,-3.175725
192,0.2312561273574829,2.9266161918640137,78.02249908447266,-0.7783009191200803,-2.0237015246008467,-87.18303507502077,2.1266727,4.764834,-13.416745,9.864304,-13.630021,-7.208647,5.0783725,-3.541957,-7.2694254,9.986953,-11.526548,3.7446172,-2.2345183,0.52975774,5.1502595,11.795815,11.220302,-21.001894,60.438995,13.131166,1.496831,-3.2038426,9.911304,-11.281798,42.150524,69.167816,16.246532,-2.5135853,-3.1011083
193,0.23376113176345825,2.926269054412842,78.02373504638672,-0.7860221491069453,-2.0487220766620644,-87.39314890464365,2.2202654,4.8184557,-13.213057,9.839124,-13.656331,-7.200991,5.037253,-3.5044556,-7.061811,10.02361,-11.517645,3.7348108,-2.299618,0.5688131,5.1350513,11.807696,11.226155,-21.060406,60.39869,13.106035,1.4424924,-3.097861,9.855305,-11.510826,42.34944,69.03138,15.9305,-2.503096,-3.0970848
194,0.23834723234176636,2.9208362102508545,78.02285766601562,-0.7932354737155299,-2.0740599551129932,-87.60071296046084,2.3092787,4.870111,-13.011905,9.826538,-13.688877,-7.193139,4.9962626,-3.4673371,-6.858021,10.064652,-11.51218,3.7262723,-2.35312,0.60304683,5.122113,11.795234,11.246094,-21.122559,60.38925,13.097634,1.3949502,-2.9900618,9.779416,-11.740473,42.53392,68.88979,15.775033,-2.5257993,-3.134089
195,0.2419625222682953,2.917732000350952,78.01920318603516,-0.8022307989734163,-2.100280045498646,-87.80206823180663,2.3900075,4.9205933,-12.817822,9.832469,-13.730018,-7.185397,4.958794,-3.4286842,-6.661028,10.104909,-11.507437,3.7172487,-2.39791,0.6337419,5.1117225,11.758544,11.278592,-21.189415,60.40638,13.0945015,1.3606399,-2.9077435,9.687181,-11.968597,42.70683,68.74699,15.687929,-2.5668635,-3.1935046
196,0.2422938346862793,2.9179019927978516,78.01892852783203,-0.81149673289414,-2.128619247451548,-87.99329117665596,2.467524,4.9713464,-12.634352,9.844489,-13.772443,-7.177959,4.9294653,-3.3875632,-6.4736843,10.137639,-11.500191,3.706157,-2.4364858,0.6614627,5.103836,11.6967535,11.321183,-21.26223,60.44774,13.085294,1.3456442,-2.8775868,9.581808,-12.192775,42.86921,68.609566,15.575746,-2.6117978,-3.256926
197,0.24227795004844666,2.916067361831665,78.0174789428711,-0.8236440832904771,-2.158209212914979,-88.17241699668443,2.5412104,5.022912,-12.463656,9.861847,-13.815245,-7.170457,4.9070363,-3.3433042,-6.297805,10.165107,-11.49177,3.6917443,-2.4695647,0.68744105,5.095113,11.604661,11.372321,-21.341858,60.527153,13.061253,1.3503377,-2.9218276,9.463167,-12.411398,43.01991,68.4832,15.442269,-2.67025,-3.3351474
198,0.24012646079063416,2.915390729904175,78.015380859375,-0.8384319055058103,-2.1890584764240835,-88.34190792928601,2.6172934,5.075766,-12.302638,9.872468,-13.852456,-7.162932,4.890626,-3.2971783,-6.131325,10.188328,-11.482634,3.6752124,-2.4958093,0.7107297,5.086166,11.483245,11.431843,-21.427221,60.64353,13.030787,1.3719261,-3.0206008,9.328383,-12.623637,43.158165,68.36708,15.32666,-2.745848,-3.432957
199,0.23491480946540833,2.913931131362915,78.01481628417969,-0.8527209230451439,-2.222698594493247,-88.5045461824712,2.6892424,5.1273518,-12.1485405,9.894557,-13.894785,-7.1557636,4.8796663,-3.2505019,-5.9715257,10.209628,-11.473641,3.6584232,-2.5149608,0.729531,5.082323,11.340483,11.499522,-21.517426,60.77217,13.007966,1.4119191,-3.1376793,9.175616,-12.828672,43.288094,68.258804,15.191803,-2.8144517,-3.523513
200,0.2316584587097168,2.9123458862304688,78.0144271850586,-0.8662327773154865,-2.260804069169925,-88.66347928496336,2.7662828,5.1779203,-11.997089,9.912676,-13.9349,-7.149437,4.873297,-3.2053697,-5.8153563,10.232824,-11.466465,3.6432602,-2.5268579,0.7410628,5.0892563,11.183792,11.575325,-21.611656,60.889126,13.006283,1.4716926,-3.2368367,9.002961,-13.025603,43.41329,68.15595,14.999223,-2.8522289,-3.5795078
201,0.22514581680297852,2.911057949066162,78.0119857788086,-0.875769493115408,-2.305346101925496,-88.82282398774757,2.8496752,5.22612,-11.844207,9.930998,-13.975485,-7.142228,4.87031,-3.1630976,-5.658339,10.263164,-11.463591,3.630901,-2.5295324,0.74232775,5.110139,11.009416,11.660119,-21.711336,60.996994,13.031471,1.5595512,-3.3166664,8.805914,-13.2139225,43.526672,68.056915,14.739652,-2.8500051,-3.5755665
202,0.22084306180477142,2.9135193824768066,78.01094818115234,-0.8852599602111653,-2.3548418932705513,-88.97977041631181,2.9357882,5.272186,-11.693234,9.952996,-14.01788,-7.134442,4.8716993,-3.1225903,-5.5033016,10.296116,-11.462513,3.620106,-2.5234618,0.73496306,5.141385,10.815133,11.754261,-21.81681,61.10603,13.0753355,1.672002,-3.3939261,8.586169,-13.393617,43.62894,67.96501,14.433094,-2.8220367,-3.532026
203,0.2137419581413269,2.914278507232666,78.01017761230469,-0.8942454684255475,-2.4060577317509884,-89.12723780323536,3.0226846,5.318419,-11.550398,9.971196,-14.057756,-7.1295247,4.8790135,-3.0818841,-5.358086,10.325066,-11.461266,3.6092408,-2.5126443,0.724162,5.1782455,10.612362,11.855951,-21.923897,61.2009,13.132106,1.792951,-3.4593952,8.352498,-13.563466,43.73562,67.88169,14.085749,-2.7787619,-3.4904115
204,0.2094823569059372,2.9161288738250732,78.0083999633789,-0.9060061956055663,-2.455416985880164,-89.25803504612415,3.1054702,5.3657684,-11.422428,9.98471,-14.094732,-7.130742,4.8920145,-3.039767,-5.2303667,10.346352,-11.459023,3.5966775,-2.5018158,0.71474385,5.2156825,10.412826,11.962012,-22.026714,61.267094,13.197097,1.9064229,-3.5036633,8.111896,-13.722007,43.862797,67.811516,13.704076,-2.7304265,-3.4924946
205,0.2028488963842392,2.916368007659912,78.00596618652344,-0.9232291370344918,-2.501394074142483,-89.36868767735997,3.179079,5.416512,-11.312129,9.998317,-14.132441,-7.1415257,4.9115067,-2.9935818,-5.1243854,10.355204,-11.453992,3.5804744,-2.4926708,0.70981216,5.2519393,10.213714,12.070857,-22.129631,61.307667,13.281729,2.0141687,-3.5152676,7.863834,-13.86769,44.01864,67.75724,13.279796,-2.6766846,-3.5541327
206,0.1945519894361496,2.9163177013397217,78.0035400390625,-0.9433576393189932,-2.545910083611088,-89.46357440741089,3.248381,5.469406,-11.215497,10.008472,-14.168242,-7.15923,4.9374204,-2.9450977,-5.035226,10.355485,-11.44785,3.561965,-2.4834058,0.70619094,5.2890697,10.00996,12.182312,-22.232796,61.330322,13.384698,2.122851,-3.5018985,7.6030526,-14.000054,44.194096,67.72022,12.813114,-2.6127093,-3.6514318
207,0.1853535920381546,2.9166388511657715,78.00104522705078,-0.9640455780048354,-2.5910998904625138,-89.54699819579415,3.3148613,5.5198007,-11.129772,10.02007,-14.203269,-7.1780305,4.967354,-2.8983638,-4.957247,10.354219,-11.442194,3.5444245,-2.4737463,0.7010588,5.328539,9.809108,12.295068,-22.324358,61.327938,13.482629,2.223428,-3.4822965,7.330641,-14.119049,44.38015,67.69969,12.322781,-2.5412276,-3.7667449
208,0.17664185166358948,2.9254891872406006,77.99700164794922,-0.9806756692000214,-2.6390415271401464,-89.62349581330685,3.3827593,5.5634446,-11.051655,10.031807,-14.234707,-7.192095,5.00149,-2.857737,-4.884811,10.353962,-11.436936,3.531154,-2.4638922,0.6912898,5.371364,9.618632,12.407484,-22.391214,61.29445,13.552537,2.3068707,-3.4749248,7.0470724,-14.225786,44.56801,67.6965,11.827193,-2.4654539,-3.8824284
209,0.17230923473834991,2.9264066219329834,77.99542999267578,-0.9931781068359496,-2.6916968346647967,-89.69366433304079,3.452815,5.5978613,-10.981473,10.04835,-14.26388,-7.199117,5.040886,-2.8248236,-4.8164353,10.357324,-11.432795,3.524669,-2.4488032,0.6847061,5.407377,9.411293,12.484352,-22.433752,61.27386,13.595201,2.3721573,-3.478272,6.730815,-14.290548,44.753345,67.76809,11.279474,-2.3842585,-4.0132065
210,0.16613692045211792,2.930126667022705,77.99165344238281,-1.0028132897843112,-2.7473237641572252,-89.75536722555842,3.5235982,5.6260242,-10.920526,10.06637,-14.290122,-7.20251,5.0853324,-2.7971344,-4.755192,10.361471,-11.42908,3.52262,-2.4414387,0.6713654,5.451172,9.229678,12.573835,-22.442661,61.197865,13.617259,2.4231184,-3.495199,6.4072723,-14.357062,44.959274,67.837875,10.696998,-2.292165,-4.158049
211,0.16098399460315704,2.934241771697998,77.98894500732422,-1.0107952725879077,-2.8025231221259137,-89.80858402078259,3.5915258,5.650716,-10.867556,10.084399,-14.31453,-7.2049193,5.130735,-2.7726905,-4.702015,10.366484,-11.426745,3.5210304,-2.4425077,0.64501506,5.5095186,9.089084,12.702737,-22.425913,61.04188,13.614595,2.4591842,-3.5222075,6.094507,-14.444027,45.174324,67.86276,10.168269,-2.1975996,-4.285914
212,0.1533690094947815,2.935377836227417,77.9885025024414,-1.019596233988681,-2.854583837339433,-89.85342436400107,3.6530757,5.675285,-10.8216,10.101233,-14.338276,-7.2090483,5.1728435,-2.7489355,-4.6579275,10.37397,-11.427524,3.5158074,-2.4301457,0.6213259,5.5666356,8.9292145,12.821682,-22.425064,60.896904,13.58689,2.480845,-3.533298,5.788926,-14.5162735,45.355526,67.88776,9.76675,-2.11518,-4.37273
213,0.14550358057022095,2.938826084136963,77.98560333251953,-1.0293921380821212,-2.903094827011574,-89.88993508920942,3.708065,5.7006254,-10.781284,10.114554,-14.361005,-7.215444,5.2106504,-2.725743,-4.623131,10.384089,-11.431851,3.5051687,-2.409233,0.5995364,5.6241145,8.752703,12.931392,-22.432028,60.757965,13.518783,2.4811807,-3.5219848,5.4849524,-14.573241,45.514038,67.915825,9.548654,-2.0539374,-4.405945
214,0.13801559805870056,2.9422073364257812,77.98542022705078,-1.0389771129527556,-2.9494960277052638,-89.91807067149415,3.7590775,5.725045,-10.7474575,10.124672,-14.382172,-7.2226644,5.246611,-2.7040927,-4.597121,10.396197,-11.439154,3.4915383,-2.381633,0.5801733,5.681158,8.561255,13.028179,-22.440767,60.623753,13.417089,2.462574,-3.4946802,5.1781354,-14.614263,45.65615,67.955605,9.457984,-2.0068123,-4.403156
215,0.13068003952503204,2.953937530517578,77.9818344116211,-1.0483343374485579,-2.9933205923657806,-89.93760439636333,3.8029847,5.747789,-10.722661,10.138014,-14.40292,-7.2307343,5.2819724,-2.6835053,-4.5798955,10.406976,-11.446272,3.477132,-2.3559768,0.55584735,5.74045,8.383129,13.138374,-22.447323,60.46258,13.313577,2.4381351,-3.469207,4.879553,-14.650588,45.782074,67.979256,9.421397,-1.9600339,-4.379707
216,0.12499363720417023,2.9589052200317383,77.9801025390625,-1.0588356097618694,-3.0342750122567614,-89.9484742496805,3.843329,5.7683725,-10.708172,10.148834,-14.418443,-7.239406,5.3195753,-2.6640053,-4.571247,10.411579,-11.449969,3.4642951,-2.3313303,0.53170323,5.7939034,8.206495,13.244609,-22.462528,60.30411,13.242957,2.4215112,-3.4512274,4.5920424,-14.676503,45.877506,67.99753,9.358342,-1.9013581,-4.3535213
217,0.11852246522903442,2.9600977897644043,77.98043823242188,-1.0682802683414545,-3.071290678947129,-89.94747267475182,3.8752887,5.7861485,-10.7087,10.163271,-14.430396,-7.2490287,5.3606234,-2.6451566,-4.5745187,10.406453,-11.447836,3.4536576,-2.3089762,0.5236645,5.8305316,7.9967456,13.300096,-22.490257,60.20669,13.227511,2.4148338,-3.4332993,4.314229,-14.68582,45.93077,68.03067,9.254975,-1.8263485,-4.3253355
218,0.11312901228666306,2.9669015407562256,77.97931671142578,-1.0791331335011016,-3.1047192961279797,-89.93548788774419,3.9001312,5.801303,-10.72188,10.179315,-14.439328,-7.2595744,5.403074,-2.627585,-4.588762,10.395543,-11.442685,3.4439106,-2.2916071,0.4953374,5.8751717,7.8434176,13.4154,-22.51982,60.02165,13.228258,2.4142606,-3.435919,4.0579257,-14.693442,45.960136,68.01642,9.158534,-1.7400863,-4.2848487
219,0.10617520660161972,2.9720370769500732,77.9782485961914,-1.089897904649629,-3.136758267409054,-89.91923615754523,3.9237907,5.815468,-10.739885,10.192308,-14.444854,-7.2704945,5.4451923,-2.6109824,-4.6071305,10.384751,-11.437743,3.4346073,-2.2710009,0.4690413,5.915494,7.679899,13.521414,-22.555939,59.851627,13.241311,2.4146798,-3.4387195,3.804629,-14.691652,45.969864,68.008736,9.058444,-1.6508416,-4.2398877
