Frame,root_translateX,root_translateY,root_translateZ,root_rotateX,root_rotateY,root_rotateZ,left_hip_pitch_joint_dof,left_hip_roll_joint_dof,left_hip_yaw_joint_dof,left_knee_joint_dof,left_ankle_pitch_joint_dof,left_ankle_roll_joint_dof,right_hip_pitch_joint_dof,right_hip_roll_joint_dof,right_hip_yaw_joint_dof,right_knee_joint_dof,right_ankle_pitch_joint_dof,right_ankle_roll_joint_dof,waist_yaw_joint_dof,waist_roll_joint_dof,waist_pitch_joint_dof,left_shoulder_pitch_joint_dof,left_shoulder_roll_joint_dof,left_shoulder_yaw_joint_dof,left_elbow_joint_dof,left_wrist_roll_joint_dof,left_wrist_pitch_joint_dof,left_wrist_yaw_joint_dof,right_shoulder_pitch_joint_dof,right_shoulder_roll_joint_dof,right_shoulder_yaw_joint_dof,right_elbow_joint_dof,right_wrist_roll_joint_dof,right_wrist_pitch_joint_dof,right_wrist_yaw_joint_dof
0,-0.34753721952438354,2.0475058555603027,78.79873657226562,3.8047902112674494,-0.04508209599248961,-93.27381598182085,-0.37244695,-0.7844678,17.660341,6.9274755,-7.8873773,-0.81499094,-8.789919,-14.929389,-23.15193,25.759243,-13.928194,4.7695723,-0.1474932,-3.8814754,8.912525,3.9650078,8.822273,-17.122993,63.407997,6.6071215,-1.1684663,11.11591,-3.142141,-11.910535,31.616913,66.64928,0.88196325,-2.9085858,-7.8087006
1,-0.27575257420539856,2.0317108631134033,78.73599243164062,4.134740269751124,-0.12479004557152336,-93.29639390688433,-0.252644,-1.2349204,17.737741,6.8931746,-7.947429,-0.73504835,-9.270659,-15.5939665,-22.850824,26.947453,-14.379354,4.8447795,-0.10620085,-4.2424808,8.924658,3.8851323,8.82679,-17.069408,63.38084,6.3868675,-1.2311529,11.156476,-3.1249337,-11.915022,31.60825,66.58058,0.82990557,-2.948686,-7.8075395
2,-0.21186463534832,2.018425703048706,78.67135620117188,4.469593391470706,-0.20660905338861363,-93.3184254470754,-0.12920572,-1.692762,17.814264,6.859214,-8.006592,-0.6535631,-9.75013,-16.263878,-22.549303,28.135029,-14.844933,4.918494,-0.08085948,-4.6169343,8.950585,3.8034048,8.840012,-16.970581,63.343964,6.1751857,-1.3000746,11.185378,-3.1112096,-11.924442,31.60691,66.49499,0.762329,-2.988192,-7.7977633
3,-0.14443539083003998,2.008880138397217,78.61115264892578,4.783215573319813,-0.283000249573457,-93.33987525954873,-0.013940641,-2.1230185,17.887049,6.830448,-8.067468,-0.5778832,-10.225923,-16.897835,-22.244293,29.286636,-15.267374,4.9930816,-0.04348506,-4.9597282,8.960248,3.7231662,8.845359,-16.92002,63.319263,5.9664702,-1.3596212,11.224226,-3.0991201,-11.927824,31.596119,66.433304,0.7170523,-3.029816,-7.799003
4,-0.07655926793813705,1.9903326034545898,78.55317687988281,5.051346981917719,-0.3490439029689503,-93.36085943372727,0.08669878,-2.4972796,17.954132,6.8058977,-8.128725,-0.51505536,-10.695727,-17.460178,-21.930485,30.374338,-15.587462,5.0716667,-0.032686695,-5.264661,8.981548,3.6338568,8.858895,-16.828259,63.2946,5.847179,-1.4038937,11.240606,-3.093488,-11.934835,31.565855,66.34555,0.6878963,-3.0696003,-7.8056927
5,-0.009915870614349842,1.980149507522583,78.50041198730469,5.2691585964757675,-0.40291876304636404,-93.38251578982026,0.1689968,-2.807726,18.016428,6.786742,-8.192347,-0.46791723,-11.156995,-17.939327,-21.603712,31.38483,-15.794165,5.155529,-0.027357977,-5.512519,8.992919,3.5502734,8.872425,-16.760616,63.268734,5.805501,-1.4197196,11.247574,-3.0925958,-11.941201,31.513788,66.25967,0.6912501,-3.1091318,-7.8298707
6,0.05346423014998436,1.9692614078521729,78.45415496826172,5.449547073782419,-0.44825502718817606,-93.40483354181728,0.23822866,-3.0725994,18.07566,6.7721562,-8.258344,-0.4318946,-11.61181,-18.357435,-21.267378,32.338627,-15.918114,5.243986,-0.0249978,-5.7218122,9.001818,3.462079,8.885135,-16.70311,63.247562,5.82589,-1.4160426,11.245144,-3.0918508,-11.947041,31.438782,66.16653,0.7113883,-3.1475165,-7.8652244
7,0.11652523279190063,1.9654581546783447,78.41584777832031,5.599391915670782,-0.4851852337155308,-93.42537342823258,0.2945617,-3.2986238,18.129799,6.7596397,-8.320601,-0.40281007,-12.065629,-18.727047,-20.929728,33.25443,-15.96528,5.3374667,-0.03219469,-5.896508,9.006506,3.3740587,8.895599,-16.656063,63.231846,5.8740053,-1.4041733,11.245696,-3.099172,-11.951884,31.354303,66.08262,0.7627342,-3.187855,-7.907866
8,0.17634190618991852,1.9643148183822632,78.38397979736328,5.722089817752698,-0.5144261421526535,-93.44178210556368,0.34102735,-3.4927392,18.176735,6.7462687,-8.37467,-0.3764733,-12.523362,-19.060081,-20.599117,34.151882,-15.942861,5.436601,-0.03536973,-6.045307,9.022787,3.2758124,8.914655,-16.622845,63.217503,5.9249253,-1.3956017,11.252224,-3.1060452,-11.960712,31.233517,65.99255,0.8408429,-3.2322352,-7.9458027
9,0.23281536996364594,1.9669866561889648,78.36185455322266,5.815133611648869,-0.533682298364193,-93.45212193366541,0.37512738,-3.6515949,18.215076,6.7326245,-8.418134,-0.3542008,-12.987904,-19.355522,-20.280254,35.035103,-15.840931,5.5413713,-0.060511563,-6.159479,9.030748,3.1857586,8.929774,-16.605206,63.206238,5.9630446,-1.3898709,11.278754,-3.126299,-11.9672,31.120058,65.92566,0.983903,-3.285572,-7.985449
10,0.2927817404270172,1.9658852815628052,78.34587860107422,5.877744065140446,-0.5439833471680171,-93.45851219768879,0.3977927,-3.7735264,18.24667,6.717873,-8.452987,-0.33740962,-13.456258,-19.60785,-19.96757,35.896408,-15.661073,5.6528826,-0.094276294,-6.240899,9.038465,3.0917013,8.944427,-16.600622,63.202564,6.0111012,-1.3835853,11.315452,-3.152424,-11.972854,30.990719,65.86593,1.1707467,-3.344963,-8.026586
11,0.3552028238773346,1.9667078256607056,78.33319091796875,5.920159397376218,-0.5492716263565026,-93.46409523028127,0.4071304,-3.8701668,18.27545,6.716356,-8.490615,-0.3215969,-13.9257555,-19.82897,-19.652645,36.735687,-15.424996,5.7745585,-0.12454046,-6.3025436,9.052435,2.9951208,8.961737,-16.609997,63.199444,6.0649,-1.3769419,11.355997,-3.1803715,-11.978853,30.843388,65.80717,1.3675276,-3.401483,-8.070988
12,0.409268856048584,1.9632045030593872,78.32185363769531,5.948583026907569,-0.5523764120826357,-93.4706792750204,0.41167232,-3.9479353,18.302132,6.715327,-8.5271635,-0.30348703,-14.390557,-20.019993,-19.333542,37.545906,-15.151482,5.9073906,-0.17088296,-6.348658,9.068673,2.9104776,8.973309,-16.602957,63.193283,6.1266313,-1.3744007,11.3963585,-3.2263377,-11.983381,30.719587,65.765274,1.5510248,-3.4455426,-8.126334
13,0.46586963534355164,1.9692195653915405,78.31565856933594,5.9554274605470985,-0.5535148236692947,-93.48054649767093,0.41072342,-4.000072,18.327503,6.7157493,-8.565479,-0.28237948,-14.856362,-20.1784,-19.011478,38.336735,-14.820086,6.0590887,-0.20828468,-6.3750515,9.101279,2.8215635,8.986152,-16.591825,63.188084,6.202303,-1.3779572,11.434796,-3.276701,-11.989936,30.581453,65.72079,1.7034044,-3.4741797,-8.177024
14,0.5201804637908936,1.9808958768844604,78.31170654296875,5.938694409506695,-0.5510634014494044,-93.49173995105194,0.40336928,-4.025282,18.35035,6.7162256,-8.602565,-0.26018545,-15.322951,-20.299883,-18.689009,39.105305,-14.427981,6.226901,-0.2562166,-6.3787174,9.140192,2.7390685,8.996028,-16.568892,63.18124,6.2904353,-1.385729,11.475151,-3.3419425,-11.997572,30.45645,65.68692,1.8542917,-3.4923744,-8.228558
15,0.5748351812362671,1.9935425519943237,78.31491088867188,5.913601062314245,-0.5460639327528838,-93.50095898002185,0.39145297,-4.0385337,18.369246,6.7165494,-8.634441,-0.23733489,-15.7783165,-20.396294,-18.360945,39.837616,-14.026738,6.3967957,-0.31641912,-6.3725142,9.17771,2.6667933,9.00241,-16.544489,63.170895,6.377539,-1.3941635,11.514233,-3.4171343,-12.004854,30.34357,65.66344,1.9979494,-3.5032196,-8.303632
16,0.6233264207839966,2.000053882598877,78.31443786621094,5.892611156397787,-0.5396803022848646,-93.50464772023295,0.37753603,-4.055331,18.382774,6.7173586,-8.658161,-0.21415427,-16.210045,-20.476614,-18.023283,40.517315,-13.666494,6.5537434,-0.37171468,-6.370045,9.214377,2.595975,9.010497,-16.544048,63.158245,6.4492292,-1.3997641,11.5470085,-3.4855287,-12.015694,30.216766,65.63351,2.1223063,-3.5099075,-8.421233
17,0.6670129299163818,2.0063693523406982,78.31641387939453,5.876772454606986,-0.5314753740724765,-93.50332762330106,0.36119154,-4.077339,18.39107,6.717298,-8.669592,-0.1896997,-16.617674,-20.548338,-17.684898,41.14717,-13.342416,6.701604,-0.4283819,-6.3721557,9.244064,2.5380645,9.019918,-16.570345,63.136967,6.503748,-1.3983158,11.580742,-3.5497673,-12.029432,30.091513,65.60178,2.2222786,-3.5053885,-8.60908
18,0.7121347188949585,2.007628917694092,78.3155288696289,5.861618535805767,-0.5210531943069138,-93.49831009328258,0.34218103,-4.097521,18.39462,6.7167087,-8.672319,-0.1640747,-17.007309,-20.60386,-17.345192,41.734135,-13.033941,6.8450923,-0.48179528,-6.3725953,9.272882,2.4876688,9.031797,-16.620361,63.1091,6.5467143,-1.3926824,11.614386,-3.6084843,-12.047658,29.959862,65.564,2.3009543,-3.490527,-8.847526
19,0.7494329214096069,2.0134809017181396,78.31869506835938,5.846886016669981,-0.5095653342157941,-93.4874765720767,0.3209483,-4.1167045,18.392778,6.7171054,-8.671277,-0.13923888,-17.373365,-20.637312,-16.98576,42.26701,-12.767026,6.9706144,-0.52672046,-6.3745427,9.3037,2.4370704,9.0509,-16.697565,63.07713,6.567407,-1.3892944,11.633473,-3.651764,-12.074772,29.808481,65.51028,2.3772533,-3.4805224,-9.091127
20,0.7856358885765076,2.0196850299835205,78.31803131103516,5.836130814399858,-0.4983569597474969,-93.4685894843997,0.29955605,-4.136331,18.384686,6.716423,-8.670123,-0.11708885,-17.710669,-20.639263,-16.588997,42.73399,-12.567472,7.0640345,-0.589194,-6.38177,9.331297,2.3921642,9.071374,-16.767614,63.042854,6.566894,-1.3954824,11.6243,-3.7000597,-12.097033,29.666294,65.465034,2.482466,-3.4912512,-9.299423
21,0.8143383264541626,2.0252702236175537,78.31451416015625,5.8282042146850275,-0.48676140853006017,-93.4398463835536,0.2762347,-4.1568575,18.370539,6.71593,-8.670354,-0.09544222,-18.035696,-20.593693,-16.109482,43.145756,-12.432794,7.1085095,-0.6294538,-6.397856,9.370537,2.3378532,9.113398,-16.876375,62.99658,6.5202193,-1.4138721,11.5756645,-3.712378,-12.130992,29.46194,65.37824,2.614909,-3.5343482,-9.463087
22,0.8354791402816772,2.028679132461548,78.31478881835938,5.823265222560093,-0.47453799056753193,-93.40285582340955,0.25101498,-4.1773133,18.350471,6.714736,-8.669007,-0.07420323,-18.343674,-20.510494,-15.571473,43.50381,-12.351866,7.1153574,-0.68494344,-6.42116,9.409766,2.291778,9.162805,-16.981749,62.94127,6.446628,-1.4434459,11.498003,-3.7277458,-12.161303,29.256311,65.29246,2.7767794,-3.5996795,-9.608571
23,0.8523580431938171,2.029115676879883,78.31173706054688,5.821093167771184,-0.46316636347407814,-93.36021176334035,0.22680543,-4.1982093,18.324095,6.715147,-8.667778,-0.058349982,-18.599974,-20.420042,-15.060652,43.784763,-12.338152,7.111444,-0.7313012,-6.45154,9.449447,2.2470992,9.227673,-17.111685,62.8821,6.357453,-1.4739435,11.402152,-3.7267017,-12.191578,29.042452,65.19785,2.9307678,-3.6673713,-9.722885
24,0.865313708782196,2.024292230606079,78.30645751953125,5.824453907127947,-0.4542725224044973,-93.31466281988752,0.20884785,-4.2206817,18.290798,6.715133,-8.666269,-0.05267247,-18.770107,-20.357523,-14.66114,43.965195,-12.405591,7.1230745,-0.78098994,-6.484365,9.477328,2.203126,9.29066,-17.25071,62.840298,6.2785583,-1.4981588,11.303869,-3.7295597,-12.214371,28.868336,65.129395,3.0586798,-3.7171671,-9.800526
25,0.8754071593284607,2.0161232948303223,78.2998275756836,5.834226863788315,-0.44917518799989514,-93.2658729573219,0.19831745,-4.248724,18.248716,6.7149377,-8.664368,-0.0605058,-18.844685,-20.325253,-14.373179,44.028896,-12.574413,7.1784353,-0.7964425,-6.5321956,9.508904,2.1590822,9.390495,-17.45241,62.789173,6.190627,-1.5123888,11.188892,-3.6992042,-12.243217,28.682684,65.041435,3.1450574,-3.746327,-9.826876
26,0.8799006342887878,2.0038602352142334,78.29408264160156,5.850007186091266,-0.4467526500010081,-93.21255839633169,0.19385543,-4.2805986,18.198399,6.712661,-8.660856,-0.07849966,-18.842245,-20.309181,-14.159285,43.99115,-12.831422,7.2548995,-0.8267406,-6.5821633,9.52769,2.1151412,9.4794,-17.65391,62.7571,6.110662,-1.5231233,11.063454,-3.679345,-12.262853,28.534397,64.98441,3.213828,-3.7641106,-9.81824
27,0.8780403137207031,1.9882142543792725,78.2887191772461,5.865706999560658,-0.4447918503061657,-93.15656252682021,0.1918206,-4.30904,18.144066,6.71272,-8.658981,-0.10171762,-18.773518,-20.319298,-14.045237,43.876804,-13.140992,7.3029447,-0.8333508,-6.639377,9.547176,2.0747418,9.596276,-17.887236,62.719303,6.024556,-1.5297204,10.936358,-3.6351802,-12.282754,28.390076,64.91655,3.2574282,-3.771708,-9.776248
28,0.8710944056510925,1.9705404043197632,78.28523254394531,5.875163528197132,-0.4410597693065231,-93.09955661971962,0.19175072,-4.3269005,18.08929,6.7118855,-8.657305,-0.12526883,-18.647419,-20.363192,-14.057871,43.708363,-13.466954,7.2735643,-0.8401389,-6.691047,9.558471,2.043158,9.7188425,-18.107054,62.68826,5.950739,-1.5346841,10.827642,-3.5877044,-12.296585,28.293528,64.86423,3.2825923,-3.7708218,-9.714767
29,0.8581124544143677,1.9454141855239868,78.28636169433594,5.873974853209529,-0.4346214036627701,-93.04090000526818,0.19190414,-4.330221,18.034506,6.712197,-8.655121,-0.1469704,-18.458036,-20.45732,-14.234328,43.491074,-13.858852,7.1127453,-0.84785676,-6.7337,9.557514,2.0141532,9.842457,-18.319681,62.674305,5.884533,-1.540342,10.738643,-3.5380921,-12.30265,28.246407,64.831665,3.2890642,-3.762281,-9.628659
30,0.8501434922218323,1.9142028093338013,78.28977966308594,5.867139558964657,-0.4267722892967229,-92.98010676551245,0.19310464,-4.3229365,17.977852,6.713239,-8.652258,-0.16985287,-18.202496,-20.588526,-14.550464,43.21163,-14.317136,6.863876,-0.8536755,-6.770859,9.546168,1.9861636,9.96918,-18.533554,62.675533,5.823443,-1.5452065,10.662141,-3.485011,-12.301275,28.238815,64.81642,3.2755468,-3.7452154,-9.515589
31,0.8329835534095764,1.8869744539260864,78.2906265258789,5.857297220841659,-0.4185380260718027,-92.9193246089642,0.19763356,-4.311154,17.92025,6.7137694,-8.652387,-0.19650455,-17.894384,-20.7235,-14.939673,42.865566,-14.730755,6.622978,-0.85354906,-6.805134,9.528623,1.9624659,10.095595,-18.731,62.688396,5.7829843,-1.5458992,10.604815,-3.4277651,-12.292669,28.266085,64.81914,3.2385306,-3.718785,-9.389294
32,0.8109902143478394,1.862646222114563,78.2901382446289,5.849466755083686,-0.41120795067974203,-92.86039614529325,0.20602146,-4.299563,17.862345,6.7141447,-8.659091,-0.22968924,-17.548485,-20.830688,-15.33668,42.450344,-14.987309,6.482723,-0.84487134,-6.8381886,9.507858,1.9454834,10.215525,-18.892673,62.71239,5.780229,-1.5390564,10.574373,-3.37023,-12.278652,28.327461,64.84578,3.1771393,-3.682194,-9.264176
33,0.7898930311203003,1.825690507888794,78.28761291503906,5.843115693022949,-0.4063630583896232,-92.80364513411914,0.22030568,-4.2897134,17.802706,6.714993,-8.676251,-0.27121747,-17.152315,-20.91105,-15.75184,41.948814,-14.984034,6.4888024,-0.8280904,-6.8678656,9.483181,1.9354962,10.323636,-19.01432,62.75341,5.8350687,-1.5215164,10.578388,-3.3092768,-12.259123,28.425821,64.90099,3.0781863,-3.6336439,-9.14136
34,0.7687740921974182,1.7864965200424194,78.28662109375,5.837907074706458,-0.40297841227627845,-92.74807876987794,0.23973966,-4.2793703,17.741539,6.7157993,-8.700829,-0.31923205,-16.70423,-20.975845,-16.2114,41.368828,-14.803881,6.583338,-0.8051428,-6.8930745,9.452075,1.9286155,10.41953,-19.105204,62.815567,5.9340825,-1.4959133,10.612296,-3.2482312,-12.235644,28.564354,64.98601,2.9492946,-3.5743792,-9.014868
35,0.7457688450813293,1.7461415529251099,78.28504943847656,5.831716291718221,-0.39866485650964617,-92.69345323379744,0.25972283,-4.266477,17.681728,6.717063,-8.727085,-0.3708959,-16.232943,-21.013655,-16.674736,40.74065,-14.610953,6.7021513,-0.76957273,-6.9009223,9.414487,1.9014719,10.477907,-19.170471,62.920033,6.050437,-1.4688059,10.670859,-3.179962,-12.21886,28.721514,65.08547,2.805724,-3.5082874,-8.885867
36,0.7241936922073364,1.7066413164138794,78.2818832397461,5.825676094117646,-0.3904953500148385,-92.63964897491118,0.27651995,-4.249182,17.626286,6.717668,-8.748554,-0.42360067,-15.76644,-21.013607,-17.101936,40.091537,-14.568947,6.7818627,-0.7355234,-6.915904,9.3772955,1.8984604,10.555513,-19.19576,62.99654,6.143441,-1.4438692,10.728769,-3.11061,-12.1924715,28.905455,65.17612,2.6717741,-3.4359145,-8.756111
37,0.6932650804519653,1.6621540784835815,78.27909851074219,5.82034758744841,-0.3766132048088478,-92.58415624173051,0.2868111,-4.2302737,17.575779,6.71829,-8.763321,-0.4777891,-15.30847,-20.966782,-17.480322,39.417618,-14.750405,6.8113456,-0.6913885,-6.929573,9.3379,1.8919653,10.628421,-19.193516,63.07753,6.2071776,-1.4248127,10.790661,-3.030521,-12.16244,29.095201,65.25612,2.535003,-3.3520346,-8.629698
38,0.6592633128166199,1.6151193380355835,78.27667236328125,5.815674800631591,-0.35886669143602085,-92.52786730050934,0.2943999,-4.209606,17.528414,6.7168765,-8.773518,-0.53453285,-14.844167,-20.883629,-17.831156,38.704967,-15.057209,6.8223724,-0.6339651,-6.9361925,9.294611,1.8765148,10.686226,-19.168295,63.176044,6.25912,-1.4082911,10.864908,-2.9381542,-12.134998,29.294718,65.33216,2.3897467,-3.2573118,-8.504247
39,0.6258529424667358,1.5672677755355835,78.27832794189453,5.806728492349867,-0.34045421828324174,-92.47595523733791,0.30246335,-4.1809144,17.484777,6.717744,-8.784841,-0.5914324,-14.378649,-20.773445,-18.166147,37.971848,-15.400192,6.815257,-0.56399417,-6.9324813,9.252753,1.859558,10.731534,-19.114885,63.28164,6.3081393,-1.390226,10.949701,-2.8406935,-12.110981,29.506948,65.40412,2.254477,-3.164974,-8.370491
40,0.594506561756134,1.519832968711853,78.2763671875,5.789817877596514,-0.3248174203318721,-92.4339274871673,0.31719524,-4.139174,17.445017,6.7187943,-8.799164,-0.6461704,-13.914442,-20.650715,-18.496553,37.23449,-15.689642,6.7916484,-0.4868095,-6.9175334,9.216515,1.8527038,10.769006,-19.02312,63.38142,6.3633943,-1.3669125,11.042563,-2.7510037,-12.089061,29.741163,65.478004,2.1492715,-3.0886157,-8.220057
41,0.5617228746414185,1.468064785003662,78.27350616455078,5.768185727139705,-0.31290886315749467,-92.4032051941727,0.33950198,-4.0889153,17.410126,6.720395,-8.817611,-0.6970966,-13.45389,-20.522928,-18.826977,36.499687,-15.921935,6.744109,-0.41411465,-6.8988233,9.184646,1.8691345,10.802799,-18.868767,63.466915,6.438822,-1.3384322,11.144849,-2.6771262,-12.065843,30.02009,65.558754,2.0823112,-3.0303698,-8.041258
42,0.5232716202735901,1.4173293113708496,78.27864074707031,5.74031598912496,-0.3030268143502257,-92.38098816233435,0.36872944,-4.031476,17.379683,6.719959,-8.837709,-0.74583644,-12.993975,-20.381756,-19.1505,35.75585,-16.137283,6.674567,-0.30750307,-6.8671055,9.15874,1.871815,10.819739,-18.703302,63.569202,6.5181746,-1.3040211,11.261884,-2.5906847,-12.051446,30.292345,65.62888,2.0329068,-2.9834886,-7.8394823
43,0.48438146710395813,1.368360996246338,78.28852844238281,5.699656860189051,-0.29414082858233354,-92.36601129571453,0.39994153,-3.9537077,17.351564,6.723094,-8.859906,-0.79500735,-12.534704,-20.21199,-19.461958,35.000572,-16.316399,6.598068,-0.22484244,-6.8192625,9.134474,1.9034252,10.827945,-18.47372,63.65147,6.5984683,-1.2679553,11.3797,-2.5275474,-12.037719,30.613596,65.71002,2.0143015,-2.947162,-7.640555
44,0.44558531045913696,1.318482518196106,78.30242919921875,5.632228715976642,-0.28543359864017503,-92.35709411538625,0.43235838,-3.8433912,17.323414,6.7254257,-8.878556,-0.84727484,-12.075521,-19.998741,-19.75615,34.230026,-16.43936,6.528927,-0.11652034,-6.7396793,9.119099,1.9246603,10.825102,-18.257782,63.740147,6.6472263,-1.2312509,11.496969,-2.461432,-12.029549,30.901785,65.786934,2.0022092,-2.9220986,-7.4633036
45,0.4039989709854126,1.2674866914749146,78.31768798828125,5.5420805422261,-0.27602856446459306,-92.35594617676315,0.46503773,-3.7031994,17.297926,6.729167,-8.895114,-0.9022917,-11.619604,-19.744194,-20.025158,33.445267,-16.513044,6.4672694,-0.034427892,-6.633046,9.106912,1.970515,10.808676,-17.984013,63.809563,6.679767,-1.1946528,11.61065,-2.4239383,-12.022366,31.231615,65.878944,2.0283558,-2.9163818,-7.314133
46,0.3594832122325897,1.2150719165802002,78.33840942382812,5.433042363122495,-0.2668100858811752,-92.36261981392657,0.49974507,-3.5377748,17.27496,6.732311,-8.909176,-0.9591065,-11.165865,-19.452982,-20.273594,32.645752,-16.543503,6.4052997,0.05567308,-6.500101,9.099733,2.01638,10.774953,-17.688965,63.882168,6.6953506,-1.1566682,11.72769,-2.3964293,-12.018417,31.565762,65.97736,2.080042,-2.9275255,-7.180628
47,0.3121899962425232,1.1662920713424683,78.36681365966797,5.295944024282721,-0.2589949734492814,-92.37302071361084,0.5369203,-3.337146,17.249123,6.73572,-8.921458,-1.0192857,-10.708299,-19.120829,-20.514034,31.830206,-16.510424,6.3459363,0.15341596,-6.3340654,9.09774,2.063532,10.728666,-17.394419,63.955376,6.688255,-1.1194938,11.841534,-2.3720589,-12.018008,31.879025,66.074356,2.1258197,-2.937139,-7.0635347
48,0.2658630907535553,1.1217682361602783,78.40776062011719,5.122550646741826,-0.25394986950753357,-92.3833227091175,0.5754209,-3.0904071,17.21453,6.742838,-8.933456,-1.0845438,-10.242732,-18.738876,-20.758898,30.998392,-16.394701,6.2922087,0.27072582,-6.134606,9.104209,2.1141102,10.6902895,-17.13706,64.01879,6.646455,-1.0844538,11.943213,-2.3382168,-12.018649,32.130413,66.15752,2.128954,-2.92743,-6.962702
49,0.2150239199399948,1.0771845579147339,78.45685577392578,4.902606629419373,-0.2540002416331633,-92.39550350533032,0.6202756,-2.7838316,17.170633,6.748788,-8.942757,-1.1574981,-9.766245,-18.292713,-21.008438,30.148876,-16.171743,6.2496204,0.3138999,-5.8827915,9.108449,2.211435,10.623526,-16.789463,64.05822,6.6048617,-1.0535321,12.032633,-2.3598871,-12.016693,32.447487,66.27838,2.113598,-2.8891716,-6.891019
50,0.16027553379535675,1.0255858898162842,78.51071166992188,4.642220629873325,-0.25785912992809273,-92.41053985801345,0.667552,-2.4254396,17.120497,6.7590537,-8.952082,-1.236691,-9.282203,-17.790216,-21.256092,29.282219,-15.858419,6.2148447,0.3701302,-5.590443,9.120643,2.3121996,10.553477,-16.454779,64.09313,6.533215,-1.0231789,12.11474,-2.3850114,-12.012045,32.726093,66.401344,2.0638018,-2.834898,-6.840399
51,0.09932298213243484,0.9750477075576782,78.56896209716797,4.360017428943719,-0.2615932894514146,-92.42311766760238,0.7139741,-2.0405102,17.06379,6.768645,-8.958627,-1.3175533,-8.79125,-17.254423,-21.506004,28.393173,-15.4922495,6.1782393,0.40268886,-5.2746353,9.128205,2.4299252,10.469051,-16.112082,64.122635,6.4508924,-0.99874806,12.186442,-2.426874,-12.002134,32.992245,66.53451,2.0033622,-2.773371,-6.803045
52,0.03955094888806343,0.9306922554969788,78.62879943847656,4.075610578507582,-0.26106711083278067,-92.42780657909837,0.7536816,-1.6534548,16.999866,6.778006,-8.962388,-1.3954066,-8.291508,-16.707575,-21.763144,27.46987,-15.111682,6.1302648,0.42861933,-4.9585886,9.126873,2.554978,10.384666,-15.809669,64.15049,6.3532147,-0.98353845,12.244045,-2.4637485,-11.987528,33.20174,66.65829,1.9346678,-2.71445,-6.766887
53,-0.023230187594890594,0.8810880780220032,78.68759155273438,3.785322670467079,-0.2559584096237328,-92.4226324931695,0.7851507,-1.2600591,16.926508,6.7893,-8.965467,-1.4684902,-7.7808104,-16.14484,-22.032429,26.508408,-14.715556,6.06485,0.4443648,-4.6413403,9.117471,2.6940749,10.305166,-15.538212,64.171715,6.2349577,-0.98014694,12.292138,-2.4955285,-11.9685755,33.35461,66.773094,1.8675534,-2.6596277,-6.727062
54,-0.08820297569036484,0.8359935283660889,78.74929809570312,3.479311583201364,-0.24832171749327683,-92.41079678253666,0.811075,-0.85002047,16.844599,6.8025985,-8.968457,-1.539476,-7.2591863,-15.556208,-22.310099,25.511381,-14.286016,5.988101,0.43850136,-4.3104706,9.099697,2.8483567,10.216373,-15.272612,64.19064,6.1036315,-0.9864195,12.332365,-2.5357513,-11.94074,33.473907,66.895096,1.795936,-2.6041586,-6.691741
55,-0.15379421412944794,0.799979567527771,78.81124877929688,3.174997940691171,-0.2366211498370207,-92.3939304030341,0.8294325,-0.43968776,16.758615,6.814685,-8.966004,-1.6104058,-6.735392,-14.960689,-22.58663,24.49126,-13.838733,5.9083805,0.4399602,-3.9887693,9.080933,3.0111988,10.150008,-15.067469,64.18864,5.9547358,-0.9970333,12.344558,-2.5592358,-11.915616,33.531773,66.98268,1.7055391,-2.547949,-6.661445
56,-0.225582554936409,0.7527618408203125,78.87193298339844,2.8862991315417763,-0.2196531516857681,-92.37406507363488,0.83883315,-0.044893112,16.673037,6.8264585,-8.95667,-1.6834316,-6.215712,-14.376622,-22.853159,23.456928,-13.387248,5.833746,0.41625273,-3.6785855,9.047941,3.1764565,10.069342,-14.897868,64.18797,5.821255,-1.0095761,12.323554,-2.6015,-11.880072,33.5727,67.07697,1.5942047,-2.4917507,-6.6483173
57,-0.2936955392360687,0.7090245485305786,78.9298095703125,2.615145218735979,-0.1947634144512791,-92.35034367902465,0.8356517,0.32981604,16.58684,6.837814,-8.935617,-1.7573502,-5.7056594,-13.810621,-23.107136,22.412157,-12.933026,5.764958,0.39250043,-3.3887362,9.003593,3.3422809,9.993916,-14.798925,64.17841,5.683655,-1.0233964,12.258924,-2.636736,-11.841242,33.55384,67.147385,1.424189,-2.4287906,-6.653063
58,-0.36303818225860596,0.6676415801048279,78.98390197753906,2.3556816531990914,-0.16324106291011853,-92.32210481524713,0.82245713,0.6930312,16.498226,6.848335,-8.905847,-1.8316799,-5.201046,-13.253454,-23.353136,21.352003,-12.46989,5.6970563,0.36601356,-3.1162958,8.95422,3.5199347,9.936952,-14.758153,64.14475,5.536195,-1.0397775,12.153957,-2.6584105,-11.807133,33.479782,67.180664,1.2112811,-2.3604267,-6.669153
59,-0.43267327547073364,0.6323898434638977,79.0347671508789,2.105790374837036,-0.13004688625238495,-92.2918670664683,0.8059867,1.0466673,16.410276,6.8584003,-8.875341,-1.9094167,-4.6945405,-12.701629,-23.592585,20.273863,-11.998758,5.6297994,0.33506835,-2.8553133,8.902316,3.6973767,9.888325,-14.7733965,64.10085,5.399512,-1.0564002,12.02228,-2.6794317,-11.772583,33.379505,67.19552,1.0165817,-2.3002038,-6.691992
60,-0.5102488994598389,0.5873914957046509,79.08045959472656,1.8647119369995457,-0.10049943785950266,-92.26216153141891,0.7928883,1.3930197,16.326466,6.8695183,-8.853149,-1.9937007,-4.1734796,-12.148158,-23.828005,19.163767,-11.520006,5.5635476,0.30653143,-2.6019504,8.852549,3.8606303,9.846428,-14.853768,64.057816,5.288804,-1.070641,11.875709,-2.7053597,-11.7337885,33.27219,67.20199,0.89997846,-2.2619712,-6.7153225
61,-0.5874898433685303,0.5528207421302795,79.12200927734375,1.62866427623502,-0.07431755378256283,-92.23182395502,0.7831964,1.7338158,16.246313,6.8804955,-8.840107,-2.087135,-3.6367128,-11.589728,-24.064259,18.02069,-11.031611,5.4986534,0.26459706,-2.3591359,8.811463,4.0279307,9.82663,-14.989878,63.986835,5.2156506,-1.0790768,11.701474,-2.7337024,-11.704507,33.178,67.17502,0.89771765,-2.2471812,-6.731172
62,-0.6635671854019165,0.5172269344329834,79.16072082519531,1.40068470365407,-0.049474822419818064,-92.19998476508266,0.774517,2.0672574,16.168589,6.8914266,-8.832001,-2.1875358,-3.0872686,-11.029081,-24.298605,16.84543,-10.532702,5.434938,0.2201415,-2.1260536,8.772451,4.1895146,9.819507,-15.192126,63.905308,5.167698,-1.0839576,11.502074,-2.764094,-11.676222,33.07073,67.1286,0.9673731,-2.2500896,-6.746358
63,-0.738210916519165,0.4786268472671509,79.19913482666016,1.1851825628300312,-0.028201899187701763,-92.16951925284593,0.77122813,2.387785,16.095161,6.9022355,-8.829314,-2.2908518,-2.5282238,-10.474291,-24.520508,15.648594,-10.024792,5.3730783,0.20677054,-1.9094378,8.733075,4.327845,9.828684,-15.483114,63.835094,5.1187935,-1.0905796,11.295579,-2.7833996,-11.635678,32.918716,67.075005,1.0600197,-2.27099,-6.7703733
64,-0.8229055404663086,0.4334687292575836,79.23602294921875,0.9855401532158812,-0.012721604120708975,-92.1428965708024,0.7772757,2.6899006,16.028027,6.9124117,-8.831454,-2.392722,-1.9588388,-9.931542,-24.720104,14.432921,-9.50947,5.3140883,0.18432204,-1.716726,8.700877,4.4734607,9.85517,-15.786088,63.75055,5.0709763,-1.1072754,11.086616,-2.8054442,-11.596919,32.78986,67.01024,1.163383,-2.3064659,-6.809328
65,-0.9054491519927979,0.39602750539779663,79.26453399658203,0.8025639307642413,-0.004927574394146523,-92.11653556989253,0.7899986,2.9749534,15.962668,6.93089,-8.844275,-2.4919574,-1.3787248,-9.401201,-24.89647,13.206228,-8.98841,5.258324,0.14381926,-1.5438538,8.676127,4.622757,9.888011,-16.10424,63.65712,5.0163474,-1.1405244,10.870977,-2.8284264,-11.567238,32.692104,66.928955,1.2863123,-2.3663988,-6.8677835
66,-0.9796799421310425,0.358295738697052,79.28610229492188,0.6327003051891457,-0.003311440250153162,-92.09013453732939,0.8081315,3.246752,15.898861,6.95549,-8.866121,-2.5907938,-0.7868335,-8.877511,-25.05543,11.963569,-8.461446,5.2063913,0.13756539,-1.3958224,8.655945,4.754184,9.953146,-16.512356,63.562893,4.9408402,-1.1819019,10.647294,-2.8347187,-11.526886,32.5563,66.831505,1.4235195,-2.450783,-6.940718
67,-1.0563288927078247,0.31406140327453613,79.3023681640625,0.48160554804143413,-0.00457318985969104,-92.07146665918145,0.7538223,3.5211256,15.840586,7.1537123,-8.98366,-2.6900175,-0.19911903,-8.373127,-25.19245,10.729015,-7.936268,5.160105,0.1212468,-1.267597,8.639507,4.891883,10.026255,-16.915623,63.46111,4.8865547,-1.226437,10.429493,-2.8464184,-11.48828,32.442448,66.729065,1.5626414,-2.5357192,-7.022129
68,-1.1364654302597046,0.2637521028518677,79.31672668457031,0.3519433650163092,-0.005347742438174689,-92.06864875291387,0.7103806,3.7664106,15.801868,7.3368974,-9.095544,-2.7886364,0.36650085,-7.901855,-25.303223,9.52883,-7.4206886,5.120557,0.09181424,-1.1506932,8.62076,5.032609,10.079838,-17.274559,63.367966,4.881537,-1.2634374,10.240127,-2.8704789,-11.460743,32.36188,66.636505,1.6785104,-2.598616,-7.1065674
69,-1.2104785442352295,0.22152048349380493,79.32737731933594,0.248106324973189,-0.002766754772745347,-92.08700866533623,0.7051976,3.9706056,15.78953,7.440308,-9.165962,-2.8880432,0.9056473,-7.4680514,-25.384157,8.3623705,-6.9138303,5.08556,0.11643639,-1.061827,8.597393,5.1582975,10.157879,-17.684145,63.280476,4.902439,-1.288722,10.080999,-2.8789852,-11.422046,32.232204,66.54333,1.7286081,-2.6334245,-7.20284
70,-1.2749805450439453,0.1775977611541748,79.33788299560547,0.17282055531842408,0.0006773010101174696,-92.12173517148112,0.7352896,4.1347475,15.799122,7.473333,-9.201131,-2.9869065,1.4295073,-7.068763,-25.438286,7.2139363,-6.407675,5.055691,0.12431303,-0.9893413,8.570564,5.287968,10.219731,-18.064049,63.19763,4.971185,-1.3107458,9.943631,-2.903766,-11.389817,32.13967,66.46002,1.7568749,-2.6498954,-7.3123283
71,-1.3434921503067017,0.13094675540924072,79.3392562866211,0.1369040836028275,0.00926202148358564,-92.17450739482666,0.7891445,4.247036,15.836843,7.4524565,-9.213044,-3.0807295,1.5105207,-6.92693,-25.410172,7.0725474,-6.4229336,5.0425973,0.13489112,-0.9503972,8.5365095,5.413612,10.263366,-18.404268,63.13083,5.069753,-1.3288653,9.830443,-2.9325707,-11.364862,32.066437,66.38348,1.7838693,-2.6586747,-7.412881
72,-1.418213129043579,0.0844564139842987,79.33038330078125,0.12607540491808303,0.010456342176599865,-92.22938199425097,0.86520696,4.3258877,15.885561,7.405416,-9.219334,-3.168306,1.5704829,-6.8304305,-25.370089,7.001076,-6.4729385,5.0423617,0.1816854,-0.9446039,8.510347,5.5233803,10.315721,-18.734789,63.082947,5.164213,-1.340311,9.742301,-2.9487264,-11.330102,31.96682,66.31299,1.8325433,-2.6728244,-7.48229
73,-1.4913330078125,0.034840553998947144,79.32209014892578,0.12909451891101123,-0.0016817784596946312,-92.28032448033296,0.9793395,4.382345,15.940834,7.3131914,-9.215005,-3.2492285,1.6482683,-6.751597,-25.3259,6.9330807,-6.5270853,5.060681,0.19577411,-0.9492128,8.4928255,5.644158,10.342778,-18.970224,63.053722,5.293096,-1.3488109,9.681172,-2.972779,-11.302788,31.916122,66.2551,1.9466823,-2.6924353,-7.511653
74,-1.5560411214828491,-0.01088164933025837,79.311279296875,0.14205989849684725,-0.023547045037612176,-92.33242652591608,1.1371633,4.4152546,16.006071,7.155483,-9.186465,-3.325269,1.7371227,-6.6883616,-25.274025,6.868294,-6.5826774,5.093173,0.2180774,-0.9643955,8.479932,5.757168,10.360065,-19.174902,63.049084,5.4414396,-1.3525785,9.64831,-2.9924896,-11.271053,31.865166,66.210304,2.0907495,-2.7156203,-7.513826
75,-1.6122970581054688,-0.05489380657672882,79.30126190185547,0.15411732125362795,-0.04545579728815527,-92.39136945300997,1.2645849,4.4544826,16.075256,7.064069,-9.19226,-3.397802,1.8114547,-6.633352,-25.2152,6.8286843,-6.644352,5.127279,0.20889345,-0.97467005,8.487184,5.8775687,10.36028,-19.26788,63.034283,5.6166005,-1.3532284,9.625406,-3.0324504,-11.260554,31.860912,66.157776,2.2301803,-2.733519,-7.49577
76,-1.666608214378357,-0.09807553142309189,79.29383850097656,0.16263430918734192,-0.057598489151920985,-92.46384226739383,1.3534015,4.5025253,16.149824,7.029648,-9.218862,-3.4669414,1.8496882,-6.5847898,-25.148817,6.826939,-6.7119584,5.1507583,0.25550243,-0.9718812,8.484259,5.970026,10.351868,-19.38911,63.043053,5.7364874,-1.3435341,9.628811,-3.0732098,-11.239275,31.833303,66.132645,2.314753,-2.7454395,-7.4826794
77,-1.713070034980774,-0.13571807742118835,79.29004669189453,0.1729892886712221,-0.06004375237327652,-92.55506728908694,1.430326,4.545334,16.2346,6.992503,-9.230126,-3.5318773,1.8653357,-6.5418735,-25.073942,6.826107,-6.7623606,5.1632457,0.32102516,-0.96406054,8.494699,6.035244,10.325987,-19.439472,63.065594,5.856708,-1.3241515,9.6439905,-3.1390467,-11.215634,31.797073,66.128265,2.3036869,-2.7471251,-7.465241
78,-1.755069613456726,-0.17374823987483978,79.28807830810547,0.1888938157861128,-0.05706871522036979,-92.66005709117059,1.4972124,4.580614,16.328182,6.961074,-9.236162,-3.5926678,1.8667164,-6.5081,-24.991247,6.825684,-6.7996173,5.170444,0.3871565,-0.9538459,8.517021,6.0918627,10.280538,-19.414469,63.091774,5.984067,-1.2965207,9.673947,-3.2289443,-11.196444,31.782507,66.1388,2.244414,-2.7399046,-7.438855
79,-1.799930214881897,-0.20371675491333008,79.28685760498047,0.20212320727472372,-0.04758916091000451,-92.77333031413043,1.542048,4.618461,16.428425,6.959462,-9.255153,-3.6503534,1.8543446,-6.475836,-24.902536,6.8256016,-6.827668,5.1688156,0.44405758,-0.9269713,8.53713,6.1255445,10.189852,-19.326561,63.150326,6.0870743,-1.2685847,9.724,-3.3458872,-11.179882,31.798613,66.178406,2.1652212,-2.7305872,-7.414068
80,-1.838725209236145,-0.21881549060344696,79.28558349609375,0.2111657172937746,-0.030311795631179392,-92.8890908646109,1.5762955,4.6627464,16.534328,6.95741,-9.275546,-3.7058356,1.8296589,-6.4359374,-24.810362,6.825308,-6.8511844,5.1546216,0.49850276,-0.88317645,8.556903,6.144656,10.080546,-19.20706,63.21613,6.1201653,-1.2465147,9.786117,-3.4734466,-11.179843,31.844168,66.215996,2.1052525,-2.725093,-7.3941846
81,-1.877885341644287,-0.24401980638504028,79.28194427490234,0.2089818287589434,-0.0015268904921103047,-93.0095056825064,1.5960933,4.7193065,16.649763,6.9571586,-9.302858,-3.761583,1.7876875,-6.382687,-24.713207,6.825034,-6.8706927,5.1221466,0.5575807,-0.8204504,8.574896,6.1516533,9.960587,-19.055563,63.28265,6.045887,-1.2327777,9.862993,-3.6071434,-11.198051,31.916822,66.24363,2.0652814,-2.72497,-7.3807855
82,-1.9071810245513916,-0.2532263398170471,79.28125,0.2003393143622956,0.036956895631396494,-93.1365234473285,1.6036279,4.782458,16.774378,6.956923,-9.332145,-3.8163273,1.7294599,-6.322168,-24.61036,6.8252764,-6.884428,5.0749793,0.62160313,-0.74209476,8.594362,6.146267,9.827268,-18.865334,63.351135,5.892588,-1.2236216,9.954269,-3.745302,-11.232415,32.010433,66.26128,2.0262032,-2.72659,-7.3696766
83,-1.9393526315689087,-0.27433231472969055,79.28094482421875,0.1901254920860812,0.07795464042504985,-93.26364988178274,1.6057434,4.844058,16.899914,6.95635,-9.357967,-3.8655338,1.6644229,-6.26244,-24.50602,6.825598,-6.891484,5.0230174,0.68280226,-0.65679246,8.619959,6.129667,9.682606,-18.650526,63.41892,5.7192345,-1.2158903,10.050296,-3.8922126,-11.281642,32.123653,66.27571,1.9978076,-2.7291763,-7.3584046
84,-1.9688444137573242,-0.2873637080192566,79.282470703125,0.1866854332470201,0.11445499328251654,-93.38459895260867,1.6074582,4.8972898,17.018167,6.9567385,-9.374706,-3.9048455,1.6019568,-6.211062,-24.404095,6.8257465,-6.8914967,4.976379,0.7339505,-0.5729495,8.657112,6.1046953,9.53137,-18.425253,63.48028,5.5849395,-1.2062577,10.140336,-4.0454936,-11.343206,32.248917,66.28654,1.9840543,-2.7318008,-7.3436446
85,-1.9967771768569946,-0.29467809200286865,79.28326416015625,0.18969015878405554,0.1452516974017046,-93.50413975274904,1.6118757,4.9385295,17.133463,6.954902,-9.378828,-3.9302866,1.5402002,-6.170216,-24.298117,6.824938,-6.8802643,4.939602,0.7785531,-0.49369016,8.712545,6.07313,9.374052,-18.175795,63.529922,5.503143,-1.1914507,10.227564,-4.2143245,-11.416127,32.397144,66.2971,1.9964314,-2.7341044,-7.3224373
86,-2.020627021789551,-0.29303789138793945,79.28504943847656,0.19769878749865452,0.17402774656105036,-93.62359675412786,1.6133497,4.9739103,17.247698,6.955067,-9.375116,-3.945178,1.4750205,-6.1349273,-24.18839,6.82447,-6.859834,4.9070663,0.8176668,-0.41444188,8.781244,6.034436,9.210269,-17.899075,63.570656,5.4432554,-1.1737715,10.315226,-4.396488,-11.500367,32.56572,66.30755,2.025309,-2.7368124,-7.2972355
87,-2.045858144760132,-0.2939246892929077,79.2870101928711,0.20506913385056427,0.20053842651138065,-93.73068366895293,1.6132898,5.0065346,17.349545,6.9542785,-9.36583,-3.955548,1.4139001,-6.1019983,-24.089624,6.8251643,-6.8383865,4.873334,0.84458125,-0.33343062,8.85323,5.9869647,9.045699,-17.629623,63.60639,5.397039,-1.1578429,10.392697,-4.574913,-11.591923,32.734955,66.3108,2.0572944,-2.7401226,-7.2730336
88,-2.07582950592041,-0.30008283257484436,79.28915405273438,0.20913982460713135,0.22461932722413566,-93.81360499074358,1.6105056,5.0392575,17.427675,6.954484,-9.355181,-3.9673686,1.3643141,-6.0688567,-24.016237,6.8253307,-6.8218517,4.832672,0.8534964,-0.25236008,8.9180975,5.9292507,8.890207,-17.403954,63.64231,5.3541365,-1.1499751,10.448899,-4.7300367,-11.685646,32.875656,66.29981,2.0689838,-2.7443776,-7.255054
89,-2.107301712036133,-0.3051479756832123,79.29243469238281,0.20698054241893726,0.24599439322983385,-93.86920255752084,1.6057382,5.076623,17.478182,6.953208,-9.340985,-3.9825737,1.327434,-6.031274,-23.97044,6.8247676,-6.8079247,4.780036,0.84511507,-0.17070352,8.975738,5.865795,8.750691,-17.225567,63.67074,5.3104334,-1.1464967,10.4760275,-4.862119,-11.777322,32.98715,66.27425,2.0594285,-2.7507832,-7.242638
90,-2.138695240020752,-0.30965638160705566,79.29669952392578,0.2012561298754108,0.26495814783491245,-93.90383179211369,1.59705,5.1171045,17.50694,6.954705,-9.324235,-3.997806,1.2986481,-5.991142,-23.944912,6.825359,-6.7950225,4.7193513,0.8230371,-0.09166389,9.030809,5.798598,8.6284685,-17.078867,63.68862,5.2697797,-1.1465566,10.480162,-4.97752,-11.865752,33.07358,66.237236,2.0302272,-2.759132,-7.233818
91,-2.166912794113159,-0.3143974542617798,79.30204010009766,0.1922877029844503,0.2828238610921535,-93.91804037380783,1.573631,5.1616797,17.515532,6.9815407,-9.319011,-4.011956,1.2788385,-5.9504123,-23.942509,6.826558,-6.7910995,4.658184,0.78927326,-0.016335174,9.080744,5.7264876,8.525245,-16.975298,63.693443,5.235285,-1.1519806,10.470968,-5.0789638,-11.949961,33.13796,66.19488,1.9962656,-2.768145,-7.2319293
92,-2.198336124420166,-0.3228170573711395,79.30561065673828,0.1887461334690299,0.29919713818305255,-93.91440401130934,1.4812381,5.2184935,17.504002,7.1568255,-9.392275,-4.023599,1.2707725,-5.9172544,-23.962896,6.8260617,-6.802814,4.6045556,0.74826837,0.047508936,9.124385,5.649027,8.442868,-16.926249,63.68228,5.2102394,-1.1645764,10.457705,-5.1608295,-12.028938,33.171204,66.1466,1.9587319,-2.7762973,-7.239659
93,-2.238288402557373,-0.3338170647621155,79.30595397949219,0.19726606505083288,0.3139481476508709,-93.88822390156899,1.374278,5.2620497,17.478058,7.3585157,-9.482156,-4.02984,1.277092,-5.899139,-24.01507,6.827255,-6.8428955,4.5608654,0.6985828,0.08759401,9.160335,5.5680194,8.389894,-16.942997,63.65171,5.197429,-1.1848835,10.439996,-5.22797,-12.094023,33.174744,66.10121,1.9236027,-2.7855716,-7.2599535
94,-2.2781970500946045,-0.34167349338531494,79.3012924194336,0.2224465887112651,0.32695123323902836,-93.84064889176345,1.2619286,5.2857304,17.438288,7.566767,-9.576368,-4.031828,1.2956558,-5.9006567,-24.093773,6.8303885,-6.9041877,4.5229397,0.6167308,0.08377938,9.188219,5.5063276,8.379693,-16.984737,63.584652,5.202166,-1.2117381,10.407363,-5.3102193,-12.112303,33.170048,66.092926,1.8823185,-2.7985137,-7.2943964
95,-2.3184986114501953,-0.35164088010787964,79.29613494873047,0.24886388053243397,0.33845645501297034,-93.78222457887297,1.1444807,5.307473,17.384438,7.786294,-9.674538,-4.033679,1.320302,-5.904891,-24.181662,6.8325505,-6.9664073,4.488134,0.56962645,0.10049753,9.21109,5.4032855,8.360155,-17.12194,63.538883,5.195452,-1.2446495,10.380915,-5.3328233,-12.174656,33.103912,66.03088,1.8401724,-2.8057961,-7.331412
96,-2.3426520824432373,-0.3565440773963928,79.278564453125,0.2723902732693141,0.35106389741293864,-93.72584659610801,1.0183053,5.3350115,17.320095,8.024372,-9.776513,-4.0395126,1.2613293,-5.944278,-24.249285,7.0174665,-7.1066284,4.4553246,0.52080363,0.11896905,9.233397,5.305694,8.358334,-17.271164,63.465027,5.1889715,-1.2821618,10.346846,-5.3381023,-12.24338,33.0148,65.95058,1.7899659,-2.8071036,-7.369503
97,-2.3767664432525635,-0.3686946928501129,79.26805877685547,0.2872534038595987,0.36257586668776104,-93.66771531328015,0.8801392,5.375273,17.231916,8.291279,-9.880965,-4.051103,1.0922282,-6.0265474,-24.291565,7.4486094,-7.3481526,4.4242973,0.4419239,0.1398463,9.248757,5.218937,8.37044,-17.419428,63.370983,5.1738954,-1.3303585,10.30381,-5.365263,-12.279825,32.930553,65.90505,1.7305536,-2.7995117,-7.420318
98,-2.4099650382995605,-0.3843177556991577,79.26515197753906,0.2960232399021025,0.3724332632676703,-93.60309651804087,0.73962957,5.420995,17.122906,8.564579,-9.982372,-4.0660567,0.9389136,-6.0984173,-24.332035,7.845512,-7.555612,4.394447,0.38604835,0.16847774,9.2633705,5.1166353,8.404553,-17.640757,63.263626,5.1376853,-1.3852255,10.254539,-5.3551354,-12.3267145,32.78324,65.829216,1.6513073,-2.7838619,-7.4757032
99,-2.4435055255889893,-0.4029151201248169,79.26012420654297,0.30241487265543904,0.3810586858148633,-93.53852220051692,0.6036755,5.4679637,17.0146,8.833786,-10.083972,-4.0823464,0.7965457,-6.1646614,-24.37203,8.221997,-7.749867,4.3663287,0.35168177,0.1947439,9.281008,5.0155816,8.468097,-17.889992,63.129112,5.109245,-1.4392204,10.203669,-5.3123164,-12.387165,32.604538,65.72217,1.5836434,-2.7696571,-7.5256453
100,-2.482827663421631,-0.42206957936286926,79.25472259521484,0.3101634293486951,0.38848046879979975,-93.48044569372026,0.4834214,5.510554,16.928347,9.080577,-10.186722,-4.0978117,0.6750128,-6.223546,-24.41318,8.558167,-7.938135,4.339107,0.30895126,0.21627033,9.291112,4.9266987,8.53151,-18.091238,62.98733,5.1309514,-1.4860846,10.16615,-5.2768717,-12.435888,32.454147,65.64333,1.5548077,-2.768022,-7.5688233
101,-2.510133743286133,-0.4398095905780792,79.23699188232422,0.32183909279641665,0.39619484636569113,-93.43061726375632,0.38108695,5.545435,16.874777,9.29793,-10.292181,-4.110687,0.56612575,-6.2810893,-24.456581,8.871558,-8.136241,4.3130317,0.27791858,0.2327409,9.290467,4.8404045,8.597947,-18.268774,62.843155,5.21688,-1.5227226,10.151891,-5.2347245,-12.4813,32.313263,65.58086,1.5792038,-2.7857497,-7.60154
102,-2.544755697250366,-0.4633535146713257,79.22605895996094,0.33466286664456624,0.40353650388718704,-93.38578641287974,0.29322496,5.575967,16.841219,9.49213,-10.397104,-4.1225686,0.47454464,-6.3328123,-24.50166,9.15086,-8.328751,4.2880673,0.25470284,0.24801525,9.281929,4.7549124,8.66933,-18.435867,62.69336,5.3485327,-1.5534687,10.153176,-5.1847796,-12.526518,32.175564,65.52797,1.6431583,-2.815954,-7.6278005
103,-2.578680992126465,-0.48796460032463074,79.21659088134766,0.34447410483480784,0.40796167195229255,-93.34414264506353,0.21240854,5.609582,16.812943,9.683618,-10.505326,-4.1364303,0.39723083,-6.376674,-24.545507,9.406784,-8.510303,4.26502,0.23651932,0.26518655,9.273919,4.6726584,8.742435,-18.576704,62.537815,5.4946227,-1.5809819,10.156331,-5.129363,-12.570593,32.044376,65.484924,1.7195944,-2.848163,-7.648516
104,-2.6016457080841064,-0.5097702741622925,79.2103271484375,0.34638721470467815,0.4066512181970068,-93.30408459698272,0.14514916,5.650138,16.776722,9.863894,-10.605216,-4.155349,0.34864822,-6.4018106,-24.587278,9.61113,-8.654452,4.2444243,0.20161141,0.29322422,9.265661,4.589651,8.787111,-18.652618,62.40354,5.63467,-1.6105638,10.154443,-5.097664,-12.595861,31.946947,65.49273,1.7839947,-2.8727987,-7.670472
105,-2.6324312686920166,-0.5372259020805359,79.21124267578125,0.33633415079669343,0.39755129618534957,-93.26491168040859,0.09001378,5.7034006,16.725859,10.041591,-10.699281,-4.1823845,0.32847646,-6.4048834,-24.626184,9.768779,-8.756347,4.2264004,0.1972194,0.32413933,9.279632,4.514205,8.858365,-18.711498,62.237713,5.751227,-1.6383712,10.128306,-5.0375233,-12.63586,31.825493,65.47303,1.8270009,-2.8863766,-7.6837063
106,-2.6586596965789795,-0.5664237141609192,79.20748901367188,0.31862140512288345,0.38247836578725186,-93.22743640551847,0.046908375,5.765174,16.668674,10.212597,-10.789218,-4.215143,0.33593085,-6.3887234,-24.663792,9.878917,-8.823303,4.210616,0.174773,0.36835554,9.292084,4.4396377,8.900365,-18.704775,62.088314,5.880642,-1.666546,10.098773,-4.999232,-12.658393,31.738064,65.502716,1.8676199,-2.8954322,-7.699192
107,-2.68691349029541,-0.6012998819351196,79.20299530029297,0.29820200566629457,0.3652050416652018,-93.19275393244902,0.014625841,5.8267517,16.613796,10.369058,-10.872487,-4.248703,0.36227703,-6.363154,-24.699877,9.951332,-8.871054,4.197461,0.16523156,0.4102746,9.310812,4.368074,8.952909,-18.679382,61.93084,5.983944,-1.692064,10.065805,-4.95031,-12.685883,31.653765,65.529724,1.9053913,-2.8997748,-7.705385
108,-2.713045597076416,-0.6313101649284363,79.1925277709961,0.28237676246365634,0.34937666066855055,-93.16201071571066,-0.00850514,5.879207,16.569647,10.50398,-10.946737,-4.277836,0.40134183,-6.337327,-24.73467,9.990847,-8.912532,4.1874084,0.15578318,0.44872046,9.320914,4.2925005,8.994294,-18.636065,61.793633,6.0430427,-1.7138225,10.04546,-4.910903,-12.70783,31.598,65.58752,1.9466535,-2.9008765,-7.705005
109,-2.7387239933013916,-0.6594265699386597,79.18524932861328,0.27505372874712475,0.33738030782072376,-93.13607154121064,-0.024903674,5.918359,16.540495,10.614904,-11.010392,-4.299653,0.4484329,-6.315575,-24.767017,10.001587,-8.954417,4.181898,0.15440305,0.47557014,9.327256,4.2178025,9.040935,-18.575285,61.659992,6.033954,-1.7317926,10.033837,-4.8703246,-12.73404,31.56482,65.65471,1.9963152,-2.8980763,-7.689493
110,-2.7635092735290527,-0.6917205452919006,79.18253326416016,0.27059373359816846,0.3272832409005162,-93.1144378189259,-0.033931285,5.949718,16.521433,10.707403,-11.066197,-4.3172293,0.50672615,-6.2925496,-24.79685,9.980469,-8.988494,4.1802526,0.17158607,0.5102975,9.305602,4.1226964,9.052895,-18.5261,61.581985,5.963103,-1.7453601,10.047705,-4.8406453,-12.741066,31.549574,65.78858,2.0533524,-2.8940587,-7.673093
111,-2.782344102859497,-0.7257978916168213,79.18163299560547,0.2670409008683704,0.31397750420996884,-93.09464474125957,-0.029479451,5.9785933,16.505909,10.781348,-11.114201,-4.33512,0.5869266,-6.2612505,-24.827755,9.919418,-9.006531,4.179866,0.15928484,0.5274696,9.321393,4.0495057,9.097674,-18.393663,61.45366,5.906803,-1.7581238,10.039337,-4.8119826,-12.770583,31.567865,65.87444,2.102316,-2.881702,-7.6397934
112,-2.7965312004089355,-0.762163519859314,79.17615509033203,0.25789240806871605,0.2957999383496572,-93.07593865025085,-0.008420723,6.0095663,16.489447,10.836188,-11.154484,-4.357452,0.691868,-6.2170286,-24.86114,9.816719,-9.001847,4.1782093,0.16253711,0.56035453,9.318222,3.9653049,9.122971,-18.304583,61.367226,5.849386,-1.7643647,10.052413,-4.7801275,-12.787906,31.596846,65.999695,2.1455345,-2.866872,-7.6192436
113,-2.8101916313171387,-0.793816328048706,79.17509460449219,0.24208091281795674,0.27114289657987434,-93.05729736156133,0.029524848,6.0456667,16.469196,10.874478,-11.187868,-4.386269,0.8264389,-6.155761,-24.899097,9.666312,-8.970921,4.1725607,0.148425,0.59905463,9.323407,3.8976362,9.156471,-18.198431,61.268726,5.8179135,-1.7625545,10.069044,-4.750816,-12.811275,31.672361,66.12883,2.185684,-2.8490863,-7.6059966
114,-2.826089382171631,-0.830742359161377,79.17768096923828,0.22063480314404976,0.2418365877901487,-93.03967536535669,0.07938792,6.084269,16.4482,10.902141,-11.217822,-4.4189916,0.9817167,-6.0836163,-24.939316,9.482578,-8.923701,4.1650286,0.14480543,0.6461654,9.324956,3.8163028,9.178975,-18.104786,61.19855,5.789721,-1.7536215,10.09936,-4.7240405,-12.827448,31.762392,66.28505,2.2174747,-2.8280756,-7.599164
115,-2.843825340270996,-0.8733974695205688,79.18025970458984,0.1997633392219942,0.20879882692340868,-93.02405785093056,0.14838636,6.1197467,16.430166,10.902724,-11.236308,-4.453035,1.1607287,-6.0023017,-24.979473,9.256126,-8.8551855,4.1599655,0.13088359,0.6933946,9.325769,3.7445004,9.201131,-18.001772,61.1334,5.7676024,-1.7450573,10.130745,-4.6979704,-12.842906,31.870197,66.44594,2.2443452,-2.8014526,-7.5919147
116,-2.8625681400299072,-0.9195003509521484,79.18118286132812,0.18059963684290006,0.1730191971086229,-93.01142568587078,0.23743919,6.148251,16.418015,10.873318,-11.2429,-4.4858613,1.3588617,-5.9165864,-25.015903,8.994343,-8.769239,4.161596,0.15121867,0.74336994,9.314452,3.6463919,9.2094,-17.951206,61.117096,5.7379265,-1.7424792,10.16882,-4.653768,-12.847732,31.919937,66.61263,2.247642,-2.7693644,-7.5805507
117,-2.880901336669922,-0.9703748226165771,79.1845474243164,0.16567248005866897,0.1340741710757966,-93.00167571976698,0.34825197,6.168586,16.412159,10.812683,-11.236544,-4.51572,1.5787805,-5.827275,-25.048477,8.693759,-8.664477,4.1722546,0.103980444,0.7796798,9.307657,3.6064546,9.233143,-17.82319,61.06177,5.723561,-1.7523159,10.182117,-4.621801,-12.857623,32.030056,66.76113,2.2613847,-2.7231221,-7.5605316
118,-2.8961939811706543,-1.020752191543579,79.18914794921875,0.1519590562330161,0.09178417475046288,-92.99486146288582,0.47974482,6.1825943,16.411362,10.723047,-11.218261,-4.544311,1.8214545,-5.732118,-25.07815,8.351872,-8.539243,4.189228,0.086333185,0.81688863,9.291845,3.549471,9.251096,-17.7382,61.042553,5.701093,-1.7675221,10.197557,-4.5697083,-12.860129,32.091053,66.91116,2.2520247,-2.6689894,-7.5362697
119,-2.907780408859253,-1.069144368171692,79.1927261352539,0.13925412159562653,0.046840021865532835,-92.99065424128885,0.6284188,6.190963,16.415539,10.606694,-11.190159,-4.574072,2.0763824,-5.634681,-25.104456,7.9886675,-8.403505,4.209523,0.0733296,0.8511459,9.273018,3.487768,9.267723,-17.667574,61.042175,5.6819205,-1.7843755,10.219062,-4.5146065,-12.858596,32.147728,67.06011,2.2387836,-2.6138458,-7.509621
120,-2.9170989990234375,-1.119028091430664,79.19522857666016,0.1290411267081754,-3.820973213439057e-05,-92.98827560908896,0.7917332,6.1943693,16.424253,10.465518,-11.154686,-4.6075034,2.3412964,-5.5342784,-25.12853,7.606313,-8.259968,4.2303305,0.057999335,0.8825247,9.254863,3.4293394,9.2843485,-17.609085,61.045353,5.671496,-1.7964101,10.25621,-4.466619,-12.855477,32.212532,67.20982,2.2240882,-2.5651371,-7.482669
121,-2.928943395614624,-1.1697094440460205,79.1977767944336,0.11847669792136221,-0.049716489246107554,-92.98847206105394,0.9724142,6.1935177,16.43885,10.295056,-11.110921,-4.6469574,2.6119843,-5.4318843,-25.148502,7.21479,-8.110598,4.251612,0.043220133,0.90912586,9.238177,3.3646328,9.303673,-17.565744,61.06317,5.6679406,-1.8043166,10.315717,-4.4237084,-12.851686,32.29685,67.35824,2.2106094,-2.5242345,-7.4547048
122,-2.9388513565063477,-1.2192301750183105,79.20159149169922,0.1090353295993301,-0.10218681617348388,-92.99102603399481,1.1718478,6.186957,16.458904,10.094315,-11.057637,-4.6903615,2.8381615,-5.3534994,-25.159746,6.9339676,-8.020254,4.2757583,0.02795734,0.932998,9.222203,3.3026328,9.324471,-17.536621,61.086628,5.669385,-1.808973,10.391807,-4.3852515,-12.84814,32.393635,67.50659,2.1968055,-2.4872227,-7.4247594
123,-2.9484667778015137,-1.2693668603897095,79.20487213134766,0.10358527770533206,-0.15522040863028172,-92.99570361011571,1.3799077,6.1745987,16.482403,9.877738,-10.9988985,-4.7339807,2.976936,-5.3210354,-25.159405,6.85727,-8.037098,4.30259,0.01099482,0.95087874,9.2050905,3.2426658,9.3478985,-17.514519,61.11606,5.679899,-1.8125485,10.469161,-4.3464622,-12.844445,32.48995,67.64458,2.188447,-2.4537742,-7.3943744
124,-2.960448980331421,-1.3223625421524048,79.20650482177734,0.10392661087671687,-0.20514538526090742,-93.00387792896015,1.5802829,6.1576514,16.508541,9.671735,-10.94526,-4.774772,3.089502,-5.306341,-25.15388,6.833084,-8.081206,4.3299084,-0.0031828159,0.9637175,9.183295,3.1813233,9.368944,-17.499102,61.153877,5.702978,-1.8159698,10.535515,-4.2982955,-12.840525,32.559753,67.76056,2.1819377,-2.4235373,-7.3644238
125,-2.9748971462249756,-1.3786207437515259,79.2062759399414,0.1083137709572649,-0.25248079866549267,-93.01414659663035,1.7807958,6.134361,16.536194,9.461475,-10.889257,-4.811021,3.1896574,-5.302963,-25.145823,6.83345,-8.140321,4.358772,-0.022908544,0.9731686,9.1555195,3.1317337,9.388499,-17.486414,61.18794,5.7441664,-1.8187928,10.586405,-4.24444,-12.836164,32.606113,67.85848,2.178403,-2.395961,-7.333752
126,-2.9887237548828125,-1.4267750978469849,79.20734405517578,0.1174872729575231,-0.29882544913319187,-93.02629085421161,1.9852372,6.105112,16.565893,9.242075,-10.829457,-4.8447843,3.2889493,-5.3049,-25.135798,6.834572,-8.201315,4.389022,-0.050606273,0.9723182,9.124433,3.0952396,9.4190035,-17.474136,61.2161,5.7980084,-1.821444,10.625599,-4.1892834,-12.82782,32.6483,67.941315,2.1843545,-2.3717,-7.3020678
127,-2.995964765548706,-1.4753230810165405,79.19842529296875,0.1306629438390494,-0.34452054289842193,-93.04025193473392,2.182926,6.0723443,16.596952,9.034764,-10.775903,-4.8777595,3.3855526,-5.312064,-25.123915,6.8360305,-8.259185,4.418082,-0.075269274,0.9662907,9.094761,3.056035,9.44813,-17.467628,61.249977,5.8581963,-1.8220791,10.661248,-4.129729,-12.817951,32.669456,68.00589,2.1923044,-2.3514276,-7.273211
128,-3.003685474395752,-1.522769808769226,79.19139862060547,0.13966066203442437,-0.389904738840693,-93.0549827163911,2.3683965,6.046608,16.627132,8.846674,-10.730018,-4.9121127,3.4774992,-5.3148994,-25.112095,6.837782,-8.309039,4.4427567,-0.100958124,0.96106905,9.0725155,3.0219107,9.4793625,-17.458448,61.274895,5.9167895,-1.8172613,10.69716,-4.0771914,-12.805945,32.682602,68.057526,2.2113442,-2.33642,-7.252284
129,-3.0118730068206787,-1.5682729482650757,79.18669128417969,0.14345555226456363,-0.436220278171771,-93.06927694905181,2.542872,6.0293255,16.656393,8.679213,-10.6937475,-4.9508557,3.5670033,-5.3114986,-25.102062,6.8386774,-8.348682,4.4617715,-0.1289364,0.95881987,9.059392,2.9874678,9.508829,-17.442543,61.297947,5.973423,-1.804832,10.7342005,-4.0312676,-12.792787,32.69154,68.09267,2.253748,-2.3273013,-7.2418194
130,-3.018389940261841,-1.6127218008041382,79.18326568603516,0.14196543577905008,-0.4830764724989881,-93.08391075486712,2.7103863,6.016709,16.685385,8.523708,-10.662801,-4.992137,3.6539772,-5.3054333,-25.092714,6.839427,-8.381132,4.4769773,-0.16151616,0.958643,9.05161,2.9552186,9.534224,-17.420502,61.320274,6.033184,-1.7865682,10.770629,-3.9875674,-12.779561,32.690437,68.11101,2.307692,-2.3232174,-7.239229
131,-3.024852752685547,-1.6493717432022095,79.18270111083984,0.13980044874034636,-0.5276484589815895,-93.1007458181796,2.8623793,6.0086718,16.714201,8.391353,-10.640871,-5.0306845,3.73532,-5.297239,-25.081373,6.839644,-8.408461,4.4894247,-0.19506885,0.9594808,9.047139,2.923991,9.557889,-17.398106,61.34151,6.095051,-1.7685096,10.806883,-3.95123,-12.765753,32.685093,68.12021,2.3648872,-2.322852,-7.2399735
132,-3.0261170864105225,-1.6822855472564697,79.1810073852539,0.13669814747071243,-0.5672100239274922,-93.12150143656763,2.989105,6.004645,16.742872,8.297341,-10.634277,-5.0610514,3.8064475,-5.2901697,-25.064974,6.840666,-8.432666,4.500559,-0.2271365,0.961741,9.043478,2.8932328,9.578371,-17.380508,61.361134,6.1583557,-1.7560456,10.844361,-3.9234192,-12.752976,32.675728,68.12431,2.4096692,-2.324663,-7.239353
133,-3.0220401287078857,-1.7125067710876465,79.17536163330078,0.13297140105462182,-0.6008699048175306,-93.14798411142449,3.094849,6.0044622,16.772337,8.2304735,-10.639663,-5.082573,3.867497,-5.28214,-25.04249,6.840529,-8.45298,4.5107155,-0.25970674,0.9752191,9.03613,2.8642116,9.584428,-17.372952,61.38146,6.219944,-1.745346,10.890861,-3.9038045,-12.749373,32.667255,68.12503,2.4409318,-2.3285418,-7.2360644
134,-3.021456480026245,-1.7401635646820068,79.17205810546875,0.12774469655227272,-0.6308370430657416,-93.17885850097012,3.1771455,6.009394,16.802006,8.20174,-10.659943,-5.0979085,3.9203167,-5.274146,-25.015368,6.8413615,-8.469871,4.519249,-0.284527,0.9771382,9.036487,2.83095,9.608935,-17.366081,61.395756,6.2840204,-1.7364359,10.932601,-3.8889222,-12.7352495,32.64081,68.11068,2.4569786,-2.3359628,-7.231377
135,-3.018886089324951,-1.760668158531189,79.1699447631836,0.1237239536252649,-0.6567113846285051,-93.21124980247042,3.2343018,6.0183363,16.830389,8.211469,-10.694274,-5.106694,3.9643166,-5.267049,-24.985476,6.842619,-8.48362,4.5256186,-0.31361032,0.9833407,9.036244,2.8038888,9.624313,-17.361916,61.407993,6.34971,-1.7370639,10.973166,-3.8799045,-12.726098,32.614082,68.09089,2.46612,-2.3448741,-7.228393
136,-3.021451950073242,-1.7883414030075073,79.1711654663086,0.12215515659526083,-0.6794788448327437,-93.24262633952794,3.2680507,6.0281763,16.856693,8.25618,-10.73823,-5.1085916,4.0007453,-5.263385,-24.954304,6.8436956,-8.494746,4.529368,-0.34373775,0.9861199,9.041459,2.776963,9.6369,-17.354893,61.420692,6.4228435,-1.7566415,11.002107,-3.8732216,-12.717751,32.57798,68.06081,2.4647958,-2.3541932,-7.2282114
137,-3.0184133052825928,-1.8037306070327759,79.1678466796875,0.12528432789956676,-0.6970381335481833,-93.27293323400406,3.267828,6.0382743,16.880129,8.349807,-10.793488,-5.1006923,4.0260015,-5.265333,-24.920563,6.8446345,-8.503562,4.5303874,-0.3757486,0.98088205,9.052939,2.7501452,9.647899,-17.340229,61.434715,6.500568,-1.8055003,11.018098,-3.873449,-12.708834,32.52925,68.0232,2.4484344,-2.3637328,-7.232144
138,-3.017364263534546,-1.815274715423584,79.16767883300781,0.13101566025741254,-0.7103231413283279,-93.30345469610165,3.2456772,6.04809,16.902418,8.470864,-10.854771,-5.084104,4.0406504,-5.2709794,-24.883753,6.8462443,-8.509644,4.528868,-0.40207887,0.966654,9.074332,2.7190933,9.66256,-17.320871,61.44733,6.586154,-1.8762108,11.021485,-3.8766189,-12.693054,32.447777,67.9735,2.4018815,-2.3744974,-7.2372775
139,-3.011904001235962,-1.8253875970840454,79.16606903076172,0.14270201539000546,-0.7227507686892942,-93.3340725602263,3.2041643,6.0573626,16.92369,8.627964,-10.931319,-5.0641904,4.052496,-5.282015,-24.846537,6.848333,-8.513682,4.5251718,-0.42795953,0.9470027,9.095897,2.6901774,9.67526,-17.308552,61.461063,6.679863,-1.9517145,11.016931,-3.8858075,-12.675575,32.37235,67.92373,2.3615985,-2.387126,-7.2447495
140,-3.009401321411133,-1.8352829217910767,79.1640853881836,0.149662654425737,-0.7382356229324203,-93.36333863833991,3.1592185,6.073265,16.943132,8.800773,-11.018568,-5.0464745,4.068926,-5.2887535,-24.813898,6.849714,-8.514899,4.519213,-0.4530047,0.92993575,9.115199,2.6679661,9.688417,-17.309822,61.471302,6.7893424,-2.0158317,11.00332,-3.8919864,-12.653778,32.30263,67.87108,2.3299973,-2.4013236,-7.252296
141,-3.0055415630340576,-1.8427202701568604,79.1590805053711,0.15320465052021096,-0.7578848387817155,-93.39045007536596,3.1060574,6.099581,16.95981,9.003202,-11.12607,-5.033579,4.073951,-5.298905,-24.786749,6.8958144,-8.53933,4.508911,-0.48443455,0.9206662,9.132707,2.6577845,9.696551,-17.31996,61.475388,6.928692,-2.067894,10.984452,-3.8925245,-12.637883,32.25719,67.80617,2.325216,-2.4167273,-7.2605863
142,-3.0059196949005127,-1.8540151119232178,79.15110778808594,0.1559361530398074,-0.7795010163793108,-93.41666699453637,3.0399861,6.1317506,16.975004,9.237576,-11.251516,-5.0220475,4.064628,-5.3165784,-24.761791,6.9820595,-8.583562,4.4950824,-0.5200436,0.9133053,9.150624,2.6565197,9.700967,-17.33452,61.47383,7.091034,-2.115534,10.958113,-3.8892276,-12.62749,32.223,67.72917,2.3313437,-2.4335861,-7.269444
143,-3.0038180351257324,-1.8613932132720947,79.14408874511719,0.1573708512907186,-0.8004222492545267,-93.4447834974577,2.9671288,6.165294,16.990774,9.484776,-11.382201,-5.00863,3.9079247,-5.4035754,-24.720743,7.4053025,-8.800042,4.4840426,-0.53821373,0.9023975,9.166545,2.6489937,9.7092,-17.373281,61.475853,7.2505264,-2.1544075,10.918946,-3.8832586,-12.607628,32.170467,67.6522,2.3298032,-2.4516327,-7.276493
144,-3.0023880004882812,-1.8665015697479248,79.13702392578125,0.1627009292512541,-0.8174791516925541,-93.47871144803193,2.88867,6.1974897,17.010197,9.735264,-11.509927,-4.990491,3.7441251,-5.4917502,-24.671553,7.8268766,-9.006866,4.477843,-0.5453392,0.8859298,9.174307,2.6421711,9.724178,-17.432238,61.47609,7.379098,-2.1803734,10.8608055,-3.8869016,-12.574301,32.119923,67.592316,2.3229427,-2.4698803,-7.2814455
145,-2.9981327056884766,-1.8717914819717407,79.12887573242188,0.1692795815678087,-0.8294117222601132,-93.5195229128962,2.8001099,6.2266626,17.033083,9.994727,-11.635173,-4.9642367,3.5768692,-5.579862,-24.612755,8.229987,-9.194159,4.48089,-0.56906474,0.87105983,9.180662,2.6477304,9.733053,-17.475855,61.459473,7.4863515,-2.1885293,10.773553,-3.9003541,-12.556638,32.107388,67.52432,2.3193169,-2.4836323,-7.27973
146,-2.9919240474700928,-1.8740668296813965,79.12025451660156,0.17958301368443852,-0.8378983802672398,-93.56565845481495,2.7013137,6.255586,17.058432,10.26813,-11.762772,-4.9323416,3.398341,-5.671321,-24.546362,8.641125,-9.376809,4.4898853,-0.5895284,0.85597485,9.183214,2.6550071,9.741544,-17.529335,61.437595,7.575628,-2.1817396,10.664288,-3.9171202,-12.541645,32.10324,67.45571,2.3116126,-2.4966345,-7.273563
147,-2.987255573272705,-1.8812649250030518,79.1117935180664,0.18777538883254932,-0.8450736259911817,-93.61482682615741,2.6036851,6.2855678,17.086317,10.5374775,-11.887898,-4.900239,3.225818,-5.756908,-24.47691,9.032555,-9.54737,4.4972935,-0.59932363,0.8384303,9.1797,2.6674287,9.755465,-17.6003,61.41335,7.64345,-2.171466,10.5457,-3.9304428,-12.5199795,32.094482,67.38875,2.300638,-2.5095203,-7.2664647
148,-2.983560562133789,-1.8898671865463257,79.10447692871094,0.19308192517824552,-0.8525606311183621,-93.66664372455975,2.517046,6.318398,17.118465,10.78816,-12.007654,-4.8735394,3.0725322,-5.8288894,-24.407274,9.383111,-9.701577,4.4957824,-0.60367864,0.8247578,9.172343,2.686578,9.769214,-17.668623,61.391094,7.6973314,-2.1706157,10.425835,-3.9382992,-12.49832,32.083,67.32004,2.2923207,-2.5257082,-7.256576
149,-2.978631019592285,-1.8994741439819336,79.09710693359375,0.19265088700077604,-0.8600171398021981,-93.7205254489967,2.440581,6.356297,17.155298,11.022738,-12.125447,-4.8538547,2.9381857,-5.8856435,-24.337961,9.694306,-9.842583,4.480543,-0.5985737,0.8123518,9.158509,2.7141838,9.787094,-17.743128,61.370373,7.7352777,-2.1835272,10.300449,-3.9362733,-12.468116,32.056667,67.249054,2.2780442,-2.5459154,-7.2460227
150,-2.975713014602661,-1.908481478691101,79.09276580810547,0.186865883473567,-0.8668165155913377,-93.77742514348805,2.3705657,6.397812,17.196327,11.245821,-12.24085,-4.8382506,2.8187902,-5.9298344,-24.267517,9.970593,-9.968788,4.4564147,-0.5944144,0.805982,9.141095,2.7502136,9.800004,-17.811281,61.348866,7.762114,-2.2040308,10.165722,-3.9291542,-12.4424925,32.034805,67.170876,2.2658274,-2.5683088,-7.232733
151,-2.971982479095459,-1.917822241783142,79.08521270751953,0.1804559635850832,-0.8746230592815388,-93.83602804680811,2.3103287,6.4405146,17.239386,11.452072,-12.348669,-4.8256145,2.7167978,-5.9632916,-24.197388,10.21006,-10.077318,4.4305606,-0.5842262,0.8019347,9.121042,2.7884672,9.811359,-17.87918,61.33295,7.7742352,-2.226015,10.038407,-3.9171705,-12.415527,32.0094,67.092545,2.2529833,-2.589285,-7.2173257
152,-2.9691035747528076,-1.9271453619003296,79.0783462524414,0.17194418001701406,-0.8853237667987585,-93.8952817087755,2.2639306,6.4815917,17.281992,11.635209,-12.443446,-4.814732,2.6388419,-5.9851856,-24.129215,10.400608,-10.159063,4.409937,-0.5770703,0.8008491,9.104013,2.8304849,9.817768,-17.928331,61.32063,7.778003,-2.2446795,9.932421,-3.9049644,-12.395686,31.99627,67.011955,2.2488277,-2.603814,-7.198464
153,-2.9638724327087402,-1.9415814876556396,79.07135772705078,0.1629822814809914,-0.9011200186091289,-93.95599030892232,2.2359514,6.5211797,17.324005,11.7911215,-12.523386,-4.805772,2.5892718,-5.994198,-24.061943,10.537579,-10.211364,4.3975215,-0.5708918,0.80278105,9.0923815,2.8752208,9.820688,-17.96042,61.311417,7.77676,-2.257471,9.85068,-3.8899078,-12.382172,31.993513,66.923645,2.252513,-2.6078095,-7.172838
154,-2.959923505783081,-1.956061840057373,79.06742095947266,0.15008537371766462,-0.9221059895095515,-94.018394282288,2.226486,6.55983,17.366869,11.920667,-12.5899935,-4.799299,2.567752,-5.9897404,-23.995367,10.622372,-10.236135,4.3892174,-0.56294656,0.8072025,9.089218,2.9155827,9.821514,-17.979113,61.309612,7.768118,-2.2686667,9.784015,-3.8770888,-12.373542,31.996317,66.831154,2.2634926,-2.6056702,-7.1401963
155,-2.954712390899658,-1.9672526121139526,79.06676483154297,0.13781221937243363,-0.9393665166511264,-94.08057263159999,2.2176614,6.5985985,17.409775,12.038708,-12.648894,-4.7948003,2.5543423,-5.978218,-23.931622,10.678811,-10.245648,4.381373,-0.5442642,0.8094132,9.06233,2.9717226,9.823757,-18.014761,61.313828,7.7290792,-2.2758796,9.74171,-3.8602712,-12.341376,31.996593,66.77118,2.2739155,-2.6051273,-7.1171446
156,-2.9508426189422607,-1.976399302482605,79.06767272949219,0.1249325675579891,-0.9548058963149992,-94.1397257046229,2.213794,6.633595,17.45267,12.138293,-12.6961,-4.7915974,2.550055,-5.9635644,-23.874079,10.710856,-10.242944,4.3712153,-0.5317616,0.81106067,9.047192,3.0213745,9.822857,-18.020412,61.321312,7.6748977,-2.2881582,9.708681,-3.8428402,-12.320238,31.996532,66.701004,2.2840126,-2.6085546,-7.097919
157,-2.945441246032715,-1.9869636297225952,79.0682373046875,0.11280404679803824,-0.9655368649304833,-94.19543994130075,2.2127001,6.6647425,17.49632,12.218264,-12.731044,-4.7898574,2.5546367,-5.9453044,-23.825178,10.714305,-10.226595,4.3578267,-0.5186672,0.8141201,9.027337,3.0719736,9.819059,-18.013277,61.336716,7.5885386,-2.306012,9.6897545,-3.8232427,-12.301499,31.99061,66.64477,2.2941494,-2.6253552,-7.087309
158,-2.942857027053833,-1.9996615648269653,79.07011413574219,0.1011192283060137,-0.973782703377043,-94.2488875764113,2.2178319,6.692689,17.540817,12.2770605,-12.753414,-4.7897243,2.570906,-5.9220405,-23.782715,10.686856,-10.194985,4.342952,-0.50649744,0.8149831,9.001026,3.1200416,9.807542,-17.990484,61.36853,7.479962,-2.3265402,9.689017,-3.8100283,-12.265848,31.981188,66.61511,2.2999346,-2.649144,-7.087198
159,-2.9434282779693604,-2.011256217956543,79.07331848144531,0.08890772568436169,-0.9795980668384695,-94.30064038931805,2.2214983,6.71951,17.583931,12.328747,-12.769162,-4.7910166,2.590564,-5.8956704,-23.74261,10.643485,-10.153818,4.326775,-0.49211976,0.81663835,8.977818,3.1672873,9.796136,-17.962189,61.400692,7.354603,-2.3472562,9.701255,-3.7918172,-12.239503,31.970488,66.57822,2.3055217,-2.670471,-7.0888834
160,-2.9386274814605713,-2.020313024520874,79.07550811767578,0.07722971415889707,-0.983599872978583,-94.35153088084233,2.218814,6.746753,17.624155,12.38263,-12.782067,-4.793469,2.6035116,-5.8687057,-23.70059,10.602097,-10.109788,4.3094583,-0.47998255,0.8184133,8.958285,3.2089396,9.78128,-17.926947,61.438503,7.225386,-2.36617,9.725312,-3.782338,-12.209097,31.956917,66.54932,2.2994678,-2.682394,-7.0898085
161,-2.934351682662964,-2.026387929916382,79.07728576660156,0.06739789779691421,-0.9870543204993752,-94.40246549354136,2.2143848,6.773205,17.661251,12.432357,-12.7910795,-4.7990265,2.6139667,-5.8399863,-23.654446,10.556403,-10.06037,4.2930307,-0.46956113,0.8183372,8.942666,3.245866,9.763102,-17.882885,61.48387,7.0909066,-2.3837805,9.76798,-3.7831745,-12.171871,31.935423,66.533226,2.2726266,-2.6805775,-7.0873632
162,-2.9360878467559814,-2.0296475887298584,79.08016967773438,0.05726549310848655,-0.989386766304262,-94.45278825802835,2.2080812,6.798622,17.69606,12.477582,-12.79599,-4.8071604,2.6226957,-5.809513,-23.606703,10.5048895,-10.005529,4.2767406,-0.45714262,0.81635296,8.9319315,3.2814121,9.746058,-17.833807,61.529804,6.944699,-2.4004185,9.827362,-3.7852604,-12.13571,31.908648,66.51668,2.235646,-2.6688695,-7.0836163
163,-2.9321415424346924,-2.0275869369506836,79.08241271972656,0.045631997180281825,-0.9879539064814926,-94.50095416835104,2.189509,6.825768,17.72809,12.532216,-12.798561,-4.8139324,2.6224086,-5.779706,-23.560453,10.458916,-9.949566,4.256663,-0.44903576,0.8134235,8.917988,3.3077643,9.722723,-17.778658,61.58957,6.7970395,-2.4148955,9.892795,-3.8076694,-12.081219,31.88606,66.52968,2.1953323,-2.6562655,-7.087122
164,-2.928720712661743,-2.0237369537353516,79.08617401123047,0.034158796515006286,-0.9796578174909802,-94.54515465406944,2.1452851,6.8583217,17.756378,12.616683,-12.804539,-4.8154187,2.6033885,-5.753433,-23.518778,10.433087,-9.898016,4.2289457,-0.4342937,0.8143492,8.911159,3.3325293,9.712752,-17.74192,61.629757,6.6415496,-2.4246476,9.944369,-3.8123353,-12.057204,31.871096,66.49977,2.1770153,-2.6458693,-7.0948563
165,-2.928025722503662,-2.017071008682251,79.09228515625,0.021909078927229122,-0.9623448485729154,-94.58540192806151,2.0720997,6.897176,17.780432,12.73141,-12.810013,-4.810807,2.5629408,-5.730412,-23.481277,10.427268,-9.84791,4.1900764,-0.42354754,0.81902474,8.900806,3.3457477,9.7018,-17.705448,61.676693,6.480081,-2.431746,9.980982,-3.831727,-12.031722,31.87003,66.48365,2.1784897,-2.6414874,-7.117084
166,-2.9253041744232178,-2.0057334899902344,79.0979995727539,0.006851850220282946,-0.9380839009765332,-94.62263556037672,1.9769108,6.940688,17.800907,12.868425,-12.814703,-4.8020883,2.5054984,-5.7093573,-23.446857,10.4365,-9.798507,4.142904,-0.42577267,0.8239059,8.881401,3.3505497,9.679728,-17.656761,61.740337,6.316853,-2.436413,10.01466,-3.887051,-11.977818,31.89792,66.51626,2.1996026,-2.6411364,-7.155903
167,-2.923344373703003,-1.9906407594680786,79.10271453857422,-0.00668659307993312,-0.9104895932919496,-94.65606865639549,1.8630623,6.987109,17.818232,13.028266,-12.82474,-4.7895174,2.433916,-5.692809,-23.416994,10.4660425,-9.758186,4.0931044,-0.42056867,0.8299684,8.87018,3.349836,9.668095,-17.62605,61.792015,6.1605935,-2.4350274,10.044591,-3.9268796,-11.94638,31.914999,66.51425,2.215172,-2.642122,-7.1927114
168,-2.921295166015625,-1.9697211980819702,79.10688781738281,-0.0188440590123121,-0.8836728006922361,-94.68525639254601,1.7357184,7.033301,17.832954,13.208915,-12.845256,-4.7730446,2.3522282,-5.683172,-23.393099,10.519394,-9.734866,4.0465665,-0.41471934,0.8333003,8.8694105,3.3445137,9.663046,-17.608677,61.83299,6.0363774,-2.4243803,10.079424,-3.9542832,-11.93057,31.916212,66.479996,2.2030416,-2.6452577,-7.2220283
169,-2.9283084869384766,-1.9537353515625,79.10981750488281,-0.023671920381004713,-0.8591377767999556,-94.7089364751314,1.595399,7.077074,17.847357,13.413747,-12.88072,-4.749979,2.2629623,-5.683811,-23.378813,10.600743,-9.736758,4.0056434,-0.42069784,0.82753956,8.873961,3.328774,9.655901,-17.590656,61.883026,5.9579263,-2.4057693,10.125372,-4.0036902,-11.899699,31.90206,66.47019,2.1403842,-2.6552892,-7.2441587
170,-2.928962469100952,-1.9239189624786377,79.10920715332031,-0.0244424234548959,-0.8347095770820738,-94.72777581160402,1.4412897,7.1196733,17.860592,13.639115,-12.925487,-4.721067,2.1644228,-5.6924067,-23.372383,10.704987,-9.756364,3.9669566,-0.42856547,0.81716514,8.8864765,3.3094711,9.653615,-17.58529,61.92514,5.906037,-2.3782334,10.177837,-4.045256,-11.875855,31.873148,66.43991,2.0454538,-2.6662025,-7.2624073
171,-2.924053430557251,-1.8813692331314087,79.10819244384766,-0.027834474401564245,-0.8085263928937407,-94.74407391563311,1.271476,7.1663647,17.868069,13.883653,-12.975786,-4.692079,2.0505688,-5.7039466,-23.366617,10.831051,-9.783394,3.9276054,-0.43064675,0.8068418,8.901179,3.2756927,9.654344,-17.590858,61.97337,5.877738,-2.343771,10.229471,-4.094867,-11.849016,31.83459,66.41152,1.945956,-2.6840634,-7.2793403
172,-2.92523455619812,-1.8448282480239868,79.1103744506836,-0.03607835098960764,-0.7786458615136413,-94.75972689673044,1.0828359,7.2230144,17.864851,14.149143,-13.0288315,-4.6686044,1.9164443,-5.7127285,-23.355148,10.975486,-9.805679,3.8845477,-0.42372543,0.8005611,8.915604,3.2335048,9.659477,-17.605116,62.018307,5.868551,-2.3004467,10.275431,-4.145712,-11.817371,31.800703,66.36863,1.8749477,-2.7057261,-7.3016067
173,-2.9246883392333984,-1.8001881837844849,79.11202239990234,-0.05502826663950451,-0.7451800588022769,-94.7768381572911,0.8742491,7.2956715,17.850407,14.438184,-13.086488,-4.6533,1.7621261,-5.71225,-23.332293,11.130487,-9.813135,3.836832,-0.41298813,0.80786365,8.933713,3.183089,9.6663265,-17.625044,62.05753,5.886608,-2.2449799,10.311682,-4.1946363,-11.797672,31.78512,66.30047,1.862873,-2.7340271,-7.3268313
174,-2.9257779121398926,-1.7511602640151978,79.11222839355469,-0.0795311229709923,-0.7089419949347466,-94.7938749764776,0.64748615,7.379551,17.826815,14.749631,-13.149699,-4.642581,1.5898263,-5.7074494,-23.302908,11.30108,-9.815198,3.7861414,-0.40138504,0.825746,8.956299,3.1252027,9.671703,-17.646618,62.092495,5.935057,-2.1789324,10.3417635,-4.243786,-11.788866,31.782156,66.21192,1.8882126,-2.7681234,-7.35267
175,-2.9291489124298096,-1.6983813047409058,79.11102294921875,-0.10545398026228026,-0.6693171353490954,-94.80735470802145,0.4023747,7.4652767,17.793165,15.079884,-13.212818,-4.6333737,1.3991064,-5.708274,-23.276436,11.497081,-9.82526,3.733323,-0.37832168,0.83887416,8.976211,3.0579588,9.685035,-17.681261,62.12524,5.9876423,-2.1086557,10.370059,-4.292365,-11.7740755,31.77263,66.109314,1.9031249,-2.802582,-7.3834476
176,-2.936906576156616,-1.6426599025726318,79.11141204833984,-0.12240346643678846,-0.6253740276598361,-94.81420051040654,0.14693083,7.540462,17.74985,15.407415,-13.266353,-4.622367,1.1898583,-5.7249303,-23.262217,11.729094,-9.857963,3.6793735,-0.3639256,0.84507245,8.990886,2.9998827,9.695843,-17.6934,62.144794,6.0393314,-2.0450323,10.397605,-4.3410783,-11.766297,31.77046,65.98123,1.8673828,-2.828788,-7.419074
177,-2.9388427734375,-1.5807260274887085,79.10504913330078,-0.1234950310958651,-0.5751227630503482,-94.81350809421933,-0.12577319,7.598674,17.692093,15.740199,-13.307145,-4.6069937,0.95579857,-5.7669334,-23.261633,12.010457,-9.923861,3.6243834,-0.3516715,0.83355534,8.999963,2.9386454,9.711026,-17.687994,62.160954,6.089928,-1.9864565,10.421281,-4.3900084,-11.7587595,31.765411,65.83253,1.7628314,-2.8396113,-7.460195
178,-2.9444503784179688,-1.515002727508545,79.10128021240234,-0.11653125406135005,-0.5200134084490013,-94.80665081539881,-0.4156994,7.6470966,17.62129,16.083162,-13.340315,-4.58973,0.70079786,-5.8259344,-23.270311,12.329577,-10.012089,3.5679564,-0.3478537,0.810738,9.006274,2.8863947,9.731193,-17.661392,62.159744,6.1501794,-1.9283282,10.440238,-4.4422164,-11.752762,31.76684,65.66325,1.6136205,-2.8385358,-7.506059
179,-2.954439640045166,-1.4425501823425293,79.09904479980469,-0.10953790208711871,-0.4629739134642704,-94.79490741820592,-0.7142973,7.6959896,17.547049,16.429115,-13.371856,-4.5745845,0.43259382,-5.8895087,-23.286812,12.670492,-10.108819,3.5101392,-0.34195197,0.7923544,9.006316,2.8322036,9.742971,-17.6336,62.15665,6.1980476,-1.8770427,10.464671,-4.4912944,-11.751751,31.773771,65.470474,1.4446613,-2.84435,-7.5571933
180,-2.966749906539917,-1.3696966171264648,79.09810638427734,-0.10985022259867439,-0.4075988837244267,-94.77937056053696,-1.0120335,7.754706,17.4793,16.770084,-13.407242,-4.565412,0.15795264,-5.9469004,-23.309784,13.021891,-10.202601,3.451243,-0.34042647,0.7778002,9.011042,2.786494,9.758399,-17.58949,62.130745,6.224163,-1.8395301,10.490245,-4.541799,-11.753813,31.792585,65.242256,1.2746146,-2.8753972,-7.6098533
181,-2.981440544128418,-1.2909646034240723,79.08979034423828,-0.11845554460775509,-0.35570116180633193,-94.76084894595519,-1.3003057,7.8268356,17.425062,17.096727,-13.450822,-4.565713,-0.113243826,-5.9917912,-23.344545,13.369121,-10.291641,3.3923755,-0.35074317,0.7712049,9.0207615,2.7579093,9.783711,-17.543827,62.076363,6.2058654,-1.822619,10.520908,-4.5935345,-11.76172,31.837597,64.98024,1.1118588,-2.9395807,-7.663357
182,-2.9936394691467285,-1.2082648277282715,79.08224487304688,-0.13303717536614487,-0.30510919830182615,-94.73888225060735,-1.5862125,7.906707,17.37775,17.415686,-13.498679,-4.5723295,-0.38817355,-6.031616,-23.389723,13.724062,-10.382375,3.3329854,-0.357281,0.77248794,9.028919,2.72973,9.809124,-17.511591,62.015137,6.151576,-1.8220453,10.5597105,-4.641937,-11.773149,31.89007,64.6936,0.9431202,-3.028426,-7.720066
183,-3.0059051513671875,-1.121507167816162,79.075927734375,-0.1500250613346884,-0.25296796497340646,-94.71142568616426,-1.8845247,7.992448,17.325472,17.744303,-13.544834,-4.5802526,-0.6824989,-6.0733986,-23.434893,14.108103,-10.473407,3.2705483,-0.35885492,0.77440894,9.036542,2.7129054,9.835394,-17.453697,61.924847,6.0985155,-1.8222944,10.597311,-4.683341,-11.789446,31.941372,64.362305,0.7650035,-3.128145,-7.7815204
184,-3.025033473968506,-1.026980996131897,79.06776428222656,-0.16698302737037146,-0.1964060213746636,-94.67676552934586,-2.2086184,8.081126,17.2565,18.096537,-13.581475,-4.584195,-1.0146364,-6.1252265,-23.469416,14.5486145,-10.564791,3.2022543,-0.35711482,0.7717132,9.047593,2.7220695,9.863047,-17.328402,61.77858,6.084426,-1.8104459,10.625125,-4.719704,-11.814699,31.994383,63.96947,0.5858425,-3.2279592,-7.8491735
185,-3.047041654586792,-0.9238130450248718,79.06278991699219,-0.1888485454218028,-0.13352841175907265,-94.63246608806317,-2.5702257,8.180542,17.163324,18.489277,-13.610887,-4.582154,-1.3812863,-6.1784472,-23.491404,15.029914,-10.645093,3.1236951,-0.36466575,0.77061677,9.062909,2.7590995,9.890741,-17.114908,61.575962,6.1233525,-1.7825683,10.638287,-4.7453,-11.857953,32.05618,63.494473,0.40405717,-3.3220286,-7.9285803
186,-3.0705249309539795,-0.8153806328773499,79.05558013916016,-0.21644108238899692,-0.06637644988389164,-94.58036736486885,-2.9558916,8.28786,17.053612,18.902687,-13.63306,-4.5785537,-1.7775056,-6.2334175,-23.505749,15.549926,-10.718682,3.0371006,-0.35897002,0.77624744,9.072531,2.7942219,9.90342,-16.86428,61.359375,6.189193,-1.7455695,10.651537,-4.763224,-11.902947,32.103043,62.972797,0.21027881,-3.4185405,-8.020525
187,-3.095560073852539,-0.7044855952262878,79.05062866210938,-0.237367780843502,0.0022057105836152946,-94.52383479564322,-3.356337,8.389438,16.937252,19.328764,-13.648101,-4.573232,-2.2036448,-6.3047414,-23.514107,16.123484,-10.804312,2.9493098,-0.35609227,0.77697045,9.087061,2.8562186,9.904498,-16.543993,61.08823,6.2842426,-1.7045162,10.660019,-4.7818384,-11.960374,32.160988,62.405544,0.014552946,-3.522006,-8.109503
188,-3.1247775554656982,-0.5862350463867188,79.0392074584961,-0.23986844292235035,0.06906483929795915,-94.46638606755123,-3.7524896,8.468703,16.825727,19.738823,-13.65222,-4.5668063,-2.6581562,-6.406311,-23.517797,16.759897,-10.917428,2.8674397,-0.3527307,0.7645435,9.111753,2.9558113,9.888866,-16.15013,60.743137,6.402884,-1.6640284,10.665783,-4.804671,-12.036314,32.236618,61.80158,-0.1758672,-3.6379004,-8.181799
189,-3.1536965370178223,-0.46270596981048584,79.02904510498047,-0.22079718811798574,0.1335861857008182,-94.40643620640398,-4.14733,8.52347,16.719496,20.141392,-13.644524,-4.5576234,-3.141223,-6.5425663,-23.519356,17.465765,-11.065293,2.7927115,-0.33505026,0.73101485,9.143885,3.08146,9.857151,-15.681123,60.33758,6.5866218,-1.6169214,10.673174,-4.8326516,-12.1138115,32.311337,61.174755,-0.36518613,-3.7736301,-8.233621
190,-3.1880900859832764,-0.32919514179229736,79.01325988769531,-0.1879154222491681,0.19715654177994793,-94.34277749581858,-4.5462017,8.561224,16.61388,20.542023,-13.626701,-4.545818,-3.651603,-6.7053337,-23.516953,18.230528,-11.236318,2.7211466,-0.31155902,0.6811437,9.181585,3.2321393,9.812173,-15.135668,59.874714,6.824349,-1.5634149,10.679609,-4.866483,-12.191123,32.390907,60.520397,-0.55551517,-3.9246001,-8.273104
191,-3.221714973449707,-0.18735724687576294,78.9923095703125,-0.14136643375024846,0.26009789472988903,-94.27985983580875,-4.9498224,8.58473,16.510405,20.943672,-13.605908,-4.534122,-4.192753,-6.892794,-23.50375,19.0541,-11.427347,2.6523726,-0.2862028,0.6229544,9.223716,3.4144192,9.751832,-14.544795,59.34342,7.0231957,-1.5177839,10.6839,-4.912497,-12.275602,32.48254,59.84662,-0.7516227,-4.080498,-8.307274
192,-3.2655880451202393,-0.04314526543021202,78.96963500976562,-0.08100382785852915,0.3229780322534069,-94.22179421084618,-5.3604493,8.597149,16.410458,21.352444,-13.591346,-4.525484,-4.769325,-7.1036215,-23.47341,19.939104,-11.635645,2.585926,-0.24715503,0.5610226,9.267475,3.6292696,9.680628,-13.959837,58.736168,7.0845203,-1.493183,10.686813,-4.9724827,-12.36525,32.571793,59.165405,-0.966779,-4.232197,-8.34328
193,-3.311399459838867,0.11009547114372253,78.94062042236328,-0.006802957177843028,0.3866766160934158,-94.17170466968277,-5.770376,8.596275,16.319366,21.75231,-13.58187,-4.5211983,-5.387834,-7.3407598,-23.424734,20.895258,-11.863698,2.5230436,-0.19347616,0.49334154,9.313604,3.8772469,9.599926,-13.372633,58.044228,6.989942,-1.4863136,10.684384,-5.044939,-12.461521,32.660706,58.468178,-1.2082264,-4.376549,-8.375848
194,-3.3549482822418213,0.2691812813282013,78.9032211303711,0.08213100855955219,0.4507766055517468,-94.12644180348444,-6.1820908,8.581813,16.23489,22.147991,-13.575311,-4.518557,-6.0437922,-7.6033225,-23.360111,21.916658,-12.111082,2.4630613,-0.12720764,0.41785035,9.363845,4.1569424,9.5099945,-12.766501,57.27154,6.787724,-1.4917976,10.67735,-5.129049,-12.565348,32.752373,57.751255,-1.466463,-4.518797,-8.4032755
195,-3.397961378097534,0.43592169880867004,78.85871887207031,0.18237252600596415,0.5129531775513645,-94.08151932012352,-6.6114907,8.559718,16.146673,22.574883,-13.576561,-4.516785,-6.7252855,-7.8844004,-23.278149,22.983736,-12.371656,2.4027214,-0.050429393,0.34023896,9.417862,4.473107,9.410899,-12.169227,56.425896,6.4812617,-1.5204511,10.672516,-5.2212133,-12.6767,32.83739,57.02492,-1.7371732,-4.6612477,-8.437712
196,-3.453151226043701,0.6013935804367065,78.81021881103516,0.29109807943660293,0.5710577109920675,-94.03224626484825,-7.0739036,8.535765,16.044577,23.06617,-13.589519,-4.514752,-7.419504,-8.176727,-23.177887,24.073975,-12.637616,2.3394635,0.036938228,0.26599848,9.475173,4.830122,9.303022,-11.611248,55.51528,6.0734377,-1.5833032,10.676783,-5.319388,-12.795744,32.90564,56.301384,-2.0139124,-4.8063054,-8.49135
197,-3.5006563663482666,0.7772662043571472,78.7524185180664,0.41444542591132766,0.6223059739649675,-93.98146954641928,-7.5607476,8.500739,15.928325,23.612354,-13.6107435,-4.5105863,-8.131241,-8.487635,-23.041313,25.200268,-12.91152,2.2784896,0.137083,0.19010966,9.535106,5.234785,9.18907,-11.11634,54.522266,5.526981,-1.6726793,10.714014,-5.4212956,-12.922717,32.953968,55.581215,-2.3035069,-4.960112,-8.567538
198,-3.552696943283081,0.9529448747634888,78.68730926513672,0.5521431564896176,0.6685902261497212,-93.93038398559001,-8.067999,8.454753,15.802791,24.201826,-13.639635,-4.5051966,-8.864391,-8.816664,-22.874458,26.365747,-13.194295,2.2198067,0.25147682,0.11117723,9.599166,5.6854277,9.069491,-10.665253,53.4448,4.8521967,-1.7864764,10.771876,-5.527083,-13.057595,32.985626,54.856014,-2.6064193,-5.119383,-8.65953
199,-3.610654592514038,1.1336811780929565,78.61827850341797,0.6906401062544382,0.7146615711797235,-93.8716848135706,-8.618282,8.417298,15.665667,24.866236,-13.685529,-4.5016513,-9.606043,-9.146624,-22.71147,27.538477,-13.480816,2.1528172,0.3770134,0.039956234,9.669242,6.172458,8.94008,-10.222951,52.317474,4.122226,-1.9431543,10.802402,-5.6388683,-13.20104,33.000187,54.126087,-2.910835,-5.2718983,-8.76436
200,-3.669316053390503,1.3242005109786987,78.53701782226562,0.8163628671897197,0.7653669018157849,-93.79823434006003,-9.233551,8.407269,15.514578,25.63522,-13.757067,-4.503096,-10.346759,-9.463028,-22.586311,28.695938,-13.766314,2.0665517,0.51025856,-0.011533292,9.746296,6.6836715,8.79394,-9.753863,51.178116,3.4112935,-2.1602962,10.758366,-5.762396,-13.354805,33.00048,53.3955,-3.2010489,-5.4057555,-8.87895
201,-3.7275772094726562,1.5170602798461914,78.44409942626953,0.9315498858869992,0.8178301975439531,-93.71282371511792,-9.901766,8.423234,15.362848,26.498516,-13.87321,-4.506538,-11.087753,-9.768194,-22.497812,29.84627,-14.054379,1.9586042,0.650819,-0.04369081,9.8328085,7.2309065,8.626407,-9.247752,50.009342,2.7082984,-2.4783998,10.605094,-5.8970537,-13.519935,32.990932,52.653538,-3.4836235,-5.5148273,-9.007621
202,-3.7906906604766846,1.7205387353897095,78.34016418457031,1.041694143264694,0.870941411527889,-93.61770307190204,-10.617045,8.456922,15.2069235,27.445774,-14.026251,-4.511453,-11.835896,-10.0704155,-22.430527,31.004494,-14.3494835,1.8340985,0.798194,-0.059652086,9.926707,7.8141356,8.43641,-8.721929,48.80259,1.9840046,-2.8741174,10.373525,-6.042844,-13.6970415,32.972294,51.90441,-3.7623332,-5.6062098,-9.150273
203,-3.863820791244507,1.9361251592636108,78.22887420654297,1.1382657610728966,0.9318077127731951,-93.50517600730178,-11.410885,8.514892,15.018575,28.505955,-14.175395,-4.524904,-12.579147,-10.360463,-22.399626,32.13595,-14.639652,1.6941365,0.9500207,-0.051588535,10.022383,8.402116,8.222086,-8.183589,47.610126,1.2866766,-3.2696795,10.117365,-6.200696,-13.886432,32.937912,51.168743,-4.0191483,-5.687395,-9.297175
204,-3.9357259273529053,2.155846357345581,78.11115264892578,1.2132633795997128,1.0075945366247798,-93.3676467642633,-12.314295,8.602535,14.770038,29.706425,-14.285097,-4.5549765,-13.311066,-10.630898,-22.42004,33.21733,-14.918927,1.5412323,1.1035302,-0.011370802,10.113585,8.963009,7.9813004,-7.6401834,46.486115,0.6663625,-3.5890179,9.892784,-6.370028,-14.088101,32.879242,50.466637,-4.239671,-5.7662234,-9.438529
205,-4.011547565460205,2.382744312286377,77.98902130126953,1.2655417298665188,1.1036659165221823,-93.20769669919493,-13.333061,8.716916,14.455004,31.050083,-14.365025,-4.6008916,-14.036277,-10.877694,-22.49356,34.24368,-15.179511,1.3748518,1.2646335,0.063246146,10.19573,9.5023985,7.708245,-7.0797,45.419617,0.13948259,-3.813033,9.678532,-6.550337,-14.301843,32.793743,49.7949,-4.4101763,-5.8485875,-9.57693
206,-4.09004020690918,2.617872476577759,77.85718536376953,1.29915901875555,1.2150547736931931,-93.02803274556527,-14.450822,8.852234,14.087583,32.52094,-14.427463,-4.6617193,-14.757628,-11.107102,-22.61355,35.231762,-15.428514,1.1960006,1.4317495,0.16960378,10.271789,10.030789,7.402303,-6.503253,44.393795,-0.31902358,-3.9830403,9.459735,-6.743665,-14.5280075,32.687473,49.14821,-4.541533,-5.9292727,-9.715886
207,-4.1624250411987305,2.8641974925994873,77.7207260131836,1.3138754535515431,1.3335044247965055,-92.82099379554093,-15.661677,9.00716,13.670568,34.109005,-14.432532,-4.74689,-15.459002,-11.322986,-22.783302,36.17325,-15.671798,1.0099918,1.592015,0.3071709,10.347392,10.524752,7.0737906,-5.9395947,43.45354,-0.7216466,-4.1158648,9.302604,-6.951481,-14.767548,32.563454,48.541965,-4.6567965,-5.999467,-9.846529
208,-4.241672039031982,3.1119649410247803,77.5806884765625,1.3093504110995302,1.4506757584195826,-92.57862829757754,-16.957949,9.179304,13.206871,35.80129,-14.338849,-4.8675494,-16.125507,-11.530282,-23.006006,37.06377,-15.917738,0.82225126,1.7348334,0.47254544,10.429,10.962974,6.7388206,-5.419718,42.640533,-1.083044,-4.2288156,9.272038,-7.17438,-15.022455,32.422874,47.98984,-4.7786403,-6.050387,-9.959587
209,-4.3254289627075195,3.3665337562561035,77.4358901977539,1.2780603583599635,1.5711358141301577,-92.28753158532747,-18.366108,9.373493,12.688609,37.630886,-14.1283,-5.03884,-16.74606,-11.721632,-23.305649,37.875835,-16.15829,0.630361,1.8590344,0.6708389,10.516297,11.33547,6.405886,-4.95833,41.96787,-1.4334599,-4.3175507,9.403793,-7.4092293,-15.291487,32.253307,47.486786,-4.922113,-6.074025,-10.048561
210,-4.409083366394043,3.629420280456543,77.28949737548828,1.2229743653179552,1.6973836818627743,-91.95581985752149,-19.877853,9.580034,12.115933,39.58562,-13.822482,-5.2595325,-17.33222,-11.89917,-23.673014,38.62272,-16.39259,0.43429032,1.9742968,0.8971531,10.606957,11.656979,6.075568,-4.541849,41.410046,-1.7598143,-4.3776507,9.655865,-7.651835,-15.573636,32.053078,47.023098,-5.0723925,-6.0775056,-10.118785
211,-4.5023369789123535,3.8980624675750732,77.13362884521484,1.160173720625737,1.8180909485471084,-91.607900661039,-21.43722,9.77636,11.503678,41.59041,-13.44243,-5.5174594,-17.9034,-12.080584,-24.061369,39.358467,-16.638199,0.24252407,2.0855625,1.1336313,10.705144,11.942946,5.7517176,-4.158649,40.95036,-2.012897,-4.425902,9.975548,-7.900542,-15.872529,31.840506,46.602867,-5.206582,-6.0744824,-10.17823
212,-4.593750953674316,4.177558898925781,76.97184753417969,1.105196286821976,1.9217669180470138,-91.26803679846466,-22.989447,9.941557,10.867854,43.574223,-13.010504,-5.7994432,-18.479445,-12.283437,-24.423286,40.1394,-16.914097,0.06320209,2.1984994,1.3616393,10.816128,12.208401,5.4393015,-3.7971816,40.570385,-2.143997,-4.4776025,10.309454,-8.153812,-16.19416,31.63616,46.226795,-5.2968507,-6.078552,-10.234707
213,-4.678976535797119,4.4593095779418945,76.79849243164062,1.0482811284036693,2.008416292454393,-90.92218529453157,-24.561802,10.075645,10.194745,45.550636,-12.456198,-6.104198,-19.050865,-12.499738,-24.771576,40.953964,-17.221104,-0.09699925,2.3128543,1.5927548,10.94508,12.438927,5.1372643,-3.451127,40.294712,-2.0941553,-4.535074,10.664671,-8.410792,-16.545292,31.445261,45.885784,-5.336648,-6.0927634,-10.297295
214,-4.7555036544799805,4.744525909423828,76.60418701171875,0.9864331256315481,2.083402314766344,-90.56391742647456,-26.168362,10.17871,9.48099,47.54527,-11.79369,-6.451548,-19.614113,-12.725554,-25.122503,41.784676,-17.552273,-0.24314766,2.4262896,1.8316078,11.089065,12.631298,4.8439574,-3.1276913,40.1235,-1.9048105,-4.5888515,11.062663,-8.6679535,-16.927748,31.25691,45.574215,-5.339706,-6.1098185,-10.358676
215,-4.839719772338867,5.027806282043457,76.39753723144531,0.9448142300288475,2.1426168693706105,-90.22899597012649,-27.730484,10.235379,8.761222,49.49909,-11.16933,-6.8514996,-20.191345,-12.978837,-25.434946,42.663628,-17.907597,-0.38515365,2.5427506,2.0488691,11.24161,12.8181715,4.5656786,-2.8366802,40.000633,-1.6791505,-4.636641,11.470476,-8.919187,-17.337286,31.06599,45.29852,-5.3071623,-6.128082,-10.402093
216,-4.926667213439941,5.312497138977051,76.17859649658203,0.9485994466914492,2.181965672625473,-89.95335638642875,-29.174633,10.238727,8.072134,51.36478,-10.73553,-7.303272,-20.805418,-13.276747,-25.667162,43.625397,-18.288858,-0.53321886,2.6669214,2.2123587,11.395393,13.034561,4.3131075,-2.5878277,39.86882,-1.5219505,-4.6775537,11.85466,-9.158514,-17.76569,30.865091,45.067875,-5.2446766,-6.146246,-10.411069
217,-5.001370906829834,5.598554611206055,75.94651794433594,1.008769163636752,2.2033800552151384,-89.74142479368146,-30.50588,10.11976,7.3257823,53.07383,-10.487052,-7.885699,-21.471272,-13.634532,-25.812334,44.698013,-18.711113,-0.6912044,2.8073785,2.3037958,11.548717,13.29218,4.0945415,-2.3867116,39.714863,-1.4462458,-4.7067337,12.238796,-9.389419,-18.208277,30.65091,44.882877,-5.152693,-6.1694174,-10.371912
218,-5.074011325836182,5.876632213592529,75.70352172851562,1.110736066074927,2.2079373387320635,-89.575618929389,-31.754692,9.905816,6.5421734,54.67751,-10.369666,-8.569294,-22.173811,-14.037108,-25.889318,45.855995,-19.168339,-0.852667,2.9622884,2.339088,11.7051935,13.572785,3.9109204,-2.2292857,39.56819,-1.4046277,-4.7266192,12.628815,-9.612357,-18.662727,30.423635,44.741127,-5.030472,-6.1970506,-10.296693
219,-5.141424179077148,6.1500115394592285,75.45649719238281,1.2399456246150675,2.189305757380401,-89.45924109395553,-32.894726,9.7512,5.9172044,56.31605,-10.448388,-9.172165,-22.888836,-14.453939,-25.896416,47.04817,-19.627405,-1.0127236,3.1187112,2.3378258,11.8646965,13.866997,3.762633,-2.1096704,39.435833,-1.4111325,-4.7483535,12.965167,-9.828786,-19.124468,30.188889,44.66051,-4.87633,-6.219208,-10.208442
220,-5.205117225646973,6.413590908050537,75.20468139648438,1.3803030908822436,2.1414305802223943,-89.39570258787586,-33.901253,9.821565,5.6394606,58.122128,-10.776847,-9.502443,-23.592443,-14.85446,-25.834204,48.227104,-20.058004,-1.1672766,3.263847,2.3214808,12.026929,14.165087,3.649234,-2.022158,39.32536,-1.4795133,-4.7832,13.188154,-10.0391865,-19.58588,29.951637,44.658463,-4.6875844,-6.226302,-10.130384
221,-5.260935306549072,6.682413101196289,74.94711303710938,1.5449322259452853,2.0605373941776404,-89.4082832680327,-34.750015,10.222995,5.838914,60.12795,-11.446672,-9.443918,-24.304234,-15.245209,-25.670137,49.41832,-20.45827,-1.3169137,3.4083664,2.277609,12.195582,14.485602,3.5717995,-1.9676545,39.218517,-1.6472735,-4.839076,13.264613,-10.262456,-20.043047,29.721136,44.75412,-4.4762955,-6.2119417,-10.057015
222,-5.307385444641113,6.950113773345947,74.68931579589844,1.7345334273739552,1.9506010532071971,-89.48864100939164,-35.454544,10.876728,6.3708205,62.262505,-12.400628,-9.098815,-25.027906,-15.632067,-25.416033,50.63293,-20.842245,-1.4636538,3.5534375,2.201791,12.368794,14.827151,3.5308156,-1.946712,39.119564,-1.8957022,-4.90816,13.232114,-10.497182,-20.494383,29.494238,44.942043,-4.240006,-6.182754,-9.980966
223,-5.352070331573486,7.2106428146362305,74.44036102294922,1.915148634703339,1.8173407134970554,-89.59274858570696,-36.04586,11.670085,7.0095882,64.49789,-13.463405,-8.603568,-25.713621,-15.984148,-25.139723,51.797344,-21.199883,-1.6068679,3.6713836,2.1272337,12.536827,15.151169,3.52444,-1.9528999,39.069122,-2.1536632,-4.978281,13.136924,-10.713409,-20.935013,29.256058,45.204163,-3.9570613,-6.1488185,-9.922887
224,-5.3829545974731445,7.476940631866455,74.19900512695312,2.0528676482771373,1.6660460469439304,-89.67644480619484,-36.56241,12.481011,7.5396705,66.8052,-14.454108,-8.097874,-26.312136,-16.273964,-24.910053,52.840595,-21.522806,-1.7469732,3.734193,2.0870795,12.689338,15.419372,3.5494566,-1.9792769,39.107235,-2.349546,-5.037648,13.025917,-10.882626,-21.357557,28.9917,45.524616,-3.604191,-6.120369,-9.903704
225,-5.416300296783447,7.740241050720215,73.96558380126953,2.1356995867470205,1.489787787267949,-89.72662032910618,-37.01306,13.335163,7.9574485,69.22235,-15.3474,-7.567807,-26.807013,-16.49571,-24.739405,53.759754,-21.809984,-1.8808193,3.7210774,2.0927467,12.8323,15.624134,3.6047816,-2.0254517,39.26035,-2.4784405,-5.070287,12.888679,-11.018534,-21.75415,28.69504,45.93455,-3.1145766,-6.106208,-9.900893
226,-5.449811935424805,8.005722045898438,73.74082946777344,2.1819783304615474,1.287996557111414,-89.7678599332241,-37.372143,14.285009,8.353196,71.74579,-16.237137,-6.950087,-27.22587,-16.665592,-24.59494,54.59156,-22.066523,-2.0112817,3.6497934,2.124712,12.966702,15.786639,3.6913161,-2.092065,39.501575,-2.5728068,-5.0865107,12.70895,-11.1348505,-22.12276,28.375765,46.44075,-2.5231147,-6.0994725,-9.913682
227,-5.471807956695557,8.269466400146484,73.53009796142578,2.2034666339510656,1.0758460468017945,-89.81153170159979,-37.63881,15.237247,8.66574,74.28701,-17.112602,-6.315886,-27.582045,-16.790752,-24.479076,55.318428,-22.29498,-2.1483703,3.549862,2.1699,13.074832,15.9118,3.8085783,-2.1745,39.79053,-2.6179788,-5.114705,12.524354,-11.2048435,-22.467075,28.045317,46.9899,-1.9554294,-6.0877137,-9.995552
228,-5.49124813079834,8.529524803161621,73.33614349365234,2.2108733691498137,0.8688084069423189,-89.86865558339751,-37.815845,16.089823,8.841792,76.75932,-17.958536,-5.7422223,-27.891615,-16.88074,-24.39305,55.927826,-22.495306,-2.3017464,3.450565,2.2154307,13.139279,16.004345,3.9551015,-2.2682061,40.08637,-2.5993443,-5.18349,12.3730955,-11.199273,-22.795906,27.714596,47.52513,-1.5378987,-6.059184,-10.199359
229,-5.509282112121582,8.801145553588867,73.16004943847656,2.2076185261106116,0.6669120628439946,-89.94218643424378,-37.91431,16.816301,8.858724,79.18664,-18.77707,-5.241425,-28.149668,-16.936777,-24.34504,56.41729,-22.680347,-2.4795172,3.3544428,2.2646735,13.154666,16.04767,4.13193,-2.387055,40.43716,-2.4962773,-5.3067536,12.252795,-11.1235485,-23.111916,27.378534,48.08386,-1.2780825,-5.995018,-10.537893
230,-5.515739917755127,9.072283744812012,73.00340270996094,2.1862522659201904,0.46345836788052996,-90.025666465369,-37.93213,17.46112,8.755674,81.60058,-19.570072,-4.7819853,-28.351274,-16.956572,-24.331676,56.794807,-22.845846,-2.6755567,3.2486763,2.3230326,13.13104,16.044441,4.3391423,-2.5298295,40.84433,-2.3227868,-5.4674797,12.147755,-10.981237,-23.415022,27.0298,48.670044,-1.1178147,-5.9067316,-10.982338
231,-5.509659290313721,9.340785026550293,72.86681365966797,2.1518106804092314,0.2641825072908444,-90.11589380693319,-37.852444,18.024021,8.579283,83.921104,-20.319775,-4.3803077,-28.51057,-16.944584,-24.337757,57.06002,-22.966331,-2.8779528,3.139363,2.3819797,13.075596,16.027473,4.571779,-2.669128,41.19826,-2.1148367,-5.648009,12.074315,-10.743848,-23.713053,26.680593,49.17643,-1.0773264,-5.8270893,-11.523692
232,-5.503269195556641,9.619904518127441,72.75508117675781,2.1099412260924693,0.07479827868410503,-90.20960414821577,-37.662746,18.507061,8.37215,86.07492,-21.002792,-4.050487,-28.641577,-16.903666,-24.347805,57.21051,-23.01473,-3.0744712,3.0314665,2.4344883,12.996539,16.029348,4.821444,-2.776789,41.389397,-1.9060926,-5.8308916,12.049357,-10.391522,-24.020767,26.350843,49.500446,-1.1700238,-5.7880936,-12.152795
233,-5.479557991027832,9.910148620605469,72.66656494140625,2.059494116262882,-0.10771743269385337,-90.31318692450435,-37.3577,18.898193,8.118097,88.07601,-21.615915,-3.8193638,-28.744215,-16.829077,-24.357235,57.25052,-22.999311,-3.2689495,2.9310713,2.4846883,12.899199,16.044878,5.0837336,-2.8454573,41.41441,-1.6704597,-6.0292554,12.082433,-9.936222,-24.354677,26.072536,49.648457,-1.4751474,-5.7638316,-12.903863
234,-5.45233678817749,10.205111503601074,72.60013580322266,1.9975829196098078,-0.28497011308035064,-90.42574717261284,-36.946297,19.19804,7.8103523,89.956604,-22.168179,-3.6750484,-28.812199,-16.721622,-24.3746,57.179443,-22.92963,-3.4654229,2.832688,2.5397065,12.780659,16.059471,5.3562427,-2.8898952,41.323692,-1.3982879,-6.2464533,12.163572,-9.372593,-24.718512,25.822962,49.64721,-1.9600507,-5.7414227,-13.767893
235,-5.4180426597595215,10.51351547241211,72.56192779541016,1.9303127322502946,-0.44915868885571714,-90.5334683781461,-36.43435,19.431961,7.505842,91.66513,-22.659248,-3.5705185,-28.849884,-16.593277,-24.404764,56.99043,-22.78111,-3.651994,2.7268145,2.599137,12.638234,16.089668,5.6330457,-2.918551,41.089252,-1.1494043,-6.4504724,12.278508,-8.653304,-25.101309,25.536005,49.422882,-2.4674914,-5.775392,-14.671198
236,-5.380495548248291,10.830134391784668,72.55187225341797,1.8614903197073083,-0.5925418369515634,-90.62287931000517,-35.830475,19.62785,7.2592835,93.150024,-23.088915,-3.45546,-28.861134,-16.455523,-24.453238,56.676025,-22.529634,-3.8170083,2.601584,2.6607323,12.467445,16.154684,5.908378,-2.9366696,40.682327,-0.98298335,-6.609293,12.413424,-7.7302866,-25.484001,25.141432,48.90582,-2.851391,-5.926011,-15.542357
237,-5.334062576293945,11.15807056427002,72.57445526123047,1.7920384391294224,-0.7093554176723118,-90.69366630306807,-35.136124,19.7913,7.0756536,94.42302,-23.463655,-3.3140047,-28.856264,-16.312225,-24.518278,56.242455,-22.17932,-3.9532065,2.4565043,2.718822,12.264154,16.250917,6.1821575,-2.9220505,40.087967,-0.9372941,-6.7157235,12.564635,-6.6006074,-25.860796,24.6326,48.049137,-3.0881314,-6.215473,-16.38747
238,-5.275465965270996,11.49532699584961,72.63043212890625,1.7197658169591719,-0.805204740673573,-90.75223815847501,-34.35073,19.909647,6.928554,95.50523,-23.778837,-3.1724174,-28.829632,-16.156612,-24.598267,55.691277,-21.73995,-4.0680656,2.2964437,2.7744842,12.0325985,16.373613,6.4571495,-2.8781726,39.320747,-0.9726158,-6.7862916,12.7398405,-5.288969,-26.23071,24.035696,46.9021,-3.2553005,-6.612186,-17.238445
239,-5.214344501495361,11.84674072265625,72.7217788696289,1.6444728196552045,-0.8891722351589452,-90.79514820520583,-33.479538,19.984217,6.8236837,96.35769,-24.017021,-3.043578,-28.76135,-15.983954,-24.697832,55.005684,-21.194603,-4.172125,2.1152837,2.83522,11.7799835,16.5435,6.731992,-2.846637,38.3946,-1.0318487,-6.8244715,12.942501,-3.7875545,-26.573128,23.328064,45.539158,-3.3628306,-7.1003504,-18.063934
