Frame,root_translateX,root_translateY,root_translateZ,root_rotateX,root_rotateY,root_rotateZ,left_hip_pitch_joint_dof,left_hip_roll_joint_dof,left_hip_yaw_joint_dof,left_knee_joint_dof,left_ankle_pitch_joint_dof,left_ankle_roll_joint_dof,right_hip_pitch_joint_dof,right_hip_roll_joint_dof,right_hip_yaw_joint_dof,right_knee_joint_dof,right_ankle_pitch_joint_dof,right_ankle_roll_joint_dof,waist_yaw_joint_dof,waist_roll_joint_dof,waist_pitch_joint_dof,left_shoulder_pitch_joint_dof,left_shoulder_roll_joint_dof,left_shoulder_yaw_joint_dof,left_elbow_joint_dof,left_wrist_roll_joint_dof,left_wrist_pitch_joint_dof,left_wrist_yaw_joint_dof,right_shoulder_pitch_joint_dof,right_shoulder_roll_joint_dof,right_shoulder_yaw_joint_dof,right_elbow_joint_dof,right_wrist_roll_joint_dof,right_wrist_pitch_joint_dof,right_wrist_yaw_joint_dof
0,1.8745455741882324,-0.08471205085515976,76.70341491699219,-0.8004903643709392,1.7128736123352666,-177.08731651454318,5.6242375,14.493577,16.948719,22.401964,-22.31619,-15.000033,-22.425858,-37.11462,-29.11308,37.44217,4.359194,-2.3023438,-0.47135457,-1.1951163,13.599189,12.774975,13.524064,-12.972247,67.335815,7.6245995,5.7736897,14.1378355,-6.870087,-14.168718,5.669425,54.5782,-5.10199,-0.20168495,-18.802631
1,1.715354084968567,0.8030200600624084,76.53294372558594,-0.47694303775180436,1.7851402130917795,-177.28940296575746,5.509714,14.883858,16.734776,22.66803,-21.933058,-15.000033,-22.964182,-37.628574,-27.463673,36.373894,5.225911,-2.4220486,-0.1550336,-1.4518,13.416568,13.282468,13.676215,-12.309495,67.32348,7.394327,5.848072,14.210048,-7.3853874,-14.347158,5.9514675,54.60298,-5.330969,-0.1327623,-18.783531
2,1.5753239393234253,1.7134110927581787,76.3553695678711,-0.12414877295003432,1.8649343188635246,-177.4835803566259,5.3921294,15.231775,16.539272,22.917534,-21.56389,-15.000033,-23.52794,-38.229176,-25.843014,35.31846,6.070772,-2.5390062,0.14392346,-1.7288935,13.235392,13.844584,13.84677,-11.628577,67.258095,7.162616,5.9257874,14.251441,-7.891309,-14.576347,6.2611647,54.5899,-5.5289087,-0.059892412,-18.737705
3,1.4391984939575195,2.6546478271484375,76.17162322998047,0.21454787410905896,1.9427815570971267,-177.68615994630366,5.270295,15.61258,16.339258,23.187675,-21.165956,-15.000033,-24.147846,-38.712757,-24.04154,34.378204,6.877168,-2.673393,0.44230592,-1.9897612,13.067622,14.399928,14.021788,-10.948787,67.16435,6.9325285,5.991414,14.29109,-8.396151,-14.822234,6.587624,54.592117,-5.7012615,0.0027218424,-18.69292
4,1.2964078187942505,3.6184494495391846,75.98637390136719,0.5091790759817764,2.011350242726025,-177.90735010801646,5.1406274,16.082346,16.105982,23.507318,-20.686998,-15.000033,-24.834839,-38.887486,-21.863396,33.64518,7.638614,-2.8409693,0.72503525,-2.2164192,12.926477,14.930359,14.205709,-10.255636,67.02054,6.7137527,6.027667,14.341834,-8.925369,-15.067273,6.957975,54.667194,-5.831293,0.04073532,-18.6718
5,1.1431490182876587,4.5986504554748535,75.81000518798828,0.7546893574080851,2.055459828210264,-178.1778767959818,5.005817,16.652937,15.831722,23.932009,-20.128817,-15.000033,-25.741793,-38.687904,-19.063616,33.330936,8.379752,-3.59101,1.0087047,-2.4108183,12.831164,15.453736,14.401263,-9.523529,66.79411,6.514714,6.0345435,14.411809,-9.510231,-15.307927,7.4151306,54.855442,-5.9126425,0.03703741,-18.70111
6,0.984573483467102,5.613514423370361,75.64575958251953,0.9624900709556965,2.0817597044593965,-178.48248919239282,4.867122,17.30043,15.531235,24.430971,-19.513613,-15.000033,-26.76041,-38.1909,-15.867943,33.31617,9.12711,-4.7280536,1.2900243,-2.5816786,12.768624,15.976138,14.606192,-8.761022,66.50683,6.330771,6.0197406,14.494506,-10.135749,-15.540584,7.9365335,55.125145,-5.9590645,0.003915419,-18.766714
7,0.8285480737686157,6.662858486175537,75.48426055908203,1.124714917790599,2.1147026418310753,-178.76223341342583,4.728418,18.025547,15.208047,24.881725,-18.813599,-15.000033,-27.474178,-37.43584,-12.778669,33.157887,9.844925,-5.141049,1.5280474,-2.718232,12.706443,16.464312,14.824706,-8.010869,66.21116,6.147513,5.978116,14.57783,-10.752153,-15.749509,8.446101,55.41817,-5.980904,-0.028575022,-18.826496
8,0.6485980749130249,7.751952171325684,75.33319091796875,1.236549787849569,2.1779374392824264,-178.9569779708888,4.593661,18.82464,14.861005,25.162897,-18.002464,-15.000033,-27.48519,-36.517986,-10.240887,32.407475,10.429417,-3.7199645,1.6832488,-2.815776,12.612101,16.881893,15.061953,-7.318545,65.96202,5.9505525,5.90478,14.653159,-11.310746,-15.911379,8.860258,55.680485,-5.994837,-0.030734565,-18.840828
9,0.47121161222457886,8.869431495666504,75.19479370117188,1.3093187308395418,2.253907507857693,-179.05985008985314,4.4902215,19.685896,14.465942,25.269861,-17.083717,-15.000033,-26.47411,-35.44994,-8.274404,30.622751,10.9520445,0.61281097,1.7374318,-2.891066,12.498987,17.250273,15.339532,-6.6863585,65.74733,5.71087,5.77324,14.696422,-11.820114,-16.019804,9.164952,55.906902,-6.0161514,0.016076073,-18.77389
10,0.30297577381134033,10.013633728027344,75.06780242919922,1.3551578795653643,2.3312417518082604,-179.09232844400844,4.4133954,20.595,14.019821,25.24625,-16.062344,-15.000033,-24.710915,-34.311764,-6.744392,28.111929,11.341007,6.9450006,1.7156292,-2.966998,12.383464,17.58559,15.671847,-6.096338,65.53495,5.4404864,5.5963187,14.713767,-12.294939,-16.072655,9.387879,56.122513,-6.0379014,0.09198814,-18.656631
11,0.09323754161596298,11.217155456542969,74.93061828613281,1.3720047377837423,2.4481648597048515,-179.0407904972028,4.3173847,21.542753,13.551332,25.041737,-14.913897,-15.000033,-22.763653,-33.275597,-5.814906,25.596186,11.295484,13.384478,1.6340536,-3.0441682,12.23432,17.849953,16.044493,-5.550099,65.34902,5.1894236,5.422442,14.739822,-12.703066,-16.070124,9.528781,56.31942,-6.031985,0.1691073,-18.547462
12,-0.10420495271682739,12.517154693603516,74.81439971923828,0.8130758939096094,2.8224859095246293,-179.18433244587192,3.9307523,23.27153,13.223382,24.904686,-13.724695,-15.000033,-21.262363,-31.78805,-6.721005,23.54802,10.761242,15.000033,1.7791787,-2.6215365,11.846693,18.001682,16.443655,-5.051121,65.20592,5.0072713,5.304266,14.805544,-13.002574,-16.02484,9.588451,56.477062,-5.9649315,0.2179838,-18.502306
13,-0.30036461353302,13.844725608825684,74.71648406982422,0.24401708915285975,3.295813028666232,-179.1920579531158,3.5196676,24.998709,12.887111,24.393154,-12.336834,-15.000033,-20.228233,-30.33585,-8.055976,22.258348,9.444001,15.000033,1.8395188,-2.2097552,11.365069,18.044132,16.876614,-4.6199045,65.12526,4.913106,5.253879,14.933453,-13.179869,-15.932327,9.5607815,56.578045,-5.8145294,0.2379038,-18.54807
14,-0.48563656210899353,15.169570922851562,74.66219329833984,-0.19808072005118504,3.8115937881130093,-179.01941055528832,3.1391416,26.555859,12.494138,23.523825,-10.767027,-15.000033,-19.460327,-29.006496,-9.465299,21.497787,7.441712,15.000033,1.7625061,-1.934431,10.849538,17.995562,17.351145,-4.2475595,65.09015,4.878414,5.244459,15.101691,-13.259501,-15.790423,9.448512,56.637905,-5.601273,0.24198347,-18.650606
15,-0.6729350686073303,16.488073348999023,74.62541198730469,-0.5376209028404407,4.332581736270038,-178.7058032170375,2.705781,27.997122,12.0201,22.554338,-9.073607,-15.000033,-19.008152,-27.817865,-10.830001,21.316984,5.0683866,15.000033,1.5977337,-1.7758111,10.360834,17.851578,17.852377,-3.888074,65.05458,4.885091,5.2691045,15.273875,-13.263469,-15.615479,9.272972,56.68893,-5.35206,0.22521123,-18.769588
16,-0.8564306497573853,17.814058303833008,74.6070785522461,-0.8076110536311434,4.815869457127556,-178.28313551005422,2.112237,29.3586,11.39381,21.751804,-7.33408,-15.000033,-18.862873,-26.791597,-12.068732,21.732212,2.6782727,15.000033,1.3855997,-1.697323,9.962717,17.604296,18.35108,-3.4954743,64.97657,4.9175243,5.3207455,15.416822,-13.212907,-15.432885,9.060383,56.76005,-5.0902505,0.18338244,-18.862978
17,-1.0350576639175415,19.141849517822266,74.60626220703125,-0.9968467440840868,5.271403704177965,-177.72206416510213,1.2601854,30.581606,10.363721,21.13226,-5.4819584,-15.000033,-19.07848,-26.011492,-13.225014,22.933662,0.2260122,15.000033,1.1074879,-1.6995866,9.658568,17.222317,18.829498,-3.0502672,64.86531,5.004766,5.4266834,15.543362,-13.101166,-15.258952,8.803016,56.850845,-4.813008,0.102617376,-18.916033
18,-1.2234225273132324,20.45305824279785,74.62663269042969,-1.1100549522112966,5.711769526688594,-177.00856874374006,0.14329754,31.665583,8.971801,20.6674,-3.5566237,-15.000033,-19.575756,-25.456707,-14.416903,24.812082,-2.3942313,15.000033,0.73739064,-1.7631482,9.422546,16.712334,19.285742,-2.5801878,64.74373,5.1484346,5.581037,15.668911,-12.921746,-15.094568,8.501164,56.944645,-4.5060434,-0.009798268,-18.949013
19,-1.3680588006973267,21.77079200744629,74.68865966796875,-1.2099293813010654,6.098960598075115,-176.2024974199143,-1.1855036,32.734238,7.6246567,20.504807,-1.7504432,-15.000033,-20.126106,-24.988052,-15.654769,26.925077,-4.920654,15.000033,0.3075745,-1.820688,9.272777,16.122593,19.712624,-2.1091385,64.59297,5.291186,5.7267165,15.764318,-12.699207,-14.9434595,8.196074,57.050266,-4.17451,-0.12631331,-18.972992
20,-1.4962425231933594,23.076797485351562,74.764404296875,-1.3644755834589166,6.395757592660577,-175.37872097716777,-2.6208427,33.93217,6.767902,20.735493,-0.23636535,-15.000033,-20.528162,-24.45577,-16.914412,28.868753,-7.1188474,15.000033,-0.1393078,-1.8039756,9.225912,15.503905,20.098845,-1.658271,64.39338,5.376928,5.8065424,15.802781,-12.461242,-14.8137455,7.932881,57.17889,-3.8237562,-0.21906783,-18.999958
21,-1.610054850578308,24.400634765625,74.84657287597656,-1.627401553967492,6.569685466853851,-174.54469112491185,-4.2634826,35.432972,6.4892826,21.562397,1.0498406,-15.000033,-20.746906,-23.792723,-18.186031,30.655636,-8.923642,15.000033,-0.58750486,-1.6628695,9.338598,14.837926,20.439875,-1.2043746,64.13379,5.3826303,5.795933,15.754447,-12.219978,-14.711704,7.7186613,57.32849,-3.4310534,-0.28591987,-19.034992
22,-1.7260730266571045,25.72048568725586,74.9258041381836,-1.9689348052065516,6.631179204810801,-173.68392990897715,-6.0641522,37.1323,6.5600104,22.819267,2.1362617,-15.000033,-20.833063,-23.065945,-19.472353,32.43018,-10.466988,15.000033,-1.0449954,-1.4291546,9.599179,14.10636,20.734407,-0.74585634,63.828236,5.342018,5.728851,15.643364,-11.962913,-14.640678,7.536456,57.498203,-2.9989958,-0.33951786,-19.07052
23,-1.8337769508361816,26.997312545776367,75.01655578613281,-2.0148433470758587,6.795089201508666,-172.78843653869762,-7.884623,38.40539,7.6119184,24.083488,2.814504,-12.550513,-21.110487,-22.640408,-20.641756,34.11525,-11.803263,14.060206,-1.5483211,-1.4505216,9.747258,13.348208,20.979044,-0.33569327,63.50178,5.2877975,5.634983,15.524638,-11.666126,-14.594603,7.386231,57.684673,-2.5727968,-0.375298,-19.102512
24,-1.94514799118042,28.232913970947266,75.09712982177734,-1.9818088761239159,6.961760978267515,-171.93258138504905,-9.198731,39.44864,9.18783,24.94841,2.8893862,-10.3380375,-21.28873,-22.24995,-21.77415,35.47449,-13.030559,12.948984,-2.056161,-1.5287673,9.816736,12.624764,21.154516,-0.025421405,63.165325,5.250622,5.5449133,15.453819,-11.321644,-14.577042,7.275792,57.90402,-2.198711,-0.38745296,-19.12252
25,-2.05450701713562,29.427995681762695,75.18598175048828,-2.0067520648657045,7.0498050629223625,-171.1421287980274,-9.7577,40.36372,11.166621,25.228348,2.215067,-9.212351,-21.186625,-21.733423,-22.928488,36.38537,-14.140897,12.0518055,-2.5602932,-1.5279558,9.869699,11.9662695,21.229752,0.18958558,62.80731,5.182956,5.459048,15.47667,-10.9550705,-14.597871,7.261412,58.201077,-1.900097,-0.35897088,-19.128023
26,-2.1871228218078613,30.586713790893555,75.28548431396484,-2.0563750691756306,7.061367158456867,-170.38865337756394,-9.734608,41.164394,13.598012,25.148233,0.9819361,-8.809295,-20.88251,-21.145452,-24.077084,36.97942,-15.104625,11.306838,-3.0608134,-1.5009865,9.936335,11.33923,21.250412,0.3306985,62.42227,5.0803976,5.36351,15.54212,-10.558491,-14.637993,7.310428,58.55548,-1.6513363,-0.29938123,-19.121813
27,-2.3286454677581787,31.715229034423828,75.37413024902344,-2.1113023097159815,7.030739815381569,-169.69686765515337,-9.307653,41.850983,16.35858,24.962086,-0.44569597,-8.779963,-20.475615,-20.490494,-25.190067,37.32968,-15.937129,10.60907,-3.5346036,-1.4559368,10.009981,10.738158,21.222689,0.40765843,62.00636,5.0620465,5.267726,15.580518,-10.091298,-14.725235,7.355244,58.876118,-1.4007089,-0.23622227,-19.09919
28,-2.4860610961914062,32.839752197265625,75.486328125,-2.157049693840921,6.991887445488199,-169.09289045191522,-8.672521,42.449753,19.306938,24.944551,-1.7359904,-8.754215,-20.053314,-19.77078,-26.239376,37.502728,-16.65592,9.85492,-3.906783,-1.3630898,10.06162,10.076704,21.096586,0.32875052,61.63807,5.232971,5.1863728,15.582449,-9.508759,-14.866767,7.253109,59.115852,-1.1502477,-0.20185499,-19.077328
29,-2.638267755508423,33.92473220825195,75.61617279052734,-2.180056179993782,6.941619497462902,-168.59124785718637,-7.808541,42.947926,22.540302,25.14487,-2.8091877,-8.714259,-19.61264,-18.993265,-27.227072,37.496212,-17.269249,9.004027,-4.155827,-1.2741456,10.086444,9.349177,20.909887,0.08397104,61.337925,5.6367817,5.112372,15.531583,-8.803027,-14.993402,6.961679,59.26944,-0.9608416,-0.2061671,-19.06316
30,-2.811257839202881,35.018192291259766,75.76222229003906,-2.1933400396413947,6.866703164838833,-168.17579296525716,-6.6540766,43.30464,26.093744,25.437147,-3.8405802,-8.807324,-19.10924,-18.150991,-28.166843,37.279194,-17.77384,8.119836,-4.3088117,-1.1819806,10.092526,8.584672,20.669909,-0.30182862,61.074345,6.206749,5.0434966,15.445898,-7.9912887,-15.109984,6.5416784,59.36736,-0.82214344,-0.23240007,-19.05048
31,-2.962895154953003,36.078582763671875,75.90262603759766,-2.2183268890494436,6.784335544847835,-167.82698761617448,-5.3378325,43.526894,29.71393,25.826397,-4.8911424,-8.912968,-18.564796,-17.230154,-29.04673,36.874752,-18.170044,7.2547174,-4.4088674,-1.0668335,10.0770645,7.8291388,20.38617,-0.7662696,60.79231,6.890227,4.9905562,15.326949,-7.115251,-15.217018,6.0487695,59.448475,-0.63790417,-0.27463582,-19.058279
32,-3.1150805950164795,37.11981201171875,76.05918884277344,-2.275060980374894,6.711161180516516,-167.52561505155734,-3.9759161,43.647987,33.145573,26.314854,-6.020038,-8.919273,-18.007261,-16.220798,-29.853338,36.3114,-18.45372,6.4575605,-4.4999557,-0.91120225,10.038206,7.1307163,20.068748,-1.2460006,60.434242,7.63528,4.9650903,15.175775,-6.2188816,-15.310855,5.5366383,59.551964,-0.31291294,-0.32710522,-19.106571
33,-3.2683308124542236,38.147308349609375,76.212890625,-2.3958072429710335,6.658259994860398,-167.29358190886177,-2.560807,43.752995,36.420757,26.947842,-7.2685895,-8.766525,-17.438463,-15.064019,-30.574118,35.531322,-18.582335,5.740122,-4.564741,-0.6874193,9.964749,6.4995284,19.714262,-1.7327524,59.97976,8.473718,4.9822936,14.956861,-5.297786,-15.382533,4.9980297,59.677845,0.25170285,-0.40789583,-19.227474
34,-3.4267585277557373,39.15914535522461,76.35508728027344,-2.557746116706624,6.614937144095298,-167.13151500925807,-1.0412455,43.789772,39.634235,27.69714,-8.595469,-8.527898,-16.845518,-13.78531,-31.21861,34.533237,-18.56353,5.0761538,-4.593934,-0.419297,9.86016,5.9186482,19.321375,-2.250505,59.456787,9.419568,5.0292006,14.680316,-4.339255,-15.429902,4.416528,59.813454,0.9799355,-0.5154099,-19.402779
35,-3.5950679779052734,40.13774490356445,76.50605773925781,-2.700258608906138,6.564005289206714,-166.9883638237042,0.5158692,43.62029,42.604504,28.464281,-9.9385,-8.297315,-16.23859,-12.504406,-31.80762,33.44072,-18.470047,4.4531975,-4.6408424,-0.16489103,9.746369,5.3908367,18.905693,-2.7873127,58.882313,10.393492,5.0774574,14.41364,-3.3721488,-15.459319,3.8271017,59.97383,1.706479,-0.6136308,-19.576313
36,-3.76509952545166,41.1080207824707,76.65052032470703,-2.7658414710420294,6.489027490251753,-166.81299054232295,2.018734,43.116817,45.129963,29.141342,-11.22861,-8.167063,-15.628299,-11.338992,-32.366184,32.379665,-18.376175,3.857347,-4.7586327,0.01840743,9.646145,4.9189773,18.488102,-3.3300457,58.272533,11.314386,5.1010866,14.221606,-2.42488,-15.479796,3.2662406,60.173294,2.2679718,-0.6643423,-19.691568
37,-3.9371867179870605,42.045310974121094,76.7838134765625,-2.7465436787611965,6.377730338412803,-166.59971057611662,3.4864936,42.299873,47.226524,29.738472,-12.490517,-8.166487,-14.993576,-10.308162,-32.906364,31.354939,-18.293879,3.2983544,-4.961798,0.11889424,9.564136,4.5306478,18.077513,-3.8846433,57.58784,12.193073,5.1060433,14.109072,-1.5046531,-15.491457,2.7417219,60.443134,2.6149633,-0.65040886,-19.723679
38,-4.110108375549316,42.98002243041992,76.9030532836914,-2.675801445336354,6.242091281450291,-166.37265436647243,4.9150004,41.250687,48.933228,30.301155,-13.743703,-8.246197,-14.3393755,-9.351875,-33.419224,30.315311,-18.186527,2.7741234,-5.220418,0.16673596,9.488679,4.216814,17.670305,-4.455851,56.831593,13.059369,5.1032925,14.04143,-0.5953912,-15.490549,2.2334132,60.764404,2.838225,-0.59333175,-19.704638
39,-4.26212739944458,43.88717269897461,77.01898956298828,-2.5606597137905047,6.099660505357958,-166.1284610974732,6.180821,39.963863,50.114307,30.800375,-14.926599,-8.38246,-13.713613,-8.46875,-33.901146,29.310024,-18.063143,2.2550583,-5.5211477,0.17246242,9.419104,3.9204392,17.267132,-5.0316763,56.087765,13.85824,5.0768757,14.0250845,0.31153128,-15.479235,1.7364216,61.074284,2.9870443,-0.51133835,-19.663
40,-4.417456150054932,44.77365493774414,77.127685546875,-2.4084864845242713,5.967413432814433,-165.86413953004876,7.1704493,38.43228,50.646378,31.202393,-15.972861,-8.548451,-13.160611,-7.655535,-34.349537,28.38533,-17.932308,1.7138433,-5.850299,0.1468383,9.35554,3.5856736,16.869467,-5.599133,55.43936,14.534734,5.0107164,14.065909,1.2245675,-15.462254,1.2471191,61.310623,3.1121464,-0.4231903,-19.626362
41,-4.573013782501221,45.664100646972656,77.23234558105469,-2.210010117825535,5.852945996220191,-165.56278615573916,7.8527293,36.664124,50.455235,31.554659,-16.881016,-8.706616,-12.692029,-6.9290004,-34.778416,27.556028,-17.79628,1.1362559,-6.2230744,0.08154507,9.2955,3.2014785,16.480278,-6.1669,54.896034,15.056113,4.884839,14.1824255,2.149268,-15.441363,0.75980973,61.44658,3.1932304,-0.31068274,-19.593067
42,-4.680032253265381,46.5368766784668,77.32147979736328,-1.9700065199191574,5.744591535464761,-165.23139265601495,8.325437,34.696857,49.653126,31.878277,-17.684744,-8.877345,-12.278417,-6.2798896,-35.192562,26.794226,-17.651363,0.5398489,-6.639767,-0.020864597,9.2395935,2.795308,16.098637,-6.739345,54.418232,15.4568815,4.714245,14.365569,3.080714,-15.415265,0.27854848,61.51923,3.2151577,-0.171594,-19.55009
43,-4.7807536125183105,47.39376449584961,77.39147186279297,-1.7168392046558336,5.630795570302672,-164.9025473256992,8.67014,32.56321,48.405205,32.108963,-18.375742,-9.121086,-11.902132,-5.6669455,-35.574226,26.08424,-17.499132,-0.054079246,-7.066485,-0.1326637,9.193945,2.369219,15.719046,-7.2941813,54.01552,15.784754,4.5344844,14.580884,4.010818,-15.387152,-0.18536106,61.561134,3.2355533,-0.048365135,-19.50873
44,-4.8781538009643555,48.23867416381836,77.45387268066406,-1.4800310142413584,5.5007684273911925,-164.60858954535829,8.961275,30.286812,46.87022,32.17081,-18.943066,-9.498765,-11.549073,-5.049748,-35.90415,25.415125,-17.341953,-0.6254392,-7.470583,-0.22277139,9.166031,1.9268279,15.332922,-7.807668,53.696617,16.08801,4.38099,14.794247,4.930678,-15.36249,-0.61989814,61.60425,3.3131435,0.01670538,-19.480345
45,-4.98793888092041,49.08412551879883,77.51171875,-1.2520856362821633,5.346630471511538,-164.3491289392602,9.216429,27.818842,44.984047,32.04073,-19.390831,-10.009532,-11.202252,-4.4307537,-36.170067,24.764648,-17.183575,-1.1666701,-7.855004,-0.2980156,9.16476,1.4674152,14.931285,-8.262314,53.481556,16.379198,4.247274,15.029406,5.845621,-15.346682,-1.0335108,61.640575,3.4797149,-0.008199642,-19.470097
46,-5.051076412200928,49.90421676635742,77.54869079589844,-1.0255797575917127,5.176208617162376,-164.10922573534927,9.447732,25.171513,42.732006,31.771545,-19.725546,-10.623472,-10.869764,-3.8230624,-36.38734,24.13698,-17.016594,-1.6908082,-8.236238,-0.36208245,9.184533,0.98914665,14.512456,-8.672346,53.36236,16.635885,4.119886,15.295168,6.756614,-15.341768,-1.427699,61.659046,3.6998775,-0.09349579,-19.470636
47,-5.115321636199951,50.71076583862305,77.57597351074219,-0.8204785170681377,5.0027813739647575,-163.90139244662518,9.716268,22.425564,40.33869,31.339485,-19.925009,-11.357552,-10.572763,-3.2105658,-36.57334,23.553999,-16.822544,-2.2087915,-8.599408,-0.39172944,9.211393,0.4908769,14.083155,-9.06402,53.306934,16.851305,4.02387,15.534313,7.6506805,-15.352434,-1.7838935,61.683464,3.9307084,-0.18956424,-19.475334
48,-5.172548294067383,51.51139450073242,77.59334564208984,-0.6561548645104158,4.840602521705792,-163.73763398784538,10.062637,19.65556,38.01311,30.7029,-19.960905,-12.229675,-10.332504,-2.5771196,-36.746086,23.03587,-16.58189,-2.731874,-8.930477,-0.36414427,9.231926,-0.025063204,13.653261,-9.462076,53.278927,17.017311,3.9831936,15.687566,8.513446,-15.381577,-2.0818307,61.739,4.130486,-0.24665058,-19.476906
49,-5.213922023773193,52.302085876464844,77.59737396240234,-0.5326077847712282,4.690748332610724,-163.62290133731886,10.515619,16.838192,35.807083,29.811937,-19.823565,-13.268817,-10.155453,-1.9308882,-36.911705,22.600363,-16.303186,-3.2624207,-9.220901,-0.2770571,9.2463255,-0.5734436,13.228478,-9.89081,53.28856,17.09725,4.017706,15.720361,9.348814,-15.436737,-2.3024578,61.8305,4.2900753,-0.24625629,-19.480238
50,-5.237234115600586,53.100650787353516,77.59059143066406,-0.44619016238710807,4.54918187654913,-163.5471252751492,11.058384,13.951642,33.594402,28.67603,-19.53013,-14.455706,-10.026047,-1.2676425,-37.06691,22.216028,-15.985572,-3.7964375,-9.483103,-0.13566425,9.261693,-1.1468658,12.806781,-10.33122,53.343475,17.104156,4.1087804,15.668077,10.159759,-15.518352,-2.462261,61.94863,4.433064,-0.2187604,-19.484661
51,-5.251523017883301,53.8712272644043,77.57445526123047,-0.33483828709697955,4.462992966804912,-163.45445317254467,11.581462,10.865769,31.224508,27.218369,-19.032274,-15.000033,-10.05229,-0.72004735,-37.22663,22.028864,-15.671562,-4.315891,-9.774854,0.011098972,9.227085,-1.7127864,12.38803,-10.74281,53.406025,17.105684,4.2231436,15.576513,10.93655,-15.616041,-2.5965848,62.083187,4.56379,-0.18109019,-19.478336
52,-5.25000524520874,54.62019348144531,77.55387115478516,-0.1696599428887833,4.457201619698832,-163.31111634919907,12.066629,7.6075926,28.608263,25.42836,-18.302391,-15.000033,-10.295535,-0.3543055,-37.399525,22.134157,-15.393463,-4.8120437,-10.136024,0.13242306,9.111613,-2.2400064,11.974173,-11.085068,53.43838,17.169632,4.327524,15.49198,11.668473,-15.712764,-2.739098,62.227077,4.6857123,-0.15141726,-19.450474
53,-5.234848499298096,55.366661071777344,77.52783966064453,-0.08012638125425717,4.462375093111862,-163.21284200867413,12.660193,4.3856087,25.809313,23.37107,-17.393986,-15.000033,-10.59584,0.080383964,-37.529987,22.292892,-15.033817,-5.3078995,-10.482156,0.33376557,9.003587,-2.7286732,11.568142,-11.355197,53.43404,17.3372,4.431986,15.410662,12.348353,-15.805909,-2.8956187,62.38677,4.79992,-0.13832688,-19.402664
54,-5.207718372344971,56.12020492553711,77.48534393310547,-0.07557841145613656,4.47958535692873,-163.1517144627489,13.392658,1.2160294,22.828087,21.03201,-16.320692,-15.000033,-10.942376,0.5960454,-37.643616,22.48132,-14.593745,-5.8072724,-10.81335,0.62649417,8.905074,-3.1971586,11.171765,-11.574593,53.41251,17.56432,4.548314,15.313177,12.986156,-15.899382,-3.052077,62.559906,4.9024706,-0.13073756,-19.340681
55,-5.1684370040893555,56.8837890625,77.43436431884766,-0.1741987037768795,4.512705787228627,-163.08244460292178,14.200857,-1.736594,19.67335,18.584057,-15.155412,-15.000033,-11.28065,1.2444084,-37.827328,22.564968,-14.0371,-6.324558,-11.15587,1.0217434,8.813193,-3.64238,10.787826,-11.738323,53.37399,17.7918,4.6467967,15.222732,13.600681,-15.984088,-3.2131991,62.7224,4.987214,-0.11727824,-19.26038
56,-5.119571685791016,57.6524658203125,77.37057495117188,-0.3769847910473929,4.564802568435299,-162.96211890287123,15.002616,-4.338903,16.379026,16.216047,-13.9605665,-15.000033,-11.568843,2.0491476,-38.158314,22.442324,-13.343851,-6.871972,-11.530573,1.5094647,8.72377,-4.0633183,10.4219055,-11.844957,53.32147,17.959652,4.6980653,15.163216,14.211867,-16.045889,-3.384787,62.848885,5.0461197,-0.08659546,-19.160244
57,-5.069365978240967,58.430904388427734,77.28945922851562,-0.683909358455708,4.6450317672479144,-162.79372604387234,15.774888,-6.620675,12.865658,13.916325,-12.705134,-15.000033,-11.8092785,3.0163794,-38.6471,22.10208,-12.516525,-7.461211,-11.939218,2.0905998,8.627941,-4.446029,10.0761,-11.876896,53.238678,18.051668,4.6850643,15.129618,14.8266735,-16.078907,-3.569685,62.930416,5.055364,-0.027833147,-19.02829
58,-5.010985851287842,59.23244857788086,77.20076751708984,-1.0869523447750837,4.748034852741693,-162.59605618574943,16.575348,-8.633839,9.147324,11.587856,-11.349425,-15.000033,-12.0196085,4.128463,-39.25273,21.586977,-11.56209,-8.083488,-12.369302,2.7573237,8.534808,-4.798133,9.752789,-11.843432,53.13019,18.099098,4.6269197,15.113013,15.434464,-16.08407,-3.7640646,62.982258,5.0244937,0.04801901,-18.8715
59,-4.955986022949219,60.05850601196289,77.11011505126953,-1.5502885742772503,4.854050784609253,-162.35153847318023,17.4259,-10.33037,5.423426,9.246654,-9.904726,-15.000033,-12.192211,5.3421397,-39.96106,20.903456,-10.478183,-8.717546,-12.818597,3.459858,8.462085,-5.146504,9.460245,-11.782779,53.02707,18.114666,4.548695,15.131993,16.031895,-16.052223,-3.962921,63.009987,4.994348,0.12455579,-18.716885
60,-4.898420810699463,60.907501220703125,77.00881958007812,-2.0324525105989735,4.945698874825989,-162.04068485549107,18.230495,-11.674372,1.9167376,7.09138,-8.483447,-15.000033,-12.326289,6.6040826,-40.75715,20.071968,-9.268657,-9.341419,-13.283986,4.140085,8.423543,-5.5192323,9.210427,-11.737097,52.96041,18.109438,4.475393,15.204992,16.615269,-15.968274,-4.163593,63.023525,5.003664,0.18118946,-18.592854
61,-4.822671890258789,61.784000396728516,76.9034423828125,-2.521103210939227,5.025069701098331,-161.63042403483942,18.026567,-12.730293,-1.2443297,7.016143,-8.081788,-15.000033,-12.421658,7.8977757,-41.667038,19.087925,-7.95297,-9.960988,-13.793261,4.779761,8.414866,-5.9089284,9.022607,-11.719586,52.928295,18.067589,4.4034977,15.356081,17.183125,-15.827241,-4.3636227,63.031837,5.071644,0.213306,-18.518433
62,-4.734564781188965,62.69157028198242,76.79898834228516,-3.017196724129082,5.098408991551105,-161.1399071525292,17.758192,-13.630707,-4.2819705,6.992214,-7.614383,-15.000033,-12.485045,9.233782,-42.678627,17.957409,-6.5319304,-10.584365,-14.314409,5.3855157,8.426248,-6.340289,8.869447,-11.729571,52.95435,17.996454,4.3252745,15.578837,17.764395,-15.605057,-4.5880713,63.00798,5.162444,0.23018774,-18.487732
63,-4.640669822692871,63.611976623535156,76.68899536132812,-3.502755532586135,5.168748195042346,-160.6120707543571,17.42557,-14.365308,-6.9716196,6.991391,-7.0565605,-15.000033,-12.549542,10.585498,-43.739975,16.734793,-4.984608,-11.191389,-14.837945,5.931265,8.459897,-6.76784,8.777719,-11.737258,52.976364,17.910887,4.251168,15.808487,18.317686,-15.326602,-4.797095,62.970024,5.2645683,0.2351625,-18.456055
64,-4.534591197967529,64.58356475830078,76.58995056152344,-3.921294053964764,5.209975399761689,-160.12687539041028,17.057713,-14.956859,-9.057357,6.9550095,-6.374544,-15.000033,-12.655305,11.848969,-44.754295,15.593971,-3.3435647,-11.757074,-15.321261,6.359814,8.527897,-7.1556573,8.747065,-11.705233,52.950344,17.832033,4.191679,15.986464,18.799925,-15.041777,-4.9530954,62.94116,5.3705626,0.23246744,-18.375612
65,-4.408568382263184,65.57484436035156,76.48992919921875,-4.30043656965609,5.2435810493317945,-159.6577530035532,16.59083,-15.380711,-10.57196,6.816608,-5.3659244,-15.000033,-12.824181,13.033192,-45.787777,14.527916,-1.5923538,-12.275302,-15.799634,6.732033,8.607947,-7.4948454,8.753019,-11.6268635,52.87085,17.75871,4.156875,16.106237,19.207024,-14.802578,-5.05389,62.93871,5.499521,0.22355913,-18.204372
66,-4.27223014831543,66.5849609375,76.38255310058594,-4.685296230875142,5.310555370574727,-159.1361090311873,15.904265,-15.57035,-11.639684,6.7445583,-4.16044,-15.000033,-13.0503235,14.225484,-46.913773,13.373485,0.3242949,-12.762423,-16.253048,7.051555,8.680576,-7.897666,8.800203,-11.559084,52.84031,17.713217,4.144065,16.211649,19.633041,-14.421624,-5.1702113,62.871075,5.603283,0.20084704,-18.0361
67,-4.134662628173828,67.63856506347656,76.28804016113281,-4.951780669913719,5.324830999421526,-158.6961305521708,15.2054,-15.588869,-12.089394,6.6318374,-3.0217044,-15.000033,-13.342543,15.228233,-47.915924,12.461969,2.2471373,-13.216605,-16.541327,7.1476793,8.78843,-8.346754,8.925464,-11.532804,52.837963,17.675766,4.136851,16.300423,20.061672,-13.882418,-5.3008895,62.734142,5.6609483,0.16653182,-17.907003
68,-3.984203577041626,68.738525390625,76.23294830322266,-5.0382921568462615,5.258632165967502,-158.40917186203924,14.583172,-15.43934,-11.7861395,6.5168285,-2.2584915,-15.000033,-13.715016,15.942724,-48.656105,11.958448,4.0987287,-13.640311,-16.721947,7.0263205,8.934018,-8.709445,9.077519,-11.446417,52.768543,17.643976,4.1152368,16.364376,20.338467,-13.419719,-5.3566575,62.666313,5.713182,0.12515336,-17.783648
69,-3.841980457305908,69.85836029052734,76.27142333984375,-4.84600515341003,5.0678905524029405,-158.37274105782365,14.056337,-15.108757,-10.367606,6.434257,-2.0094807,-15.000033,-14.1046505,16.29293,-49.07914,11.9173155,5.8132157,-14.070738,-16.64996,6.501977,9.12417,-9.039281,9.30013,-11.309984,52.66436,17.662355,4.0888596,16.394035,20.508062,-12.88413,-5.360728,62.60913,5.738888,0.06883374,-17.724758
70,-3.679619073867798,70.99678802490234,76.30126190185547,-4.428939049133305,4.808583070615045,-158.50894941337765,13.488472,-14.851061,-7.9569163,6.6901236,-2.3145714,-12.763123,-14.6563835,16.180918,-49.29714,12.603206,7.284761,-14.471192,-16.290613,5.5208306,9.360718,-9.391926,9.775741,-11.245034,52.49951,17.687733,4.067765,16.372828,20.666769,-11.980381,-5.364811,62.4446,5.675353,-0.010486502,-17.79008
71,-3.4625191688537598,72.09758758544922,76.2616958618164,-3.708656142228199,4.504082029344989,-158.741875416049,13.152274,-15.351587,-5.19261,6.8891983,-2.917427,-5.1631875,-15.806597,14.982957,-49.236485,15.251065,8.023661,-14.701261,-15.848867,4.2852316,9.600141,-9.712032,10.276708,-11.172884,52.293842,17.661716,4.0229917,16.33607,20.714867,-11.159481,-5.3425016,62.295193,5.583116,-0.08458247,-17.833292
72,-3.2372522354125977,73.23036193847656,76.1780776977539,-3.086353409384529,4.223395535712829,-158.87323327606416,11.381338,-15.7603035,-2.4472787,10.225216,-5.4684367,0.7559269,-17.019268,13.917599,-48.927967,17.703812,9.131536,-14.757045,-15.525245,3.1722784,9.886123,-10.010567,10.791789,-11.108661,52.098244,17.553286,3.928193,16.309467,20.703112,-10.4019575,-5.2689686,62.122772,5.429603,-0.14340053,-17.872492
73,-3.0009045600891113,74.35179901123047,76.08041381835938,-2.637953558332989,3.9272570962138182,-158.91697728858975,10.282181,-15.7702265,-0.29756638,12.492106,-7.788356,4.4691463,-18.339233,13.083088,-48.311966,20.02935,10.648704,-14.861748,-15.297546,2.2434702,10.276561,-10.304044,11.320053,-11.052577,51.914932,17.32878,3.7491803,16.28271,20.633072,-9.696567,-5.1475863,61.91622,5.1862855,-0.1792767,-17.913755
74,-2.747866153717041,75.44071960449219,75.99494171142578,-2.2483176136004452,3.5909385337452795,-158.94043829905092,9.651842,-15.555444,1.5920906,14.126496,-10.142555,6.9804635,-19.760843,12.352775,-47.383057,22.350456,12.4636,-14.911064,-15.094644,1.3677416,10.755908,-10.588318,11.86645,-10.993012,51.735878,17.025118,3.508813,16.250088,20.496267,-9.028972,-4.9824877,61.686672,4.8735304,-0.2007636,-17.96241
75,-2.484757900238037,76.51507568359375,75.90251922607422,-1.8811271254959867,3.2407714730488566,-158.96187884434875,9.356741,-15.250813,3.1709042,15.19938,-12.386367,8.698215,-21.144327,11.787778,-46.16244,24.343422,14.591086,-14.324681,-14.894823,0.52075285,11.273557,-10.846191,12.420065,-10.949679,51.577076,16.696423,3.2673748,16.244503,20.306484,-8.403712,-4.782291,61.441135,4.52957,-0.22013563,-18.014748
76,-2.221083402633667,77.57942962646484,75.81304168701172,-1.52304281927805,2.9132465130994802,-158.99695236823058,9.242956,-14.966923,4.389886,15.788765,-14.368006,10.033128,-22.37511,11.454596,-44.644215,25.746708,16.973711,-12.521488,-14.68201,-0.29010147,11.776479,-11.063563,12.960108,-10.940916,51.460743,16.397505,3.0849566,16.302376,20.076078,-7.838989,-4.5592136,61.18997,4.1928835,-0.2507716,-18.064867
77,-1.9659979343414307,78.61959075927734,75.73309326171875,-1.1791265455033784,2.6014702410348907,-159.04522979736308,9.336368,-14.717549,5.2080593,15.793096,-16.007063,10.904532,-23.50319,11.50073,-42.449287,26.418528,19.745953,-8.943772,-14.454337,-1.0533383,12.2762165,-11.254536,13.47539,-10.981724,51.397217,16.115194,2.9730208,16.474173,19.807947,-7.3445654,-4.3159637,60.920742,3.8529587,-0.29785398,-18.102503
78,-1.7128839492797852,79.65025329589844,75.64607238769531,-0.8731794225327935,2.29345617262281,-159.12144259062492,9.642802,-14.4347515,5.742972,15.28041,-17.391487,11.153982,-24.595493,11.944921,-39.555855,26.616428,22.63264,-3.876243,-14.199974,-1.7478836,12.794241,-11.421466,13.964867,-11.053496,51.3793,15.833539,2.9002547,16.731026,19.493254,-6.918883,-4.049099,60.63742,3.4970098,-0.35446703,-18.132608
79,-1.4825791120529175,80.6549301147461,75.56069946289062,-0.6247313584319398,2.020536109147053,-159.2542446678217,9.963115,-14.085103,6.1491327,14.617873,-18.645512,11.085012,-25.583027,12.560751,-36.603176,26.762188,24.993465,1.856843,-13.903596,-2.3445659,13.291495,-11.529893,14.419241,-11.118477,51.401608,15.605438,2.8633704,16.992233,19.125273,-6.56701,-3.75644,60.370514,3.1638317,-0.41029274,-18.17103
80,-1.2646974325180054,81.64262390136719,75.47167205810547,-0.44113173619841667,1.8136746203220395,-159.4683083850304,10.113804,-13.659298,6.5566845,14.1476345,-19.888952,11.002873,-26.425783,13.0066395,-34.376297,27.282932,26.41674,7.2652187,-13.556613,-2.8244364,13.72551,-11.547736,14.824947,-11.138229,51.462345,15.484077,2.860079,17.177597,18.696209,-6.2993846,-3.435943,60.152058,2.8925936,-0.4547863,-18.232677
81,-1.0440517663955688,82.58406066894531,75.39443969726562,-0.3267708775411619,1.6975221271231262,-159.772331308338,10.045498,-13.156327,6.9301786,13.910959,-21.156368,10.956341,-27.083357,13.115295,-33.313328,28.222683,27.072618,12.3730955,-13.157776,-3.1686177,14.070346,-11.471296,15.169234,-11.098476,51.566402,15.546438,2.9115956,17.267107,18.199821,-6.1302323,-3.072126,59.98836,2.707066,-0.4811723,-18.32466
82,-0.8368425965309143,83.53910064697266,75.32054901123047,-0.3116276401107783,1.7085361255867542,-160.28425687497798,9.676969,-12.504682,7.3833375,13.949217,-22.493896,10.758124,-27.372726,12.7369795,-34.225586,29.286804,27.363855,15.000033,-12.601356,-3.3536885,14.297242,-11.3124275,15.454316,-11.01426,51.71923,15.747105,3.0122776,17.303234,17.644781,-6.0592136,-2.6639462,59.86485,2.5858212,-0.49623162,-18.436335
83,-0.6455246806144714,84.5065689086914,75.2562484741211,-0.37814199933324993,1.8719374808840015,-161.0992761671454,8.967055,-11.6970005,8.1255665,14.304182,-23.886887,10.411158,-27.427515,11.92946,-36.593872,30.512943,27.373503,15.000033,-11.794892,-3.4078043,14.367261,-11.061245,15.691457,-10.890701,51.915005,15.956303,3.1193717,17.298029,17.040369,-6.0658145,-2.231004,59.785114,2.500761,-0.50984806,-18.555794
84,-0.46116673946380615,85.4208755493164,75.22119140625,-0.4045485695309162,1.9959480010644157,-161.84294071553813,8.392042,-10.93218,8.850159,14.513053,-25.020678,10.0053835,-27.648415,10.946041,-38.355637,32.25334,26.636524,15.000033,-11.087268,-3.4767227,14.45025,-10.722497,15.880701,-10.737667,52.145603,16.03948,3.1910536,17.270306,16.373693,-6.1335845,-1.8103678,59.75847,2.4179952,-0.5321,-18.670433
85,-0.2991917133331299,86.29718780517578,75.21558380126953,-0.3572579948764322,2.0282024357128403,-162.46258908953956,8.077134,-10.259652,9.515778,14.458968,-25.833675,9.54488,-28.034597,9.8075,-39.253326,34.54717,24.76365,15.000033,-10.516899,-3.602487,14.582822,-10.285733,16.019579,-10.546815,52.41596,15.974514,3.2066648,17.20677,15.6473255,-6.257632,-1.3990121,59.802074,2.342056,-0.57701784,-18.790728
86,-0.15708273649215698,87.15284729003906,75.2432861328125,-0.25628716397233564,1.9974131837314992,-162.9954536992165,7.944096,-9.656241,10.110502,14.218322,-26.391567,9.027148,-28.458075,8.517902,-39.635666,37.19524,21.997736,15.000033,-10.047854,-3.7586977,14.744942,-9.759713,16.106457,-10.323486,52.73029,15.827053,3.1922197,17.104937,14.864277,-6.4393287,-0.98574734,59.904915,2.2829785,-0.635619,-18.920355
87,-0.014500324614346027,87.97742462158203,75.29582214355469,-0.14128137437758848,1.931315906573478,-163.47622728295553,7.8883805,-9.06897,10.673162,13.934454,-26.768595,8.47426,-28.869272,7.1706676,-39.6568,39.897934,18.979347,15.000033,-9.650367,-3.9052126,14.934601,-9.176076,16.14985,-10.103099,53.087032,15.597658,3.176222,16.998886,14.036435,-6.6668916,-0.5910247,60.02301,2.2158747,-0.6834616,-19.039381
88,0.11464974284172058,88.7945785522461,75.3775863647461,-0.05675460444754584,1.862961432737621,-163.94556926953572,7.7939687,-8.433196,11.247432,13.764087,-27.043268,7.9043083,-29.24542,5.8451443,-39.47667,42.41156,16.333073,15.000033,-9.285296,-3.9996202,15.144793,-8.570081,16.164185,-9.92634,53.485252,15.284821,3.1873116,16.922922,13.177106,-6.9187694,-0.23873393,60.110607,2.1129699,-0.6961589,-19.129211
89,0.24804848432540894,89.59070587158203,75.47774505615234,-0.005350715229266417,1.792247005871897,-164.4153795291462,7.6322784,-7.7389836,11.85543,13.763052,-27.201313,7.3185267,-29.645847,4.5936217,-38.979927,44.73284,14.18964,15.000033,-8.936929,-4.0481067,15.383432,-7.946906,16.160444,-9.80616,53.92303,14.830657,3.2279274,16.908169,12.275455,-7.1827,0.064736776,60.167038,1.9381053,-0.6469867,-19.183607
90,0.35057446360588074,90.38812255859375,75.6030502319336,0.03598188660119076,1.7043529138675715,-164.8639969673125,7.4523168,-7.0193396,12.466787,13.867699,-27.226727,6.7127104,-30.078846,3.37933,-38.13542,46.970497,12.237994,15.000033,-8.620663,-4.0773096,15.650395,-7.2932105,16.140999,-9.729579,54.401573,14.251804,3.284662,16.928541,11.332073,-7.456954,0.32941797,60.210976,1.7112236,-0.5560382,-19.215534
91,0.4448440372943878,91.16898345947266,75.74178314208984,0.057826044563311904,1.6106600947363103,-165.28436424380092,7.2925014,-6.2786493,13.04323,13.975125,-27.148947,6.095469,-30.446335,2.1332138,-37.22055,49.06575,10.417872,15.000033,-8.338392,-4.0730386,15.924925,-6.619048,16.108137,-9.699645,54.92655,13.659647,3.3626542,16.933386,10.377868,-7.737932,0.552248,60.224686,1.4873499,-0.4688645,-19.236908
92,0.5257024765014648,91.94198608398438,75.89452362060547,0.04755972578925948,1.5206765569752965,-165.6677818611407,7.17362,-5.513204,13.550302,14.022131,-27.023075,5.472133,-30.639923,0.76533395,-36.51861,50.965572,8.655216,15.000033,-8.092187,-4.0188956,16.188242,-5.9367075,16.063457,-9.721734,55.50576,13.16526,3.4683483,16.872517,9.445146,-8.019935,0.72785896,60.18992,1.3202596,-0.43113577,-19.260708
93,0.6030624508857727,92.69518280029297,76.06217193603516,-0.008031934065807685,1.424814887296072,-166.01043461563532,7.1035237,-4.708559,13.973965,14.013894,-26.854671,4.8465185,-30.624746,-0.7497419,-36.07078,52.675262,6.909886,15.000033,-7.88693,-3.9026167,16.451609,-5.2484436,16.00838,-9.805514,56.154385,12.790019,3.6161265,16.726208,8.533909,-8.297757,0.8316232,60.098988,1.2397833,-0.46435955,-19.292425
94,0.6704146265983582,93.433837890625,76.22866821289062,-0.10208867037186434,1.3244019236195985,-166.3271679049647,7.05168,-3.8631527,14.345219,14.006608,-26.635422,4.2125063,-30.45003,-2.3899786,-35.77939,54.223427,5.213207,14.927157,-7.707124,-3.7347562,16.713823,-4.5521736,15.945236,-9.949939,56.86828,12.477529,3.7996123,16.524406,7.6310806,-8.571524,0.87196976,59.964153,1.2099873,-0.54125994,-19.326612
95,0.7231011390686035,94.20909118652344,76.39608764648438,-0.29372208486982393,1.3379044011874326,-166.81496625526023,6.7691493,-2.8313222,14.875015,14.277495,-26.52977,3.5119643,-30.010365,-4.285335,-36.42061,55.49139,3.6554027,12.837384,-7.3656244,-3.46235,16.85739,-3.8482044,15.8818245,-10.13955,57.622887,12.222899,3.993812,16.288486,6.751586,-8.840635,0.89867675,59.794525,1.188221,-0.63375586,-19.359804
96,0.7599921822547913,94.98161315917969,76.56151580810547,-0.4858382301438309,1.3746087651357786,-167.2705248235992,6.509162,-1.8100911,15.363338,14.474574,-26.37272,2.7911494,-29.466295,-6.3141637,-37.226795,56.601788,2.1203377,10.775184,-7.0426493,-3.1823149,16.951206,-3.1404076,15.818773,-10.358709,58.38963,12.017264,4.1738305,16.04122,5.8989205,-9.117521,0.95585704,59.602432,1.1302861,-0.7140884,-19.386278
97,0.7968568205833435,95.73591613769531,76.70820617675781,-0.6857693246614885,1.4459999162789172,-167.68999437673733,6.270383,-0.7961244,15.805429,14.573169,-26.148535,2.038985,-28.770897,-8.547647,-38.344997,57.57677,0.5596244,8.695646,-6.746659,-2.8826663,16.982323,-2.4223857,15.755721,-10.615217,59.175335,11.903283,4.3250046,15.759392,5.0773807,-9.410279,1.0541967,59.375534,1.0362188,-0.77231026,-19.396118
98,0.8060966730117798,96.49329376220703,76.85985565185547,-0.9040165682402117,1.5438231307887675,-168.08091869713823,6.0484805,0.22870788,16.202383,14.607436,-25.870104,1.2595935,-27.91375,-10.940442,-39.755463,58.411774,-1.0461034,6.5814037,-6.475547,-2.5529904,16.963428,-1.6916915,15.691549,-10.9101,59.98644,11.869278,4.462607,15.439204,4.279597,-9.7192,1.1730686,59.113995,0.9276239,-0.82397836,-19.392618
99,0.8115977048873901,97.24661254882812,76.99567413330078,-1.1179349326386092,1.6488363889136612,-168.45008009932891,5.850765,1.2448335,16.567646,14.610618,-25.571539,0.4717217,-26.986647,-13.339326,-41.200985,59.073673,-2.6220412,4.5763555,-6.2186728,-2.2231467,16.914103,-0.95104736,15.62466,-11.211719,60.791782,11.830364,4.606381,15.130992,3.4970124,-10.040223,1.3154608,58.846344,0.7972072,-0.87928784,-19.389908
100,0.7929984331130981,98.00398254394531,77.12078857421875,-1.3043180301820219,1.7422596942792432,-168.8031010433582,5.6828146,2.2305028,16.916035,14.613472,-25.283459,-0.30515856,-26.101727,-15.611267,-42.415707,59.53162,-4.0628343,2.806175,-5.9682426,-1.9243754,16.854168,-0.20155469,15.554462,-11.487807,61.55742,11.700147,4.777708,14.884889,2.7209606,-10.368757,1.4858476,58.6008,0.6368746,-0.94815356,-19.40344
101,0.7730655074119568,98.76344299316406,77.22988891601562,-1.4620891412874792,1.82476146516187,-169.13254740057212,5.545426,3.1814663,17.248133,14.602556,-25.003687,-1.0695962,-25.269615,-17.789803,-43.415955,59.79587,-5.339708,1.2542475,-5.730457,-1.6635009,16.788605,0.5549021,15.480529,-11.744262,62.287025,11.454656,4.9988785,14.723751,1.944098,-10.70282,1.69539,58.381798,0.43701273,-1.0412613,-19.443113
102,0.7400209307670593,99.51361083984375,77.32675170898438,-1.6014836333079272,1.9052503475005649,-169.43856745111106,5.431433,4.108312,17.559147,14.572395,-24.718803,-1.8306472,-24.450891,-19.934195,-44.329826,59.883183,-6.486923,-0.14204384,-5.5068626,-1.4255546,16.707554,1.3216143,15.404084,-11.992961,62.98964,11.1401825,5.2560754,14.618245,1.1731162,-11.044037,1.9380618,58.17423,0.20350476,-1.1503338,-19.500385
103,0.6776366829872131,100.27586364746094,77.40632629394531,-1.7169803263943861,1.978440972407744,-169.7364490943568,5.341424,5.0080075,17.856726,14.545811,-24.437178,-2.5834548,-23.701529,-21.969828,-45.042137,59.77708,-7.471747,-1.344819,-5.2841344,-1.209076,16.61091,2.0989735,15.326051,-12.207911,63.658615,10.778081,5.502684,14.542512,0.4182795,-11.392416,2.1928618,57.977783,-0.047737062,-1.2579592,-19.5618
104,0.6228029727935791,101.03929901123047,77.46145629882812,-1.802625163807663,2.038637762646142,-170.0413900480517,5.2752666,5.8773766,18.14821,14.54472,-24.16414,-3.323104,-23.08212,-23.824903,-45.4266,59.45816,-8.255767,-2.3202922,-5.04984,-1.0132939,16.498297,2.8889236,15.246861,-12.362284,64.28449,10.38993,5.6936445,14.46935,-0.31052893,-11.747515,2.439738,57.792046,-0.3010295,-1.346775,-19.613758
105,0.5486979484558105,101.7974853515625,77.49994659423828,-1.8557197959672735,2.0825258757677365,-170.34919580398758,5.2313623,6.711929,18.432081,14.573784,-23.895674,-4.040306,-22.625828,-25.481615,-45.398155,58.900654,-8.818026,-3.0487046,-4.807207,-0.84027535,16.369514,3.697874,15.164938,-12.457445,64.86502,9.961692,5.8117704,14.391546,-1.012705,-12.111928,2.6796653,57.622185,-0.5730234,-1.4178979,-19.656883
106,0.4471547305583954,102.55855560302734,77.51847839355469,-1.8797778296564989,2.11355535502852,-170.65326883744953,5.207254,7.5141964,18.705805,14.62125,-23.627441,-4.7393446,-22.307436,-26.992292,-45.02639,58.128193,-9.165917,-3.5726836,-4.5619063,-0.68894476,16.226336,4.523532,15.07873,-12.5054245,65.40436,9.488289,5.8826127,14.3225765,-1.692595,-12.486224,2.9208083,57.46532,-0.8650744,-1.478754,-19.696491
107,0.34160858392715454,103.34307098388672,77.52354431152344,-1.878639305907477,2.136581543840843,-170.96489540487465,5.198366,8.292223,18.97408,14.692196,-23.36887,-5.4353447,-22.095993,-28.387709,-44.41273,57.191372,-9.307155,-3.9504497,-4.305434,-0.55536056,16.071121,5.354044,14.989341,-12.495498,65.902336,9.004667,5.9260573,14.266095,-2.3494399,-12.865745,3.1548123,57.31163,-1.1380124,-1.5214516,-19.727125
108,0.22834397852420807,104.11417388916016,77.51055908203125,-1.8557832033514388,2.1564828326373853,-171.29567949016277,5.201901,9.053992,19.242403,14.7908745,-23.129757,-6.143893,-21.963085,-29.697466,-43.659676,56.144283,-9.249996,-4.234517,-4.0286536,-0.43776825,15.9061165,6.177547,14.899258,-12.417554,66.36088,8.544559,5.9593444,14.225827,-2.982323,-13.24195,3.373501,57.151325,-1.3534745,-1.5383871,-19.743181
109,0.09365345537662506,104.8975601196289,77.48129272460938,-1.8054898395144328,2.177157749828892,-171.65821948230268,5.2155604,9.790747,19.52763,14.923282,-22.921732,-6.849567,-21.92351,-30.913864,-42.74217,54.95797,-8.976326,-4.375627,-3.7191641,-0.343439,15.726182,7.00135,14.807866,-12.270552,66.78141,8.120856,5.9755864,14.1975355,-3.5920837,-13.608455,3.5665672,56.97904,-1.4831135,-1.5174747,-19.738583
110,-0.031222227960824966,105.69586944580078,77.43697357177734,-1.7281892847639877,2.195494351177762,-172.04303553045372,5.2393513,10.503663,19.8223,15.088828,-22.736528,-7.549902,-21.985893,-32.023113,-41.61042,53.620785,-8.488888,-4.3734674,-3.3844836,-0.27470306,15.53236,7.8282595,14.714795,-12.060418,67.16429,7.7134447,5.9679666,14.180771,-4.179417,-13.966552,3.7402673,56.802277,-1.5556738,-1.4663023,-19.719355
111,-0.1737704873085022,106.4946060180664,77.37621307373047,-1.6350647974863892,2.2060866894809585,-172.42901782140382,5.2749376,11.212817,20.09628,15.279581,-22.553623,-8.279889,-22.11096,-33.045406,-40.335724,52.211094,-7.8340116,-4.3505216,-3.0453372,-0.22188872,15.335825,8.647975,14.623808,-11.784697,67.49194,7.3087897,5.963001,14.183338,-4.7426257,-14.317456,3.9128888,56.62961,-1.6165532,-1.4070318,-19.697632
112,-0.3311077654361725,107.29529571533203,77.29387664794922,-1.5378065201189135,2.203387313761629,-172.79533175960333,5.3310666,11.935736,20.320675,15.470886,-22.348816,-9.074977,-22.259048,-34.004383,-38.99424,50.810623,-7.0599,-4.4288144,-2.7231984,-0.17478171,15.147856,9.45222,14.541138,-11.440148,67.74412,6.892446,5.9872103,14.212702,-5.2796183,-14.660864,4.1027913,56.468716,-1.711823,-1.3615068,-19.68498
113,-0.49268269538879395,108.11387634277344,77.19564819335938,-1.4356490905302868,2.1819121587274206,-173.13525946851487,5.4177475,12.670662,20.488619,15.653466,-22.11998,-9.9610815,-22.416752,-34.92309,-37.605614,49.42864,-6.1663675,-4.6461606,-2.4240792,-0.13304168,14.973999,10.24643,14.469026,-11.004451,67.9064,6.4385715,6.063124,14.279056,-5.7831087,-14.99606,4.312884,56.3107,-1.8552059,-1.3379507,-19.693762
114,-0.667662501335144,108.9577407836914,77.07864379882812,-1.3222652467452503,2.1463907021505046,-173.46131559835143,5.526574,13.409892,20.616385,15.843558,-21.880915,-10.914114,-22.609331,-35.78745,-36.123577,48.04332,-5.143759,-4.939088,-2.1369867,-0.103109226,14.807824,11.036852,14.406613,-10.484769,67.988014,5.9614773,6.1708403,14.375075,-6.256593,-15.320812,4.535652,56.15465,-2.0211477,-1.3238813,-19.714584
115,-0.8458079099655151,109.81745910644531,76.94170379638672,-1.2021011006004625,2.107111078999009,-173.78072668420168,5.632854,14.164489,20.706772,16.067154,-21.63237,-11.894175,-22.851736,-36.566895,-34.53102,46.68597,-4.021854,-5.2769055,-1.8568592,-0.08664353,14.642845,11.816823,14.35802,-9.919909,68.004906,5.5084267,6.2726574,14.48298,-6.717937,-15.637077,4.7746487,56.024006,-2.1963596,-1.3104647,-19.727118
116,-1.0300769805908203,110.6916275024414,76.787841796875,-1.0812266657615015,2.0738846755616334,-174.09997373503649,5.7088585,14.946743,20.760199,16.354307,-21.37284,-12.859759,-23.150532,-37.226852,-32.816746,45.37705,-2.823198,-5.628721,-1.5784949,-0.08343129,14.473496,12.57942,14.329232,-9.35076,67.97122,5.1257544,6.331602,14.582694,-7.182671,-15.947461,5.0317497,55.939598,-2.3667498,-1.2892123,-19.71
117,-1.218672513961792,111.59012603759766,76.62041473388672,-0.953898672017272,2.042837286999346,-174.42120275668907,5.7595706,15.748231,20.773577,16.709911,-21.136412,-13.7925005,-23.49551,-37.78837,-30.996452,44.093765,-1.4602696,-5.9947467,-1.2975239,-0.100377694,14.301855,13.334836,14.323369,-8.783231,67.87617,4.8164325,6.3412294,14.675313,-7.6543365,-16.256687,5.3050437,55.905407,-2.5427516,-1.2523463,-19.637693
118,-1.3917230367660522,112.5132064819336,76.44129943847656,-0.820384132097473,2.0115348808149247,-174.74132215663673,5.795864,16.566849,20.747524,17.114367,-20.910063,-14.716502,-23.881285,-38.260838,-29.072104,42.84505,0.043070275,-6.3895683,-1.0148823,-0.1339764,14.130333,14.083402,14.339604,-8.199051,67.714516,4.557932,6.3203416,14.767167,-8.121933,-16.565477,5.5922422,55.90777,-2.7259865,-1.2067355,-19.526518
119,-1.5854824781417847,113.44254302978516,76.25971221923828,-0.6513347404280209,2.0047892611681895,-175.0397735239682,5.7745686,17.259766,20.573278,17.48748,-20.59113,-15.000033,-24.346157,-38.650173,-26.990719,41.702248,1.5094953,-6.792388,-0.7487145,-0.20426928,13.943531,14.802917,14.377275,-7.6034684,67.508995,4.358188,6.2705803,14.845968,-8.577209,-16.864273,5.89104,55.937996,-2.8904567,-1.1653241,-19.417875
120,-1.7794145345687866,114.39105224609375,76.08891296386719,-0.36395240836184145,2.060482611731727,-175.2735017360205,5.692326,17.749474,20.283312,17.71667,-20.051477,-15.000033,-24.957659,-39.02699,-24.6718,40.753387,2.7573214,-7.171262,-0.54410017,-0.39909273,13.7092085,15.471525,14.438397,-7.001008,67.28325,4.2261543,6.1934843,14.899768,-9.011557,-17.138765,6.1969194,55.987514,-3.012841,-1.1407356,-19.35556
121,-1.9666569232940674,115.37599182128906,75.91394805908203,-0.07368273201823461,2.1374581316722603,-175.51358830528994,5.54504,18.264122,19.963882,18.02605,-19.388556,-15.000033,-25.673746,-39.216053,-22.113176,40.004593,3.707686,-7.8447084,-0.33824652,-0.60959196,13.46943,16.099539,14.525685,-6.391258,67.02877,4.194018,6.0692587,14.919752,-9.442972,-17.388176,6.5284643,56.07191,-3.0871902,-1.1464171,-19.366732
122,-2.1592800617218018,116.3844223022461,75.73338317871094,0.21876118029043992,2.2298534605102023,-175.75673058060391,5.341276,18.807755,19.620617,18.4142,-18.638351,-15.000033,-26.445572,-39.230846,-19.382767,39.409786,4.47382,-8.727333,-0.13260816,-0.83644634,13.226709,16.69566,14.639791,-5.7713637,66.737564,4.2469664,5.9040546,14.914875,-9.869341,-17.613068,6.879459,56.189774,-3.1280258,-1.1720767,-19.424599
123,-2.3576018810272217,117.43289184570312,75.56280517578125,0.4771750818990624,2.3443484219181085,-175.97225502876185,5.083186,19.428244,19.260176,18.820219,-17.794863,-15.000033,-27.081558,-39.037827,-16.699461,38.850414,5.164619,-9.243129,0.05737202,-1.048279,12.975579,17.2394,14.779661,-5.14078,66.43041,4.3238225,5.7391043,14.900501,-10.259803,-17.804022,7.209839,56.315315,-3.142583,-1.1947849,-19.492819
124,-2.558037757873535,118.52769470214844,75.39627838134766,0.6640159991625081,2.4876767731877867,-176.12877686131267,4.776979,20.170832,18.881481,19.174538,-16.849854,-15.000033,-27.3771,-38.61309,-14.276116,38.184845,5.879271,-8.804531,0.21471469,-1.2140776,12.709145,17.710423,14.945372,-4.4974566,66.127975,4.363148,5.61552,14.892572,-10.584105,-17.947912,7.4780936,56.42465,-3.1405993,-1.191724,-19.536777
125,-2.772979736328125,119.65624237060547,75.23597717285156,0.7629443494722782,2.6529280990134287,-176.23580730922941,4.4337807,21.062784,18.484343,19.501265,-15.814305,-15.000033,-27.305605,-37.905647,-11.974599,37.405056,6.76871,-7.252619,0.3463189,-1.3187602,12.435786,18.106564,15.1353035,-3.828897,65.82999,4.3443356,5.5578623,14.893804,-10.853378,-18.038065,7.680321,56.52372,-3.1218014,-1.145975,-19.556257
126,-2.997799873352051,120.83251190185547,75.08248901367188,0.7931654613245691,2.839072831251117,-176.3023342750554,4.053527,22.073008,18.059515,19.80919,-14.684185,-15.000033,-26.929386,-36.9604,-9.753201,36.556538,7.700406,-4.8858857,0.45400873,-1.3724569,12.153528,18.432816,15.3337145,-3.1443467,65.53856,4.302171,5.5374427,14.90743,-11.082475,-18.081116,7.8318973,56.628838,-3.0899098,-1.0730076,-19.570885
127,-3.2155399322509766,122.0438232421875,74.96399688720703,0.7743891475538617,3.062199114346481,-176.29503460554227,3.6276383,23.153898,17.583458,19.999893,-13.426197,-15.000033,-26.207468,-35.92294,-7.961893,35.567455,8.338105,-1.819773,0.5089921,-1.4286319,11.844666,18.72637,15.606341,-2.4323568,65.21469,4.2576027,5.5223746,14.897108,-11.241761,-18.070234,7.9429274,56.71647,-3.0295043,-1.0006784,-19.564495
128,-3.4449045658111572,123.29279327392578,74.85396575927734,0.7279189754790005,3.336733679777539,-176.1791133652073,3.1430352,24.255499,17.020498,19.984905,-12.0156975,-15.000033,-25.125246,-34.945965,-6.9766603,34.34852,8.362954,1.7998627,0.50112635,-1.4866666,11.483536,18.948467,15.903728,-1.7581706,64.905174,4.227316,5.4827175,14.908853,-11.30381,-18.0025,7.9697065,56.790043,-2.985299,-0.9547352,-19.541603
129,-3.697822332382202,124.60713195800781,74.71614837646484,0.6690137082223927,3.679147065717841,-175.93042862045166,2.6304936,25.365255,16.36319,19.650002,-10.39271,-15.000033,-23.509346,-34.052513,-7.089512,32.58566,7.6264853,6.5632467,0.3944501,-1.56599,11.039519,19.127514,16.242006,-1.1019973,64.59784,4.218766,5.4006953,14.937483,-11.252166,-17.867613,7.9087095,56.829185,-2.9590652,-0.93975425,-19.480589
130,-3.961369037628174,125.9520263671875,74.57465362548828,0.603313055997911,4.076516152299986,-175.56806736711482,2.0838976,26.489302,15.595464,19.086357,-8.612181,-15.000033,-21.508453,-33.20871,-8.176979,30.401499,6.273204,12.211762,0.20537964,-1.6731408,10.533282,19.261354,16.62806,-0.45190078,64.28642,4.2201924,5.2964416,14.976036,-11.106292,-17.662123,7.768633,56.846268,-2.9437923,-0.9426882,-19.391407
131,-4.192473888397217,127.34550476074219,74.48114776611328,0.09522975150688881,4.6593285385644485,-175.3665396197509,1.2629259,28.232832,14.841713,18.670198,-6.7936172,-15.000033,-19.680767,-31.893116,-10.667941,28.187723,4.6306057,15.000033,0.19767344,-1.4067657,9.875178,19.309786,17.044645,0.17645322,63.9782,4.2294483,5.1934285,15.0185175,-10.901849,-17.411297,7.5857534,56.880024,-2.917557,-0.96445596,-19.31054
132,-4.395618438720703,128.7584228515625,74.42747497558594,-0.6240175927526026,5.323937722095993,-175.22869161586692,0.21414441,30.258436,14.0471525,18.395222,-4.9211984,-15.000033,-18.431309,-30.264133,-13.398711,26.58091,2.9251986,15.000033,0.2827686,-0.9685846,9.192633,19.24368,17.46791,0.7713525,63.670174,4.24829,5.115561,15.058574,-10.676453,-17.153381,7.4024835,56.965347,-2.853494,-1.0032927,-19.269356
133,-4.610435485839844,130.1492462158203,74.37470245361328,-0.9907739626136066,5.894378702118792,-174.81161068793074,-0.9003673,31.748049,12.893772,17.972136,-2.835294,-15.000033,-17.781385,-29.126162,-15.375582,26.174923,0.81520224,15.000033,0.15489773,-0.8447483,8.66605,19.040583,17.89017,1.3286092,63.368847,4.2747087,5.0715404,15.103947,-10.418617,-16.910528,7.2180266,57.09639,-2.7269843,-1.07544,-19.283094
134,-4.821032524108887,131.5095977783203,74.3365478515625,-1.146676956643615,6.419379190771408,-174.1820020454567,-2.1493952,32.91217,11.426421,17.501589,-0.60748625,-15.000033,-17.510971,-28.320055,-17.11466,26.60294,-1.7159319,15.000033,-0.12929349,-0.896221,8.235184,18.714079,18.310513,1.8490717,63.076973,4.31123,5.0476775,15.156884,-10.110907,-16.68261,7.0186043,57.24991,-2.5496802,-1.1755296,-19.32638
135,-5.0106658935546875,132.87205505371094,74.30732727050781,-1.2575884288900154,6.868203584361962,-173.46926717236772,-3.568634,34.038406,9.955854,17.323368,1.4811347,-15.000033,-17.459005,-27.619251,-18.722216,27.540009,-4.342693,15.000033,-0.47204247,-0.9810261,7.920067,18.298428,18.719791,2.3356602,62.77837,4.3679,5.0347104,15.201182,-9.785352,-16.470083,6.8291755,57.43677,-2.349983,-1.2674202,-19.369959
136,-5.188788890838623,134.23680114746094,74.2893295288086,-1.4995692296122156,7.214741873738945,-172.81201650808038,-5.1903424,35.425392,8.7806225,17.749031,3.1689265,-15.000033,-17.444271,-26.762934,-20.267801,28.611626,-6.738642,15.000033,-0.7712846,-0.9526221,7.7372465,17.833252,19.102724,2.7953417,62.45149,4.4558873,5.0247464,15.221444,-9.478799,-16.27496,6.679777,57.672043,-2.1556075,-1.3145362,-19.385485
137,-5.371622085571289,135.63438415527344,74.28983306884766,-2.0136899721632893,7.421847434272081,-172.25811923704117,-7.20665,37.31161,7.7488494,19.08465,4.515292,-15.000033,-17.381979,-25.589035,-21.803894,29.816267,-8.857242,15.000033,-0.97646415,-0.69114006,7.7434278,17.304281,19.449903,3.263783,62.078705,4.600131,5.027766,15.205586,-9.211213,-16.102667,6.59802,57.975395,-1.9678171,-1.299703,-19.355228
138,-5.554968357086182,137.03211975097656,74.31420135498047,-2.7194720615690198,7.4969484444711405,-171.75045178467502,-9.538932,39.511745,6.672393,21.026482,5.654877,-15.000033,-17.28831,-24.230852,-23.31667,31.251467,-10.840114,15.000033,-1.1367298,-0.25798345,7.927608,16.708525,19.756556,3.7321517,61.664692,4.7901297,5.047014,15.16724,-8.968883,-15.958979,6.5709095,58.34124,-1.7735842,-1.24402,-19.297747
139,-5.7059550285339355,138.382080078125,74.34271240234375,-2.99308609067103,7.615265363863282,-171.1033146941948,-11.872111,41.16014,6.529711,22.906977,6.4423876,-12.885419,-17.456701,-23.488163,-24.57707,32.98236,-12.738123,15.000033,-1.4559792,-0.20642993,8.082126,16.080559,20.023033,4.1405067,61.250416,4.985773,5.051248,15.131311,-8.728015,-15.834959,6.5646796,58.735,-1.5745718,-1.1691226,-19.242739
140,-5.819647789001465,139.67025756835938,74.3429183959961,-2.9525804114567875,7.804199001263951,-170.40782129714182,-13.676144,42.421097,7.589721,24.232868,6.5764236,-9.993851,-17.799137,-23.104706,-25.63368,34.65297,-14.46739,14.600777,-1.8780904,-0.42141962,8.132435,15.467726,20.245743,4.4245048,60.862747,5.142956,5.0149817,15.121712,-8.471287,-15.725798,6.5414877,59.131668,-1.3790071,-1.0964755,-19.216413
141,-5.929710865020752,140.94300842285156,74.33609008789062,-3.043203589710773,7.939934345614627,-169.888500587522,-14.53784,43.859806,9.59344,24.823385,5.7448454,-8.566741,-18.094168,-22.408636,-26.548044,35.97844,-15.906376,13.526368,-2.2118325,-0.5104541,8.189918,14.904496,20.412342,4.602617,60.471863,5.225304,4.9195614,15.147955,-8.236931,-15.644891,6.529402,59.56735,-1.2131176,-1.0233871,-19.217615
142,-6.035345077514648,142.17422485351562,74.34465026855469,-3.070060788292751,7.981427174057668,-169.4024794532027,-14.5354595,45.186184,12.510012,24.808332,4.2524567,-8.043726,-18.336302,-21.776197,-27.275503,37.24811,-17.176075,12.575655,-2.574181,-0.6404368,8.317604,14.362591,20.501682,4.7009273,60.06645,5.2706194,4.7843075,15.204444,-8.022353,-15.605795,6.54044,60.03802,-1.0628796,-0.9407186,-19.234585
143,-6.141210556030273,143.36129760742188,74.36524963378906,-3.043581533015509,7.965582608589697,-168.93043532867924,-13.977812,46.323006,15.955933,24.56296,2.5914598,-7.992515,-18.475502,-21.184364,-27.934517,38.35552,-18.307285,11.69117,-2.954586,-0.79956144,8.471053,13.810772,20.540264,4.672186,59.702106,5.332146,4.6362014,15.268433,-7.7616515,-15.585488,6.516852,60.479717,-0.8756302,-0.86050606,-19.270887
144,-6.267293453216553,144.52027893066406,74.4109115600586,-2.9866705655980192,7.926317354142367,-168.4578729464891,-13.234536,47.26099,19.486435,24.503426,1.1923224,-7.8993773,-18.462078,-20.583736,-28.643137,39.179638,-19.322132,10.815598,-3.3042998,-0.9609367,8.606671,13.180316,20.56745,4.4198527,59.46389,5.449975,4.5029554,15.324017,-7.3624353,-15.557487,6.359173,60.81603,-0.61083275,-0.7954575,-19.329933
145,-6.399107933044434,145.66026306152344,74.49111938476562,-2.891384839728088,7.853263644352946,-167.96528997139734,-12.357045,48.01087,23.140417,24.732077,0.16811682,-7.6514516,-18.253332,-19.974318,-29.448696,39.670776,-20.21331,9.945229,-3.6425576,-1.119267,8.732706,12.465142,20.570858,3.8909469,59.384598,5.6004553,4.361554,15.401296,-6.7924185,-15.519758,6.0152745,60.992664,-0.2408807,-0.7428378,-19.42947
146,-6.533614635467529,146.77301025390625,74.58939361572266,-2.7535523868289644,7.733207593734701,-167.4670322801409,-11.184279,48.561226,27.101463,25.062275,-0.7153645,-7.472042,-17.893492,-19.366932,-30.286478,39.896915,-20.966766,9.106163,-3.860604,-1.2803245,8.858751,11.563802,20.572714,2.9765658,59.517418,5.733509,4.210247,15.52277,-6.0041037,-15.466019,5.3894014,61.009064,0.15889153,-0.6999709,-19.560606
147,-6.670429706573486,147.8695831298828,74.69794464111328,-2.6122438613027232,7.594514079649866,-167.0035285768446,-9.823766,48.935585,31.072592,25.513727,-1.6103382,-7.3168535,-17.459797,-18.711807,-31.106861,39.903187,-21.590132,8.286736,-4.0780144,-1.4390754,8.970021,10.668998,20.545574,1.9993645,59.67329,5.9671507,4.099844,15.580587,-5.1727414,-15.414123,4.783577,61.021595,0.6183846,-0.67507106,-19.68625
148,-6.810102462768555,148.94187927246094,74.81363677978516,-2.5203638081347792,7.466227944917795,-166.61610455150338,-8.427404,49.21101,34.713833,26.174643,-2.7066095,-7.1562304,-17.026817,-17.951593,-31.864002,39.741398,-22.096798,7.4781237,-4.2334714,-1.5428494,9.045832,9.773847,20.47637,1.0240444,59.805637,6.369508,4.0878754,15.529546,-4.3311515,-15.374304,4.2594824,61.11001,1.0848601,-0.6772894,-19.773485
149,-6.934136390686035,149.97361755371094,74.93879699707031,-2.4839767508114274,7.369345788100706,-166.3207702909562,-6.871929,49.36734,38.1599,26.854694,-3.9386818,-6.989187,-16.598969,-17.05698,-32.559666,39.35611,-22.468346,6.6747704,-4.3179626,-1.5768533,9.063048,8.876105,20.347355,0.06469134,59.91525,7.023814,4.2152042,15.31426,-3.4843433,-15.35796,3.8438146,61.306232,1.6013713,-0.7380062,-19.805147
150,-7.062478542327881,150.98727416992188,75.0740737915039,-2.4808279446107573,7.285839341041568,-166.09392211335506,-5.1848216,49.369858,41.473103,27.590124,-5.2536807,-6.826883,-16.139654,-16.057934,-33.217064,38.738743,-22.705164,5.8849263,-4.3682427,-1.5595704,9.0389595,7.992723,20.1585,-0.9039686,60.012127,7.8771005,4.4391,14.974967,-2.6223774,-15.363878,3.506174,61.568462,2.177756,-0.8419576,-19.8022
151,-7.208506107330322,151.97860717773438,75.21825408935547,-2.4823674263178415,7.199154499409702,-165.8980582381102,-3.5071518,49.142254,44.385986,28.346716,-6.6072655,-6.65142,-15.649531,-15.012724,-33.834057,37.967648,-22.831785,5.115683,-4.41061,-1.5170076,9.001493,7.131821,19.908182,-1.8756505,60.07552,8.798872,4.692263,14.614951,-1.747651,-15.389616,3.2187593,61.855167,2.71088,-0.92763495,-19.790857
152,-7.3372931480407715,152.95362854003906,75.36833953857422,-2.461486636364399,7.092105840942342,-165.69576524626598,-1.9811716,48.634384,46.623817,29.087133,-7.954389,-6.4486537,-15.130417,-13.980233,-34.409798,37.124355,-22.873274,4.3719783,-4.5076804,-1.4962492,8.979946,6.3456984,19.620527,-2.7885344,60.05085,9.661609,4.9090323,14.320609,-0.89651823,-15.420482,3.0057049,62.146755,3.1134992,-0.9344112,-19.798716
153,-7.4790358543396,153.91307067871094,75.52196502685547,-2.4257905407762737,6.960775071863753,-165.4956917846105,-0.61439985,47.878544,48.07161,29.815199,-9.309108,-6.2287254,-14.572427,-12.94411,-34.936375,36.190403,-22.812061,3.6548698,-4.653525,-1.5036098,8.975296,5.6446304,19.306114,-3.6519864,59.91456,10.479565,5.1132426,14.102398,-0.078138255,-15.448494,2.928449,62.457554,3.3410246,-0.81941384,-19.85884
154,-7.620061874389648,154.85794067382812,75.68106842041016,-2.388708314764596,6.813800868006027,-165.31135408186572,0.63058245,46.93785,48.854275,30.563787,-10.693406,-5.996809,-13.972931,-11.877991,-35.422222,35.128834,-22.639135,2.9612145,-4.8281536,-1.5229772,8.974088,5.0094786,18.96539,-4.478959,59.692913,11.303679,5.3268127,13.912546,0.7173662,-15.473212,2.9658945,62.801624,3.4488626,-0.62608016,-19.950384
155,-7.757028102874756,155.7793426513672,75.84757232666016,-2.3331014687397977,6.652352612680724,-165.11216623415265,1.7004232,45.820885,49.07118,31.330885,-12.070599,-5.7312307,-13.348552,-10.829394,-35.89078,34.005497,-22.397867,2.2889407,-5.050567,-1.5583401,8.983261,4.4189844,18.598387,-5.2459817,59.428802,12.056015,5.4866414,13.765251,1.5062789,-15.490757,2.9873552,63.13846,3.4877014,-0.4176973,-20.02187
156,-7.879405975341797,156.69384765625,76.00311279296875,-2.2426507566867775,6.476915523324339,-164.86845927451583,2.5454001,44.534245,48.82409,32.122837,-13.405264,-5.4106984,-12.717253,-9.846328,-36.36533,32.890568,-22.134037,1.6357569,-5.336638,-1.6137255,9.010596,3.848448,18.205946,-5.9331145,59.167583,12.657496,5.530774,13.677418,2.3079016,-15.494203,2.8581579,63.427666,3.5071273,-0.26004532,-20.021664
157,-8.025784492492676,157.59608459472656,76.15906524658203,-2.109361457162626,6.275393369512803,-164.5593298594721,3.1564991,43.075485,48.01982,32.97316,-14.718036,-4.983327,-12.040499,-8.933065,-36.867344,31.745504,-21.842863,1.0078057,-5.7096696,-1.7000561,9.064131,3.304183,17.79077,-6.529416,58.919243,13.051002,5.398077,13.672191,3.1313398,-15.470531,2.506947,63.663036,3.4657447,-0.1662922,-19.901604
158,-8.136391639709473,158.47268676757812,76.31539154052734,-1.9465196929361204,6.04968590702643,-164.2048829399688,3.5993528,41.483475,46.664265,33.902725,-16.028854,-4.4730444,-11.319877,-8.0617485,-37.38299,30.547882,-21.503952,0.40469387,-6.1489286,-1.813446,9.137772,2.787224,17.356682,-7.0549564,58.666,13.288958,5.138612,13.737978,3.969587,-15.415883,2.0097837,63.862545,3.3515966,-0.10387811,-19.701656
159,-8.233205795288086,159.35194396972656,76.45590209960938,-1.7648651560784745,5.822225443010303,-163.8375601948898,3.9515572,39.784904,45.028244,34.843636,-17.284618,-3.9691987,-10.631068,-7.236982,-37.88338,29.384375,-21.134027,-0.18620719,-6.606392,-1.9381802,9.218452,2.2688298,16.905159,-7.533938,58.408413,13.455995,4.8565893,13.838637,4.8188014,-15.341494,1.4557666,64.019485,3.259682,-0.06829598,-19.500334
160,-8.322761535644531,160.20211791992188,76.5862808227539,-1.57527608487351,5.615792009328512,-163.48969985222934,4.2743154,37.988743,43.376564,35.710155,-18.421112,-3.562446,-10.050715,-6.465643,-38.340633,28.345097,-20.75084,-0.78042066,-7.033937,-2.0532172,9.294415,1.7212532,16.433737,-7.9903145,58.14587,13.636207,4.655698,13.937484,5.6768546,-15.266604,0.9335758,64.1246,3.2871683,-0.05403123,-19.374096
161,-8.398967742919922,161.04287719726562,76.70124053955078,-1.363437443867888,5.4340667727913186,-163.14154477136768,4.515304,36.04568,41.642445,36.524536,-19.442488,-3.2103212,-9.591454,-5.7756634,-38.767742,27.449186,-20.360804,-1.3921777,-7.4412045,-2.1642551,9.370416,1.137446,15.931202,-8.410349,57.869015,13.828431,4.5694294,14.031105,6.5601726,-15.199084,0.43967333,64.14582,3.49428,-0.06875993,-19.347836
162,-8.464856147766113,161.87779235839844,76.81017303466797,-1.1314806340393833,5.26476621935411,-162.78568069303572,4.689443,33.970432,39.7509,37.327473,-20.372475,-2.8855076,-9.21483,-5.156025,-39.178516,26.654297,-19.954931,-2.0132291,-7.8495474,-2.2698565,9.450894,0.533676,15.394073,-8.78389,57.58161,13.997409,4.5404897,14.13703,7.4632773,-15.139282,-0.061688863,64.09739,3.8209121,-0.11199937,-19.376776
163,-8.486656188964844,162.669677734375,76.89798736572266,-0.9159561734352606,5.1087248081317,-162.47292960799828,4.9323072,31.84702,37.943954,38.02353,-21.16769,-2.7029216,-8.921161,-4.558388,-39.545883,25.961838,-19.52947,-2.6261525,-8.227254,-2.3368318,9.525456,-0.08246546,14.833228,-9.141923,57.30127,14.174332,4.536371,14.248551,8.353624,-15.096413,-0.5315073,64.03718,4.184336,-0.16548368,-19.431557
164,-8.508316993713379,163.4476318359375,76.96810150146484,-0.7496405737954027,4.967621987453496,-162.25371284256804,5.357062,29.747105,36.45433,38.497417,-21.778042,-2.7791634,-8.713931,-3.9404523,-39.84088,25.382126,-19.085476,-3.2133288,-8.544598,-2.3356051,9.583913,-0.6983704,14.265788,-9.514282,57.039906,14.388252,4.5238404,14.355579,9.198437,-15.082335,-0.92889893,64.02273,4.5030723,-0.21032679,-19.481028
165,-8.524658203125,164.21348571777344,77.02129364013672,-0.6317547000860896,4.845135006593039,-162.14394646342478,5.9688425,27.63975,35.34106,38.705235,-22.167406,-3.142722,-8.607793,-3.3158236,-40.061127,24.941835,-18.620804,-3.7792084,-8.783217,-2.2642477,9.627761,-1.3232406,13.6985235,-9.919318,56.810375,14.639574,4.492162,14.456393,9.996787,-15.108485,-1.2410023,64.06315,4.7826934,-0.25253934,-19.518066
166,-8.523758888244629,164.97882080078125,77.06365966796875,-0.547291658624281,4.740906261234355,-162.11506901607856,6.692993,25.479504,34.471962,38.677696,-22.359312,-3.7334094,-8.597759,-2.703557,-40.223522,24.633001,-18.136713,-4.332198,-8.965278,-2.135878,9.662051,-1.9536681,13.127857,-10.33689,56.595985,14.911875,4.4589844,14.552306,10.762297,-15.17436,-1.4895563,64.13033,5.0603185,-0.298358,-19.55516
167,-8.519254684448242,165.74127197265625,77.0950698852539,-0.502837830965765,4.651391780819223,-162.1520821235781,7.51497,23.300543,33.7858,38.385174,-22.385239,-4.5326056,-8.648432,-2.064405,-40.323532,24.384909,-17.622568,-4.85997,-9.119392,-1.9509798,9.681595,-2.5599597,12.55723,-10.738577,56.36457,15.211509,4.433988,14.6383,11.483421,-15.271163,-1.6853294,64.22607,5.301511,-0.32877865,-19.593428
168,-8.513331413269043,166.4966583251953,77.10884857177734,-0.5042956251816779,4.572908043169903,-162.2399708843093,8.425367,21.141394,33.22308,37.802868,-22.279474,-5.520647,-8.7233305,-1.358242,-40.355457,24.12456,-17.066353,-5.349857,-9.273852,-1.7144976,9.68163,-3.1121244,11.995502,-11.097177,56.082626,15.543312,4.4266877,14.709047,12.148594,-15.386573,-1.8385613,64.35192,5.4705825,-0.32507414,-19.63542
169,-8.513023376464844,167.24461364746094,77.10529327392578,-0.5603372338987165,4.497649841484216,-162.40314720314785,9.500435,19.026337,32.93034,36.876,-22.044542,-6.7321277,-8.81851,-0.5679649,-40.2728,23.85,-16.461233,-5.77939,-9.413052,-1.4215043,9.667542,-3.5990198,11.44829,-11.4194,55.736217,15.935885,4.446307,14.7475605,12.749065,-15.5209465,-1.914598,64.52741,5.542526,-0.2780688,-19.70059
170,-8.496599197387695,167.9884033203125,77.08421325683594,-0.6671505908020132,4.430891565612889,-162.63851032317243,10.703982,16.909698,32.866726,35.59325,-21.660341,-8.158735,-8.948832,0.28670272,-40.096622,23.585253,-15.807881,-6.160703,-9.531866,-1.0728356,9.639335,-4.0359297,10.91733,-11.715548,55.340656,16.376146,4.4851975,14.760533,13.290939,-15.676742,-1.918753,64.746155,5.5410914,-0.19917099,-19.782507
171,-8.472565650939941,168.74256896972656,77.04588317871094,-0.8125141359276374,4.388335372144796,-162.889246983565,11.883093,14.742263,32.705677,34.00314,-21.131008,-9.716669,-9.113633,1.1845262,-39.9217,23.315445,-15.117033,-6.532644,-9.670765,-0.6841763,9.585252,-4.4342003,10.407522,-11.964893,54.90667,16.807951,4.5281763,14.777073,13.7867775,-15.839583,-1.9226733,64.97074,5.5032396,-0.1007853,-19.845331
172,-8.449664115905762,169.50315856933594,76.9947738647461,-0.9843928920245009,4.3853676000610875,-163.09838032053005,12.910248,12.49389,32.131264,32.166435,-20.466038,-11.322335,-9.305567,2.1113238,-39.842793,23.004131,-14.388728,-6.935655,-9.865576,-0.27505744,9.494958,-4.809884,9.927027,-12.151084,54.44768,17.174852,4.560902,14.827531,14.253579,-15.986384,-2.0022392,65.15958,5.462704,0.0043500597,-19.856253
173,-8.42159652709961,170.27264404296875,76.93267822265625,-1.1888282312490845,4.43549337079215,-163.2782966755372,13.834213,10.160634,31.165216,30.037313,-19.679201,-12.988634,-9.539792,3.0742803,-39.86469,22.655825,-13.629405,-7.3810067,-10.108542,0.1533157,9.354451,-5.1532087,9.479546,-12.253513,53.93939,17.450653,4.599226,14.927282,14.687868,-16.103815,-2.179533,65.31402,5.4020596,0.13168593,-19.796057
174,-8.377795219421387,171.04653930664062,76.86239624023438,-1.4393600606131034,4.53070532260749,-163.44451683812562,14.736276,7.786212,29.93156,27.578663,-18.772099,-14.736686,-9.809916,4.0942492,-39.953766,22.257763,-12.82443,-7.8483906,-10.384763,0.6157588,9.173649,-5.4662933,9.067345,-12.293209,53.385044,17.668684,4.6452622,15.058416,15.088964,-16.191545,-2.4181337,65.44765,5.307424,0.28124747,-19.68952
175,-8.305984497070312,171.8184051513672,76.78882598876953,-1.5505410039642886,4.7558908245014795,-163.43813012536805,15.434501,4.989228,28.086557,24.623264,-17.592602,-15.000033,-10.370332,4.7631826,-40.18919,22.251728,-12.16576,-8.289783,-10.818819,0.97649884,8.8591175,-5.7818923,8.69845,-12.317873,52.839916,17.858812,4.6635895,15.201169,15.47409,-16.243795,-2.7049468,65.54138,5.217857,0.41589078,-19.570293
176,-8.228055953979492,172.59239196777344,76.70672607421875,-1.665882162947284,5.015552680017871,-163.28969233323335,16.050316,2.1919062,25.607777,21.459764,-16.222706,-15.000033,-10.978214,5.3879466,-40.577568,22.250305,-11.486515,-8.7309065,-11.35608,1.3489547,8.530837,-6.1344185,8.382651,-12.379455,52.359436,18.049541,4.619647,15.334742,15.868531,-16.252604,-3.031912,65.5687,5.1707697,0.49953616,-19.471325
177,-8.116938591003418,173.37442016601562,76.6126480102539,-1.8606107605703346,5.281150110503571,-163.00551499074777,16.653488,-0.4949445,22.364328,18.13706,-14.669922,-15.000033,-11.535365,6.115978,-41.132988,22.071604,-10.713116,-9.184216,-11.991277,1.8009793,8.236946,-6.52673,8.126535,-12.493979,51.94362,18.249847,4.478677,15.45365,16.277042,-16.209932,-3.428678,65.51886,5.170002,0.5125699,-19.411783
178,-8.018648147583008,174.17686462402344,76.50153350830078,-2.156528411239071,5.559659517946267,-162.6118931000255,17.332912,-3.0093024,18.45559,14.650526,-12.974609,-15.000033,-12.044046,6.9861517,-41.84584,21.684202,-9.829151,-9.654291,-12.708238,2.3486063,7.9742436,-6.9450903,7.9289656,-12.639902,51.566677,18.441334,4.2680717,15.567609,16.691078,-16.113256,-3.8927991,65.40253,5.1956143,0.47780165,-19.370995
179,-7.908014297485352,175.00094604492188,76.36840057373047,-2.5539138506747006,5.821656693643039,-162.1578282380998,18.129383,-5.1957235,14.195962,11.166327,-11.233287,-15.000033,-12.469279,8.028918,-42.67403,21.040537,-8.798645,-10.14253,-13.4462595,2.9724252,7.768256,-7.398562,7.788518,-12.812066,51.24813,18.611452,4.045941,15.679658,17.112957,-15.966096,-4.3657827,65.22781,5.2509074,0.42236617,-19.32251
180,-7.780857563018799,175.84078979492188,76.22358703613281,-3.0220447534746318,6.036674581780736,-161.6958669053865,19.116217,-6.983089,9.914934,7.641908,-9.422411,-15.000033,-12.790278,9.229463,-43.558613,20.145092,-7.6101356,-10.649062,-14.143129,3.6201046,7.6351204,-7.8911996,7.704221,-13.001875,51.004047,18.749182,3.86974,15.791845,17.54297,-15.774275,-4.785199,65.00438,5.3401136,0.3735628,-19.239893
181,-7.648031234741211,176.70069885253906,76.07051849365234,-3.537554716333297,6.19840251675603,-161.20733330936687,18.93072,-8.282507,5.6789665,6.85662,-8.997865,-15.000033,-13.005165,10.556628,-44.505222,19.023684,-6.290942,-11.18565,-14.814625,4.268217,7.5684023,-8.433065,7.6790223,-13.224692,50.862373,18.83965,3.7444115,15.918913,17.989944,-15.538849,-5.1425714,64.72588,5.514649,0.33453166,-19.105518
182,-7.511083602905273,177.58346557617188,75.90406036376953,-4.078146166789099,6.310012770668932,-160.68660064651047,18.488913,-9.469075,1.3350643,6.7655487,-8.870379,-15.000033,-13.123327,11.984908,-45.50473,17.699387,-4.8582144,-11.747385,-15.4762,4.8950453,7.5646014,-9.01621,7.714436,-13.47998,50.805756,18.89209,3.6416688,16.053465,18.448345,-15.258496,-5.4633975,64.39179,5.7566876,0.2927513,-18.936852
183,-7.379080295562744,178.5045928955078,75.73387908935547,-4.574587816165716,6.345199327562144,-160.22071240435886,18.134817,-10.606199,-2.7583375,6.712447,-8.673502,-15.000033,-13.175243,13.411175,-46.451374,16.327116,-3.346134,-12.30441,-16.110865,5.4470615,7.6304307,-9.567263,7.777339,-13.664792,50.75624,18.94166,3.564444,16.159859,18.83307,-15.037221,-5.6739163,64.085915,5.9996605,0.25417218,-18.73499
184,-7.236618518829346,179.44654846191406,75.5641860961914,-5.036522220894859,6.364702059422612,-159.80044356652678,17.741018,-11.568654,-6.275892,6.7831664,-8.403774,-15.000033,-13.226224,14.850304,-47.361,14.85515,-1.6885788,-12.834452,-16.620766,5.89368,7.7301874,-10.144476,7.896752,-13.860382,50.710663,19.00129,3.5287273,16.219614,19.227783,-14.716214,-5.8673363,63.728428,6.0936623,0.21635842,-18.56658
185,-7.074934959411621,180.39759826660156,75.39071655273438,-5.427995567628293,6.344253721121486,-159.4558550132352,17.321665,-12.453162,-9.319516,6.8317904,-7.819591,-15.000033,-13.282017,16.217812,-48.253235,13.411114,0.044143874,-13.336035,-17.048496,6.2422724,7.8634725,-10.703791,8.027475,-13.974427,50.648895,19.098629,3.5455346,16.2024,19.566156,-14.427611,-5.96295,63.389492,6.041133,0.18441166,-18.390242
186,-6.918640613555908,181.3710479736328,75.20897674560547,-5.75060750779079,6.265365642371258,-159.18118788691757,16.913586,-13.268491,-11.990839,6.793003,-6.941259,-15.000033,-13.318396,17.51824,-49.116013,12.013718,1.8265938,-13.826731,-17.379913,6.482724,8.037074,-11.262145,8.176367,-14.044184,50.599236,19.219095,3.6075451,16.133835,19.859608,-14.140793,-5.988881,63.063263,5.886401,0.15187399,-18.206387
187,-6.753105163574219,182.39053344726562,75.05461883544922,-5.978439968431492,6.153063994794185,-158.9830925191991,16.465052,-13.87937,-13.921617,6.7834525,-6.125238,-15.000033,-13.385555,18.71861,-49.827873,10.7087145,3.678094,-14.300521,-17.597025,6.5715933,8.227893,-11.819857,8.368871,-14.092941,50.550823,19.336761,3.6826108,16.055126,20.125893,-13.808962,-5.96863,62.712566,5.663149,0.118807636,-18.058012
188,-6.552734851837158,183.43966674804688,74.94184112548828,-6.034736899347044,5.978760648764829,-158.92757374051948,16.079906,-14.190037,-14.711718,6.6579757,-5.566829,-15.000033,-13.567028,19.614094,-50.213985,9.877102,5.4572854,-14.737432,-17.664253,6.4476805,8.425208,-12.331313,8.574939,-14.098273,50.477665,19.441305,3.7399254,16.01612,20.305857,-13.487983,-5.903706,62.398296,5.4285684,0.08314897,-17.96029
189,-6.377556800842285,184.5264892578125,74.92967224121094,-5.834922439243904,5.780702320436697,-159.08343017272017,15.555497,-14.11216,-13.963392,6.624235,-5.457919,-15.000033,-13.862408,20.141857,-50.259083,9.492315,7.187565,-15.000033,-17.457111,5.8407283,8.612427,-12.76923,9.02887,-14.117851,50.266293,19.521883,3.7806077,15.986991,20.420252,-12.871127,-5.763484,62.047817,5.081414,0.030113598,-18.051775
190,-6.177023410797119,185.6485595703125,74.92796325683594,-5.342066137521358,5.455701617308085,-159.5334153697976,15.065691,-14.113301,-11.943581,6.761529,-5.782856,-12.634045,-14.3713455,19.98483,-49.918327,10.31559,8.485179,-15.000033,-16.918406,4.779893,8.851141,-13.114066,9.682091,-14.141292,49.912914,19.56135,3.8164196,15.950111,20.43695,-12.104672,-5.562835,61.717503,4.6476245,-0.027983254,-18.233528
191,-5.936429977416992,186.72421264648438,74.86421966552734,-4.576190265214973,5.069302698053222,-160.12340035325596,14.78739,-14.963577,-9.562382,7.0124364,-6.4612465,-4.086295,-15.52369,18.751968,-49.230125,13.25294,8.955928,-15.000033,-16.265701,3.506461,9.108009,-13.423978,10.330463,-14.114069,49.52028,19.556383,3.8410485,15.93992,20.343624,-11.4240265,-5.3399854,61.4293,4.2425632,-0.08740187,-18.391542
192,-5.693853378295898,187.814208984375,74.7571792602539,-3.9382415841267173,4.745749008742525,-160.5270919633462,13.195481,-15.702492,-6.945154,10.115758,-8.952222,2.3219934,-16.73766,17.829845,-48.213947,15.681518,9.872026,-15.000033,-15.819088,2.4121149,9.380984,-13.689989,10.973732,-14.064265,49.117065,19.48183,3.8431864,15.967846,20.20235,-10.807252,-5.1081624,61.14525,3.939929,-0.15462713,-18.478878
193,-5.439657211303711,188.90350341796875,74.62149047851562,-3.526543467465196,4.424903050023067,-160.7326701125361,12.257013,-15.78409,-4.451619,12.200091,-11.3322935,5.816891,-18.049278,17.309639,-46.778606,17.7493,11.134381,-15.000033,-15.578805,1.5733249,9.746417,-13.918883,11.615091,-13.991858,48.675045,19.313662,3.8236954,16.043165,20.016556,-10.239844,-4.888337,60.84945,3.7842891,-0.24178663,-18.473928
194,-5.175625801086426,189.96302795410156,74.48963165283203,-3.194663203118563,4.072665639217172,-160.8730520249993,11.976084,-15.435838,-1.8367203,13.287196,-13.598665,7.6784034,-19.470398,17.007704,-44.930702,19.708242,12.632831,-15.000033,-15.405672,0.81936556,10.184841,-14.110095,12.2636,-13.890792,48.198807,19.076921,3.7861009,16.158833,19.776924,-9.706414,-4.6650476,60.55075,3.7242138,-0.3426476,-18.41661
195,-4.908288955688477,191.0195770263672,74.35200500488281,-2.8623656962061816,3.7304615327190427,-161.03293904754767,12.045851,-14.963086,0.6560035,13.730077,-15.671691,8.642478,-20.836317,16.942785,-42.838722,21.204945,14.556119,-15.000033,-15.218678,0.07760759,10.620315,-14.248741,12.91458,-13.783369,47.74657,18.807209,3.7242732,16.304775,19.49139,-9.208383,-4.4172487,60.26909,3.686319,-0.4417262,-18.341482
196,-4.633406162261963,192.02671813964844,74.2330551147461,-2.4594825801138613,3.3944006478835296,-161.15822958339518,12.248161,-14.647182,2.61923,13.820748,-17.443052,9.477909,-22.06551,17.047184,-40.15466,22.153563,16.875988,-13.153694,-15.064877,-0.70615584,11.033486,-14.3271,13.549595,-13.687384,47.38253,18.54046,3.632823,16.474072,19.159286,-8.762542,-4.1292553,60.02863,3.5972798,-0.5225369,-18.280313
197,-4.377270698547363,193.01220703125,74.1318359375,-1.9705108029362184,3.0650394405509966,-161.27783641460186,12.583191,-14.538211,3.9823825,13.462427,-18.829288,10.201505,-23.19969,17.525541,-36.258675,22.407125,19.619986,-8.813298,-14.919735,-1.542341,11.41386,-14.347645,14.162238,-13.605787,47.12405,18.260963,3.482093,16.689621,18.772041,-8.375111,-3.795871,59.847534,3.434958,-0.57648957,-18.235455
198,-4.137040138244629,194.0037078857422,74.03984069824219,-1.4630156592376768,2.73003862676361,-161.39335999696667,13.1161375,-14.473344,4.9888597,12.625328,-19.91383,10.463292,-24.182194,18.458786,-31.29859,22.14208,22.353586,-2.685038,-14.783398,-2.370444,11.7954,-14.312852,14.75282,-13.524656,46.941246,17.96065,3.28376,16.948717,18.329145,-8.04586,-3.42776,59.712173,3.240185,-0.61381614,-18.191225
199,-3.9103686809539795,194.98001098632812,73.9417724609375,-1.0054180360973746,2.422412925065866,-161.52603721216417,13.632835,-14.369907,5.7624726,11.712291,-20.876085,10.493077,-24.855919,19.604214,-26.178238,21.681362,24.50171,4.433937,-14.63615,-3.1137187,12.165014,-14.211466,15.307658,-13.428,46.83148,17.69026,3.095035,17.206663,17.84384,-7.7814994,-3.023748,59.60389,3.0380642,-0.6458335,-18.150518
200,-3.6727380752563477,195.9311981201172,73.85234069824219,-0.6461638513752193,2.1812592553353958,-161.70498396196209,13.919652,-14.169348,6.4224796,11.112634,-21.895327,10.524933,-25.214424,20.602869,-21.925861,21.361462,25.838846,11.609316,-14.450835,-3.7105546,12.497063,-14.038444,15.805373,-13.300834,46.8002,17.501715,2.9738314,17.421177,17.330013,-7.5950003,-2.585298,59.50476,2.854233,-0.68379253,-18.11577
201,-3.4555277824401855,196.89544677734375,73.76306915283203,-0.44111756664436524,2.0571555682444225,-162.08720827054148,13.695927,-13.758418,7.105635,11.272107,-23.255316,10.564748,-24.864668,21.109581,-20.645306,20.512163,27.216082,15.000033,-14.088279,-4.1075263,12.741321,-13.790423,16.23493,-13.140066,46.86366,17.459797,2.949848,17.593775,16.808104,-7.4897213,-2.1091268,59.395805,2.6820292,-0.7261879,-18.063288
202,-3.2687861919403076,197.8824005126953,73.64525604248047,-0.42937445437828264,2.0954962346407005,-162.9021044718435,12.826627,-13.047551,8.063137,12.319605,-25.053434,10.444308,-23.899464,21.306084,-22.063194,18.869776,29.292877,15.000033,-13.319543,-4.274424,12.848692,-13.471001,16.608025,-12.954116,47.030617,17.526487,2.9876602,17.73984,16.286806,-7.4526196,-1.5868083,59.284645,2.515721,-0.76817554,-18.001165
203,-3.0951147079467773,198.8313751220703,73.55397033691406,-0.47190087747429005,2.241660460997356,-163.7973804456638,11.783441,-12.262356,8.999787,13.455863,-26.74491,10.239531,-23.822853,20.980207,-24.234472,19.166199,30.000067,15.000033,-12.483898,-4.3187604,12.868366,-13.096757,16.914227,-12.738151,47.281788,17.59217,3.048386,17.84765,15.710413,-7.4869595,-1.0255761,59.217216,2.3808272,-0.8161601,-17.974342
204,-2.918792963027954,199.74354553222656,73.541748046875,-0.5621027087186558,2.4022574254794624,-164.67350354619987,10.822798,-11.40595,9.935933,14.413667,-28.122887,9.924925,-24.043892,20.441708,-26.103584,20.157507,30.000067,15.000033,-11.672077,-4.288585,12.888342,-12.673388,17.14887,-12.490085,47.60954,17.555485,3.092042,17.90057,15.063964,-7.590177,-0.41849053,59.222218,2.308106,-0.87605613,-18.029026
205,-2.748863697052002,200.6041259765625,73.59355926513672,-0.6601042144157847,2.5065923793324103,-165.43936978177254,10.124038,-10.538101,10.779056,15.006537,-29.064642,9.499536,-24.05237,19.885511,-27.21583,20.896986,29.66026,15.000033,-10.956999,-4.247638,12.959664,-12.197834,17.301455,-12.194786,48.02056,17.375471,3.106842,17.88592,14.34925,-7.767698,0.28552032,59.316353,2.337079,-0.9579312,-18.221786
206,-2.5962297916412354,201.41241455078125,73.67587280273438,-0.6903726457357813,2.5636430737634712,-166.10352375893692,9.650732,-9.779485,11.470296,15.288587,-29.653616,9.016881,-25.072508,18.591547,-28.195826,24.359072,26.561123,15.000033,-10.327752,-4.2225127,13.053978,-11.667831,17.370026,-11.859017,48.520542,17.113722,3.1147854,17.814339,13.581343,-8.020745,1.0724088,59.476192,2.443669,-1.0562372,-18.511631
207,-2.4579107761383057,202.19781494140625,73.79536437988281,-0.6757176044035992,2.582950199602964,-166.71266271670405,9.329918,-9.087304,12.082333,15.371614,-29.96842,8.48804,-26.044556,17.099436,-28.909857,28.027542,23.012451,15.000033,-9.765127,-4.2106056,13.176605,-11.089244,17.371267,-11.519202,49.095516,16.820763,3.1267965,17.703043,12.774299,-8.327991,1.848207,59.66268,2.5587296,-1.1526204,-18.801401
208,-2.3127241134643555,202.9693145751953,73.93331909179688,-0.6647078519397853,2.5847103528540343,-167.33130173986928,9.050994,-8.385913,12.70713,15.43616,-30.127495,7.9207087,-26.771381,15.598868,-29.483196,31.253271,19.898094,15.000033,-9.220911,-4.171618,13.329357,-10.475177,17.33246,-11.221895,49.731903,16.542711,3.1542668,17.570532,11.943285,-8.657331,2.510958,59.83524,2.607431,-1.2279274,-18.998035
209,-2.1744706630706787,203.72686767578125,74.09010314941406,-0.679242675703131,2.565873289111858,-167.9978804334445,8.770091,-7.6381884,13.389467,15.574238,-30.14576,7.3073483,-27.246758,14.09391,-29.996605,34.042282,17.290226,15.000033,-8.649735,-4.0996127,13.529364,-9.830662,17.27005,-10.983074,50.434887,16.289375,3.1955395,17.420631,11.079383,-8.990355,3.0378106,59.99735,2.5444467,-1.2676339,-19.075565
210,-2.0516133308410645,204.46835327148438,74.27854919433594,-0.6984322606768145,2.5149646757328172,-168.67312125576422,8.547212,-6.882487,14.074078,15.690071,-29.976217,6.6496916,-27.574846,12.504829,-30.385567,36.696377,14.768887,15.000033,-8.074708,-4.017852,13.776519,-9.1537485,17.186077,-10.79227,51.206852,16.030449,3.2473843,17.242918,10.182042,-9.324726,3.4757798,60.165302,2.4102511,-1.2855302,-19.088888
211,-1.9525574445724487,205.21192932128906,74.49400329589844,-0.7321128674821019,2.4494848287957156,-169.31907792185066,8.380326,-6.110561,14.720239,15.763444,-29.683317,5.958266,-27.80209,10.922686,-30.558573,39.116467,12.372835,15.000033,-7.53792,-3.9073772,14.039371,-8.44361,17.086704,-10.652297,52.02693,15.754428,3.3186584,17.035772,9.276133,-9.653013,3.8277462,60.32024,2.2590506,-1.3045784,-19.067625
212,-1.8726236820220947,205.95074462890625,74.72313690185547,-0.791183419095136,2.390358665323664,-169.90121260213434,8.270947,-5.315449,15.291505,15.753656,-29.31878,5.242749,-27.99017,9.439246,-30.436127,41.214195,10.157159,15.000033,-7.075307,-3.7509036,14.283098,-7.702952,16.980387,-10.570047,52.8774,15.448801,3.4185085,16.798052,8.388525,-9.965454,4.091456,60.44266,2.1423576,-1.3479562,-19.042276
213,-1.81027352809906,206.67601013183594,74.96056365966797,-0.8932868395736391,2.337742828232314,-170.41724190945203,8.216057,-4.4743314,15.78349,15.670671,-28.887629,4.489353,-28.21268,8.161454,-29.850832,42.983257,8.106844,15.000033,-6.6956224,-3.5306609,14.505036,-6.923526,16.873669,-10.5536,53.77057,15.084298,3.550349,16.516474,7.5189657,-10.25281,4.2443733,60.53793,2.0710735,-1.4349982,-19.025093
214,-1.7615423202514648,207.39149475097656,75.20287322998047,-1.02918472475959,2.2878604486021326,-170.8900394318155,8.205951,-3.6007082,16.219536,15.524539,-28.361063,3.700984,-28.457668,7.0154276,-28.917055,44.51004,6.203268,15.000033,-6.370905,-3.2643797,14.712571,-6.1100492,16.769972,-10.602488,54.712986,14.67416,3.7106948,16.196688,6.6525126,-10.515878,4.2927423,60.619198,2.0155442,-1.5494289,-19.001139
215,-1.7178922891616821,208.09536743164062,75.4501724243164,-1.172412255013451,2.254620065747674,-171.3221301234825,8.210332,-2.7304084,16.607515,15.327478,-27.769522,2.9090073,-28.658703,5.820751,-27.966106,45.85276,4.4800854,15.000033,-6.085939,-2.9856274,14.889088,-5.279054,16.672115,-10.703795,55.673885,14.271977,3.8969357,15.86513,5.793893,-10.762085,4.280406,60.676086,1.9682814,-1.660571,-18.958725
216,-1.6741005182266235,208.7806396484375,75.69264221191406,-1.2981482191173563,2.2465088778412814,-171.71071939681894,8.208049,-1.8951149,16.950985,15.093078,-27.14747,2.142104,-28.73593,4.389683,-27.325132,47.054,2.951246,15.000033,-5.8323793,-2.7257595,15.0257635,-4.4437203,16.582905,-10.841989,56.619106,13.930399,4.105252,15.547587,4.9476733,-11.002599,4.2542286,60.695778,1.9245602,-1.7374887,-18.884827
217,-1.6600462198257446,209.49436950683594,75.9380874633789,-1.4115217357617962,2.268966245712512,-172.05783122262207,8.202734,-1.088919,17.254156,14.806355,-26.485537,1.3962559,-28.650433,2.6470625,-27.131615,48.1029,1.6118162,15.000033,-5.616817,-2.480165,15.122195,-3.5972834,16.505415,-11.021035,57.547703,13.698615,4.3478746,15.223731,4.110428,-11.24064,4.182656,60.658764,1.8902231,-1.7495627,-18.730253
218,-1.6601223945617676,210.1844482421875,76.16769409179688,-1.523263874689657,2.3097794287822304,-172.3586545678831,8.20859,-0.2945324,17.507725,14.475862,-25.7811,0.65667236,-28.44453,0.6892955,-27.20594,48.99287,0.4162919,15.000033,-5.4470854,-2.2360644,15.18979,-2.7330513,16.440468,-11.243787,58.472626,13.5368,4.621536,14.887701,3.2802594,-11.4760065,4.056691,60.57693,1.8668789,-1.7205867,-18.515644
219,-1.6663762331008911,210.8785858154297,76.38286590576172,-1.6173464448368207,2.3478793147906836,-172.5978811870725,8.2343645,0.4691603,17.693884,14.127238,-25.067112,-0.063815385,-28.154003,-1.4161521,-27.397411,49.761642,-0.6855204,15.000033,-5.3230104,-2.010695,15.242358,-1.8577567,16.385427,-11.486022,59.373985,13.3642845,4.8977237,14.584779,2.4665382,-11.715582,3.9607232,60.48068,1.8455988,-1.7007885,-18.33211
220,-1.6426103115081787,211.58607482910156,76.565185546875,-1.788539654486784,2.440591763444427,-172.9361821380659,8.066396,1.3978095,17.962006,14.12921,-24.551903,-0.80920106,-27.800713,-3.5156357,-27.987627,50.285976,-1.6196781,13.597101,-5.0859113,-1.7221217,15.223669,-0.9718572,16.339878,-11.716093,60.228046,13.102792,5.1478376,14.359551,1.6782066,-11.967935,3.9876704,60.39968,1.8214805,-1.7403908,-18.2708
221,-1.6660243272781372,212.31686401367188,76.74958801269531,-1.9700697228087707,2.538667492217061,-173.23404148355408,7.8424845,2.3554084,18.175982,14.255843,-24.113602,-1.5232921,-27.399494,-5.7101483,-28.785992,50.713985,-2.499371,11.481051,-4.8727264,-1.4288936,15.179297,-0.06564014,16.299406,-11.946884,61.033783,12.7045965,5.36243,14.2420225,0.9105203,-12.242923,4.202786,60.3562,1.8070618,-1.8798327,-18.394861
222,-1.687354564666748,213.04922485351562,76.9167251586914,-2.141615918884479,2.633715983323017,-173.46221821278513,7.6145935,3.297526,18.309307,14.410768,-23.694267,-2.2039833,-26.956196,-8.004252,-29.661077,51.064278,-3.3528178,9.308675,-4.7182207,-1.1423978,15.120925,0.86415035,16.261196,-12.1793995,61.79734,12.222224,5.556411,14.202178,0.15821916,-12.542845,4.5502586,60.32839,1.8041416,-2.0829892,-18.640448
223,-1.7099566459655762,213.77537536621094,77.05589294433594,-2.2924753209319237,2.726892593002547,-173.657481412889,7.399022,4.212797,18.39705,14.56585,-23.292116,-2.883582,-26.522354,-10.256603,-30.41506,51.2804,-4.163822,7.2706165,-4.584109,-0.8701629,15.050475,1.8057342,16.222563,-12.368192,62.501556,11.72364,5.737526,14.195119,-0.57297456,-12.862785,4.935562,60.279686,1.7897934,-2.2854686,-18.906506
224,-1.7536239624023438,214.5093994140625,77.17240905761719,-2.411226081143103,2.8195615139749113,-173.857053121457,7.2089405,5.089045,18.47548,14.695843,-22.903019,-3.5928397,-26.16243,-12.330475,-30.839573,51.30665,-4.886788,5.5528216,-4.430715,-0.62453175,14.968173,2.7474508,16.181356,-12.46837,63.128635,11.277435,5.915586,14.1753845,-1.2781717,-13.198535,5.2632747,60.17624,1.7397695,-2.4229176,-19.094336
225,-1.7650071382522583,215.21258544921875,77.26334381103516,-2.4936018044545913,2.9188345387409433,-174.0613048357401,7.032998,5.9188538,18.550869,14.795989,-22.5228,-4.329893,-25.92111,-14.200038,-30.83718,51.12296,-5.4810643,4.217997,-4.251885,-0.410095,14.868191,3.6869004,16.132858,-12.48202,63.66914,10.907914,6.10946,14.138873,-1.9553217,-13.550416,5.514281,59.99556,1.6419495,-2.4703534,-19.182796
226,-1.8233869075775146,215.9695587158203,77.34994506835938,-2.546069876039231,3.0224390619958843,-174.25394692560548,6.862787,6.708879,18.607952,14.880572,-22.151064,-5.079561,-25.774529,-15.939372,-30.52759,50.75898,-5.9448667,3.1521697,-4.0637445,-0.21997437,14.751929,4.6257796,16.075373,-12.432515,64.138504,10.576613,6.3087316,14.107995,-2.6051648,-13.920233,5.7333264,59.7594,1.5093585,-2.4647825,-19.223623
227,-1.8926836252212524,216.7205352783203,77.40084075927734,-2.5718055437176472,3.117775147044641,-174.44766518990318,6.7151484,7.4685683,18.651005,14.957021,-21.792213,-5.85281,-25.686804,-17.566195,-30.020151,50.23944,-6.2873487,2.2733307,-3.862332,-0.05150741,14.6307745,5.5600953,16.012344,-12.3066,64.55447,10.255928,6.4785905,14.075616,-3.2271645,-14.303792,5.9231977,59.49921,1.3577406,-2.4345536,-19.227554
228,-1.9592126607894897,217.47119140625,77.4237060546875,-2.5745177745066576,3.192063110537132,-174.65516461672294,6.6105976,8.207442,18.684958,15.028784,-21.449541,-6.661101,-25.613636,-19.098242,-29.42737,49.5892,-6.5237193,1.5020767,-3.6430938,0.09565815,14.516074,6.488465,15.950791,-12.08977,64.93148,9.918271,6.584808,14.033898,-3.8205912,-14.693717,6.0846324,59.246845,1.199676,-2.4082723,-19.205627
229,-2.0313801765441895,218.2268829345703,77.42515563964844,-2.552512761856077,3.2417092150296853,-174.88698315172877,6.5627446,8.9228735,18.71801,15.0859165,-21.126947,-7.515657,-25.550371,-20.539658,-28.738655,48.809834,-6.678156,0.843086,-3.398184,0.21684384,14.414949,7.424374,15.891957,-11.756594,65.26357,9.559352,6.594704,13.97436,-4.3874054,-15.083635,6.193587,58.996902,1.0229701,-2.3873222,-19.142687
230,-2.101799488067627,219.00062561035156,77.41815185546875,-2.5041472084616534,3.274058194190855,-175.1339145647589,6.5561395,9.612563,18.74776,15.132519,-20.820187,-8.407223,-25.515587,-21.88392,-27.904413,47.892673,-6.7287526,0.32303804,-3.132536,0.30854365,14.320533,8.367946,15.834488,-11.320446,65.54219,9.192743,6.5347753,13.90135,-4.9288154,-15.473272,6.257739,58.739296,0.8239753,-2.359217,-19.040491
231,-2.1825876235961914,219.78256225585938,77.3781967163086,-2.43255276914956,3.292094762766218,-175.37918850756546,6.5686007,10.286607,18.762333,15.194189,-20.523909,-9.31787,-25.49905,-23.139137,-26.978264,46.863167,-6.6333976,-0.10329199,-2.8599088,0.37405828,14.224505,9.297444,15.78326,-10.826387,65.777245,8.814955,6.4588137,13.825852,-5.445088,-15.8643055,6.328746,58.498688,0.6318515,-2.3312876,-18.93456
232,-2.289219379425049,220.5594024658203,77.31623840332031,-2.340265729540225,3.299154874504475,-175.6073275710143,6.5758176,10.956305,18.749662,15.307816,-20.243174,-10.231776,-25.489962,-24.315697,-26.012917,45.754673,-6.3567386,-0.48314166,-2.5925727,0.41622126,14.1193495,10.191538,15.7466345,-10.319115,65.978935,8.421472,6.418366,13.759079,-5.935831,-16.256552,6.4589667,58.29754,0.47772902,-2.310591,-18.859756
233,-2.405278205871582,221.36997985839844,77.2354507446289,-2.2234039905366805,3.2934509305482815,-175.8116506339122,6.5847516,11.612946,18.70476,15.464608,-19.983822,-11.1491,-25.469212,-25.424995,-25.015253,44.538315,-5.8611283,-0.7820016,-2.3343031,0.43010023,14.002634,11.05888,15.728926,-9.783769,66.12723,7.993119,6.449666,13.695638,-6.3947153,-16.651358,6.6709485,58.13268,0.385856,-2.3005686,-18.841167
234,-2.514106512069702,222.18263244628906,77.14613342285156,-2.081894792941104,3.274860772660679,-176.00163118693348,6.6060324,12.254421,18.636003,15.651871,-19.744892,-12.078574,-25.438396,-26.468142,-23.954994,43.22263,-5.179765,-0.9987389,-2.078868,0.41502714,13.879943,11.909434,15.728796,-9.203722,66.22138,7.537744,6.5163307,13.631456,-6.8237357,-17.046953,6.9351845,57.993015,0.33572114,-2.2968376,-18.854181
235,-2.6361374855041504,223.00982666015625,77.03797912597656,-1.9276273616182922,3.248717175331453,-176.18252144097147,6.63109,12.899115,18.550943,15.86881,-19.50915,-13.016847,-25.415716,-27.439829,-22.840164,41.89242,-4.3838325,-1.230679,-1.8255067,0.3823593,13.75468,12.729958,15.749444,-8.621662,66.28639,7.092591,6.570351,13.579776,-7.236676,-17.440321,7.223962,57.89218,0.2887677,-2.2941563,-18.860075
236,-2.7714035511016846,223.84483337402344,76.91616821289062,-1.772443508492638,3.2207970765024285,-176.35969939943777,6.6616096,13.5606785,18.45586,16.087698,-19.245947,-13.957547,-25.424017,-28.327318,-21.677864,40.62505,-3.5363777,-1.5701702,-1.5710121,0.3437092,13.630694,13.505511,15.796511,-8.082639,66.34668,6.6938205,6.5634317,13.552363,-7.643835,-17.827066,7.5049644,57.8409,0.20537566,-2.2874634,-18.819378
237,-2.9173386096954346,224.71432495117188,76.78656005859375,-1.6067069257950344,3.1822386174635353,-176.535084827724,6.709212,14.225934,18.352598,16.312046,-18.962095,-14.908118,-25.466223,-29.12385,-20.419708,39.38419,-2.5967855,-2.0194602,-1.3116282,0.2897675,13.515365,14.239411,15.875705,-7.6013813,66.40876,6.3387556,6.4526443,13.558358,-8.049027,-18.204657,7.7449822,57.846405,0.051936537,-2.2758706,-18.68608
238,-3.0535888671875,225.5990753173828,76.64763641357422,-1.3311325965621805,3.1616383835748136,-176.666724894266,6.759113,14.621669,18.098774,16.384256,-18.584919,-15.000033,-25.612007,-29.974478,-19.012701,38.207886,-1.5628155,-2.5097055,-1.0804769,0.13131301,13.3792715,14.935847,15.99046,-7.156419,66.45859,6.010314,6.273476,13.587418,-8.441462,-18.573175,7.962282,57.897537,-0.14456154,-2.2626834,-18.492727
239,-3.1845853328704834,226.4970245361328,76.49837493896484,-0.9841670707180213,3.173051901798683,-176.76068921399732,6.7992196,14.918727,17.806404,16.360928,-18.117674,-15.000033,-25.861517,-30.859995,-17.568722,37.20675,-0.5485442,-3.0760682,-0.8737472,-0.10814837,13.2140665,15.583427,16.140762,-6.736337,66.48805,5.7236915,6.094958,13.621824,-8.812783,-18.932314,8.205477,57.980217,-0.3310388,-2.2489023,-18.317757
